0.00799893
-0.15416421
-0.04303194
0.14243232
-0.03624107
-0.18179597
0.11437897
0.08960519
0.08668949
0.19447441
0.19072981
0.13364989
0.04713948
-0.02430886
0.02899420
-0.17386861
-0.21181355
-0.09186043
-0.19831657
-0.11368861
0.05562643
0.07642564
0.00247499
0.12211229
0.12802166
0.19583532
0.15647008
0.04222078
0.10658389
0.03738987
0.16450191
0.17596318
0.00316053
0.05124146
-0.16074687
-0.06632157
-0.09785145
0.06870412
0.06758961
-0.13232557
0.00498267
-0.10607847
-0.08739644
-0.10582136
-0.02056950
-0.12643561
-0.14297082
-0.26364788
-0.05213005
0.11111045
0.08867352
0.17056495
-0.04211319
0.19275230
0.16095725
0.17870912
-0.22536440
0.04120527
0.11195896
-0.22265966
0.08985331
0.00429052
-0.16773206
0.16686028
0.15519245
0.04374053
0.04516665
0.13150024
0.05355120
0.13740294
0.04678137
-0.17666095
-0.20030034
-0.18167406
-0.17334059
-0.07364435
-0.02348883
0.03604330
0.15004598
0.04678969
-0.07796610
0.11412057
0.05106261
0.08290076
-0.02246499
-0.00947706
0.09143416
-0.15628070
-0.03403150
-0.05210976
0.24121419
0.03728955
-0.10639472
-0.09425859
0.01063643
-0.12947816
-0.10992923
-0.17596479
-0.13958330
0.03738767
0.08969287
0.18033023
0.02663737
0.04162831
-0.09088709
-0.30922693
-0.21966629
-0.23552985
0.04532767
0.05045689
-0.01836641
0.08432911
0.13533705
0.15025580
-0.03728025
0.04265292
0.13124061
-0.08018415
-0.28227118
-0.11548682
0.09143807
0.03279861
0.00973108
0.17102395
0.12204899
0.10027152
-0.05501236
-0.16488028
-0.06322350
0.09364244
0.07783154
0.17265029
-0.04151471
0.03306034
-0.00423981
-0.00464451
-0.10338261
0.09931444
0.10834000
0.13330893
0.16596584
0.09862282
0.01151328
-0.18061012
-0.15876003
0.04402495
0.05776805
-0.11637814
0.06154170
-0.13184600
-0.12563092
-0.21195401
-0.20743276
-0.00521456
-0.03600803
-0.09996356
0.02648763
0.04527337
-0.01845895
0.02747519
0.10046090
0.05006974
-0.05275698
-0.19307037
-0.23360445
-0.22321129
-0.13807763
-0.10587948
-0.13400774
0.12313831
0.17947395
0.00517132
0.00249198
-0.14209367
0.00629920
-0.03260428
-0.03876054
-0.10879223
-0.13285786
-0.00551998
0.22690637
0.19993693
0.04423626
0.02107957
-0.06049628
-0.15563026
0.12787423
0.07858792
-0.30272236
0.03450055
-0.10649913
-0.09464503
-0.05705148
-0.19650617
-0.20129387
0.02898404
-0.02860281
-0.03694371
-0.27538472
-0.15650587
0.19288531
-0.12888759
0.07268561
0.11894395
-0.12260350
0.21719617
-0.00629297
-0.20937848
-0.22020777
-0.25174755
0.12617923
-0.05835654
-0.08348627
0.21585687
0.13525918
0.16117355
0.02133054
0.01053911
-0.02564664
0.22967458
0.06205107
-0.05074707
0.15336579
-0.03778309
-0.18089420
0.05545480
-0.06982496
0.06911401
-0.02222698
0.12271068
0.10634650
0.06367958
0.14545755
0.11994497
0.04385440
0.02506167
0.06676566
0.02582902
0.04992253
0.20253310
-0.22057852
-0.01740404
0.03566084
0.01964007
-0.11697949
0.14683986
-0.02228975
0.00119428
-0.13279015
-0.06872994
-0.13849810
-0.11074813
0.03047362
-0.07788182
0.00961370
0.18852615
0.01497602
-0.17059332
0.12091739
-0.01302528
-0.03352002
0.20640366
0.02942410
-0.05926767
0.14981261
-0.12181775
-0.20516546
-0.01979979
-0.18641050
-0.09154724
-0.10151472
-0.01326664
0.04193821
0.13206388
-0.15139735
-0.13929377
0.01782953
0.12332942
0.04895855
0.06061469
0.25096542
0.13608749
0.11700431
-0.08470368
-0.07817805
-0.33111146
-0.14893605
-0.20264962
