-0.04108810
0.00336654
-0.03359048
0.01318857
-0.02885787
0.02402459
-0.08463304
0.05161531
0.05574860
0.07894785
0.14087570
0.11998924
-0.09211858
0.13090336
0.01053976
-0.12529679
-0.05527452
0.07374004
0.00457442
-0.00857269
-0.10650341
-0.12575941
-0.03509217
-0.04255174
-0.04751316
0.00930811
-0.03149846
0.05732121
0.06958191
-0.04802470
-0.15307280
-0.01473912
-0.05519118
-0.03115507
-0.04188561
-0.02440394
0.00582962
-0.09587391
0.01517897
0.16776754
0.01388155
0.07899239
0.08167533
0.01219346
-0.07915956
-0.10258339
-0.10913388
-0.19772674
0.04102005
-0.00843461
0.17228234
0.11874472
0.00309094
-0.07111306
0.01650286
0.03798480
0.01444166
-0.16335298
-0.07003545
-0.13627872
-0.13929434
-0.22893108
-0.03149479
0.02046470
-0.06441317
0.01993708
-0.13778907
0.02356627
-0.16509181
0.02863356
0.04983670
0.01268498
-0.06425996
-0.09083573
-0.03998996
0.09382267
0.08415568
0.17784205
0.07907261
0.06142308
0.04788350
0.00424324
0.11931307
0.09362767
-0.03541058
0.06109969
-0.03621485
-0.02885428
0.08593766
0.10939392
0.02630126
0.12598063
0.06554616
0.17509030
0.06590922
-0.01611192
0.00154720
0.01299724
0.00530591
0.10189179
0.15097484
0.15794471
0.15013801
0.15559480
0.01152849
-0.00683192
-0.14785534
-0.07536563
0.03786648
-0.00697108
-0.01883363
-0.11007788
-0.15450430
0.06257317
-0.13653059
0.11427639
0.03718529
-0.01421555
0.06251623
-0.11543047
-0.08476862
-0.09514581
0.06812787
-0.06851643
0.06415239
-0.04119567
0.03764188
-0.05328502
-0.08991128
-0.15089372
-0.13003320
-0.04755642
-0.00103604
0.07736780
0.12847818
-0.01512139
0.12601863
0.08247274
-0.14179197
0.01640239
-0.15502281
-0.10326961
-0.03533060
0.09091533
0.05682561
0.02241443
0.06993800
0.16222565
0.08621840
0.08317895
0.04390310
-0.01731156
-0.08583608
-0.10362376
-0.02544645
0.02270381
0.02453776
-0.02057446
-0.04003562
-0.04484176
0.02077103
0.08447081
-0.01985152
-0.05239923
-0.06354994
0.07416721
0.30108687
0.17438830
0.03500830
0.04768397
-0.03224870
0.01186733
0.01831596
-0.02556752
0.02515174
0.08605719
0.11374567
0.00665969
-0.04506019
-0.11523847
0.08740142
-0.01860666
0.09439923
0.00139976
0.08864655
-0.02512725
-0.12036833
-0.11940428
0.01231381
-0.17224477
-0.14015114
0.00086347
0.14822385
0.04534924
0.12628005
-0.05354659
-0.03144962
-0.11309383
0.03823124
-0.08608310
-0.07051913
-0.05486055
-0.02036093
-0.10261396
0.12159362
0.11696206
0.03919162
0.01645606
-0.06882429
-0.14091992
0.12891424
0.07261613
0.17638581
-0.01361305
0.10947494
-0.03050603
0.01525196
0.03625400
0.05029761
0.00428614
-0.16397436
-0.15636991
-0.04815543
-0.09837578
0.12563470
0.01013288
-0.03511816
-0.09008330
-0.15457439
-0.00301956
-0.01088127
0.04951940
0.03103925
0.05047857
0.12422784
-0.05706538
-0.01918806
-0.04796084
-0.16872957
-0.12672137
-0.11750477
-0.06571208
0.01206522
0.01048533
-0.05073795
-0.05995329
0.04577032
0.06977641
-0.06475034
-0.03634770
-0.06487739
-0.09274948
-0.11086164
0.07934553
0.01819672
-0.06637266
-0.00277316
-0.06069500
-0.04069422
-0.03462579
0.08914939
-0.10869816
0.12573864
0.03631812
-0.05477922
-0.02650044
-0.06254380
-0.05036359
-0.08098228
-0.12241665
0.05101713
0.02602381
0.05557870
-0.03199342
-0.06455736
-0.02719324
-0.00357395
0.03668141
-0.03199219
0.09432099
0.21409000
0.22432566
0.21953046
0.14479057
0.12921600
-0.01184648
-0.11057078
-0.00340675
0.04712285
0.00881344
-0.01433394
0.02770486
0.15090188
0.10340814
-0.00435873
-0.02783400
0.04018123
0.00924558
0.00335263
-0.04331129
0.06167303
-0.00033429
-0.09213634
0.02271867
0.11695728
0.09494528
0.04302286
-0.06220154
-0.15579039
0.00324631
-0.03592267
0.04788550
-0.15946643
-0.04802664
-0.12816857
-0.00329716
-0.11581556
-0.12000666
0.02439644
0.05545778
-0.08131732
0.03190032
0.10338010
-0.01264194
-0.02655271
0.03583823
0.09656825
0.01045330
-0.11182277
0.06244083
0.12518960
0.11676778
0.04225913
-0.03044924
-0.08202878
-0.10470799
0.07403307
0.01855937
0.09101169
-0.00413346
-0.08516654
-0.05282316
-0.01432593
0.03303112
0.04401369
-0.15789618
-0.03944740
0.05380688
-0.03228315
-0.02756517
0.00347502
-0.09880853
0.03820358
-0.10534406
-0.02291095
0.04857004
-0.04033995
-0.05631719
0.03663274
0.04202932
-0.01454709
-0.01398254
0.06409407
-0.04552017
-0.04287116
0.09627098
-0.00920644
-0.14410242
0.02741431
0.00055308
-0.02811322
0.05947296
0.07116234
-0.01931520
-0.05660407
-0.06993218
0.09970015
0.03721543
-0.06956551
0.00552183
0.05670086
0.05146030
-0.09996099
0.03172745
0.13642471
-0.02483915
-0.03050794
0.00532160
0.06068330
0.13053808
-0.04606074
-0.13078487
-0.06233684
0.11763134
0.13427861
0.07243609
0.03157577
-0.12070633
-0.09250350
-0.05827723
-0.01823707
0.03786695
-0.08114477
0.00925809
0.03757900
-0.01673560
-0.01001037
-0.03980656
0.05610440
0.14635360
0.04279612
-0.13440242
0.04234752
-0.03461853
-0.00477782
0.01056356
0.00847431
0.03642499
-0.01348544
0.09470790
-0.12827204
0.04943272
-0.04548802
0.03332571
-0.08327343
-0.06730428
0.04669261
-0.05993553
-0.10682108
-0.06728860
-0.07346354
0.06081747
0.00266976
0.04458679
0.15783060
-0.07656157
-0.01231515
0.05255581
0.14217822
-0.04586427
-0.01723106
0.05702611
-0.01240681
-0.08631220
0.07577957
0.05517432
0.08068851
-0.02291969
0.00602312
0.05996583
-0.05467215
0.07231035
-0.02611420
-0.02365199
-0.03897931
-0.05625270
-0.03441466
-0.08128135
-0.11288520
-0.09654266
0.00504875
0.13046689
-0.11626820
-0.08946938
-0.09793678
0.10560228
-0.05791428
0.04278255
0.02396603
0.01485244
-0.10925879
-0.14847347
-0.03050363
-0.06527936
-0.06732671
-0.06321295
-0.05238995
0.05337068
0.08046786
0.07042904
0.03750578
-0.10595100
0.00906684
0.06668387
0.02278668
0.09547310
-0.06489640
0.10278066
-0.06265791
0.03281237
-0.12184030
0.04910563
0.00239591
-0.08864970
-0.15754987
0.02027900
0.12107645
-0.11181112
0.10403377
0.20240012
0.11933166
-0.13218255
-0.09656625
0.04633901
0.05525858
-0.10641897
0.05260633
-0.03236334
0.03121797
0.11532276
-0.05736098
-0.10707420
-0.00189440
-0.09116051
-0.11681800
-0.01027645
0.04522494
-0.07003744
-0.00529505
-0.16275753
0.05432164
0.03010473
0.02640003
0.04758958
-0.04133545
-0.00178769
-0.05771343
-0.03979906
0.07816593
0.05077234
-0.05074821
-0.05115849
0.08178521
0.04185618
-0.05692017
-0.11051084
0.05732795
-0.01494811
-0.00744596
0.07953161
0.00733815
0.03451687
0.06429858
0.06883681
0.09932303
0.03985100
-0.07805146
-0.00870061
0.10021982
-0.05152849
-0.08558255
0.08123781
-0.13296910
-0.11944273
0.04473032
0.09385131
-0.07794806
-0.06487015
0.11061143
0.06388342
0.04208444
0.08063494
0.13108858
-0.01834663
-0.07961954
-0.00752417
0.07979463
-0.11492180
-0.07749481
0.13148095
0.12950887
-0.04302115
-0.10020873
0.20926014
0.12019132
0.07545058
-0.05299492
0.05858871
-0.11326957
0.02913682
-0.06432331
-0.05328754
0.11884008
0.02253788
0.02328913
0.00893316
-0.00546768
-0.10979071
0.00993954
-0.05621422
-0.16802761
0.01288586
-0.05113035
-0.04992935
-0.08744884
-0.18656257
-0.08107714
-0.01367824
-0.09925376
-0.04974684
0.06491446
-0.09806317
-0.07665488
0.07213292
-0.10088870
-0.09132653
0.05822456
0.04085057
-0.06343346
0.03608721
0.02398048
-0.09973602
-0.11652506
0.06039927
0.02361414
-0.17581885
0.00785837
0.07400557
-0.01822698
-0.00797016
-0.04378004
-0.01521534
-0.06959479
-0.08561976
-0.10125323
-0.12766664
0.02265087
0.00460905
0.05198671
-0.00614885
0.05560036
0.15852891
-0.15629466
0.07137447
0.05236783
-0.22175708
0.22404057
0.06273275
-0.09083397
0.04989349
0.04307048
0.00591587
0.07361759
-0.10327866
-0.04869047
0.11724494
-0.02287396
-0.12906158
0.06519938
0.01431486
0.12732913
-0.03798739
0.07679743
0.05118140
-0.04088591
-0.04119194
-0.02000906
0.00759174
-0.05276455
0.03750489
0.05153972
-0.01756857
-0.05445259
0.10605597
-0.02722249
-0.04889321
0.01747891
-0.01991962
-0.05198092
0.00039088
0.14902298
-0.13668934
0.05014051
-0.02420407
-0.00081564
-0.16024804
0.00483420
-0.03876280
-0.08528794
-0.02067731
0.05302279
-0.02832349
-0.02067156
0.07541763
0.01132785
-0.03994829
0.05046537
0.07952705
-0.12671940
0.06501285
0.11579967
-0.05268888
0.08886485
-0.04198822
0.05116330
-0.05088735
-0.00188781
-0.06144293
0.04008557
0.03635390
-0.06392796
-0.05904163
-0.04938116
-0.02344575
-0.07264236
-0.10036580
-0.07936268
0.02892272
0.02376018
-0.09743945
-0.08972070
-0.04051281
-0.05021134
-0.08736036
-0.02477316
0.01660502
-0.05575653
0.02865848
-0.09834446
-0.09013273
-0.04952911
-0.03679775
0.08767240
-0.09144443
-0.02807604
0.09901135
-0.00929604
0.05090149
0.03819427
0.03390240
0.04140789
-0.11515057
0.12823658
-0.13065310
-0.01164363
0.02168500
-0.12618284
0.01543317
-0.00963945
0.02205723
0.13773346
-0.11534444
0.05280691
0.07552727
-0.02054248
0.11893438
-0.05094802
-0.05461046
0.13937491
-0.00534684
-0.04153867
-0.01898868
0.08188738
-0.15597543
0.07726482
-0.02035159
0.05039657
0.01362757
-0.10947788
0.16739930
-0.06049374
-0.07791190
0.10194407
0.01033556
0.02110517
0.03025166
0.14439954
0.11053913
0.05063332
0.18755911
0.02604283
0.02271715
0.06217920
-0.04394624
0.05622078
-0.19503990
0.21536827
-0.00661879
-0.04992582
0.26254085
-0.00811682
-0.07445110
0.19883841
-0.00621001
-0.04368880
0.00188618
-0.09683377
0.02045085
0.03999638
-0.05144466
-0.01454618
-0.00949730
0.08380634
0.08953114
-0.20170185
0.14635590
0.03835051
-0.05113730
0.11832095
0.06579722
-0.11317401
0.08465116
0.02658951
0.01603485
0.08913122
-0.08319007
0.04352331
0.02598213
-0.05558778
-0.02376586
0.03164063
-0.02276436
-0.03664834
0.01580576
-0.06057718
-0.07225867
0.06351451
-0.14324090
0.01746610
-0.05410157
0.15148349
0.12145934
-0.11915296
0.12354093
-0.00040634
-0.06623780
0.03250491
0.08010501
0.05899618
0.01409200
-0.12478738
0.02796026
0.03347610
-0.05590831
0.05348768
0.02067999
-0.11503231
-0.05969311
-0.04505835
-0.14293459
0.04872651
0.18344368
-0.15362106
0.03518042
0.20713007
-0.19654037
0.07943361
0.01627228
-0.04053363
0.09270139
-0.05767775
0.02637108
0.08139405
-0.02750695
-0.08116832
-0.18047634
-0.07630388
-0.21008517
-0.09848551
-0.08839228
-0.11848018
-0.18278234
-0.06207369
-0.06719751
0.00977559
0.00580097
0.01380286
-0.13817371
0.10428295
0.02520481
-0.06813139
-0.09059864
-0.00295052
0.08091573
-0.00931098
-0.05922905
0.03677500
0.09159637
0.04049551
-0.14264901
0.04393030
-0.02495787
0.10957045
-0.04647370
-0.01677909
0.03252982
0.03590589
0.07346836
-0.04398661
0.01667207
-0.12679508
-0.05754833
0.05552778
-0.14342751
-0.09726629
0.06729206
-0.10400695
-0.14084132
-0.03439259
-0.04215195
-0.05920096
-0.09131737
0.12092333
0.04866391
-0.02822327
-0.10190203
0.16541152
-0.01949690
-0.02404014
0.10839656
0.01005776
0.03570051
-0.00002445
0.14374550
0.05114986
0.01840892
-0.11141334
-0.08980587
-0.03694798
0.06811154
-0.09749527
-0.11562984
-0.04740816
-0.04709540
-0.03367686
0.00160258
-0.01560777
-0.00174881
-0.13416807
-0.16468656
-0.05941542
0.04531626
0.03976018
-0.16245909
-0.12465645
-0.02750701
-0.01485853
0.12455282
0.16415980
0.06627901
-0.06799243
0.05161941
0.09796841
0.00021902
-0.03312717
0.04286110
0.04315962
-0.02434529
0.14221998
0.11273075
0.05619927
-0.00034956
0.02418964
-0.01304311
-0.11836941
-0.00434422
0.11758225
-0.07325055
-0.06984241
-0.12179078
0.06194101
-0.04003312
-0.08120424
-0.10006607
-0.14167270
0.07208280
0.11704827
0.07394092
-0.03059350
0.13335286
0.01960157
-0.02824758
0.00553888
-0.00704658
-0.08623779
0.04665412
0.08427943
0.04855483
-0.16346654
-0.00671920
-0.04376721
0.01412578
0.09534528
0.06173269
-0.13053349
0.01041248
0.14875199
-0.10335805
-0.10299604
-0.08061074
0.13221809
0.06663810
-0.01911206
-0.09830136
0.12993665
0.04613917
-0.08296430
0.04753992
0.01069893
-0.03298357
0.03750848
-0.09738684
0.07767382
0.00182297
0.01324728
0.00734945
-0.10890922
-0.10112694
0.05145042
-0.02751865
0.14510153
0.01993642
-0.07115867
0.05649927
0.17198087
-0.04745669
0.05996857
0.10123523
0.09663157
0.01000646
-0.05374408
0.02789696
0.11757018
-0.10735004
-0.01842550
0.08129144
-0.09662904
-0.07635679
0.07494997
-0.04150632
-0.18320559
-0.08955939
0.00755584
0.02823227
0.07477277
-0.08035121
0.07276685
-0.03822582
-0.04239355
-0.11380260
0.02774098
0.14318646
0.03276085
0.01157753
-0.03952488
-0.08060259
0.00455196
0.04886069
0.00469637
0.05982401
-0.06718718
0.02284199
-0.02511382
-0.09533646
0.08398983
0.06222761
0.05637234
-0.00073696
0.01284718
0.09099975
0.07671108
0.03035541
-0.07072079
-0.10584386
0.01795925
0.04133196
-0.04295603
-0.21065120
-0.04317163
0.05072861
-0.08056469
0.13794811
0.26825798
0.13645466
0.08696396
-0.01345222
0.21003556
0.10205903
-0.07561649
-0.05813747
0.05390300
0.03724897
0.00460909
-0.07171656
-0.09904351
-0.01837814
-0.04301263
-0.00785299
0.01299521
0.02737505
0.03525283
-0.05447271
-0.08113667
-0.05266238
-0.08457383
-0.09005173
-0.13555306
0.07355323
0.00927161
-0.04180625
0.01659995
0.12364246
0.12108812
0.05805255
-0.04918674
0.00482127
0.10864794
-0.05054675
-0.08157893
0.12906156
0.02783349
-0.09484645
0.01242119
0.14804655
-0.03619538
-0.05331090
0.07483422
-0.01223144
0.02555253
0.01298792
0.06841081
0.05624234
-0.04677705
-0.11537546
0.06446236
-0.03091802
-0.12453795
-0.03924507
-0.02048663
-0.10217921
-0.05818157
0.07498283
0.09023034
-0.02249762
0.14135168
0.04150970
0.10554628
-0.08557850
-0.00877230
0.04266019
-0.03137885
-0.12329374
-0.07745039
0.00479900
-0.13679369
-0.10351761
0.00401280
-0.04372405
-0.11234627
0.06799167
0.09625839
-0.08116075
0.05485890
-0.00190241
0.03637702
0.05642132
-0.10517495
0.10661890
0.03267097
-0.00931813
0.09087555
0.04007947
-0.07376631
-0.12890735
-0.07526487
-0.04370299
-0.12273197
0.02471999
-0.08509520
-0.08490943
-0.03382178
-0.09773505
-0.06707726
-0.08814147
-0.02967424
0.05565133
0.03949596
-0.02489966
-0.02636736
0.05700389
-0.07306460
0.01535730
0.07236512
-0.09501671
0.03970592
0.00243298
-0.10414968
0.11598439
0.02407444
-0.00302237
-0.06794394
0.07836405
0.05677401
0.01842897
0.02615586
-0.00578074
0.09218729
-0.11066446
-0.13031715
-0.01561807
-0.03509115
-0.08663407
0.00368347
-0.02917223
-0.11278352
0.01769981
-0.01722480
0.12403991
0.13743554
0.11508428
-0.06691398
0.23079355
0.10925418
-0.06897868
0.16549677
-0.10036796
-0.08375144
0.00415166
0.03642339
0.04652818
0.10067212
0.03036997
-0.01788879
0.11132060
0.05140414
0.03674138
-0.00898283
0.03720663
0.07187467
0.03250219
-0.01634629
-0.08530167
0.01454505
-0.08663575
0.09875207
0.06117486
0.06195408
-0.03707174
0.04108091
-0.03865983
0.04049414
-0.02410939
-0.02588230
-0.12505253
0.06266741
0.20076974
-0.00876795
-0.08075958
0.08547644
-0.02010068
-0.00957645
-0.01952677
0.03500461
-0.04889019
0.09328844
-0.12360138
0.01877751
0.02507059
-0.09743768
-0.11841928
-0.06770270
-0.03461955
0.04194257
-0.10293190
0.02296243
0.01912811
-0.13105398
0.03234302
0.00494061
-0.10604836
0.03587600
-0.02360783
0.06965461
-0.10637206
0.04481519
-0.07115296
-0.03104437
0.04778200
-0.08893817
0.03174010
-0.04292198
0.03062691
0.05207011
-0.07036530
-0.11316768
0.05995646
-0.04113130
-0.11176004
-0.06169840
0.10568792
-0.08860351
-0.06094526
-0.04787180
-0.11100453
0.05108624
-0.06701627
0.11918784
-0.00584437
-0.08542271
0.16368102
0.09738442
-0.05845946
-0.03054639
-0.05237411
-0.06477112
0.01953505
-0.04279752
0.11286603
-0.10705592
-0.09679767
-0.01410040
0.04951888
0.03901230
0.00715531
-0.00366500
-0.00499000
0.04330221
0.06216167
-0.08096925
-0.00829396
-0.00214341
-0.00017696
-0.10280944
0.07565717
-0.09872735
-0.02435218
0.19943693
0.04286405
-0.11470734
-0.01792966
-0.01382298
-0.11055137
0.08201040
0.03500326
0.16231833
-0.00478155
-0.07977453
-0.02158355
0.01967083
-0.00369346
0.05734766
0.08541072
0.05950090
0.06231204
0.22633876
0.06297582
-0.01708205
0.08804511
0.05187909
0.00429211
0.06231928
0.10934642
0.04076712
0.04642366
0.09644271
0.09710196
0.01961606
0.02690327
0.11754336
0.03995673
-0.18660411
-0.01522297
0.10877675
-0.05892543
-0.03301650
0.05423051
-0.12916327
0.01384295
-0.04610686
-0.10160659
-0.00361070
0.04826343
-0.12759094
0.13021891
-0.11314689
-0.14974357
-0.00348107
-0.11243901
0.00375705
0.01328569
-0.01306268
-0.08215226
0.05042968
-0.12428424
0.03835200
-0.03467650
0.04933063
0.08400191
-0.07449689
0.03982444
0.10247444
-0.01468100
-0.06174684
0.10607549
-0.03805829
0.06548909
-0.03084347
0.04482738
0.12810837
0.05988118
0.05835965
0.09087876
0.02964719
-0.04327301
0.02127598
0.03904011
0.12261833
0.04460609
0.03146053
0.11818584
-0.06866127
-0.03727971
0.03610297
-0.00355553
-0.04685459
-0.09050180
0.18932490
0.03163952
-0.04752267
0.08935538
0.04127851
0.11421388
0.00138550
-0.04542506
0.08644457
-0.01810212
0.01012010
-0.04324245
-0.00016315
0.07810339
0.00005988
0.03327486
-0.16165903
-0.04055561
0.02381344
-0.07162876
-0.05363826
-0.06071734
-0.12354895
-0.09945408
0.03822373
0.07853401
0.02162147
-0.05013999
-0.06687155
0.00393593
-0.09852171
-0.02768296
0.07769953
-0.13797575
-0.00958111
0.07824255
0.04411899
-0.01586643
-0.01123671
0.11228236
0.08271100
-0.07004393
0.07147324
0.08685979
-0.02774236
-0.02406796
0.02175700
0.06052336
0.04279215
-0.03677667
-0.00222001
-0.13939726
0.06146052
0.09991650
0.07410786
0.06926385
-0.01734979
0.07252824
0.04972961
-0.02896119
0.03082915
-0.06526876
0.05244911
-0.00396805
-0.12862144
-0.05013119
-0.07885786
-0.01415186
0.05015431
0.06963902
-0.01743725
0.04065971
0.03100292
-0.10863902
0.07993727
-0.06896193
-0.00074971
0.02900810
-0.16150884
0.13189195
0.10719055
0.03077942
0.02468172
-0.03800175
0.15417081
-0.04617184
-0.07871698
-0.10075362
0.01630824
-0.01857869
0.06621414
0.10272951
-0.09919225
0.09198157
-0.10193891
0.02978306
0.04717439
-0.05669292
-0.01502958
0.02448543
-0.10835883
0.01905395
-0.08558239
-0.04658797
0.04258835
-0.07535200
-0.02802515
-0.05817170
-0.05044605
0.00359405
0.05254611
-0.02373255
-0.09738533
-0.00309105
-0.05799704
-0.08329815
0.05874477
-0.05636686
0.00424138
0.04063153
-0.03299986
-0.05187057
-0.02062957
0.00203896
0.03265731
-0.02939738
-0.04166659
0.06955667
-0.01876820
-0.05033450
-0.07319752
0.04140111
0.01683846
-0.08942996
-0.04114472
-0.00955806
0.05737008
-0.13681912
-0.10246557
-0.01164538
0.04077920
0.04828177
0.03523416
-0.08759778
-0.01849453
-0.09521674
-0.06275125
-0.05377325
-0.01133252
-0.05454077
-0.06444556
-0.02586933
0.05255232
0.06712563
-0.03561325
-0.12287249
0.04013543
-0.05880903
-0.06205226
-0.03444065
0.13670078
0.02150921
0.12544222
-0.00348775
-0.00224841
-0.09675843
0.00156284
-0.00040568
-0.09007812
-0.00594287
0.04790795
0.00051895
-0.04331603
0.01579006
-0.02955057
0.00353746
0.09565361
-0.11876921
0.01565169
-0.04725249
0.04283081
0.00209441
-0.00847410
0.05041065
-0.07045117
-0.03389205
0.10944151
-0.00300961
-0.00212080
0.04170913
0.08142282
0.11020496
-0.07325348
0.02709877
-0.06155005
0.05118164
-0.04697265
-0.04307084
0.09915367
-0.01421553
-0.02561116
-0.09553344
-0.02437622
-0.05908845
-0.15788953
0.08966440
-0.03631429
0.03529203
0.13682243
-0.04324559
-0.03133769
-0.07466397
-0.04716573
0.03356834
-0.09340435
0.10308729
-0.00978139
0.04541587
0.05405812
-0.08750429
0.08473240
-0.07734125
0.13995567
0.27362528
-0.07750867
0.21292354
-0.08947960
0.09665730
-0.03091264
0.00913205
0.03565116
0.09775714
-0.06407592
-0.04284143
-0.15253024
-0.02262432
-0.08977886
-0.10070362
0.04946520
0.05460613
-0.13311569
0.08649480
0.10222115
-0.06247999
-0.06136560
-0.13107495
0.02562044
-0.11901315
0.11045007
-0.08364241
-0.06426319
-0.11906061
-0.04737075
-0.06056143
-0.05373924
0.06951416
0.08077189
0.01332914
-0.02643803
-0.05130769
-0.01143703
-0.08870257
-0.05584187
-0.13576488
-0.07686210
0.03866648
0.04428744
-0.02994336
-0.06037166
-0.05904011
0.05115590
-0.03566748
0.05277409
0.01762584
0.10004595
-0.03158017
-0.02237379
0.05967684
0.07086729
0.10889529
0.00012582
-0.12775744
-0.06686766
0.02887236
-0.04925893
0.06052018
0.03889980
0.08216807
0.02097807
0.01717758
0.06434573
0.05986863
-0.02960791
-0.01992179
0.05516683
0.05951281
-0.02955540
-0.05833067
-0.04512914
0.01233842
0.02520176
-0.11046075
-0.11985972
-0.06289057
-0.07268031
0.11435916
-0.04984432
0.06617877
0.03217971
-0.04906572
0.05053082
0.02831338
0.02104971
-0.04397782
-0.08649320
-0.04361133
-0.06031718
0.07640077
-0.03546286
0.03351290
0.03808721
-0.04498193
-0.01396896
0.04698255
0.10093924
0.01555879
0.03964224
0.00076398
-0.03253650
0.02896843
-0.00133565
-0.10674994
0.02813895
0.05850171
-0.09413129
0.06770258
-0.08431876
0.02453956
-0.12275695
0.10974091
-0.05836220
0.00962001
0.08498389
-0.05312524
-0.04693602
0.03797462
-0.11669222
-0.06877812
0.08691998
0.05196882
0.02133172
-0.01374866
0.04108965
0.14281522
0.06105333
0.06816632
0.11466197
0.02425923
-0.06966773
-0.02221167
-0.05809964
-0.13265647
-0.09697659
0.03645833
-0.01398059
-0.00739877
0.00294804
0.09414532
0.07299460
0.09755301
0.08415714
-0.01355434
0.03849116
-0.06204600
-0.11726335
0.02200562
0.12381790
-0.04492493
0.12729174
-0.00958817
-0.08535571
0.04124837
0.00230012
-0.03767714
0.05185328
-0.10177058
0.06922672
0.04752334
-0.03855328
0.01744420
0.01741712
0.11162197
0.11729964
0.05748644
0.07068718
-0.06755723
-0.00422802
-0.08536527
0.08059209
0.06187628
-0.06473701
-0.07589629
0.04597341
0.00533690
-0.01506070
0.05240047
-0.03755099
0.02941819
-0.04221176
-0.03349294
0.06934195
-0.12950493
0.04491457
-0.13011183
-0.04831977
0.01539682
-0.03766547
-0.07313703
-0.09315147
0.11615681
0.07011746
-0.02290868
-0.09736222
0.04232915
-0.09724722
0.08291182
0.09788224
0.04773881
-0.12172557
0.05011650
0.01836997
-0.08762657
0.09162972
-0.09261724
0.00649924
-0.03958492
-0.07922263
-0.08213071
-0.00330112
0.00757026
0.06998538
-0.03699183
-0.00036679
0.06371557
0.07165598
0.06540922
-0.08187409
0.02461595
-0.08043168
-0.05435239
0.01656809
-0.07562760
-0.11219282
0.07373924
-0.11928282
-0.04587928
0.03989878
0.06126218
-0.01726911
-0.07947008
0.03508451
0.13612811
-0.02728557
0.04404335
0.15001000
0.10419582
-0.10178691
-0.07860655
0.11043361
-0.09064219
0.01312894
0.03138014
-0.09155349
0.01741268
0.00736954
0.00114486
0.11941112
0.05575882
-0.11868445
-0.03680177
0.00758772
0.05025113
0.02905712
0.04129042
-0.07649153
0.13382305
0.09858947
-0.03141353
0.09137347
-0.07660694
-0.03730585
0.09378140
0.09833300
-0.01847322
0.01961643
-0.02265976
0.03732671
-0.07477125
0.00788236
0.04482012
-0.05889826
0.06354298
-0.06326611
-0.05349763
-0.06284978
0.02582387
-0.08086465
0.02593854
0.10388175
0.08653711
0.12798874
-0.15937544
0.10493259
-0.00882616
-0.06111413
0.17924653
0.01811942
-0.10500996
0.09581425
-0.12351436
-0.09349040
0.06669911
-0.15956371
-0.09037023
-0.00504124
-0.07778834
0.00716701
0.04227768
-0.01504653
0.07884066
-0.10539977
0.11054628
-0.08787318
-0.04779819
-0.03283332
0.06210881
-0.16794614
-0.06798646
-0.05311735
-0.07523432
-0.04117029
-0.04749140
0.08442340
0.07659972
-0.00969677
-0.11744221
-0.00441633
0.01557734
-0.07308051
-0.08460655
-0.05729364
-0.02611917
0.04324686
0.04136905
-0.01799331
-0.00588578
-0.04566211
0.02958511
-0.08515260
0.04240733
0.04088883
-0.08239159
-0.00281308
0.07318363
0.03863757
0.07764162
0.01034340
-0.01952262
-0.11498156
0.01485163
-0.02678127
-0.07837610
-0.01670583
0.03273298
0.09889805
0.04587047
-0.05342832
0.04313415
-0.10596859
-0.10148485
-0.02968751
-0.04222228
0.03560845
-0.06539256
-0.08788550
-0.03608685
0.06160495
-0.04915408
0.11507661
0.04781950
-0.04466303
-0.02863134
-0.13744470
-0.07379385
-0.07588171
-0.09455086
-0.14812231
-0.14934063
-0.10262539
-0.03042204
-0.07066007
0.04184754
-0.09095014
-0.11391656
-0.01569743
0.05537502
0.04248224
0.08200956
-0.11422600
0.15889813
0.10094563
-0.13633442
-0.09897816
-0.01384414
-0.05383240
0.01764444
0.03894673
0.02350511
-0.02424371
-0.08511139
-0.09950399
-0.10447317
0.15660581
0.16397159
0.14298968
0.00421861
-0.07459656
-0.03993587
0.10301861
-0.16682817
-0.15096180
-0.08896422
0.01870397
0.04965663
0.09035633
-0.04177538
-0.03343904
0.11640844
0.08879895
0.01603302
0.01623873
-0.09050208
0.03365761
0.03980681
-0.04474812
-0.04807006
-0.01688165
0.08582786
0.01908884
0.07832310
0.12601720
0.12237994
0.06956168
0.04501648
0.12296797
0.09770540
-0.02166455
-0.18237148
-0.11928092
-0.28905305
-0.16582669
-0.01996077
-0.06848533
0.06907596
0.02307133
-0.19503525
-0.11992349
-0.01697390
-0.04146995
-0.00728702
0.08119235
0.12160963
0.03536630
-0.00058910
0.14806600
-0.00856788
0.02273866
0.07051747
-0.05793665
-0.12920572
-0.04847857
0.02192298
-0.01008037
-0.14405786
-0.07380661
-0.13819392
-0.06018863
-0.00084836
-0.06281189
0.09613782
0.07364915
0.12298609
0.16719842
0.14467406
0.04537543
0.02918560
-0.01186138
-0.08345887
-0.03116916
0.17542927
0.23982659
0.11945648
-0.01391560
0.04019554
-0.02597637
0.05287436
0.01013952
0.06519983
-0.03781974
-0.03355150
-0.14187187
-0.01440383
-0.04502337
-0.07852941
0.02617769
0.10683460
0.08280373
-0.07169612
-0.03334033
0.06441926
-0.02912905
0.05047081
0.02271665
0.05813023
0.04790674
-0.05337957
0.05899932
-0.01091016
-0.01582766
0.00547862
-0.02297852
-0.03545140
0.01238795
0.06487003
0.09386294
0.14616503
-0.00269726
-0.11925983
0.02334928
-0.06410056
-0.06350831
0.04794652
0.13765825
-0.03420570
-0.03490011
0.14940022
0.12473590
0.14892915
0.05635298
0.04966146
-0.05388146
0.00258545
-0.06199156
-0.00865896
-0.10725533
0.05420414
0.04681688
-0.04506775
0.01766798
0.01890410
0.05866569
0.00395194
0.08624863
0.19286726
0.24733236
0.10911733
0.18142733
0.01448089
0.07723760
0.07470089
-0.04601000
0.11557613
0.07196980
0.11495839
0.10352162
0.08832671
0.00034606
-0.02781406
0.03574618
0.00284738
0.09927185
0.04199789
-0.03794272
-0.01694588
-0.17206740
-0.01380849
-0.11696804
0.08176813
0.00713100
0.06840106
0.07346345
0.10492136
0.02907152
-0.00537567
-0.00448581
0.07688918
-0.08205061
0.04123559
0.02410073
-0.04653154
-0.12366265
0.01874745
0.05996133
0.11276632
0.06127562
0.07638619
-0.09160757
-0.09397051
-0.03969234
0.20818700
0.09887490
0.16262150
0.06620258
0.14612143
-0.00932695
-0.20092304
-0.01802060
-0.04266992
-0.10168856
-0.16674764
-0.00410803
0.04424620
-0.00476070
0.09819850
0.05014019
-0.05736136
-0.07711335
0.00168167
-0.11312940
0.07536250
0.12558338
0.12924077
-0.03653540
-0.05717858
0.08379776
0.05172891
-0.03138188
-0.14249974
-0.08171533
0.01335522
-0.09683609
0.01514372
-0.04469807
0.06981917
0.05291961
0.00709628
0.16888532
-0.03540665
-0.11234836
-0.12084626
-0.01402282
-0.00313079
-0.01272522
0.02432964
-0.10106168
-0.04981659
-0.14653343
0.01597929
-0.09431949
-0.02840981
-0.01235430
0.12147626
0.05662622
0.05631151
0.04060580
-0.08846159
-0.11221132
-0.05501639
0.07623854
0.11048009
0.12094505
0.00379038
0.03858879
-0.01152704
0.06175688
0.04551760
0.02247341
0.08663984
0.06166624
0.31643981
0.17320646
0.10480354
0.16394956
0.03651387
-0.09802076
-0.04979391
0.09331190
0.10281190
0.02420050
-0.00093729
-0.09072314
0.05890357
-0.04616747
0.06943896
-0.04859192
-0.00302805
-0.03321127
-0.12578008
-0.02481784
-0.12695974
0.04208946
-0.07809661
-0.07374800
0.03421539
-0.02475143
-0.06017632
-0.03170855
0.08493934
0.07995620
-0.02682265
0.03350606
-0.00374820
0.04099891
0.00690688
-0.03198462
-0.09069084
-0.17793366
-0.09198276
0.05034034
0.01450871
-0.00054950
0.02925517
-0.14244483
-0.00191356
-0.06702731
0.03278936
-0.07888852
0.03613072
0.10131022
0.02889163
-0.03109054
-0.03609071
0.00605558
-0.06887121
-0.01592410
0.01735117
-0.15747179
-0.11158150
0.06665753
-0.03225105
-0.05896142
-0.08237857
0.20323417
-0.10575762
0.03575929
0.15058623
-0.08433287
-0.10630416
0.01883394
-0.22181518
0.01968101
0.09989281
-0.12558094
0.01665310
-0.02871232
0.04880275
0.04553597
-0.03791748
-0.05727562
0.05505623
0.01296309
0.07919681
-0.07412076
-0.00031147
0.05072469
-0.02547073
0.00790590
-0.02999729
-0.03139880
-0.07139707
-0.07706397
-0.00838632
-0.00581667
-0.09910694
0.05422243
-0.04455061
-0.04154579
0.07323055
-0.00621672
0.09116187
0.00725154
0.08566245
0.08584812
-0.12193140
0.12987103
-0.07450711
0.09110831
-0.06754579
0.01862481
-0.13085184
-0.05007616
-0.04508405
-0.11032554
-0.06798281
0.02361985
0.13786153
-0.10075297
-0.03720284
0.10135591
0.03274915
-0.09802219
-0.04416229
0.01486531
0.03979113
-0.05551524
-0.08895826
-0.04700066
-0.11947238
-0.04180652
0.04720020
-0.05166415
0.01013771
0.05366370
0.08153963
-0.10535686
-0.04178322
-0.01478671
-0.13092113
-0.01537587
-0.06186122
0.00102205
0.01469876
0.02528093
0.01244081
0.03355644
0.04470591
-0.10451938
-0.08220541
0.03969500
-0.13160326
0.04639592
-0.05368870
-0.01645952
-0.01164908
-0.05468120
0.04592762
0.11261568
-0.04850886
0.05588813
-0.02481791
0.03333386
-0.06855020
-0.12032948
-0.03690207
0.03113155
-0.04291783
0.11262889
0.05421100
-0.03035077
-0.04286145
-0.07747202
0.20162836
-0.04920517
-0.05673518
0.04869475
-0.02556450
0.08652532
-0.05961672
-0.11049018
0.01304136
0.16391098
-0.03298894
-0.03879563
-0.04361732
-0.04834472
0.06737095
-0.01355766
-0.04576490
-0.04269684
-0.08119813
-0.11427434
0.14683394
-0.02588021
-0.02914680
0.05422547
-0.04822047
-0.06803480
-0.08493235
0.06395132
-0.11195759
-0.08206508
-0.00248888
-0.12342100
0.10241092
-0.01343782
0.02391443
-0.14275998
0.00051236
0.10901809
-0.22453415
0.06021959
0.04725040
-0.11367828
-0.00299828
0.13497759
0.05038246
-0.08047342
-0.20656385
-0.10705574
-0.03611637
-0.13926357
-0.07990979
-0.08944336
-0.07220355
0.00268429
-0.15400615
-0.06798551
0.08087733
-0.06886352
-0.03077804
-0.00664752
-0.02697692
0.06636717
0.03925619
0.00089549
0.00949892
0.06707455
0.02671994
-0.01538488
-0.08552863
0.03213244
0.00227132
-0.00819883
0.06657355
0.04396737
-0.13815017
-0.07117247
0.13661048
-0.10029394
0.07976485
0.09804933
-0.00761448
-0.03684723
-0.02033397
0.04839020
0.05662898
-0.04731688
0.10673279
0.07760304
0.01916916
0.05203111
-0.02479770
-0.06602626
-0.04767051
-0.05582285
0.03477802
-0.04214747
0.00048111
-0.02495419
0.10629033
0.10640212
-0.12241496
0.17365959
-0.02755141
-0.03208175
0.13722561
-0.07828662
-0.07135957
-0.12513824
-0.01754956
0.04798419
-0.08045884
-0.01849802
-0.09594946
-0.03391287
0.02763124
0.01371666
0.00243110
-0.10882246
-0.07514067
-0.01616284
-0.15664800
-0.08264618
-0.09786551
-0.13408655
0.11538628
-0.00145078
-0.04396873
-0.02024343
0.00550470
-0.01788178
-0.13102852
0.08485299
0.14887989
0.00519962
-0.05011370
-0.02584165
0.12365182
-0.07481612
-0.11101145
0.12717348
-0.02737075
-0.18158993
0.02007161
-0.06464321
-0.08992877
0.09574538
-0.01066273
-0.04132991
-0.09222757
0.01607328
0.09630861
-0.06160768
-0.11806030
0.02924590
-0.05896504
-0.04498312
-0.11766592
0.06996567
0.06544494
-0.10461494
-0.12423437
0.05901643
-0.01987617
0.08082017
0.10449401
0.02115370
0.11246631
-0.10049398
0.04840062
0.13960379
0.02326207
-0.14532098
-0.08728752
-0.04724587
-0.01650433
-0.06017450
0.14078009
0.06862107
-0.10253037
-0.12073730
-0.15228604
0.03046209
-0.02201689
-0.03592540
-0.15738374
0.02675728
-0.00546035
-0.09769604
-0.03106290
-0.08473955
-0.01520914
-0.09600839
-0.02998020
0.09366173
0.00485593
-0.08114249
-0.04448104
0.04073265
-0.03226464
0.00914827
0.04058560
0.11038781
-0.10725679
0.00832260
0.04043161
0.12067318
-0.06976125
-0.04919230
0.13914151
-0.07822432
-0.02836897
0.07890083
0.00480063
0.04154023
-0.07534092
0.06212904
-0.01339062
-0.08477639
0.01522759
-0.04329720
0.02157862
-0.14344561
0.04929703
-0.00445198
-0.04318913
-0.03388346
-0.05392237
0.00094457
0.13791974
0.11453984
-0.14649375
-0.12056359
0.01490463
-0.06851989
-0.05867586
0.11276755
-0.03771852
0.03920685
0.04668408
-0.04400166
-0.06572077
-0.05448163
-0.02033974
-0.08293274
-0.04244288
-0.01461587
-0.03718905
-0.07347938
0.04509339
0.07717422
0.07021549
0.03663703
-0.01937781
0.14830628
-0.04572738
-0.13500793
-0.00689634
0.03604592
-0.08675222
-0.14538793
-0.05724362
-0.01524609
0.05820169
-0.10394584
-0.06470555
-0.03206681
0.02885612
-0.04485727
-0.05296181
-0.01583735
0.09899823
-0.12253438
0.02053137
0.18673621
0.13123530
-0.09751718
-0.01037800
0.05569169
0.02243956
-0.10441459
0.12992774
-0.01357957
-0.13310048
-0.04373461
0.10348216
-0.06617893
-0.11609954
0.05876051
-0.00387652
-0.13143235
-0.03656510
-0.02808695
-0.08777059
-0.05000935
0.05314260
0.09391908
-0.05436365
-0.06698135
0.04040086
-0.02539639
-0.02205401
0.09777594
-0.03104491
-0.07979654
-0.04870497
-0.06718913
-0.01952329
-0.01001904
-0.09299259
-0.04884208
-0.05627145
0.00884757
-0.10518553
-0.03807327
-0.11669279
-0.00367941
-0.17400946
0.09803872
-0.02432936
-0.00079578
0.02092525
-0.04731032
0.01212543
-0.11621396
0.09363870
-0.04723093
-0.17721246
-0.18709444
0.03000484
-0.09981293
-0.09234836
-0.09923824
-0.06583560
-0.11554063
-0.16807604
0.22819397
0.10178991
-0.12052859
0.13429277
0.17361532
0.12629816
-0.16512343
0.02232243
-0.04782143
-0.06532835
-0.15659240
-0.13506782
0.14787607
-0.06628512
0.03403826
-0.02342908
-0.00841080
0.04735465
0.03735007
0.04526512
-0.11356833
0.09647768
-0.03884353
-0.15702251
-0.02980729
-0.04961091
0.02789275
-0.06185938
-0.06271654
0.07077653
0.07423170
-0.02306653
0.01701390
0.08513798
0.00039097
-0.11471713
0.08358979
0.09609849
0.14103679
-0.11828984
-0.09153856
0.06819247
-0.02745493
-0.08942512
0.08676472
-0.06228057
0.03455999
-0.00684767
0.12010688
-0.03602749
-0.05036475
-0.16468349
-0.10374490
-0.14164945
-0.04639592
-0.04315136
-0.12323067
-0.16967389
-0.17672390
-0.08798656
-0.09321690
-0.01191007
0.09531689
0.03273625
0.10516598
0.06116551
0.00848805
0.07342529
0.02443676
-0.12421139
-0.10344566
-0.07454707
-0.10150883
-0.01961925
0.08899276
-0.08726255
-0.14994925
-0.03093402
-0.15204599
-0.02111864
-0.04409117
-0.04282561
-0.08305824
0.01197988
-0.11588722
0.03212131
-0.09850936
0.01503759
-0.11543661
-0.01963411
-0.08127563
-0.09644733
0.04597358
-0.12517355
0.09824272
0.06697849
-0.19699572
0.07498499
0.06418054
-0.07640713
0.13823365
0.08054251
0.11137443
0.06286597
-0.08898044
-0.12738986
-0.17593625
-0.03702912
-0.05893696
-0.03359866
0.08525604
0.05271940
0.14449392
0.00561436
-0.00206986
0.10072167
-0.08430582
-0.01335781
-0.06199653
-0.10385475
0.01698567
0.00817316
0.04038070
-0.08901953
0.06700547
-0.08717214
0.08494484
0.11097823
-0.09346109
0.04985664
-0.05652517
-0.08253598
0.13125022
-0.09977359
-0.00456576
-0.07348111
-0.08925633
0.11090264
-0.06635804
0.22663206
0.20358756
0.05879158
-0.15328865
-0.03795544
-0.13728561
0.04228172
0.12785548
-0.06967329
0.12331849
0.03246578
0.08738414
0.01336754
0.08169866
0.11693168
-0.01047203
0.09184520
0.02679488
-0.08683165
0.05116094
-0.04151813
-0.03768958
-0.00803515
-0.10403998
0.05373062
-0.08045460
-0.05452131
-0.09385818
-0.07493076
0.07376104
0.13766028
0.09717357
0.08798228
-0.08246486
0.18011315
-0.00393403
0.08219651
0.21796203
0.09471892
0.01518598
-0.08311251
0.04934179
-0.13363893
0.11528143
-0.14018242
-0.02270163
0.07968839
-0.10619080
0.07038158
-0.02677310
-0.00005912
-0.02384730
0.06509367
0.01822358
0.08919706
-0.05980622
-0.11171946
0.03056675
0.05601032
-0.06880301
0.07989268
-0.08877329
0.02898581
0.06618293
-0.18216892
-0.09637328
0.07602089
0.09323820
0.05354505
0.03109440
-0.07546876
0.06535042
0.04296964
-0.11316289
0.00654721
-0.04821785
0.10695224
-0.10730603
-0.01544795
-0.01250878
-0.03215829
0.00424628
-0.02111180
0.13255356
-0.04193408
0.02622982
0.13974029
-0.06196399
0.01652371
0.02923140
-0.15784112
0.07809588
-0.10942347
-0.12254610
-0.06874038
-0.07052698
0.09184815
0.01382352
-0.00364119
0.08076780
0.02709426
-0.03249253
0.19163431
-0.00361823
0.14132158
0.06863647
0.04725913
0.19212019
-0.12489662
0.08777338
0.01361606
0.01093354
0.04002507
0.12195149
0.02211457
0.13180465
-0.00149124
0.05249174
0.03948727
-0.07270011
-0.00963127
0.02249828
-0.01971773
0.03793171
0.12995692
-0.02721462
0.04638668
0.08143059
0.08676542
0.02404913
-0.06124920
0.15396932
0.03203282
0.00490971
-0.04201997
0.03552283
0.05916991
-0.05322487
0.03072298
0.03180500
0.14419805
0.25846189
0.05731958
0.11210025
0.09692510
-0.16452418
-0.04426391
0.03697892
-0.10939750
0.11301654
-0.06759233
-0.15359935
-0.01686726
-0.04884085
-0.11153147
-0.04898985
-0.05130603
-0.04005869
-0.09697546
0.13795017
0.06958000
-0.11939416
0.10189150
0.07042315
0.01430656
0.02379922
0.01022537
-0.06892875
-0.05536246
0.02646096
0.09278529
0.03440533
-0.04433807
-0.05758391
-0.00783302
0.06242465
-0.12769894
-0.04424663
-0.12033267
-0.03621984
0.02314136
-0.16516005
0.10720059
0.07963926
-0.03728065
0.00092267
-0.01616607
0.03105101
-0.02830118
-0.13362661
0.10369226
0.00638007
-0.02917305
0.02573361
-0.08411592
-0.06170651
0.04264239
0.02839008
0.00760686
-0.02144667
0.07986607
-0.01146431
0.05232617
-0.02980465
-0.12267672
0.21388099
-0.15188637
0.18009494
0.11102188
-0.12718374
-0.07335844
-0.03940662
-0.08553781
-0.02282230
-0.03609636
0.04130094
-0.07266890
-0.08056754
0.03311860
-0.08024799
-0.02752516
0.05094091
-0.15587924
0.10993360
-0.03136459
0.03086872
0.05861368
-0.14811933
-0.05293580
0.15328752
0.16417912
0.06110619
0.00904475
-0.01179436
-0.05593298
-0.03219421
-0.08906067
0.14863186
0.14994293
-0.04127124
0.02770410
0.14805634
-0.06040568
-0.00212427
0.02675785
-0.09937961
-0.11266384
0.02503696
-0.08421078
-0.14876661
-0.09892607
0.09599183
-0.07512818
-0.06954245
-0.12978341
-0.07535788
0.11788935
-0.15229478
-0.14574754
0.07224947
-0.06293131
-0.12376364
0.02530492
0.13242158
0.04886773
-0.11033938
0.09541296
0.11922968
0.08431505
-0.01041006
0.07904207
0.10424177
-0.02791189
-0.00276346
-0.01832038
0.11651336
-0.10068540
-0.01748201
0.10269150
-0.04722336
0.01383044
-0.17735571
0.05075195
-0.09298405
-0.04002234
-0.12312368
-0.16005230
0.03995709
-0.11076874
-0.13741663
0.03927233
-0.01192349
0.02609352
-0.14741284
-0.13752586
-0.05464540
-0.07118682
-0.01549344
-0.01439197
-0.00885076
-0.12687112
-0.06448723
0.12911160
0.11868463
-0.05910564
0.01363289
0.10114272
-0.01485358
-0.05130272
0.06849886
0.11143371
-0.06283277
-0.00582774
0.08330946
0.12726574
-0.07898311
0.00772501
0.00028408
-0.10535309
-0.09503540
-0.09243073
0.12059056
-0.03852248
-0.12348907
-0.09926696
0.05493454
0.10262255
0.12271427
-0.13335913
-0.08289023
0.01262797
0.05583201
-0.09825544
0.02861286
0.08639041
0.01519190
-0.01903139
0.05536180
-0.01424928
0.04216779
-0.11918563
0.03083760
-0.07195278
-0.02972418
-0.05382639
-0.12632526
0.14776351
-0.02378619
-0.07114695
-0.09333126
0.12727642
0.05029235
-0.03593447
-0.09282891
0.06676716
0.02675711
-0.05303467
-0.16517712
-0.13381222
0.08755544
0.06834127
0.01270825
-0.08313429
0.04827696
-0.03467372
-0.13699716
-0.13037287
0.04106818
0.02765802
-0.05716688
-0.05103120
-0.02266946
0.09511007
-0.05864448
0.05619876
0.20076250
0.13499713
-0.01670939
0.07570589
-0.06790422
-0.12376297
0.05405336
0.08654771
-0.05858888
0.04823866
0.01183376
0.04655439
-0.06967188
0.05281519
-0.05637829
-0.11342379
-0.14923002
-0.03202420
-0.03353174
0.01565622
0.04704329
-0.00126062
-0.00085547
0.02456441
-0.08303051
-0.02608281
0.00078122
0.07808268
-0.04842506
-0.10557823
-0.07167365
0.03245905
0.01402928
0.06110986
0.09244905
-0.08723645
0.07750747
0.03718204
0.01468721
-0.04875808
-0.11702609
-0.08173389
-0.04936424
-0.17930111
0.03402472
0.01091118
0.07875494
-0.09240703
-0.03979873
0.06596954
-0.05808206
-0.01754315
-0.02055931
-0.17716302
-0.17250395
-0.05020159
-0.13044406
-0.09796872
-0.06781928
-0.09628281
-0.02978777
0.03805500
0.16606474
0.10826600
0.03758570
0.08068369
0.14267983
0.06258442
-0.18145195
0.00758110
0.05399610
-0.13891073
-0.09312805
-0.13103679
0.09063638
0.04628259
-0.05344856
-0.10790534
0.04814078
0.18023975
-0.04736056
-0.15007317
0.00975207
-0.01511085
0.06573038
-0.14023194
-0.00649665
0.05296210
0.16189946
-0.08826494
-0.06103718
0.08815978
0.02181743
0.04651482
-0.08494230
0.08311532
0.03101545
-0.06948003
-0.01343222
0.06009079
0.02923775
-0.02447994
-0.01545393
0.02563684
-0.16110820
-0.06859813
-0.01773730
0.05864129
-0.01827682
-0.03261287
0.11477426
0.01958678
-0.10032745
-0.18970421
-0.03530176
-0.07199814
-0.10239432
-0.10753671
0.04670012
-0.06522765
-0.12646404
-0.13412367
-0.05887929
0.03939323
0.06972057
0.07019859
0.08305158
-0.08833982
-0.02042301
-0.00722893
-0.04399977
-0.03373044
-0.01872472
-0.06764529
-0.15739217
0.11522394
0.16909602
-0.11882555
-0.14015509
-0.10619447
0.02085882
0.09969231
-0.00002021
-0.10687957
0.02625921
-0.00697562
-0.02979059
-0.07581990
-0.00639595
-0.12099051
0.04976274
-0.00738253
-0.08271826
0.07243479
-0.03382483
-0.09280571
-0.03888219
-0.08656299
0.00612170
-0.08153393
-0.03666829
-0.08758558
-0.08887629
-0.10961116
0.05412775
-0.03285075
-0.01906691
-0.03343022
-0.03972355
0.03986447
-0.10161847
-0.03929673
-0.01782619
0.04186861
-0.11340962
-0.04711608
0.04340362
-0.04173561
0.05350242
0.04291509
0.11765571
-0.06044866
-0.00430005
0.03449103
0.04865433
0.00041651
0.02621633
-0.07590913
-0.08634447
0.01597441
-0.01168454
0.02278523
-0.04274826
0.01717406
-0.05816908
0.06518602
-0.01777304
-0.03302951
0.00420291
0.10198159
-0.13940674
-0.15772279
-0.03980010
-0.00240401
0.03527394
0.12496042
-0.03899994
0.03000061
0.09844497
-0.10310626
-0.00862568
0.00914633
0.01644187
0.00617199
-0.09091135
-0.01525349
0.02211807
-0.10764813
-0.01312279
0.11113817
0.09971865
-0.07787168
0.09124853
0.05725810
-0.12203117
-0.07100016
0.02394769
-0.13500950
-0.06415675
0.00472893
-0.00071675
-0.01062586
0.06674693
-0.09081673
-0.08416732
0.13712911
-0.07866632
-0.04022409
0.06837309
0.03675091
-0.14124811
-0.02482671
0.04521136
0.02200639
0.15562986
-0.01517912
0.11635714
0.05801199
-0.01219783
0.07763265
-0.00970853
0.04464372
0.08195414
-0.01328570
-0.11487826
-0.10825103
-0.06652412
-0.09154253
0.08261951
0.01478651
-0.11430652
-0.03933521
-0.13008209
-0.04712542
-0.06803077
-0.10191891
-0.03565112
-0.06038444
0.02766777
-0.12678987
-0.00572116
-0.04294056
0.02317815
0.05238921
0.07107577
0.08834448
0.12555964
0.03333715
-0.11101449
-0.05842925
-0.02392925
-0.06497248
-0.11724793
-0.13701800
0.01094471
-0.11356139
0.07244441
0.10253013
-0.03625121
0.07470162
-0.01792208
0.14095442
0.01975131
-0.10720711
0.09111545
-0.05018143
0.04148436
-0.08623028
-0.07225365
0.10146063
-0.06520321
-0.07851807
-0.02324129
0.03156222
-0.00218325
-0.00067581
-0.06566757
-0.01415888
0.02618327
-0.02106871
0.12719601
-0.02689261
-0.04421113
-0.00806542
-0.04270136
0.09791027
-0.03667278
0.06664265
0.00353875
0.03045185
-0.01036886
0.01376218
0.06465518
-0.14637403
0.02551950
0.06951056
-0.08394377
-0.04909531
0.07050911
-0.04654233
-0.03086707
-0.09542584
0.05631837
0.02629649
0.05206121
-0.03903912
0.02278653
0.08594201
0.02261693
-0.04274353
-0.09741638
-0.00731245
-0.16192099
-0.18121889
-0.18864566
0.06458209
0.07114858
-0.10001809
-0.15339760
-0.09812638
-0.12949309
-0.07144245
-0.02102605
0.03527885
0.07840911
0.01464236
-0.13127917
0.06865278
0.04688459
-0.10097314
-0.07879596
-0.06065497
0.01309001
-0.14115140
-0.04667500
-0.05304980
0.06676544
-0.03293156
-0.02989365
-0.00003989
-0.03398713
-0.08451023
-0.08644109
0.06028190
0.06033402
0.11340515
0.00246936
0.01343552
0.05757707
-0.00065957
-0.11830325
-0.07350416
-0.08227950
-0.08791603
-0.05160720
0.05647668
0.06061162
-0.05332612
0.05197670
-0.04138002
0.03353370
-0.10825320
-0.05208956
-0.00756340
0.01524429
-0.09443188
-0.08013498
-0.06504759
0.04433634
-0.04837767
-0.01439248
0.00443745
-0.03007217
-0.08316273
-0.21166462
0.01832129
0.21235307
-0.13795650
-0.11084714
0.05614280
0.04861742
-0.08288053
-0.07955915
-0.04081674
0.05695877
-0.09704877
0.06032241
-0.04148818
0.02158400
-0.11129175
-0.03056748
0.04545364
-0.14006513
-0.03506509
0.20062697
-0.09236779
-0.01445651
0.10668492
0.00843199
0.04489626
-0.01686838
-0.12703632
-0.05825118
0.17736520
-0.06258042
-0.01180110
-0.00029431
0.09340198
0.08471397
-0.09645008
-0.06874846
0.01091938
-0.06683251
-0.05041445
-0.10979980
-0.03787828
0.07855625
-0.10192584
-0.09035632
-0.13208751
-0.04637953
0.06725312
-0.07728250
-0.11785331
-0.08365419
0.04273116
0.06827964
0.05875686
-0.10616361
0.06162798
-0.08387873
-0.02423315
-0.03941794
-0.09586892
-0.01743136
-0.06018719
0.06753442
0.04850617
0.06767999
-0.11090865
0.13221118
0.11610922
-0.00489208
-0.01501375
0.12870185
-0.05428268
0.02480163
-0.00208179
0.01109210
-0.18900843
-0.06660283
-0.04713825
-0.01514460
0.09543236
0.13472986
-0.02694093
0.06378733
0.05023931
-0.01249315
0.02612203
0.07653863
0.07711801
-0.05164573
-0.07912500
-0.00991684
-0.03438053
0.04734073
0.04966220
-0.06309028
0.06848816
0.00339762
-0.04084309
-0.00004164
0.01971891
-0.08027854
0.10491619
0.07377616
-0.02861261
0.07973537
-0.06396186
-0.06358047
-0.02818424
-0.07013111
0.04028933
-0.05920037
0.00657253
0.02389227
-0.01911884
-0.02095295
-0.04975691
0.02928255
0.02371804
-0.10256344
-0.01414047
0.16886453
0.08233016
-0.03417302
0.06490601
-0.04768502
0.04952703
0.08960041
-0.04538009
-0.02551941
-0.01368692
-0.01831250
-0.05377912
0.05530202
0.12395219
0.01114427
-0.02005437
0.10435915
0.09041056
-0.16836071
-0.00520737
0.09573232
0.03903599
0.14325032
0.00105777
0.04180990
0.04591226
0.00306325
0.01677109
-0.16615753
-0.07175049
0.03857235
-0.07112978
-0.00215533
-0.15145178
0.01580923
0.10256183
0.01383531
-0.06566701
0.01483739
-0.04920878
-0.04022687
0.02981577
-0.15211363
-0.01076488
0.07827269
0.03449800
-0.09294388
-0.01389452
0.07097647
-0.06053111
-0.04678160
0.14666690
-0.10893062
-0.00517006
0.06837951
-0.03136605
0.02633384
-0.00349362
-0.01653690
-0.06964060
-0.12893523
0.12440371
0.00157664
-0.05338592
0.02716014
0.10757121
-0.09914862
-0.11660286
-0.04755223
0.07722444
-0.11691618
-0.15243973
-0.02505446
-0.04228069
-0.02852170
0.04366034
-0.12672560
-0.01179268
0.08359784
0.03752876
0.03312209
0.06950734
0.09418776
0.01512204
-0.11660238
-0.04521767
0.05551376
-0.12472394
-0.10170722
0.11450693
-0.08498449
-0.14101331
0.05175370
0.02689815
0.02606570
0.07577919
0.12206388
-0.02913784
-0.10144699
0.15470111
0.05607989
-0.02043300
-0.04033824
-0.16378467
-0.07384088
0.00361501
-0.09693764
-0.19067413
0.03503573
0.03988520
-0.16670223
-0.09159604
0.05646021
0.20976767
0.11521541
-0.07238055
0.07110520
-0.04041567
-0.17718658
-0.06548285
-0.12250695
0.07902776
0.03514485
-0.15214576
-0.11412797
-0.06447449
-0.00799978
-0.03343693
0.10083457
0.04672948
0.04657391
0.01601047
-0.11659910
0.00945291
-0.03352211
-0.01488199
-0.03978807
0.06019904
-0.05086767
0.12293240
-0.08291964
-0.10547046
0.07947419
-0.02354710
-0.00738624
0.02826395
0.08441423
0.06351040
-0.06287997
0.08820009
0.06219546
-0.02878050
0.02026193
0.17208338
0.06410617
0.10785217
0.03084584
0.02294332
0.11180526
-0.08115763
-0.06596223
0.13222562
-0.07196733
-0.13413167
0.00058309
-0.04015782
-0.13887806
-0.00896902
0.00684455
-0.10304701
0.07190097
0.13242948
-0.14248404
-0.04694739
0.05250530
-0.03964377
0.01109340
-0.07437734
0.02545004
0.09568743
-0.06061108
0.00875654
-0.07567868
0.06848361
-0.09825256
0.01631652
0.02595460
-0.12175355
-0.09586444
-0.04865509
0.06909821
0.01775160
0.00196276
-0.03270981
-0.00625952
-0.06317478
0.04494614
0.03918037
-0.08710211
-0.04046258
0.07192835
0.01313210
-0.15154806
-0.13223623
-0.01307484
-0.11624116
-0.04521726
-0.15971844
-0.02549508
-0.10085951
-0.12768903
0.12507957
-0.10005885
-0.01436647
0.10493736
-0.00638764
0.06239067
0.11494116
0.04487252
-0.10293408
-0.08614688
0.01144042
-0.09052220
-0.00725205
0.07494454
-0.04251960
0.01989415
0.04125011
-0.00405071
0.03958179
-0.09320999
0.09813378
-0.01961097
-0.01721893
-0.04120211
-0.07985166
-0.08954568
-0.03720568
0.10184018
-0.13029414
-0.07900608
-0.00531944
-0.17791256
-0.00122038
-0.04511470
-0.12621713
0.13249059
0.01142067
0.10147782
0.10379440
0.01717922
0.12676725
0.03551715
-0.05509231
0.16236492
-0.04966650
-0.02355248
0.04413116
-0.17564309
-0.04071799
0.10106628
0.01998460
0.01321698
0.01775171
0.04635043
-0.01446932
-0.06396429
0.09496193
-0.05766822
0.03420573
0.00116048
-0.10725340
-0.07578340
0.01753831
0.03740742
-0.00577327
-0.01025369
0.10270972
-0.02939730
-0.10199831
0.07105188
-0.09273224
0.15985173
-0.09544340
0.01937292
0.07473706
0.01285617
0.03801186
0.11170672
-0.11123354
0.07812259
0.15639971
-0.18378860
-0.08770690
-0.03993487
-0.03856786
-0.06842980
0.06101162
-0.00931395
0.05268232
-0.02479817
-0.06436160
-0.00005836
0.05429620
0.04983438
-0.06954233
-0.04834562
0.05868893
-0.11939725
-0.13759047
-0.09374643
-0.07328556
-0.13247252
-0.08794969
-0.05198686
-0.01002429
-0.00127974
0.01087308
-0.06180001
0.12581161
-0.12672147
-0.05016486
0.07232178
-0.11215978
0.08708601
0.00202389
0.04258422
-0.09704545
-0.06205110
0.09418967
-0.02968088
-0.10396181
-0.07609625
0.00282767
-0.10363400
0.08101135
0.08744462
-0.09580699
-0.03796096
0.11550535
0.01756412
-0.04617163
0.00773420
0.01561885
0.05564795
-0.04241421
0.06079117
0.02522385
-0.08749092
-0.04130384
-0.03305189
0.06768314
-0.03169394
-0.07431794
0.06786362
-0.03852922
-0.00957830
0.15466292
-0.11540156
0.06235458
-0.04014954
-0.01258012
-0.08765565
0.12470824
-0.01575227
0.07218407
0.06270204
0.01013939
-0.03492078
0.10337830
0.02542162
-0.08265098
-0.06060294
-0.09071661
0.02177055
-0.13030154
-0.10238731
0.13863941
-0.04631968
0.04828274
0.07111008
0.08593521
-0.14855511
-0.04649007
0.13415617
-0.02543113
-0.02439295
0.11440662
-0.03674855
-0.00695855
-0.09090197
0.17778686
-0.13817556
0.04345361
0.15563107
-0.09362668
-0.01310143
0.12921964
-0.15119332
-0.03417109
-0.06361247
-0.03874641
-0.05688682
-0.16261026
0.05803577
0.03666978
-0.03293519
-0.05870483
-0.00038391
0.01975636
0.14843269
0.02646129
0.05139795
0.11507630
0.04516242
0.08712387
0.11990144
-0.14428547
0.11038805
-0.10789689
0.03664258
-0.06594445
-0.08172593
-0.01119826
-0.00284721
-0.06213541
-0.14510271
0.09617682
-0.08396486
-0.00789470
0.04276931
-0.06990010
0.04437067
0.01442839
-0.12104890
-0.00750032
-0.05933979
-0.05182501
0.12367339
-0.08097378
0.06832843
0.09378620
-0.05145157
-0.02327565
-0.13861014
-0.02701299
0.04591860
0.03454148
-0.02498922
-0.00154360
-0.03084824
0.05040826
-0.00673931
0.15802453
-0.10335921
0.05669041
0.06282691
0.00430726
0.20896457
0.06299581
0.04372536
0.16138448
-0.03089034
-0.04893895
0.03641455
-0.02277330
-0.00539679
-0.06143530
-0.10539171
0.00040225
-0.06963430
-0.05046679
-0.09186714
-0.06956998
-0.11490625
-0.11287939
-0.08475573
0.00633557
-0.19080181
-0.09155894
0.02285512
-0.00835488
-0.05917282
0.03979819
-0.06037031
-0.06025682
-0.03147330
-0.03127228
-0.09297378
0.08902370
0.04535474
-0.04917078
0.03226026
-0.06191253
0.00181577
-0.07419810
-0.04490485
0.01878875
-0.04359928
-0.03989934
-0.12278877
-0.03157776
0.02560382
0.00419438
0.10534258
-0.14517680
0.04172046
-0.04377557
0.05623521
-0.03755553
-0.08499313
0.02597331
-0.12937833
-0.00363409
-0.07427001
-0.07184628
0.00098642
-0.05261478
-0.04797608
0.08696549
0.00635053
0.06335311
-0.08888845
-0.03180048
0.04314892
0.02879231
-0.06270856
-0.06941099
-0.04965668
-0.04134797
0.03831463
0.05311160
-0.12414103
0.07675605
0.00138254
0.03218931
0.09580243
-0.14456333
-0.01659883
-0.08663142
0.11628149
-0.08687901
-0.06023655
-0.08272576
-0.08592258
-0.05453892
0.05792984
0.05801575
-0.05407631
0.00700651
0.01201911
0.07478968
0.01180525
-0.07088301
-0.05444599
-0.01184775
0.01938392
0.04969622
-0.02768647
-0.03231167
0.02297763
0.05108622
-0.00227268
0.03422171
-0.06046531
-0.10164892
-0.10038504
0.05490656
0.00809420
-0.00333828
-0.04303794
0.09798636
0.13275875
0.05169115
0.11107261
0.08008420
0.09496958
0.03509216
-0.08652544
0.09136752
0.06709147
-0.00033791
-0.06862749
0.10359234
0.03241101
0.01427909
-0.04108384
-0.04703638
-0.07383709
-0.05193132
-0.08558171
-0.03626972
0.05814265
-0.10862842
0.04239375
-0.06061336
0.08140783
-0.09195186
0.05276521
0.03462674
0.07976609
0.06867662
0.00910778
-0.03472392
-0.05842341
-0.09016963
0.04761753
0.06118176
-0.12232965
-0.04574758
-0.10387252
-0.06380118
-0.01301737
-0.11395507
0.03969896
0.00125173
-0.09571105
0.07605796
-0.06387808
-0.04825950
-0.03774712
0.03532640
-0.06423165
0.01145803
0.09923107
0.06639109
0.04952966
0.07078961
0.09032606
-0.10939192
0.03362504
0.12639228
0.00169990
-0.08988690
0.01908106
-0.06460845
-0.09972239
-0.02572209
-0.02446402
0.04785505
-0.07031323
0.00491844
-0.14701888
0.03038315
0.05321098
-0.01889943
0.14446339
0.12896347
-0.07130879
0.01678923
0.01684317
-0.03808448
-0.01491049
0.08368523
0.07918090
0.14629364
0.09903051
-0.06466883
0.13455679
0.04595011
0.00144460
0.08331645
0.02617665
-0.07276952
-0.11684441
0.07325574
0.17344010
-0.01153433
-0.05897433
-0.06448635
-0.00627437
0.01350893
-0.02504904
0.11221143
0.09046347
-0.04295513
0.00034258
-0.04317862
-0.13958599
-0.11596391
-0.07845597
-0.12382203
-0.09653445
0.05996763
-0.17374578
-0.05114988
0.11721380
-0.11463538
0.01967707
-0.11790422
0.18686301
0.01161835
0.11420593
0.10945290
-0.13825904
-0.02276256
-0.09055758
0.02860546
0.01229436
0.06552704
-0.07272012
-0.13321263
0.01113795
0.00529701
0.02120442
0.01309771
-0.06090728
-0.04077438
-0.00399198
0.05564845
0.04959395
0.09642231
-0.04173724
0.04265148
-0.08209703
-0.01408767
-0.07632373
-0.04755040
-0.03016786
-0.06745946
0.02748650
-0.10397647
0.05376869
0.09775255
0.00334798
-0.00445864
-0.02756136
-0.01723745
0.05018337
0.00022840
0.12224567
0.02292083
-0.06272227
0.06727520
0.05026491
0.09455224
-0.14025031
-0.12554239
0.13425149
-0.14923765
-0.08584549
-0.06970967
0.02370996
0.11590365
-0.04230440
-0.08917093
-0.02563787
0.03400014
-0.06488035
-0.16279519
-0.10366464
-0.09735027
0.02714765
-0.05129690
-0.10343332
0.00680418
0.12969141
-0.12430783
0.02168424
0.14709370
0.10598026
0.01213911
-0.00100255
0.05208872
-0.04785003
-0.13189591
0.08395208
-0.13061228
-0.05765137
0.03714969
0.03721705
0.03507711
-0.10604591
-0.04208951
-0.01025316
-0.17655033
-0.03403432
-0.18521185
0.09863897
0.04793352
-0.07743634
0.09525526
-0.07236675
0.02812410
-0.02638971
-0.17695466
0.10740635
-0.07380630
-0.04239028
-0.05712093
-0.02256985
-0.09533467
-0.07766781
-0.11604133
-0.10280707
0.06100481
0.09883767
-0.03657690
0.00404391
0.03968002
-0.17118503
-0.03189903
-0.06375889
-0.15581688
-0.13344742
-0.00140464
-0.01996210
-0.02948239
-0.08902603
0.06218509
-0.11262967
0.06391843
0.13685878
0.07829443
0.02664979
-0.08072025
0.03931335
-0.16577347
-0.00557708
-0.12374992
-0.16098745
-0.10506536
-0.09975898
0.11785324
0.06037613
0.05034092
0.14558098
0.01544633
0.08834045
0.06674836
0.03260084
0.04301440
0.09204881
0.08427504
0.14051586
-0.06098854
-0.06534522
-0.00048818
-0.06445329
-0.17045063
-0.15715837
-0.10679010
0.06685509
0.00729734
-0.13699123
0.09966774
-0.16256420
0.03381354
0.15661858
0.03130417
-0.00771917
0.00578912
0.01636840
-0.03536488
0.01549047
0.11052107
-0.05516026
-0.04289606
-0.10775205
-0.03515835
0.14826556
0.03193508
0.13314497
0.03528125
-0.03744734
0.17069130
0.08523948
-0.13327256
0.02319846
0.01299963
-0.16203442
0.01597621
-0.01756304
0.01449831
0.12681022
0.11831284
0.02359757
0.10594463
-0.03871570
0.12129837
-0.01534361
-0.09802748
-0.06238747
-0.14644845
-0.13119607
-0.06891120
0.06615280
-0.01464573
-0.06531654
-0.02181823
-0.14262705
-0.17153049
-0.09649616
-0.03700274
0.07675421
-0.08854623
0.00325448
0.04957594
-0.01145111
-0.02800460
-0.09826312
-0.09794612
-0.11626178
0.05628294
0.12565471
-0.02559725
0.02840964
-0.09501982
-0.11064687
0.03057303
-0.03650667
-0.05733744
-0.12138870
-0.05673451
0.16448356
-0.15062624
-0.04167941
0.07948501
-0.05814379
0.11010874
0.06398985
0.07019398
0.03446361
-0.06432579
-0.05154056
-0.01933140
0.00479154
0.05248319
-0.07413212
-0.13876490
-0.11262936
-0.03725311
0.11958876
-0.08582147
-0.11346713
0.11986912
-0.10978222
0.14393957
0.16213463
-0.08212203
0.01540430
0.07906830
-0.10173741
0.04095868
0.17307419
-0.01252798
0.18492101
0.09042251
0.01303501
0.05314981
0.01402441
0.09926937
-0.00286095
-0.05706917
0.01055917
-0.05222996
-0.00717277
0.00538044
-0.03630044
0.15400587
0.01499345
0.09424631
-0.03130903
0.04487624
0.17433470
0.15087259
0.06504122
-0.13996319
-0.16465929
-0.05704453
-0.03615771
-0.12414191
-0.18758239
-0.08672540
-0.08640506
-0.03919094
-0.16823620
-0.05752331
-0.17733292
-0.20633246
-0.14408180
-0.24116971
-0.06348024
-0.04151439
-0.08435653
0.04556568
-0.05839518
-0.02715304
-0.04347980
-0.16214444
-0.00273287
-0.12424614
-0.13288766
0.10153574
0.03897574
-0.10959501
0.10116401
-0.05510878
-0.10457873
0.02790467
-0.14905284
-0.09880641
-0.04597744
0.09231396
-0.11195172
-0.05164659
-0.05130880
-0.14883853
0.04770336
-0.01357681
0.02409563
-0.06113674
0.07425620
0.00220798
-0.00404113
0.05319849
0.05641246
-0.04511359
0.00209984
0.01704711
-0.09382751
0.12070629
-0.02846928
0.05462759
0.07973627
0.02694503
-0.09452637
-0.10454267
-0.07622167
-0.13623796
0.09385312
0.20583875
-0.08210754
0.02304620
0.14457753
-0.06212363
0.21117209
-0.11134738
0.02300567
-0.05233110
0.05199060
0.06887379
-0.07860035
-0.05708925
-0.01857276
-0.15482518
-0.06559876
-0.18265581
0.03103384
0.04350135
-0.10174114
0.00570394
-0.04652255
-0.03318384
0.07673801
-0.05107493
-0.09749071
-0.08451793
0.06627690
0.00921166
0.03747611
-0.07649989
0.05465810
0.04074719
-0.05941253
-0.02542930
-0.13428171
0.02074392
-0.05180524
-0.04592957
0.00469759
-0.04458071
-0.03235248
0.03770690
0.09652420
0.06563667
0.02991784
0.03221938
0.03496312
-0.02309620
-0.07175056
0.08343296
-0.03435645
-0.04847498
0.07112896
0.04073882
0.04484899
0.05194496
0.01697880
0.03122653
-0.10942677
0.00016142
0.05621303
0.07026971
-0.07467479
0.04673357
-0.12157258
0.07282861
0.04980804
-0.00332526
0.07230662
-0.06044759
-0.01295674
-0.01508524
0.00367952
-0.02996628
-0.04965555
-0.11481804
-0.05707989
0.10988986
-0.06865044
0.10260341
0.04247045
-0.00088857
0.06668624
0.06037972
0.01571165
0.02013961
-0.11280321
0.04903632
0.08216904
0.03781714
0.06007671
-0.06906627
0.06037868
-0.10132739
-0.04888691
-0.00753119
0.06658006
-0.09022720
0.02540120
0.06991012
0.03633505
0.02387332
0.05964305
-0.02343882
-0.02615672
-0.11855751
0.00755075
0.02596115
-0.08804901
0.04634291
0.06294427
-0.08868266
-0.01856909
-0.02299195
-0.00316630
0.08937886
-0.03432047
-0.01657416
-0.03590156
0.11986639
0.09020936
-0.06028346
-0.03123159
-0.06834824
0.01251379
0.07333856
-0.08550446
0.05789220
-0.02462150
-0.07588238
-0.05333836
-0.05238967
-0.10139817
0.02345645
-0.10349285
0.08979926
-0.00793112
-0.05318821
0.07483348
-0.00877026
-0.06589297
0.03490036
-0.04773685
-0.04118386
0.01415853
-0.11626184
0.03510024
-0.09881809
0.04536491
0.10194311
0.00860133
0.06013009
-0.07189339
0.00177670
0.04639122
0.00702045
-0.08657029
-0.09813458
0.07479303
-0.11532097
-0.00259269
-0.02296184
0.07683339
-0.08189341
0.05426142
-0.12107543
-0.01296548
-0.05868895
-0.04935439
0.00497431
0.01207574
-0.08436301
0.08036768
-0.00255766
0.07051920
0.00809553
0.05538524
0.02303674
0.02525955
-0.00590608
0.08133120
-0.05553060
-0.12478223
0.06344936
-0.02409722
0.00936942
-0.04752139
-0.07374071
0.13986240
-0.11016873
-0.10825054
-0.00817837
-0.09406065
0.09774727
-0.02519310
0.03478630
0.04163225
0.12985498
-0.04766372
-0.09572699
0.06714159
-0.03788689
0.11902381
0.06216526
-0.13729164
0.01564643
-0.08752302
0.02047296
0.03272080
0.10136992
0.00546806
-0.00262272
0.03445789
-0.07883177
0.05205015
0.08700883
-0.11549011
-0.01182551
0.08234438
0.09357698
0.06713437
0.05258103
0.09707643
-0.05668543
0.09685640
0.04159753
0.01242966
0.11534344
-0.01887467
-0.05453659
-0.12068016
-0.12762398
0.07878610
-0.04246190
-0.15160660
-0.13191621
-0.11002155
-0.01801491
0.09618280
0.06195335
-0.10722734
-0.03365037
0.06565962
0.09692047
-0.03348734
0.02076708
-0.09229200
-0.08994976
-0.05493542
0.05249793
0.08380616
0.03158820
-0.01268056
0.04573616
-0.10651514
-0.02240537
0.01337522
0.06914181
0.02428358
-0.09653304
-0.12918098
-0.10289957
-0.02251172
0.04954280
0.00335500
-0.09369486
-0.06391204
-0.03807430
-0.05013731
0.03854188
0.06021065
0.06397487
0.07790066
-0.07879427
0.12214612
0.01090954
-0.13039955
0.09022547
0.06151521
-0.06917820
0.05256605
-0.07268377
-0.01715258
0.03818851
-0.02252381
-0.03466200
-0.01621312
-0.07101195
0.05248939
-0.03372297
-0.06004376
-0.06832023
0.01852294
-0.17454402
-0.00671785
-0.11039484
-0.01522888
0.01298498
-0.05167468
-0.00609818
0.06976305
0.10085823
0.09087078
0.02442589
-0.00424958
-0.07617231
-0.03545297
0.04973007
0.10431770
0.08826523
-0.02727256
-0.02298163
-0.07457252
-0.02983636
-0.06551853
-0.05012392
0.07735962
-0.02530326
-0.02827495
-0.09494688
-0.05162320
-0.01260197
-0.08867127
-0.05307855
0.00144415
0.05424551
-0.01894679
-0.11945869
0.02210798
0.04297336
-0.03989391
0.12179271
0.00303067
-0.05881675
-0.06052461
-0.11708261
-0.00813291
0.03901321
-0.11562479
-0.00967647
0.02305038
-0.00364041
-0.07718132
0.02414300
-0.02607157
-0.17518027
0.01235527
-0.01935945
0.07281224
-0.01349763
-0.03972189
0.00939689
-0.04340854
-0.05208078
0.08633920
-0.07738029
0.06346492
0.12226480
0.03330420
-0.03165698
0.03555852
0.01933808
-0.09153217
0.02157335
-0.12181923
-0.11055034
-0.05598606
-0.07702398
-0.05265141
0.04146404
-0.01158432
0.00332113
-0.15878798
0.02096800
0.14674874
0.00322042
-0.03528867
0.03786876
-0.01970289
-0.00784412
0.08310055
-0.15860258
0.00593080
0.06105398
0.03512295
-0.08717550
0.03105698
0.01481257
0.04742397
-0.06279347
-0.06457644
-0.07164901
-0.03778975
0.07924058
0.09632850
-0.06819095
-0.04966161
0.10035035
0.05012455
-0.05688846
0.08377911
-0.08545862
0.05867393
-0.12197836
-0.07025788
-0.07925777
-0.00072603
0.11606519
-0.07282509
0.04614279
0.06908805
-0.08544652
-0.09485794
0.05153807
0.03773175
-0.07361991
0.00092277
0.08486350
-0.09151144
0.14178772
-0.06236726
-0.05897853
0.05073417
0.03716754
0.03734982
-0.05643106
-0.03662005
-0.09076954
-0.01973969
-0.04698678
0.04282174
0.07221751
0.02767671
-0.11129491
0.06857693
-0.14940745
-0.12835249
-0.12911211
0.09413940
0.10330056
0.06260957
-0.00470794
0.06985377
0.08692285
-0.09255663
-0.13137172
-0.15997513
-0.09588616
0.05296317
0.00002959
0.03943462
-0.05615817
-0.01315453
-0.02960562
-0.09487541
0.03963149
-0.07693931
0.08757280
0.08199524
0.02831719
0.03841923
0.07585608
0.14078803
0.05898925
0.00103040
-0.07519314
0.10802478
-0.01223543
-0.02733864
0.04448073
0.04960990
-0.11697919
0.03699755
-0.08348898
0.11816265
-0.07580457
0.04030818
-0.07727687
-0.09050758
-0.06919692
-0.09081985
-0.05343639
0.10709164
0.07480928
0.06520376
-0.06463774
-0.07146356
-0.01601025
0.00289255
-0.04483625
0.00081103
0.03419698
-0.14344020
-0.05770361
-0.06513120
-0.09165569
0.10509935
0.05689964
-0.14268713
0.10130367
0.13259351
0.08597354
-0.10594666
0.04430482
-0.02337798
-0.15237115
-0.06743383
-0.03528228
-0.03300610
0.12998314
0.07889444
-0.00853574
-0.07136508
0.01871810
-0.07222977
-0.00686490
-0.07610811
-0.08701407
-0.11043724
0.07632916
-0.08158714
0.08615821
-0.06088677
-0.13822082
0.05519173
-0.11828724
-0.11710087
-0.04960165
-0.09266624
0.05281663
-0.06456353
-0.00217801
0.02744929
-0.09346717
-0.19061822
0.02372443
-0.11372592
-0.09064378
0.06955522
-0.04128148
-0.01585832
0.09463651
-0.05039456
-0.09900779
0.02397666
-0.09380940
0.06633440
-0.00512697
0.06779299
0.01520337
0.02589677
-0.01840140
-0.00243259
-0.06756765
-0.15490101
0.04655328
-0.10502061
0.10234366
-0.00914207
-0.01801049
0.10334267
0.04457381
-0.03103098
0.08014665
0.02196588
0.04314756
0.05461285
-0.04864738
0.07247806
0.01896039
0.00562665
0.03275415
0.04605592
-0.02368103
0.04920189
0.09990766
0.00553772
0.06818707
0.07299256
0.05476738
-0.02869704
0.01904662
-0.09423746
-0.04116463
0.02521148
-0.00575679
-0.06677867
0.03250906
-0.00901458
-0.00547798
-0.03134946
-0.01084896
-0.11812886
-0.00743146
0.01117625
-0.07587229
0.07229328
-0.05051981
-0.08674338
0.17524451
-0.02464186
0.12010440
-0.05769632
-0.09256038
-0.05944322
-0.10429276
-0.06817719
0.00704872
0.07263234
0.11264476
0.04066443
0.15428549
0.06854866
0.09784357
0.02749358
-0.01949918
-0.05483019
-0.13522920
0.04827178
-0.04689464
-0.01345001
-0.09483188
-0.10844678
0.01699750
0.04306037
0.11377285
0.07183469
0.03453219
0.03980220
-0.03634802
0.07942583
0.05652303
-0.10895306
-0.06418896
-0.03330882
-0.13121721
-0.07242688
-0.14860301
-0.11880015
-0.00008724
0.01087663
0.09710293
0.01473515
-0.08569389
0.10916589
0.20306107
0.00651103
-0.01500166
0.00197943
0.06699529
-0.05724894
0.03616865
0.15739019
0.02282579
0.03423302
-0.10873181
-0.01386540
-0.00158705
-0.02290270
0.02526028
-0.06594957
-0.06225635
-0.15841283
0.03645540
-0.04438700
0.10700990
0.01981612
0.05206912
0.02256637
-0.13059551
-0.10388119
0.05043026
0.06000733
-0.09588366
-0.02421599
0.01533462
0.01977275
-0.07397413
0.10317616
0.07937244
0.05245521
0.04222926
0.08512191
0.05379511
-0.03333306
0.06220374
-0.12930648
-0.14559214
-0.08058960
0.00561580
-0.12892179
0.04085850
0.02336430
0.15672334
0.00912549
0.01465850
0.02865483
0.09353180
-0.05020190
0.06656953
-0.02333251
-0.01407358
0.03869983
0.14950629
0.13913156
-0.04705881
0.07872296
0.01547918
0.01521637
0.00890287
0.07934279
-0.03751330
0.01135983
-0.06121683
-0.07597722
-0.02695083
-0.03138617
0.06621899
0.11740328
0.09609316
-0.13817973
-0.06936167
-0.03124066
0.00783199
0.06767835
0.04146909
0.12872876
-0.00967277
0.07756981
-0.06472039
-0.07061114
-0.10507728
0.01355302
0.07817032
0.02538349
0.12135696
0.13955648
0.03212908
-0.02554278
0.07381102
0.02460982
-0.09569830
-0.06403524
-0.04896192
-0.08579642
0.01756825
-0.02700617
0.02905563
0.05208294
0.05517020
0.04757666
0.00319534
0.05863900
0.09823581
0.00208929
-0.05424689
0.02560074
-0.03961324
0.00435125
-0.00562467
0.02938658
0.06497932
-0.07713979
-0.06865707
-0.04082950
0.01334446
-0.01371326
0.00661445
0.19570896
0.01394418
0.14029957
-0.05139027
0.01444998
-0.05755633
-0.08173031
-0.02905409
0.03000343
-0.02566551
0.06636813
0.05341751
-0.06817010
0.00707263
-0.03314361
0.08887128
0.00856608
-0.04924572
-0.15325707
-0.13719024
-0.07312239
0.00952628
-0.14409991
-0.05414579
-0.02802241
-0.04806387
0.11384203
0.05635620
0.11264027
0.07352110
0.17227361
-0.09113177
-0.11910988
0.06419826
-0.19476539
-0.20337652
0.07977998
0.04333059
-0.07487040
0.10777821
0.02084559
0.00475239
0.07060532
0.06325054
-0.09422614
-0.01559153
0.16142616
0.02842452
0.11350241
-0.01067891
0.04165801
-0.06535291
-0.04109090
-0.07351373
-0.18078986
-0.03889877
0.06009168
-0.05161455
-0.06505175
-0.01502170
-0.09671076
0.01589823
-0.06548343
-0.09569733
-0.09835292
-0.03433779
0.05054351
0.03360531
-0.00402630
-0.03780782
-0.03552623
0.02376210
-0.10942245
-0.07901156
-0.16182172
-0.08683384
-0.08151597
-0.05534706
-0.07365759
-0.04779049
-0.02140758
0.02417567
0.06162238
-0.06952828
-0.02686841
-0.02661537
-0.07403750
-0.07484179
-0.11327902
-0.00002087
-0.16745794
-0.14426929
-0.06313359
0.00265008
-0.05917259
-0.08319000
0.10318105
0.06522796
0.09149886
0.00040181
-0.07417105
0.02026873
0.06330457
0.02292327
-0.07570869
0.00897069
0.01103133
-0.08737959
-0.14679396
-0.06637491
0.06421456
0.16673973
0.14255480
0.12560992
0.05732578
0.13829914
0.13574123
0.03251668
0.06682725
-0.01142585
0.07181608
0.07117135
0.03525314
0.06347523
0.01143838
-0.01560428
-0.02828295
0.00491512
0.10392812
-0.02126925
0.03725950
-0.12186455
-0.04106749
-0.13863784
-0.16634355
0.00723147
0.11059635
0.01164147
0.07868787
-0.10020679
-0.14197712
-0.06032204
-0.01210505
-0.08574101
0.01521920
-0.02216589
0.01657667
0.02608827
-0.03124067
-0.12446729
-0.11938635
-0.03110046
-0.06583764
-0.02912911
-0.07037871
-0.07407732
0.03027515
-0.12503192
0.08295994
0.17237461
-0.06040752
-0.06555890
0.03554975
-0.05668302
0.01279723
-0.07226457
0.03980006
-0.12717141
-0.08190435
-0.04864454
-0.05499743
0.00842253
-0.04027204
0.02506116
0.09004989
0.10660682
-0.10813602
-0.10679098
0.14016837
-0.00714610
-0.17588522
-0.01161312
-0.05501176
-0.01542004
0.08602001
-0.12495981
-0.01135755
0.00609878
0.04530240
-0.04923267
0.01802744
-0.02206004
-0.04387565
0.08320777
0.13063456
-0.03242776
-0.07996096
0.03034569
0.15610488
-0.12063932
0.04763823
0.10406053
0.02824428
0.00021770
-0.07791376
0.04305259
-0.03182926
0.01545181
0.02185470
0.06193012
0.01865777
-0.15210432
0.00341606
-0.00507759
-0.16006222
-0.02736830
-0.00599630
-0.12137137
-0.03624442
-0.08617383
0.00948678
0.13076931
0.07650922
-0.09165223
-0.01257121
-0.05185210
0.09452637
-0.01877413
-0.06608849
-0.05685139
-0.01238261
0.00465427
-0.01287222
-0.00962783
-0.11740399
0.01102850
-0.01793671
-0.07500587
0.03579140
-0.13058846
-0.08654895
-0.01280175
0.12376198
-0.10741553
-0.11363125
0.01831995
0.00280950
0.07224724
-0.11207215
-0.07312256
-0.06838322
-0.01932816
0.02888059
0.04247849
0.01160670
-0.12255826
-0.08745837
-0.08692484
-0.09254187
-0.08809581
0.01809302
-0.09110510
-0.04299634
0.10388156
-0.10374235
-0.11902453
0.17951655
-0.00677501
-0.16301098
-0.04058689
0.12391512
-0.08331826
-0.03355236
0.08547933
0.06583932
0.01710140
0.02188781
0.05556968
-0.09869053
0.00894611
-0.06574951
0.03801796
0.01182429
0.05073115
0.09450117
-0.09005966
-0.08660052
0.01994760
0.04306579
-0.01670033
-0.11687397
0.01983644
0.06653282
0.10601028
-0.04349065
-0.13609290
0.08336051
0.00595630
-0.04739503
0.06708479
-0.02799075
-0.00827853
0.01986087
-0.05814323
0.04563930
0.10734298
-0.17265202
-0.03073674
-0.02259196
0.04359929
0.06084960
0.18255641
0.02203626
-0.04850000
0.16452062
0.01899134
-0.08781560
-0.04082575
-0.02903461
0.01513990
0.10035464
0.00629703
-0.13527486
-0.02804537
0.00406994
-0.04773237
0.00348490
0.02320195
0.02881231
0.03335995
-0.12417998
0.03140569
0.05072988
-0.10809116
-0.11476331
0.07781528
-0.01774804
0.13323456
0.06826431
-0.10118173
0.11748902
-0.06561420
-0.18060239
0.08484117
0.04757853
0.06771947
-0.02873522
-0.11108962
0.03480060
-0.03433980
0.02540720
-0.05610482
0.09016234
-0.09743259
-0.05919923
-0.10748601
0.06542469
0.13259523
-0.02052563
-0.15832224
0.05157397
-0.07392441
0.07225768
-0.04437021
-0.03213001
0.06439824
0.01418725
-0.14813383
0.06080814
0.12571479
-0.01459946
0.11942416
-0.09349051
0.11473220
-0.08442523
0.05475991
0.11738532
-0.05344190
-0.06403001
-0.06245394
0.00140000
-0.12723650
0.05925037
0.08300759
-0.14777693
-0.08192132
0.10353598
-0.03647732
-0.12660719
-0.01527901
-0.01273368
0.03542828
-0.03628190
0.05064294
0.01294487
0.13512839
0.00000043
0.07334646
-0.06909778
-0.01227873
-0.18907830
0.07885888
0.06089563
-0.21681170
-0.00961255
-0.02013579
0.05344379
-0.02139877
0.16904195
-0.02729402
0.13866918
0.03761292
-0.02282790
0.06984677
-0.02239784
-0.13771263
-0.05405816
-0.02889179
-0.04401329
-0.06488382
0.02646456
0.17250147
-0.01937346
0.03542480
0.01538125
0.06785551
0.12186877
-0.04491978
0.07865603
-0.09993010
-0.07290269
0.00122950
-0.18831281
-0.21649893
-0.10496107
-0.00840253
0.01765704
-0.13686371
0.04407827
0.05620985
0.10155199
-0.12744318
0.07346294
-0.01610890
-0.11682304
-0.06639325
0.07812100
-0.00180813
-0.08880323
-0.08799177
0.17144139
0.02086297
0.13358685
0.15941185
0.17192680
0.12701614
-0.07074222
0.02609050
0.13926332
-0.14938632
-0.21472552
-0.07829477
-0.00264363
-0.04262846
-0.09299986
-0.12651086
-0.13421343
-0.12727652
-0.19688337
-0.03864404
-0.10136194
-0.09241597
-0.04413683
-0.10478017
-0.02365082
-0.06131052
0.01050823
-0.06307133
-0.04116756
-0.08059433
-0.10614874
0.03034212
0.16824049
-0.01114285
-0.02021842
0.01770852
0.03469234
-0.03726621
-0.09666677
0.09103457
0.00695334
-0.10503324
0.06700054
0.06542692
0.00816877
-0.05663309
0.07257082
-0.03524560
-0.11026804
-0.02783525
-0.03192643
-0.05583591
-0.07003792
-0.05695121
0.11963969
0.15039974
0.05566089
-0.10856210
0.02468609
-0.11206877
0.03397083
-0.02449189
-0.04319229
0.13725495
0.31097972
0.22207384
0.00366871
-0.03458206
-0.06150600
-0.02311413
0.09140334
0.01875427
-0.14225803
-0.12455946
-0.11758256
0.07896665
0.02601410
0.08120014
0.02451666
0.14967746
0.14252661
-0.14755601
-0.03731478
-0.15408252
0.11637129
0.06487045
0.07906748
0.09158110
0.12662642
0.08183909
-0.07799752
-0.05078490
-0.10803836
-0.08875913
-0.09192912
-0.05544579
-0.00747555
0.04756873
0.14093371
-0.16030632
-0.15022901
-0.06198908
-0.11001809
-0.08318485
-0.06769749
-0.04924314
-0.11268118
-0.12935753
0.11082309
0.20641266
0.15814981
-0.01184014
0.13940492
0.10148610
-0.08076553
0.12455578
0.11209225
-0.02781783
-0.10312976
0.00391712
-0.07410587
0.03744924
0.17529882
-0.04535741
-0.06027070
-0.06743833
0.01355383
0.06748495
0.01741726
-0.05533926
0.06381726
-0.09570168
-0.03870434
-0.01758758
-0.02987967
0.05130107
0.10994303
0.06285697
-0.03358931
-0.09965070
-0.15318899
0.01539537
-0.06099589
-0.06891576
-0.03045454
-0.05287263
-0.09329019
0.00696944
-0.06810533
0.14878032
-0.07962348
-0.13642731
-0.12702194
0.08360154
0.03272177
0.10731462
-0.06551667
-0.03707440
-0.12788007
-0.15223490
-0.11328973
-0.05473873
-0.14795394
-0.14853062
-0.25973859
0.15038264
0.21048990
0.26335061
-0.07054158
0.00356373
0.02505192
-0.03828005
-0.07502535
-0.10862242
0.08982514
-0.11294601
0.02107568
0.03934030
0.01266894
-0.06060474
-0.20928618
-0.12968178
-0.10521975
-0.06593080
0.04238945
-0.07346456
-0.07593307
0.11091723
0.07338132
-0.11613628
-0.07325459
-0.04892197
-0.01756182
-0.05169536
-0.01013200
0.02601332
0.09954312
0.14195757
-0.04601868
-0.13108851
-0.00425772
-0.08749297
-0.05486668
-0.04338296
-0.09711791
-0.13671942
-0.10877131
0.17949115
0.11313442
0.02990801
0.07833595
0.07093898
-0.07006134
-0.05652019
0.03574632
-0.00058401
-0.09262692
-0.01037986
0.00170844
-0.08747052
-0.06518994
-0.02733313
-0.11473012
-0.11633480
-0.09423431
-0.08753741
-0.00424554
0.02962671
0.05353633
0.06391057
0.00544049
0.02213582
0.08442856
0.06314027
0.02704993
0.02693618
-0.08305547
-0.01540521
-0.08729084
-0.09482357
-0.02885570
0.04118956
0.09301088
0.21482484
0.27791724
0.25614876
-0.01730293
-0.06157726
-0.06780228
-0.11428986
-0.00999277
0.05859065
-0.07026627
-0.07838444
-0.12877730
0.05056833
0.13474712
0.08789004
0.09335870
0.07983536
-0.06107029
0.04424354
0.06277092
-0.09496617
0.11574826
-0.09077568
0.03006450
-0.05704836
-0.08570804
-0.01516527
0.05146804
-0.08204686
-0.12641032
-0.05565757
0.09322343
0.07371768
-0.07179215
-0.12123677
0.06272560
-0.15563110
-0.09607286
0.07246362
-0.12624297
0.06394661
0.03150722
0.08399371
0.05089168
-0.07360166
-0.01365068
0.10012469
-0.02432169
0.06532645
-0.01407008
-0.02755178
-0.09608659
-0.09177599
-0.05884852
0.07288917
-0.02425894
0.00479703
-0.17576721
0.03529870
-0.06577025
-0.12078005
-0.13422137
-0.03737195
-0.13234721
-0.12176973
0.00758313
0.04029520
-0.09214471
0.07899188
-0.03771766
-0.05896700
-0.08148328
0.01350049
-0.08423363
-0.08963314
0.04260391
-0.05573042
0.01274541
0.01813425
-0.03471819
0.06363449
-0.02261941
-0.07560162
0.10736743
-0.00730481
0.03429324
0.03396001
-0.05927337
0.05476030
0.08112027
-0.10547069
-0.01836381
0.05546096
0.02512212
-0.03695907
-0.00851659
-0.09406941
-0.07301319
-0.06201107
0.08072497
-0.03200630
0.05612694
-0.04450129
0.05360017
0.04608669
-0.04107031
-0.03260525
-0.01189888
0.08185880
0.12546499
0.11095707
0.11284906
0.08192778
0.11476481
-0.00970516
-0.09962820
0.03085514
-0.09950337
-0.07205535
-0.09347802
-0.05786504
0.12767904
0.03217572
0.00590981
-0.10377977
0.03099008
-0.01347809
-0.01221297
0.00754585
0.02361635
0.09936001
0.09077516
-0.09564941
-0.03491915
-0.07756246
-0.11915842
-0.09382236
-0.09216917
0.06600863
0.07739305
0.07433391
-0.04041374
0.01507962
-0.01178998
-0.00898286
-0.04015980
-0.00897547
-0.05127703
-0.06920890
-0.06290109
0.02192743
-0.08762173
-0.08737501
0.06482603
0.09352285
0.02954727
0.01272664
-0.03336558
0.05245114
-0.07686428
0.05457778
0.02312450
-0.01256459
-0.14719933
0.03717398
-0.03179235
-0.12811792
-0.09900869
-0.00353367
-0.03571830
-0.05835660
0.01217099
0.08150361
0.03750581
-0.08150309
-0.02162445
0.00663188
0.02373165
-0.11334734
0.03375937
0.04364077
0.04410846
-0.06367470
0.07790589
0.04920312
-0.05998982
0.00807182
-0.02958962
-0.02284784
-0.06337683
-0.03376142
-0.05892834
-0.14354618
-0.08767326
-0.10489685
0.03514003
-0.08662968
0.01390351
0.02222493
0.14306372
0.13097109
-0.02082353
-0.20781748
-0.06611361
-0.19080454
-0.09342794
-0.09877837
-0.06947149
0.02434538
-0.02062686
0.02940367
-0.05291205
0.08622575
0.09046074
-0.03641545
-0.09123817
0.06216088
0.05181396
0.00962638
0.05038908
0.09594389
0.04136588
-0.02021359
-0.03018906
-0.01566767
-0.10533241
-0.05208598
-0.11683463
0.02135493
-0.01627659
0.10400537
-0.14109008
-0.02487709
0.02423371
-0.10348702
0.01669292
0.01570129
-0.07170354
0.07603914
-0.07182173
0.01245670
0.00011337
0.04220109
-0.04074768
-0.11756292
-0.14419253
-0.13338721
-0.08155940
-0.03391620
0.00121371
0.04898751
0.06319439
0.08636662
0.16334248
0.06326935
0.07625315
0.00139350
0.00320395
0.05027066
-0.12844680
0.02444394
0.01699839
-0.02574229
0.02367963
-0.04938463
-0.04973900
0.02504351
-0.07692558
-0.13561730
-0.13281669
-0.05585624
0.01382473
0.10091816
-0.02173516
-0.08762464
0.03635645
-0.04364775
-0.05533554
-0.07820334
-0.05851560
-0.08535728
0.06464901
0.01231981
0.04957581
-0.04457965
0.15600544
-0.06361219
0.03158597
-0.05255045
0.17106780
0.04177780
-0.04878410
-0.12139171
0.03575320
-0.11041684
-0.06844882
0.05040438
0.06691663
-0.05892472
0.00886875
-0.02802551
-0.26647627
-0.22727115
-0.00932533
-0.10930680
0.06436004
-0.10851852
-0.00599688
0.01855486
-0.02778512
-0.07396929
-0.03087297
-0.09355350
0.01543574
0.00207682
0.00468814
0.08489732
-0.06109546
0.01059679
-0.18730308
-0.09177510
-0.01724931
-0.02611366
0.03208802
-0.06878906
0.00750362
0.05482372
0.05642867
0.05774263
0.02007189
-0.01738316
0.11248673
-0.11470155
0.05614429
0.03743282
0.03594450
-0.14960466
0.05195820
0.08314165
-0.10684223
0.02909052
0.05295616
0.02583972
0.00793540
-0.03331407
0.19507691
-0.20162699
-0.13085617
-0.05164688
-0.06028354
-0.07154741
-0.05630297
-0.02734479
0.13803867
-0.08856242
-0.15843129
-0.02075964
-0.09360684
-0.05322581
0.05188968
-0.11121254
0.01919529
0.08358585
0.08061039
0.10057890
0.07144937
0.14531545
0.04783947
-0.01485319
0.01045174
0.01191838
-0.08433247
-0.11212941
-0.08433914
-0.04488469
0.04981970
-0.01004588
-0.08116787
0.01627408
-0.03859815
-0.06494555
0.04406922
0.15375893
-0.03782791
0.07838749
-0.05900592
-0.09439059
0.00432538
0.01102559
-0.03619770
0.02442451
0.03947264
-0.16790882
-0.05320942
-0.00448507
-0.01020312
-0.12568043
0.00073233
-0.00011956
0.01075083
-0.02736170
0.09120292
-0.14159416
0.03194096
-0.02961486
0.01551839
-0.04922108
-0.00247832
0.04526035
-0.06228276
0.06122232
-0.13330987
0.01510723
0.06164229
-0.00437030
-0.06999003
-0.11471466
-0.16592638
-0.04745533
0.03276848
0.00510033
0.09076761
0.07981133
-0.03186719
-0.04551305
0.01377255
-0.12901855
-0.04297721
0.08522134
-0.03429875
-0.07386947
0.03346046
0.04387965
0.11301883
0.08708335
-0.03309024
0.04215990
-0.02399947
0.12322436
0.00848761
-0.06750720
0.03902255
-0.07981024
-0.10579988
0.00705472
-0.04183075
-0.06235466
-0.03901245
0.07269681
-0.05390410
-0.08927669
0.10550702
0.07156658
0.08923697
0.19421132
0.04599585
0.14991932
0.04280087
-0.12458236
0.18299051
-0.07626443
-0.09030458
0.09355450
0.00802535
-0.01694459
0.03606519
0.01822452
-0.11571869
0.06012207
-0.09304779
-0.05885066
-0.06629667
-0.05464773
-0.11171099
-0.11140995
0.03156282
0.10926189
-0.13023448
-0.09690563
-0.02831014
0.01668779
0.02367427
-0.15194084
0.06902471
0.07818689
-0.08129512
0.10595124
-0.01842137
0.05115736
-0.19331034
0.07586757
0.17146541
-0.03038352
0.10419955
0.15180191
-0.01187604
0.07204656
-0.03932963
0.04913818
0.05036419
-0.14341003
0.01475423
-0.10020015
-0.14611015
0.02621834
-0.09081459
-0.04044966
-0.03868357
-0.01329312
0.00897226
-0.01019512
0.04054068
0.00927851
-0.01133374
0.06479809
0.12714131
-0.08017378
-0.12950528
0.03565609
-0.11293140
0.08197917
-0.04381113
-0.06228240
0.02235840
0.01175779
-0.05916939
-0.12066156
0.07076177
-0.12102267
0.10460920
-0.03042362
0.00692322
-0.00188790
0.01483347
0.03476644
0.01589765
-0.01961918
0.11240155
-0.02214533
-0.05105285
-0.07236901
-0.08809851
-0.01856933
-0.01211163
0.02987709
-0.00528291
-0.10527449
-0.00633174
0.04886444
-0.01689366
0.02737928
0.07531415
0.11898934
0.03251715
-0.20831551
0.05606383
-0.09605327
0.02429830
-0.10068052
-0.04234879
0.02774508
-0.11753488
-0.12036330
0.03920041
-0.02367476
-0.06115477
-0.04397155
0.01010311
0.08471099
0.08296954
0.09735294
-0.00216971
-0.09212990
0.02515761
-0.07574695
-0.15972035
-0.03724188
-0.14232408
-0.09189250
-0.02516931
-0.11266364
0.07695854
-0.12618519
0.06019439
-0.00393968
0.06590936
0.08547264
0.05038293
-0.06396474
-0.19268912
0.10931084
-0.05723791
0.11417785
0.10167799
-0.04357303
0.09277645
-0.05706892
0.01287725
0.10796836
-0.08109515
0.07698817
-0.00465962
-0.19003582
-0.02605410
-0.09525578
0.04351161
-0.19276619
-0.04224327
0.05755987
0.00816129
0.10228305
0.00155066
0.08478706
0.01122648
-0.10389716
0.18275449
-0.07208636
0.08587316
0.07253354
-0.00301179
-0.03448245
-0.00162238
0.00627160
-0.03235897
0.12221329
0.03318955
-0.16588673
-0.03238252
-0.04684270
-0.01994671
0.04794017
-0.07708768
-0.13125959
-0.01424343
0.00766675
0.25896713
-0.15596999
0.20653795
0.10115998
0.00566284
0.08426028
0.09016581
-0.16342293
-0.00928848
0.08194230
-0.05154635
0.10592787
0.04975626
-0.05545701
0.12249710
-0.03507511
0.13474607
-0.05054393
0.09468379
0.12978600
-0.14367090
0.02677725
-0.01505023
-0.01924873
-0.01441786
-0.13577905
-0.02706181
-0.06515611
-0.08298557
-0.08899767
-0.07249912
-0.01305241
0.09213223
-0.05495192
0.22513255
-0.09635827
0.10460158
-0.00302984
0.09176768
0.21650113
-0.12445558
0.09857879
0.15226816
0.07558564
-0.11906230
-0.03306050
-0.08042289
0.02534637
-0.06154857
0.07454155
0.04128625
0.00104098
-0.10751828
-0.07990462
-0.15809208
-0.05820487
-0.06577335
-0.03863970
-0.05261221
-0.03187478
-0.03224393
0.03936471
0.02348390
-0.10693118
-0.03286159
-0.08142842
-0.14283268
-0.05832087
0.04372460
0.00209155
0.02797554
0.06397399
-0.13419701
0.10254456
-0.03689796
-0.20281443
0.11540676
0.01352984
-0.04408568
-0.06418683
0.04281813
0.07318393
-0.00732266
0.11012028
-0.11577161
0.09583846
-0.09112325
0.00613710
0.05269045
-0.11847186
0.08101869
-0.01946428
-0.16088915
0.08857994
0.00745467
-0.02508436
-0.04506385
0.03322567
0.02406257
-0.04293150
-0.00217123
0.02710452
-0.03287506
0.04916244
0.01012864
-0.08505528
0.26240328
0.13606848
-0.08198151
0.11869168
-0.03397964
0.03661685
0.01425563
-0.00397085
0.11899091
0.22646858
0.06320833
0.13646953
0.08609121
-0.03383848
0.01287086
-0.06497117
-0.02880501
-0.02597778
-0.16958563
0.01069982
0.06853295
-0.16193236
0.03984415
0.07445459
0.00282241
0.09797858
-0.09952985
0.17447688
-0.00455297
0.16369779
-0.07717147
0.03445534
0.09206343
0.00626450
-0.05591199
0.09012972
0.12771751
0.31713107
-0.17451739
0.34922877
0.20274742
-0.16334875
0.15093170
-0.03033747
-0.09929702
0.02317946
0.04075054
-0.05295464
0.00306502
-0.11554740
-0.02552026
-0.00401186
-0.11460682
0.00040019
-0.03516171
-0.02417933
0.14357752
0.04447240
0.16872168
-0.01670614
0.03165433
0.06493754
0.04148925
-0.02483340
0.09542433
-0.04892746
0.11434527
-0.03991183
-0.16930282
0.07302052
-0.02061406
-0.11309279
0.01608545
0.07636547
-0.13629192
-0.00747703
0.02578743
-0.02404591
0.10331322
-0.04819533
-0.10731100
-0.00138906
-0.12366582
-0.02903748
-0.08390558
0.04537921
0.09407412
-0.06800321
0.05493058
0.09827530
-0.06263803
0.03423595
0.12926862
-0.11466968
0.02394815
0.10538577
-0.08548563
-0.07771162
0.00869556
0.11838952
-0.09294509
0.17854500
-0.00212950
0.18814771
0.27530465
-0.07715553
0.03974899
-0.03898317
-0.17121175
0.07140925
-0.07718544
-0.01283042
-0.08243041
-0.09684245
0.06747515
0.00203374
0.06306201
-0.00663821
-0.02036539
0.09057535
-0.04839449
0.05986712
0.06871910
0.06912741
0.00619116
0.06610890
0.11717836
0.06321599
-0.07016191
0.04353996
-0.07922713
0.06857541
-0.12134668
-0.01301989
-0.01665980
-0.10820434
-0.15110566
-0.09180443
-0.03533399
0.08540673
0.02830563
-0.14117438
-0.05167230
-0.13462064
0.03912748
-0.02270262
0.01716895
0.00897763
-0.09774778
0.06666915
-0.12185832
-0.06684722
-0.01195718
0.08930134
-0.07614225
-0.07263919
0.00556664
0.05000136
0.05307066
-0.08517474
-0.06092297
0.02639511
-0.03451849
0.11008251
-0.03147574
0.05018559
0.05553878
0.02479471
-0.03278085
0.02065692
-0.06242347
0.12933011
0.17189862
0.08048971
0.04496179
-0.05382392
0.01863888
0.04424360
0.04468530
-0.12647365
-0.09135450
-0.03301504
-0.05612845
0.06902308
0.04642827
0.09470643
-0.10798452
0.11114191
0.04492661
0.01294701
-0.10775644
0.06853129
0.07779489
-0.00367189
0.06880418
-0.12830585
0.07159545
0.04152361
0.12726806
0.15405798
0.04991285
0.02258940
-0.08827686
0.08263510
0.08564027
0.00250421
0.00622576
0.07119586
-0.07621700
-0.13856588
0.04974725
0.11220971
0.08050952
-0.06158509
0.02488963
-0.11120579
-0.11396923
0.02244701
-0.00184935
0.11294064
-0.06277370
0.07469863
0.00710307
-0.07897692
0.03051996
0.03185759
0.00966239
-0.01230652
0.07451454
0.03562528
0.09631562
-0.05063845
-0.10048099
0.07133930
-0.04649178
0.06944872
-0.11994860
-0.09977370
0.03685672
0.04227247
-0.02687353
-0.07832137
0.00827176
0.15785488
-0.01629407
0.10092013
0.03287799
0.11749288
-0.00870349
-0.02825590
-0.13413246
-0.10069589
-0.05037704
-0.06709512
-0.10865720
0.11850853
0.04875666
0.04721287
0.03906629
-0.08976916
0.05670631
0.02360827
-0.07886215
0.01564838
-0.07173532
0.02020486
-0.09775412
-0.06982601
-0.09126765
-0.07108278
-0.09932540
0.00197572
0.07202299
0.11795450
-0.09027642
0.08257857
0.07957368
-0.06140926
0.08585308
0.01689816
-0.05730769
-0.06433903
-0.02033633
-0.08057950
-0.07325985
-0.06913235
0.03299611
0.05375129
0.05255034
0.01660900
0.09870014
-0.03311560
0.00081957
-0.07113449
-0.03776373
0.01294448
-0.03922603
-0.10865656
0.01932182
-0.02044326
0.03452339
0.04944911
0.02790451
0.04064336
-0.02049741
0.14363976
-0.10406502
-0.01728516
-0.05670313
0.00867280
0.10110708
0.10988715
-0.13443694
-0.10392404
-0.06543937
0.02123568
0.08948576
0.01536992
0.00579128
-0.05437673
0.09559745
0.03002310
-0.05781896
0.11029018
-0.14117457
0.02103619
-0.08263182
-0.12420733
-0.14143097
-0.14252409
-0.03120008
-0.06026801
-0.09683555
0.21057400
0.16914693
0.03242467
-0.01312862
0.11072598
-0.00915972
0.10079083
-0.05440655
0.04513481
0.03506041
0.06625345
0.06645559
-0.10620650
-0.06423688
-0.06322236
-0.03923914
-0.12915958
0.08236671
0.10164233
-0.05125850
0.00073374
-0.05014617
-0.08883228
-0.01948050
-0.06066474
0.07970907
0.07366315
0.08609204
-0.09036224
-0.00309010
-0.01615185
0.11907306
0.07518329
-0.05441311
-0.10085229
0.05776665
0.08039931
0.13746177
-0.01438887
0.07934539
0.05565010
0.04916302
-0.03076452
-0.05302872
0.15993199
-0.08047130
0.10650150
-0.00960153
0.05020493
-0.02710547
-0.03059045
0.05001773
-0.09543372
-0.05723402
-0.00186888
-0.04438759
0.10095148
-0.04972447
0.05206021
0.05720622
0.05150612
0.02695218
0.16715489
0.08554910
0.05621806
-0.03186572
-0.04886035
-0.03212811
0.08525543
-0.06501931
0.02427262
-0.03036956
-0.08130080
0.04829223
-0.05862633
0.15667030
-0.09261939
0.02025125
-0.00031590
-0.13850191
-0.01016321
0.07304224
0.05015978
0.04726521
-0.06516592
0.07396723
0.10486947
-0.04523008
-0.06205206
-0.07328415
-0.02174206
-0.16666146
-0.12601858
0.03644813
-0.07894493
0.01750593
0.03943779
-0.04930801
0.11207911
-0.04829057
-0.07574513
-0.11215594
0.01506680
0.03004725
-0.07802613
-0.07069296
-0.03132421
-0.04413150
-0.07166924
-0.02803789
-0.11085514
0.04018605
-0.05575260
0.00746742
0.03240918
0.09845695
0.01232324
-0.09657159
-0.03758562
-0.00279668
0.02758472
-0.07711114
-0.00912100
0.02670038
0.01035994
0.08762340
0.10375698
0.05610318
0.06146431
0.07340826
0.00109339
0.13861556
-0.01377345
0.02410118
0.03216229
-0.11156771
-0.12845482
-0.00690636
-0.09709313
-0.12213326
0.01253854
0.01268379
0.01241566
-0.08207227
-0.11967395
-0.11277782
0.00380522
0.07041048
0.05063985
-0.08921143
-0.07513341
-0.05606171
-0.01609760
0.11942010
0.17137116
0.06578988
-0.00434685
-0.10341258
-0.03884577
-0.04897953
-0.00355632
0.02711150
-0.09799852
-0.07107570
0.01458752
0.07356649
-0.02235406
0.06537387
0.11552826
0.00376529
0.06266255
0.00864843
0.08453625
0.13162945
0.09275238
-0.03168794
0.03376094
0.09731139
-0.06964364
0.06453384
-0.00342818
-0.03922557
0.07485035
0.07059082
-0.04115677
-0.08922259
-0.00035002
0.01025194
0.11456849
-0.06878398
-0.09249073
0.04831164
0.09957193
-0.06673039
-0.00250161
-0.00105493
0.05613826
0.04893206
0.03233453
0.06072054
-0.02642111
-0.02159276
-0.04324806
-0.02348633
-0.08887537
-0.00790756
-0.07662147
-0.09223141
0.02480947
-0.01449719
0.05847277
0.06438200
-0.04230564
-0.10826132
0.05309630
-0.09261395
-0.11525709
-0.00829590
-0.05362291
0.11781969
0.08928135
0.02292833
-0.08602760
-0.07861744
0.07539450
-0.05219859
-0.03508769
0.10902116
0.09471228
-0.06746257
0.06238409
0.01079790
-0.01547125
-0.07916820
0.02119344
-0.05907825
0.01770140
0.07698336
0.01331110
0.02042505
-0.09068120
-0.06829077
-0.00404075
0.00235027
0.10726804
0.11870988
0.01193304
0.04489224
-0.05445217
-0.06214891
-0.11088823
-0.13518858
0.09336097
0.06789761
-0.01851351
0.01902671
-0.10267638
-0.10918038
0.01068230
-0.10158101
-0.07674672
-0.13182263
-0.04979511
0.02409752
-0.00181093
0.06578416
-0.00691013
0.05489846
-0.05891388
-0.03076992
0.02354231
-0.02816876
0.01565659
0.08223754
-0.02074103
-0.01022481
-0.06596501
0.04328348
-0.09375495
-0.15168169
-0.07122234
-0.02192144
-0.11722878
-0.06695545
-0.09679504
-0.05161497
-0.08277083
-0.03281149
0.15877169
0.09681218
0.16170029
-0.03526279
0.00237210
0.15524727
-0.02369668
0.05302708
-0.00801125
-0.02692151
0.05361054
-0.00593433
-0.05739448
-0.06368747
-0.00674970
-0.02612560
-0.05728308
0.01093538
-0.02287887
0.02007281
-0.06001461
0.09725407
0.04510586
0.06713188
-0.01512204
0.02633958
-0.05765619
0.01373686
-0.07962435
-0.15834782
0.08910486
0.03601037
0.08322420
-0.05091482
0.09052464
0.08795863
0.05564064
0.02123804
-0.02626831
0.07742997
0.03743702
-0.11186259
-0.01457925
0.01761810
0.05950890
0.05509577
-0.00507940
-0.03305254
0.08104886
0.09857318
0.01780921
-0.08018072
-0.09762490
-0.03239829
-0.10790410
0.02771948
0.09401450
0.00846105
0.01707326
-0.05836155
0.11509329
0.08523253
0.01785406
-0.07606190
-0.06050382
0.03232752
0.06454366
0.03318015
-0.02426805
0.05814653
0.09897240
-0.10482870
-0.01690289
0.02204629
0.06048157
0.10290723
-0.06319754
-0.15646832
0.05029022
0.07905482
0.10188770
-0.03572702
-0.05741408
-0.03749992
0.17982562
0.11394423
-0.03527550
0.05320007
0.05989331
0.09539315
-0.01942647
0.11458010
-0.01603067
0.01620306
-0.08096603
-0.04232328
0.24801140
-0.02668292
0.04049710
-0.12210736
-0.06882665
-0.11060305
-0.00883033
0.15167856
0.00366694
0.06147781
-0.06859572
0.09843445
0.00961660
-0.01758164
0.07650961
-0.08316695
-0.11071048
-0.04219379
0.06690377
0.01997082
0.00654293
0.09246125
0.12454157
0.03150846
-0.01982814
-0.06265477
0.03518277
-0.08340428
-0.03633566
0.03184585
0.07839567
-0.11323535
-0.11931967
0.21798176
0.16643053
0.07298934
-0.01706607
0.11244739
-0.05034918
-0.03923089
-0.09225275
0.01447369
-0.16699664
-0.19562426
-0.00768343
0.00144384
-0.06349850
-0.05494613
-0.14202273
-0.12385523
-0.12006766
-0.06475005
-0.08510166
-0.08309228
0.04532753
-0.03538648
-0.01339778
0.16932550
0.06216682
0.04390386
0.05129995
0.08306582
0.07634009
-0.16514923
-0.07671742
0.05537837
0.02450417
0.07531601
-0.08017170
-0.09004875
-0.14715642
-0.13531850
0.05558150
0.11049690
0.10464033
0.02968181
0.05109403
0.13628572
-0.16602427
-0.07747395
0.10289812
0.06786348
-0.10414853
-0.11300531
0.11435860
0.16936219
0.03963153
-0.17368254
0.05433412
0.05417142
0.01580913
-0.01685913
-0.10359561
-0.07440174
-0.12374457
-0.10496091
0.01382988
-0.01747053
0.00502588
0.12376077
0.10179371
0.00068098
-0.02530218
-0.10742234
-0.10554046
0.21442297
0.16924195
0.12511599
-0.03239154
0.04102319
0.07269298
-0.03986214
-0.12753472
-0.02728034
0.07338616
0.00256716
-0.06370882
0.11955893
-0.06030767
-0.06811378
-0.09999868
-0.15540542
-0.03739322
0.05245335
-0.02446541
-0.06197367
0.15769766
-0.02367829
-0.06890400
0.13575093
0.14949837
-0.04385277
-0.09795981
0.11719891
0.08977202
-0.06108978
-0.09182511
-0.12595513
-0.14439313
-0.15812233
-0.10255593
0.09904513
0.06023245
-0.10051954
0.02296777
0.11414864
-0.06204148
0.13852289
0.07312722
0.04390426
-0.12355064
0.12479956
0.10297609
-0.18546590
-0.06183327
0.01152135
0.07883049
0.15682125
0.04502688
-0.00635593
-0.03448460
0.08047522
-0.07691590
-0.07110957
-0.03956332
0.00680196
-0.03875262
0.06496560
-0.12841852
-0.14420839
0.03464324
0.10221656
-0.06971689
0.00489361
0.17496398
0.05914047
0.04132258
-0.03313252
0.10937557
0.13341068
-0.06348964
-0.12647972
-0.07478073
0.06664422
-0.03450263
-0.00881626
-0.13629958
0.04937493
-0.12819304
-0.15890467
-0.14475545
-0.12340052
0.16579135
-0.09342258
-0.04662832
0.37547913
0.27015686
0.17878631
-0.11729869
0.05607159
0.05692218
-0.02263227
-0.12277694
-0.05527803
-0.04495141
-0.10989018
-0.10712574
0.01644229
0.09767701
-0.02340507
-0.03430606
-0.06803431
0.02082492
0.06791389
0.10602875
-0.10051475
0.04614559
0.03152495
0.00158968
-0.09669892
-0.02944255
-0.12686408
0.01650998
-0.12285020
-0.14723878
0.13542661
0.00772735
0.09410930
0.16162907
0.16892141
0.11017384
0.00031307
-0.00107997
-0.02210652
-0.03923078
-0.03130128
-0.12605371
-0.11307241
0.00937907
-0.12520182
0.11660773
0.05048879
-0.02463589
0.00331654
0.05060022
0.02618685
-0.01220160
0.09204815
-0.03319987
-0.15382022
-0.07346747
-0.00755268
0.05671971
-0.10565853
-0.07528627
-0.01111790
-0.13742651
-0.02312418
0.18500540
0.13653764
-0.04725277
0.07410219
0.05971038
0.12731995
0.22644934
0.26884562
0.20177193
-0.10504854
-0.07495523
0.11119392
0.20628873
0.02472829
0.05239888
-0.01140733
0.04207833
-0.00511699
-0.05261790
0.14713220
-0.08364907
-0.05097175
0.05021563
0.03789172
-0.04556767
-0.11438274
-0.04107902
0.10679766
-0.02899194
0.02685259
0.12214009
-0.00561310
-0.11527181
-0.06111070
-0.06936442
0.02090638
0.05243069
-0.10474088
-0.05734394
0.02438485
-0.06603817
0.05471975
-0.03004816
-0.07036351
-0.02856389
-0.07502254
-0.11301639
-0.08478906
-0.03184262
0.07008199
0.03320830
0.01737620
0.05804987
-0.06949972
0.03665472
-0.04913465
0.07286599
-0.03451864
0.02017604
-0.04130178
0.05788809
-0.12349024
0.00208695
0.09537786
-0.04303827
-0.13618307
0.02299623
0.01732889
0.04315340
-0.01474625
-0.07150595
-0.04090458
-0.08760325
0.06788631
-0.01137498
-0.11130028
-0.03212139
-0.00504273
0.04307539
-0.08964768
-0.03816539
0.08108633
-0.12858175
-0.07636005
0.05958821
0.00289992
-0.11455036
0.11504406
0.06678881
-0.04507118
0.10179313
-0.00158126
0.11918344
0.08886264
-0.06644776
0.05494690
-0.04545493
0.04791005
0.06750596
0.08551042
0.05038586
-0.03843860
0.13243909
0.10752640
-0.10135131
-0.06314490
0.02733783
0.05651569
-0.03841760
-0.02824308
0.04148198
0.04911089
-0.04041324
-0.10081787
-0.01433639
-0.05440981
0.04478450
-0.03318943
-0.00302811
0.01626606
0.14046825
0.05764000
0.02665104
-0.08011429
-0.07926209
0.02049066
0.09527026
0.02024249
-0.12400811
-0.04255859
0.07564688
0.03613601
-0.06714330
-0.04934831
-0.16338612
-0.01876790
-0.02113862
-0.10603627
-0.08166125
0.06298412
0.06434762
0.06345516
-0.10573699
-0.02135287
0.00104120
-0.05910761
-0.00289639
0.05331728
-0.01144396
0.07749927
0.06692842
-0.00652300
0.01471968
-0.06742276
-0.01903477
-0.01115789
-0.11285286
0.03641188
-0.02584520
-0.10013644
0.05525935
0.02702773
-0.04042767
-0.04740923
-0.00072597
0.15024909
0.02136364
0.03197895
0.01897570
-0.08158878
0.01448697
0.10542142
0.00581478
-0.11465826
-0.13993156
0.03144940
0.02031863
0.05147890
-0.03959830
-0.10103574
-0.06460625
-0.10347794
0.13752499
0.05125087
-0.11797196
-0.06851545
0.09652213
-0.01142722
0.01398968
-0.08865690
0.05837672
-0.00280166
-0.01560737
0.04193391
-0.09246726
-0.00782777
0.09308250
-0.08132659
0.06314103
-0.01890077
-0.05418244
-0.05745574
-0.11568451
-0.13715942
0.04813313
0.07044542
-0.02955855
0.00397279
0.07700031
0.07692405
0.02762929
-0.15856375
-0.02050794
-0.07196397
-0.08813614
-0.01496369
-0.05165422
-0.04478118
0.06593355
-0.07224193
-0.13275036
-0.12074155
0.02436844
0.06541815
-0.09527010
0.11782502
0.15118581
0.15986654
-0.08928093
0.00148236
0.18512481
0.03284921
0.04941929
-0.15851073
-0.01227145
0.11892497
0.02895532
-0.10899232
-0.00346948
0.02554754
-0.04813051
-0.02146902
-0.00539060
0.07312367
-0.04372087
-0.07013763
0.04735972
0.09616461
-0.10553218
0.04788948
-0.02753242
0.07133026
0.14807700
0.07383639
-0.08379356
0.12695993
0.05525277
0.02095675
-0.06247998
0.12434158
-0.07130066
-0.01661197
-0.03257439
0.17503199
0.11023341
0.04857142
-0.06285439
0.00466975
-0.03969086
0.04105151
-0.04813891
0.10788051
-0.05763194
0.02510549
-0.08847357
0.10621274
-0.02261859
-0.08733600
-0.02665778
-0.00987885
0.03695966
0.06961218
-0.01455432
-0.12941387
-0.08177529
0.10484459
-0.10344914
0.00183087
0.11078750
0.09392133
-0.01344391
-0.12771724
0.03417506
0.01824207
-0.01878666
0.08781475
0.14897920
-0.08698863
-0.16444728
0.07669453
0.12287717
0.00097191
0.01238326
0.04620378
0.12901340
0.06747784
-0.11930091
-0.09552735
0.01171117
0.06659643
-0.01717189
0.01351787
-0.01541460
0.07575256
0.09542371
0.03434794
0.02016361
0.20183349
-0.05620127
-0.02229401
-0.11578374
0.00600791
0.07655563
0.07009353
-0.07402324
0.00122206
-0.04885678
-0.00475004
-0.02584654
-0.11217191
-0.05226222
0.11244337
0.07686534
0.01633412
-0.05700533
0.02685464
-0.06568169
-0.04070736
-0.11470248
-0.02141910
0.02449587
0.03733066
0.00129498
0.12199036
-0.00517819
-0.00146206
0.15556359
0.12236711
0.12668541
0.04435850
0.13499299
-0.06258000
-0.03557893
-0.00581368
0.04196713
0.14319810
-0.04157744
-0.13735889
-0.00087827
-0.25483850
-0.13640895
0.03759324
-0.01186266
-0.14546432
-0.09958293
-0.00104975
0.08425567
-0.06726274
0.08632986
-0.11755771
0.04690281
0.10819029
0.00798052
-0.04327057
-0.11211875
-0.03995918
-0.03853814
0.08463328
-0.04409945
0.03404678
0.04651835
0.03787942
0.19295782
0.04228932
0.15343031
0.10779823
0.00520023
-0.07699451
0.08196093
0.07261005
-0.02262460
-0.05170750
-0.03751255
-0.03382288
-0.02116143
-0.08098684
0.04202625
0.08443019
0.03457333
-0.10765015
-0.00737375
-0.03898333
0.10077744
-0.07308957
-0.06687346
0.16757526
0.26976007
0.23905680
0.07427073
0.12298305
-0.03614705
0.07722054
0.15557429
-0.03359813
-0.16382219
-0.02348600
-0.00291123
0.08462326
-0.13196164
-0.16717379
0.07089151
0.10764337
0.12434777
0.00310271
-0.02085805
0.01229357
0.17018618
-0.02500631
0.01451724
0.08921543
0.12209517
0.05892210
-0.01380166
-0.00326992
0.02022110
-0.01036622
-0.12936744
0.03767373
0.01366801
0.13678189
0.12988164
-0.13524258
-0.07310292
-0.06683725
-0.09905334
-0.09270157
-0.11060447
0.02454931
-0.03738957
-0.12422436
0.12510304
0.20425212
0.09346241
0.05395387
0.00266915
-0.02119801
0.11440437
0.11569580
0.04499809
0.00753164
-0.07406607
-0.06299643
0.09346562
-0.08522724
-0.04659273
-0.08138564
-0.00267109
-0.11368510
-0.07071543
-0.06621522
-0.00788846
0.13352489
0.18876186
0.16841160
-0.02055943
-0.06372417
0.02352172
-0.01616977
-0.04858986
-0.01399903
0.06755289
0.01284572
-0.01521113
0.04060068
-0.08627218
-0.05614638
0.09039870
0.09102228
0.10970522
-0.10186437
-0.00111582
-0.14595975
-0.05240701
-0.06374942
-0.04674390
0.10518102
-0.01383194
0.03730084
0.11428709
0.05625613
0.03414515
-0.07888873
-0.12207230
-0.02525566
-0.12097386
-0.16728722
-0.20034783
-0.13712098
-0.03215692
0.01659401
-0.02619980
0.12861560
0.11336964
0.04005890
-0.06457010
-0.15608734
0.30901629
0.14918338
0.16377334
-0.07784370
-0.01887966
-0.02982020
-0.18650697
-0.00347746
-0.11010794
0.03504968
-0.09352694
-0.13805397
0.01189115
0.05530794
0.03888991
-0.09444596
-0.09619907
-0.13485382
0.02188452
-0.10810395
-0.16277428
0.10740915
-0.05227785
0.06031039
0.03978522
-0.04537853
0.10000195
0.02426030
-0.15772201
-0.11536365
-0.02004631
-0.09090205
-0.12981078
0.09402635
0.17988217
-0.03495238
0.05485284
0.08410160
0.04957791
-0.01793460
-0.03062734
0.07712218
-0.06259583
-0.04318544
0.01213582
0.04777797
-0.03172739
-0.03738086
-0.02675371
-0.11224536
-0.21239431
-0.05005572
-0.03795691
0.09494527
-0.10180516
-0.13342956
-0.00061976
-0.09385953
0.06203451
0.11970150
0.08811385
-0.09806418
-0.07984202
0.01909601
0.05327183
-0.08399049
0.02719013
0.01115284
-0.01679069
0.23879001
0.31122035
0.32959798
-0.06736338
0.04119624
0.07732481
-0.11655626
0.05934213
-0.05559403
-0.02212083
-0.05581794
0.08210640
-0.09049936
-0.01572035
-0.14878045
-0.00213133
-0.16149770
-0.03617477
-0.02772711
0.09765078
0.07030913
0.22153825
0.15627195
0.05765403
0.02352261
0.07257137
0.05757504
-0.00549985
-0.01208113
0.08377837
-0.04925531
-0.11593718
-0.01291966
-0.03864026
-0.09196671
-0.02475992
0.04384986
-0.02536975
0.09379173
