-0.01699467
-0.00763680
-0.01724570
0.00135580
0.00743296
-0.02480909
0.01564587
0.01580634
0.01034407
0.00917005
-0.04127823
-0.02456602
-0.01710662
-0.00132487
0.01100230
0.02325436
0.01325182
0.00993804
-0.00976516
-0.02670586
-0.01304088
0.04411993
0.02158499
-0.00744556
-0.01185031
-0.00072356
0.00874278
-0.00540250
-0.02178354
-0.00250455
-0.00305232
-0.00398123
-0.01831762
0.02322724
-0.00801972
-0.01410835
0.02708096
0.01192437
0.02900179
-0.02197260
0.02260998
0.01054964
0.02055156
-0.03638243
0.02179411
-0.03546552
-0.00756579
0.01869837
0.00812000
0.01633280
-0.00114871
0.01153422
0.00849574
-0.00350897
0.02173414
-0.01536422
0.04645161
0.01220419
-0.01996893
0.03091773
0.02393972
-0.03390366
0.01052557
0.02449584
0.01550073
-0.03408799
0.01085815
0.01136175
0.00759754
-0.01036551
-0.00578207
0.02194850
-0.00334456
-0.00916727
-0.04304208
-0.01241578
0.01406177
-0.01603655
0.03364944
0.03290364
0.00225368
-0.03017050
-0.01099720
-0.02704137
0.04781595
0.01272022
-0.02181508
-0.01847046
0.01840781
-0.00881433
0.00877130
-0.04944657
0.01293053
-0.03903642
0.03308174
0.03620302
0.01940638
0.00449806
-0.04135231
0.01336046
-0.02962307
-0.04247928
0.01158447
-0.01492325
-0.01589184
0.01457812
0.02136116
-0.04487903
-0.02401430
0.01494168
-0.01919695
-0.03684375
-0.01465513
0.01645283
0.01313038
-0.02868248
0.00415862
-0.01394212
-0.03631934
0.00819083
0.01079834
-0.04547700
0.01466434
0.03379842
-0.00463754
0.00776126
0.03963222
0.00476360
