0.00202133
0.07075837
-0.03539543
0.03809668
-0.01532655
0.04456487
-0.00392684
0.06491396
-0.05529259
-0.03492793
-0.07103424
-0.02295442
0.05423596
0.02784062
-0.06429365
-0.05759060
-0.07901254
-0.04353905
0.04684532
-0.04343508
0.00191827
0.05394634
-0.01875410
0.08286838
-0.08699840
-0.04303823
-0.03124798
-0.00556780
-0.02107564
-0.00086635
0.05054535
0.01488781
-0.02989929
-0.04903119
-0.10286743
0.04329302
-0.03732593
0.08448076
0.02427485
0.08670968
-0.03388623
-0.03744530
0.02547187
0.03866807
-0.03622736
0.00683307
0.05900415
-0.06228815
-0.00788253
0.02037703
-0.03493147
0.09498723
-0.02755635
-0.07145685
-0.04449094
-0.04346940
0.02630337
-0.06260960
-0.04165379
0.07241236
0.01536015
0.02221960
-0.05438666
0.06055447
-0.04638619
0.01751408
-0.10934343
0.06251615
0.01683744
-0.08434714
0.01381945
-0.04822383
0.05504528
0.00499091
0.02417371
0.00723421
-0.05333580
0.02812127
0.09736306
0.03220602
0.08087800
0.00158703
-0.03768808
-0.03949483
0.04364834
-0.01163254
0.00754625
-0.01849944
0.03744882
0.01146482
-0.00193455
-0.03083819
0.01732032
-0.03364397
0.02352248
-0.00419368
0.06197612
0.04754318
0.02983599
0.05898460
0.03550886
0.02167656
0.07057098
-0.06589776
-0.01681911
-0.06593918
-0.03100120
0.00681532
-0.02600160
-0.00963294
-0.06016074
-0.04474181
-0.00658717
0.02684948
0.06027045
0.07621898
0.04505552
-0.00083938
-0.01904483
-0.01869998
-0.00931235
0.08883081
0.10458052
0.04904823
0.07047667
0.00139481
-0.00666135
-0.06535850
0.02775034
0.03761389
-0.04469034
0.00295082
0.00220734
-0.03630508
0.03788426
0.01399353
-0.02357281
0.04233425
-0.01886682
0.03716815
0.06886688
0.00617348
0.01215322
-0.04482929
-0.01109080
-0.06565227
0.01796176
-0.01212335
-0.04625058
0.00610020
0.03966650
0.04247782
0.01987511
-0.03066639
0.00537582
-0.01227999
-0.02337733
-0.05446633
-0.03105557
-0.02440833
-0.04706619
0.04122515
0.04947155
0.01628553
0.02454187
-0.04877366
-0.01032677
0.05490268
0.01777106
0.01357295
-0.04222771
-0.05112283
0.05960394
-0.01221775
0.06388438
-0.04591276
-0.00171917
0.05155748
-0.02386129
0.03153856
-0.06147307
0.04279128
-0.00231058
0.07847125
0.02103551
0.04155433
0.05630243
-0.02329239
0.01730424
0.05776435
0.01931755
0.00710292
0.00234949
-0.00339920
-0.00053660
0.02512727
-0.00575303
0.00911343
-0.01896910
0.03906905
0.07247087
-0.06687620
-0.02436928
0.02217778
-0.06927318
-0.03621272
0.07446360
-0.05565457
0.02955622
0.05394812
0.02957308
-0.03339552
-0.01715640
0.02628075
-0.00250132
0.05182751
-0.02878277
0.03471516
-0.03359036
0.01589815
0.06030291
-0.06134344
-0.01641384
-0.00539130
0.00350464
-0.03018711
0.04223408
0.02408981
0.06929325
0.01328041
0.01936375
-0.01088533
0.03717057
-0.04673201
0.03584851
0.04450612
0.01982049
-0.02522293
0.06501812
0.02325433
0.05201266
0.00068318
-0.01507792
-0.00625545
0.02869147
0.01544336
0.02358381
0.02280235
0.04713680
-0.03907788
0.05380959
0.00344112
-0.01900475
-0.00827654
-0.00850295
0.03909165
0.00600059
0.07169513
0.04316038
-0.02439291
0.01799532
0.00443191
-0.01818370
-0.00531274
0.13451059
-0.01293647
-0.10590247
0.06101478
0.04083733
-0.04910967
-0.04083848
-0.04731653
0.05388171
-0.00725228
-0.04098377
0.04103248
0.04226798
-0.01752634
-0.03274605
0.02934795
0.00055553
0.04653052
0.06368051
-0.08280029
0.03682264
0.03478904
0.03765828
0.02487187
-0.01458082
0.05515637
-0.05855592
0.02890354
0.07243592
-0.00227592
0.02280618
0.08734732
0.06203801
0.09957367
-0.04590721
-0.01360713
0.02039172
0.04254301
0.01478804
-0.06396106
0.00599037
-0.01594708
-0.01054883
0.03407647
-0.02923726
-0.03225567
-0.00753893
0.10513413
0.03929625
0.01756897
-0.03027761
0.04726030
0.00911525
0.03066788
0.00754686
0.03346032
0.01129133
0.03521411
-0.04984510
0.03000863
-0.05333766
-0.07240742
-0.00603865
0.05486820
0.02992907
0.00165393
-0.00203410
-0.00940369
0.06143952
0.09914785
0.04086047
-0.06159303
-0.01245619
0.04534830
0.04846024
-0.00871804
-0.00270616
-0.07217410
0.03585964
0.04990684
0.12580024
0.02548837
0.01230206
0.03154640
0.07061162
-0.01319075
-0.03464186
0.00841573
0.07401238
-0.09589109
-0.02714129
0.06133841
0.03831775
-0.01140464
-0.03805051
0.07159901
-0.05196518
-0.06059766
0.05128002
0.06519698
-0.00150121
0.01144009
0.01808915
0.04906355
-0.04761563
-0.00189916
0.05349934
0.00139097
0.04768956
0.02743255
0.02393258
-0.03811112
-0.01870490
0.02355779
0.01410798
-0.01147022
0.02317222
0.04224419
-0.00304359
0.00112765
-0.03200592
-0.01044452
0.05151804
0.05279166
-0.00587439
0.01983245
0.02766445
0.04078370
-0.01281863
-0.01314155
-0.05220905
0.02048715
-0.02890016
-0.03296297
0.02824216
-0.02013451
-0.02795498
-0.01023829
-0.00537139
0.01586843
-0.04922991
0.04504266
-0.00586125
0.02634070
0.02761007
-0.02627279
-0.07575896
0.00625431
-0.02771779
-0.04791724
-0.05885270
-0.04851539
-0.02428891
0.01869320
-0.02583138
-0.03222859
-0.07772950
0.00581048
-0.02167843
0.05172680
-0.08663574
0.07644309
0.04423691
-0.03036211
0.00146275
-0.02409856
0.04470825
-0.06313954
-0.03982567
0.03431232
0.06539247
0.01173949
-0.05399235
0.05597081
0.00432456
0.07603109
-0.05724310
-0.01087911
-0.03661676
-0.00530724
-0.03244366
0.03925971
0.02213456
-0.00102641
0.04119705
-0.02439253
-0.03425517
0.08842722
0.02886065
0.00161961
0.05701482
-0.08425848
-0.01816349
0.02373297
-0.03110621
0.04556948
0.02474820
-0.03156013
0.01637512
0.00280455
-0.01445607
0.02431636
0.01176192
0.02586017
-0.00641498
0.03224126
-0.03314710
-0.03368427
-0.03720954
-0.02188158
-0.00146314
0.06806930
0.01360089
-0.01556369
-0.01966661
0.06402002
0.05588819
-0.03275925
0.03110306
-0.04313304
0.00450487
0.04791450
-0.03952206
0.05689179
0.05503332
-0.03467555
-0.00846033
0.01559461
0.03858741
0.02972774
0.01993489
-0.02396994
0.05813989
-0.00392222
-0.02290183
-0.01141012
-0.02652591
-0.01896647
0.00289060
-0.07890470
0.05997249
-0.06501457
-0.04210917
-0.05032497
0.03334245
-0.04152454
0.02064583
-0.03230452
-0.00069230
0.04590168
0.01025578
-0.05677935
-0.02709819
0.05552663
0.01395112
0.08717876
0.00481178
0.03398047
-0.07421360
0.01599369
0.03290959
0.05874230
-0.03857645
0.03317022
-0.07668964
-0.02049687
0.06470956
-0.04863737
-0.05374283
0.07886133
0.03812389
-0.01727629
-0.08248369
-0.06849591
-0.04606343
-0.03217966
-0.03729530
-0.02229649
0.02239907
-0.04667324
0.01727820
0.01097323
-0.11427453
-0.02006436
-0.00503220
-0.03286086
-0.01510697
0.07243978
-0.04625389
0.02042066
-0.02672423
-0.03580045
-0.02415568
-0.03361707
0.07383553
-0.03336979
0.05052736
-0.04251558
-0.02887344
0.00966198
-0.03853835
-0.05510566
0.02675131
-0.02033493
-0.01230651
-0.01438809
0.06017320
-0.03115456
0.00574894
0.03940612
0.01144602
0.04665615
0.02100780
0.05553438
-0.04182065
0.09062542
0.01871545
0.01666531
-0.02291954
-0.07518314
0.00561087
-0.04751387
0.03891846
0.03794914
0.04498289
0.04226165
0.10406766
0.01042752
-0.04359199
-0.00966744
0.00546590
0.02844792
-0.05211004
0.01644152
0.04783349
-0.02967292
0.02779607
-0.02590051
-0.03192687
0.00360676
-0.03847929
-0.06354585
0.00303479
-0.03926043
-0.02619832
-0.03870296
0.04356027
-0.01595702
0.01980033
0.09752098
-0.00296438
0.02195483
0.04494728
-0.01624268
-0.05251884
-0.03232589
-0.05002034
0.06340215
-0.02808607
-0.03892718
-0.03013338
0.05987737
0.05632131
0.05105643
0.02481865
0.08028480
-0.00494459
-0.07666647
-0.03577556
-0.00210175
0.00523393
-0.02445969
-0.03569269
-0.04096303
0.00461663
-0.01984217
-0.03589818
0.06269530
0.03289447
-0.05926268
-0.06338838
-0.03358447
-0.00189166
0.03135554
0.00044079
0.02368954
0.03677541
-0.04996226
0.05875133
-0.07073822
-0.01190838
-0.01920717
-0.01377969
-0.07570067
0.02179529
-0.08301675
-0.03710695
0.00691065
-0.02897656
0.07353928
-0.08261891
-0.00486247
-0.00880209
0.03714181
0.01366082
0.00937026
0.03991846
-0.01735080
0.04115662
-0.04356817
-0.04993713
-0.04196398
-0.01868769
-0.04610787
-0.03840413
-0.01636597
-0.03720041
-0.00041760
0.00308396
-0.02183736
-0.06904769
-0.02988330
-0.01282274
-0.01127699
0.01548016
-0.05716079
0.05969968
-0.03094084
-0.05045548
-0.00135769
-0.03003289
-0.03242480
0.05784317
-0.01800277
0.01288170
0.05292574
-0.05078284
-0.03458637
-0.04909493
0.04063081
0.01064573
-0.03111798
0.02820091
-0.00287546
0.00326084
-0.03747515
-0.01492809
-0.06447864
0.00879371
-0.01775110
-0.03642567
0.03393266
0.06844710
0.04341714
0.01812522
-0.01327721
0.06301564
-0.04020907
-0.00085382
0.03055197
-0.01390437
0.05303085
0.06002360
-0.00833272
0.02698226
0.05193349
-0.05297326
0.05699661
-0.03340292
-0.05720321
-0.03081037
0.04433562
0.02301618
0.03417070
-0.06701443
-0.06774604
-0.02950999
-0.05771956
0.01909350
0.04956190
-0.06342927
0.01259048
-0.04525457
-0.00791235
-0.03490722
-0.04123887
-0.01278415
0.01813023
0.03042024
-0.03852615
0.04243928
-0.04071245
-0.00239133
0.08861899
-0.05291775
-0.06956593
0.09329084
0.00445296
0.04723819
0.01086434
-0.04221387
0.05136522
-0.01940160
-0.00440097
0.01435871
-0.04321920
-0.04664907
-0.06518250
-0.07419781
0.00775940
0.04698600
-0.05049738
0.00745993
-0.02738664
-0.04860408
-0.03583011
-0.05359360
0.07003426
0.04651237
-0.02129876
-0.02165882
-0.01984951
0.04040628
0.03197401
0.00971503
-0.01697061
-0.05312028
0.04243346
0.07692147
-0.00789078
0.03693531
0.01670288
0.01881917
0.01555340
0.06260912
-0.06167172
-0.00699406
0.01587239
-0.02949235
0.02362444
-0.04701145
0.04898876
-0.00439202
0.01998909
0.04564751
0.08484421
0.09309653
0.04075561
-0.05373545
0.03299357
-0.00413818
0.01410418
-0.00706129
-0.03129115
0.00491684
0.00396955
0.02914915
-0.04377726
0.04142971
-0.04169405
-0.00544629
-0.05157918
-0.04832684
0.01707503
0.01671523
-0.08008458
-0.00844010
-0.03509271
0.01366571
-0.03038951
0.01875538
-0.03324857
-0.08697022
-0.00388741
-0.01414592
0.02202552
-0.03789943
0.04248530
0.03165502
0.03948117
0.01544600
0.00234520
0.01500332
-0.02853392
-0.03885175
0.01498807
-0.05015698
0.01764403
0.04133278
0.04028885
-0.02253768
0.03545944
0.00769583
-0.01265419
-0.07502209
0.02860282
0.04386348
-0.02117611
0.04209163
0.01106541
-0.02890016
-0.03120256
0.02130638
0.00131308
0.00692244
0.03881741
-0.03887673
0.00129510
-0.06215616
0.06966127
-0.03187218
0.01212497
0.02030805
0.02460440
-0.06368692
0.03133281
-0.02201716
0.02310423
0.05673585
-0.00770776
-0.03089122
0.05110111
-0.02915116
0.02262304
-0.06381796
-0.08801422
-0.04420720
0.02492945
0.01525245
0.02134362
0.04277481
0.03325811
-0.00852606
-0.00333916
0.05100074
0.01929905
-0.03889763
-0.03906000
-0.07147879
0.09791885
-0.05362808
-0.04264869
-0.08731429
-0.06804198
-0.01248708
0.01872082
0.04016891
-0.03469554
-0.04569238
-0.09050073
0.00156657
0.00140706
0.04383676
-0.01421317
0.00057867
-0.03623550
0.01610537
-0.01440059
0.05178364
-0.05766041
-0.04285081
0.02883454
-0.05488717
0.00843341
0.05409653
-0.05831423
-0.03461210
0.07002871
0.00039987
0.06715064
0.06381343
0.05449201
0.01381262
0.05011854
0.01870799
-0.03809643
-0.03681006
0.04436231
0.01680169
0.00113249
-0.00377331
0.00732857
-0.03064825
0.06595667
-0.06803446
-0.01358900
0.02700348
-0.01660407
-0.05050085
-0.09547897
-0.02006736
0.04665171
0.04457276
0.02153360
0.00052268
0.03812921
-0.05251142
-0.00266062
-0.09794807
0.06666082
0.01759365
-0.00316247
0.01213885
-0.08028033
0.04376848
-0.05475751
-0.05374044
-0.04458220
0.02127880
0.00587066
0.04584897
-0.02431880
0.03428667
-0.04277342
0.00494413
-0.00879214
-0.04306503
0.01078711
0.04713154
-0.01364815
-0.03753434
0.03129553
0.02183227
0.06672435
0.04793699
-0.01292180
0.01046820
-0.00364445
-0.00482627
0.04934647
-0.00363616
-0.04462818
-0.00604515
0.05663200
-0.00140848
-0.07497063
0.07026652
0.05596269
-0.05890477
0.07426601
0.03134933
-0.05735970
0.05860091
0.04675403
0.05391994
0.05776234
0.03097749
0.01145124
0.03884027
0.00755360
0.01027449
-0.02072045
-0.02928282
0.06462923
-0.01097244
0.03222526
-0.00973444
-0.04769196
0.04360086
-0.00756108
-0.02900441
0.02290745
0.04903512
-0.05056489
0.02338093
0.00164787
-0.02698219
-0.04165396
0.07967874
-0.05454072
-0.01725102
0.06371681
0.09279166
-0.05391959
-0.00736209
-0.07425679
-0.00376322
0.03295834
-0.04133673
-0.04998012
-0.03341517
0.04699894
0.01048591
-0.00087323
-0.00692312
0.01755229
-0.02247249
0.00275016
-0.02511473
0.07258333
0.01123362
0.02114134
0.05294406
-0.05065597
-0.07775856
0.03434734
-0.01766929
0.01911297
-0.06061153
-0.01648059
0.02717730
0.06771865
-0.04415669
-0.07145715
-0.00015659
-0.04298126
0.06870615
-0.03491005
0.00655214
0.04032028
-0.02178050
-0.06787395
-0.04399175
0.06988151
-0.07154170
0.06850477
0.03403264
0.09425884
0.02541766
-0.09068965
0.04439255
-0.01724987
0.01416331
0.00510829
0.00772376
-0.02490519
-0.02986991
0.09044345
0.05090396
-0.09521957
0.05812799
-0.03924311
0.02070029
-0.00956321
-0.08636060
0.05060665
-0.01249783
0.06011498
0.05548610
-0.04597275
0.06132012
0.09113695
0.02442544
-0.00174254
-0.08244024
0.00577990
0.01325303
-0.02736707
0.08974791
0.06184538
0.03743800
0.06486049
0.05837494
-0.03015378
-0.01000070
0.02119571
0.04543112
-0.01573370
-0.01303077
0.08666995
0.07870502
0.08463814
0.07014290
-0.05889648
0.03263234
-0.09791892
0.08181952
-0.01284714
-0.04817060
-0.09899472
0.03598950
0.00441574
-0.02058632
-0.06597289
-0.01976926
0.06165087
0.03025327
-0.00333020
0.02227306
-0.07073013
-0.02400351
-0.08059065
-0.01357512
0.05405390
0.03953515
0.02082822
-0.03300973
-0.00235243
-0.03872253
-0.10091376
0.01817997
-0.03230049
0.01903991
-0.02987370
0.04353072
-0.08358411
-0.02190095
0.00227585
-0.02100589
-0.06398156
-0.03602872
-0.03431693
-0.04853847
-0.04321633
0.05022851
0.07486714
-0.04038593
-0.00442564
-0.02214957
0.03259588
-0.06612980
0.00299318
-0.03712416
0.09069579
0.04974161
-0.06420050
0.03328043
0.04027574
0.02681599
0.03230115
-0.05188633
0.00775036
-0.01249430
0.00458460
0.10534581
0.05050451
0.00964791
0.00169368
0.01582720
-0.07702327
-0.02469510
-0.03904091
-0.00171850
-0.05812310
-0.00829925
-0.01088546
0.04290246
0.03856868
-0.01738609
-0.01687537
0.01836762
-0.04885017
0.03545865
-0.01395492
-0.02324794
-0.01567097
-0.02260345
0.03571568
0.01758016
-0.07320932
-0.07682306
-0.02920802
-0.01009811
-0.02931533
-0.01217956
-0.00343286
-0.04992748
-0.05475433
0.00304911
0.02172620
0.08296064
0.03350658
0.07234082
0.03118375
-0.02679290
-0.00945367
-0.06021398
-0.01704909
0.00516118
0.05396254
-0.03106778
-0.00002539
0.03514300
0.03897928
-0.03229127
0.05176098
-0.05194398
-0.07561838
0.04635083
0.02164570
-0.00108518
0.06564279
0.02816997
0.00029907
0.00514130
0.01690265
-0.02250602
0.07193034
-0.02263344
0.05343622
0.05867719
0.01028869
0.05468602
0.00404992
0.02257127
0.08254401
-0.03951432
-0.02669671
-0.05530661
-0.00597019
0.05808402
0.02119242
-0.00715132
0.03875690
0.06038597
-0.04121437
0.04281208
-0.06100424
0.01247928
0.01456515
0.01785128
-0.00589508
0.04010527
0.05776647
-0.01117836
0.10552301
0.04014188
-0.07541260
0.00991575
-0.06885167
0.02769198
0.03289718
-0.05197316
0.06180585
-0.05653271
-0.00528653
-0.02837659
-0.03481896
0.01334053
0.03122637
-0.04152325
-0.01809616
0.02251351
0.04627284
-0.04839202
-0.00722294
-0.05634749
0.06677674
0.01883527
-0.02259251
0.03764641
-0.04842498
0.03669287
-0.05973393
0.02282102
-0.01632965
-0.04941219
0.00182295
-0.04203482
-0.01245750
0.00556099
-0.05586676
0.04122390
-0.05210668
0.06080224
0.02039150
0.04403105
-0.02839158
0.04167615
-0.00470315
0.06232800
0.02186977
0.01433372
0.04250016
0.00442687
0.00814843
0.02066910
-0.00016282
-0.05212107
-0.03024287
-0.00222913
0.06895791
-0.00429881
-0.01769383
0.03559688
0.04931901
0.07419994
-0.01751186
0.01232865
-0.02487853
-0.04896775
-0.03140231
-0.04913124
0.04405580
0.07940873
0.02719036
0.00781166
-0.05130605
-0.01112933
0.00303402
-0.09505877
0.00605695
0.03855508
-0.07115591
-0.00972979
0.01398324
0.00138745
-0.03388691
-0.00132275
-0.01714850
0.09042282
-0.02354911
-0.03142710
-0.01665889
0.02790936
-0.05038728
-0.01793194
-0.02611193
-0.06476487
-0.03116669
-0.01238352
0.04928830
0.03883009
-0.02274932
-0.00243924
0.04022739
-0.02741419
0.00758854
0.01294500
-0.07454215
-0.06636808
-0.01940768
0.01185243
0.02876913
-0.04270746
-0.02612317
0.01658471
-0.06747893
0.03319563
-0.02326098
0.01277223
0.03892552
0.07605547
0.03096837
0.05004330
-0.02184086
0.01991971
-0.06903191
0.04204084
0.01384362
0.00567930
-0.04434987
0.06532311
-0.04880789
0.02042238
-0.05512799
-0.00725208
0.00759830
0.05040738
-0.02281069
0.00375421
-0.02319651
-0.00354415
-0.05273416
-0.04951734
-0.07616612
0.01354662
-0.01684021
0.06115729
0.05686979
0.08237578
-0.01764636
0.01161076
-0.04271565
-0.04134278
0.03204737
0.03404345
-0.01494422
0.01594181
-0.04154275
0.05727889
0.03198251
0.05946778
-0.04135505
0.05170190
-0.02808231
-0.03939641
0.01274244
0.00928324
0.01466256
-0.01464453
0.03818269
0.01303564
0.05923173
0.01290119
0.04961743
-0.04025742
-0.03883588
0.04596717
0.03828007
-0.01339732
0.05661486
-0.04229047
-0.01793224
-0.00597362
0.02687586
0.07789321
0.01349670
-0.06665920
0.05850228
0.05987377
0.01288692
-0.01448007
0.04013077
0.08357968
-0.02839405
-0.05397691
0.07240406
0.02688600
0.03337732
0.06878759
-0.01829742
0.02888365
-0.03166446
-0.02416082
0.06428324
-0.01621333
-0.04317262
0.04793659
0.01659062
0.10712489
0.01829189
0.07107703
-0.00252045
-0.03643229
0.00408387
-0.00828435
-0.04703708
0.00717054
0.03911619
-0.07641552
0.03313239
0.06727538
-0.06270808
-0.01337309
0.08527172
-0.05515445
0.02882556
0.06160327
0.01130034
-0.00079622
-0.02219320
-0.04347451
0.06516773
-0.04722169
0.04515527
0.03716665
0.00168615
-0.06677818
0.05540368
0.02049766
0.02455810
-0.04926594
-0.03988929
0.03172491
-0.02098335
-0.00301125
0.01606598
0.02398338
0.02449332
-0.04984410
0.01131285
0.01788810
0.02857491
-0.10252379
0.03065374
-0.08659305
0.00195641
-0.07010587
0.04766250
-0.06006251
-0.04147431
-0.00732877
0.04082470
-0.02903792
0.01010783
-0.00923067
0.03205739
-0.02495065
-0.10296611
-0.02554984
0.00544446
-0.04196961
-0.04091434
-0.05482502
0.02493592
0.01463108
0.00728434
-0.03815440
0.07394768
-0.09193201
-0.04424168
0.04380042
0.00131266
0.09271754
-0.01405765
0.01716183
-0.11100885
-0.00568745
-0.00857391
-0.00820737
-0.02932641
0.04559753
-0.05896769
-0.03090350
-0.01380023
-0.00158858
0.00951795
-0.01686188
0.03367567
-0.04410708
0.03720868
0.00426317
0.09371991
0.05298920
-0.03599929
-0.01916889
-0.02869683
0.02371269
0.01250596
0.02363163
-0.04461970
-0.00038738
-0.03742821
-0.01437054
-0.04121290
-0.04616384
-0.01429094
-0.03065866
-0.00581730
-0.03343429
0.01776017
0.04777064
-0.01254140
-0.02012075
-0.00700327
-0.00508970
0.01023091
0.07322012
-0.03739725
-0.02797660
0.07216410
-0.05877757
0.00263090
-0.04293145
0.01471420
0.06975993
-0.00541803
0.08041770
0.03690972
-0.09340457
-0.03796086
-0.07156319
-0.00937295
0.00152903
-0.02640416
-0.04459726
-0.10312170
-0.03611621
0.02229734
0.10208196
-0.01724435
-0.11887384
-0.02497361
-0.01819720
-0.01730583
-0.00088896
-0.10146789
-0.02968908
0.05632491
-0.03728377
0.02994568
0.04488213
-0.07958972
-0.07244661
0.02413366
-0.06222058
0.02188026
0.05897777
-0.02726681
0.02033306
0.02964613
0.03801610
0.04357535
-0.01018941
0.00792667
0.01298041
-0.00219867
-0.05771326
0.00153496
-0.06930479
0.00768970
-0.01770450
-0.01787021
0.05008241
0.00290623
0.01512548
0.06371327
-0.02592974
0.09371176
-0.02281386
0.01290921
-0.01257633
-0.04004202
0.00879454
-0.04652284
-0.03184170
0.01207173
0.01312686
0.03705292
0.00111510
0.01763478
0.03556846
-0.03173272
-0.01055927
-0.00404573
-0.02248187
0.02415965
0.00542653
0.03703333
-0.01536027
-0.01253146
0.04673148
-0.01126027
-0.02535582
0.00769100
-0.01172457
0.00461381
-0.00416948
-0.04315316
-0.00223869
0.00468238
0.04566695
-0.04342260
-0.07232317
0.04332581
-0.02835036
-0.01658745
0.07365948
0.02876773
0.02908780
-0.04310453
0.03598725
-0.01254787
-0.00351063
-0.01113183
0.04293656
-0.01600169
-0.01525342
-0.02304879
0.00498833
0.00435903
-0.00324231
0.00387902
-0.05873168
-0.05792287
0.01797293
-0.03784287
-0.02036998
0.00932111
-0.03546011
0.00120294
0.05329193
0.07900413
-0.02353035
0.06569142
0.01565985
0.04451041
0.08993753
-0.04106091
-0.04670009
-0.02890828
-0.02536207
0.00863311
0.00651342
-0.03745776
0.04650553
-0.01284853
0.01242891
0.02024251
-0.01427577
0.04053878
-0.00199733
-0.02260478
0.06684413
-0.04387243
0.01790737
-0.05033382
-0.02086065
-0.03410586
-0.03998784
0.03378011
-0.00196429
-0.04297748
-0.00698415
0.06685685
0.04301242
-0.02460110
0.05910901
0.04891166
0.02451085
-0.01350407
0.04607825
-0.04582145
0.00974881
0.01874758
0.05569231
0.00989705
-0.03260150
0.03809750
0.05030235
-0.03486295
0.04260297
0.05648449
0.01473932
0.00991878
0.03607484
-0.03834096
0.00153239
-0.01483646
0.06271917
-0.02913016
0.07412656
0.03021417
-0.01427650
0.02307416
0.05439174
0.04815530
0.03457765
-0.08591961
-0.04454708
0.02853237
-0.02299590
0.02703423
-0.03903061
0.08349623
-0.02738044
-0.06245965
-0.02186952
-0.01156233
0.00571405
0.02415761
0.04544080
0.03351536
-0.04329778
0.00541672
-0.04775934
0.02118767
-0.02902362
-0.00343637
0.06042307
0.01253252
-0.03247327
0.04653823
0.03644888
-0.01321602
-0.00497823
-0.00665819
-0.00475814
-0.03305001
0.03556795
-0.02002365
-0.02046871
-0.06960478
0.06542783
-0.03962629
-0.01552275
0.04733909
-0.04024107
0.03131800
-0.02601697
0.01561882
-0.03574131
-0.02778156
-0.00450556
-0.04187321
0.01428260
-0.02762691
-0.00681317
-0.05839328
-0.05382310
0.01191802
-0.00364450
0.00261723
0.02738542
0.04270811
0.01629089
0.04941765
-0.03335459
-0.00493192
0.05616267
0.03208202
-0.02898468
0.00675251
0.04137805
0.04368008
-0.00102505
0.02089001
-0.00154456
-0.03416502
-0.05568651
-0.01534925
-0.07333717
0.00059063
0.02827740
0.01225332
0.02062505
-0.02032209
-0.01939956
0.01412634
0.00111126
-0.00378038
-0.02734400
0.01214278
-0.00392424
0.03445586
-0.02597679
0.00536002
0.05248556
-0.02306475
0.01245102
0.01192313
0.03510100
0.00837525
-0.02741716
-0.07186829
-0.02920561
0.03623617
-0.05236217
-0.01017366
-0.01878715
-0.05816864
-0.00159298
0.06100152
0.00164314
0.04420161
-0.02076923
-0.02382114
-0.01911731
0.03319176
0.02724821
0.02885647
0.01905525
0.02533202
-0.00859802
0.01390021
0.02129010
0.00680426
-0.00275731
-0.00096774
0.04497846
0.02153892
-0.03848747
0.02112766
-0.02457302
0.00254902
0.02708384
0.04301516
0.00928158
-0.04208263
-0.00402425
-0.04023974
0.00914680
-0.00344767
-0.03482380
0.05574292
-0.08168552
0.04270768
-0.01595527
-0.05799827
0.03589956
0.01440685
-0.03119338
-0.01680027
0.04001975
0.00297696
-0.02953052
0.04640273
-0.13481365
0.06671714
-0.08060000
0.04599432
-0.00398661
-0.00711352
-0.09260627
-0.08148865
-0.04563325
-0.01980838
-0.00314948
0.03245204
-0.02967411
-0.04828696
-0.00304810
0.03025119
-0.02613086
0.00112941
-0.03609209
0.01212758
0.00298355
-0.00305059
-0.03931070
-0.02836792
0.06941276
-0.03537640
0.01988979
0.02705644
-0.00826915
-0.01100636
-0.05836182
-0.07908311
-0.04946906
-0.01666085
0.02869312
-0.00041848
0.02015602
-0.04058508
0.01880147
-0.06238127
-0.06149283
0.05318290
-0.00415209
0.01081228
-0.08566121
0.06234429
0.06311793
0.01230204
0.05962751
-0.07646430
-0.00892337
0.04232588
-0.02414294
0.04196227
-0.00496482
-0.00101746
-0.05223597
-0.04251885
0.04280905
0.02254062
0.02521494
-0.03670483
-0.01035777
-0.05054758
0.09335253
-0.02358891
-0.04745846
0.10870585
0.03029210
0.04283952
0.08148033
0.00632501
0.04771379
-0.07116476
0.07024194
0.05065965
-0.04262952
0.01855130
0.09262707
-0.05195668
0.04822760
-0.03900292
-0.01977069
-0.11612027
-0.01106908
0.04057689
-0.04581992
-0.05807402
-0.09669889
-0.04028668
0.00559175
-0.02196570
-0.03452462
0.03523658
0.01020342
-0.00469144
0.00008223
-0.06032873
0.09824719
0.05436290
0.10191070
-0.02411607
0.09066709
0.00574934
0.09210876
0.01650991
0.02860118
0.01287485
-0.05607764
-0.01347498
0.04321561
-0.04405279
-0.05244431
-0.08521058
-0.00038881
-0.05264576
-0.00614000
-0.06270452
-0.00054712
0.00141769
0.03986861
0.07389436
-0.03448930
-0.02777583
0.05147626
0.00334871
-0.05486891
0.05206753
-0.03372006
0.01261545
-0.05785817
-0.01714447
-0.03233376
0.04642878
-0.01575472
-0.05407678
0.07185937
-0.05233426
-0.02380315
0.02436873
0.01148951
-0.00523092
0.02581466
0.02872618
0.05444142
-0.01537525
-0.01101082
0.08923818
0.09455716
0.03507265
-0.02875244
-0.04141662
-0.04368275
0.05964467
-0.01690949
-0.00713223
-0.06162422
-0.02003897
-0.00250080
0.02113498
0.05631791
-0.04110472
0.00087135
0.04550505
-0.06225167
-0.01548330
0.00972539
-0.00422049
0.03604919
0.01882638
-0.02325016
0.05636181
0.05189640
-0.11783023
-0.06724823
0.02058173
0.00637428
-0.00082674
-0.00795478
-0.06135058
-0.03178832
0.00723298
0.05042122
0.03216213
-0.05002791
-0.02951779
-0.04643053
-0.00710210
-0.02087745
-0.01775361
-0.02217606
0.01853570
-0.06069805
0.01268432
0.07258467
-0.03804306
-0.05081566
0.05669878
0.00353395
0.02684442
0.05697821
0.04444374
-0.02754258
-0.02037137
0.00637851
0.04903541
-0.00041790
-0.01952937
-0.00237673
0.03240755
-0.05817338
0.03769282
0.00871671
-0.04708901
0.04743295
0.02364374
0.02957789
-0.05924141
0.00878581
-0.00230884
0.02594681
-0.04237442
-0.01560809
0.02738151
-0.05324715
-0.00846299
-0.03742877
0.06397716
-0.06594210
-0.00939653
-0.08557887
0.09417498
-0.02651935
0.07215407
-0.05385708
-0.00131406
-0.03783317
-0.06589362
-0.02184379
-0.04392087
-0.01905740
-0.07191434
-0.09735607
-0.03922813
0.00292009
-0.00364664
-0.10591371
-0.05443054
-0.05837929
-0.10812639
0.05508307
0.02127097
-0.04004211
-0.05102441
0.00243436
-0.07523265
-0.04217602
0.00961466
-0.01165804
0.02979017
0.04593568
0.09203277
-0.01965105
-0.01655960
0.01278519
-0.02529801
0.01746203
-0.07298332
-0.01216993
0.00055374
0.06236814
0.00758993
-0.02262408
0.06447109
0.06026855
-0.00425452
-0.00432470
0.00656627
0.01971390
-0.00066412
0.04347870
-0.02369780
-0.00127818
0.07292162
0.00168529
0.01315844
-0.02814331
0.03110727
0.07736695
-0.09908934
0.04337623
-0.07904569
-0.03058209
0.00573582
-0.04184384
-0.00215752
0.04406535
-0.09115989
0.06322072
-0.08638755
-0.03150791
0.00267848
0.00703161
0.00721661
0.01772508
0.01375129
0.03474217
-0.00697982
-0.10295361
0.01902096
0.09584721
-0.02424099
0.01643913
-0.09174764
0.06208859
-0.02584096
0.06250870
-0.04493576
-0.07801027
0.01063121
0.03329354
0.03084968
0.07683139
0.01555796
-0.05698118
0.06278348
-0.00157272
0.10794207
0.04236925
0.00707253
0.11111236
0.01884976
-0.02501330
0.02234722
-0.01520390
-0.11480542
-0.04582542
-0.09321212
-0.05892477
-0.01054599
-0.01219607
0.03325164
0.01565471
-0.01881716
-0.01724420
0.00682390
0.02619596
-0.04657881
0.06476364
0.04351372
-0.06584388
0.13873976
-0.06941959
-0.02417043
0.03075427
-0.04987593
-0.00673819
0.00275175
-0.02153235
-0.02279891
0.00627382
0.13269740
0.01896529
-0.03768526
0.01379089
-0.05717894
-0.05418251
0.02405089
0.03988660
-0.04719206
-0.05969589
-0.08016115
-0.07493650
-0.05996188
0.03164490
0.01995427
0.08994377
0.04243439
0.02480786
0.09653926
-0.01756342
-0.05769872
0.05228384
0.04946955
0.01587772
-0.07875655
0.04191969
0.06307071
-0.05527557
0.02598099
-0.02033456
0.04429403
0.03638780
-0.05536474
0.01104684
0.00719199
0.03960643
0.01016994
0.03499641
0.00539184
0.06511898
-0.05028280
-0.01940992
0.10928663
0.08386379
0.03014058
-0.02914377
-0.03192126
-0.00335211
0.02073958
-0.00577124
0.02358185
0.00621449
-0.03836309
-0.02189040
0.01998226
-0.03155841
0.05779319
-0.03902219
0.06344642
-0.04206721
0.02949723
-0.03811415
0.00300494
0.04924452
0.01741049
-0.05371614
0.02792284
0.12031591
-0.06181987
-0.01957512
-0.00401453
0.04296753
-0.02069928
0.01425530
0.02590428
0.02429545
-0.02221006
-0.00596359
-0.08707230
0.01758675
0.09643311
-0.00372114
-0.07763765
-0.04736086
-0.00209508
0.00421243
-0.03343506
-0.03289316
0.02498201
-0.00878197
-0.06821413
-0.00746160
0.07275456
-0.05952720
-0.04742169
0.09478760
-0.02598853
-0.01526571
-0.03996978
-0.02179867
-0.01399036
-0.09974468
0.00863270
0.02283169
-0.01858042
-0.05237671
0.04495726
-0.02895721
-0.09384384
0.05660412
0.04207025
0.04934896
-0.01068359
-0.04463082
0.00478376
-0.02407887
0.03822393
-0.07248083
0.01026428
0.05537733
-0.03083466
-0.00956097
-0.08340462
-0.03253298
0.06763650
0.01105964
0.03486270
-0.00448974
-0.03039020
-0.00593513
-0.00622925
0.00220156
0.01285341
0.02082882
-0.06686862
-0.01099143
0.04705744
-0.07478280
0.01527001
-0.01891931
-0.03843296
-0.04271194
-0.00662394
-0.07018904
-0.01161290
-0.00758492
-0.03242322
0.00053563
0.02459637
0.01127276
0.04333793
0.03689115
0.07502121
-0.00976227
0.00340944
0.04031148
0.00461436
0.00326230
-0.00233977
-0.03377242
0.02885867
0.03941394
-0.03955770
-0.01494685
-0.03860275
-0.05983056
0.02655295
-0.00648254
0.07997249
-0.00506019
0.00879371
-0.05337447
-0.05232925
0.04387729
-0.10135745
0.07954894
0.02737804
0.02478054
-0.00914199
-0.01382900
0.01698432
-0.03355129
-0.05743118
-0.02334101
-0.07835837
0.05894338
-0.07565720
-0.07786033
0.08777732
-0.01938128
0.03101030
-0.05290749
0.00693476
-0.03568628
-0.08926862
-0.07298569
-0.01453951
0.02598881
-0.02889407
0.01403383
-0.05581611
-0.00058294
0.05839457
0.00584207
-0.05886763
0.00806198
0.05098609
0.06216250
0.04715854
-0.04277851
-0.01299924
0.06302894
-0.06567139
-0.01101949
-0.06084212
-0.01101413
0.00433810
0.01740855
0.04689373
-0.05255332
0.04636812
0.03445340
-0.04497653
0.03013233
-0.00307131
-0.03790957
0.06964642
-0.06986403
-0.01263043
0.07088698
-0.12118652
0.06615257
0.01653769
-0.07084104
-0.01343536
-0.00753183
-0.03993680
-0.02143963
0.04049909
0.02229532
-0.04564125
0.04623267
-0.07082276
-0.01011777
0.04051637
0.04733018
0.00716157
0.05044642
-0.02155389
-0.00086783
0.08749750
0.07490463
0.00068655
-0.03025361
0.01141393
0.01733358
-0.01074422
-0.00165879
-0.01691532
0.03858342
-0.02483005
0.02830432
-0.01139973
-0.07690908
-0.00840727
-0.02581532
0.01454484
0.00448670
0.03115848
0.04706229
0.06815266
0.01528794
-0.03460749
-0.02032684
-0.01861735
0.08668409
-0.00316151
-0.04087691
0.01414537
-0.05348792
0.02724944
-0.02108840
-0.06464829
-0.03780432
0.04768217
0.02890381
-0.01959577
-0.02587204
-0.04282162
-0.00321480
0.04367002
-0.09404723
-0.04246350
0.05067687
0.02102986
0.03820448
0.05583284
-0.06070285
-0.00677000
-0.05662012
-0.04744523
-0.03076737
-0.01018638
0.04542111
-0.05703988
-0.04303396
0.02257994
-0.04569401
0.00871619
0.02131944
-0.01538199
-0.00645151
0.01576957
0.01727164
-0.04312967
-0.01869210
0.00182637
0.02058817
-0.03490664
-0.00303250
-0.02485226
-0.02035162
-0.01801085
-0.00747485
-0.01416082
0.10131790
-0.06897559
0.04152697
-0.04366487
0.03343510
0.04322682
0.01134405
-0.04177675
0.03428888
0.04206675
0.06344561
-0.00924189
0.03281794
0.04296743
0.01103582
-0.02734698
0.00731854
0.00274837
-0.03824870
0.04096168
-0.00600377
0.01493733
0.00227881
-0.05368062
-0.04399316
-0.04534173
0.03898827
-0.04178782
-0.03065444
-0.01396095
-0.01903649
-0.03386872
0.00622789
-0.04635792
0.04320032
-0.06337595
0.03245576
-0.01355054
-0.06067470
0.02740305
0.01554560
0.05683241
0.03894470
0.04599821
0.00180064
-0.02924713
-0.00295419
-0.00466854
0.03124940
0.06479448
0.04092949
-0.05301932
0.07264677
0.00015675
0.07633061
0.04125276
0.01366766
-0.02839683
-0.02560772
0.01557916
0.02403149
0.02135127
-0.05168828
0.03490661
-0.02960298
-0.07650372
0.06834397
0.01153398
0.04832871
-0.06360527
-0.02379659
-0.02360319
0.01643854
0.01054483
0.02175990
-0.04143852
0.01442975
-0.04217088
0.01048691
0.04966756
-0.01376463
-0.06072306
0.03694557
-0.06336311
-0.00519842
0.03733501
0.05269736
-0.02534634
0.07661035
-0.02287441
-0.01204697
-0.03070692
-0.02558945
0.00290787
-0.04060669
-0.02572769
0.00989658
0.00231696
-0.01245785
0.02858298
0.05260437
0.04335036
-0.05756566
0.03393885
0.03728488
0.01468946
0.02124378
0.06428584
0.02804098
0.06546901
0.03614214
-0.00657454
0.06119077
0.06067434
-0.02286382
0.08308303
0.05604098
0.05587881
0.00058143
-0.00036661
0.06911860
0.00528570
0.08556665
0.00010178
0.08699919
0.04988443
0.01846513
0.06211248
0.06818209
-0.01432336
0.01555875
0.05800075
0.00991198
-0.00406723
-0.05996913
0.01747768
0.03547848
0.04239134
0.08125759
-0.03508689
0.02646234
-0.03521000
0.07486994
0.05828366
-0.06688028
0.02609834
0.06511530
-0.02907302
0.01521043
-0.02449375
-0.00599604
-0.02387559
-0.02877803
-0.00922074
0.01555071
0.00793327
-0.02526648
-0.09895878
0.04154454
0.05223606
-0.04552950
-0.00702684
-0.02290615
-0.06973124
0.05106359
0.02578006
0.03499756
-0.03849427
0.01770892
-0.01852104
0.05285327
0.03762003
-0.00390960
0.02083558
-0.07359595
0.04983071
-0.07005868
-0.06015103
-0.01584134
-0.02395524
-0.03048497
0.00154427
0.03408132
0.00556906
0.06303678
-0.05975819
-0.02758028
-0.08442177
0.03583008
-0.07681076
-0.05369258
-0.02551842
-0.07163835
-0.03671915
-0.05090749
0.04987659
-0.05837979
-0.01758621
0.00920712
-0.05840325
0.03554119
0.02319992
0.02062752
0.06364114
-0.02678809
-0.03710232
0.03669203
-0.00038286
0.04460892
-0.02985466
-0.02808373
0.06276637
-0.04321675
-0.05829433
0.01644430
-0.01996108
-0.01769051
-0.00322452
0.05027457
-0.06943097
-0.04873706
-0.07150744
0.00720002
-0.02669254
-0.04393281
-0.01827114
0.03010222
-0.02391827
-0.03144866
0.07317837
0.05777830
0.03913833
-0.02348831
0.05604288
0.00030114
-0.02350869
0.01852328
-0.00425897
-0.02452101
-0.00607047
0.01696782
-0.03845292
0.04872982
0.02096857
-0.04370358
0.03745459
0.03105881
0.07834921
0.01922467
0.05246450
0.01262399
0.06135252
0.01152599
-0.02155212
-0.03190599
0.05417690
0.02576260
0.04029264
0.02280931
-0.01799171
-0.00218333
-0.03772739
0.05660520
0.05737016
-0.00675768
-0.03446813
0.07527979
0.05268170
-0.00117537
0.00378381
0.02903339
0.02758679
0.06884436
-0.05787165
0.03929899
0.05067020
0.09364646
0.02894011
-0.00220816
-0.03265618
0.01066633
0.02341141
0.09126712
-0.02762457
0.07091837
0.02505433
-0.02820862
0.00379801
-0.00709973
-0.01075200
0.02473824
0.06229498
-0.08553461
-0.01115164
0.02449465
-0.01553263
-0.03482608
0.09261449
0.01122399
-0.01771975
0.04966116
-0.02965585
0.00635361
-0.02208470
-0.06634714
0.07654749
-0.06228814
-0.00501147
-0.06758265
-0.01167185
0.04509105
-0.02131074
0.02744277
0.08553439
0.05311640
0.01305315
0.03026613
0.00990823
-0.03842564
0.02656553
-0.03283209
0.02950315
0.00412955
0.00152952
0.00799718
-0.00155181
-0.03313284
-0.07344015
0.04659509
-0.06382439
-0.03624801
-0.04874590
0.01021343
-0.06284244
0.05550610
0.00762136
-0.04769056
-0.00227972
0.00572805
0.06039598
0.01195849
0.00947201
0.01217156
0.01932813
-0.03907399
0.01327648
0.01999867
0.05884342
-0.01007360
-0.05712231
0.00630469
0.00335142
-0.00356696
0.03197768
0.02798153
0.02937569
-0.06095758
-0.02661540
0.01076239
0.01444534
0.03669104
-0.05779560
-0.00992632
-0.00934554
-0.04997205
-0.01997587
0.01238226
0.05982709
-0.05020615
0.04108097
0.04250292
0.04161194
-0.04417849
0.03444182
0.01934093
0.05401373
-0.00392708
-0.01991512
-0.02413452
0.03113886
0.02613165
-0.03211955
0.01324082
0.10664874
0.09552222
-0.05557220
0.00454563
-0.04117373
0.03896324
-0.00293539
-0.05966512
0.03221430
0.03314119
0.07210277
0.07519867
0.02388617
-0.01242956
0.00288291
0.01080792
-0.00140567
-0.02146778
-0.03890250
0.01990528
0.05175935
-0.05056570
0.07176541
-0.00298270
-0.02568081
0.05214464
-0.12202890
-0.03273942
0.06027652
-0.02470661
0.01635846
0.00009432
-0.04018877
0.03039267
-0.01961531
-0.02931180
-0.03663618
0.06427031
0.04024215
0.05630324
-0.00281442
-0.03704756
0.01776408
-0.03408805
-0.02835136
0.03213722
0.05291864
0.00561468
0.04348512
0.07913741
0.05883224
-0.02967460
-0.08031847
0.07118434
-0.00051018
-0.01482356
-0.03852426
0.04699658
-0.04401737
-0.05946691
-0.05861975
-0.03129963
0.02300917
-0.01647037
0.03391958
-0.01873487
-0.00677049
0.02340237
0.08523217
0.03419579
0.01738911
-0.04125061
-0.06397595
0.00832144
0.01676569
0.02998150
-0.07954791
0.02218152
-0.05722670
0.06619865
0.03612824
-0.04544433
0.04112867
-0.00905615
0.05260183
-0.02248301
-0.00243859
0.04431436
0.05160443
-0.00418986
-0.00747196
-0.05227160
0.02216060
-0.00079563
-0.03540246
0.00668087
-0.01402025
0.04128015
0.01969903
0.00631887
0.01015112
-0.00705072
-0.03873880
0.01902796
0.03370228
0.00470334
-0.03050437
0.04235882
0.00612479
-0.05216268
0.01169813
-0.05169153
-0.02876264
0.01177404
0.04864765
-0.05455576
-0.02343043
0.03528511
-0.08973249
-0.04749781
0.06860527
-0.00428631
0.01178745
0.05832820
0.00345705
-0.01198960
-0.00283975
-0.00007271
-0.01313472
0.05686600
-0.05149303
0.03444660
0.04109225
0.02674174
0.06773552
0.01273747
0.00342695
-0.03037984
-0.02900789
-0.02000354
-0.02763349
-0.05281050
-0.02771245
-0.05238236
0.02751340
0.05696813
-0.04932612
-0.04944617
-0.04084447
-0.03647322
-0.00040778
-0.02841502
0.07401444
-0.07538822
-0.01703063
0.01246274
0.01040352
0.03916536
0.03634187
-0.01594502
0.03375712
-0.07994128
-0.02351690
-0.00398468
0.04405184
0.04833503
0.06791311
0.05917122
-0.01046332
-0.01117225
0.05041016
0.00867705
-0.00037207
-0.02817390
0.08528441
0.08159075
0.02831281
0.06904448
0.02560628
0.05429842
-0.03449301
-0.06055050
-0.00532993
0.02747972
-0.01975395
0.00887513
0.03168480
0.07612820
0.04583189
0.00437729
-0.02351251
-0.05197512
-0.04508410
-0.05049903
0.04763005
0.00417304
0.06980589
0.04861288
-0.00908308
-0.00551462
0.02249477
-0.02692873
-0.04847272
-0.03639111
-0.01425002
-0.01557284
-0.00503453
-0.03229268
0.00911364
-0.03915650
0.03817499
0.01994652
0.07946325
0.02170773
-0.06164340
-0.05279323
0.00877275
0.02999907
0.05556136
-0.04584233
-0.04490608
0.02422057
0.02512312
-0.00686239
0.03098632
-0.04860313
-0.02371888
0.01858109
0.05165012
0.01129700
0.05465279
0.01479004
-0.04333749
-0.00800218
0.02642472
-0.03705139
-0.04027730
0.03440216
-0.02744083
0.02273293
0.03222135
-0.05889883
0.01718981
-0.00041857
-0.04107235
0.04381029
0.01210744
0.02379388
0.06325099
0.02936184
-0.03183788
0.03603004
0.08568747
0.04424182
-0.01738668
-0.03281206
0.06860927
0.06729975
-0.06651726
0.03736050
-0.02138816
-0.05692949
-0.05752484
0.02018507
0.01134430
0.00611880
-0.01063519
0.02980016
0.02952223
-0.03899899
-0.02365016
0.00819556
0.01317163
0.00502101
0.04898647
-0.01735276
-0.05924214
-0.01697898
0.05311722
-0.01748415
0.05142071
0.00029656
-0.09449668
-0.02180029
0.00330474
0.00315928
-0.05376193
-0.04742503
0.00361337
0.03583487
-0.01863304
-0.03081863
0.01123588
0.03386808
-0.01945912
0.05372758
0.04326480
-0.04839619
-0.05282856
0.08017205
0.05524004
0.00753503
0.05437307
0.03402750
-0.00602507
0.02334100
-0.02669943
0.02007824
0.01513272
-0.01191073
0.02175250
0.05375583
-0.01324379
-0.00947543
0.03383513
0.05842739
-0.00927607
0.02952294
0.02435933
0.01747387
-0.05430760
-0.01735888
0.01102829
-0.04548568
0.06386613
0.03626214
0.02579661
0.01019240
0.00919352
0.02890961
-0.01920495
-0.01276532
-0.00868315
-0.03703309
-0.09533462
-0.05133768
-0.03974161
0.01360198
0.02956975
0.00556404
-0.04072340
-0.05294165
-0.01105425
0.02788118
-0.00254750
-0.03744999
0.03308129
0.03618099
-0.03718184
0.02275118
-0.01880205
-0.08920272
-0.02698083
-0.01295662
-0.00576222
0.04096206
0.06978250
-0.02354673
-0.01164822
-0.01067302
-0.04015981
-0.02870966
-0.02330369
-0.00907862
-0.03905354
0.04444796
0.05701133
0.06407985
0.02107969
0.00127394
-0.02226208
-0.05037125
0.07010961
0.03477600
0.04012297
-0.05625256
-0.04289764
0.01307477
0.03777343
-0.00122632
0.06843667
-0.03818863
0.05221833
-0.02026846
0.08761787
0.09028374
-0.06453238
-0.04453003
-0.09189191
0.01367084
-0.06103680
-0.05721087
-0.01484218
0.00927204
0.05347445
0.01747436
0.00963081
0.04769875
0.02169301
-0.04162581
0.03610405
0.01089098
0.04799783
0.03336662
-0.04882821
0.05890746
0.04699238
0.05333289
-0.04468951
0.02573799
-0.05509624
0.00577807
-0.02207925
-0.03358627
-0.02495312
-0.03187228
-0.02269091
0.01885138
0.03346340
0.00201674
-0.07056428
0.03404017
0.01455505
0.03852448
0.00703478
-0.00558812
0.00339901
0.02074641
-0.02085059
-0.03387066
0.04390289
-0.02337844
0.03364249
0.05585260
0.06317398
-0.02297483
-0.07431333
0.03892869
-0.03779306
-0.00520265
0.00915127
-0.01294232
0.00144326
-0.06152066
0.02611797
0.05543679
0.06416146
-0.02696535
-0.01178666
-0.03774946
-0.07624580
-0.06953693
0.01286308
-0.02024686
0.03703830
0.00259522
-0.04628556
-0.01218874
0.01852145
0.00491605
-0.04216617
0.02630769
-0.06106152
-0.04022191
-0.01491644
0.01258892
0.02811763
-0.03102026
0.03172565
-0.01790137
-0.04548439
0.05645603
-0.01788270
-0.03320164
0.03538877
-0.02436857
-0.02017348
-0.03455549
-0.03220215
-0.11016250
0.06186843
-0.02995287
-0.00963899
0.04344995
-0.02319501
-0.03855298
-0.01360688
0.03770200
-0.07159942
-0.01608684
0.00476933
0.06286599
-0.05040043
0.01508191
0.00516128
0.03129448
0.04735226
0.01566239
0.01901736
-0.03414395
0.02622804
-0.01159159
-0.01289886
-0.07519318
0.07628618
-0.05112142
-0.04014797
-0.03597191
-0.02876244
0.00937718
-0.06760372
-0.04122322
0.07913054
0.10210837
0.03158873
-0.01079770
-0.06792186
-0.01979786
0.01162918
-0.06164889
0.05019163
0.01327351
0.07150580
0.06669322
-0.06815828
0.07490619
0.06631555
0.01316953
0.01034583
-0.02123474
-0.03285594
0.01183824
-0.05323506
0.07630626
0.02082674
-0.04854761
0.01000541
-0.00139807
-0.05974703
-0.00777740
-0.03468449
-0.01411190
-0.02262916
-0.03281125
0.02073037
-0.01163166
-0.10304890
0.01060705
0.02413050
0.03068107
-0.00309285
-0.02950464
-0.03540219
-0.05418294
-0.00825875
-0.02781762
-0.01231885
-0.01004264
0.04027525
-0.02048154
0.01306933
0.01412946
0.08482383
0.05106347
-0.01930640
0.03012655
-0.00124480
0.08125813
0.04786992
0.00319348
-0.01068197
0.08293553
-0.01397861
-0.05745794
0.05464474
-0.04477432
0.03805008
-0.03500003
0.01078478
-0.05746643
-0.03539883
-0.05860070
0.05370581
0.00826244
0.04607088
-0.06573744
0.02679316
0.00400951
-0.00361765
-0.00267103
0.04199581
-0.06258947
-0.00655403
0.02695614
0.01240293
-0.00438761
-0.02851147
-0.05572978
-0.02970715
0.03471751
-0.01916982
-0.04733009
0.01698798
-0.01350338
0.00773390
-0.02956528
-0.03038025
-0.08549260
-0.01358550
-0.07431955
0.06139070
-0.00265978
0.04209455
-0.02626712
0.00486234
0.05412662
-0.03564214
-0.03993814
-0.01636306
0.10221522
-0.00485799
-0.05855567
0.05059160
0.03271266
0.00819668
-0.02034487
-0.08574068
0.02147754
-0.07736558
0.03602465
-0.06168243
0.00966214
0.03338831
-0.01241116
0.03253356
0.01995298
0.04217847
-0.04736010
-0.08740704
-0.02400820
0.00509212
0.07018293
-0.00590484
-0.00923219
-0.08565184
-0.04364383
-0.04094925
0.03317671
0.00266583
0.04345747
0.00359540
0.08032750
-0.04680402
0.01969238
0.03750821
0.02042609
-0.03363161
-0.03374217
-0.02063396
0.05241020
0.01641910
0.04860150
0.08417865
0.01621663
0.03181398
0.05330472
-0.01324898
-0.03294909
0.04679354
-0.01923997
0.03202153
-0.08467329
-0.01121093
0.04842930
-0.04385522
0.03870748
-0.05730563
-0.01845055
-0.00731875
-0.04709904
-0.04987446
0.01713483
-0.04958416
-0.00919510
0.00990205
0.00007147
-0.04027519
0.05984027
0.01412661
0.03694389
0.04676973
-0.00236772
-0.05826733
0.06391946
0.02829409
0.07117050
0.02053445
-0.03331811
0.00495514
0.03075257
-0.01266235
0.01161109
-0.01852257
0.04152797
0.02508609
0.05554063
-0.04218368
0.04828734
-0.01454979
0.00957056
-0.09262487
-0.03561833
-0.02395315
0.04355707
0.00421205
-0.02267637
0.04283737
-0.02316264
-0.04024485
-0.01923089
0.05946623
0.02451460
-0.02765117
-0.01425730
-0.01545363
0.02832957
0.02205552
0.01235555
-0.02579727
0.04005584
-0.04954043
0.03895007
-0.01597694
0.03210889
0.01950786
0.04411727
-0.03126814
0.03000895
-0.00545019
-0.02994411
-0.02540239
0.01988108
0.10807326
-0.01149174
0.03655653
-0.00815884
-0.05363043
-0.04565509
0.07438716
-0.01117700
0.04099039
-0.01895419
-0.02394830
-0.01396388
0.01506105
-0.00185755
0.05095650
0.03299899
0.02168684
0.00377443
0.08366949
0.01901581
-0.06272382
0.01487587
0.02151148
-0.03944298
-0.04980086
0.03965330
-0.06992361
-0.01423065
-0.04296792
-0.00632029
-0.03322456
0.00550748
0.01951311
0.02819031
0.02997061
0.07874295
-0.07006982
-0.03827141
0.02285695
-0.07188207
-0.03690885
-0.08503830
-0.05448778
0.10925560
-0.01741233
0.01338434
-0.03076101
0.05968120
-0.10604210
-0.05916104
-0.02397383
0.03993190
0.03650374
0.04520069
-0.01751832
-0.04306960
-0.00585602
-0.02792557
0.07023757
-0.09139548
0.00010892
0.03933999
-0.02299904
-0.11410800
-0.05217026
0.03921584
0.04988664
-0.01980544
-0.03758160
-0.06236215
0.03307770
0.03115847
0.02778346
-0.02768059
-0.01981216
-0.02157698
-0.01293356
0.04012987
0.03133787
-0.08485308
-0.00461595
-0.02480181
-0.00684262
-0.01248376
0.09568816
-0.00196982
-0.02282426
0.01776917
-0.02946015
-0.02395087
-0.00123435
0.01487915
-0.05871804
0.02453754
0.02353266
0.03170979
-0.03726918
0.02925970
-0.00102652
0.05486431
-0.02453831
-0.01667678
0.09546421
0.07779878
0.01987857
-0.04110692
0.03035606
0.01261318
-0.04116825
-0.04202458
-0.01996791
0.03454501
0.03672494
0.03965220
0.01572681
0.03401368
0.04257185
-0.06919631
-0.09395262
-0.04250470
-0.02625587
0.01647586
0.02277836
-0.00494812
-0.04298542
-0.02050987
-0.04458782
-0.05263726
0.05130652
-0.01408214
-0.03174334
0.02743402
-0.03309346
-0.04332699
0.01819832
-0.00838424
0.01789479
0.06744578
0.02602112
-0.03717506
0.01016684
-0.00593489
0.05860878
0.08500279
0.03646220
-0.05327453
-0.02533300
0.04805516
-0.07926887
-0.02036506
0.08674275
0.04180801
-0.02817764
0.05256511
0.05387550
0.04273172
0.03094149
-0.03241229
0.00564090
-0.07713194
-0.03950195
-0.01447070
0.04667410
-0.01671081
-0.08255912
0.02546944
0.02028008
-0.09049054
-0.05666455
0.06091901
0.05563569
0.00880161
0.06138774
-0.03638851
0.05430586
-0.05380465
-0.07076093
-0.03543401
0.06027651
-0.00375146
-0.00045067
0.07233397
0.05750113
-0.04291086
-0.04109536
-0.04655973
0.01783075
-0.04227031
-0.00133426
0.02600373
0.01716940
-0.07941518
0.05547000
0.09036368
-0.03268389
0.01934986
-0.02410077
0.03558856
-0.05875091
0.04278039
0.05406781
0.06441393
-0.01333681
0.01271469
-0.05094596
0.02400822
-0.10587045
-0.02938170
-0.08671561
-0.01166368
-0.02388318
-0.06529047
-0.03036613
0.01271626
-0.09242364
0.02928978
0.00367130
0.02014305
-0.00268151
-0.02445320
-0.01564340
0.01528008
0.07818865
-0.07487801
0.01392210
-0.02380087
0.02541451
-0.03613016
0.00100358
-0.02534184
-0.04367654
0.00129098
-0.03490610
-0.02102651
-0.07178133
0.02595746
0.07695980
-0.01319550
0.04029019
-0.08122625
-0.06560027
0.07305986
0.07796124
0.02049352
-0.01486024
-0.04220161
-0.04549807
0.02427271
-0.04824902
-0.10276619
0.04647219
-0.00516959
0.00436175
-0.01922474
0.02702525
0.05565614
-0.03761459
-0.05203778
0.03024646
-0.05217447
-0.01750687
-0.01197649
-0.00111263
0.01891314
-0.03542850
-0.02027892
0.11113917
-0.00931604
0.04051597
-0.02303941
-0.08811448
0.00555508
-0.09340900
-0.05853067
0.08178505
0.01789341
0.06485528
0.01744848
0.02800976
0.03236269
0.00717826
-0.06458028
0.03241463
0.05018855
-0.01102551
-0.02302706
-0.03974015
-0.05034309
0.00717915
-0.00280543
-0.02206452
-0.03282703
-0.01248535
0.04396738
0.01779423
0.04538354
-0.02108971
-0.00846816
0.02952478
0.04312553
-0.01286748
0.04509617
0.04264031
0.07108034
0.03134524
-0.05155791
-0.01467966
-0.04719581
-0.03855475
-0.01155623
-0.03224785
0.02260781
-0.01089247
-0.01079659
0.01698574
0.02321459
-0.06830809
0.05548725
-0.06615466
0.00740519
0.05869190
0.00575201
0.01671529
-0.00099678
0.00046618
-0.05024291
0.05583742
-0.01971098
0.00815738
0.00796760
0.00742290
0.06388485
0.06707650
0.02722410
-0.04267918
0.04144417
0.03545588
0.10695310
-0.02434378
-0.01125611
-0.06290133
0.00117114
-0.04032939
0.02385340
0.02872219
-0.05898074
-0.06899946
0.02057749
-0.03622687
-0.09327892
-0.00343119
0.00994921
-0.03747051
0.04351364
0.03686296
0.02953806
-0.02888138
-0.07825933
-0.00661033
-0.03561171
0.02403872
-0.02030081
-0.04910906
0.02275606
0.00633521
-0.01833511
-0.00437115
-0.10193244
0.04686609
0.06239199
0.05421928
0.01677572
0.03066480
-0.04155948
-0.01158930
-0.10382460
-0.08482268
-0.04537084
-0.09450759
-0.03232938
0.00476356
-0.00683377
-0.00742849
0.05169500
0.02201950
-0.01440268
-0.03876359
-0.00053311
0.00789260
-0.02777619
-0.09039858
0.05061421
0.01844413
-0.02531354
-0.03582378
-0.05968446
0.00027377
0.04227234
0.08663442
-0.00854238
0.03554411
0.00265378
-0.02125412
-0.04109951
-0.06512384
-0.09941573
-0.03929623
0.04669781
0.05091776
0.05672972
0.01192062
0.03947441
0.01768051
0.04378633
-0.11286180
0.00248027
-0.00594165
-0.05987757
-0.04025668
0.05185296
-0.02553738
0.01855910
-0.08498036
0.03015060
0.01132109
0.02114512
0.03065681
-0.05242703
0.02177595
-0.02395344
-0.01162783
0.08914375
-0.00126095
-0.03252591
0.00534452
0.01803052
-0.04788690
0.00237622
0.02737619
-0.01459827
-0.00091463
-0.06027611
0.01456586
-0.02565217
0.14822133
0.02282017
0.01384177
-0.01014585
-0.01612508
0.06729233
0.04024315
0.01758147
-0.01373118
-0.03109353
-0.01978681
0.06380795
-0.02746561
-0.03738826
-0.12742516
-0.03865449
0.00872391
-0.07021492
-0.01592432
-0.03439150
0.03684285
0.00024408
0.06936539
0.04496023
-0.04425108
-0.06450844
-0.02136390
0.02614781
0.04425295
0.00128447
0.02435821
-0.04238273
-0.00235971
0.02548822
0.10721368
-0.04241245
-0.10972754
-0.10997029
-0.06270476
-0.02534495
-0.02787708
-0.11456647
0.01587077
-0.06965884
-0.09332479
-0.13273665
-0.00436713
0.00403067
0.03526490
0.02517633
0.09095331
-0.09344532
0.04315905
-0.08794565
0.00817013
-0.00526281
-0.00246302
-0.01845342
-0.00647286
-0.07386179
-0.10461265
-0.05098599
0.02713405
-0.07160360
-0.08380510
0.02479839
0.05443799
-0.03723360
0.03739017
-0.09396604
-0.02241053
0.00030048
0.05525463
0.02103888
-0.05064471
0.00844920
-0.02563752
-0.01230142
-0.05302052
-0.03716767
0.08216981
-0.06429210
0.04025425
-0.05372822
0.01408872
-0.03696663
-0.05479856
-0.07796240
0.10686036
0.07920372
0.05078525
-0.04477509
0.13466112
0.07156795
0.05582931
0.11527193
-0.07731374
-0.00391745
-0.07222282
0.07260253
-0.09632570
-0.02627563
0.00547683
0.00550850
0.13230228
0.10370577
-0.04507295
0.02567066
0.04990742
-0.00174958
-0.00166051
0.03094552
-0.04186084
0.07823449
-0.02053644
0.03724186
-0.00433422
-0.00508492
-0.00764685
0.01182568
-0.05231851
0.03512625
0.06342833
0.02638064
-0.07135113
0.02901987
-0.01897473
-0.02251015
0.02184603
-0.02982497
0.00241065
0.02009899
-0.05326173
0.01957792
0.05673972
0.03142579
-0.05190846
0.02790417
-0.02631106
-0.01989506
0.03911315
0.04192119
0.00934441
-0.04154456
0.09611055
0.00270192
-0.05787032
0.06825056
-0.01448260
0.01840368
-0.00532274
-0.05593801
-0.03401542
-0.01231645
0.00043198
-0.01438515
-0.00800078
-0.04064868
0.00107883
-0.03960380
0.02356173
-0.02348657
-0.05804150
0.06991038
-0.01319281
-0.01437688
0.00852012
-0.00687786
0.08305728
-0.08732667
-0.01698356
-0.02317948
-0.06526462
0.07090111
0.00712210
-0.00093167
0.05729024
-0.02872212
-0.01503279
-0.07299252
0.05863933
-0.00053781
-0.09279810
-0.02154250
-0.01289269
0.00223043
0.03835483
-0.05385022
0.01671511
-0.00916651
0.00417402
0.01861510
-0.00094605
-0.00927287
-0.08845019
0.09237963
-0.12606606
-0.03189462
-0.10544474
0.01946651
-0.05615642
-0.03955391
0.01461069
-0.02272747
0.08544509
0.03408318
-0.00479988
-0.05286270
-0.02540351
-0.01172034
0.08444010
0.02935023
-0.01991388
0.07603683
0.01100031
-0.02936672
-0.06036856
-0.03973594
0.02047677
0.02621775
0.05176442
-0.08845997
0.01765326
-0.00698400
-0.03475393
0.00122906
0.06020594
-0.02506392
-0.03689470
-0.04570084
0.02863902
-0.02716733
0.04506664
0.05927169
0.03899835
-0.04644526
0.02468256
0.00016408
-0.05966333
-0.01360157
-0.01051015
0.01739487
0.05067517
-0.05628852
0.02741761
0.02225297
-0.06909652
-0.07692929
0.09585430
0.01457580
0.05526968
0.10865147
0.00707781
-0.00341299
-0.01757446
0.05474684
0.15764579
-0.07978470
-0.07254773
-0.06498903
0.04538631
0.03823643
-0.02432401
0.05669066
-0.00287168
0.02227607
-0.03699762
-0.03585717
0.00985602
0.03931973
-0.11051340
-0.03955703
-0.01550699
-0.01381011
0.03606641
-0.02141325
0.05652273
0.04378080
-0.03177576
0.00327510
-0.03435429
-0.01123800
0.01996106
-0.01313282
-0.00283604
0.01385231
0.01394907
-0.04098042
-0.01737353
0.01052844
0.10190853
0.04670629
-0.05067732
-0.10564201
-0.04483328
0.08500258
0.02637115
-0.07638154
-0.00483760
0.00344549
-0.09538680
-0.06987588
0.00447697
0.00225142
0.04953804
-0.00883777
0.08154218
-0.02867528
0.00153222
-0.01734894
0.06697708
0.03637920
0.07132824
-0.09506942
-0.00403686
-0.01717400
-0.06150683
-0.07413488
-0.02381778
0.01081197
0.00938093
-0.00046748
0.02368257
-0.03019745
0.02109868
0.01887852
-0.03821149
0.01467936
0.05155183
-0.06817881
-0.05003891
-0.03691741
0.01902732
-0.03044379
-0.01501360
-0.03128793
0.02481804
0.01920319
0.10736260
-0.07507755
0.06248156
-0.06329172
0.01317635
0.01854683
0.08728879
0.05889708
0.11923489
0.06631578
0.01038639
0.13749436
0.01669364
0.13648432
0.01706465
-0.01106747
-0.07042533
-0.05755844
-0.09570182
-0.09029429
0.04019675
0.07475825
0.05088577
0.08157825
-0.01897148
0.00327030
0.01526037
0.00742679
0.05011037
0.01922063
0.09174426
-0.09821388
0.03257031
0.06391707
-0.04429035
0.04784752
0.05198244
-0.08608867
-0.06261314
0.00537790
0.09105512
-0.03124427
-0.10434154
-0.03881399
0.05869368
0.03161557
0.07589503
0.03049382
-0.04157980
-0.01154922
-0.01091772
0.05951624
-0.01388483
0.01325824
-0.04863581
0.06912292
-0.03474518
0.02359449
0.05835218
-0.07754850
-0.03429813
-0.04216739
-0.03254806
-0.02571186
-0.07486472
-0.08173858
-0.01015026
-0.00534024
0.00868872
-0.09934096
0.00626237
-0.05507056
-0.08420028
-0.06112602
-0.03545190
0.00721716
0.01351112
0.02718492
-0.06075234
-0.12545282
0.07924317
-0.01828071
-0.08518697
0.01773928
-0.02640042
-0.00124275
-0.08252342
-0.06938013
-0.05764858
-0.02445514
-0.03751728
-0.05951181
-0.01083989
-0.03595532
-0.01342709
-0.00841092
0.06467301
-0.12912594
0.02921228
0.05995669
-0.04614827
-0.02932582
-0.00954548
-0.06841982
-0.01872836
-0.09115450
-0.05519569
-0.02827170
-0.00900552
-0.01597927
-0.00401850
0.03945639
0.04085760
0.01786759
-0.03600015
0.04654282
-0.00852941
0.03915193
0.01335640
-0.02864728
-0.08824391
0.07482620
-0.02298399
-0.02392746
-0.04716215
-0.09251573
0.02662447
-0.03954679
0.14150669
-0.01759943
0.03416094
0.05778209
-0.00266153
-0.06854663
0.03885226
-0.01870019
0.07902748
-0.04123178
0.01113907
0.03133187
0.08620349
0.05647013
-0.00556326
-0.01284331
-0.03103817
-0.02933526
0.02456028
-0.01108423
-0.05885648
0.03752997
0.06834039
0.00807235
-0.03741959
-0.04129987
-0.01198965
-0.02613185
-0.06679594
-0.00204245
0.01536389
0.07230425
-0.04535749
0.08613033
0.01117979
-0.06053620
-0.02123361
0.06877124
-0.11190367
0.06295548
0.04575257
0.07299583
-0.01141725
0.00534906
0.03782990
0.06558701
0.15681691
0.00989034
-0.02168569
0.01807316
-0.06195714
-0.01749756
-0.01568791
-0.05577243
-0.04352752
0.03611045
-0.01767714
-0.00486086
-0.01325323
-0.05006298
-0.06630586
-0.02100050
0.07267407
-0.05505822
-0.00862725
0.08653221
0.01613810
0.06558456
0.08021332
-0.01910682
-0.03613849
-0.03179509
0.00581216
-0.07558960
-0.02568530
-0.00751576
-0.03612149
0.00829318
0.03602568
-0.00959662
0.00840717
0.00902892
-0.00787706
0.00139794
-0.03606319
0.02069964
-0.05356796
0.03046953
0.05511592
-0.00821557
-0.00508664
-0.05426534
-0.06536637
-0.00585144
0.02924983
0.00043086
-0.00882351
-0.01680855
0.00183345
-0.04801003
0.01587541
-0.01061014
-0.02483655
0.05875127
-0.02526480
0.02424455
-0.06151045
-0.07189389
-0.06896175
0.02025166
-0.05568103
-0.04908478
-0.01432529
0.00700651
0.01429540
0.04430741
0.04509670
-0.00656223
0.01775099
-0.04684161
-0.06384592
0.06247568
-0.03043478
-0.00875505
-0.04268895
-0.03673828
0.03342106
-0.04126636
-0.06495059
0.00028175
0.05035197
0.03751938
0.01389833
-0.00846664
-0.03786873
-0.05457257
0.05595545
0.04518491
0.00311427
0.05833856
0.05071632
0.00380912
-0.01811063
-0.04793068
0.04639715
0.08835605
0.01317062
-0.02623848
0.01180786
0.01540474
0.05005518
0.05259497
-0.05084616
-0.03752525
0.06481263
-0.02138736
0.01127834
-0.05733166
0.07068631
-0.01597633
-0.05397796
0.01028436
0.06932875
0.01117315
-0.03550313
0.05698235
-0.02036533
0.00718190
-0.04232930
0.04441731
0.05387454
-0.05987486
0.00578235
-0.03317436
0.03590161
0.04083411
0.05744327
-0.00560586
0.02884077
-0.05107254
-0.01774115
-0.01864250
0.03920113
0.02456637
-0.03822528
0.00678134
0.03230253
0.01909273
-0.04409089
-0.01833154
0.02838708
-0.03562570
0.00858763
0.00273837
0.01705506
-0.00383912
0.00553083
0.03671526
-0.05408201
0.02705305
0.05148384
0.00425516
-0.02006065
-0.04325935
0.08631048
0.07903071
0.04360653
-0.04879281
-0.05997081
-0.04802745
0.12203841
0.06498186
-0.00096189
-0.00024262
0.08682995
0.08841629
0.01894682
0.00199917
0.06209375
-0.01097529
0.03919848
-0.06480788
0.03406804
0.01438331
0.01145644
0.12608610
-0.02642458
0.09394556
-0.05503586
-0.04484810
-0.03322898
-0.01166547
-0.06235418
0.00801022
0.11607360
0.05157071
-0.05110751
-0.04362692
-0.04773298
-0.06140011
-0.04199761
-0.05133265
-0.07783809
-0.04176679
0.02384956
-0.05448324
-0.02707821
-0.01805542
0.01558895
-0.03507783
-0.00003191
0.01180774
-0.01912426
0.02651904
0.01010306
0.03358703
-0.06016925
-0.03442601
-0.03644177
0.07097431
0.08892404
0.04019609
-0.05162846
-0.04310639
-0.03452989
-0.02556952
-0.00196623
0.01056231
-0.00426245
-0.01360823
0.00608048
-0.06214570
0.06780225
0.02036793
0.05510683
0.08646931
0.05594285
-0.00977170
-0.10615986
-0.04938605
0.00518371
0.02908183
-0.01515694
-0.00265349
-0.04288646
0.00007355
-0.02189682
-0.05328039
-0.00394958
-0.08344404
-0.00162478
-0.01062558
0.00680335
-0.02496118
0.00046183
0.04812789
-0.03255717
-0.04111497
0.05133868
-0.03271658
-0.00355444
-0.00098317
-0.02827706
0.02766181
0.03870507
0.01547507
0.03817909
0.00389111
-0.00574444
0.01023049
0.08548745
-0.09335107
-0.03239074
0.00776637
-0.00317880
0.05311732
0.03460812
0.10440791
-0.06137548
0.02084428
0.08223290
0.02191574
0.03324961
0.07261526
-0.02024727
-0.05347431
0.06124142
0.11493610
0.03748164
-0.02792737
-0.00923044
-0.01724342
-0.10210883
0.01277807
-0.07905895
-0.10457522
0.04573630
0.04214660
-0.04257147
-0.04175154
-0.03373222
-0.03918582
-0.03843660
-0.09164775
-0.01554956
-0.08553105
0.03458891
0.00363605
-0.06252409
-0.01499291
-0.05443950
-0.00159087
0.06385297
-0.08153341
0.01740094
-0.01852367
-0.00394386
-0.00725585
-0.01466178
-0.01282936
-0.03190030
-0.03520183
-0.00603632
-0.02493667
-0.02200400
-0.03656628
0.02099171
0.05446038
-0.03745770
0.02464490
-0.01643343
-0.04220153
-0.03851262
0.01084704
-0.05907961
-0.00144875
-0.00667287
-0.05098327
0.03553563
-0.01902513
0.00378927
-0.07953751
-0.01791947
-0.03827485
0.11038285
0.01975215
0.05669827
-0.00617425
0.02869185
0.03357240
-0.02592651
-0.03717070
-0.01835757
0.04637227
0.04980239
-0.01295390
0.04310679
0.02978214
-0.04991252
-0.05211626
-0.08534807
0.04494361
0.06854529
-0.03987370
-0.00147245
0.08270086
0.05962536
-0.04539797
0.02929250
-0.03155895
-0.00089293
0.03465174
-0.04446065
-0.00763767
0.00697537
0.00304750
-0.00426809
0.08437671
-0.04204478
-0.02041638
0.04703288
-0.03346282
-0.00710820
-0.02818484
0.02787664
0.08450344
0.01362952
-0.02229942
-0.06928653
0.00746897
0.17949742
0.00197299
-0.03390393
0.02956199
-0.00011716
0.04014664
0.05195430
0.02374654
0.03640956
0.00854468
-0.04338114
-0.03523468
-0.01118982
-0.00634034
0.02445915
0.08079820
0.08425963
-0.06233123
-0.04501352
-0.01029024
0.02754583
0.01156077
-0.02827851
0.02354058
0.00962419
0.03133479
0.05234757
-0.02127946
-0.09259056
0.03296173
-0.02766770
0.01771857
-0.05816573
-0.06374513
0.00221739
-0.03787693
-0.01718222
-0.06390528
-0.06346380
0.01911866
0.06583527
-0.06755491
-0.01992758
0.01990985
-0.05728867
-0.03501534
0.02546201
-0.00488946
-0.00834141
0.03548424
0.03703967
-0.03489243
-0.01567078
-0.02543258
0.03546800
0.03021874
-0.00648595
-0.03204028
-0.04368554
0.01017979
0.06467833
-0.06710060
0.04218324
-0.03194832
-0.02623144
0.00586935
0.07321904
-0.03666665
0.14297722
0.02169647
-0.00193308
-0.02253995
0.00038528
-0.04078705
0.01247509
-0.02669996
0.03518673
-0.01048788
-0.06224160
0.00112286
0.02891499
-0.05618130
-0.00253229
-0.01751361
0.10052804
-0.00297561
0.02876951
-0.03959025
-0.00447590
0.01388854
0.10719054
-0.06308702
0.08346174
0.07533609
0.07657769
0.10106950
0.03648682
0.02393228
0.05962861
-0.01593016
-0.21586047
-0.08696056
0.01658370
0.00853173
-0.00046320
0.04546368
0.05193820
0.01590440
0.00903344
0.04297714
-0.00252390
0.03388198
0.06747124
-0.02939730
-0.04389288
0.06792119
-0.03133331
0.06165693
0.03370362
-0.04255729
-0.07719488
0.01520927
0.04976292
-0.04395299
-0.08321338
-0.00153790
0.02954114
0.02085913
0.10184962
0.01042311
0.03140708
0.00786423
-0.04079027
0.06554656
0.03826794
0.01284739
-0.03138622
-0.00242386
0.02996662
-0.06044475
0.00665380
-0.03260540
-0.05487044
-0.10893715
-0.05223216
0.04107345
-0.04201649
0.03049801
0.02618777
0.00184616
-0.01409890
-0.04861306
0.01247878
-0.04173885
-0.02255454
-0.01866496
0.10720933
0.01532850
-0.01235820
0.00937642
0.02890380
-0.02302836
-0.04376283
-0.01167909
0.09794912
0.00895536
0.04530166
-0.12409782
0.04824702
0.06134942
0.03554232
0.01635136
0.04316481
0.02713725
0.00887772
-0.01648138
0.03533152
-0.02227473
-0.05543310
0.00147129
-0.07242788
0.05825213
-0.07660854
-0.06801639
-0.10741501
0.02345280
-0.03814846
0.01555595
0.00214616
0.05910650
-0.03076470
-0.00733811
0.04880415
-0.04945709
-0.06699558
0.12005606
0.02676899
-0.04211685
-0.01598061
-0.02224669
-0.04201478
0.03385388
-0.02975212
0.07297511
0.03700332
0.05177163
0.08703962
0.01734542
-0.05329753
-0.04193656
-0.10314025
0.00119178
0.00517498
0.00159609
0.05238923
-0.03755873
-0.03335396
-0.10358950
-0.07198158
-0.02128960
-0.05748619
-0.03939706
-0.03713652
0.03264235
-0.06148222
0.02154854
0.01849924
0.02851086
-0.00328591
-0.01565683
-0.03121369
0.00869806
-0.03187535
0.05406354
0.04302825
-0.03086363
-0.06698538
-0.08311863
-0.02009328
-0.01971429
-0.02190112
0.02161562
-0.04865338
-0.00467242
0.04854649
0.01509506
-0.05115164
0.06567854
0.01609556
-0.02572428
-0.11472724
0.02045365
0.10210410
-0.05898664
0.01367523
0.05627654
-0.06832197
0.04651914
-0.06963566
-0.00367043
-0.07793915
-0.06832343
-0.03703538
0.03919370
0.05372577
-0.03307388
-0.02013651
0.05171669
-0.05767212
-0.00359660
0.06985144
0.04996397
-0.00724138
-0.02207438
0.04388241
0.01319310
0.03979987
0.11300181
0.02922888
0.04119023
-0.10896748
0.15645099
-0.02645806
-0.03802758
0.04316600
-0.00737153
0.03265211
0.01237633
0.03104712
-0.08815973
0.06416073
-0.04204417
-0.06249398
-0.02453815
0.01060083
0.02870331
0.02801218
0.01451011
0.03242458
0.03177392
-0.04545878
-0.01235319
-0.04847046
-0.04611159
0.10270003
0.03623643
0.05007755
-0.09848393
0.00875805
0.04716697
0.02193010
-0.00431527
0.02797960
-0.06703705
0.02104566
-0.01106562
0.03234293
-0.02988476
0.02332803
0.03129065
0.00196062
0.03554557
0.02159518
0.00444855
-0.00661068
0.01891706
-0.01938551
-0.04769226
0.02344301
-0.02328457
-0.00411268
0.04522923
-0.02675982
0.05809306
0.02372992
-0.04770349
-0.04848297
0.07266127
0.09599566
-0.02834376
0.03572729
-0.05969866
0.04438257
-0.07196090
-0.02325087
-0.04018859
0.06458717
0.05526250
-0.00939528
0.06597387
0.02522052
0.08092348
-0.06007263
-0.03874207
0.03764950
0.04336262
0.05184108
0.01412651
0.04399021
0.08680277
0.05628598
0.06426113
0.01701754
0.04359169
-0.00916762
0.05056711
-0.03886116
-0.03953638
0.05574092
0.04241890
-0.02134762
0.05730121
-0.01400298
-0.01853802
-0.05137358
-0.00241610
-0.07218930
0.01346372
0.00387611
0.07401716
0.01979885
0.02426633
0.08420417
0.05054812
-0.04761889
0.01072786
-0.07427581
-0.02601152
-0.05150443
0.04766475
0.10019638
-0.05108404
-0.02972347
0.02257024
-0.00098530
-0.04507273
-0.03441277
0.03182397
-0.06044290
0.07123813
0.00695178
0.06114483
-0.11163026
0.08392198
0.10276193
0.07627001
0.00699611
0.04332894
-0.06783976
-0.02904282
-0.01586449
-0.01709604
-0.01309478
0.00141014
0.06430931
-0.04242821
0.01649930
-0.00612862
-0.07932243
-0.05023858
0.08450214
0.01775496
0.03261313
-0.10907929
0.02676039
0.03035526
0.00738876
0.05235022
0.03443908
-0.04858466
0.00870479
0.03394932
0.00764099
-0.03775300
0.02318905
0.07325864
-0.02936278
0.09528477
-0.08779857
-0.06047024
-0.06199591
-0.07952335
-0.04484635
-0.04735162
0.06125056
-0.02478957
0.02576706
0.03098808
-0.00139509
0.03571189
-0.07159372
-0.03099839
0.03934056
0.03639368
-0.07117409
-0.06473855
0.03242793
0.07101240
-0.01803554
-0.04376281
0.00724620
0.07151841
0.01877871
0.04848243
-0.08830024
0.07882291
-0.06578796
-0.05717667
-0.03794325
0.01519498
0.06083132
0.06625447
-0.09228039
-0.02288613
-0.04484185
-0.01723435
-0.04333556
-0.02188190
-0.03992016
0.02772281
-0.00111549
-0.01959519
-0.02915329
0.00338445
0.01021871
0.02658167
-0.00258592
0.02255375
0.01218335
-0.03925245
-0.01925745
-0.02883777
0.06331581
-0.04295258
-0.03850637
0.06546026
-0.03522639
-0.01416828
-0.04939163
0.02148649
0.01513705
-0.01143615
-0.00315577
0.02557017
0.07802612
-0.01042595
-0.11421252
-0.01993079
0.09866010
-0.03594244
-0.03331297
0.03324298
-0.08175730
0.00177247
-0.04900359
-0.07387481
-0.05180342
-0.03545685
0.02792129
-0.00815889
-0.04687613
-0.05288566
-0.02230606
-0.02268207
-0.01289156
0.07430036
0.06588551
0.07667284
0.05004395
-0.01159201
-0.04973483
0.07098314
0.02675428
0.01429587
-0.00437436
-0.04019260
-0.02191672
0.09183010
-0.03652128
-0.03615210
-0.01683948
-0.04327586
-0.03505246
0.03758194
0.00119344
-0.00510300
-0.09715910
-0.03120906
0.04855017
0.00071378
-0.01717778
-0.05168465
0.09753104
0.01527336
0.00274148
0.01684122
0.11767062
0.07223930
-0.00720302
-0.07652121
-0.00060191
-0.03630467
-0.05987727
0.02759621
0.04039123
-0.01449469
0.02919396
0.02958632
-0.09126977
-0.01076983
-0.01404942
-0.02251414
0.05621208
0.03018695
-0.02416661
0.02393814
0.01852068
-0.00571578
0.00478099
0.05330740
-0.05628499
0.10580662
0.05300122
-0.09219233
-0.00520646
-0.05688469
0.04175695
0.05733733
-0.02023220
-0.00619179
0.03945634
-0.05288027
0.00674065
0.02018449
-0.00127615
0.05893292
-0.00178096
-0.04669764
0.04791106
0.03551214
-0.01155292
-0.02815289
-0.09517714
0.02207471
-0.01367340
-0.06252519
-0.14966553
-0.13268457
0.03050912
-0.04386073
0.08226554
-0.04631482
0.05436883
0.03210598
-0.05043157
-0.03829186
-0.10451469
-0.14844200
0.05618137
0.04203168
-0.02771606
0.00166483
0.02639451
0.03702874
-0.00572434
-0.07480179
0.00377918
0.01489067
-0.02367673
-0.02286109
0.03138538
-0.06534992
0.02272417
-0.04754141
-0.01648594
0.05699073
0.05822013
-0.04367556
-0.03897257
0.03833323
-0.05065708
-0.07336055
-0.02116588
-0.04153831
0.06788879
-0.03345716
-0.02710717
0.02543736
-0.00224952
-0.09278017
0.00751096
-0.03432601
-0.01907456
-0.00217723
-0.02864242
0.05571765
0.03744051
0.02519313
0.05305648
0.01584133
0.06042993
-0.07993343
0.02625714
0.00772054
0.01181409
0.01933116
0.04524808
-0.07120753
0.01712400
-0.04778359
-0.06570211
-0.02870584
0.01351372
-0.07366411
0.00793667
-0.03404980
-0.05524351
-0.01615118
-0.04868313
0.08373452
-0.02911010
-0.00977146
0.00977135
0.04740816
-0.10047510
-0.01283862
-0.03182701
0.04123566
-0.00645729
-0.03481738
0.05937400
-0.06819967
0.05364539
-0.02243489
0.01235033
-0.01096578
-0.00427607
-0.06593860
-0.04456083
-0.01632569
-0.03689005
-0.07814340
0.00148281
-0.03679616
-0.03446313
-0.02780379
0.08075986
0.03229838
0.05974884
-0.03403942
-0.08490185
0.00597116
-0.05845869
-0.05239220
-0.05777689
0.02246629
-0.05534752
0.00063898
0.00857260
0.00862025
-0.03094792
0.03729557
0.05750344
-0.07553157
0.08738337
-0.04923081
-0.02994217
-0.01657677
0.00413457
-0.01977649
0.08122754
0.00622355
-0.07775214
0.04301234
0.03901315
0.06982634
-0.00229760
-0.03445219
-0.14145917
0.06407654
-0.01865229
-0.07403275
0.03476541
0.05267264
0.03598405
0.00565702
0.01979663
-0.05792637
0.02732642
-0.00158922
-0.06448473
-0.01718271
0.06188406
-0.02561094
0.01347538
0.02163541
0.02986788
-0.01669423
0.00294304
-0.01513182
-0.01978469
0.07180449
0.04664238
0.04552918
-0.00902240
0.04276833
0.05290578
-0.04227551
0.04879390
-0.03258405
-0.04578926
-0.05635144
-0.02638760
0.09287184
-0.04822032
-0.07826831
-0.02268428
0.10492221
-0.03799260
-0.02936296
0.05272147
-0.02850261
-0.04530856
-0.04485815
-0.03811959
0.00140214
-0.04094798
0.06412747
-0.00177873
0.01424881
0.06459915
-0.01737794
0.00107473
-0.08896558
0.02277760
-0.03992350
0.04802546
-0.04683204
-0.04036031
0.04569609
-0.02808543
-0.04778522
0.08591817
0.04100616
-0.03190412
-0.03418156
-0.00507486
0.00082536
-0.03889804
-0.03188476
0.05451158
-0.03479383
0.01929278
-0.04688336
-0.00649668
0.03033195
-0.01997381
-0.00406046
0.00212083
-0.11845185
0.06054128
0.02460349
-0.01749502
0.03531384
-0.00426954
-0.01040754
-0.03423471
-0.04920771
-0.02336031
-0.04585527
-0.05934389
-0.04558214
0.00503947
0.00052307
0.03010798
-0.03185193
0.00484342
-0.07902729
-0.01260022
0.05533363
0.00633633
0.03652978
-0.05796680
-0.04404632
-0.04684555
-0.01834792
-0.00844035
-0.07979468
0.01200839
-0.01063017
-0.01499825
0.03544053
0.03785137
-0.03025240
0.04437520
0.04681631
0.03843882
0.05682028
0.06943111
0.00258919
0.03310712
-0.00795811
0.08275577
0.11044712
-0.04947457
-0.05092504
0.02959023
0.03740601
-0.02348381
-0.05429355
0.01362487
-0.00698707
0.04075491
0.06484331
-0.06166479
0.03462167
0.02723713
0.03360382
0.02034690
0.01368228
-0.01933230
0.06337342
-0.03387195
0.02247750
0.04990168
-0.04329504
-0.03201696
0.04360485
0.00420379
-0.01849230
0.02424715
0.00575905
-0.04622116
0.05099315
0.04226263
-0.04645173
0.02861651
-0.01510686
-0.03126528
0.04170052
-0.07671995
0.02493570
0.05269226
-0.03229667
-0.02929165
0.10295503
0.00947619
-0.02076860
-0.03019904
-0.01847099
0.02029715
-0.05371498
0.00746721
0.03432261
-0.02617294
0.01684078
0.03657738
-0.02645992
0.01858521
-0.02253636
-0.03265163
0.02692897
-0.01766662
-0.07827953
0.00345319
-0.04073920
-0.05071771
-0.06007357
-0.10514525
-0.05868698
0.02716825
0.05366283
-0.02339765
-0.01920330
0.01269215
-0.03308538
-0.00015778
-0.08857778
-0.01933555
-0.00927820
0.02053412
-0.04205314
-0.10695975
0.04214018
0.00660911
-0.08302592
0.04321360
0.00213830
0.00656588
0.00290636
-0.01825419
-0.04798854
-0.01402592
0.01936854
-0.04785012
-0.07097472
-0.06818077
0.01336382
-0.07387367
-0.06956493
-0.10441473
-0.04748647
-0.10159612
0.06894893
0.04568156
0.03540089
-0.03387771
0.13083582
0.05944313
-0.03628667
-0.10101270
0.08207041
0.04547476
0.01592544
-0.10009051
-0.05803242
0.01100519
0.08466539
0.07284342
-0.04283545
0.01295804
0.06761975
0.00229414
-0.04741955
0.03249058
-0.14677340
-0.03799031
0.09891757
0.00053794
-0.02140782
0.03094610
-0.01992299
0.02047760
-0.01149140
-0.03503634
0.04691029
0.07581005
-0.07430450
-0.06226940
-0.00202814
0.04808648
0.00569537
-0.03238863
-0.05314635
-0.02240772
0.05528420
0.02388479
0.07814144
0.01315188
0.00991218
-0.00512350
0.01722941
-0.05130521
-0.00029242
0.04235668
-0.00788341
0.00672060
0.00690600
-0.09534875
0.12315670
0.03597968
0.03945155
-0.00157878
0.01570006
0.18057564
-0.04069249
-0.01301680
-0.00196389
-0.05736541
0.06029602
0.00812605
-0.05132901
-0.01064223
-0.02221915
-0.04055565
-0.02016678
-0.05489043
-0.04574540
-0.08539867
-0.04540042
0.05422360
0.00225281
0.02162743
0.02939058
0.00909083
-0.06552808
0.02399121
-0.08280865
0.01006734
-0.00887057
0.04231665
0.00940567
0.00112269
0.02935936
-0.01232253
-0.02732912
0.09107145
0.00602147
-0.05611335
-0.00697168
0.00355519
0.00944236
-0.00410962
-0.07637259
0.11779488
0.07388624
0.01032336
0.06618071
0.08650832
0.00601677
-0.01004701
0.02001064
-0.00127745
0.02521719
-0.02878214
0.15444385
0.00575363
0.01396181
-0.05893964
0.01342133
0.02451987
0.05238157
-0.00888915
0.07261924
0.03109816
0.04902925
-0.02122096
0.05109628
-0.02024200
-0.04361509
-0.06025829
0.02679107
-0.00716671
0.00506227
-0.03783358
-0.02128237
0.07175758
0.04067120
0.05681477
0.00554726
0.01097874
-0.07229707
-0.00066246
0.08661584
-0.01254725
0.06112760
0.00333472
0.02409822
0.01656856
-0.04203897
0.01561580
0.00296086
-0.03963712
-0.00925763
-0.12925418
-0.03265042
-0.04066845
0.02626493
-0.14349686
-0.13378575
0.09250743
-0.02354196
0.04618085
0.04319775
0.06135782
0.07971048
0.04838146
-0.11958698
-0.03940792
-0.13304457
0.06449375
-0.01350094
-0.01938650
-0.04295174
0.02330819
0.02078525
0.03299545
-0.03726432
-0.05675745
-0.04801618
-0.03066784
-0.02216415
-0.00989567
0.05121681
0.04513837
0.04804514
-0.10109863
-0.02556812
0.01736454
-0.01669972
-0.06238810
-0.04082764
-0.04519213
0.01750717
0.03945118
0.03476822
0.04482998
-0.06477456
-0.01612171
0.03244065
0.04697138
-0.04367235
0.02546682
0.03276034
0.00158456
0.05262011
-0.06003020
-0.03026647
-0.08848612
-0.02985997
0.08595089
-0.04248598
0.04590175
-0.05111848
-0.02646601
-0.01046237
0.03889535
-0.00206714
0.07167526
0.02679928
0.02809081
-0.03693037
-0.02623827
-0.02417671
0.01234964
-0.06278843
-0.03909495
-0.00104121
0.00160259
-0.02576178
0.02092782
-0.06405808
-0.02694749
-0.05730290
-0.02683711
-0.00165962
0.01997750
0.00579924
-0.08161231
0.03198061
-0.07256070
-0.06395442
-0.02685761
-0.03254381
-0.04873539
0.00221354
0.03238815
0.00080062
-0.06647436
0.05408782
0.03371780
-0.02546179
-0.01269371
0.02827981
-0.07447428
0.02757010
0.01322994
0.01501074
-0.01407305
-0.00680789
-0.09085885
0.05105462
0.01629014
0.03110662
-0.02700476
0.04638347
-0.04535924
-0.00695087
-0.01965495
-0.00150445
0.01479895
-0.00538415
-0.04320609
0.04013912
-0.06523805
-0.00987121
-0.09836655
-0.02991294
-0.02452374
-0.00148802
0.03606935
-0.04028562
0.01359725
-0.02470896
0.02141194
-0.10100272
0.00567656
0.00293779
-0.03159526
0.00542715
0.02279487
0.00870581
0.02565379
-0.11953382
-0.00251265
-0.07705314
0.04394247
-0.07681709
0.01077799
-0.05140468
0.00612660
0.07122236
0.04320179
-0.02986526
-0.00938385
0.08096696
-0.01468955
0.01168785
0.01228129
-0.07907752
-0.04873164
-0.00830073
0.07216673
0.00624265
-0.11985806
0.10814474
0.00992092
0.03510578
-0.09753626
0.08567771
0.05067556
0.04624540
0.03538172
-0.03894961
-0.00939489
0.00886193
0.04096749
-0.05031027
-0.00447952
-0.04065590
0.04951663
-0.00362065
-0.06963114
-0.01080353
-0.02119656
-0.01266583
0.07028031
0.03657691
-0.01737417
0.04032617
-0.05593592
0.00150651
0.02910497
-0.02638286
0.01198298
0.08171746
0.02364132
-0.01560197
-0.00319187
0.08021898
-0.03759803
0.00954899
-0.06802344
-0.00474113
0.01392516
0.00462444
0.01740673
-0.02540719
0.01454674
0.09645306
0.03801335
0.00243715
0.01772376
0.02041006
-0.05726315
-0.06298525
-0.01014892
0.01157275
0.02293885
-0.01718985
-0.00798327
0.04432129
-0.00689143
0.03158783
-0.04284999
0.03970371
-0.00110810
0.00296223
-0.00419401
-0.00736474
0.02189107
0.07306980
0.00167373
-0.01324404
0.00717621
-0.03389398
0.00053310
-0.00365277
0.01029913
-0.04464025
0.02358365
0.04168833
0.03103084
-0.06294146
0.07735291
0.03151532
-0.04713472
0.02884891
0.05295612
-0.04166941
-0.00214956
0.06258392
0.04419146
0.03038761
0.04149342
0.00998826
0.07324614
0.05030944
-0.03710590
-0.03008625
0.05101981
0.06303307
-0.06173960
0.00222253
-0.00085546
0.00978978
0.03042010
-0.01463731
0.10902393
0.03827716
0.02406362
0.03473195
-0.05608289
0.05903901
-0.06709144
0.01230641
-0.03952565
-0.00301334
-0.00928559
-0.00785073
0.05786720
-0.05356987
0.00865939
-0.08041348
0.06060018
0.07256435
0.04096995
-0.06120893
-0.02944295
0.02143821
-0.00673719
0.00376873
0.07903373
0.02613030
-0.01736499
-0.03388773
0.11177214
0.04567650
-0.02206983
-0.04705541
-0.08944476
0.01445372
0.02295940
0.02966659
-0.01691077
-0.04211350
0.00131648
-0.03605775
-0.00985580
0.00042054
-0.06253462
0.01918479
0.01414642
-0.00893955
-0.11288199
-0.00493310
-0.06748617
0.02982145
-0.01572993
0.02652915
-0.03483575
0.05642658
0.02975530
0.00062504
-0.04309380
-0.00281143
-0.02379823
-0.04742108
0.00372992
0.00036805
-0.03308992
-0.11769243
-0.01901448
0.01173576
0.03825681
-0.10999728
0.00618993
-0.05337838
-0.01848802
-0.06121024
-0.00174894
0.02224595
0.04000157
-0.00984750
-0.10255738
-0.06156532
-0.03556424
0.01446091
0.04856865
-0.05533175
0.03926260
0.08185324
0.02439441
0.02850509
-0.01445062
0.02266611
0.03328828
-0.05164600
-0.04021027
0.08590843
-0.10197277
0.07300186
-0.01720283
-0.04808402
0.04575262
-0.01719614
-0.06401733
0.01050658
-0.03745823
-0.00741594
0.01701438
-0.03805545
-0.09012074
-0.03196004
0.04222446
0.00934921
-0.05850479
0.01598525
0.05119578
0.03575246
-0.02710405
0.00243744
0.03078968
0.04431554
0.00686299
-0.01419019
-0.01795640
-0.07303280
-0.00748633
-0.01370345
-0.01632607
-0.06749769
0.03134602
0.03689984
-0.04976220
-0.03554323
-0.01124270
0.08753300
-0.01580198
-0.06090097
-0.05893416
0.00056982
0.05710308
-0.08355969
-0.01101722
-0.03384795
0.04731558
-0.04730448
-0.06464989
-0.07656384
-0.00718333
0.01500326
0.04285888
0.04649985
0.06309801
-0.05787083
-0.01344377
0.05755874
0.02074558
0.05565584
-0.10058505
0.06830169
0.05290860
-0.09026096
0.00596947
0.08959921
0.01656383
0.00443084
-0.07017159
-0.06764539
-0.07641179
0.02182209
-0.00046807
-0.00652076
-0.05211158
0.04351814
0.04211905
0.03037953
-0.01924155
0.04981591
-0.00851335
0.00357466
0.04332745
-0.07540438
0.00402900
0.03354830
-0.11090616
0.02037547
0.02386711
-0.01391330
0.07209045
0.03327329
-0.01791975
0.01930181
-0.02541884
-0.06702452
0.01179801
0.03814124
-0.05466270
-0.01092065
0.04247039
-0.05833812
-0.05079738
-0.06187236
-0.01300142
0.07739057
-0.09399815
-0.02605841
-0.04809544
-0.06815377
0.03874366
0.01986251
-0.08365981
0.06100823
0.04599455
0.01959657
0.06348987
-0.08191398
-0.01221577
0.00149449
0.04653488
0.02809478
-0.00061194
-0.06074038
0.04020038
0.00331152
-0.09773590
-0.06352597
-0.05479822
-0.06917117
-0.03203860
0.00674280
0.07217564
-0.07271265
0.01991113
0.01538344
-0.07069402
0.08049674
-0.03527027
0.02430273
0.00135258
0.00837291
-0.02414312
0.01573239
0.06297452
-0.07064755
-0.03811933
-0.02433911
0.01359540
-0.01418007
0.00627039
-0.07287025
0.04426455
0.03350570
0.03003664
-0.05488292
0.03040779
-0.04791553
0.06163315
0.00398220
0.09460897
0.08667028
0.01238982
0.02305049
-0.13075267
-0.02263723
-0.01856289
-0.01329007
0.00944718
0.02583982
0.01970489
0.05960708
-0.01596576
-0.02398477
0.05261623
0.02412668
-0.06628021
-0.01376852
0.00205900
0.05441941
0.02948242
0.00885317
-0.02386942
-0.07359226
0.02079392
-0.02672998
-0.01564987
0.05656494
0.00516844
-0.02716938
-0.04528813
0.00564606
0.03443159
-0.00135030
0.14761764
-0.01438298
0.05006211
-0.07011107
-0.03455910
0.06673720
0.05586834
0.03854196
-0.01926376
0.06559818
0.04651941
-0.02934886
0.03493953
-0.04320680
-0.00945107
-0.01756259
0.00110178
-0.07211998
-0.04327231
0.06578285
-0.04031008
0.00414618
0.08798456
-0.04207346
-0.04421575
-0.05056804
-0.02675185
0.04902792
-0.08332208
-0.02624643
0.04198729
0.00091944
-0.07470949
-0.09367022
0.07814144
-0.10170072
-0.05437187
-0.00012714
-0.03679358
-0.04327055
-0.04779091
0.00966465
0.07738574
-0.00911290
-0.01494515
-0.01237779
-0.03516389
-0.06942769
0.02248699
0.05138891
0.02443281
0.03148101
0.00700555
-0.04989553
0.04493557
-0.05796098
-0.05704287
-0.00256545
-0.04721900
-0.04770273
0.11242241
0.00600423
-0.01969653
0.00687824
-0.03318799
0.10975332
0.07834216
-0.07714766
0.07949512
0.03037887
0.01791118
-0.10334793
0.01757867
-0.11015206
0.02226485
-0.09967980
-0.08901247
-0.04644094
0.01132649
-0.04059739
0.09190840
-0.03771365
0.05141762
-0.01915649
0.00562684
0.00411173
0.08705506
-0.02616132
0.00456491
-0.02912566
-0.03268835
-0.00089499
-0.08026597
0.12813242
-0.02871458
0.01170005
0.02808396
-0.02852244
0.03000998
-0.03070203
-0.01326249
0.00595473
0.00673407
-0.02132609
0.00218795
-0.03440248
-0.01308267
-0.01389241
-0.02992352
0.01878098
0.01982606
0.02114094
0.02177839
-0.08372924
-0.05786656
0.06481080
-0.00300966
-0.05700704
0.03843804
-0.00429857
0.04679570
0.01858452
-0.03353960
-0.01300098
-0.07595985
0.00119233
0.00378460
-0.05432389
-0.02748767
0.04117598
0.03320226
-0.04108772
0.11819496
0.05161277
-0.04612236
0.03156924
0.10730178
-0.04006141
0.04699371
0.00613387
0.07544649
0.04249921
0.01046984
-0.01782184
0.01580568
0.00737298
0.01778603
-0.00280675
-0.08441608
0.00125503
-0.02740417
-0.01360026
-0.01156084
-0.08550378
-0.05164388
0.02723937
-0.03687538
0.01837000
-0.02349740
0.08251218
0.03904921
0.02954043
-0.04835776
-0.08410184
0.10807951
-0.01254390
0.04026551
-0.07827301
0.01017772
0.07277386
0.02665107
0.01803656
0.01982345
0.04733622
0.01427412
0.00061878
0.01914441
-0.02909360
-0.05305026
0.04009633
0.03503226
0.05017243
0.05517055
0.02330548
0.01755912
0.00403724
0.02116960
-0.00531403
0.06675946
0.01259142
0.00796189
0.02623727
-0.00581953
-0.01279631
-0.03918836
-0.00660388
-0.03034647
0.06552415
-0.01175818
-0.01696039
-0.00074983
0.06131058
0.08151584
-0.00111076
-0.02310721
-0.06004810
0.00103623
0.05034396
0.01764430
0.02931150
-0.02900186
0.01159517
0.01074554
0.01455104
0.07554723
0.08652075
-0.04957172
0.00841748
-0.07775839
0.00821103
-0.12720425
0.00904545
-0.00855844
-0.00593007
0.00721744
-0.05521357
0.04569341
-0.04919687
0.00923167
0.06546187
-0.05545403
-0.03294056
-0.01683168
-0.03631565
0.00007761
-0.01809943
-0.00626842
-0.02337473
0.02018855
-0.03902072
-0.05200234
-0.05851576
-0.04329642
-0.03467814
0.00903736
-0.00754609
-0.00851671
-0.04748181
0.09223714
0.05436304
-0.10095309
-0.04336929
0.09325630
0.00476148
-0.00548607
0.01224653
-0.04188184
-0.01998693
-0.02913267
-0.03169613
0.04307570
0.00172267
0.03197648
-0.03299076
0.08385461
0.00342971
0.05777697
-0.06360770
0.03053685
0.01585177
-0.03543874
-0.00222012
-0.00835516
-0.04865548
0.06215555
0.02189674
0.01003178
-0.00733031
0.01563695
-0.02214039
0.03390089
-0.04839984
0.05724447
-0.05006690
-0.02947706
-0.00434089
-0.02077010
-0.00290382
-0.05097236
-0.03136672
0.07373690
0.03300004
-0.04525475
-0.04342951
0.03862904
0.03500224
-0.00746854
0.00119065
-0.06630262
-0.02408627
-0.08164974
-0.02215621
-0.02753343
0.03379158
-0.03921879
-0.03881280
0.08457984
-0.09410525
-0.00364502
0.03957308
-0.00677914
-0.02213958
-0.01934521
0.04945034
0.01554555
-0.00857294
-0.03215787
-0.09710438
-0.05599678
0.01068993
0.03820437
-0.01534243
0.04091578
-0.04548402
-0.00892993
0.03767519
-0.06939791
0.03209542
-0.09565552
0.03115986
0.01193962
-0.02562594
0.03616932
0.04853696
0.00318009
-0.05972572
0.00298619
-0.04703486
0.06622377
0.02789526
-0.03253612
0.02405447
-0.03200429
-0.06759039
-0.02984477
-0.05260213
0.03213295
-0.02995264
0.06528459
0.01414586
0.05573696
0.12299267
-0.02801994
-0.01440482
-0.05887960
-0.03481174
-0.06401536
-0.07415760
-0.00073908
0.04073688
0.00859608
-0.01855539
-0.05820354
-0.01631744
0.01269201
0.03446570
-0.00770004
-0.02908915
-0.03635880
0.01656899
0.04911190
0.05189689
-0.00511800
-0.01830617
0.08086023
0.05444017
-0.08757173
0.00586486
0.05251444
0.00922429
-0.00252335
-0.05740583
0.04151936
-0.03180149
0.08959948
0.02662477
0.00849597
-0.06232569
-0.02029435
0.01494722
0.06215652
0.01632903
-0.03019966
0.07827257
-0.02468730
0.00915669
-0.00552219
-0.07103393
0.04317239
0.06775647
0.01373876
0.01864371
-0.10685667
0.06104142
-0.05593771
-0.05152857
0.07746956
-0.01742855
0.02047047
-0.08767296
0.03863607
-0.00586265
0.02659529
-0.03457432
0.05861752
0.02502869
0.02703956
-0.06604350
0.02456570
0.03102526
0.00434211
-0.07785197
0.01480034
0.02796318
-0.04086820
-0.01350880
-0.04065378
-0.04001814
0.00829886
0.01009648
-0.06575794
0.03596359
0.02314791
0.02537237
0.06740815
0.02327694
0.02983543
-0.03101690
0.05744612
-0.03717632
-0.02672682
0.03052229
0.02598875
0.05134603
-0.06034938
-0.07780903
-0.01641060
-0.02180805
0.03340399
-0.00454662
0.00621824
-0.00235676
0.01681321
-0.04460730
0.00975613
-0.03920997
0.01465703
0.04629791
-0.00471371
0.06107574
-0.06553810
0.00621191
0.06402382
0.01843630
0.02740587
0.03356198
0.07585449
-0.02573309
-0.03791275
-0.02106579
0.06473801
-0.03760929
0.04604241
-0.00641364
-0.03307434
0.02540030
-0.00284735
0.03401404
0.05572784
0.07823954
-0.01181482
0.02584609
-0.06657511
0.05686941
0.02850349
0.03913339
-0.00302890
-0.02725564
-0.05340700
-0.01850830
0.00115042
0.01782529
0.04352445
-0.02835953
-0.06799293
0.02831154
0.06058608
0.03373287
-0.00598096
0.01694806
-0.04540740
-0.06374249
0.03500426
-0.00408360
-0.06496140
0.05849035
0.05193525
0.06888274
0.04631859
0.04792034
-0.00402827
-0.03623145
-0.08105227
0.05136102
0.01034763
0.00110601
-0.01330059
0.04436196
-0.06584292
-0.01520620
0.04076195
0.02076005
-0.04178162
0.01121645
-0.03633611
0.01414990
0.04338384
0.06076616
0.08111724
0.03037925
-0.05755418
0.00225479
-0.00165423
0.02016904
0.04249613
-0.05502773
-0.04057283
-0.01999941
-0.00841292
0.03654892
-0.00595332
-0.05236077
-0.05682025
0.04558455
-0.03297514
-0.02119304
-0.02646481
0.01253622
-0.00624712
-0.02153512
-0.06589007
0.02813384
-0.06889322
0.04314679
0.01349300
-0.02895437
-0.02217654
-0.06892034
-0.06366494
0.01244810
0.01110539
-0.02256917
-0.04148027
-0.08260595
-0.05449869
-0.04286457
-0.03745354
-0.01222143
-0.02414901
-0.04035167
-0.04140353
-0.02160116
-0.01248819
-0.07097447
-0.00498266
-0.03144058
-0.06507102
-0.01836880
0.03596169
-0.00521082
0.00923147
0.04501180
-0.00908788
-0.03586323
0.03202178
0.02521760
-0.00730417
-0.01608636
-0.06394804
-0.03024885
-0.03479224
-0.02133338
0.05459643
-0.03372904
0.03810850
-0.05429721
0.00518139
0.03264103
0.00035625
-0.05481591
-0.01942231
-0.01077661
0.03734361
-0.05735038
-0.05347650
0.07997923
0.01113191
0.04103923
-0.03550404
-0.03775004
-0.07052481
0.04977160
0.02701271
-0.05276066
0.02493218
0.03023056
-0.00097345
0.08796816
-0.02055211
-0.06276437
0.06602816
0.05389804
-0.07364577
-0.01484768
0.03330013
0.01502235
-0.03346039
-0.00112094
0.00306835
0.01258314
-0.01640646
-0.03004174
-0.10370054
0.02459395
0.01920855
0.00657747
0.02089609
0.05141648
0.02312060
-0.03086227
0.07287276
0.01612749
0.01301241
-0.06906461
0.01464112
0.07627502
0.01386496
-0.03753185
-0.06070352
0.05380890
-0.04447450
-0.01662226
0.04178259
0.01476152
0.01365487
-0.01522974
0.00621295
-0.01634275
-0.08024936
-0.03006099
-0.02871970
-0.03699705
0.01035748
0.00587059
-0.01765498
0.00839743
-0.05717020
-0.05834607
0.02883209
-0.02541504
-0.04419668
0.04871426
-0.03799367
-0.00051899
0.09050708
0.02898986
-0.04782008
-0.08161893
-0.02338632
0.03901007
-0.06278539
-0.02328638
-0.03293324
0.01648897
-0.07692180
-0.12423017
-0.03301900
0.01494887
0.07448450
0.04396528
-0.01137144
-0.14082113
-0.08117409
-0.09531759
0.06638830
-0.05948647
-0.01197616
0.02192530
-0.02087465
-0.02741061
-0.08666681
-0.13060330
0.03778478
-0.04029233
-0.00531494
0.06172755
0.06234418
-0.03214825
0.01732300
-0.00643804
-0.02956824
-0.01730740
0.05127019
-0.04763476
-0.06795254
0.01768949
-0.04818350
0.03077807
-0.03012300
-0.08325247
0.08262131
-0.02104038
0.06010045
-0.09414243
-0.00277048
0.02376528
-0.01332116
-0.05308877
0.01773960
0.02301643
0.07098116
-0.00633750
0.11995720
0.01042207
0.07124112
0.04857865
-0.00344511
0.01362368
-0.02048954
-0.04973513
-0.09869927
-0.10804072
0.03618063
0.04163831
0.05948847
0.04069546
-0.02152804
-0.04587416
0.02541485
0.07064601
0.03221985
-0.02167478
0.00781939
0.03592356
-0.03258995
0.08982090
0.02080793
0.02363724
0.03249164
-0.03691824
-0.06136413
-0.01499662
-0.01631396
-0.00139486
-0.10879733
-0.02950272
-0.05660592
0.02580336
0.05782475
0.05483683
-0.01824932
0.01194665
0.03971523
0.04712692
-0.02287268
-0.01083614
0.01882872
0.02809124
0.04856791
0.04417948
-0.01966056
-0.00080651
0.02533339
-0.03249821
0.00673776
0.04861022
-0.02078633
-0.00790828
-0.07728080
0.04549778
0.02345251
-0.01750747
0.01252619
-0.03041330
-0.05114666
-0.06831930
-0.02322272
0.00479306
-0.07540897
-0.05113578
-0.05071217
-0.03903101
0.00250071
0.03866524
0.04205382
-0.01868143
-0.01042595
-0.00086779
-0.01726958
-0.02881139
-0.05509189
-0.01451198
-0.00262141
-0.06342984
-0.06549130
0.06475689
-0.01211548
0.00843877
0.01272951
-0.10348354
0.01128219
0.06204066
-0.03246148
0.00489366
0.01943957
-0.02295508
-0.02638253
0.02537589
-0.10049379
-0.05613812
-0.07103621
-0.03756501
-0.03976408
-0.00266654
0.03724096
-0.02394929
0.05480592
0.03265028
0.03158143
0.01122641
-0.04534242
0.01472309
-0.01438170
0.00114521
-0.02454198
-0.00861312
-0.01834851
-0.08201783
-0.04489756
0.03550061
-0.02844950
-0.05488594
0.03828200
-0.07338464
0.04691415
-0.03058562
-0.00338587
-0.02225023
0.02873607
0.06669275
-0.01554274
0.00958592
0.06653770
0.07136939
-0.06268591
-0.03073984
-0.12085494
0.01974966
-0.03523974
-0.04805435
0.03817131
-0.00384777
0.01615177
-0.04240631
-0.09247962
-0.04597847
-0.00519537
0.04674608
-0.07249101
0.03760739
-0.02974649
-0.00286653
-0.04381943
0.06537419
0.06153744
0.02643080
0.06025634
0.06216072
-0.05874263
0.02815943
0.00505023
-0.02867712
-0.04603870
-0.05958775
0.01429380
-0.03210375
0.09479506
-0.01886648
-0.04713860
-0.06731570
-0.00646495
-0.03590247
-0.00830381
-0.05823518
-0.07431901
0.01349613
0.03538577
-0.03057116
0.04766977
-0.03414173
-0.09120079
-0.03050799
0.00092539
-0.02540481
-0.07592309
0.05800062
0.01688872
0.06005183
-0.00529580
-0.04936655
-0.04430108
-0.01928537
-0.02893234
-0.08327367
-0.03515062
-0.06233412
0.01946628
-0.02094807
-0.11503584
-0.13130841
0.03291884
-0.06365283
-0.01422358
-0.05165525
0.01529207
-0.00844176
-0.01169110
-0.07270340
-0.03872224
0.01031440
-0.01085717
-0.07876612
-0.16681197
0.06202372
-0.07199924
-0.04654066
0.01348614
-0.04865317
-0.02564746
0.00263858
0.01505086
-0.02729776
-0.03236497
-0.05785078
-0.02054744
-0.04874014
-0.07964775
-0.03056778
-0.04443428
0.00887580
-0.05459421
-0.00013321
-0.02989010
-0.02404624
-0.04374629
0.07669366
0.01261050
0.04939323
0.04808480
-0.02139356
-0.07889262
-0.00712486
-0.04141833
0.01676144
-0.02193036
-0.00246029
-0.01790702
-0.05862650
0.00955340
-0.01261304
-0.04870215
0.00571557
0.05789029
0.00885552
-0.03527308
-0.05933737
-0.03320881
-0.04240428
0.07489369
-0.00480765
0.03662535
0.03856049
-0.07641385
-0.00641027
-0.07465100
0.02947035
0.04561532
-0.10451254
-0.01541499
-0.01515040
0.07223047
-0.02210733
-0.07275815
0.03730664
0.06273846
0.03393257
-0.06916950
0.01742314
0.01637821
0.04093817
-0.02618350
-0.03377043
0.05151629
-0.05414125
-0.02166847
0.08706031
-0.11107948
0.04491973
0.04735450
-0.03195419
0.05854684
0.01628293
-0.04763724
-0.01159015
0.09395751
0.05755068
-0.06566603
-0.06847893
-0.04259199
0.05414830
0.08696190
-0.00054904
0.00742897
-0.03329659
-0.04555221
0.03092240
0.03507629
0.01141280
0.00045266
0.05357026
0.01773385
-0.01500038
0.00689494
-0.01495690
-0.07853141
-0.05425480
0.00279398
0.03411489
-0.03945839
-0.05687410
-0.03225593
0.05944933
0.04458241
-0.01228585
0.01304306
-0.05513848
0.08816253
-0.00960598
-0.10342968
-0.01847741
0.01719755
0.05417721
-0.00660653
-0.03881492
0.05906799
0.00733864
0.04045329
0.02813892
0.06122342
0.05149946
-0.01570259
0.06294288
-0.04847759
0.02024882
-0.05984873
0.07796723
0.03539014
0.07720582
0.02596760
0.04153791
-0.07589323
0.06765056
-0.01057854
-0.04217055
0.06336936
0.08837493
0.03064050
0.01684191
-0.01478505
0.02257542
0.01678799
0.05088729
-0.05784761
0.09216485
-0.05215103
0.02835578
-0.02505511
0.03196662
0.03567348
0.03327957
0.06321276
-0.05274057
0.05052819
-0.00503363
-0.04494786
0.02312779
0.04717857
-0.04449041
0.07023572
0.00922802
0.03351762
-0.02289842
-0.00461088
-0.02098164
-0.00925466
-0.00593758
0.03330067
0.05691966
-0.12678736
-0.08274450
0.05977349
-0.04636194
0.00121017
-0.00564801
0.05871226
0.04899423
-0.01868411
0.01443425
-0.05627671
-0.01718325
0.03854664
-0.00595150
-0.01143615
-0.03110737
0.02488310
0.01109395
-0.04123735
0.03084084
0.01992866
-0.05559015
0.01696341
-0.03662296
-0.09522665
0.01953289
0.08932827
-0.00299840
-0.04571332
0.04245818
0.05929708
0.06659651
-0.00806016
0.06143107
-0.14510934
-0.02379168
-0.00110626
-0.07706638
0.01488879
-0.01208124
-0.03953951
-0.00381633
-0.00924499
-0.12332749
-0.02704769
0.06356440
-0.05540704
0.06940367
0.04571561
0.03229568
0.03547939
0.01022728
0.04606812
0.01624855
0.04177105
0.00512760
-0.05716193
-0.02613666
0.03912384
0.07041574
0.03442450
0.04209413
-0.03809864
-0.00676905
0.01701284
0.00269005
-0.08628085
-0.01299929
0.02328211
-0.05237014
0.04476609
0.04871835
-0.00051940
0.00471000
0.00704870
-0.03438678
0.03229532
-0.05335227
0.03915371
-0.02368909
0.02302277
-0.05023267
-0.04259259
0.00855636
0.03454752
0.02890484
0.02881440
0.07452075
0.00237972
-0.00483847
0.03916748
0.02056549
0.01015318
0.03627525
0.01534779
0.08564879
-0.00056642
0.02520749
0.03397112
0.06612400
0.02259741
-0.07216540
-0.04631044
0.03836989
0.05831679
-0.10329591
-0.00568106
-0.07486912
0.03028027
-0.02683747
-0.05567494
-0.04314565
0.00052343
0.00713267
0.05149524
0.02615070
-0.04298325
-0.01613920
-0.02486391
0.03135050
0.00754975
0.02088003
-0.06747898
-0.00378909
-0.06795105
-0.00615845
-0.05533068
0.00805912
-0.00590946
0.02622398
0.12353259
-0.07552606
0.02392547
0.05066356
0.07387509
0.00454250
-0.03079916
-0.03253777
-0.06523883
-0.02411841
0.06604449
0.00636994
-0.00221647
-0.02621361
0.06544647
0.01568670
0.01781031
-0.04950838
-0.04819360
-0.01890498
-0.06788852
-0.01070114
0.02033326
-0.05111840
0.05203250
0.02172902
0.00323349
-0.08835260
0.03151058
0.04849898
0.04895886
0.01987492
-0.09676815
0.02248104
0.00508183
-0.03282170
0.06116288
0.01498019
0.00396929
-0.00584793
0.06096882
-0.06367446
0.04511102
0.04767064
-0.03972839
-0.05633502
-0.03168551
0.00198739
-0.00692086
0.03259415
0.03498235
-0.03837876
-0.07811935
0.02526328
-0.03069144
0.03396779
0.05080895
-0.00489536
-0.02337246
-0.06949606
-0.01070200
-0.01742703
0.05140328
-0.02683668
-0.03974274
-0.07379461
0.00978760
-0.01207180
-0.02441294
-0.05290101
0.01554985
0.01674465
-0.02239412
-0.01017273
0.02496366
-0.11260624
-0.00400972
0.05593085
-0.04566966
0.06114297
-0.00464717
-0.05074517
0.08000704
-0.02760993
-0.01560415
0.06582825
0.03371206
-0.07329684
-0.10209652
-0.04860724
0.01866355
-0.02740447
-0.10196229
-0.02895177
-0.07651079
0.00010274
0.02823498
-0.02955065
0.06211747
-0.03352047
0.00369071
0.03779801
-0.07156482
-0.04388867
-0.06466097
0.05477833
0.00896171
0.00372457
-0.05060510
-0.07613520
-0.02793249
-0.07721773
-0.05043301
-0.02252070
-0.02144147
-0.01900353
-0.06233314
-0.07220812
0.04993699
0.00868067
0.03323985
-0.07853997
0.02965916
0.06657601
0.00580944
-0.07703580
0.00159422
0.10758281
-0.07941306
0.00277061
-0.09157351
0.00555983
0.01073734
-0.03480035
-0.05007473
-0.09142420
0.00522081
-0.04455055
-0.03008050
0.01261728
0.02916285
0.01790716
-0.03253699
0.01311485
-0.06587692
0.04860952
0.02319924
-0.01127889
0.05366104
-0.06008396
0.01370575
0.03925471
-0.03579656
0.05259091
-0.05219576
0.02430708
-0.02158825
0.04021085
0.01026134
0.07246022
0.12384509
0.09080194
0.00168485
0.02182471
0.03173365
0.03459493
0.06969168
-0.01025196
0.01767722
-0.06770708
0.02017301
-0.02365847
0.00787671
0.07716055
-0.05223581
-0.02315866
0.09912301
0.02472692
-0.05107228
0.03122819
0.00554953
-0.03183106
0.05359687
-0.03612541
-0.03986176
0.01527543
0.06265189
-0.08836669
0.02369242
-0.03609460
0.04116476
-0.01062470
0.01911967
-0.09410132
0.04290872
0.05104407
0.01308048
-0.15456966
0.04110983
0.01184041
0.00701223
0.03881583
0.01583907
0.00091357
0.05984422
-0.02337530
-0.15465133
-0.02641648
-0.01718238
0.03027262
-0.00421902
0.04983855
-0.01663610
0.09903326
0.02403300
0.05743469
-0.09149905
0.07774857
-0.01590901
-0.06475020
0.00666117
0.03523669
0.01210022
0.00392206
0.04078386
0.03879008
-0.04793319
0.07441285
-0.02665739
0.07119428
0.00018733
-0.00678202
-0.02299674
0.00432351
-0.08390556
0.01707053
-0.01946224
-0.04045018
-0.02144763
0.01502883
-0.01148890
0.03749717
-0.01490711
0.00662051
-0.01565285
0.04918035
-0.02978392
0.04112284
-0.01156056
0.06133626
0.04122475
0.02088088
-0.00875608
0.01971869
-0.01374343
0.01120096
0.00413537
-0.07559075
-0.01106439
0.06181096
0.02761483
-0.05651594
-0.03356247
-0.05397485
0.05073347
0.03877141
0.05320603
-0.04667072
0.02819181
0.07086644
-0.03060598
0.04285279
0.04988574
0.02383550
-0.00738148
-0.00423092
0.01712081
-0.01141506
-0.01432385
0.01273231
-0.05931224
0.01536292
-0.01112863
0.05365964
-0.02596914
0.03244013
-0.04951347
0.01714874
-0.04184982
-0.01247084
0.05342770
0.02090656
0.04385346
-0.03820741
0.02631156
-0.02500449
0.06780756
-0.02401247
-0.00277944
-0.05328359
-0.00518345
0.10141343
-0.10726988
0.00501782
-0.00812621
0.01225181
0.01302899
0.00917538
-0.00467706
-0.06468454
-0.04851263
0.03466014
0.00137344
0.06658231
-0.00643093
-0.03981526
0.02647501
-0.08650359
-0.02185951
0.02073879
-0.06403982
-0.05195145
0.06838185
-0.04497699
-0.08313449
0.02672354
-0.09799922
-0.02733123
0.04462046
-0.04636236
-0.04920648
-0.01566915
-0.02110292
-0.03842175
0.00372706
-0.07129039
0.08115719
-0.01393751
0.10660525
-0.10451323
-0.05268410
-0.09329534
0.10074345
-0.04284599
0.00807275
-0.06721745
0.04192080
-0.05787208
-0.03537174
-0.12786295
-0.00404836
-0.00501192
-0.03388809
0.03831469
0.02803585
-0.07872435
0.12285456
0.00763254
-0.03487745
-0.04409501
0.06712554
-0.11891316
-0.06167575
0.04738668
-0.02406226
0.02502930
-0.01348798
-0.07155275
-0.00064527
-0.03463094
0.07126618
-0.03448514
-0.02867394
-0.00745941
0.07649274
0.02373019
0.07398949
0.00383493
0.08826951
0.02982586
0.01302702
0.06752554
0.12379476
0.07724325
0.02114360
-0.06356549
0.10953858
0.01836297
-0.04974231
-0.01922395
0.00249845
0.05017689
0.11290808
0.02952940
0.07923996
-0.00699451
0.00615828
0.04901152
0.03664922
0.01992553
0.02621381
0.03036759
-0.04513652
-0.00767420
0.03610693
0.03589813
-0.00134892
0.03034326
0.02795268
0.04384900
-0.00330348
0.02017488
-0.06866211
-0.03763289
-0.00395680
-0.04449686
0.19458313
0.07649799
-0.01302173
-0.02599251
0.04076825
-0.00183936
-0.03204860
0.00142054
-0.00872509
0.03911057
0.04073349
-0.00424381
0.02739695
-0.05440998
-0.05915654
-0.06753390
-0.01993629
0.06612235
-0.12693758
0.05232241
-0.03059631
-0.00820938
0.04606224
0.04968671
-0.00094555
-0.02387698
-0.07422746
0.04764306
-0.03373183
-0.02235685
-0.02503520
0.06240735
0.08930601
-0.01754335
0.03460569
-0.00431353
0.00743058
0.04437933
-0.11952993
0.04947317
-0.00339522
-0.08099268
-0.08040886
0.05547123
0.01982594
-0.06245089
-0.02544677
0.09148161
0.10815447
-0.08347037
-0.01089016
-0.10270959
-0.04612955
0.00414112
-0.06699423
0.01806961
-0.04744003
-0.00856233
-0.06682128
-0.03110478
-0.11097153
-0.10241929
-0.07093050
-0.10010093
-0.07033907
0.03108831
0.02052438
-0.00785637
-0.05713570
-0.03081055
-0.15319872
0.06825947
-0.08520281
-0.01510044
-0.04472615
0.15174371
0.04262979
-0.06675189
0.03164573
0.03463722
-0.07622628
0.14790124
0.00082210
0.02222211
-0.01825936
-0.06104905
0.04239427
-0.04510592
-0.08022973
-0.02219452
0.00686565
0.01713235
0.05288766
-0.01674953
0.02198657
0.09801918
-0.14986439
-0.04889751
-0.02501701
0.04677059
0.11138573
0.13872373
-0.06280448
0.03231423
0.02302555
0.13719572
-0.00484768
0.02089675
-0.01464134
-0.03163961
0.05364216
-0.00344202
0.02123115
-0.04825803
0.02106996
0.09939571
0.02170169
-0.02773036
0.07173115
-0.06198508
-0.06923340
-0.00314065
0.06818193
0.06610754
0.05595719
-0.06047610
0.10427278
-0.05257212
0.01769115
-0.03350908
-0.00786529
-0.04331602
-0.09559347
0.05091289
0.08639828
-0.02731972
-0.08296382
0.05589464
-0.10988706
-0.01663342
0.00161318
-0.10171647
0.06768449
0.06736744
0.04278648
0.03312401
-0.02488921
0.02116939
0.19855809
0.10157821
0.16544208
0.00631803
-0.02739990
0.08526938
0.04208475
-0.01246408
0.01861626
-0.00398401
-0.02963199
0.02331876
-0.02820634
-0.02297769
0.00329436
-0.00289944
-0.03110378
-0.08374144
-0.06943119
0.03047415
0.07818086
-0.07119235
-0.04027654
-0.04428522
0.00722263
0.08980155
0.00840214
0.02083145
0.05224379
0.05398919
-0.04468580
0.00997293
-0.01525522
-0.04255635
0.06571423
0.08140363
0.00294332
-0.01833008
-0.05720107
0.08735921
-0.01153673
-0.10618813
-0.00964804
0.00473110
0.06026459
0.03265604
0.08325002
-0.09385004
-0.02648241
-0.04865405
-0.03520297
0.05391182
-0.08833978
-0.04972373
0.10164506
0.01053651
0.03260208
0.05333468
0.00617082
-0.03500292
0.02970055
-0.03249165
-0.00275632
0.02339825
0.03470841
0.04224083
0.09003662
0.04408070
0.04026331
0.01736470
0.08348428
-0.03285892
0.00720124
0.04166914
0.01158568
0.08974217
-0.07184428
-0.02525963
0.00390654
-0.01328590
0.00244579
0.02849255
-0.05234567
0.04027687
0.02690338
0.09270863
0.06689551
0.04659231
0.06361177
0.02746779
-0.01364577
-0.02874778
0.04711935
-0.01373931
-0.06563831
0.01576721
-0.00742551
0.01095310
-0.04501546
0.01081052
-0.01692926
0.02609372
0.00221269
-0.05055871
-0.02304256
0.02335637
0.06861893
-0.01020224
-0.03622524
0.00487628
0.00703305
0.02716004
0.05919426
0.01860181
-0.00235215
0.03609190
-0.02894893
0.01536983
0.01313808
0.04950003
