-0.14203143
0.15066130
-0.02397434
-0.23215024
-0.21098921
-0.20433025
0.09852273
-0.16441967
0.10493124
-0.16164730
0.11608260
0.19986482
0.04004211
0.17475557
0.02337140
-0.01918250
0.02048112
-0.20793344
0.12976569
-0.00708029
-0.13565063
-0.16442269
-0.08166946
0.06642070
-0.19470201
-0.17694950
0.04604356
-0.13031979
-0.01762276
0.10436206
-0.26209754
0.03342374
0.04928575
0.18971704
0.17274170
0.06426515
-0.26417279
0.09447796
-0.00670460
0.19613415
0.03380836
0.22029297
-0.03533626
0.09291554
-0.16818048
0.21129432
0.01329707
-0.11125271
-0.18802463
0.06027556
-0.06571315
-0.11509394
-0.11552759
-0.03280722
-0.05218928
0.19064716
0.06459685
0.00432748
-0.01493724
-0.12584105
-0.18267594
0.15805759
-0.09143775
-0.10981283
0.00811118
0.17585853
0.07552536
-0.22376589
-0.25370616
0.23052843
-0.18785441
0.23533902
0.21363540
0.12199290
-0.23832586
-0.20766956
0.04911208
0.14334007
-0.20950960
-0.15327694
0.11327699
0.09998225
-0.19375542
-0.14259130
-0.17684977
-0.01884587
0.18743092
-0.25340429
0.15146446
-0.01056756
0.06926900
-0.04729657
-0.11592636
0.04535856
0.14878552
-0.07577790
-0.13354877
-0.09696380
-0.13721620
-0.16848584
0.05623133
0.08884467
0.11993627
-0.03207147
0.18409139
0.12930980
-0.09608290
-0.31546366
-0.19328594
0.02712631
0.14223264
-0.33048534
-0.10807347
0.10833590
-0.05253684
0.01644265
-0.03893698
-0.13893487
0.21212411
0.21516004
0.02233911
-0.13654929
-0.10745036
0.08784332
-0.13888563
-0.17807740
0.26290691
-0.05952692
-0.13283330
-0.06837954
-0.03298777
0.17882362
-0.09312338
-0.20186387
0.13347238
0.12327178
-0.13009268
0.15804362
0.00571206
0.06155320
-0.21724421
0.07547913
-0.12690383
-0.13753228
-0.10822336
0.12568206
-0.06996698
-0.23482917
0.13475238
0.10622185
-0.06108496
-0.07874718
-0.05418699
-0.20013517
-0.10191530
0.21402171
-0.11904670
-0.19012137
-0.13297056
-0.10963972
0.21671289
0.19008557
-0.22065216
-0.06684323
0.06844100
0.09591556
0.21301816
-0.05653016
-0.12484851
0.18071991
-0.04879922
-0.14923555
-0.04890419
-0.04875917
0.10354644
0.13040096
-0.19815595
0.00813053
-0.02743735
-0.08178877
-0.20288372
-0.03285181
-0.04679212
-0.18397981
0.04354319
-0.14260736
-0.19425991
0.22575091
0.00516089
0.09861144
-0.20358194
-0.12527914
-0.06137694
0.03935628
-0.12173542
0.09309222
0.13623475
0.18468347
-0.01888011
0.02778477
-0.11646405
0.05310888
-0.16186106
-0.12024733
0.05734789
-0.11161531
-0.01831237
0.09483122
-0.02423721
-0.15968540
-0.18451703
0.22075017
-0.00982947
-0.19569123
0.00781601
-0.10518329
-0.03976961
-0.21057193
-0.09875144
-0.28313634
-0.00798750
0.11475056
0.19138277
-0.12057955
0.02249578
-0.17847195
-0.12130389
0.06791830
0.00401407
0.10056028
-0.04154286
-0.05781093
0.16436736
0.10725910
0.12079749
-0.17950742
0.00320484
0.08688466
0.08644826
-0.26941946
0.11523668
-0.09642045
-0.15582189
-0.07855668
0.13153335
-0.04242510
-0.22418363
0.00419831
0.06988723
0.17263629
0.08768521
-0.25981933
-0.08340907
0.17476536
-0.00153804
0.16055371
0.05273547
0.13772130
0.09603225
-0.06413830
0.13724442
0.02391354
-0.20047209
-0.01353555
0.13508759
-0.13615645
-0.00924098
0.21386357
0.06739360
-0.02820491
0.23910286
-0.11375636
0.19648208
0.00349667
0.09086195
-0.05016232
0.03077816
-0.04482593
-0.18309255
0.12142213
0.12656748
-0.23399554
-0.05146826
0.17016946
0.00134471
-0.14368881
0.09176712
0.00180135
-0.06215551
0.17741552
-0.10237972
-0.11215835
-0.02886077
-0.23270644
-0.02756926
-0.02993256
-0.03817370
-0.20832723
-0.11989962
0.10713656
0.12978227
-0.11341466
0.15881510
-0.09958557
0.22605805
-0.07823631
0.13219148
0.09613915
0.15931457
0.16883020
0.08244818
0.07981969
0.06270172
0.16751164
-0.20010482
-0.02291686
-0.06050299
0.17667945
0.12294265
-0.09594817
0.20674470
0.02401344
-0.10400563
0.15239121
-0.33134344
-0.13486688
-0.08260491
-0.13107423
0.09405684
-0.19723535
0.21213025
0.08326387
-0.07689986
0.01037310
-0.19235224
-0.06287576
-0.14344865
0.04889685
-0.18113105
0.00367116
0.05520350
-0.15911537
-0.08190881
-0.02883352
0.01204861
0.06334422
-0.19400813
-0.00743713
0.16428678
0.14695381
0.23973341
-0.02780462
0.02942244
0.08511129
-0.08088718
-0.22148255
-0.30494320
0.04751128
-0.05656949
0.07006240
-0.13005674
0.01237956
-0.06638204
0.00142566
-0.08229791
-0.00882668
-0.25584227
0.08477183
0.04782311
0.04155525
0.07958265
0.20759377
0.10878817
-0.04602118
0.06907345
-0.23164949
0.01591902
0.17415258
0.04852348
0.20345165
-0.17263353
0.08676618
0.19903643
-0.09727229
-0.06729817
-0.10913088
-0.26813301
0.07602989
-0.20445323
-0.33088899
-0.07866983
-0.01767454
0.19156991
0.18071564
0.08397241
-0.07759159
0.12585425
0.08649769
0.01147162
0.03945497
0.06996511
0.11197255
-0.11485422
-0.28879979
0.06981291
-0.18010007
0.03716801
-0.19289529
0.10229118
-0.10306777
-0.02220432
-0.00471746
0.33287367
-0.07706350
-0.30315644
0.01452855
-0.23389618
-0.00780212
-0.09632901
-0.04145945
-0.05161421
0.03288290
0.05801096
0.00663132
0.05516532
0.15016007
-0.13583365
0.03492396
-0.03033576
0.01718642
0.12349938
-0.22605231
-0.01549929
-0.02228614
-0.08853040
-0.15965743
-0.06896374
-0.17424853
0.03124320
0.06707752
-0.09012387
0.08477712
-0.20096785
-0.24104445
0.15196674
0.06683391
0.19408898
0.05708208
0.11904783
0.12892693
-0.08902900
-0.11883406
0.19333795
-0.11627222
-0.18527214
0.14828879
-0.16111954
0.16336219
0.01041755
0.12726679
-0.07549804
0.20444858
-0.12117212
0.20083754
0.22386625
-0.03754656
-0.24263635
-0.04854906
0.17976001
0.05406328
0.18664713
0.16225538
0.05413428
-0.14765503
-0.14872643
0.01957768
0.02985966
-0.00979555
-0.16433933
0.00160391
0.03730825
-0.06749504
-0.09626422
0.10635459
0.24125318
0.08897859
0.22991879
-0.18444909
-0.06102252
0.03637009
0.16057329
0.23669583
-0.17298713
-0.16574138
0.01438157
-0.11770364
0.20015867
0.04266784
0.08788181
0.03935606
0.08875569
-0.20704867
0.00955285
-0.20324117
-0.26169050
-0.07771455
0.12361552
0.05403047
0.15386003
0.21178177
0.07189505
0.20896332
0.02113739
0.20310682
0.00064296
0.04250753
0.17096676
0.04022722
-0.19841486
-0.06453448
0.06456240
0.08452507
-0.30035210
-0.02409262
0.18885875
0.00831782
-0.10666858
-0.19324416
-0.13981569
0.21374460
0.17394312
-0.25627142
0.12145244
0.10576308
-0.21601951
0.09205808
0.06170372
0.01752823
-0.01437825
0.14337698
0.18433076
-0.09569225
0.00443581
-0.11499061
0.21198675
0.09521192
0.14406800
0.22254148
-0.06604128
-0.17933878
-0.10257352
-0.17135847
-0.19965382
-0.06111576
-0.18729603
0.18559206
0.03739755
0.19057044
0.08215512
-0.16761963
0.21488445
0.23946582
-0.28453857
-0.16210856
0.08682570
-0.17007856
0.18705083
-0.12637521
-0.03276862
-0.02150473
0.10523477
-0.23352307
-0.14051498
-0.03244246
-0.08692183
0.22109485
0.22620253
-0.20307766
0.08472718
-0.19444413
0.03568158
-0.04799664
-0.22177459
0.16125415
-0.23325141
0.23899622
0.08954017
-0.22393088
0.07467067
0.10301784
-0.00595368
0.07113710
0.15226614
-0.14937636
0.19265665
-0.23004800
0.09943310
0.24262889
0.06866924
-0.15200150
-0.14711465
0.16930272
0.07330786
-0.18346846
-0.03291819
0.19538556
-0.11100227
0.18305956
0.18814075
0.18303810
-0.25334173
0.08326795
0.17804138
0.19202790
-0.08954123
-0.07470098
-0.13816564
-0.07059394
0.18490170
0.00411736
0.11806005
0.19101651
0.17657192
0.09813092
-0.26716968
-0.13890964
-0.17566037
0.18800834
0.12301873
0.08102688
0.10874332
0.15707518
0.18431099
0.04718977
-0.18934783
0.12966736
0.15836504
-0.07616208
0.15219811
-0.11312561
0.15692501
-0.10251017
-0.06358885
-0.15213341
-0.01434127
-0.17468315
0.04422633
0.11557195
-0.05337016
-0.13148598
0.02442018
-0.04083325
0.08764477
0.09037326
0.15009159
-0.18197452
0.07954567
0.01020223
-0.16371526
-0.06343574
0.20060140
-0.17233258
0.03685330
-0.06428167
-0.02738480
0.19144350
0.08762055
-0.16681549
-0.00686556
-0.15625025
-0.26025712
0.15732770
0.11708988
0.14258395
-0.21780360
-0.00249367
0.18829897
-0.22845447
-0.10264068
-0.26033905
-0.28614768
0.06611101
0.17026983
0.17356412
-0.23699607
0.04993719
0.12715870
0.22641832
0.12035508
-0.20486908
0.19437338
-0.18909194
0.12843001
-0.11756059
0.07489138
-0.21302101
-0.11894410
-0.15892428
-0.07286951
0.12267682
0.09139507
0.00889267
0.04331527
-0.05352737
-0.09708374
0.00326819
0.08737516
0.26589862
0.10945246
0.11212958
0.08368482
0.10937535
0.03471716
-0.06523614
0.08070018
-0.23939626
0.06946908
-0.02797861
-0.23940490
0.00895239
-0.09563820
-0.14158933
-0.11106729
0.17716350
-0.01763050
0.20131360
-0.21486269
0.07021535
-0.12011397
-0.03125176
0.06104954
0.06986845
-0.14660801
0.02694036
0.11526118
0.14221975
0.07605249
0.21103923
0.04093850
-0.06456966
-0.08140381
0.09627210
0.01216992
0.05029891
0.06941764
0.07261256
0.00026102
0.01547087
-0.17235211
0.17223303
-0.15212953
-0.01187178
0.07787306
0.11969341
0.03924626
-0.07910980
0.09448497
-0.13515045
-0.14745964
-0.12789086
0.08374301
-0.11433287
0.09100869
-0.14289200
-0.05274667
-0.00114929
0.22419505
-0.10400744
-0.03641573
0.06767747
-0.17132905
-0.07710048
0.15573177
0.17747211
-0.08978231
-0.04160098
0.21344425
-0.09877780
0.16224648
-0.20476675
-0.19894513
0.10187688
0.03966518
-0.06135164
-0.06188798
-0.17868681
0.10342892
-0.22811233
-0.24754736
-0.22116156
-0.00432994
0.21903382
0.15073904
-0.12808724
0.01998970
0.01309414
-0.04019198
-0.17591539
0.08302648
-0.19138940
0.05025824
-0.00073293
-0.11303966
0.17044570
-0.11417308
-0.05469109
-0.28846028
0.17970155
-0.00104300
0.02289055
-0.17654124
-0.15546983
-0.00655114
0.16111292
0.01253871
0.00711130
0.02126545
0.06573904
0.01876407
0.02355497
0.08535700
-0.14790402
0.21911716
0.18845963
-0.13330735
-0.03834710
-0.27680740
0.01910355
0.08620995
-0.01660864
0.01164360
0.01004425
0.15907587
-0.16017710
0.00237168
0.07581489
-0.13360834
0.07389231
-0.01843840
-0.15255167
0.10466130
0.12718181
0.08018085
-0.17391941
-0.30704513
0.07096887
-0.07544296
0.08242230
0.06443354
-0.25517476
-0.09564356
-0.07374308
-0.01048801
0.18776134
0.11747072
0.17269534
0.18798546
0.16057093
-0.09952628
0.19251765
-0.15543880
0.12121741
0.01336781
0.17164674
0.08307851
0.05364723
0.00808134
0.10583374
0.19763608
0.06470613
0.09109376
-0.09869592
-0.15617073
0.15949446
0.05828492
-0.15763207
0.01149712
-0.12670033
0.06852289
-0.16247723
0.01343346
-0.24357808
0.06872605
-0.19024652
0.03318734
-0.16173704
0.06516676
-0.09321505
-0.25738627
-0.09590230
-0.17110042
0.16138065
-0.07937231
0.15769611
0.06581264
0.01953485
-0.21295594
-0.18835087
-0.13709696
0.17528571
-0.07214312
0.11212984
-0.14473239
0.17692763
-0.13921563
0.08386330
-0.26685315
0.15217990
0.03054061
0.20855774
-0.03480519
-0.08641446
0.14520226
0.02449697
0.08917615
-0.00397965
0.08101258
-0.17790306
-0.06352095
-0.12647782
-0.18413766
-0.10342473
-0.28795913
0.02244290
0.02390570
0.22449739
-0.05091293
-0.08300558
-0.09744684
0.12223715
-0.20787694
0.05509592
0.03394496
-0.02435012
0.22296697
0.03401751
-0.08888014
-0.03610013
0.09388707
0.14029756
-0.11038538
-0.02066848
0.02213842
-0.19190714
-0.15392610
0.03611917
-0.17285103
0.03864802
-0.24478151
-0.08025704
-0.00460579
0.23258635
-0.14742520
-0.20259568
-0.03192523
0.02717274
0.11410242
0.14009795
-0.26982316
0.20078622
-0.03059781
0.07079211
-0.11111274
0.11129024
0.12834239
-0.21922052
0.10325707
0.20248471
0.05146421
-0.23265384
-0.13264248
-0.07516564
-0.20235015
0.16078466
0.21158925
0.04414130
-0.17158093
-0.15046291
-0.22848284
-0.02163315
-0.04584266
0.07607164
-0.17846774
0.06980297
0.07088486
-0.01230911
0.12262373
0.15948895
0.02341616
-0.14636859
0.17435697
0.17527694
-0.02478822
0.08600118
-0.02373138
-0.08760502
0.18050085
0.00564865
-0.15755232
-0.04567560
0.14824431
-0.09941261
-0.02633893
0.19787854
-0.17384043
0.13342887
0.20763268
-0.08489008
0.15470897
0.02034851
-0.01970997
-0.14246167
-0.13015307
0.12660082
-0.17623486
-0.02298135
0.24733312
0.01257133
-0.18416762
-0.01922866
-0.19697174
-0.06195454
-0.13838968
0.08233740
-0.22516954
0.16671892
-0.25090635
0.01968637
-0.10535794
-0.07795181
-0.06304488
-0.12881860
0.13929948
0.02368391
0.10554319
-0.03718866
-0.05747873
-0.15019907
0.12633884
-0.20363179
-0.15091302
0.16501680
-0.19584055
0.18787876
-0.22690290
0.01626638
-0.12394064
0.02468796
-0.01465925
0.15682790
-0.05986715
0.07749960
0.16792004
-0.08037163
0.00964699
-0.18215740
-0.32540655
0.05187748
0.04080801
0.16264986
0.07634857
-0.11786328
0.19142590
-0.22947757
-0.12911560
-0.00497770
0.15938097
0.02610905
-0.23742983
-0.05940835
-0.03136457
-0.03747281
0.09855455
0.12090079
-0.08991934
-0.13147953
-0.09108189
0.11802405
-0.04399719
-0.06100619
0.12784593
0.15558358
-0.05584073
0.08674589
-0.10247976
0.00580805
0.08903223
-0.07563341
0.12234928
0.18282160
-0.13561429
0.02565418
0.11824011
-0.12703681
0.15613872
-0.14508417
-0.20069647
-0.01539989
-0.05375190
-0.14674331
-0.16731031
-0.06964719
0.08958473
0.07619585
0.05919500
0.02797014
0.21601559
-0.23264816
0.09996972
0.16559966
0.01979986
-0.19813065
0.08046283
0.17043062
-0.13472603
-0.17531225
-0.07716152
-0.04638269
-0.20856518
-0.15233557
-0.17977571
-0.10889429
-0.06248381
-0.19836614
0.02400062
0.16551758
-0.13179457
-0.12525126
0.18379231
-0.18874070
0.09009092
0.16894832
0.19910672
0.05687463
-0.19235133
-0.11199651
-0.08262544
0.23206416
-0.07487977
-0.14644647
-0.01153039
0.13522077
0.13694778
0.06879088
0.10611238
-0.20990501
-0.23030408
0.21457268
0.14248145
0.23052737
0.18077774
-0.15135494
-0.11946086
-0.05863242
0.06077318
0.03960827
-0.08490587
-0.05974652
-0.20087719
-0.17925422
-0.06658914
0.21836263
-0.04603897
0.02217496
-0.23654725
-0.15292603
-0.11837768
0.20060869
0.12504928
-0.24914466
0.00934163
-0.20168963
0.21462992
0.10125221
0.14964752
-0.21929030
0.03616036
0.19086020
0.10454228
-0.03934625
0.07036446
0.07640988
-0.14448451
-0.16650549
0.14074050
-0.25811610
-0.15071540
-0.15665852
-0.12567644
-0.20701326
-0.09270865
-0.09798899
-0.06585342
-0.19449934
0.25089896
-0.09198895
-0.19031839
-0.15251262
-0.03661054
0.14829807
-0.11991050
-0.02261647
0.07249644
0.19827022
-0.30659735
0.06454372
-0.10909428
0.22188860
-0.09315865
-0.18872243
-0.05531302
-0.10096882
-0.04218024
-0.08397353
0.17843750
0.05541150
0.16048667
-0.20674562
-0.02331714
-0.11135328
-0.13869405
0.02488989
-0.03045203
0.08613584
0.11946906
-0.04496412
0.07101836
-0.17907180
-0.21150890
-0.20881355
-0.09183405
0.08494373
0.04130023
-0.00987963
0.16707730
0.10520359
0.10159700
-0.09443516
-0.01871347
-0.07845051
-0.19768865
-0.03729967
-0.25238773
0.08231096
-0.08681714
0.17786521
-0.12147561
-0.23259184
-0.02697166
0.03579925
-0.15323092
-0.13158642
0.08508639
-0.21455443
0.18632674
-0.06830286
0.09994542
0.18635374
0.18182437
0.14105392
-0.19231199
0.18349695
-0.07350543
-0.11939038
0.12485971
-0.06492256
-0.22247109
0.04737354
0.11086234
-0.16971724
0.09937593
-0.14141293
-0.11707690
0.04541152
0.15390779
-0.10480221
0.02362525
0.23234123
0.10969554
-0.20265391
