0.012126238085329533
-0.010970032773911953
0.007916988804936409
-0.024200204759836197
0.01425602100789547
0.01379840075969696
-0.008228737860918045
-0.016750801354646683
0.03429442271590233
-0.008046600967645645
-0.012935017235577106
0.05950310826301575
-0.012026987038552761
-0.05653846636414528
0.0776931643486023
-0.02569398656487465
-0.020388033241033554
0.040541645139455795
-0.021980762481689453
-0.007086603436619043
-0.015132462605834007
0.03197463974356651
0.04337276518344879
0.05612996593117714
0.03892908990383148
0.036670807749032974
0.044651322066783905
0.011903093196451664
-0.003162869019433856
-0.02068474143743515
-0.0014414034085348248
0.020570959895849228
-0.023913713172078133
0.007653913926333189
-0.01130994688719511
-0.0245581716299057
-0.023231670260429382
-0.011814235709607601
-0.00961389858275652
0.004063773434609175
-0.03220271319150925
-0.028323551639914513
-0.011815505102276802
0.024998879060149193
0.05293438211083412
0.07647538930177689
0.04855310171842575
0.016130641102790833
0.07672546803951263
-0.013613288290798664
0.05410440266132355
0.07535792887210846
0.05123447626829147
-0.03569268062710762
0.003904311917722225
0.06064431369304657
0.01315267663449049
0.05793643370270729
0.04131557419896126
-0.017485100775957108
0.02869456261396408
0.07194267958402634
-0.0043778489343822
-0.016207950189709663
-0.015941547229886055
-0.0017090869368985295
-0.030911456793546677
-0.019836703315377235
0.030197618529200554
-0.02280484326183796
-0.016607483848929405
0.028506046161055565
-0.021179793402552605
0.0064129517413675785
0.07559160888195038
-0.00521069997921586
-0.010409675538539886
0.055765267461538315
-0.0206098984926939
-0.01151780504733324
0.08510299026966095
0.005011555273085833
-0.0015601709019392729
0.03864387050271034
0.05697958916425705
-0.016941282898187637
0.002566266106441617
3.8701902667526156e-05
-0.00798702985048294
0.02472786232829094
0.0037823382299393415
-0.0026778338942676783
0.034095797687768936
0.007181041873991489
-0.009361768141388893
0.07102596759796143
-0.023043088614940643
-0.001670424360781908
0.03108501248061657
0.00846019946038723
0.0029940688982605934
0.008058290928602219
0.013934792019426823
0.019357312470674515
-0.008203621953725815
0.002900915453210473
0.01916014589369297
-0.011959537863731384
0.011287030763924122
0.021789172664284706
-0.028598101809620857
-0.035376232117414474
0.01938173733651638
-0.0030328051652759314
0.009668144397437572
0.01567533053457737
-0.017269717529416084
-0.0071821375750005245
0.012523869052529335
0.0030818311497569084
0.014788824133574963
0.00020305799262132496
-0.005966417957097292
-0.016799893230199814
-0.012890607118606567
-0.0032653757371008396
-0.01605534739792347
-0.007020441349595785
0.041153259575366974
-0.0011462607653811574
0.051432229578495026
0.007618005387485027
0.007299174554646015
0.011770302429795265
0.011542653664946556
0.0004425396618898958
0.022817790508270264
0.011508200317621231
-0.006704176310449839
0.018807506188750267
-0.009235095232725143
0.008598742075264454
0.0142709044739604
-0.004239428322762251
-0.009806307964026928
-0.01257711835205555
-0.002502708462998271
0.014911096543073654
-0.04660159349441528
-0.010108590126037598
0.023441141471266747
0.0021563817281275988
-0.013163742609322071
2.191641669924138e-06
-0.0007648247410543263
-0.002781472634524107
0.0017392364097759128
0.007583504542708397
-0.0008811352890916169
-0.001107276533730328
0.0003101915935985744
-0.001598650123924017
0.0037256991490721703
0.026256615296006203
0.030004385858774185
0.012818853370845318
0.07301836460828781
0.01767612062394619
-0.03337286412715912
-0.00809839740395546
0.023502271622419357
0.01897578313946724
-0.005082534626126289
-0.00709119439125061
0.04217468947172165
-0.045116011053323746
-0.011314264498651028
0.04045988619327545
-0.028559917584061623
-0.003556038485839963
0.07248426228761673
-0.014819186180830002
0.028877178207039833
0.02513785846531391
-0.06153597682714462
0.03642938658595085
-0.013082757592201233
0.001015248941257596
-0.006413089577108622
0.03252793848514557
-0.02266576513648033
-0.02934056706726551
0.07143741101026535
-0.020282747223973274
-0.024397365748882294
0.03243618458509445
-0.023778274655342102
-0.05502080172300339
-0.019610920920968056
-0.019794238731265068
-0.008285108022391796
-0.00041191690252162516
-0.030556796118617058
-0.016136102378368378
0.012242014519870281
0.00477526756003499
0.0032256855629384518
-0.0009058681898750365
0.001990687567740679
-0.01255397405475378
0.002671032678335905
0.019101236015558243
-0.044069115072488785
-0.016083769500255585
0.002518106484785676
-0.0055978731252253056
0.01824561320245266
-0.00010843826021300629
0.0029185365419834852
-0.0028188799042254686
0.004333964083343744
0.011946952901780605
0.00275995722040534
0.023857049643993378
0.029675360769033432
0.006666515953838825
-0.011120520532131195
-0.000916190561838448
0.013119003735482693
0.003569815307855606
0.0017038224032148719
-0.005431491881608963
-0.030748633667826653
-0.01826789416372776
-0.005575182382017374
0.013200510293245316
-0.00028585988911800086
-0.005044848192483187
-0.02861649915575981
-0.01612626016139984
-0.024227946996688843
0.003295183414593339
0.020241135731339455
0.012131793424487114
0.021371299400925636
0.04189027100801468
-0.0067185875959694386
0.0031137617770582438
0.04541122168302536
-0.003541878191754222
0.024678053334355354
0.016199374571442604
-0.025134265422821045
-0.00409063883125782
-0.012666173279285431
0.011391287669539452
-0.009843377396464348
-0.022598404437303543
0.004962183069437742
-0.016071461141109467
0.01875467039644718
0.06258567422628403
-0.055408645421266556
0.011257361620664597
-0.006665504537522793
-0.03210775926709175
-0.012928110547363758
0.01669040508568287
0.002131015295162797
0.0014406372793018818
-0.05785953253507614
-0.00122881552670151
-0.0014602630399167538
-0.02847631834447384
0.02306201495230198
0.000455094879725948
-0.03428815305233002
-0.009936625137925148
0.007770430762320757
-0.004837809130549431
-0.018626516684889793
0.003927184268832207
-0.06249061971902847
-0.0017662198515608907
-0.026766860857605934
-0.05141178518533707
-0.03353471681475639
0.004359421320259571
0.018048781901597977
0.00038509859587065876
0.004625984001904726
0.005739632062613964
-0.03013642504811287
0.012297737412154675
0.06416185945272446
-0.020636318251490593
0.01570046879351139
0.012409143149852753
0.013322432525455952
0.008626486174762249
0.008077970705926418
0.017275827005505562
-0.04770343005657196
-0.02135263755917549
0.0040420969016849995
0.009635157883167267
-0.03887535631656647
0.04295548051595688
-0.006336614955216646
-0.04714321717619896
0.04266292229294777
-0.006552743725478649
-0.0314558744430542
0.02093794383108616
-0.00017522560665383935
-0.015974510461091995
0.012130381539463997
0.08610580116510391
-0.05795265734195709
-0.0070146252401173115
0.12718960642814636
-0.058812256902456284
0.02594006434082985
0.012000136077404022
0.027861515060067177
0.03240226209163666
0.018716862425208092
-0.001772603951394558
-0.013876548036932945
-0.0066906786523759365
0.006456990726292133
-0.009766844101250172
0.002870613941922784
0.01639747805893421
-0.03586824610829353
-0.019759733229875565
0.048091236501932144
-0.05597944185137749
-0.01909850537776947
0.013354318216443062
-0.03340933471918106
0.00918969139456749
0.02628610096871853
0.005777721758931875
0.0037679451052099466
0.015728136524558067
-0.019774850457906723
0.04309924691915512
-0.0010185573482885957
-0.008531729690730572
0.03811139985918999
-0.0036380591336637735
-0.031069736927747726
-0.0119842030107975
0.007875095121562481
-0.017466804012656212
-0.027876947075128555
0.018476959317922592
0.00679534999653697
0.00603974424302578
0.024289431050419807
-0.014725720509886742
-0.020747197791934013
-0.005408056080341339
0.018131250515580177
0.015417329035699368
0.02722007967531681
-0.001719453139230609
-0.011540071107447147
-0.02419990673661232
-0.0241500623524189
0.02604110911488533
-0.006832457613199949
-0.00650072144344449
0.026383565738797188
-0.00534474803134799
0.028446245938539505
0.011034287512302399
0.03908861055970192
0.02564820647239685
-0.00683470768854022
0.013270091265439987
-0.008132265880703926
-0.005874665919691324
-0.01779135689139366
0.008129017427563667
-0.020857244729995728
-0.008325756527483463
-0.01100710779428482
0.014754030853509903
0.034327175468206406
-0.04028499126434326
-0.0039589968509972095
-0.010347271338105202
0.006683257408440113
0.0029411115683615208
0.010289165191352367
0.026147061958909035
0.0339520163834095
0.0193624384701252
0.012382869608700275
0.0022357874549925327
0.008666886948049068
-0.024512873962521553
-0.03382537141442299
-0.0024643223732709885
-0.001359115238301456
0.00325253838673234
0.0005207379581406713
0.0010775404516607523
0.0018726898124441504
0.0016326757613569498
-0.0015305911656469107
0.004299535881727934
-0.0068550994619727135
-0.03357873111963272
-0.02579648606479168
-0.021544698625802994
0.006483458913862705
-0.04111706465482712
-0.0075259581208229065
0.0007781070307828486
-0.011260735802352428
0.016943035647273064
0.013115745037794113
0.02723727747797966
0.014689617790281773
0.021966692060232162
0.039958976209163666
0.014085089787840843
0.004530307836830616
0.015165355987846851
-0.021710118278861046
-0.022068295627832413
0.030577674508094788
0.025918031111359596
-0.029998958110809326
0.041235364973545074
0.018196474760770798
0.00017105782171711326
0.017488429322838783
0.00351882865652442
0.004132346715778112
-0.006388559006154537
-0.015259659849107265
0.016898825764656067
0.005098385736346245
-0.010675783269107342
0.0062505751848220825
-0.0028661759570240974
-0.018936293199658394
0.0060094986110925674
0.012135103344917297
-0.01927969977259636
0.02329106070101261
-0.02796357125043869
-0.015337430872023106
0.0063819000497460365
-0.02259647473692894
-0.0010424460051581264
-0.0022841854952275753
-0.027420803904533386
0.013693043030798435
-0.012528004124760628
-0.015441830269992352
0.008789829909801483
0.018672337755560875
-0.0003116072330158204
-0.007982715032994747
-0.010488911531865597
0.06558556854724884
-0.004040819127112627
-0.0023880801163613796
0.055932193994522095
-0.026784474030137062
0.005446340888738632
0.008972464129328728
0.007818587124347687
-0.0032853344455361366
0.10213763266801834
-0.04004976153373718
-0.0457400381565094
0.1398259848356247
-0.027337435632944107
-0.020990127697587013
0.11929136514663696
-0.04239749535918236
0.015569223091006279
0.047720231115818024
-0.03147432208061218
-0.024117952212691307
0.04441143199801445
-0.033067308366298676
0.021941855549812317
0.03000558726489544
0.015297616831958294
0.0009718203800730407
-0.010291666723787785
0.010671316646039486
0.011656934395432472
0.004971648100763559
0.014296747744083405
0.012654785066843033
-0.004626553039997816
-0.01332165114581585
0.003590571228414774
0.027403999119997025
-0.017300119623541832
-0.0024699848145246506
0.03739544004201889
-0.035272516310214996
-0.011256750673055649
0.020839354023337364
-0.025248773396015167
0.006184903439134359
-0.02112034521996975
-0.02364814467728138
0.004521678201854229
-0.014032983221113682
-0.04694054275751114
0.01587166078388691
-0.0036978430580347776
0.01558271236717701
0.015740493312478065
0.0162289347499609
0.017817078158259392
-0.01182591076940298
0.012972801923751831
0.01055113971233368
-0.021546443924307823
0.02296461910009384
0.004549745470285416
0.003496505320072174
-0.014652755111455917
0.017367759719491005
0.017507530748844147
0.04416121169924736
0.007235507946461439
0.011911562643945217
0.003033311339095235
-0.0018112054094672203
-0.003709811717271805
0.019106240943074226
0.017968297004699707
-0.004032936878502369
-0.016233721747994423
0.02986278012394905
0.009131877683103085
-0.010697860270738602
-0.01882077008485794
-0.024678602814674377
0.005400968715548515
0.0035033891908824444
-0.0016418587183579803
0.00686202896758914
-0.008866972289979458
0.006445104256272316
0.0045389654114842415
0.005185941234230995
0.0004599074018187821
-0.026639236137270927
0.033726006746292114
0.007063050288707018
-0.05373571440577507
0.018069129437208176
0.0023169126361608505
-0.04475072771310806
0.014417426660656929
-0.011517001315951347
-0.01926293969154358
-0.013589748181402683
0.007460700813680887
-0.015546558424830437
0.010823597200214863
-0.013875429518520832
-0.013506565243005753
0.005644564516842365
0.051048293709754944
0.04237065836787224
-0.028110064566135406
0.07336337119340897
0.005192795768380165
0.0011428786674514413
0.03364560753107071
0.03588842228055
0.001571109751239419
-0.005154813174158335
-0.01705409586429596
0.01917806640267372
-0.02623755857348442
0.03523378074169159
0.02699502557516098
-0.01788468472659588
0.04421846941113472
-0.028836706653237343
0.010328401811420918
-0.023345913738012314
0.017329590395092964
-0.08876913040876389
-0.01628313586115837
-0.011566008441150188
0.005192153621464968
-0.005078935530036688
0.03847323730587959
0.1294170767068863
0.08399759232997894
-0.04576382786035538
-0.06674351543188095
-0.02463703788816929
0.01494248490780592
0.0637998953461647
0.039018239825963974
-0.032360438257455826
-0.046653494238853455
-0.03374963998794556
0.03327110409736633
-0.027506433427333832
-0.0349443256855011
-0.011358343996107578
0.002589812269434333
0.025709765031933784
0.06616441905498505
0.030617041513323784
-0.04947851225733757
-0.004682366270571947
0.011941265314817429
-0.027383998036384583
0.012881188653409481
0.027713224291801453
-0.037012435495853424
-0.01638108678162098
0.043988604098558426
0.006369173992425203
-0.0037523172795772552
-0.10087262094020844
0.004509434569627047
-0.004674434661865234
0.0013920896453782916
0.0017594656674191356
-0.04114530235528946
-0.008633837103843689
-0.04659874737262726
0.00048606799100525677
0.0895642638206482
-0.021722717210650444
-0.026431143283843994
-0.0211042333394289
-0.021823503077030182
-0.04625692591071129
-0.188038632273674
-0.02198760397732258
0.03763120621442795
-0.05864260718226433
0.054964568465948105
0.023210028186440468
-0.0222812220454216
0.08035825192928314
-0.011600240133702755
0.0037297653034329414
-0.0034805675968527794
0.004326570779085159
-0.07038601487874985
-0.013181718997657299
0.009550472721457481
0.01540844514966011
-0.03797836974263191
-0.011679320596158504
0.018977699801325798
-0.026032613590359688
-0.003721942426636815
-0.024761714041233063
-0.002591159427538514
-0.02348681166768074
0.0027772781904786825
-0.028640422970056534
0.08570966124534607
0.10934600979089737
0.022948727011680603
0.06684067100286484
-0.029748093336820602
0.030378613620996475
-0.003084145486354828
-0.007372566498816013
0.00124280562158674
-0.035395268350839615
-0.02625967748463154
-0.013239880092442036
-0.05850715562701225
0.021545173600316048
0.043611910194158554
-0.02248559147119522
-0.02090545929968357
0.001487318892031908
0.014729119837284088
0.040139175951480865
0.021222751587629318
0.0626969039440155
0.03848716616630554
0.05399739742279053
-0.02857281267642975
-0.03989340737462044
-0.008600838482379913
-0.018866825848817825
0.13498327136039734
0.0680093765258789
-0.01656288653612137
-0.026282191276550293
-0.01867876946926117
-0.013922125101089478
0.06650322675704956
0.00987585075199604
-0.035289086401462555
0.01158504094928503
-0.017689760774374008
-0.003997955936938524
0.07055702805519104
-0.002711240202188492
-0.029350237920880318
-0.0014809445710852742
-0.036708585917949677
-0.028874514624476433
0.0023458460345864296
-0.023183472454547882
-0.017960818484425545
-0.08438368886709213
0.01273846160620451
0.025319190695881844
0.05641057714819908
0.012648000381886959
-0.0017060746904462576
-0.0006533702253364027
-0.0003934023261535913
-0.0025307023897767067
-0.0003053923137485981
-0.00023604882881045341
3.404779636184685e-05
-0.0008630422526039183
0.0003265822015237063
0.022089269012212753
0.024933064356446266
0.015096092596650124
-0.006889686919748783
-0.01820690929889679
-0.055924683809280396
-0.009577332064509392
0.026790477335453033
0.021094467490911484
0.10069389641284943
0.046953387558460236
0.030339986085891724
-0.0652814731001854
-0.06247982010245323
-0.012752784416079521
-0.013892125338315964
-0.050459425896406174
-0.049719784408807755
0.022813929244875908
-0.003372247563675046
0.007863805629312992
0.0502748116850853
0.08596041053533554
0.034772247076034546
-0.01556407380849123
-0.020825225859880447
-0.024203890934586525
0.01452020462602377
0.021561656147241592
-0.05361554026603699
0.015850070863962173
0.023969413712620735
-0.06379804760217667
-0.026875615119934082
-0.05196569114923477
-0.057639773935079575
0.10955559462308884
0.07494620978832245
0.07473980635404587
0.06531723588705063
-0.036565329879522324
0.010505125857889652
0.00018679483036976308
0.007357077673077583
0.02302391082048416
0.005008524749428034
0.032771721482276917
0.0412374772131443
-0.04555659368634224
-0.06727319210767746
-0.054219845682382584
0.01130606234073639
-0.0027367265429347754
0.01669931225478649
0.01720874011516571
0.03577835485339165
0.03332070633769035
0.018268711864948273
0.01589767076075077
-0.013405931182205677
0.028643961995840073
0.08123219758272171
0.022121641784906387
-0.018125884234905243
0.006735668517649174
-0.021194960922002792
0.04034104570746422
0.10602214932441711
0.014988049864768982
-0.011341840028762817
0.05038851127028465
-0.009369506500661373
0.015089762397110462
0.03504320979118347
0.014827150851488113
0.030044646933674812
0.08830579370260239
0.05969817191362381
0.00233501847833395
0.07015303522348404
0.013593620620667934
0.02978416159749031
0.057414282113313675
0.023396944627165794
-0.015644097700715065
0.03414073958992958
0.027421165257692337
-0.009339874610304832
0.011813247576355934
-0.004877518396824598
-0.012467772699892521
0.017639020457863808
-0.0162477046251297
0.016502808779478073
-0.006984285078942776
0.007627516984939575
0.012841852381825447
0.004974256735295057
0.04099515825510025
-0.055103451013565063
-0.059243008494377136
0.002514788880944252
-0.0013466192176565528
0.06657898426055908
-0.0406399630010128
0.013042877428233624
0.013715810142457485
0.013301393948495388
-0.04474887251853943
0.04070069268345833
0.07951711118221283
0.06532933562994003
0.0005211749230511487
0.024001620709896088
0.02273891679942608
-0.008700873702764511
-0.03244537487626076
0.01101326197385788
0.05328302085399628
-0.01730567030608654
0.0212098341435194
0.0528985857963562
0.06946136802434921
-0.022772781550884247
-0.03407014533877373
-0.041521765291690826
0.031252969056367874
0.01917857676744461
0.05023553967475891
-0.06330784410238266
-0.0640321597456932
0.06431914120912552
0.011070216074585915
-0.012532353401184082
0.058411549776792526
0.04733428359031677
-0.014126897789537907
0.08288920670747757
-0.09025000780820847
-0.05154097080230713
-0.05846162512898445
-0.04692922905087471
0.0043258462101221085
-0.01874072477221489
-0.019553426653146744
-0.05417541787028313
-0.010761712677776814
0.0011480296961963177
0.006989515386521816
0.01936431974172592
0.05447424203157425
-0.02219058945775032
0.022244982421398163
0.08560590445995331
0.0652126595377922
-0.03375830873847008
0.06372217833995819
0.03844890743494034
-0.02148246206343174
-0.03181401640176773
-0.0375908687710762
0.010992021299898624
0.031329791992902756
0.04168706387281418
0.042219486087560654
0.024328436702489853
-0.008224261924624443
0.009293599054217339
0.04200541600584984
0.021414805203676224
0.011240907944738865
-0.0016844054916873574
0.004127096850425005
-0.010684482753276825
-0.06579148769378662
-0.08327250182628632
-0.01495482586324215
0.020633336156606674
0.0700841024518013
0.0332430861890316
-0.020841360092163086
0.030583010986447334
-0.02400238625705242
0.009358124807476997
0.021586595103144646
0.07887763530015945
-0.006988401059061289
0.02030683495104313
0.033977411687374115
0.018602127209305763
0.01610315777361393
0.06269151717424393
0.060716673731803894
-0.038861870765686035
-0.007751182187348604
-0.006117966026067734
-0.03298821300268173
-0.020353857427835464
0.03266194835305214
-0.005318369250744581
0.03004598803818226
0.017463672906160355
0.1287403404712677
0.007121829781681299
-0.03247664496302605
-0.021821530535817146
-0.04010750353336334
0.0016362392343580723
-0.014964128844439983
-0.003987827338278294
-0.015681028366088867
-0.016747577115893364
0.007269322406500578
0.015842195600271225
-0.019241971895098686
0.012286442331969738
-0.04841301962733269
-0.07538992166519165
-0.07572058588266373
-0.03404098004102707
0.017595112323760986
-0.015503687784075737
-0.02277372032403946
0.019803207367658615
-0.007611879613250494
-0.057960543781518936
0.033197734504938126
0.024669893085956573
0.00973688717931509
0.06000600755214691
0.035807471722364426
0.04980175569653511
0.0851820781826973
0.07827039808034897
0.013558310456573963
0.02338406816124916
-0.016452506184577942
-0.018157999962568283
0.050637874752283096
-0.05509956553578377
0.004913677461445332
0.02925603650510311
-0.019930623471736908
0.0033687304239720106
-0.0025470091495662928
-0.0010570165468379855
0.00026131884078495204
-0.0015695717884227633
-0.0028367822524160147
0.002832933096215129
0.0022739721462130547
-4.8950332711683586e-05
-0.01775464043021202
0.062037043273448944
0.06524913758039474
-0.008723105303943157
-0.01423734426498413
-0.021546784788370132
0.000763104937504977
0.0332147590816021
0.015392059460282326
0.013218470849096775
0.03134506568312645
-0.01603946089744568
-0.02509675920009613
-0.011908098123967648
-0.033182885497808456
0.02393575944006443
-0.022663520649075508
-0.0254136323928833
0.05832075700163841
0.012862816452980042
0.025838620960712433
0.028245864436030388
0.007034140173345804
0.008658397942781448
-0.0357026569545269
-0.013539044186472893
-0.016383368521928787
0.04053286463022232
-0.0026087916921824217
0.051390185952186584
0.047540999948978424
0.027114450931549072
0.06882639229297638
-0.006335956044495106
0.009697051718831062
-0.006862032227218151
0.030652452260255814
0.007870577275753021
0.016132328659296036
0.006255995482206345
-0.03280511870980263
-0.03286455571651459
0.010136420838534832
-0.013896594755351543
-0.02762763574719429
-0.03209782391786575
-0.04062376543879509
-0.02390812523663044
0.0309849102050066
-0.00762852793559432
-0.01976647414267063
-0.011555871926248074
-0.008323567919433117
-0.010076029226183891
0.1047513410449028
0.06811390072107315
-0.034357521682977676
0.060797180980443954
0.0019209111342206597
0.030380582436919212
-0.03301602602005005
-0.010855032131075859
-0.04452285170555115
-0.008959686383605003
-0.03984246402978897
-0.014816665090620518
-0.018931221216917038
-0.09260249882936478
0.011312133632600307
-0.014383983798325062
-0.027379175648093224
0.043342672288417816
0.005744562949985266
0.02027086913585663
-0.006320209242403507
0.07910837233066559
-0.06002219021320343
0.027891747653484344
0.03455432131886482
-0.020632298663258553
-0.020764406770467758
0.059352777898311615
0.0562584325671196
0.11366941779851913
-0.015991246327757835
-0.015388717874884605
-0.0024447040632367134
0.009836515411734581
0.06848475337028503
0.01671012118458748
0.08408157527446747
0.07314222306013107
0.0798000693321228
-0.01601218990981579
-0.004861060529947281
-0.014981037005782127
0.04270092770457268
0.014669416472315788
0.01250982005149126
-0.0026034973561763763
0.03911235183477402
-0.0065201884135603905
0.02791706845164299
-0.03216883912682533
0.025995329022407532
0.026243509724736214
0.060993727296590805
0.021978709846735
0.06164620816707611
0.020848197862505913
0.024622157216072083
0.02155200205743313
0.09484652429819107
0.014018830843269825
0.017846083268523216
0.02652864344418049
0.02034205012023449
-0.0301736518740654
0.0034045176580548286
-0.05467434227466583
0.015445445664227009
0.09585975110530853
0.03322415426373482
-0.0435173474252224
0.04889420047402382
-0.028133554384112358
-0.011698761954903603
0.02161911502480507
-0.0918319970369339
0.03326984494924545
0.053347185254096985
-0.003108193865045905
0.06614464521408081
0.05543696880340576
0.024482332170009613
0.00521005317568779
-0.03387425094842911
-0.007289827801287174
0.007144376169890165
0.044080398976802826
-0.010331305675208569
0.01855389028787613
0.08191133290529251
-0.00598814245313406
0.06199093163013458
0.029404079541563988
0.026711955666542053
0.012639038264751434
-0.005064766388386488
0.03529487922787666
0.012618424370884895
0.021985255181789398
0.019113875925540924
-0.07553152740001678
-0.0752997174859047
-0.06938407570123672
0.042926520109176636
0.1903718262910843
0.036608826369047165
0.03938708081841469
0.07723090797662735
0.06984631717205048
-0.0014037999790161848
0.02661830186843872
0.012027520686388016
0.009531144984066486
0.029079142957925797
-0.00821335706859827
-0.05039867013692856
-0.04609246924519539
0.027865247800946236
-0.003648119978606701
-0.03488687053322792
0.007973086088895798
0.023821119219064713
0.017821550369262695
0.006433344911783934
-0.03991710767149925
-0.030784284695982933
-0.00696178525686264
-0.026065800338983536
-0.0067779673263430595
-0.010027308017015457
0.02061564102768898
0.04456357657909393
-0.02226022444665432
-0.033275093883275986
-0.013235962949693203
-0.015273517929017544
-0.0017359378980472684
0.054678019136190414
0.005853510461747646
0.040636900812387466
0.09961462020874023
0.0015199069166556
0.03012060932815075
-0.013405777513980865
-0.028201475739479065
0.024082181975245476
-0.009313501417636871
-0.02568783052265644
0.0053446632809937
-0.006557015236467123
-0.02642584592103958
0.05646539852023125
0.029426928609609604
-0.016922567039728165
0.017122182995080948
0.012746117077767849
-0.02387596294283867
0.06261532008647919
0.008397780358791351
-0.046222932636737823
-0.027153287082910538
-0.05537067726254463
-0.014444462954998016
0.0032783413771539927
0.01935962215065956
-0.03540830686688423
0.03420252725481987
0.10424981266260147
0.02271820791065693
-0.005419079679995775
-0.054022807627916336
-0.047147076576948166
-0.005866673309355974
0.0034294030629098415
0.02233101800084114
-0.043069154024124146
-0.003998447675257921
0.002122471109032631
-0.0005448847077786922
0.011335521005094051
-0.024265119805932045
-0.03598787263035774
-0.04991943761706352
0.026767976582050323
-0.00727129727602005
-0.02086697146296501
0.04754100739955902
0.017541494220495224
0.025383390486240387
0.06984654814004898
0.008371631614863873
0.0368780717253685
0.008590064011514187
0.030737752094864845
0.08988481014966965
-0.04367367550730705
0.009930625557899475
0.009264366701245308
-0.04830801486968994
-0.00628637196496129
0.019866134971380234
-0.02476354129612446
-0.023819444701075554
0.04925970360636711
-0.011005501262843609
0.001208171946927905
0.023391958326101303
0.011837772093713284
0.037699129432439804
0.05079762637615204
-0.0019257176900282502
0.05263888090848923
0.017610158771276474
0.002018333412706852
-0.007345892954617739
-0.045377735048532486
0.0012188891414552927
0.015304358676075935
0.011185798794031143
0.020595911890268326
-0.005605054087936878
-0.0338682197034359
0.0011062445119023323
0.01920229010283947
-0.044530387967824936
-0.009640812873840332
0.006412713322788477
0.019420534372329712
-0.002377578988671303
0.00290816742926836
0.019988752901554108
0.004791927989572287
-0.003849312663078308
-0.02248472161591053
-0.03841248154640198
0.006388112436980009
0.04920285567641258
0.06445920467376709
0.004681698512285948
0.07981937378644943
0.014818208292126656
0.0003341664851177484
-0.04224981367588043
-0.059949200600385666
-0.010859335772693157
0.023974858224391937
0.04858377203345299
-0.01774633303284645
-0.021454649046063423
-0.010837187990546227
-0.045054640620946884
-0.0435783714056015
-0.03186371922492981
0.0014985438901931047
-0.012568634934723377
0.012775734066963196
0.03593438118696213
0.06772374361753464
-0.02293439954519272
0.0033432794734835625
0.05122178792953491
0.008716918528079987
-0.006121993064880371
-0.0027689095586538315
-0.003127239178866148
-0.0014504928840324283
-0.0008950727060437202
0.0005567031912505627
-0.0003211427538190037
0.0020101675763726234
0.0010833791457116604
0.024998625740408897
0.05153585970401764
0.007261058781296015
0.0004657312820199877
0.01972588337957859
-0.01580105349421501
0.007613333407789469
0.022151369601488113
-0.015791308134794235
0.07723063975572586
0.03143055737018585
-0.011735310778021812
0.052724689245224
0.01154862530529499
-0.07998152077198029
-0.052260614931583405
-0.015103435143828392
-0.039330922067165375
0.029623623937368393
0.012494816444814205
-0.03411960229277611
-0.03840859979391098
-0.06490009278059006
-0.03614196181297302
-0.007609690073877573
-0.01965893618762493
0.007692620623856783
-0.0009599134209565818
-0.002000794280320406
-0.02711743861436844
-0.012939727865159512
-0.01745476759970188
0.0025709401816129684
-0.005842897109687328
-0.007411088794469833
-0.032360538840293884
0.02643890306353569
0.05203370749950409
0.03319358825683594
0.020730366930365562
0.0461529977619648
0.0071378531865775585
0.009924042969942093
0.021822920069098473
0.03166240081191063
0.01187466736882925
0.025602057576179504
-0.023635514080524445
0.0069841607473790646
0.004875197075307369
0.0031874864362180233
0.013231934048235416
-0.05616861954331398
-0.042032137513160706
0.025897853076457977
0.014455055817961693
0.013745159842073917
0.018369434401392937
-0.004074542783200741
-0.014525494538247585
-0.006157482508569956
-0.04297630861401558
-0.013197670690715313
-0.00396647909656167
0.012477106414735317
-0.0019392401445657015
-0.01213576178997755
-0.01728665828704834
-0.051372792571783066
-0.044631943106651306
-0.06975731253623962
-0.03670519217848778
-0.004205580335110426
0.026652734726667404
-0.003207688918337226
0.04659564793109894
0.1025228351354599
-0.005749395117163658
-0.037607185542583466
-0.07332416623830795
-0.020465992391109467
0.027287406846880913
0.020450599491596222
0.02200610563158989
-0.0040967115201056
0.0290057435631752
0.022015612572431564
-0.01037377119064331
0.0026799370534718037
0.0016597313806414604
-0.0014307814417406917
0.013508450239896774
0.0042185853235423565
-0.017949379980564117
0.006794067565351725
0.001963734859600663
-0.014396488666534424
0.03183727711439133
0.0022418072912842035
0.011075237765908241
-0.004823911935091019
-0.00729995034635067
-0.04330155625939369
-0.051942043006420135
-0.03725701943039894
-0.0313066728413105
-0.0317939855158329
-0.03096674010157585
-0.02929612435400486
-0.035201381891965866
-0.008620576933026314
-0.03424732759594917
0.04787428677082062
0.012553289532661438
-0.010161438956856728
-0.09254855662584305
-0.009803041815757751
0.01064611691981554
-0.05007556453347206
-0.016940036788582802
-0.051572978496551514
-0.022815551608800888
0.016639526933431625
0.018515367060899734
-0.002639306243509054
-0.03626096621155739
0.011737600900232792
0.0009613926522433758
0.0205038134008646
0.052457720041275024
-0.05112385004758835
-0.0074761975556612015
0.013759062625467777
0.0553584098815918
0.014388974756002426
0.06268879026174545
0.0302590262144804
-0.03221854567527771
-0.024990128353238106
-0.11080584675073624
-0.002953923074528575
-0.00971073005348444
-0.05448214337229729
-0.03226131200790405
0.05099094659090042
-0.011574889533221722
-0.0030987069476395845
0.01454256847500801
-0.02936277911067009
0.014325273223221302
0.03309989348053932
-0.007467744406312704
0.04829986393451691
0.006381761748343706
0.03095671720802784
-0.039351437240839005
0.057932477444410324
0.056785713881254196
-0.0614132359623909
-0.02100473828613758
-0.05702550336718559
0.0034270670730620623
0.014312230981886387
0.04451392590999603
-0.0062584709376096725
0.0024694977328181267
0.0049481941387057304
-0.04116826131939888
-0.029307959601283073
-0.04913213476538658
-0.02993018925189972
-0.03030412644147873
-0.011527927592396736
0.001345256925560534
-0.01166445855051279
-0.0027781922835856676
0.0329243540763855
-0.018890459090471268
-0.0234916303306818
0.014950324781239033
-0.024562550708651543
0.004763165954500437
0.01365615427494049
0.01204745564609766
0.042753830552101135
0.0029153109062463045
0.030043456703424454
0.006694217212498188
-0.006570396479219198
-0.05480432137846947
-0.00196845643222332
0.05151350796222687
-0.02031644992530346
0.005661074537783861
0.03858859837055206
-0.016349410638213158
-0.005217140074819326
-0.014424496330320835
0.039071474224328995
-0.009148756973445415
-0.02235352247953415
0.02226368710398674
-0.0020409037824720144
-0.01619766838848591
0.0230694692581892
-0.0100281136110425
0.02846330590546131
-0.008356298319995403
-0.020050713792443275
0.010575658641755581
-0.022108465433120728
0.049122925847768784
0.008646412752568722
-0.044431064277887344
0.020901039242744446
-0.014465458691120148
0.009010950103402138
-0.025415688753128052
-0.003222347004339099
-0.06479474157094955
-0.03872116282582283
0.01512435544282198
-0.058480530977249146
-0.021195849403738976
-0.05717073008418083
-0.08512018620967865
-0.0044676559045910835
0.007059734780341387
0.024904150515794754
0.060284629464149475
0.03746594116091728
0.07249023020267487
0.013034375384449959
0.004752269946038723
0.04728744924068451
0.03518952429294586
0.031974878162145615
0.01257651299238205
-0.003015322145074606
0.010769372805953026
0.004658991936594248
-0.02188745327293873
0.00038505339762195945
-0.0009591068956069648
0.002553242724388838
0.0043225665576756
-0.001565817859955132
3.4804736060323194e-05
-0.0017059734091162682
-0.0008571859798394144
-0.0013976374175399542
-0.0014461700338870287
-0.015256245620548725
-0.027349179610610008
0.0011892926413565874
-0.006907388102263212
0.011204482056200504
0.013869809918105602
0.0035043065436184406
-0.030511824414134026
-0.03500093147158623
0.027482494711875916
0.01591477356851101
-0.0032482794485986233
0.04959675297141075
0.05285414308309555
-0.03773779794573784
0.005684458650648594
-0.03518521040678024
-0.0483868271112442
-0.002480587922036648
0.02514585107564926
-0.013526521623134613
0.023572420701384544
0.010974730364978313
-0.041152969002723694
-0.009332575835287571
-0.022252993658185005
-0.0380995087325573
0.027233008295297623
0.02575799636542797
0.004465941805392504
0.02327272854745388
-0.015451536513864994
-0.03151298686861992
-0.006461984943598509
-0.008204899728298187
-0.008811583742499352
-0.007219030521810055
0.023199651390314102
0.01839650608599186
0.002889924915507436
0.015862278640270233
0.009661553427577019
-0.008876675739884377
-0.025514915585517883
-0.024816250428557396
-0.005091482773423195
-0.02365458570420742
0.007424464449286461
0.016835138201713562
0.013547863811254501
0.042494986206293106
-0.00533165130764246
-0.0033988191280514
0.021090470254421234
0.003629362676292658
0.05357769876718521
-0.013556438498198986
0.07096272706985474
0.043600454926490784
-0.0018715756013989449
0.03361093997955322
-0.042496826499700546
-0.004356161691248417
-0.08257163316011429
-0.0215811338275671
0.08303111791610718
-0.05147131159901619
0.03514067456126213
0.03423076495528221
-0.03170287609100342
0.024521825835108757
0.03809516504406929
-0.034231122583150864
-0.010642161592841148
-0.04006051644682884
-0.01600423827767372
-0.007310185581445694
-0.04094599932432175
0.02821863256394863
-0.032384492456912994
-0.02712915651500225
0.006369093898683786
0.04603208601474762
0.02182520553469658
-0.004425938706845045
-0.02623576484620571
-0.02307828515768051
0.01709650456905365
-0.0008537904359400272
0.004647830035537481
0.04360049217939377
0.024234645068645477
0.017172805964946747
0.022424692288041115
0.006564259994775057
0.02270079217851162
0.0016940278001129627
-0.017797499895095825
-0.007603121921420097
0.03149298205971718
0.015411442145705223
-0.05746190994977951
0.00965434405952692
0.013733937405049801
-0.035482101142406464
0.04712853953242302
-0.028560001403093338
-0.03760505095124245
0.04018248990178108
0.03709041327238083
0.007359307259321213
0.03752713277935982
-0.006199975032359362
-0.0344800129532814
-0.017250118777155876
-0.040907781571149826
-0.06547795981168747
-0.015226124785840511
-0.01249103806912899
0.014375468716025352
-0.02606290392577648
-0.014715801924467087
-0.0008290745900012553
-0.014768801629543304
-0.03064526431262493
0.0021398381795734167
-0.05129777640104294
-0.01119969692081213
-0.021290525794029236
-0.020569661632180214
-0.0269407257437706
-0.029653962701559067
0.011009846813976765
-0.03424747660756111
0.00804185215383768
0.014936883933842182
0.004896641708910465
0.015950890257954597
-0.014704858884215355
-0.029863277450203896
-0.004287635441869497
-0.00453387713059783
0.0164093766361475
0.01959427259862423
0.014864659868180752
-0.0032929752487689257
0.011905835941433907
-0.007206764072179794
-0.031221527606248856
0.012380740605294704
-0.009755950421094894
0.008683044463396072
0.023904334753751755
-0.030796989798545837
-0.022453701123595238
-0.03318728879094124
-0.02906837686896324
-0.009008892811834812
-0.05960184708237648
-0.009858211502432823
-0.034730467945337296
-0.00016341364243999124
0.0004046651883982122
0.001194400480017066
0.0018830597400665283
-0.0008589043864049017
-0.005226083565503359
-0.004591228440403938
0.002221614820882678
-0.007016065064817667
-0.0036896367091685534
-0.000827321782708168
0.003623954253271222
-0.0006696593482047319
-0.002129213884472847
-0.005730622913688421
-0.005142976995557547
0.0008296486339531839
0.0064064981415867805
0.00019442565098870546
-0.0027050324715673923
-0.0022073255386203527
0.0005945955053903162
0.006509545724838972
0.004000915680080652
-0.0038342680782079697
-0.0006769351311959326
-0.003064155811443925
-0.0015827941242605448
-7.536441989941522e-05
-5.9569192671915516e-05
-0.0019278896506875753
-0.0009166660602204502
-0.006327752489596605
0.002951418049633503
-0.0016373583348467946
-0.010817639529705048
-0.0012942254543304443
-0.0029662626329809427
0.0021088591311126947
0.0011011818423867226
-0.0008118004188872874
-0.0009971695253625512
-0.0015988487284630537
-0.005684238858520985
-0.003034487832337618
0.001397269661538303
0.004386935383081436
-0.0009212583536282182
0.00197373959235847
0.005554222036153078
0.0005285245133563876
0.0008811338921077549
-0.007986039854586124
-0.00646287202835083
-0.0005655912100337446
-0.001961211208254099
-0.0040344493463635445
0.0010604211129248142
3.3522297599120066e-05
0.00799874123185873
0.003876924514770508
-0.0009313466725870967
-0.006143875420093536
0.0004862982896156609
-0.0016186509747058153
-0.002709475578740239
-0.00033049387275241315
-0.0002053838543361053
0.005794159602373838
-0.00018814019858837128
-0.002128111431375146
-0.0017644211184233427
-0.0003230271686334163
0.000943944149184972
0.004986991174519062
0.002321522682905197
0.00044844800140708685
0.001453000819310546
0.0005527224275283515
-0.0026399758644402027
-0.0013030165573582053
-0.0034009891096502542
-0.000352387287421152
0.0035048688296228647
-0.0016837259754538536
0.0015363257844001055
0.0031324380543082952
-0.0017252006800845265
-0.006009421311318874
-0.004413859453052282
-0.004216907545924187
0.0007896897150203586
0.0016660135006532073
0.0023253518156707287
0.0032238916028290987
-0.0012035014806315303
0.0023069162853062153
-0.0015432699583470821
-0.002893049269914627
-0.0009723195689730346
-0.0040438552387058735
0.001963438233360648
-0.0014275314752012491
0.0006481664604507387
-0.0008412609458900988
-0.001661071553826332
0.0008572276565246284
0.0017071780748665333
0.0038792388513684273
0.0005478477105498314
0.0009826155146583915
-0.001698574866168201
-0.0006425542524084449
0.0014920703833922744
0.0023719097953289747
0.0008397263591177762
0.0005741107161156833
-0.0012406145688146353
0.0011215230915695429
-0.005641431547701359
0.0013360024895519018
-0.0008457492222078145
-0.007009826600551605
-0.002237823326140642
0.0016334403771907091
0.003080779919400811
0.00030950439395383
0.0010691400384530425
0.004105192609131336
-0.004482586868107319
-0.0008720121113583446
0.0031084928195923567
-0.008264249190688133
0.003029198618605733
-0.004909220617264509
0.001157978200353682
-0.0011285904329270124
-0.0035223953891545534
-0.002681178040802479
6.776047666789964e-05
-0.005841832607984543
-0.003476368961855769
0.0028058940079063177
-0.0037045276258140802
-0.00042727155960164964
0.001602502423338592
-0.0021516475826501846
0.0024684772361069918
-0.0035848631523549557
-0.0014356396859511733
-0.003766007721424103
0.0011085548903793097
0.0005594415706582367
-0.006548580247908831
4.65926905235392e-06
0.0017341093625873327
-0.0020774593576788902
0.0015819796826690435
-0.0008802492520771921
-0.0022121428046375513
-0.0006334401550702751
0.00017621269216760993
0.0012274624314159155
-0.0010876122396439314
0.00045926024904474616
0.0005666138604283333
0.0014546652091667056
-0.0001465652312617749
0.002104582032188773
-0.002756864530965686
-0.0005670941900461912
-0.00277581880800426
0.0025178047362715006
-0.000977913849055767
-0.0031427182257175446
-0.00014139820996206254
0.000699381111189723
-0.002814787905663252
0.0034882347099483013
0.0012479230063036084
-0.0006638529011979699
-0.0017218455905094743
0.00020556974050123245
5.057443195255473e-05
-0.0011752353748306632
-0.002010257449001074
0.0005220926250331104
0.0013708523474633694
0.0017939790850505233
0.0029945638962090015
0.0022087623365223408
-0.0014805382816120982
-0.001962716691195965
0.00017633677634876221
0.001963746501132846
-0.000582115666475147
-0.0023341116029769182
0.0015552231343463063
0.0021571642719209194
0.001609038095921278
-0.0020824847742915154
0.001621931791305542
-0.004957632627338171
0.0020278156735002995
0.0015604087384417653
0.0007042389479465783
0.003122509690001607
-0.004147885832935572
6.727327854605392e-05
0.0011454904451966286
0.004452194087207317
0.002050576498731971
0.008063249289989471
0.0012656949693337083
0.00040886044735088944
-0.0015604159561917186
-0.0001877141185104847
0.0006720377132296562
0.0033959748689085245
0.000566490285564214
-0.005078527145087719
0.0023428385611623526
-0.001026818761602044
0.00039119046414270997
0.0014587696641683578
0.001128108357079327
-0.00045038259122520685
4.385349529911764e-05
0.0014304490759968758
-0.002059085527434945
-0.003785007866099477
-0.0012715436751022935
0.0011417955392971635
-0.003145235124975443
0.000429297739174217
-0.00191063794773072
-0.0025819505099207163
0.0013241885462775826
-0.002298015169799328
-0.0021696563344448805
-0.0014464054256677628
5.667224741046084e-06
7.502040534745902e-05
0.0016117540653795004
6.208622653502971e-05
-0.0036377953365445137
-0.0023174507077783346
-0.0004811892576981336
-0.0022942645009607077
0.0004199539835099131
-0.002939131809398532
-0.0023004943504929543
-0.002119330456480384
-0.0008076932281255722
-0.0038536139763891697
-0.0003256361815147102
0.002527209697291255
0.00018501003796700388
0.0007410182151943445
-0.001356541528366506
-0.005333146546036005
-0.0007783703622408211
0.002873209537938237
0.004796547815203667
0.001486044144257903
0.001660226029343903
-0.003352252533659339
-9.791333286557347e-05
0.002014737343415618
0.0025108761619776487
0.0026933394838124514
0.0019035355653613806
-0.0010737462434917688
0.0016128619899973273
0.0006087670335546136
-0.002091093920171261
-0.010087286122143269
-0.0003021328302565962
-0.00643585342913866
0.00039875254151411355
-0.002419845201075077
-0.0011784133967012167
0.0022148462012410164
0.003068361198529601
0.00360958743840456
0.004739438649266958
0.0010918808402493596
0.0015596520388498902
0.006250336300581694
0.0006961727631278336
-0.0017401296645402908
0.0002726193342823535
-0.0001422203640686348
-0.0012936206767335534
-0.001116161118261516
0.002420506440103054
0.007375487592071295
-1.4996837307990063e-05
-0.001138511230237782
-0.0014217402786016464
-0.004205919802188873
-0.001822959748096764
-0.0002970523200929165
-0.0010028473334386945
0.0006653571035712957
-0.004390912130475044
0.0006461137090809643
0.0006227842532098293
-0.002546109724789858
0.0008808502461761236
0.0023005183320492506
7.287954213097692e-05
-0.0022064577788114548
0.00157253909856081
-0.0011861884268000722
-0.001797477132640779
0.0014021981041878462
0.002584235742688179
-0.0009485662449151278
0.005835626274347305
-0.0004486767575144768
0.0018120103050023317
-0.0024099955335259438
-0.0015710053266957402
0.0029153376817703247
0.005005020182579756
0.0071507468819618225
-0.00019760377472266555
0.004304977599531412
0.004545408766716719
-0.00022274465300142765
-0.0005238708108663559
-0.0009477000567130744
0.0009207725524902344
0.00445502670481801
4.73590953333769e-05
0.0038222719449549913
-0.0013157343491911888
7.653364446014166e-05
6.514283450087532e-05
0.0021434917580336332
-0.0016929160337895155
0.0015619794139638543
-0.002306106500327587
-0.0005449216114357114
0.000977974385023117
0.0007548115681856871
-0.003555974690243602
-0.0025091299321502447
-0.0007877002935856581
0.003212954616174102
0.0009340978576801717
0.0007433026330545545
0.0012167416280135512
-9.993527055485174e-05
-0.0034345106687396765
-0.0037935490254312754
-0.0017784351948648691
-0.002924247644841671
0.0011694405693560839
0.005010451190173626
-0.000955859781242907
-0.0011033370392397046
-0.0025011703837662935
-0.0023988354951143265
0.002125172410160303
0.0043370695784688
0.00032024941174313426
-0.0008561084396205842
-0.0016860893229022622
0.001227672561071813
-0.0016410199459642172
0.00020729292009491473
6.13910669926554e-05
0.0035065978299826384
0.001665041083469987
-0.0020236412528902292
0.002585739130154252
0.0010093840537592769
-0.0006362290005199611
0.0014653452672064304
0.001288553699851036
0.00032516554347239435
0.0007466894458048046
0.001547112944535911
0.0006332973716780543
-0.006629332434386015
-0.004376603290438652
0.002709185006096959
-0.0007514298777095973
-0.001422458910383284
-0.00013098918134346604
-0.006091980263590813
0.0006189067498780787
-0.0017726171063259244
0.005161745473742485
0.003364712931215763
9.659244824433699e-05
-0.0002063397696474567
-0.00010597491200314835
-0.0024747715797275305
-0.0008214790723286569
-0.0001352024992229417
0.00010935586033156142
-0.0019517437322065234
-0.0016916487365961075
-0.0009322105906903744
-1.7071026377379894e-05
-0.00019658509700093418
-0.0010960199870169163
0.00160129030700773
0.0002462205302435905
-0.0019302568398416042
0.0006316328071989119
-0.003134039230644703
-0.0007365605561062694
-0.0019725090824067593
-0.0018511618254706264
0.0015019855927675962
0.007404275704175234
3.3320276997983456e-05
0.00041003921069204807
-0.003325361292809248
-0.003994581289589405
-0.001822696067392826
-0.0005420683301053941
0.0018508026842027903
-0.0017007675487548113
-0.0017272745026275516
-0.0028125522658228874
0.0010107578709721565
0.000417613162426278
-0.0008173679234459996
-0.0007864836952649057
-0.0006104459171183407
0.004266781732439995
-0.0005403542309068143
-0.0046745967119932175
0.0025232508778572083
0.0029694954864680767
0.003808962181210518
0.003606482408940792
0.005270242225378752
0.0018284081015735865
0.00011236494174227118
-0.0014493061462417245
-0.0009861438302323222
-0.0014431781601160765
-0.00020532714552246034
0.0017570189666002989
-0.0006361142150126398
-0.0016800161683931947
9.82563869911246e-05
0.000824256450869143
-0.0008973300573416054
0.0020714858546853065
-0.009648425504565239
0.0003272408794146031
0.0007182112312875688
-0.00311057036742568
0.0011501769768074155
-0.0003267950960434973
-0.002204363467171788
-0.0016516869654878974
5.380338916438632e-05
-0.0007559555233456194
-0.0020433994941413403
5.401714952313341e-05
-0.0034936920274049044
-0.0010091911535710096
0.004012841731309891
-0.0005728115793317556
0.0019154766341671348
-0.004570811986923218
0.0023154618684202433
0.0011070981854572892
-0.0010576214408501983
-0.0011633764952421188
-0.0009223764063790441
-0.002788117155432701
0.0005689655081368983
-0.0016773744719102979
-0.0037912162952125072
0.0005429580924101174
-0.00174270523712039
-0.0009663561941124499
-0.002302616834640503
0.0006592095014639199
-0.002021204913035035
0.002605290152132511
-0.0010834189597517252
-0.004623789340257645
0.001731516094878316
0.0010216202354058623
0.0029306444339454174
0.0014864389086142182
-0.0018718400970101357
-0.003759949002414942
-0.0007697847322560847
-0.0047952597960829735
-0.008496155962347984
-0.00021295060287229717
0.0027218128088861704
0.001467043999582529
0.00020690845849458128
0.003053136635571718
0.004713824950158596
0.0027300689835101366
-0.0027678641490638256
-0.0017659422010183334
-0.0034964759834110737
0.000842123874463141
0.001141574583016336
0.00011355329479556531
0.0016692823264747858
-0.0002037295635091141
0.00011168857599841431
-0.001709644915536046
-0.0012722349492833018
0.0034757829271256924
-0.0017339454498142004
0.0027023551519960165
0.0012640567729249597
-9.258067620976362e-06
-0.005924905184656382
0.001733068493194878
-0.003232679795473814
-0.0012979113962501287
-0.001554997987113893
-0.0025657948572188616
-0.002241398673504591
-0.0023838430643081665
0.0027966033667325974
-0.0022487551905214787
-0.0020431200973689556
-0.0005829565925523639
-0.0026590838097035885
-0.0016067571705207229
0.0018769069574773312
0.001504675019532442
-0.001989127369597554
-0.0034409600775688887
-0.002707139356061816
0.00034129215055145323
-0.0003941914765164256
-0.003169747767969966
-0.0022146666888147593
0.00013446577941067517
-0.005399531684815884
-0.006219850853085518
-0.00312775163911283
-0.0047718314453959465
0.0009457888081669807
0.0018217491451650858
-0.0010812705149874091
0.001631507184356451
0.000409610103815794
-0.0005242511979304254
-0.0009695010958239436
-0.001773018972016871
-0.003088844707235694
-0.0022416883148252964
0.00013064111408311874
0.000856077647767961
0.003193063195794821
0.004991373047232628
0.0005359066417440772
-7.254637603182346e-05
-0.0021646677050739527
-0.001106307958252728
-0.0003827381879091263
0.0015666288090869784
-0.004327319096773863
0.0029989941976964474
0.0010588255245238543
0.004246509168297052
0.00039073306834325194
-0.0031316878739744425
0.006484395824372768
0.00032351273694075644
0.03492523357272148
0.02670161984860897
0.014180740341544151
-0.01216834131628275
0.001972733996808529
0.016462430357933044
-0.01235654205083847
0.0223280880600214
-0.018503349274396896
-0.05266962945461273
0.06467071175575256
0.02441577799618244
0.0041729845106601715
0.03887251019477844
-0.0026157640386372805
0.013862625695765018
-0.003209067741408944
-0.008781307376921177
-0.026164233684539795
0.024854369461536407
0.014866975136101246
0.0020134304650127888
0.022894015535712242
0.003907616715878248
-0.031664907932281494
0.003890994004905224
0.03169606253504753
-0.0034901562612503767
0.023536769673228264
0.01818174682557583
-0.01344048511236906
-0.007383996620774269
0.006012602709233761
0.0048776292242109776
-0.01670018583536148
0.002698445226997137
0.017269594594836235
-0.005273961462080479
0.008435421623289585
0.0015243133530020714
-0.015259774401783943
0.016106313094496727
-0.001774848555214703
0.03156700357794762
-0.014813274145126343
0.0002140753058483824
0.009558573365211487
-0.01245134323835373
-0.018507104367017746
0.026828184723854065
-0.008000164292752743
-0.012653334066271782
-0.0374322235584259
0.05172867700457573
-0.012213077396154404
-0.02309720404446125
0.030529139563441277
-0.03324899077415466
-0.020165223628282547
0.047901321202516556
0.012526229955255985
0.0026704866904765368
0.008714930154383183
-0.019393302500247955
-0.0024966690689325333
0.0036742519587278366
-0.005589634645730257
-0.0064880987629294395
-0.007565564475953579
0.04245463013648987
-0.006936909165233374
-0.0070922416634857655
0.026198890060186386
-0.013176927343010902
-0.032135479152202606
0.04116138815879822
-0.01103133987635374
-0.021511469036340714
-0.00997562799602747
0.010972877964377403
0.01633530482649803
-0.004168190993368626
0.0017264345660805702
0.015245888382196426
-0.004095607437193394
0.007970460690557957
-0.01905643939971924
-0.002411179943010211
0.022999316453933716
-0.01073059905320406
-0.012822654098272324
0.012865765951573849
0.005734148435294628
0.0012644421076402068
0.006702640559524298
-0.006151891313493252
-0.010106395930051804
-0.029526324942708015
-0.003793153213337064
-0.0003233547613490373
4.450829146662727e-05
0.000598098908085376
-0.0066916849464178085
0.003577658673748374
-0.0032320749014616013
0.006524380762130022
0.014962287619709969
-0.005291629582643509
0.0343695804476738
0.02654866687953472
-0.0060209352523088455
-0.008681588806211948
0.006757166236639023
0.00971583928912878
0.003867475315928459
-0.008729242719709873
0.010874951258301735
0.00647005345672369
0.0023757570888847113
-0.006348571740090847
0.008825886063277721
-0.022761542350053787
0.012041152454912663
-0.007000515703111887
-0.007652402389794588
0.014360243454575539
-0.01937059685587883
0.028644179925322533
0.03638936206698418
-0.004872551187872887
-0.004969273693859577
0.02817351557314396
0.018469545990228653
0.00960615649819374
0.0020449080038815737
-0.004122426733374596
-0.01789291575551033
0.02807077206671238
0.003963334485888481
-0.0038613940123468637
0.004182841163128614
0.0029970102477818727
-0.006495489738881588
-0.015424123033881187
-0.020278889685869217
-0.028786400333046913
0.01454655546694994
-0.027092738077044487
-0.003373797284439206
0.01873701624572277
0.0005601165466941893
-0.0005504803266376257
-0.0030191894620656967
-0.001364142750389874
-0.0015811327612027526
0.0014778022887185216
3.3315668588329572e-06
0.0006411859067156911
-0.0008955822559073567
-0.011383424513041973
-0.010601787827908993
0.01812087371945381
-0.015317333862185478
0.007641245611011982
0.0169838834553957
0.016581136733293533
-0.008739357814192772
-0.005228082183748484
-0.04237380251288414
0.00930408388376236
0.004937190096825361
-0.00042507899343036115
0.00714246928691864
0.03596242889761925
-0.00744270533323288
-7.709550118306652e-05
0.00466387951746583
0.014467895030975342
-0.007732154335826635
0.005071713123470545
-0.0004981693346053362
-0.03322358429431915
0.008372641168534756
0.005146592389792204
0.006642651278525591
-0.00346254650503397
0.0017718462040647864
0.018359223380684853
0.010705355554819107
0.009745963849127293
0.03394651785492897
0.011276218108832836
-0.011727632023394108
0.016863008961081505
0.012711510062217712
0.004819473251700401
-0.03129007667303085
0.019711662083864212
0.011178451590240002
-0.026749413460493088
-0.0022982032969594
-0.0056255050003528595
-0.009060232900083065
0.03748578205704689
0.010414007119834423
0.00814770720899105
0.01908932253718376
-0.0022106377873569727
-0.02230587787926197
-0.010264411568641663
-0.0032424465753138065
-0.0013841711916029453
-0.0009685581899248064
-0.0074935476295650005
0.009770220145583153
-3.5098264561383985e-06
-0.006293734535574913
0.01613982953131199
-0.003020044881850481
0.0026681027375161648
0.01096144039183855
0.01653113402426243
0.008944761008024216
0.026007050648331642
0.0006670509465038776
0.010878585278987885
0.007723038084805012
0.018145903944969177
0.017385274171829224
0.012125701643526554
0.003052208572626114
0.0040182978846132755
-0.007823562249541283
-0.004060626029968262
0.027546489611268044
-0.0033359136432409286
-0.02713078260421753
0.014489221386611462
0.006685755215585232
-0.01599894091486931
-0.007825634442269802
-0.006350673269480467
-0.016356205567717552
-0.007756100967526436
-0.014783711172640324
0.0002171640080632642
0.0027963740285485983
-0.00726113049313426
-0.0097388019785285
-0.0010122678941115737
0.0004451335989870131
0.014598429203033447
-0.01602748967707157
0.007199573330581188
0.008610355667769909
-0.015249422751367092
0.005063233431428671
-0.005623671691864729
0.014418690465390682
0.003991896286606789
0.02049747109413147
-0.010116619057953358
-0.01145140826702118
0.012899230234324932
-0.012632742524147034
0.010416615754365921
0.001326829195022583
0.011897498741745949
0.005591686349362135
0.038307350128889084
-0.011113635264337063
0.013637499883770943
0.02496560662984848
-0.0006868198979645967
0.00781999435275793
0.012650774791836739
0.013649365864694118
0.020037196576595306
-0.03483216091990471
0.0014630083460360765
0.023816075176000595
-0.007178490981459618
0.0019598801154643297
0.0374373234808445
-0.012807974591851234
-0.012587872333824635
0.012037954293191433
-0.009598697535693645
0.01880638115108013
-0.0019747999031096697
0.010403295047581196
0.005702175199985504
0.028584616258740425
0.00393249886110425
-0.023876123130321503
-0.007722975220531225
0.010605530813336372
0.02716228924691677
-0.006602830719202757
0.0001928084675455466
0.005108548328280449
-0.01905149593949318
-0.004017875995486975
0.022647732868790627
0.0005510810879059136
-0.002953663934022188
0.007554269395768642
0.020798709243535995
-0.020085692405700684
-0.0003685485280584544
-0.023474713787436485
0.006930883042514324
-0.00937080942094326
0.00710599310696125
-0.024740474298596382
-0.004043964669108391
0.011029466055333614
-0.014873893931508064
0.003887593513354659
0.006011559162288904
0.0035743655171245337
-0.02652955986559391
0.0007880325429141521
0.010807073675096035
0.002410393673926592
-0.012515904381871223
0.0075058965012431145
-0.01720425859093666
0.025066398084163666
0.006093121599406004
-0.005948648322373629
-0.021361472085118294
0.0055941310711205006
-0.005872052162885666
-0.03000236116349697
-0.002852490870282054
-0.02414124459028244
-0.01622687838971615
-0.00883614644408226
0.00033312212326563895
0.011178229935467243
-3.997218300355598e-05
-0.001507346983999014
0.005623491480946541
0.0026850115973502398
-0.008359869010746479
-0.012151741422712803
-0.00023941509425640106
-0.003372781677171588
-0.0010580626549199224
0.029524311423301697
-0.005857640411704779
-0.00236581452190876
0.032473739236593246
-0.0014820625074207783
-0.00459746178239584
0.0037419660948216915
0.003267295192927122
-0.0006598597974516451
-0.0015454590320587158
-0.001447966555133462
0.007067789789289236
0.0022650521714240313
-0.005734737031161785
0.0038254649844020605
-0.003673114348202944
0.013302666135132313
-0.015657272189855576
-0.02876289188861847
0.03829849138855934
-0.008390369825065136
-0.04328874126076698
-0.0009033457026816905
-0.013942137360572815
-0.012997396290302277
0.011249959468841553
-0.02332676202058792
0.0018360549584031105
-0.010949769988656044
-0.003434740239754319
-0.007790735457092524
0.0022425660863518715
0.017158476635813713
0.041564375162124634
-0.0195382758975029
-0.03047122061252594
0.00790568720549345
-0.005222423002123833
-0.01053620409220457
-0.016391966491937637
-0.01187742967158556
-0.024574019014835358
0.002120988443493843
-0.008004721254110336
-0.001817486248910427
-0.013705126009881496
-0.01509425975382328
0.019283218309283257
0.0014187979977577925
-0.0020938515663146973
0.005233047995716333
-0.0057851956225931644
-0.000920910038985312
0.0006653550080955029
-0.0001459926279494539
-0.0008413379546254873
-0.00020422133093234152
0.00278415996581316
-0.0010473969159647822
-0.0004081407387275249
0.0036509709898382425
0.011140609160065651
-0.014955283142626286
0.016530632972717285
-0.0005108114564791322
0.025470148772001266
0.0023819003254175186
0.0027535452973097563
0.006926326081156731
0.019803358241915703
-0.00900738313794136
0.00990062765777111
-0.009138067252933979
0.00014223689504433423
0.03440893813967705
0.038115303963422775
-0.012030977755784988
0.029065901413559914
0.013289552181959152
-0.0076499516144394875
0.007922589778900146
0.0034915669821202755
-0.007967835292220116
0.0031033484265208244
0.032881028950214386
-0.015233582817018032
0.000918291334528476
-0.006452486384660006
-0.02061655931174755
0.02130354568362236
-0.005050644278526306
-0.004043943248689175
0.021258773282170296
0.005933323409408331
0.003994379658252001
-0.008057286962866783
0.0055860490538179874
-0.004852781072258949
-0.014931457117199898
0.00034116877941414714
0.010588564909994602
-0.02326910011470318
0.020665278658270836
0.004072480369359255
-0.020766785368323326
0.058073852211236954
0.0116119384765625
-0.03042335994541645
0.038832224905490875
-0.002406129613518715
0.010260382667183876
0.014896517619490623
0.01026113424450159
-0.012790829874575138
0.024919282644987106
-0.01174273993819952
0.02643914520740509
-0.024604007601737976
0.016104716807603836
0.00425449013710022
-0.012810118496418
0.010729295201599598
0.0054413736797869205
-0.00870520155876875
0.03152071684598923
0.010514013469219208
-0.018770430237054825
0.04151422530412674
0.02898486703634262
-0.02548135071992874
0.024532556533813477
0.022174464538693428
-0.017540577799081802
0.003904113080352545
0.019758395850658417
-0.026314303278923035
-0.020560631528496742
0.03755656257271767
0.00396730238571763
0.0012380352709442377
0.02139902301132679
-0.03366396576166153
-0.0031167613342404366
0.012717027217149734
-0.014136798679828644
-0.0006997167365625501
0.0038803021889179945
-0.011484825983643532
0.0005726434756070375
-0.012279647402465343
0.002159843221306801
-0.0065076956525444984
-0.02550365962088108
-0.0161531213670969
0.02571750618517399
0.002150401473045349
-0.002546363277360797
-0.001275654067285359
-0.01703806035220623
-0.009888426400721073
-0.002027008216828108
-0.0011776635656133294
0.01931881159543991
0.0013669119216501713
-0.015128478407859802
0.0045926133170723915
0.013845687732100487
-0.03109494224190712
0.0004713738162536174
0.0016971800941973925
0.0038975998759269714
-0.005940240807831287
-0.0064260889776051044
0.005789784714579582
0.021271485835313797
0.01069141086190939
-0.0014858620706945658
0.0025342267472296953
0.012216629460453987
0.017690453678369522
0.00316598336212337
0.006608768366277218
0.026503583416342735
0.021430911496281624
0.015564589761197567
0.015783891081809998
0.0027045123279094696
6.805735756643116e-05
-0.0019151088781654835
-0.0010399704333394766
-0.01176558155566454
0.004568333737552166
-0.01438937522470951
0.0013838852755725384
0.023114660754799843
-0.012238922528922558
-0.006964783649891615
0.014026235789060593
-0.005187968723475933
-0.0019341213628649712
0.011668344959616661
0.011490627191960812
0.009350628592073917
-0.002146685030311346
-0.008611868135631084
-0.019421963021159172
0.023211762309074402
-0.01996651291847229
-0.008825854398310184
-0.0007024277583695948
-0.007375385146588087
-0.003913550172001123
0.007255719043314457
0.007991788908839226
0.005645746365189552
0.002032999647781253
-0.011847135610878468
0.006132281385362148
0.010686421766877174
0.000852431810926646
0.019035542383790016
0.029563793912529945
-0.004609818570315838
-0.0010208714520558715
-0.003967041615396738
0.0015781729016453028
-0.0016422549961134791
0.0025833253748714924
0.0015609924448654056
-0.0008161492296494544
-2.847460564225912e-06
-0.00041108441655524075
0.0013781971065327525
-0.00198337878100574
-0.0006189376581460238
-0.0002782552328426391
-0.0010525621473789215
0.0015101293101906776
-0.0008583949529565871
-0.0025911356788128614
0.00010958482016576454
0.0009211316937580705
-0.000732039159629494
-0.0002829923469107598
-0.0004804326163139194
-0.000542887719348073
-0.0003121253103017807
-0.0007809355738572776
-0.0009328774176537991
-0.0011376923648640513
0.000616078672464937
-0.000343541381880641
0.0017789526609703898
7.772244862280786e-05
-0.0013251773780211806
-0.00037822540616616607
-0.000886705587618053
-0.003617103211581707
-0.00206695101223886
4.1775652789510787e-05
-0.000611478288192302
-0.00085551937809214
-0.0018625246593728662
-3.545752406353131e-05
-0.0001848128013079986
0.0007298187119886279
-0.0009113776031881571
0.002915950957685709
-7.603096310049295e-05
0.0013520725769922137
-0.0016658263048157096
0.0008501498959958553
-0.0006983771454542875
0.0025383138563483953
-0.0024810703471302986
-0.0019604649860411882
-0.0014110748888924718
-0.0006973292911425233
-0.0013274551602080464
-0.0009520115563645959
0.0001304780162172392
-0.0009677794296294451
0.005654575303196907
-4.213394277030602e-05
-0.00022291131608653814
0.00013924119411967695
-0.0014197150012478232
-0.001676650601439178
0.0008482920820824802
-0.001634740037843585
-0.0018038185080513358
-0.001154840225353837
0.002380069112405181
-0.00036657555028796196
0.000836942985188216
0.0007423686911351979
-0.0002428179286653176
0.0001276524708373472
-0.00032997934613376856
0.001627851859666407
-0.0004786236386280507
0.0004547071876004338
0.00018940476002171636
-0.0011784235248342156
-0.0007362230680882931
-0.0015121392207220197
-0.000434677378507331
0.0001012337816064246
-0.0007539026555605233
-0.0003956854925490916
-0.0001702530134934932
0.0007873722934164107
-0.0011864755069836974
-0.002297871746122837
6.977016164455563e-05
0.0013039350742474198
0.003629369428381324
-0.0008437786600552499
-8.423864346696064e-05
-0.0002529661578591913
-0.0006046327180229127
0.0012691612355411053
-0.0018548256484791636
-0.00136262783780694
-0.0002901249681599438
-8.424935367656872e-05
0.000242175767198205
0.00047774388804100454
0.00026090964092873037
-0.00023894786136224866
-0.00020801906066481024
0.00013070549175608903
-0.0012672182638198137
0.0008622740861028433
0.0019272452918812633
-0.0006794933578930795
0.00010654873040039092
0.0020885260310024023
-0.001741689397022128
-0.0005338514456525445
0.0006965032080188394
0.0003876824339386076
0.0007267394685186446
-0.0003127290401607752
-0.0008530111517757177
-0.00042863027192652225
4.2563122406136245e-05
-0.0014826180413365364
-0.0005490438197739422
-0.0004354259872343391
-0.0016799160512164235
0.001090474659577012
0.00014360023487824947
2.3006891751720104e-06
0.0018641070928424597
-0.00029050960438326
0.001597846276126802
0.0007372337859123945
0.0005448692827485502
0.0013718216214329004
-0.0014583839802071452
-0.0008151863003149629
-0.0010375422425568104
0.0022537577897310257
-0.0017239676089957356
-0.002764269011095166
0.0029582036659121513
0.00015231304860208184
-0.0001724880130495876
0.0006966221262700856
0.0024640806950628757
0.006351019721478224
0.0006780285038985312
0.0008108644396997988
-0.001667451811954379
-0.0006524588679894805
-0.0010729122441262007
-0.00031333600054495037
0.0009166702511720359
-0.000982997240498662
-0.00012009630881948397
-0.0012704315595328808
-0.0005033672205172479
0.0020357579924166203
0.00035513279726728797
-0.0008572856895625591
-0.0005841783713549376
-0.0017857765778899193
0.001250103465281427
0.005123790819197893
0.0001639596448512748
0.0007947708363644779
-0.0019404030172154307
-0.0006698441575281322
-0.0005416743806563318
0.0029203074518591166
5.402493115980178e-05
-0.0010412642732262611
0.0008048603194765747
-0.000161948220920749
-0.0004315075639169663
-0.004564873408526182
0.0044314139522612095
-0.0001734216493787244
-0.000209388104849495
0.0007408297969959676
-0.004586649127304554
-0.0012834029039368033
0.0011872119503095746
-0.00025710821500979364
0.0009845929453149438
0.0026516984216868877
0.0006272931350395083
-0.0013096006587147713
-0.0032143066637218
0.00035552805638872087
5.633907494484447e-05
-0.0006015772232785821
-0.007100071758031845
0.00027446247986517847
0.0007784494664520025
-0.0008628838695585728
0.0013952719746157527
0.001434935606084764
0.00026592047652229667
0.002618891652673483
-0.0024380998220294714
-0.00023205892648547888
-0.005027044098824263
-0.0006702156970277429
0.0009901522425934672
-0.0022119050845503807
-0.0007406324148178101
0.0011173798702657223
-0.0005167603958398104
-0.0013613137416541576
0.00570630794391036
-0.000245821283897385
0.001076194690540433
0.0005374706815928221
0.004168745595961809
0.0020112604834139347
0.0007145840208977461
0.0007883245125412941
-0.002770655555650592
0.0008584343595430255
-0.0003860655415337533
0.0017085293075069785
-0.0013921167701482773
-0.001080768764950335
0.0005690073012374341
0.004011966288089752
-8.676333527546376e-05
0.000453352666227147
0.0005862786201760173
0.0002369761496083811
-0.0005299070617184043
0.0005724247312173247
-9.039666474564001e-05
-0.00025036983424797654
-0.0016630544560030103
0.0009743364062160254
-0.00217052991501987
-0.0009442961891181767
-1.5035040632938035e-05
-0.001567915198393166
-0.0017701346660032868
-0.0026389851700514555
-0.0009024501196108758
-0.0011155855609104037
-0.0004901738138869405
-0.0006115291616879404
-0.0011145019670948386
-0.0006547719240188599
0.012283673509955406
-0.0005015169153921306
-0.00042842948460020125
-0.0006030892836861312
0.004769945051521063
-0.001404728856869042
0.0032612031791359186
0.0018205324886366725
-0.00042541479342617095
-8.933171193348244e-05
-0.00010140343511011451
0.0002869732561521232
0.0014855380868539214
-0.0004255229141563177
-0.0018772328039631248
-0.0008749164408072829
-0.00028328673215582967
0.002631004201248288
-0.00013092157314531505
-0.00022672746854368597
-0.0006183807272464037
0.0003869648789986968
-0.001001195516437292
-0.0014175275573506951
-0.0021117792930454016
0.0003333736676722765
0.0021663981024175882
0.00022938178153708577
-0.0004027479444630444
0.0007828391389921308
-0.0007931740838102996
0.0015149994287639856
-0.0037248635198920965
0.0010792468674480915
-0.0003841012076009065
0.00013124239922035486
-0.0015776962973177433
-0.001569807413034141
0.00026526013971306384
-0.0009738554363138974
0.0002934934163931757
0.0023106916341930628
0.001241470454260707
-0.002116808667778969
-0.0011514865327626467
5.855691051692702e-05
-0.0007067978731356561
0.0004827863012906164
-0.0008952071075327694
0.0009466055780649185
-0.0004232379433233291
0.0033955336548388004
-0.0013195326318964362
-0.0007355562993325293
0.0016048630932345986
-0.0014928620075806975
-0.0006047451170161366
-9.645053796702996e-05
-0.000557925901375711
-0.0011177214328199625
0.00014133655349723995
-0.00011656117567326874
-0.0005117607652209699
-0.0013590657617896795
0.0018366413423791528
0.000652315909974277
-0.000941453268751502
0.0005976302199997008
0.0028311992064118385
0.002878556726500392
-5.677032459061593e-05
-0.00044284193427301943
-0.00017310481052845716
0.0011977192480117083
-0.0025486100930720568
0.0006429848726838827
-0.0016879166942089796
-0.0003214255557395518
-0.0002863571571651846
2.4683477022335865e-05
-0.0003972745325881988
9.997457527788356e-05
-0.0010289819911122322
0.004778046160936356
-0.0008860114612616599
-0.0017364344093948603
-0.00016776412667240947
0.00019422333571128547
0.0004623402201104909
0.00016413102275691926
0.0004308536881580949
0.0016398680163547397
0.0011798281921073794
-0.0002665684442035854
0.00029133542557246983
-0.0004391685361042619
-9.845849490375258e-06
6.429532368201762e-05
-0.0018425567541271448
7.21068681741599e-06
0.00018286638078279793
-0.000348125584423542
0.0019553222227841616
0.0003880485310219228
-0.0003747051814571023
0.00021975519484840333
-0.0011813273886218667
-0.0020655114203691483
0.002156667411327362
-7.812007243046537e-05
-0.0005098278634250164
-0.003219829173758626
-0.00010572619794402272
0.0006361539708450437
-6.034371835994534e-05
-0.0002008377923630178
-9.094652341445908e-05
-0.0004287897318135947
-4.409144457895309e-05
0.001468028174713254
2.9620468922075815e-05
-0.0034048634115606546
0.0005245381034910679
0.0008102892898023129
-0.0014661734458059072
-0.0004398236924316734
0.00048717972822487354
0.0020228743087500334
-0.0012738688383251429
5.577068350248737e-06
-0.0011894195340573788
-8.572875231038779e-05
-0.0004818354791495949
0.001044168951921165
0.00031596439657732844
0.0008199201547540724
0.001249957364052534
-0.0016211610054597259
-0.00036638835445046425
-0.0005106264143250883
-0.0018885446479544044
0.0005145548493601382
0.00018982953042723238
7.955470937304199e-05
0.0007854927680455148
0.00012528851220849901
-0.0011145620374009013
0.00035280370502732694
0.00028361554723232985
0.001018791925162077
-0.002223256742581725
0.0002037592203123495
0.0011025344720110297
0.0010467044776305556
0.0006645972607657313
-0.00339249218814075
-0.0010450787376612425
-0.00048627067008055747
0.0011920272372663021
-0.0013024506624788046
-0.000667620450258255
0.0011038773227483034
0.0010044783120974898
0.0009346906444989145
0.00023109839821700007
-0.001489486894570291
-0.0012416302924975753
-0.0012901389272883534
-0.00029163260478526354
-0.0013589871814474463
0.0030580521561205387
-0.000883078551851213
-0.000833881669677794
-0.004911279771476984
-0.00014762452337890863
0.0011172486701980233
0.0009644366218708456
0.000923499115742743
-0.00022432423429563642
0.0012867706827819347
-0.0007941424264572561
-0.0011878496734425426
0.0008350737625733018
-0.0023791019339114428
-0.003970759455114603
0.0007746666087768972
4.5640965254278854e-05
0.00046074166311882436
-0.00254095159471035
0.0005943679716438055
-0.0008318432956002653
-0.0006157251773402095
-0.0005367408157326281
-0.00044252409134060144
0.0017698133597150445
0.001390258432365954
-0.0016647095326334238
-0.001291021704673767
-0.000620940700173378
-0.0005640071467496455
0.0001454962184652686
0.0031553038861602545
-0.003287283703684807
-0.0026453188620507717
0.004224191419780254
-0.0016019927570596337
0.0002937747922260314
0.0022997716441750526
0.0004412718117237091
-2.4163340640370734e-05
0.00501265749335289
-0.0006345913861878216
0.0009323087288066745
-0.0022788948845118284
-0.0007009890396147966
-0.0024203425273299217
-0.00017756843590177596
0.0013762905728071928
-0.0009269383735954762
0.002884790999814868
-0.0007838795427232981
0.0008292488637380302
0.0033373995684087276
0.0019896470475941896
0.002355286618694663
0.002685955725610256
-0.0006557704764418304
-0.0006228134734556079
-0.0007836743025109172
-0.0025177793577313423
-0.00284396018832922
0.00047950129373930395
-0.0045671891421079636
0.00019144367252010852
-0.001218120683915913
-0.0007644720608368516
0.00019769642676692456
0.000803713861387223
9.348484309157357e-05
-0.002123552607372403
0.0008025598363019526
-0.0003816904791165143
-0.00415345374494791
0.0002981068391818553
0.00036083010490983725
0.0006867378251627088
-0.001160160987637937
-0.0012119371676817536
-0.0012300134403631091
-0.002149078296497464
-0.00032563877175562084
0.0013570351293310523
0.0015388871543109417
0.001858445000834763
0.0008686896762810647
-0.0009878254495561123
0.0007155055645853281
-0.003923796582967043
0.00041073132888413966
7.171973993536085e-05
-0.0008615828701294959
-0.0006157318712212145
-0.005079222377389669
-0.0027519972063601017
-0.0005010741879232228
0.0036980845034122467
-0.0003436572151258588
-8.548570622224361e-05
-0.0026764480862766504
-0.0002043379790848121
0.00040468579391017556
0.00017307997040916234
0.0008347193361259997
0.004080385435372591
-0.0011931922053918242
-0.0006139534525573254
-0.0032093797344714403
0.0005400058580562472
0.000660257413983345
0.0028299586847424507
-0.00017848789866548032
0.0003436048573348671
-0.0006787280435673892
-0.001282380078919232
-2.307348040631041e-05
-0.003669810714200139
0.005505710374563932
0.003940408118069172
-0.0021175979636609554
0.004770253784954548
-0.0016267267055809498
-0.0009835695382207632
-0.0013159406371414661
-0.00016054586740210652
0.00014397824998013675
-0.001403561094775796
0.0005916760419495404
0.001333059393800795
-0.000722232274711132
-0.0016612245235592127
-0.0011988960905000567
4.525808981270529e-05
5.182018503546715e-05
-1.1192109013791196e-05
-0.0009945768397301435
0.001391350175254047
-0.00029613697552122176
-0.00026928706211037934
-0.0016558084171265364
-0.0030052890069782734
0.0001884817611426115
0.003474232740700245
0.0016572216991335154
-0.0012488384963944554
0.0008524672593921423
-0.0011575778480619192
0.0009506630012765527
-0.0019118740456178784
-0.0009277993813157082
-0.0009231616277247667
7.400268077617511e-05
9.63705315371044e-05
-0.0006662430241703987
0.0021087396889925003
-0.0037644070107489824
0.0014587778132408857
0.021718880161643028
0.0312906876206398
0.05176958441734314
0.02482699602842331
-0.04832010716199875
0.07360555231571198
0.05031650513410568
-0.05317607522010803
0.02913643978536129
-0.06346561759710312
-0.037621304392814636
0.09175021201372147
-0.023731626570224762
-0.001882381271570921
0.04483814910054207
0.04459065571427345
-0.02146436646580696
-0.017472634091973305
-0.00905001349747181
0.009070460684597492
0.02644367143511772
-0.07354026287794113
-0.03038337640464306
0.08117397129535675
0.0018313636537641287
-0.013807108625769615
0.03314642608165741
-0.005936386063694954
-0.0014454260235652328
0.03604444861412048
0.03501733019948006
-0.00032544374698773026
0.009019075892865658
0.06741198152303696
0.00015474205429200083
0.010663644410669804
-0.004155371803790331
-0.01763196289539337
0.030736910179257393
-0.008598364889621735
-0.006066903937608004
0.04796059429645538
-0.011067978106439114
-0.0016294191591441631
-0.0043135215528309345
-0.00804339349269867
0.011963383294641972
0.004923379048705101
-0.060810431838035583
-0.022859666496515274
0.0416749007999897
-0.014125926420092583
-0.023565329611301422
0.015432139858603477
0.03430403396487236
-0.011121092364192009
0.04144486412405968
-0.024349648505449295
0.011068642139434814
0.0363338477909565
0.044846221804618835
0.005878713447600603
0.011187947355210781
-0.0018179643666371703
-0.01165329571813345
0.019124412909150124
0.0002469239116180688
-0.01166604459285736
-0.015474534593522549
-0.07236095517873764
-0.038499437272548676
0.05395043268799782
-0.009497647173702717
-0.049845125526189804
-0.016125068068504333
-0.012775072827935219
-0.021558862179517746
0.06888531148433685
0.03493032976984978
-0.016141200438141823
0.02132013812661171
-0.0237968098372221
-0.01716562546789646
0.02781994454562664
-0.04029127210378647
-0.022251132875680923
0.024784009903669357
0.05053400248289108
0.0062286583706736565
0.047012899070978165
0.0014894809573888779
-0.02493196539580822
0.05825725197792053
-0.0006550027756020427
-0.035083793103694916
0.00017918639059644192
0.028810756281018257
-0.03176271542906761
-0.0021096079144626856
-0.019020721316337585
-0.00286711729131639
0.018078770488500595
-0.009902123361825943
0.020200874656438828
-0.0026016458868980408
0.010628378950059414
0.013103167526423931
-0.035593967884778976
-0.07415226101875305
-0.0061004371382296085
0.00903942622244358
0.007342802360653877
0.031930942088365555
-0.02061343565583229
-0.04154035076498985
-0.01098570041358471
0.02809043414890766
0.024308398365974426
0.0015283838147297502
-0.024754494428634644
0.0037746746093034744
0.017040502279996872
-0.02552214078605175
0.019445033743977547
-0.0028552410658448935
0.01591283082962036
-0.006862711161375046
0.027364738285541534
0.07563724368810654
0.0043091238476336
0.019071772694587708
0.04030539095401764
0.08402980864048004
0.018990160897374153
-0.049725648015737534
0.015140309929847717
0.006174049340188503
-0.02919738180935383
0.005381092429161072
-0.003275530645623803
-0.028311552479863167
0.03301233425736427
0.0030815876089036465
-0.003586208913475275
-0.037821948528289795
-0.01578427664935589
0.01680334284901619
-0.03834109380841255
-0.037599626928567886
0.04545768350362778
-0.05660166218876839
-0.010453741997480392
-0.0015156916342675686
0.0006790203042328358
0.0016784366453066468
0.0015609213151037693
-0.002933085896074772
0.00046670602750964463
0.0010121590457856655
-0.001298354472965002
-0.0014400180662050843
0.027204537764191628
-0.01562950201332569
-0.02020961232483387
0.017104437574744225
0.03746620565652847
0.0011801314540207386
0.04456261172890663
0.020674172788858414
0.0030632324051111937
0.006058660335838795
-0.060394831001758575
-0.03230484947562218
0.018366286531090736
-0.014039931818842888
-0.026400215923786163
0.05843934416770935
-0.027903685346245766
-0.02749575860798359
0.010440243408083916
0.03875730559229851
-0.008584234863519669
-0.024835988879203796
0.009457098320126534
-0.010492045432329178
0.004030226729810238
0.0006790005136281252
0.006747918203473091
0.0017950704786926508
0.04064299538731575
0.031224889680743217
0.03658483177423477
0.07077572494745255
0.002831581048667431
-0.005248167552053928
0.0019517833134159446
0.007268262095749378
0.04083195701241493
0.0032279586885124445
-0.004447570536285639
0.02085924707353115
-0.009034807793796062
0.009002015925943851
0.053250305354595184
-0.022201966494321823
-0.0013151626335456967
-0.00307484227232635
-0.019980473443865776
-1.1539011211425532e-05
0.050888463854789734
-0.028213975951075554
-0.019099164754152298
0.02351103350520134
0.011902417987585068
0.029523566365242004
0.01299527008086443
-0.005516430828720331
0.006552406586706638
0.00011062729026889428
0.018214410170912743
-0.006411191076040268
0.019413860514760017
0.027065707370638847
0.030679289251565933
-0.04496287554502487
0.005701345857232809
0.0023818917106837034
-0.00715995579957962
0.015889331698417664
-0.012173248454928398
0.006741753779351711
-0.04233427718281746
-0.031814392656087875
0.006925300229340792
-0.006054754834622145
0.008092263713479042
0.01467548031359911
-0.05792241916060448
0.012475459836423397
0.02453501708805561
-0.024186672642827034
-0.00783826969563961
0.017738059163093567
-0.005538505036383867
-0.0005685635260306299
0.02111397683620453
0.029737479984760284
-0.004035535734146833
0.01737472601234913
0.009855016134679317
0.012112841010093689
-0.0028833658434450626
-0.020435024052858353
-0.00812982302159071
0.0172857865691185
-0.028311913833022118
-0.04381977394223213
0.04006737470626831
0.012168722227215767
-0.03898633271455765
-0.01048816554248333
0.023026330396533012
0.00452653830870986
-0.01356798317283392
-2.742334982031025e-05
0.01851692795753479
-0.00991454441100359
-0.005095364525914192
0.02827734313905239
0.0018600830808281898
0.009499434381723404
0.041336119174957275
0.009009196422994137
0.000490729114972055
0.002366300905123353
0.002373338211327791
0.0926697626709938
0.04947153106331825
0.002481485716998577
0.009600570425391197
-0.0015669009881094098
0.08428311347961426
0.003347160294651985
0.011394843459129333
0.08883800357580185
0.05129797384142876
0.05602434650063515
0.016182199120521545
-0.0066340528428554535
0.0005288152606226504
-0.02877570502460003
-0.04741616174578667
0.02735738642513752
0.025073161348700523
-0.028548667207360268
0.018475566059350967
0.04918681085109711
0.0418936163187027
0.004657601471990347
0.02982833795249462
-0.018497683107852936
0.03144155815243721
0.010930050164461136
-0.012340567074716091
-0.007319604977965355
0.006503021344542503
0.0037516795564442873
-0.011853115633130074
-0.008327912539243698
-0.0033585489727556705
-0.020243864506483078
0.012323522008955479
-0.0192046370357275
-0.0229545459151268
0.07568804174661636
0.010135674849152565
-0.05730877071619034
0.07270554453134537
-0.0038761089090257883
-0.04046213999390602
0.038679156452417374
0.029221978038549423
-0.04054843634366989
0.0638885572552681
0.040775738656520844
-0.04838395491242409
0.06335023045539856
0.032971128821372986
-0.00784370955079794
0.055345650762319565
0.05085171386599541
0.011845247820019722
-0.015503901056945324
0.013439967297017574
-0.0013015555450692773
-0.04444728419184685
-0.027178892865777016
0.042904507368803024
-0.00934585090726614
-0.018356436863541603
0.029671387746930122
-0.057048242539167404
-0.08177749812602997
-0.05285264551639557
0.010108119808137417
-0.025037558749318123
-0.020772432908415794
0.0491379015147686
0.015955466777086258
-0.05832429230213165
0.07981627434492111
0.026413805782794952
-0.0032598143443465233
0.036809418350458145
0.026163456961512566
0.0013089156709611416
0.022076988592743874
0.018640629947185516
-0.014035452157258987
-0.002722770208492875
0.0100556043908
-0.00470690568909049
-0.03456532955169678
0.024361219257116318
0.018098706379532814
0.02341555804014206
-0.00952497310936451
-0.0020657202694565058
-0.0170225128531456
-0.05308637395501137
-0.03797118738293648
0.012322386726737022
-0.027544178068637848
-0.03464030474424362
0.018167467787861824
0.021981120109558105
0.011284127831459045
-0.023757295683026314
-0.021971480920910835
-0.0404464527964592
0.014556466601788998
0.007915365509688854
-0.047346070408821106
0.027335520833730698
0.000532059115357697
-0.028342029079794884
0.018911020830273628
-0.014004486612975597
-0.0569937527179718
0.022406212985515594
0.01645069569349289
0.00015169309335760772
-0.0037823000457137823
0.03218398988246918
0.013699794188141823
-0.014699514955282211
-0.04482298344373703
-0.06157940253615379
-0.020744821056723595
0.011296790093183517
0.004090647213160992
-0.003743671579286456
0.005732677411288023
-0.003235930111259222
0.0009844331070780754
0.006566909607499838
0.0013106324477121234
-0.006435303948819637
0.0013454004656523466
-0.0026609424967318773
0.0047299424186348915
-0.0003261484671384096
0.0027145259082317352
-0.013734789565205574
0.03967335820198059
0.014247839339077473
-0.017939861863851547
0.02928551472723484
-0.012065120041370392
-0.03654710575938225
0.062304671853780746
0.04987165331840515
0.014634023420512676
-0.011477405205368996
-0.013791996985673904
0.025838106870651245
0.024945013225078583
0.01456492766737938
0.03998449817299843
0.053940389305353165
-0.0006562633207067847
0.027302423492074013
-0.010117829777300358
0.00024176688748411834
0.001243787002749741
-0.0027514349203556776
-0.01043886598199606
0.0029545105062425137
0.012280800379812717
0.0037221822421997786
0.06055336073040962
0.014800767414271832
-0.028717536479234695
0.02295786514878273
0.05663374438881874
0.003465288784354925
0.005617884919047356
0.031202740967273712
-0.0034440928138792515
-0.04345603287220001
-0.005811281502246857
0.0008365546236746013
-0.03511642664670944
0.04789987951517105
0.032749053090810776
-0.039190664887428284
0.0013573457254096866
0.040386028587818146
0.01890966296195984
0.0014743407955393195
0.018036043271422386
0.013997604139149189
0.004660855513066053
-0.0035241495352238417
0.01904347538948059
0.0288380216807127
0.0037909355014562607
0.0763072520494461
-0.005470627918839455
-0.0935545340180397
0.06387648731470108
0.043594732880592346
-0.024575643241405487
0.05848792940378189
0.05600660666823387
-0.057045962661504745
0.06097105145454407
0.04829807206988335
-0.017453322187066078
0.03478030487895012
0.017739782109856606
-0.005577170290052891
0.03382788971066475
0.007192517630755901
-0.020278681069612503
0.04499056190252304
0.008329533971846104
0.037205688655376434
0.00950967613607645
-0.012898625805974007
0.03355999290943146
0.021707963198423386
-0.01906566694378853
0.010771995410323143
0.024950390681624413
0.0433005690574646
0.057523030787706375
0.0009333320776931942
0.06638967245817184
0.011325277388095856
-0.007689653895795345
0.01863200217485428
0.008989025838673115
0.0015984009951353073
-0.011225391179323196
0.005834078416228294
0.02605099231004715
-0.013665943406522274
-0.01499398984014988
0.013838319107890129
-0.002140722470358014
0.0021816811058670282
-0.01469622552394867
-0.017210237681865692
-0.009035628288984299
-0.03383208066225052
0.007616396993398666
0.035363081842660904
-0.06153637543320656
-0.010958676226437092
0.009725327603518963
0.024276383221149445
-0.0068137915804982185
-0.003378310240805149
-0.0023255902342498302
0.008881878107786179
-0.01730705052614212
0.05751830339431763
0.03650350123643875
0.01001740898936987
-0.009505738504230976
0.023110363632440567
0.01772209256887436
-0.02092973329126835
0.03817057982087135
0.03661863133311272
-0.03341905027627945
0.009906448423862457
-0.014749466441571712
0.08972076326608658
0.03829740360379219
-0.02550060674548149
0.033089783042669296
-0.008007440716028214
0.0061356197111308575
0.050085749477148056
0.010076356120407581
0.007722215261310339
-0.01162105891853571
0.008707908913493156
0.01464017666876316
0.01699117384850979
0.03691018372774124
0.00480915792286396
0.009782006964087486
0.022148530930280685
-0.02367909997701645
0.043436143547296524
0.02786569483578205
0.03982444480061531
0.016968032345175743
0.009260054677724838
0.02057654596865177
0.0043682134710252285
-0.001160033862106502
0.012996187433600426
-0.05095970258116722
-0.024655474349856377
-0.0203323382884264
-0.009902223944664001
-0.018675286322832108
-0.017658401280641556
-0.0318668931722641
-0.008966844528913498
0.018669234588742256
-0.03847504034638405
-0.011643929407000542
-0.019892513751983643
-0.03443613648414612
-0.00683080218732357
-0.02020183578133583
-0.04193408787250519
-0.050412993878126144
-0.046304851770401
0.006392910145223141
-0.009753255173563957
0.018963376060128212
-0.02931501530110836
-0.06391038000583649
0.03723481297492981
-0.008246091194450855
-0.04299135506153107
0.025196077302098274
0.015332517214119434
0.011056900955736637
0.0127125084400177
-0.013777023181319237
-0.019855156540870667
0.001359249814413488
-0.03556730970740318
-0.04433167725801468
-0.005458442494273186
-0.022359488531947136
-0.06741541624069214
-0.0005400105146691203
-0.014699366874992847
-0.03769784793257713
0.00015115441055968404
0.013927037827670574
-0.013708660379052162
0.011547395959496498
0.0041692228987813
0.023611178621649742
-0.003948904108256102
0.013032399117946625
-0.01321808435022831
-0.015484737232327461
0.0021255461033433676
-0.015760641545057297
-0.0023701454047113657
-0.050835177302360535
-0.05401315912604332
0.007894833572208881
-0.1057940199971199
-0.08905035257339478
-0.06846579164266586
-0.1642204374074936
-0.13085529208183289
-0.10409338772296906
-0.05373470485210419
-0.11248036473989487
-0.04258866608142853
-0.05300917103886604
-0.1013517677783966
-0.054264966398477554
-0.08975499868392944
-0.10830432176589966
-0.07102710008621216
-0.07578428089618683
0.0312548391520977
-0.13133805990219116
-0.07222899049520493
-0.10543693602085114
-0.07070857286453247
-0.07615762203931808
-0.016046853736042976
-0.050207510590553284
-0.12434712052345276
-0.06639210879802704
-0.11038539558649063
-0.06848105043172836
0.009696790017187595
-0.06815467774868011
-0.019905269145965576
-0.017697449773550034
-0.10674173384904861
-0.11335645616054535
-0.06767324358224869
-0.0823044404387474
-0.08183072507381439
-0.13496609032154083
-0.12117745727300644
-0.08558683097362518
-0.2034379094839096
-0.10854841023683548
-0.10757268965244293
-0.1420126110315323
-0.08426035940647125
-0.07387543469667435
-0.14999578893184662
-0.11717632412910461
0.048662953078746796
-0.12565651535987854
-0.09648589044809341
-0.09007686376571655
-0.0907338485121727
-0.08033404499292374
-0.06670880317687988
-0.025492772459983826
-0.07446339726448059
-0.07153376936912537
-0.12090042233467102
-0.10994847118854523
-0.09372676908969879
-0.05598035454750061
-0.09829465299844742
-0.03016912005841732
-0.08174491673707962
-0.08270008862018585
-0.042399197816848755
-0.061087045818567276
-0.08914302289485931
-0.04077117517590523
-0.017341390252113342
-0.07704681903123856
-0.05263914540410042
-0.01986430585384369
-0.055964596569538116
-0.08374539762735367
-0.0712653249502182
-0.05589206889271736
-0.06720687448978424
-0.1502896547317505
-0.10228191316127777
-0.14930400252342224
-0.19699475169181824
-0.11935862898826599
-0.06360122561454773
-0.07119005173444748
-0.16476848721504211
-0.03985113650560379
-0.057319507002830505
-0.10387256741523743
-0.05719760060310364
-0.04746061936020851
-0.05334572121500969
-0.05869096890091896
-0.0364273302257061
-0.08311213552951813
-0.045040518045425415
-0.08673317730426788
-0.0570722296833992
-0.07843512296676636
-0.10686449706554413
-0.09908394515514374
-0.05351129174232483
-0.12418157607316971
-0.07099327445030212
-0.06666885316371918
-0.08396831899881363
-0.08783696591854095
-0.07563057541847229
-0.0377669557929039
-0.01010863296687603
-0.08843505382537842
-0.09828262031078339
-0.08676457405090332
-0.1289847046136856
-0.11025960743427277
-0.09674377739429474
-0.1481148600578308
-0.14861774444580078
-0.10769209265708923
-0.08221336454153061
-0.11802001297473907
-0.06503656506538391
-0.16156236827373505
-0.18861694633960724
-0.10260055959224701
-0.09876468032598495
-0.12719491124153137
-0.11401719599962234
-0.11455053091049194
-0.11395531892776489
-0.06006905809044838
-0.07090237736701965
-0.07377361506223679
-0.12273332476615906
-0.0865819975733757
-0.05747050791978836
-0.07552378624677658
-0.07621636986732483
-0.07210544496774673
-0.07057876139879227
-0.14162176847457886
-0.07997117936611176
-0.014980488456785679
-0.04485483840107918
-0.08885596692562103
-0.06083464249968529
-0.09939061850309372
-0.07916007936000824
-0.08516636490821838
-0.00034293558564968407
-0.05524720251560211
-0.05371512100100517
-0.05500999093055725
-0.07782027870416641
-0.08233608305454254
-0.04181452840566635
-0.08662507683038712
-0.13514815270900726
-0.07668186724185944
-0.07151777297258377
-0.08530275523662567
-0.14225967228412628
-0.06979287415742874
-0.1676730364561081
-0.05728869140148163
-0.06627489626407623
-0.08732039481401443
-0.11749111860990524
-0.05710765719413757
-0.06449061632156372
-0.0694190040230751
-0.051348645240068436
-0.10391799360513687
-0.07682979106903076
-0.0535254031419754
-0.08488805592060089
-0.1086239144206047
-0.10738891363143921
-0.10762397944927216
-0.11393824964761734
-0.05557321757078171
-0.1189381554722786
-0.07500139623880386
-0.12700262665748596
-0.12473689764738083
-0.07385142892599106
-0.07424060255289078
-0.04498101770877838
-0.04020903632044792
-0.004554649814963341
-0.06402771919965744
-0.08216230571269989
-0.07642454653978348
-0.09167440980672836
-0.0848987028002739
-0.05361466482281685
-0.06486798077821732
-0.07083941251039505
-0.13272231817245483
-0.1144128069281578
-0.0964919850230217
-0.08624998480081558
-0.05202566832304001
-0.07312852144241333
-0.036553189158439636
-0.08798132091760635
-0.0632602721452713
-0.06889142841100693
-0.045807674527168274
-0.1007138267159462
-0.13423281908035278
0.005962017457932234
-0.1475909948348999
-0.09474719315767288
-0.09360455721616745
-0.15048658847808838
-0.04487265646457672
-0.06698229163885117
-0.09808206558227539
-0.10962431877851486
-0.05867074429988861
-0.059858039021492004
-0.11993836611509323
-0.036648496985435486
-0.04653405398130417
-0.1487548053264618
-0.09950277954339981
-0.08895203471183777
-0.10005182772874832
-0.02702396549284458
-0.024828406050801277
-0.06243881583213806
-0.06730479747056961
-0.03654595464468002
-0.009724204428493977
0.005309797823429108
0.005250534508377314
0.020305689424276352
-0.0647331178188324
-0.1055612862110138
0.009524408727884293
-0.08387890458106995
-0.0686328262090683
-0.09055022895336151
-0.01923472248017788
-0.0901305302977562
-0.041804127395153046
-0.11435800790786743
-0.0898665338754654
-0.11400219053030014
-0.15251658856868744
-0.10064592957496643
-0.08524375408887863
-0.12033922225236893
-0.040179379284381866
0.06753746420145035
0.0016972213052213192
0.07119328528642654
0.1344986855983734
0.08111360669136047
0.05612387880682945
0.13364127278327942
0.10164149850606918
-0.009836001321673393
0.018841218203306198
-0.002881539985537529
0.05993089824914932
0.025452204048633575
0.0744142085313797
0.020020663738250732
0.0831952765583992
0.15951919555664062
0.07012525945901871
0.022511282935738564
0.14201104640960693
0.07124464213848114
0.10436698794364929
0.07141526788473129
0.015857020393013954
0.14459997415542603
0.018255319446325302
0.09843762964010239
0.07813277095556259
0.08600737899541855
0.1176234558224678
0.16582633554935455
0.039887454360723495
0.11756867915391922
0.12014904618263245
0.10867689549922943
0.07597041130065918
0.04037347808480263
0.02292490005493164
0.09889907389879227
0.07857262343168259
0.11793642491102219
0.1500900387763977
0.09449636191129684
0.09512878954410553
0.07328173518180847
0.09303715825080872
0.021355804055929184
0.10103783011436462
0.1261785924434662
0.002892193151637912
0.12407515943050385
0.10760099440813065
0.057205259799957275
0.05360675975680351
0.10185494273900986
0.005519845988601446
0.045646872371435165
0.021252596750855446
0.0358850471675396
-0.005130046512931585
0.020397059619426727
0.10273373126983643
0.04368598386645317
-0.006300433538854122
0.06283500790596008
0.014842851087450981
0.1501169353723526
0.08421365171670914
0.044314686208963394
0.07121346145868301
0.052305590361356735
0.04854308441281319
0.11216317862272263
-0.006109744776040316
0.04571305215358734
0.14261728525161743
0.07417567819356918
0.02939903363585472
0.004328120034188032
0.08835947513580322
0.1106170266866684
0.10075880587100983
0.16099479794502258
0.009022096171975136
0.05960261449217796
0.11141017079353333
0.03950875625014305
0.11040358245372772
0.011513005942106247
0.12313862890005112
0.05747692286968231
0.00915814470499754
0.08336585015058517
0.0799587145447731
-0.013281210325658321
0.045538369566202164
-0.01474007498472929
0.0035618580877780914
0.07633747160434723
-0.0019575355108827353
-0.007520340848714113
0.046802960336208344
0.0006728469743393362
0.08248373121023178
0.16464847326278687
0.0011559774866327643
0.09467530250549316
6.932843098184094e-05
0.08655991405248642
0.058861855417490005
0.023861782625317574
0.087112195789814
0.11469398438930511
0.04078701511025429
0.02112915925681591
0.00079327606363222
0.1082557886838913
0.048507802188396454
0.02937079593539238
0.04711344093084335
0.02409137785434723
0.025516187772154808
8.692790288478136e-05
0.11190634965896606
0.10122183710336685
0.04550403729081154
0.030664198100566864
0.15827597677707672
0.15571968257427216
0.09391101449728012
0.12884719669818878
0.10381980985403061
0.06765784323215485
0.035647839307785034
0.12329922616481781
0.09153188019990921
0.05815371870994568
0.007233192678540945
-0.00981209333986044
0.10628710687160492
0.08620474487543106
0.11091873049736023
0.0667109563946724
-0.003574780886992812
0.0357985682785511
0.09386242181062698
0.1038130521774292
0.1377662569284439
0.01861831545829773
0.08060181140899658
-0.017901787534356117
0.036351121962070465
-0.0105630187317729
0.02799706533551216
0.03158881142735481
0.13497230410575867
0.1461978256702423
0.04110495373606682
0.01201525330543518
0.03562149778008461
-0.01952946186065674
0.12084800004959106
0.09701015055179596
-0.009857543744146824
0.03128505125641823
0.043576229363679886
0.059687890112400055
-0.03017471730709076
-0.02666599303483963
0.029420727863907814
0.06878417730331421
0.11138718575239182
0.024033164605498314
0.10012900084257126
0.04913958162069321
-0.021101143211126328
0.19359314441680908
0.059821270406246185
0.08495506644248962
0.01811167225241661
-0.0035068036522716284
-0.015682397410273552
0.05279264226555824
0.08462274074554443
0.15054084360599518
0.10178515315055847
0.0919337123632431
0.10095804184675217
0.11086805164813995
0.1615028828382492
0.1192397028207779
0.02593698352575302
0.16660591959953308
0.10625775903463364
0.10837572813034058
0.03652917593717575
0.1489773541688919
-0.004529391415417194
-0.0014842492528259754
0.15480172634124756
-0.004458515904843807
0.068499855697155
0.013537184335291386
0.08079759031534195
0.08242088556289673
-0.01588119938969612
0.1965876966714859
-0.014368128031492233
0.06790896505117416
0.17572122812271118
0.04097394272685051
0.13609489798545837
0.2010909914970398
0.11437344551086426
0.08797560632228851
0.19449488818645477
0.19686207175254822
0.037690430879592896
0.09356904029846191
0.1466006487607956
0.04388624429702759
0.04388073831796646
0.07283305376768112
0.11766008287668228
0.0958065465092659
0.14458154141902924
0.11296327412128448
0.14596298336982727
0.1131097823381424
0.06836816668510437
0.07932717353105545
0.05758463218808174
0.22583641111850739
0.1320536583662033
0.013857214711606503
0.10648036748170853
0.06114748492836952
0.13914790749549866
0.18240344524383545
0.12136638909578323
0.07688472419977188
0.07764235883951187
0.10727792233228683
0.049673013389110565
0.20832785964012146
0.041607651859521866
0.012463358230888844
0.09516965597867966
0.11199189722537994
0.011743309907615185
0.08496041595935822
0.05212884396314621
0.09254705905914307
0.00863395631313324
0.016687026247382164
0.17697307467460632
0.027997376397252083
0.01229943335056305
0.030819185078144073
0.023189201951026917
0.015081231482326984
0.023909645155072212
0.007724046241492033
-0.03252135217189789
-0.008395878598093987
-0.026188142597675323
-0.012204205617308617
0.014939896762371063
0.004552368074655533
-0.03375338762998581
0.0018370273755863309
-0.010178638622164726
-0.0261653084307909
0.005895637907087803
0.03077562339603901
-0.03390408307313919
0.029459208250045776
0.06015484407544136
-0.011774316430091858
-0.0025767211336642504
0.024894241243600845
0.013771353289484978
0.0020416907500475645
-0.025944866240024567
0.01747792400419712
0.006166304927319288
-0.00042778346687555313
-0.006797281093895435
0.025028131902217865
-0.02173077128827572
-0.02524828538298607
-0.023467708379030228
-0.010600605979561806
-0.037340566515922546
-0.044992249459028244
0.04068659618496895
-0.022536659613251686
0.0055051217786967754
0.07646598666906357
-0.006571072153747082
-0.0005488115712068975
0.05507810413837433
-0.00987846776843071
0.0022691646590828896
0.03135961294174194
-0.011194455437362194
-0.012525352649390697
0.028490940108895302
-0.0032827728427946568
-0.06076142564415932
0.029958775267004967
0.009781334549188614
-0.05328327417373657
0.028820503503084183
1.1669207822251337e-07
-0.030598720535635948
0.03927778825163841
-0.02676144428551197
-0.0015599572798237205
-0.014953343197703362
0.006220374722033739
-0.06913207471370697
0.011494447477161884
-0.0023648550268262625
0.021708399057388306
0.0015720395604148507
-0.029981672763824463
-0.015525726601481438
