0.15448296070098877
0.9170606732368469
0.29406681656837463
-0.020868754014372826
0.18544669449329376
-0.02230706624686718
0.779188334941864
1.1337449550628662
0.5847733020782471
0.16891902685165405
0.3180654048919678
0.17312726378440857
-0.2889415919780731
0.15219147503376007
0.014885411597788334
-0.01348884217441082
0.07839501649141312
-0.20029036700725555
0.12549743056297302
0.4348040223121643
0.5190801024436951
0.4528050422668457
0.617010772228241
-0.0046172295697033405
-0.0509815476834774
0.0770207867026329
0.572460412979126
0.17961052060127258
-0.021212752908468246
-0.08113768696784973
0.02078685723245144
-0.020996127277612686
0.8825187683105469
0.48590371012687683
-0.38962823152542114
0.6109735369682312
0.07724446058273315
0.4696159064769745
-0.011909034103155136
0.3993225693702698
0.335043728351593
-0.013715937733650208
0.2530905306339264
0.30623573064804077
0.3108135461807251
0.8435640931129456
0.6243293881416321
0.22403399646282196
1.8696093559265137
0.07492662221193314
0.3019793927669525
0.5995472073554993
0.34843847155570984
-0.009555155411362648
0.5308204889297485
1.458282470703125
0.1148836761713028
0.315599650144577
0.031023235991597176
0.2626464366912842
0.05342647433280945
0.13280607759952545
-0.0646553486585617
-0.013813204132020473
-0.005945299286395311
0.21906298398971558
0.5381911396980286
0.27641263604164124
0.7295598983764648
0.4537666440010071
-0.0663260817527771
0.8520559072494507
0.3306514620780945
0.03849621117115021
0.8159600496292114
-0.0779934749007225
0.02623712830245495
0.43492022156715393
1.1130470037460327
0.2796214818954468
0.04232929274439812
0.4326895475387573
0.827034592628479
0.3473423719406128
0.2557319700717926
-0.004666412249207497
-0.006765262223780155
1.2082195281982422
1.3395918607711792
-0.10726660490036011
0.5124800801277161
1.1166751384735107
0.09706064313650131
0.06371200829744339
0.129559725522995
0.31919482350349426
-0.09299946576356888
0.6867974996566772
0.1762288510799408
-0.01552655454725027
0.12772491574287415
-0.15246911346912384
0.16747483611106873
0.2184303104877472
0.28791236877441406
-0.0039523025043308735
0.30543753504753113
0.3569497764110565
0.22018484771251678
0.3261646628379822
0.7491846084594727
-0.08763205260038376
0.6531131863594055
-0.022111376747488976
-0.11348433792591095
-0.05302877724170685
-0.022220702841877937
1.2246294021606445
0.019266266375780106
0.16644887626171112
-0.29077112674713135
0.3852977156639099
0.12893982231616974
0.4500981569290161
2.4405570030212402
0.23622243106365204
0.6847389340400696
0.4104236960411072
