-0.13489000499248505
0.007388966623693705
-0.00690110819414258
-0.002463023643940687
0.09183056652545929
1.692478144832421e-05
0.13354824483394623
-0.0017640824662521482
-0.1881880909204483
-0.060809049755334854
0.07821674644947052
-0.10716520994901657
-0.012024813331663609
0.03793922811746597
-0.005148295313119888
0.0006746922736056149
0.15945322811603546
0.04732181876897812
-0.014235196635127068
0.011060161516070366
0.04646221920847893
-0.0063766296952962875
0.010638090781867504
-0.000330462702549994
-0.00041121465619653463
-0.02033398672938347
-0.034578122198581696
-0.007215864956378937
-0.0025610518641769886
-0.10207144916057587
-0.009824058040976524
-9.850192145677283e-05
-0.0038949635345488787
0.025372635573148727
0.030192112550139427
-0.2946619391441345
-0.05720749869942665
-0.011066985316574574
-1.2735883956338512e-06
0.17354746162891388
0.00033556061680428684
-0.0008382189553231001
0.03895416110754013
0.1432262659072876
0.06479939818382263
0.07545670866966248
0.00894087366759777
0.007954231463372707
-0.07600417733192444
0.036526601761579514
-0.03393319994211197
0.05337107554078102
0.003956969361752272
-1.62777923833346e-05
-0.0020361419301480055
-0.007958180271089077
-0.023100312799215317
0.015638070181012154
0.006308014504611492
0.0011718194000422955
0.00905042514204979
-0.021361185237765312
-0.0022919392213225365
-0.02021097019314766
2.1169129468034953e-05
-0.03276079520583153
0.007392426021397114
0.01106022298336029
0.2180103212594986
-0.16152235865592957
-0.09045269340276718
-0.0802583321928978
-0.05230128765106201
-0.0022032561246305704
0.01424973551183939
-0.0023420213256031275
0.1616983562707901
0.18983452022075653
-0.007826404646039009
0.029999667778611183
0.013333315961062908
-0.018758876249194145
0.021925857290625572
0.09351448714733124
-0.05758459493517876
0.04071158543229103
5.693452476407401e-05
0.02480783872306347
-0.07186756283044815
0.009725910611450672
-0.004182248841971159
0.015428446233272552
-0.22585409879684448
0.044916629791259766
0.0085658123716712
0.009205345995724201
0.031451690942049026
0.07995399832725525
0.177997887134552
-0.00015016899851616472
0.006834409199655056
-0.006956815253943205
0.030392229557037354
-0.07337815314531326
0.011972527951002121
4.879888365394436e-05
-0.013029341585934162
0.017868315801024437
-0.02814468927681446
-0.14519205689430237
0.030905675143003464
-0.030362792313098907
-0.1944808065891266
-9.903433237923309e-05
0.055342648178339005
-0.02191406488418579
0.00028745096642524004
0.10217130184173584
0.1331629902124405
-0.05009032413363457
-0.004669886082410812
-0.09357835352420807
0.10481521487236023
-0.17206893861293793
0.003823921550065279
0.015638699755072594
0.09576157480478287
-0.03868937864899635
0.009847404435276985
0.10472479462623596
0.022830234840512276
-0.008376417681574821
-0.021147683262825012
3.370318154338747e-05
-0.037591125816106796
-0.0035083291586488485
-0.018482614308595657
0.23587478697299957
0.26236507296562195
0.10646124929189682
0.0009599137702025473
0.0005420536617748439
0.017987260594964027
-3.9370621379930526e-05
-0.02134908176958561
-0.08187349885702133
-0.047375500202178955
0.057868942618370056
-0.06295032799243927
0.03150336816906929
-0.013200503773987293
0.0002117552503477782
0.000994927017018199
0.11212491244077682
0.014869931153953075
0.028136229142546654
0.03487807512283325
0.032244011759757996
-0.07280996441841125
0.00026596602401696146
0.004603238310664892
-0.0696161612868309
0.1262606531381607
-0.006070023402571678
-0.05850457027554512
-0.023400936275720596
3.1912513804854825e-05
0.010856321081519127
-0.1104169562458992
0.002112707355991006
0.02047855220735073
0.03499669209122658
-0.039514780044555664
-0.1129133403301239
-0.004196656867861748
-0.0340263769030571
-0.06584970653057098
-0.2719191610813141
-0.012138647958636284
-0.17216400802135468
0.04635358974337578
-4.663010986405425e-05
0.012352184392511845
0.004835508763790131
0.07200152426958084
-0.1372537612915039
-0.021606093272566795
-0.08411941677331924
-0.007871421985328197
-0.009052357636392117
0.006667755544185638
-0.024831652641296387
-4.255325984559022e-05
0.2247481644153595
-0.006318371742963791
0.03330408036708832
-0.008007051423192024
0.008299743756651878
-0.0027895416133105755
-0.013718276284635067
-0.05332481861114502
0.24775545299053192
-0.04041721299290657
0.0010228344472125173
-0.022874975576996803
0.16728773713111877
-0.027151700109243393
-0.01776924356818199
-0.061893995851278305
-0.04629054293036461
-0.033506982028484344
0.13790160417556763
0.03277633339166641
0.0863749161362648
3.5850713175022975e-05
0.010605365969240665
0.08476779609918594
-0.036337561905384064
0.039499830454587936
-0.004382516257464886
0.01733146607875824
-0.015669681131839752
0.10756662487983704
-0.07569833844900131
-0.09431800991296768
0.07135604321956635
0.05267446115612984
0.00017777463654056191
-0.10782190412282944
-0.00479157967492938
-0.056790683418512344
0.24395905435085297
0.07645396888256073
4.0268732846016064e-05
0.0006702910177409649
0.03289800509810448
-0.0639302060008049
-0.17540805041790009
0.03885558247566223
-0.016559980809688568
0.014832457527518272
0.00018778437515720725
0.08508998900651932
-0.017360452562570572
0.0002161250013159588
-0.0838075503706932
-0.004817104432731867
0.0182486642152071
0.028258752077817917
-0.0011367814149707556
0.003273864509537816
0.08232971280813217
0.013809430412948132
0.027203476056456566
0.08891641348600388
-0.28115081787109375
0.016744835302233696
0.010348017327487469
0.007174352649599314
-0.007134437095373869
-0.007981030270457268
-0.00013157888315618038
-0.007924704812467098
0.001756513025611639
-0.013019169680774212
-0.01587553881108761
0.024319685995578766
0.07232601195573807
-0.02695397287607193
0.14733994007110596
-0.06881632655858994
0.000138899267767556
0.0869339108467102
0.006677393801510334
-0.032119542360305786
0.0005148873897269368
0.02826155163347721
0.00831596739590168
-0.01132284663617611
6.903309258632362e-05
-0.018248843029141426
0.08875024318695068
-0.06059057265520096
-0.05362613499164581
0.012578893452882767
0.006549648009240627
-0.054865963757038116
-0.0004974081530235708
0.00015626753156539053
-0.005295326467603445
0.01852341555058956
0.024924343451857567
0.07825860381126404
0.00458457600325346
-0.00010319716966478154
0.023670747876167297
0.036705382168293
0.011502421461045742
-0.010496912524104118
0.02526952140033245
0.007544377818703651
-0.014730957336723804
0.003948761150240898
-0.011468551121652126
-0.009935139678418636
0.038644976913928986
-0.059399038553237915
0.001015201210975647
-0.0021038216073065996
-3.714557897183113e-05
-0.0002106377069139853
-0.0010098558850586414
-0.00015549457748420537
0.008643451146781445
0.10466065257787704
0.03394485265016556
-0.0416763499379158
0.012128205969929695
0.0029317939188331366
0.015033558011054993
8.62431334098801e-05
-0.03800317272543907
-0.003390002530068159
0.003121114568784833
-0.053996194154024124
-0.02248327061533928
0.00621274346485734
0.005793330725282431
0.03414607420563698
0.006534100975841284
-0.01290562842041254
0.0017541166162118316
-0.03070310316979885
-0.024580998346209526
-0.04075980186462402
-0.014586840756237507
-0.005404640920460224
-0.0027558503206819296
0.0027154625859111547
0.051143135875463486
0.1554538607597351
0.09221197664737701
1.975131999643054e-05
0.031237918883562088
-0.002484264550730586
-0.0006724825943820179
0.004288397263735533
-0.011483367532491684
-0.09574641287326813
0.00047979396185837686
-0.030036278069019318
-0.11888018250465393
0.0037593792658299208
-0.0089884577319026
-0.011946085840463638
-0.0003037067945115268
-0.006974535062909126
-0.005352644715458155
-0.031233785673975945
0.011297800578176975
-0.08335401862859726
2.7574653358897194e-05
-0.023730460554361343
0.016136597841978073
-0.05305967107415199
0.0076638502068817616
-0.0054839495569467545
-0.05888223648071289
-0.02289787493646145
-2.0911926412736648e-07
0.011372958309948444
0.08068067580461502
-0.00035087246214970946
-0.008299478329718113
-0.003196832025423646
-0.0052597480826079845
-0.0092620262876153
0.044406019151210785
0.005683280061930418
-0.03641001507639885
-0.004888955038040876
0.005769692827016115
0.00222379039041698
0.0036815740168094635
-0.0007156823412515223
0.00016424973728135228
0.037787750363349915
0.011437728069722652
0.013352291658520699
0.0001100334120565094
-0.006435152143239975
0.0014949697069823742
-0.012479495257139206
0.022948546335101128
-0.06520451605319977
-0.023925652727484703
0.011001712642610073
-0.026878271251916885
0.044640470296144485
0.002799451583996415
0.0056228358298540115
0.06284873187541962
0.052510328590869904
0.01566515862941742
0.029577385634183884
-0.007231358904391527
-0.0028299770783632994
0.0001370786048937589
0.009271027520298958
0.032494623214006424
0.09170620888471603
0.07122030854225159
0.006855901796370745
0.012810435146093369
0.03713735193014145
0.00045436550863087177
0.018235765397548676
0.008119307458400726
0.01035196054726839
0.0035348953679203987
0.03472624719142914
0.022906694561243057
-0.00017786279204301536
-0.0054462202824652195
-0.07382290065288544
0.02282179892063141
-0.00925946980714798
0.007207672111690044
-0.005545968189835548
0.04458237811923027
-0.006218582857400179
0.0171374399214983
-0.022308997809886932
-0.11108759790658951
0.09039673954248428
-0.030419493094086647
0.005176126956939697
0.00013185932766646147
0.011971943080425262
-0.006188784260302782
-0.005656751804053783
-0.008457287214696407
-0.041593778878450394
-0.1512606143951416
0.060520585626363754
-0.006616105325520039
-0.017740098759531975
0.03252395987510681
0.00019156043708790094
0.07137719541788101
0.00016605186101514846
-0.03418353945016861
0.03221752122044563
0.02489662915468216
0.007111028768122196
0.03340607136487961
0.017115393653512
0.03636078163981438
0.01677563413977623
-0.0029506017453968525
0.021801410242915154
0.026406101882457733
0.030574902892112732
-0.01723647117614746
0.024547340348362923
-0.007877366617321968
-0.007788763381540775
-0.051113225519657135
-0.1146070659160614
0.05017953738570213
9.869347559288144e-05
-0.09683498740196228
0.002544271992519498
0.009552260860800743
-0.024062493816018105
-0.018619675189256668
0.07248210906982422
0.004100138321518898
-0.09190041571855545
0.08004208654165268
-0.014820803888142109
-0.008641082793474197
-0.022851282730698586
-0.0003434036916587502
0.013444588519632816
0.003437348874285817
-0.09120897203683853
-0.08562995493412018
0.0797426626086235
1.4906470823916607e-05
-0.029222093522548676
0.01333177462220192
0.005690508522093296
-0.01852433755993843
0.0061892191879451275
-0.011978781782090664
-0.012634693644940853
9.301520185545087e-05
-0.016392061486840248
-0.0655989944934845
-4.2451891204109415e-05
-0.005577364005148411
-0.009279603138566017
-0.14915834367275238
-0.03753407299518585
-0.027052810415625572
-0.020794518291950226
0.003052166197448969
0.003933026921004057
-0.0189712755382061
-0.046953968703746796
0.03568768873810768
0.16882678866386414
0.29050302505493164
-0.31729772686958313
-0.00036237153108231723
0.009428798221051693
0.0006401678547263145
0.07864018529653549
-0.04073430597782135
0.12276653945446014
0.25376394391059875
-0.042021140456199646
0.07286402583122253
-0.029596315696835518
0.09298252314329147
-0.003297746879979968
-0.0007718746783211827
0.05533894523978233
0.08072491735219955
-0.04932126775383949
-0.23703980445861816
-0.20135653018951416
0.042826589196920395
0.003303473349660635
0.00019168242579326034
-0.0059866029769182205
-0.027160581201314926
-0.36774659156799316
-0.1564672887325287
0.07311372458934784
0.152145653963089
0.0957811176776886
-0.0009427781333215535
-0.42149266600608826
-0.2827211320400238
-0.18999509513378143
0.07450918108224869
0.01759362407028675
-0.49551787972450256
0.00027311983285471797
-0.105322927236557
0.10373494029045105
-0.0012864533346146345
-0.15055927634239197
-0.13898706436157227
-0.20299822092056274
-0.32648324966430664
-0.285099595785141
0.043815650045871735
-0.3532271385192871
0.043835535645484924
0.01076405867934227
-0.08981596678495407
-0.28743526339530945
0.0004972735769115388
-0.26701533794403076
-0.30350324511528015
-0.22614061832427979
0.2748704254627228
0.019837509840726852
-0.16261479258537292
-0.18439801037311554
-0.07860223203897476
0.009259811602532864
0.003252555849030614
0.00028464855859056115
0.053242027759552
-0.41082343459129333
0.18361331522464752
0.10095192492008209
-0.16396506130695343
0.06303772330284119
-0.4605005979537964
0.08953285217285156
0.11437160521745682
-0.43091902136802673
-0.002679139841347933
0.26260289549827576
-0.08548922836780548
-0.9559001922607422
-0.34857285022735596
0.16944389045238495
-0.19703952968120575
-0.5177031755447388
0.013786851428449154
-0.19085124135017395
-0.057880304753780365
0.00027031503850594163
-0.5457019805908203
-0.3522019386291504
-0.19515149295330048
-0.0014808246633037925
0.0784832239151001
0.04700949043035507
0.34188225865364075
0.06125480681657791
-0.010599862784147263
0.3843781352043152
-0.11988109350204468
-0.05573231726884842
0.00034351873910054564
-0.15787725150585175
-0.3600952923297882
-0.11258312314748764
0.016883496195077896
-0.10305918008089066
-0.00012842136493418366
-0.09608788043260574
-0.34335604310035706
0.03586120903491974
-0.08151635527610779
-0.37264344096183777
-0.009449564851820469
0.2451154589653015
0.0006446597981266677
-0.18608437478542328
-0.007150046993046999
0.0005544473533518612
-0.2910679876804352
0.3730948567390442
0.2050260603427887
-0.7039934396743774
-0.2243039757013321
0.030375227332115173
-0.12726934254169464
-0.8267131447792053
-0.22066986560821533
-0.38378584384918213
0.045688193291425705
0.06268025934696198
0.4981059730052948
0.013539762236177921
0.00016393828263971955
0.0639895349740982
-0.0007935999892652035
0.22321227192878723
0.4499225318431854
0.16223852336406708
0.08329780399799347
0.03566613420844078
0.02803831733763218
-0.007855657488107681
0.017351306974887848
0.011405596509575844
-0.0001618224778212607
0.028581442311406136
0.022680917754769325
0.002434117952361703
0.11215388029813766
0.12051545828580856
0.12538215517997742
0.23288197815418243
-3.259967706981115e-05
-0.00232705008238554
0.009090636856853962
0.01435539685189724
-0.0024220577906817198
0.038937702775001526
0.019280267879366875
0.026698466390371323
-0.000533304933924228
0.015837840735912323
0.03786418214440346
0.05080288276076317
0.11768078804016113
0.01194113027304411
0.016779253259301186
-0.00039435169310308993
0.08119647204875946
0.10646481812000275
0.0018533666152507067
0.06134839728474617
0.029456520453095436
0.03946272283792496
0.02260778471827507
0.005919164512306452
0.08155695348978043
0.10196412354707718
0.023062100633978844
0.08233467489480972
0.03222478926181793
0.013090109452605247
-0.0001779387821443379
0.08243966847658157
0.06884314864873886
0.03133051097393036
0.15901149809360504
0.01673096790909767
0.0033034540247172117
0.006479108706116676
0.18504104018211365
0.0008285933290608227
0.0021753415931016207
-0.00045391987077891827
0.0792502835392952
0.018267160281538963
0.14766444265842438
0.14671632647514343
0.04566577076911926
0.07774169743061066
0.02286135032773018
0.11187867075204849
0.025035498663783073
0.0009125576470978558
-0.0010501433862373233
0.05349281057715416
0.0487479530274868
0.03727949783205986
0.021664898842573166
0.05006905645132065
0.08285170793533325
0.02291455678641796
0.08164650201797485
0.0068304287269711494
0.022041242569684982
-3.661461596493609e-05
0.013750492595136166
0.12691731750965118
-0.014462600462138653
0.09877526015043259
0.2957806885242462
0.04009665176272392
0.19786712527275085
0.016459494829177856
0.022156182676553726
0.0684937909245491
0.1554960161447525
0.03605227544903755
-0.0004432287241797894
0.16446320712566376
0.02600954845547676
0.013054921291768551
0.03485003486275673
0.008872844278812408
-8.46955445013009e-05
0.08587264269590378
0.0015960877062752843
0.060834821313619614
0.0445987842977047
0.08157028257846832
0.018688740208745003
0.17061197757720947
-0.0005733451107516885
0.01570183038711548
0.005260399542748928
-0.0006095458520576358
0.07721120119094849
0.07117056846618652
0.0229757372289896
0.028227627277374268
0.10121472924947739
0.03670298680663109
0.0263620987534523
0.02819521725177765
-0.006652949843555689
0.011551888659596443
0.09777036309242249
-0.1806003898382187
0.0076382155530154705
0.025695614516735077
-0.017055263742804527
-0.27689245343208313
6.141093763289973e-05
0.13125215470790863
0.01038286928087473
-0.14366331696510315
-0.01093386672437191
-0.017510002478957176
-0.05739497020840645
0.04063335806131363
0.08531367778778076
0.09471170604228973
-1.928157507791184e-05
0.09112519770860672
0.0482964888215065
0.034224964678287506
-0.010613559745252132
0.0013635591603815556
-0.008644148707389832
-0.023662395775318146
-7.903752702986822e-05
0.01699734479188919
-0.07445653527975082
-0.01139024831354618
-0.024808963760733604
-0.0010596601059660316
0.03880259394645691
-0.023094307631254196
-0.0007282985607162118
-0.0634576827287674
-0.16062617301940918
0.040900010615587234
-0.23887118697166443
-0.08224502205848694
-0.0026497510261833668
0.00013811771350447088
0.19512954354286194
-0.017273422330617905
-0.004742341116070747
-0.08651158958673477
0.23949621617794037
0.12116489559412003
0.09541995823383331
0.015623276121914387
0.22935879230499268
-0.036263104528188705
0.008684895932674408
-0.08481406420469284
-0.04461269825696945
-0.01037314161658287
4.333942706580274e-05
0.00030355402850545943
-0.0035265584010630846
0.01187819242477417
0.029864007607102394
-0.005738920532166958
-0.07357978820800781
-0.01438345480710268
-0.012162171304225922
0.000520614383276552
-0.04077986255288124
-9.31624963413924e-05
-0.05437208339571953
0.027157625183463097
0.019719772040843964
0.2514875829219818
0.1552036851644516
-0.02211645618081093
-0.05898253619670868
0.03652141988277435
0.0022248930763453245
0.007224697154015303
0.0059003569185733795
-0.09317311644554138
0.1510450839996338
0.007948240265250206
0.013181563466787338
-0.042435046285390854
0.016792768612504005
0.012397876009345055
0.018659144639968872
-0.15679551661014557
-0.03565688803792
-0.00016981150838546455
0.01584807224571705
-0.08207479864358902
0.015517338179051876
0.02462526224553585
0.017343712970614433
-0.15680871903896332
0.014765450730919838
0.006806510034948587
0.028902387246489525
0.004373583476990461
0.13221979141235352
-0.13774019479751587
2.5331266442663036e-05
-0.007117037661373615
-0.02592618577182293
-0.015799233689904213
0.022426698356866837
0.03663773834705353
0.00036720457137562335
-0.030267175287008286
0.003515999298542738
-0.00457010930404067
-0.06585225462913513
0.03124076873064041
0.02793876826763153
-0.15780729055404663
-0.00014695999561809003
-0.029964007437229156
0.0013730267528444529
-0.0001676380488788709
0.018680725246667862
0.15893833339214325
0.07666025310754776
0.011133357882499695
-0.023482564836740494
0.06641793996095657
-0.1468089371919632
0.00841385405510664
0.0024509234353899956
0.02907865308225155
-0.026995612308382988
0.012524108402431011
0.09435310959815979
0.07948749512434006
-0.04211454838514328
-0.07324021309614182
-2.55182330874959e-05
-0.0985507071018219
0.006313984282314777
-0.012668144889175892
0.05526071786880493
0.03331594169139862
0.07283171266317368
-0.0031796761322766542
0.016954945400357246
-0.004631312098354101
0.00039580994052812457
-0.02776755578815937
-0.0310270506888628
-0.06245541572570801
0.010549493134021759
0.03386898338794708
-0.01054378505796194
-0.017405753955245018
-0.00010211802873527631
-0.0846334770321846
0.13842368125915527
0.23433609306812286
-0.008433693088591099
-0.25290611386299133
0.002292326418682933
0.20621873438358307
0.005642968229949474
-0.05273996293544769
0.026575343683362007
0.1712050437927246
-0.0072272405959665775
-0.04554226994514465
0.0006289490847848356
-1.1686125844789785e-06
0.02896975725889206
-0.3223126232624054
0.010479231365025043
0.0998227670788765
0.009031062945723534
-0.13053567707538605
-0.05027744919061661
-0.014463459141552448
-0.04582879692316055
0.0011200890876352787
0.037850625813007355
-0.008622824214398861
0.00978394877165556
-0.02799343317747116
-8.616610102762934e-06
-0.13489870727062225
-0.005923960357904434
-0.02783386781811714
-0.13469360768795013
0.019056111574172974
-0.008353596553206444
0.2973101735115051
0.03553416579961777
-0.0010489592095836997
-0.008908766321837902
0.00015296190395019948
0.1414784938097
0.007684208452701569
0.25473853945732117
-0.011828717775642872
0.019539786502718925
-0.01525816973298788
-0.09598606079816818
-0.030646581202745438
-0.16084794700145721
-0.06992646306753159
0.02083958312869072
0.01162026822566986
0.11321724206209183
-0.006539972499012947
0.00781563762575388
0.0003594401350710541
0.24766618013381958
0.068776436150074
0.24350644648075104
-0.02766812965273857
-0.027346152812242508
1.5398616142192623e-06
-0.007319585420191288
0.06523283571004868
0.021529586985707283
0.14382702112197876
0.0007744112517684698
-0.05500331148505211
-0.017396464943885803
-0.143365278840065
-0.015238241292536259
0.015396542847156525
0.13429468870162964
-0.04845308139920235
3.50316331605427e-05
-0.10175132006406784
0.017640069127082825
0.07898267358541489
0.05057455599308014
-0.22727671265602112
-0.00021305502741597593
-0.09553562104701996
-0.016425827518105507
-0.29512470960617065
-0.12241048365831375
0.023775525391101837
0.13535328209400177
0.005726332310587168
-2.2667891244054772e-05
0.02884519286453724
-0.009255512617528439
-0.0041063763201236725
-0.10042478144168854
-0.007652110420167446
-0.008365270681679249
-0.0032333550043404102
-0.05577928200364113
0.024499762803316116
0.1078658252954483
0.006062433123588562
0.009446550160646439
0.07261639833450317
-0.17760050296783447
0.007250330876559019
0.0016907654935494065
0.004600693006068468
0.00418959092348814
-0.048938196152448654
6.318324449239299e-05
-0.010610423982143402
-0.012672695331275463
-0.022986717522144318
-0.008774412795901299
0.01292957179248333
0.05265800282359123
-0.01436670683324337
0.06621266901493073
0.05828416720032692
-0.0002547529002185911
-0.034022584557533264
0.014862664975225925
-0.01716178096830845
-0.007227140478789806
0.005196004640311003
0.005502518732100725
-0.006241422146558762
-0.00028072684654034674
-0.10310883074998856
-0.008463296107947826
-0.01753401942551136
-0.2591760754585266
0.0032134761568158865
-0.009626832790672779
0.003077378263697028
-0.011834978125989437
-0.004356918390840292
0.023209260776638985
-0.0021000744309276342
0.006356357596814632
0.044660188257694244
-0.0002664904750417918
-0.00017176054825540632
0.01347164437174797
0.03262002766132355
-0.007346290163695812
-0.0020568822510540485
0.02438180148601532
0.008517413400113583
-0.002130488632246852
-0.0005581533187068999
-0.07000402361154556
-0.006964766886085272
0.026839902624487877
-0.13173802196979523
0.002028603106737137
-0.011966227553784847
-0.0003640047216322273
-0.0017042210092768073
0.022826334461569786
0.0026604824233800173
0.004483774770051241
0.04210010543465614
0.0321255587041378
-0.001878478447906673
-0.002795239444822073
-0.015484834089875221
0.04634837806224823
0.0003828460176009685
-0.05553377792239189
-0.0027678569313138723
0.0008188796346075833
-0.05628684163093567
0.005237045232206583
-0.005520720034837723
0.007246806751936674
0.025357410311698914
0.012420911341905594
-0.001911176717840135
-0.013280602172017097
-0.005888431333005428
-0.016314037144184113
0.013860633596777916
-0.0015454869717359543
-0.020230060443282127
0.009194530546665192
-0.0009792920900508761
0.05352245271205902
0.09899798780679703
0.044132351875305176
8.873016486177221e-05
0.0491083562374115
0.0013538211351260543
0.0023962180130183697
-0.004602156579494476
-0.001225990243256092
-0.10153049230575562
-0.00035395091981627047
0.05169694498181343
-0.20913998782634735
0.00022089536651037633
-0.011560948565602303
0.01097907591611147
-0.000450839230325073
-0.0010305308969691396
0.0012653839075937867
0.001689637778326869
0.0024137641303241253
-0.008744331076741219
-0.00016903012874536216
0.004255077335983515
-0.00019995577167719603
-0.009561736136674881
-0.0019247462041676044
0.0019329575588926673
-0.020226478576660156
-0.02122686058282852
-0.0002972188522107899
-0.002395863411948085
0.0022583233658224344
-0.001894062152132392
-0.011970114894211292
-0.00708285067230463
0.0029400589410215616
-0.006588107906281948
0.025474779307842255
0.04757188260555267
-0.001809366513043642
-0.010245360434055328
0.0026653106324374676
0.002579892985522747
-0.0019130274886265397
-0.003867360530421138
-0.026522744446992874
-0.002095859730616212
-0.03788190707564354
0.015832599252462387
-0.0003798705292865634
-0.012622867710888386
-0.0022567398846149445
0.001338411122560501
-0.006570290308445692
-0.03640168905258179
-0.07272308319807053
-0.0072799804620444775
-0.0019856560975313187
-0.025191133841872215
0.0006476707058027387
-0.047301918268203735
0.03541312366724014
0.11666003614664078
0.002613387769088149
-0.013662610203027725
0.004089925438165665
-0.0022206988651305437
0.00036055356031283736
-0.09385038912296295
0.005478121340274811
0.08852656930685043
0.05938771367073059
0.005653092171996832
-0.0035147073213011026
0.0032966304570436478
-0.013833452016115189
-0.0009500168380327523
0.0014185492182150483
-0.010460425168275833
0.001384017989039421
-0.07709959894418716
-0.0010169886518269777
-0.000392712012398988
-0.0037884346675127745
-0.10446973890066147
-0.00876560714095831
-0.00021286090486682951
0.0004087927518412471
-0.01624187082052231
0.004512225277721882
0.00015348463784903288
0.03037828579545021
-0.00944135244935751
-0.010402142070233822
0.041656628251075745
-0.0052287159487605095
0.0022183172404766083
-0.00022243827697820961
0.004156394861638546
0.02379811927676201
-0.002796325832605362
-0.0030921176075935364
-0.10957679152488708
-0.005780409090220928
0.019407670944929123
-0.00363599369302392
-0.043651655316352844
-0.07242404669523239
-2.277960993524175e-05
-0.005445775575935841
0.007584769278764725
-0.03462684899568558
0.013623801991343498
0.00040389481000602245
-3.789174297708087e-05
0.002248184522613883
-0.060349322855472565
-0.015931814908981323
0.11962106823921204
-0.005756184458732605
-0.005515468306839466
-0.003096434287726879
0.014606994576752186
0.004776826128363609
0.01032810378819704
-0.003367510624229908
-0.009030565619468689
-0.10547789186239243
-0.04081215709447861
0.045413997024297714
6.777996895834804e-05
-0.006527330726385117
-0.003762117587029934
0.0006603582296520472
-0.008135269396007061
-0.011881228536367416
0.01331319846212864
-0.0026584381703287363
0.014003658667206764
0.02717963047325611
-0.0006356968660838902
-0.009643026627600193
0.01922895573079586
0.0008893213816918433
0.00448947586119175
0.00015111285028979182
-0.025709332898259163
0.0012579240137711167
0.13761182129383087
-4.410524707054719e-05
-0.007891793735325336
-0.00708331074565649
0.008838473819196224
-0.015097158029675484
0.0023778346367180347
0.0546029694378376
-0.004690585192292929
-0.00021714383910875767
1.63038530445192e-05
-0.0007903077639639378
-0.003133594524115324
-0.014288093894720078
-0.007210975047200918
0.020265692844986916
-0.0017099399119615555
-0.02469599060714245
-0.007398474495857954
-0.0058122663758695126
0.005593164823949337
0.01061961054801941
-0.009832927025854588
-0.019542137160897255
-0.13738809525966644
0.2013775259256363
-0.2096904218196869
-0.013096367940306664
-0.05224306881427765
0.00046109489630907774
-0.2547716200351715
-0.16320624947547913
-0.048357538878917694
-0.19277557730674744
-0.23080241680145264
0.08209491521120071
-0.4741789996623993
0.04996928572654724
0.011728199198842049
-0.0006042204913683236
0.01724454015493393
-0.0312645249068737
0.02371359057724476
0.32294267416000366
0.2950423061847687
-0.4155559241771698
0.030718304216861725
2.219858998842028e-07
-0.011967426165938377
0.011280241422355175
0.011130264028906822
0.0053894189186394215
-0.26222503185272217
0.40847247838974
-0.08698946237564087
0.0039520664140582085
-0.3623735010623932
-0.2166730761528015
-0.11358333379030228
0.09530743956565857
0.04889938235282898
-0.32702022790908813
0.0004915727186016738
0.1541597694158554
0.009947443380951881
0.0039664991199970245
-0.0260611679404974
-0.047601163387298584
-0.06217098608613014
-0.2971844971179962
-0.41861575841903687
0.03724980354309082
-0.5492354035377502
-0.03419647738337517
0.0675976425409317
-0.41349872946739197
-0.8806482553482056
0.00036778024514205754
0.2515975832939148
-0.03562629222869873
-0.31990522146224976
-0.30595383048057556
0.0251811221241951
-0.26025092601776123
-0.10660915076732635
-0.2934311628341675
-0.0016959322383627295
0.025017796084284782
0.0001841764315031469
0.15227890014648438
-0.4022939205169678
-0.20933710038661957
-0.07199349254369736
-0.2862173318862915
0.46312791109085083
-0.3685051500797272
0.04641997069120407
0.23892700672149658
-0.1715773046016693
0.03141716867685318
0.10582393407821655
-0.23697373270988464
-0.10075166076421738
-0.33309313654899597
0.3476136028766632
0.21000196039676666
-0.4485250413417816
-0.044047821313142776
0.0065817320719361305
0.043166760355234146
0.00013992666208650917
-0.5095888376235962
-0.3561459481716156
0.024927377700805664
-0.4442972242832184
-0.5492463111877441
0.0015504742041230202
0.34072181582450867
-0.0279916413128376
0.10447193682193756
0.27147427201271057
-0.18221057951450348
0.03980452939867973
0.00014780875062569976
-0.32300809025764465
-0.21880897879600525
-0.25108957290649414
-0.318492591381073
0.02543189749121666
-0.0001750036608427763
-0.36935555934906006
0.4602445960044861
-0.10784225910902023
-0.29716816544532776
-0.3096785247325897
0.12082367390394211
-0.2364618331193924
0.0005756629398092628
-0.3282806873321533
0.40563470125198364
0.009055344387888908
-0.42736953496932983
0.029209325090050697
0.17990048229694366
-0.1627959907054901
0.34026193618774414
0.08178844302892685
-0.2714861035346985
-0.82078617811203
-0.4422265291213989
-0.5391913056373596
0.1983959674835205
0.05583511292934418
0.3340283930301666
0.02472740225493908
0.0022934013977646828
0.05149608850479126
-0.0004788158694282174
0.13878978788852692
0.3580516576766968
0.14490902423858643
0.04245125129818916
0.006373901851475239
0.02143961749970913
-0.0023816211614757776
0.037803854793310165
0.008026862516999245
-0.00038052850868552923
0.02689783275127411
0.00028919571195729077
0.028495844453573227
0.2574881911277771
0.3449631333351135
0.02254643477499485
0.303745299577713
-0.00026671099476516247
0.0030597213190048933
0.016156725585460663
0.10922994464635849
6.878141721244901e-05
0.025482697412371635
0.05201641842722893
0.021110810339450836
0.0001638387911953032
0.018693111836910248
0.08260543644428253
0.09530699253082275
0.14764434099197388
0.010338101536035538
0.01818958856165409
-0.0005629006191156805
0.1152009591460228
0.04930025339126587
0.0013893204741179943
0.0741221159696579
0.07811132818460464
0.04231485724449158
0.05813555046916008
0.0051111322827637196
0.08458121865987778
0.03568480163812637
0.02415619231760502
0.10538709163665771
0.004463688004761934
0.009669401682913303
-0.00021886198373977095
0.14096251130104065
0.18791358172893524
0.02211420238018036
0.08324192464351654
0.016766883432865143
0.0009057201677933335
0.048445895314216614
0.09603766351938248
0.0006833809311501682
0.00502306642010808
-0.00018919540161732584
0.06927461177110672
0.012296699918806553
0.047205034643411636
0.12286801636219025
0.07125997543334961
0.15121053159236908
0.06810563057661057
0.10044945776462555
0.09693024307489395
0.03326919674873352
0.00010508153354749084
0.0721801295876503
0.03661284223198891
0.4207608699798584
0.002504361793398857
0.08626624941825867
0.10489542037248611
0.01341870054602623
0.054518356919288635
0.016676155850291252
0.03420834615826607
-0.00036201984039507806
0.017238745465874672
0.1099514439702034
0.07039762288331985
0.0074143242090940475
0.07611121237277985
0.03316871449351311
0.19559569656848907
0.02202494628727436
0.029372738674283028
0.03196743503212929
0.12423311173915863
0.08974537998437881
-0.0004357131547294557
0.21544109284877777
0.037853389978408813
-0.016091762110590935
0.018393421545624733
0.04806327074766159
-0.00030003837309777737
0.010475299321115017
0.14433248341083527
0.022411281242966652
0.03350033238530159
0.06721609085798264
0.03380813077092171
0.0968392863869667
-0.0007828100933693349
0.0759701281785965
0.08401557803153992
-0.0008757817558944225
0.02543352171778679
0.029547277837991714
0.047880660742521286
0.20068003237247467
0.16210781037807465
0.04389423877000809
0.017525911331176758
0.023353025317192078
-0.003523995168507099
-0.004930539987981319
0.10721240937709808
-0.2549467086791992
-0.013305559754371643
-0.02244172804057598
0.010581559501588345
0.1475616842508316
-1.891475767479278e-05
0.14424091577529907
0.062102921307086945
0.011599408462643623
0.028781332075595856
-0.10966696590185165
0.034574173390865326
-0.008313636295497417
0.22963295876979828
0.10985849797725677
-0.00024733011377975345
-0.08287928998470306
0.21095626056194305
0.08840033411979675
-0.07643149793148041
-0.018195634707808495
-0.028992785140872
-0.0819159597158432
3.0903072911314666e-05
-0.008274354040622711
-0.013702871277928352
-0.07665793597698212
0.006621898617595434
0.006819738075137138
0.03567579388618469
0.005193870048969984
-0.0016904898220673203
0.05263644456863403
-0.07794508337974548
0.018633676692843437
-0.2258669137954712
0.0076113431714475155
-0.013120436109602451
-0.0003473655669949949
0.16523148119449615
-0.003010605927556753
-0.007299727760255337
0.03343811258673668
0.1641232669353485
0.05481010302901268
-0.2657415270805359
-0.023185208439826965
-0.022071925923228264
-0.0331798754632473
-0.003994240425527096
0.043406110256910324
0.03710043057799339
0.011872885748744011
0.0001018160764942877
0.003361389972269535
-0.03611188381910324
0.004877843428403139
-0.0007283473387360573
0.004290648736059666
-0.04929966479539871
-0.012655527330935001
-0.010617543943226337
-0.037577781826257706
-0.008657407946884632
-0.0001747502392390743
0.01534703467041254
0.003681889735162258
-0.08750919997692108
0.07920914888381958
0.19912579655647278
0.03303990885615349
-0.025616399943828583
0.024240730330348015
0.002796048764139414
0.024374809116125107
0.027198804542422295
-0.049734413623809814
-0.09319891035556793
0.03841030225157738
-0.018131587654352188
-0.0034183769021183252
0.017909396439790726
0.009754575788974762
-0.013393305242061615
-0.08713282644748688
-0.06205283850431442
-0.0005798701895400882
0.03357359766960144
-0.04215211421251297
0.02123606950044632
0.05629635602235794
-0.010143878869712353
-0.06505541503429413
-0.0006619964842684567
0.01647181436419487
-0.04048175364732742
-0.007256737444549799
0.11028145253658295
-0.21199706196784973
6.229118753253715e-06
0.014250547625124454
-0.02497338317334652
0.009490534663200378
0.003064272226765752
0.016381513327360153
-0.00039948493940755725
0.03324441611766815
-0.0006925689522176981
-0.007529161404818296
-0.009818999096751213
0.010263906791806221
0.012005981989204884
0.08819983899593353
-0.0001101428279071115
0.005416776053607464
0.0017118596006184816
0.003059402573853731
-0.0021871444769203663
0.056042082607746124
0.1745557337999344
-0.005451314151287079
-0.006234567146748304
0.015546392649412155
-0.1217188909649849
0.018269047141075134
0.009234367869794369
0.026225877925753593
-0.020795585587620735
0.0039110975340008736
0.031267549842596054
-0.03784966841340065
0.010471014305949211
-0.00753419753164053
0.0011344542726874352
-0.08912932127714157
-0.00041426249663345516
0.02430284023284912
-0.029137765988707542
-0.015316068194806576
0.04737497493624687
-0.0007563736871816218
-0.0038304137997329235
-0.028912341222167015
-8.11265708762221e-05
0.04203556478023529
-0.005530483555048704
0.02766461670398712
0.00030370696913450956
0.02541625127196312
-0.025670239701867104
-0.0192854143679142
-0.0005369989085011184
0.012086155824363232
0.09833896905183792
0.016759252175688744
-0.0084092877805233
-0.26856181025505066
0.0051619913429021835
0.08826100826263428
0.0052654012106359005
-0.0032648551277816296
0.026022708043456078
0.1736917644739151
-0.009666548110544682
-0.027218805626034737
-0.0395052395761013
0.0006285634008236229
0.010033145546913147
-0.1931835263967514
0.02469922974705696
-0.03537798672914505
-0.0028240601532161236
-0.07335233688354492
0.014802040532231331
-0.0044594076462090015
-0.08853745460510254
-0.03289707005023956
0.04044053703546524
-0.01688365824520588
-0.014019482769072056
-0.010890253819525242
-0.00030499568674713373
-0.1692238599061966
-0.01887817122042179
-0.020907167345285416
0.017841415479779243
0.04916903376579285
-0.0065263910219073296
0.3325168192386627
0.004506561439484358
0.01711680367588997
0.031851403415203094
-3.1890676837065257e-06
-0.0070397257804870605
0.0034106317907571793
0.08088233321905136
0.009417682886123657
0.010419107973575592
0.008086290210485458
-0.07106789946556091
-0.3312544524669647
-0.1668747216463089
-0.17263135313987732
0.06038271635770798
-0.0008503170101903379
-0.013712477870285511
0.0173479113727808
-0.01114986278116703
-0.031095175072550774
0.2820698916912079
0.07729748636484146
0.21748414635658264
-0.10123788565397263
0.014138531871140003
0.0005404299008660018
0.027060972526669502
0.07982755452394485
0.010844328440725803
-0.008877425454556942
0.09778609126806259
-0.009964564815163612
0.006018911488354206
-0.16796112060546875
-0.0707898885011673
-0.0010176390642300248
0.16540935635566711
-0.018999284133315086
-0.0006283721886575222
-0.13012373447418213
-0.003401905996724963
-0.027588237076997757
0.053659942001104355
0.00034504407085478306
-0.0010716478573158383
0.09191100299358368
-0.03322168439626694
-0.4021773636341095
0.04349065572023392
0.0006070156232453883
0.12134191393852234
0.05280723422765732
0.002200936432927847
-0.01373106986284256
-0.012977588921785355
-0.0038467661943286657
-0.0967128723859787
-0.013964658603072166
0.009101536124944687
-0.004587211646139622
0.03706763684749603
0.08671552687883377
0.17117930948734283
-0.005169836338609457
-0.03021252527832985
0.0408174991607666
0.01844063587486744
-0.014952939003705978
0.0024236897006630898
0.002731884364038706
-0.004210098646581173
-0.005361492745578289
-0.0004773251130245626
-0.010441143065690994
0.008904799818992615
-0.01790977083146572
-0.0154380789026618
0.042618390172719955
0.11949493736028671
0.00579878268763423
-0.015216417610645294
-0.02836254984140396
6.751212640665472e-05
-0.00847653578966856
-0.026492523029446602
-0.12231669574975967
-0.0030015085358172655
-0.01722632348537445
-0.0027863262221217155
0.0001484853564761579
-0.001781943254172802
0.008154826238751411
-0.0362335667014122
-0.04441293329000473
-0.006863921880722046
-0.00107085844501853
0.003325457451865077
0.015449535101652145
0.01317540928721428
0.0012996704317629337
-4.187634476693347e-05
-0.0010701974388211966
-0.025255922228097916
0.030740836635231972
-0.0014203180326148868
0.0012220005737617612
-0.017351975664496422
0.03791187331080437
-0.007003205828368664
0.002795675303786993
-0.011881665326654911
0.0016449391841888428
0.024483034387230873
-0.0018243399681523442
-0.03548893332481384
0.0030722871888428926
0.031518157571554184
-0.1520010083913803
-0.00394899258390069
0.011683773249387741
-0.0019825806375592947
-0.006048798561096191
6.505769124487415e-05
0.001967168413102627
0.013275641947984695
-6.53655079076998e-05
-0.0033737639896571636
0.000676062423735857
-0.00013971693988423795
-0.1277708113193512
0.034011103212833405
0.000554357364308089
0.02730453945696354
-0.003948186058551073
0.008223088458180428
-0.03436203673481941
0.019103193655610085
0.0014108170289546251
0.0036217656452208757
0.021373741328716278
0.001523918705061078
-0.010493721812963486
-0.040688641369342804
0.0015470735961571336
-0.006889555603265762
-0.0033896167296916246
-0.0027617542073130608
-0.01838269643485546
-0.002865409478545189
0.0013493142323568463
0.02504568360745907
0.021063705906271935
-0.008119677193462849
-0.0001132043544203043
0.032420188188552856
0.005696131382137537
0.006598137319087982
0.0050350637175142765
-0.0029739285819232464
0.0041037388145923615
-0.0003388316254131496
0.009826943278312683
0.05343514680862427
-0.0020330995321273804
-0.0018372538033872843
-0.018902147188782692
-0.0019304302986711264
-0.001882051001302898
-0.000998391886241734
0.010905043222010136
0.0011781718349084258
0.0001438652107026428
-3.490169910946861e-05
0.005308105144649744
0.004665328189730644
-0.004456802271306515
0.001099365414120257
0.00014961308625061065
-0.022515038028359413
-0.014680429361760616
0.001340142567642033
0.00378217501565814
0.00013631141337100416
0.0028392828535288572
-0.0074705989100039005
0.00383396097458899
-0.026579614728689194
0.005670056212693453
0.02112598903477192
0.020798565819859505
-0.0014499512035399675
0.008425877429544926
-0.007696011569350958
-0.0026602274738252163
0.002033420605584979
-0.002120926510542631
-0.014444833621382713
-0.002107391832396388
-0.012620359659194946
0.01570628024637699
-0.0004162649856880307
0.005958746187388897
-0.0048429393209517
0.00048620227607898414
-0.018766215071082115
-0.0013779728906229138
-0.003611574647948146
0.003411189652979374
-0.006279521156102419
0.011836725287139416
-0.00040099883335642517
-0.06855646520853043
-0.012641530483961105
0.00740127544850111
0.001562184072099626
-0.015388000756502151
0.0016338455025106668
-0.00021575065329670906
0.0007804432534612715
-0.023170096799731255
0.04360095039010048
0.036700211465358734
0.016868317499756813
-0.010435638017952442
-0.00034765087184496224
-0.03432794660329819
-0.021386515349149704
-0.0066359746269881725
-0.010053458623588085
-0.010500297881662846
-0.0076025440357625484
0.10766240954399109
-0.009094271808862686
0.0017741679912433028
-0.006023824214935303
-0.16257798671722412
0.003760707564651966
0.0025826136115938425
-0.0032226373441517353
-0.012931885197758675
0.006713658571243286
-0.002249948214739561
0.011200045235455036
-0.0006994472933001816
0.0005617051501758397
0.05902151018381119
0.0011480421526357532
0.008162403479218483
0.00028360073338262737
-0.006116816308349371
-0.0028048160020262003
-0.004108477383852005
-0.003639302682131529
-0.0808754712343216
0.00047716364497318864
0.00043103526695631444
-0.0017148999031633139
0.022506561130285263
-0.05912723019719124
0.0013600758975371718
-0.0228954516351223
-0.0033150550443679094
0.006197917275130749
0.0007351060048677027
-0.007599075324833393
0.001396922511048615
0.003006481798365712
-0.06873880326747894
-0.01702386699616909
0.07430126518011093
-0.06747457385063171
-0.005958519876003265
0.010229418985545635
0.000983362435363233
0.006967415567487478
0.005242796149104834
-0.01965169981122017
-0.004962247796356678
-0.15117141604423523
-0.03085647150874138
0.003552611917257309
0.0003508619265630841
0.0027974999975413084
-0.003139178967103362
0.0021033112425357103
-8.255285501945764e-05
-0.0018112290417775512
-0.005304228514432907
-0.002018229104578495
-0.06220099702477455
0.0729677826166153
0.012701502069830894
-0.006634037010371685
0.006059694103896618
0.0006215363973751664
0.0021308069117367268
0.0010616567451506853
0.008563109673559666
0.012204115279018879
0.0870889201760292
0.0017365043750032783
-0.000760455324780196
0.0005337612819857895
0.006436747033149004
-0.006259189452975988
0.004160583950579166
0.051144078373909
0.006798601243644953
-0.001172857591882348
0.00424928916618228
0.0012790701584890485
-0.010420601814985275
-0.0072229946963489056
0.0027630054391920567
0.011885221116244793
0.002283764537423849
-0.07705235481262207
-0.02998291701078415
-0.006377232726663351
0.004939098376780748
0.025500629097223282
-0.009554367512464523
-0.015466930344700813
-0.050981856882572174
-0.3244498670101166
-0.32061660289764404
-0.011455087922513485
-0.04683688282966614
0.0005926140001975
-0.353326678276062
-0.8243422508239746
-0.4761790335178375
-0.11499159783124924
0.12363193184137344
0.039611637592315674
0.23346176743507385
-0.04196774959564209
-0.003355995286256075
0.00030524207977578044
-0.009368039667606354
0.20469121634960175
0.021805724129080772
-0.305563747882843
0.2589259743690491
-0.4095243215560913
-0.7171181440353394
0.0007118195644579828
-0.02206280268728733
-0.0011362755903974175
0.014720025472342968
-0.08049537986516953
0.017113901674747467
0.2853064239025116
0.03250141441822052
0.005410831421613693
-0.4438256323337555
0.2701740562915802
-0.30766943097114563
-0.14857344329357147
0.005703570321202278
-0.33040085434913635
-2.628459333209321e-05
-0.25068455934524536
-0.0919906497001648
0.00948040746152401
-0.3266296982765198
0.24945470690727234
-0.3367054760456085
-0.10289236903190613
-0.4236406683921814
-0.18483614921569824
-0.5550976991653442
0.019223330542445183
0.026190070435404778
-0.39790722727775574
-0.1016002744436264
0.0005122162983752787
0.3043794333934784
0.694158136844635
-0.323525071144104
-0.13629759848117828
-0.0038549466989934444
-0.2650233209133148
0.10687876492738724
-0.4492172300815582
0.0165812149643898
0.0008392881718464196
0.0006150201661512256
-0.04691970348358154
-0.31520429253578186
0.12981636822223663
-0.3343797028064728
0.061009831726551056
-0.0705508440732956
-0.2501908242702484
0.03642503544688225
0.13599826395511627
0.1653139442205429
0.048158060759305954
0.09371990710496902
-0.19261810183525085
-0.06936860084533691
-0.23959465324878693
-0.22269251942634583
0.1563638597726822
-0.45311689376831055
-0.10988426208496094
0.09179476648569107
0.049556341022253036
0.0017817126354202628
-0.06560146063566208
-0.41399216651916504
0.5625335574150085
-0.3448941707611084
-0.541045069694519
0.06254204362630844
-0.2437594085931778
0.037202589213848114
0.05979675427079201
-0.07354624569416046
-0.35348647832870483
0.2128884643316269
0.0005425678100436926
-0.40024787187576294
-0.08601591736078262
0.3727690577507019
-0.26481765508651733
0.020316611975431442
0.0011587588815018535
-0.22719711065292358
0.15792933106422424
-0.09007581323385239
-0.33307352662086487
-0.33198192715644836
0.08523298054933548
-0.23095163702964783
0.0011059872340410948
-0.25844889879226685
0.4892611503601074
0.009547119960188866
-0.5630055665969849
-0.008516024798154831
0.14439596235752106
-0.09590446203947067
-0.049621593207120895
0.39795029163360596
-0.15136846899986267
-0.7591126561164856
-0.3057396113872528
-0.5716201663017273
-0.23596525192260742
0.08215321600437164
0.08640237152576447
0.042036429047584534
0.0028703706339001656
0.0303356871008873
-0.0018229989800602198
0.04265150427818298
0.026313776150345802
0.014718156307935715
0.0022510166745632887
0.018764592707157135
0.025920741260051727
0.04806777089834213
0.04309326782822609
0.012257070280611515
-0.0013593700714409351
0.012439350597560406
0.00854536797851324
0.02770511619746685
0.07683742791414261
0.20523980259895325
0.002357234014198184
0.048951368778944016
-0.0003848701308015734
0.008234228938817978
0.014463428407907486
0.09381043910980225
-0.004471601452678442
0.05005248263478279
0.041014499962329865
0.01664021424949169
0.000888320617377758
0.012988750822842121
0.11641053855419159
0.10313832014799118
0.06365412473678589
0.00941073801368475
0.012524763122200966
-0.0006741457618772984
0.051481395959854126
0.020177187398076057
0.0015017673140391707
0.0626542866230011
0.09933911263942719
0.023434573784470558
0.10589850693941116
0.0028752456419169903
0.02629704400897026
0.027224786579608917
0.03317723795771599
0.05201975256204605
0.003562402678653598
0.26150980591773987
-0.0006158884498290718
0.09011299163103104
0.4436839818954468
0.011414933018386364
0.053151607513427734
0.007073225453495979
0.004846550989896059
0.07178962975740433
0.019930429756641388
0.007598725147545338
0.008005845360457897
-1.4365406968863681e-05
0.001706693903543055
0.003211928764358163
0.05331944301724434
0.01702917367219925
0.1095074862241745
0.04149085283279419
0.09716449677944183
0.052893154323101044
0.08303239196538925
0.0599273182451725
0.003822655649855733
0.03054884448647499
0.018215777352452278
0.4727458357810974
-0.008408854715526104
-0.0014562839642167091
0.05904193967580795
0.005396929103881121
0.024238642305135727
0.03485710546374321
0.016292264685034752
0.000702919322066009
0.12396454811096191
0.0833224281668663
0.1729109138250351
-0.0012318403460085392
0.016529908403754234
0.017681367695331573
0.026359140872955322
0.03397772088646889
0.010948979295790195
-0.0038034594617784023
0.038292817771434784
0.09206002950668335
-0.0004719439602922648
0.20219095051288605
0.02827957086265087
0.03956025838851929
0.026834584772586823
0.05806612968444824
-0.0006982830818742514
0.00696656946092844
0.13747265934944153
0.015853656455874443
0.01740722544491291
0.07279184460639954
0.014469519257545471
0.016887951642274857
-0.0020255413837730885
0.12755385041236877
0.1616123914718628
-0.0008066960726864636
0.007959823124110699
0.01492560189217329
0.05224870145320892
0.17733775079250336
0.11083504557609558
0.06846166402101517
0.019699081778526306
0.031863123178482056
-0.0014385837130248547
-0.004946645349264145
0.0523478128015995
