1.2426732778549194
-0.0034617881756275892
0.8778572082519531
1.8080363273620605
-0.00568055035546422
-0.0025629953015595675
0.9434479475021362
-0.005030402913689613
0.615127444267273
0.550961434841156
0.809040904045105
2.033383846282959
0.6679860353469849
0.2885855734348297
1.4478332996368408
0.7876854538917542
0.45734715461730957
0.004391796421259642
0.1659468710422516
2.9651588192791678e-05
0.14141708612442017
-0.005304523278027773
0.6689912676811218
0.665353000164032
-0.0019911990966647863
0.07123743742704391
0.21902130544185638
0.4049415588378906
0.3531929850578308
1.483730435371399
1.0188417434692383
0.0373854897916317
0.834710955619812
1.0239344835281372
-0.006776922382414341
0.9044274687767029
0.5261287689208984
-0.012227109633386135
1.9917278289794922
0.12142901867628098
0.17557267844676971
0.4023706018924713
0.6356334090232849
-0.005486861802637577
0.770270824432373
0.7520982623100281
-0.005379830487072468
0.43386778235435486
0.7419281005859375
-0.001208135043270886
0.25266364216804504
1.4370204210281372
0.20073769986629486
0.1852521449327469
0.0034840248990803957
0.005451743025332689
1.0738029479980469
-0.0019834409467875957
0.5329292416572571
0.36274048686027527
0.20742103457450867
-0.002599048661068082
0.4252031147480011
0.4477667212486267
0.3216482102870941
0.17193946242332458
-0.0015168942045420408
0.01182042621076107
-0.0014251063112169504
0.23908714950084686
-0.005025922786444426
-0.0019793566316366196
0.08066073060035706
-0.005093944258987904
0.46526119112968445
0.7350689172744751
-0.002673494629561901
0.21389348804950714
0.011980719864368439
-0.002268328098580241
1.490535855293274
0.11063886433839798
1.2485058307647705
0.4482741355895996
0.6937050819396973
0.34139901399612427
0.02791670337319374
0.5342165231704712
0.3429286777973175
0.3642611801624298
0.31990450620651245
0.8130761981010437
0.07779386639595032
-0.006196896079927683
0.5301997661590576
0.03768351301550865
-0.00037536933086812496
0.003151202341541648
-0.002471913816407323
-0.007643777411431074
-0.01024763286113739
-0.00562992924824357
-0.007997862994670868
0.029531266540288925
-0.0027858370449393988
-0.0033273573499172926
-0.0013431459665298462
0.002211345825344324
0.0004104186955373734
-0.004808295518159866
0.10035647451877594
0.47596314549446106
0.14081068336963654
0.7417004108428955
0.14371609687805176
-0.0008752012508921325
1.1642870903015137
-0.00010663674038369209
-0.0043869526125490665
0.42675769329071045
-0.0020775836892426014
0.0020152032375335693
-0.002394508570432663
0.13758818805217743
0.005186385940760374
0.5756710171699524
-0.006111045368015766
0.04673943296074867
