0.056991443037986755
0.033594053238630295
0.0010747943306341767
0.06438440084457397
0.04285922273993492
0.013538782484829426
0.0498679094016552
0.060284651815891266
0.029224343597888947
-0.028362547978758812
-0.0035770279355347157
-0.008843634277582169
-0.022478150203824043
-0.009919492527842522
-0.009104813449084759
-0.023483024910092354
0.0011900002136826515
0.001750114024616778
0.01824967749416828
0.006884966976940632
-0.00742939580231905
0.0047542438842356205
-0.0046482812613248825
-0.02653368189930916
0.010708638466894627
-0.00017830183787737042
-0.03253679350018501
0.0037374061066657305
0.019796913489699364
0.030397852882742882
0.0038535690400749445
0.021035468205809593
0.035437967628240585
0.0028940930496901274
0.026022519916296005
0.01835978403687477
0.010231423191726208
0.004176987335085869
0.0059689623303711414
0.008674650453031063
0.0039061170537024736
0.007917494513094425
0.012544838711619377
0.008767681196331978
0.008627431467175484
-0.034605544060468674
0.01255865953862667
0.042165905237197876
-0.008469734340906143
0.037498410791158676
-0.018499547615647316
-0.006744409911334515
0.04597334936261177
-0.0022993846796453
0.039627160876989365
0.06862103193998337
-0.005467778071761131
0.0478331632912159
0.05381167307496071
-0.008330578915774822
0.07173553854227066
0.0236961729824543
0.031825777143239975
0.00459503848105669
0.009998188354074955
0.011954870074987411
0.03102179430425167
0.02599230594933033
0.030048146843910217
0.0048129623755812645
0.022162331268191338
0.018216988071799278
0.0173302311450243
-0.01316441036760807
0.002133689820766449
0.008155065588653088
-0.00038891908479854465
0.021968312561511993
0.0048454804345965385
0.000408663647249341
0.017138317227363586
-0.015580050647258759
-0.023437514901161194
-0.021282928064465523
0.021398205310106277
0.03187771141529083
0.018437551334500313
0.023287685588002205
0.03520297259092331
0.04726920276880264
-0.012307275086641312
0.02327067032456398
-0.014334666542708874
0.0017895573982968926
0.024635503068566322
-0.008632058277726173
0.011217798106372356
0.0006436198600567877
-0.004323631525039673
-0.00027633251738734543
0.023972366005182266
0.033375345170497894
0.006909602787345648
0.03933971747756004
0.014271409250795841
0.002020047977566719
0.03827935457229614
-0.032648470252752304
0.004288727883249521
-0.0094255730509758
-0.0051884776912629604
0.014036417938768864
-0.004091864917427301
-0.034867070615291595
0.025898102670907974
0.024370267987251282
-0.01343011949211359
0.030648106709122658
0.04798027127981186
0.056654542684555054
0.026485338807106018
0.024061718955636024
0.07611297816038132
0.04039344936609268
0.05792703479528427
0.0808052122592926
0.03621688112616539
-0.011114014312624931
-1.1931102562812157e-05
0.03964853286743164
0.0006645585526712239
-0.0012187464162707329
0.03696700185537338
0.03720101714134216
-0.001722413580864668
-0.025435354560613632
-0.017925158143043518
-0.012490351684391499
-0.011965694837272167
-0.03617753088474274
-0.010697513818740845
-0.005348981358110905
-0.024724993854761124
0.002666804241016507
-0.016014065593481064
-0.01517067663371563
0.009886989369988441
-0.012012428604066372
-0.014318551868200302
0.008083486929535866
-0.023657912388443947
0.010912945494055748
0.030095461755990982
-0.017915861681103706
-0.0031089906115084887
-0.02118905819952488
0.010783995501697063
-0.026887284591794014
-0.02651975303888321
0.008877739310264587
-0.014363032765686512
-0.007883145473897457
-0.01762910559773445
0.002707673702389002
-0.0020113899372518063
-0.0011446122080087662
0.009935474954545498
-0.003953277599066496
-0.007014492992311716
0.012659073807299137
-0.002215260872617364
-0.012670693919062614
0.047064054757356644
0.013053772039711475
0.014674736186861992
0.044233404099941254
-0.001408510492183268
-0.017883481457829475
0.016536770388484
-0.022101597860455513
-0.007609744556248188
0.01347455196082592
-0.014789601787924767
-0.006098491605371237
0.014033486135303974
-0.03146540746092796
0.007930267602205276
0.021908963099122047
-0.02787870168685913
-0.02225990779697895
0.04506518691778183
0.0399932824075222
-0.01602095365524292
0.08838556706905365
-0.013128921389579773
0.04056762903928757
0.09289298951625824
-0.06453807651996613
0.003937921021133661
0.050776056945323944
0.01314467377960682
0.010262563824653625
0.052464716136455536
-0.023316947743296623
0.02466592751443386
0.026458241045475006
0.0074226814322173595
0.03782961517572403
-0.012466882355511189
-0.014416929334402084
0.0065529621206223965
-0.027989719063043594
-0.01615704782307148
-0.0062744468450546265
-0.01876354031264782
-0.017963968217372894
-0.044773317873477936
0.059704165905714035
-0.007514194119721651
-0.038415178656578064
0.004903987515717745
-0.022105136886239052
0.002916628262028098
-0.01091184001415968
-0.008521565236151218
-0.02068774402141571
-0.027313709259033203
0.01670265384018421
-0.016629328951239586
-0.026486830785870552
0.0053931912407279015
-0.025906655937433243
-0.03749383985996246
0.022180547937750816
0.0199703611433506
0.023929713293910027
0.03066103532910347
0.006890019867569208
0.002179156057536602
-0.004531373735517263
-0.004908307921141386
0.010456635616719723
-0.002680730540305376
-0.034069180488586426
0.012604914605617523
-0.007556913886219263
-0.014155121520161629
0.007341605611145496
-0.022919507697224617
0.004977463278919458
0.020011767745018005
-0.016003727912902832
0.052789367735385895
0.0457824170589447
-0.010830746032297611
0.017305415123701096
-0.020036455243825912
0.06189654394984245
-0.0037551852874457836
-0.027208082377910614
0.08439996838569641
0.04402989521622658
0.028152886778116226
0.014082187786698341
0.018531691282987595
0.009923863224685192
0.033079419285058975
0.010442809201776981
0.014567486941814423
0.01394952367991209
0.0014648244250565767
0.01489989459514618
0.00843749474734068
0.004330972209572792
-0.006830279715359211
0.01863067038357258
0.02122870646417141
-0.0031749289482831955
-0.006541714537888765
-0.009030524641275406
-0.004349736031144857
-0.028873812407255173
-0.015565474517643452
-0.020262332633137703
-0.04081692174077034
-0.00611967034637928
-0.01613878272473812
-0.038212068378925323
-0.0022327720653265715
-0.002413939917460084
-0.0026254348922520876
0.0005996753461658955
0.0012626196257770061
-0.003412350080907345
-0.001289687817916274
-0.00043982494389638305
3.915948036592454e-05
-0.0009237800841219723
4.326087946537882e-05
-0.000988102052360773
-0.0017733558779582381
-0.0006412434740923345
0.0013255708618089557
0.0006023418973200023
0.0012418841943144798
0.0006557412561960518
0.0019951786380261183
0.001916301785968244
0.0008197542047128081
0.0017939539393410087
0.002259217668324709
0.0016567484708502889
0.002435350092127919
0.002377408556640148
-0.0001939014036906883
-0.00032361503690481186
-0.002493147738277912
0.0018413335783407092
-0.0016538307536393404
-0.001060999697074294
0.005395395681262016
0.0034781687427312136
0.0037622060626745224
-0.0008626342169009149
-0.0010683422442525625
-0.0008452863548882306
-0.00018351495964452624
0.0001607699232408777
0.00038161472184583545
-0.0011404824908822775
-0.0007792810793034732
-0.0005861787940375507
0.003028633538633585
0.0023094327189028263
0.0016598100773990154
8.271985279861838e-05
-7.246480436151614e-06
-0.00023625798348803073
0.0013433713465929031
0.0008184855687431991
0.000717389106284827
0.00247823353856802
0.002699643839150667
0.0022117700427770615
0.003269854001700878
0.0020175790414214134
0.001469567185267806
0.003626543330028653
0.0020512985065579414
0.0012275140034034848
5.671801045536995e-05
0.0006903501343913376
0.0011756090680137277
0.0011392098385840654
0.001392077305354178
0.0015927290078252554
0.0007041923236101866
0.0006838843692094088
0.0010902343783527613
-0.001557585783302784
-0.0005639596492983401
-0.0004937353078275919
-0.0014202758902683854
-0.00020778211182914674
0.00022624514531344175
-0.001283219433389604
-6.637455226154998e-05
0.00025454891147091985
-0.0005092928768135607
0.0002570504730101675
0.000509059929754585
0.00010915676830336452
0.0007408669334836304
0.00036440810072235763
-0.0006461567827500403
0.0001257347030332312
-0.0001558559451950714
-0.00019154771871399134
-0.0006567625096067786
-0.0006594923324882984
-0.0010898788459599018
-0.0005746972165070474
-0.0008409059955738485
-0.0010294878156855702
-0.0004516658082138747
-0.0007786088390275836
-0.00032435054890811443
0.0007467744289897382
-0.0007442118367180228
-0.0004234661755617708
0.0006472415989264846
0.00012287410208955407
0.00034820230212062597
-0.00021142722107470036
0.0006477467832155526
0.0013013307470828295
-0.0012976689031347632
-0.0018284657271578908
0.00027106812922284007
-0.0008254754939116538
-0.0010946760885417461
-0.00018326599092688411
-0.0009988461388275027
-0.0010775523260235786
-0.0023123647551983595
0.0008139516576193273
0.0013560797087848186
0.000977888936176896
0.0007393726264126599
0.0015837633982300758
0.0008649056544527411
0.0009885025210678577
0.0013383455807343125
0.001965866656973958
0.0020510440226644278
0.0024878093972802162
0.0023366203531622887
0.0019432868575677276
0.0028372392989695072
0.0016927295364439487
0.0015450562350451946
0.0028464568313211203
0.0018247368279844522
-0.0006184452795423567
-0.00011452990293037146
-0.00016702721768524498
-0.00041126017458736897
-0.0005508281756192446
-0.00021174436551518738
1.9907098248950206e-05
0.0005676056025549769
-5.803874955745414e-05
0.00018018105765804648
0.0008158364216797054
0.0002996919211000204
0.000633000279776752
0.0011777773033827543
0.0002633133844938129
-6.60272198729217e-05
-0.00033871244522742927
-0.0003316145157441497
-0.000607036636210978
-0.00029926138813607395
-0.00024890355416573584
-0.00021438706608023494
0.0005182449822314084
0.0006007883348502219
-0.0013663972495123744
0.00010314711107639596
0.0006637204205617309
-0.0007392352563329041
-0.00046233381726779044
-0.0009893843671306968
-0.0006409011548385024
-0.0005047288723289967
-0.0015930174849927425
-0.0011501056142151356
-0.00095541519112885
-0.001371097401715815
-0.0015091000823304057
-0.0008166150073520839
-0.001773195224814117
-0.0014831067528575659
-0.00036104777245782316
-0.0012430869974195957
-0.0018332106992602348
-0.0001702105364529416
-0.0002897815138567239
0.0014543556608259678
-0.00016126631817314774
-0.002105943625792861
-7.936451584100723e-05
5.5815591622376814e-05
0.00015023996820673347
-0.00024469176423735917
-0.0015292891766875982
-0.00023262109607458115
-0.0020162302535027266
-0.000778169312980026
0.0031328266486525536
1.4809214007982519e-05
-0.00014523159188684076
-0.0007681836723349988
0.0005872375913895667
-0.0009158009197562933
-0.000649214896839112
-0.000782956660259515
-0.00023974748910404742
-0.0009605588275007904
-0.00048661199980415404
0.00030756613705307245
-4.2819094232982025e-05
-0.0007606017752550542
0.0001950484438566491
5.998217602609657e-05
-0.001171427546069026
-0.000475272536277771
-0.0022415725979954004
-0.0005173865356482565
0.0006128215463832021
-0.00047605662257410586
0.00027245545061305165
0.0011551097268238664
0.00021608886891044676
0.0010049768025055528
-0.00015864249144215137
0.0011364036472514272
0.0010237934766337276
1.1913721209566575e-05
0.000984948710538447
0.0012059744913130999
-0.000362941762432456
8.188462379621342e-05
8.719436300452799e-05
-0.00015259269275702536
-0.0004933224990963936
0.000259450520388782
-0.00011883414845215157
4.9986192607320845e-05
0.0011595410760492086
0.00017811308498494327
-0.0014344495721161366
-0.0017972602508962154
-0.0010740652214735746
-0.0025641487445682287
-0.0018063331954181194
-0.001394446357153356
-0.0024353694170713425
-0.0022583110257983208
-0.0017099545802921057
-0.0014597796835005283
-0.00015307725698221475
0.0001944624091265723
0.0008601401932537556
-2.0827217667829245e-05
-9.508233779342845e-05
0.00032872369047254324
-0.0003050657396670431
-0.00012855489330831915
-0.00039914596709422767
-0.00022851441462989897
0.0004556142375804484
-0.0009017891716212034
0.0004868795513175428
0.00023991685884539038
-0.001107171643525362
0.0008089860784821212
-0.0003472417301964015
-0.0004302608431316912
0.001900779432617128
0.0014029452577233315
0.0010236252564936876
0.0006089996895752847
0.0011162323644384742
0.0010672599310055375
0.0003416593826841563
0.000786591088399291
0.0007546621491201222
0.000627044471912086
0.0008450172026641667
0.0007062191725708544
-0.0002817224303726107
0.0007382751791737974
0.00042813780601136386
-0.0004033762961626053
9.62686535785906e-05
-0.0005380372167564929
-0.001993870595470071
-0.0015037533594295382
-0.000351956783561036
-0.0015677105402573943
-0.0012924287002533674
-0.001170872594229877
-0.002305020811036229
-0.002266925061121583
-0.002128979191184044
0.09779138118028641
0.06726902723312378
-0.10892066359519958
0.10831940919160843
-0.016132187098264694
-0.11843337118625641
-0.030980659648776054
-0.03210040181875229
-0.05561165511608124
0.009454754181206226
0.011006742715835571
-0.011865452863276005
0.011840471997857094
0.05133526399731636
-0.004923202097415924
-0.016669590026140213
0.0068850331008434296
-0.024996623396873474
-0.05203855037689209
0.01964646391570568
-0.02118050493299961
-0.05221589282155037
0.02890791930258274
-0.035442158579826355
-0.04293674975633621
0.03205329552292824
-0.033362261950969696
0.008959264494478703
0.0408148393034935
0.027870044112205505
0.00022640035604126751
0.04377664253115654
0.023105816915631294
0.010657590813934803
0.023683803156018257
-0.0001880447962321341
-0.0036045315209776163
-0.007071843836456537
0.005362752825021744
-0.006903018802404404
-0.012326537631452084
0.0009962312178686261
-0.0021810010075569153
-0.006722679361701012
0.008677062578499317
-0.1384200006723404
-0.013389854691922665
0.04025261476635933
-0.12687383592128754
0.041875168681144714
0.09186537563800812
-0.05342083051800728
0.1416613906621933
0.14132580161094666
0.09466070681810379
0.04671020805835724
-0.05559762567281723
0.0918564647436142
0.008802087046205997
-0.08450264483690262
0.03568512201309204
0.007234287913888693
-0.105679452419281
0.04426286369562149
0.007582210935652256
-0.03433678299188614
0.03380901739001274
0.013171679340302944
-0.030340716242790222
-0.003641175338998437
-0.010327854193747044
-0.035687338560819626
-0.027844944968819618
0.06597810983657837
0.06643350422382355
-0.03296781703829765
0.09968145191669464
0.09493228793144226
0.0068985954858362675
0.13570557534694672
0.08005707710981369
-0.04409327730536461
-0.029957322403788567
-0.027699491009116173
0.008810548111796379
-0.008822030387818813
-0.04092735797166824
-0.014246843755245209
-0.005276835989207029
0.019833944737911224
-0.030895859003067017
0.015924260020256042
0.030262939631938934
-0.010038751177489758
0.022380521520972252
0.036268189549446106
-0.039681728929281235
0.0277592521160841
0.030181700363755226
-0.0455898642539978
0.0300676878541708
0.09591279923915863
-0.030727220699191093
0.03540424257516861
0.07978362590074539
0.02256355807185173
0.11311095207929611
0.11828561127185822
-0.05304489657282829
-0.004035565070807934
0.028458984568715096
-0.11156383901834488
-0.012416216544806957
0.04176647216081619
-0.08309002220630646
0.04961256682872772
0.05602796748280525
0.0036708093248307705
0.07228054851293564
0.0387645922601223
0.013765889219939709
0.028830017894506454
0.012488303706049919
0.01765122450888157
0.04982044920325279
0.028731578961014748
-0.032210323959589005
-0.09855356067419052
0.1136552095413208
-0.08137569576501846
-0.0633491724729538
0.1025836169719696
-0.13249588012695312
-0.026171628385782242
0.12432490289211273
-0.02770751528441906
-0.030814336612820625
-0.01366787776350975
-0.014051192440092564
0.03839664161205292
-0.01366538554430008
-0.0002070123009616509
-0.0024128868244588375
0.028631726279854774
-0.022314639762043953
0.034446049481630325
0.021264437586069107
-0.05156844109296799
0.014570755884051323
-0.03415284678339958
-0.03085409663617611
0.04227771982550621
-0.013839894905686378
0.02172994613647461
0.1033807247877121
0.0819636806845665
0.004800522234290838
-0.010186294093728065
-0.022591061890125275
0.007838651537895203
0.05059270188212395
0.07998846471309662
0.029157185927033424
0.022114936262369156
-0.011005716398358345
0.010178769007325172
0.020741062238812447
-0.017707254737615585
-0.006009223870933056
0.010308336466550827
-0.03678407147526741
0.14443695545196533
-0.03230186179280281
-0.06855785846710205
0.12478088587522507
-0.04934908449649811
-0.027668019756674767
0.1573859304189682
0.015986183658242226
-0.019146159291267395
-0.04207073152065277
-0.013328813947737217
-0.039130277931690216
0.016661500558257103
-0.006959681399166584
0.006646325346082449
0.007904963567852974
0.00883086770772934
0.019015470519661903
-0.3459610044956207
-0.0005456730141304433
0.17067071795463562
-0.38533011078834534
0.10436370968818665
0.23027607798576355
-0.17630557715892792
0.15608829259872437
0.19842809438705444
-0.0722656324505806
0.026237905025482178
-0.022411305457353592
-0.03586472570896149
0.03271114453673363
0.04386034980416298
-0.004609411582350731
-0.008151797577738762
0.06991046667098999
0.100071020424366
-0.037154894322156906
-0.05145569518208504
0.09006007760763168
-0.06878946721553802
-0.04009152576327324
0.08884231001138687
-0.06382321566343307
-0.003285576356574893
-0.07483798265457153
0.06548257917165756
0.04114317521452904
-0.033867593854665756
0.07559534162282944
0.025656020268797874
0.08473940938711166
0.057594262063503265
0.00038791491533629596
0.0015531915705651045
0.06914975494146347
0.06891358643770218
0.06940056383609772
0.07394441962242126
0.03837404027581215
0.0947348028421402
0.10869965702295303
0.0457308255136013
-0.0018651597201824188
0.0014937403611838818
-0.053334109485149384
0.00706793088465929
0.01789429970085621
-0.037323128432035446
0.010697878897190094
0.0069726863875985146
-0.028582165017724037
0.05267014726996422
-0.005357596557587385
-0.0561215803027153
0.069404736161232
-0.001072562183253467
-0.0036136796697974205
0.0220539178699255
-0.0043939705938100815
0.005142895970493555
0.17627090215682983
-0.030623668804764748
-0.00020574830705299973
0.150248184800148
-0.050433628261089325
-0.06725546717643738
0.13960739970207214
-0.04956120252609253
-0.026772961020469666
-0.05654151365160942
0.00993654876947403
0.08757137507200241
-0.008405576460063457
0.0032360563054680824
0.05287354066967964
0.07893002778291702
-0.03481613099575043
0.043931975960731506
-0.04362882673740387
-0.04387510195374489
0.03835519403219223
-0.02337859570980072
-0.0075286212377250195
0.06294573098421097
0.00038145153666846454
-0.018191175535321236
0.036167263984680176
-0.11736579984426498
0.0505671389400959
0.04656982421875
-0.1335252821445465
0.04661732539534569
0.020245661959052086
-0.05882477015256882
0.02945076860487461
0.00525021692737937
-0.016257289797067642
-0.025707900524139404
0.005126254167407751
0.016919191926717758
0.014936773106455803
-0.05672922357916832
-0.028350945562124252
0.09446484595537186
-0.034280989319086075
0.0012942531611770391
-0.011648117564618587
0.021676762029528618
-0.022987332195043564
-0.006101280450820923
0.05020896717905998
0.018920019268989563
-0.0007009112741798162
0.035431914031505585
0.006833452731370926
0.08054573833942413
-0.14448322355747223
-0.015161725692451
0.03345579281449318
-0.19288645684719086
0.00875145010650158
0.07529681921005249
-0.1646130383014679
-0.036898743361234665
0.07538048177957535
-0.033588193356990814
-0.10021134465932846
0.06721190363168716
8.954157237894833e-05
-0.059541407972574234
0.05076424404978752
-0.06190627068281174
0.02843177504837513
-0.004574976395815611
-0.03146946802735329
0.0268771443516016
-0.012379421852529049
-0.04339580982923508
0.029158761724829674
-0.006480625364929438
-0.03507428988814354
0.0064487820491194725
0.04597654566168785
-0.06922737509012222
0.012090410105884075
0.018302829936146736
-0.09735172241926193
0.006697619333863258
0.0026083013508468866
-0.11830149590969086
0.034644708037376404
-0.04284185171127319
-0.0738440677523613
0.09191644936800003
-0.02160291187465191
-0.057948969304561615
0.052379265427589417
0.04548358917236328
-0.049324508756399155
0.03566795960068703
0.14711600542068481
-0.0753110945224762
0.02577834390103817
0.15776890516281128
-0.07601363211870193
0.02294667437672615
0.13533823192119598
-0.11415626853704453
0.05778252333402634
0.07098708301782608
-0.006286690942943096
-0.002621457213535905
0.026988238096237183
0.017353393137454987
0.07527998834848404
0.06392864882946014
-0.010367361828684807
0.07067453861236572
0.019439389929175377
-0.06781990081071854
-0.012083564884960651
0.01656395010650158
0.00031398050487041473
0.05357407405972481
-0.007823225110769272
-0.05364936962723732
0.03200048953294754
-0.018933260813355446
-0.027663953602313995
0.07817743718624115
0.016265280544757843
-0.03351990878582001
0.09575909376144409
0.028105054050683975
-0.02127239480614662
-0.021998468786478043
-0.016673972830176353
-0.008480089716613293
0.0025629764422774315
-0.012381496839225292
0.05591009557247162
-0.02732345275580883
-0.06517823785543442
0.0553695373237133
0.03176291659474373
-0.002886193571612239
0.0007101077353581786
0.036871396005153656
-0.008613982237875462
0.012108296155929565
0.019810864701867104
-0.022908886894583702
-0.06956370174884796
-0.1916133314371109
0.019886218011379242
0.11694047600030899
-0.20793692767620087
0.014786875806748867
0.10561977326869965
-0.1748964637517929
-0.014146252535283566
0.08415520936250687
-0.016729218885302544
0.123904749751091
-0.0539029985666275
-0.03740664944052696
0.003837710479274392
-0.04688539728522301
0.08219996839761734
-0.004497501999139786
-0.08987854421138763
-0.022326616570353508
-0.028800083324313164
0.027876652777194977
-0.004723959136754274
-0.011535569094121456
0.010249534621834755
0.01570962183177471
-0.022398725152015686
0.028599493205547333
0.05177069455385208
-0.018019795417785645
-0.019483979791402817
0.018814558163285255
0.05410857871174812
0.0054633100517094135
0.09935202449560165
0.02282728999853134
0.017980583012104034
0.04142359271645546
0.027494432404637337
0.12855611741542816
-0.021089810878038406
-0.009443247690796852
0.07593068480491638
0.007734863553196192
-0.06654120236635208
0.04844421148300171
0.07612968981266022
-0.011773083359003067
0.010414761491119862
0.07290787249803543
-0.03047715499997139
-0.006533782929182053
0.05867365375161171
-0.042447905987501144
-0.02962459996342659
-0.021817097440361977
0.10648544877767563
-0.057996999472379684
-0.07617087662220001
0.07881458848714828
0.0021427928004413843
-0.029063284397125244
0.002430220367386937
-0.02310861647129059
0.11303481459617615
0.04652119427919388
-0.16464863717556
0.17553932964801788
0.031612250953912735
-0.19771431386470795
0.2025786191225052
0.07016017287969589
-0.2863443195819855
-0.027336305007338524
0.023191075772047043
0.05828757956624031
-0.009550292044878006
0.04642823711037636
0.05612412095069885
-0.06576383858919144
0.007079137023538351
0.10779456794261932
-0.11271362751722336
0.05374842882156372
0.028956672176718712
-0.10728875547647476
0.043490394949913025
0.053256988525390625
-0.049953509122133255
0.04961409047245979
0.007282414473593235
0.39271634817123413
0.036616187542676926
-0.46933895349502563
0.4578815698623657
0.023348646238446236
-0.5609599947929382
0.545025646686554
0.06030355393886566
-0.5535576939582825
-0.029095472767949104
0.013164042495191097
-0.024203874170780182
0.003632231382653117
-0.007704471703618765
-0.008536823093891144
-0.023665310814976692
-0.015324700623750687
-0.0014274049317464232
-0.016622468829154968
0.01406257227063179
0.0591203011572361
0.0037577440962195396
0.01333715207874775
-0.004490950610488653
0.034991536289453506
0.028722083196043968
-0.024165328592061996
0.011067160405218601
0.11353814601898193
-0.07518515735864639
0.009345881640911102
0.08373478800058365
-0.08934342116117477
-0.007683192379772663
0.052184510976076126
-0.1401488035917282
-0.11070390045642853
0.08365798741579056
0.09429268538951874
-0.07466544210910797
0.06432273238897324
0.09208519011735916
-0.07419655472040176
0.0024983638431876898
0.05261092633008957
-0.009358310140669346
0.033603593707084656
-0.02676767110824585
0.02523362636566162
0.04019264131784439
0.035326700657606125
0.06136276200413704
0.05715901032090187
0.001062482362613082
-0.19014224410057068
0.03752921521663666
0.19590705633163452
-0.2420482635498047
0.04096956178545952
0.29480141401290894
-0.23952946066856384
-0.03406558930873871
0.19994229078292847
-0.04235520213842392
0.01971246302127838
-0.058714475482702255
0.012864098884165287
-0.013071642257273197
0.01087656058371067
0.029255013912916183
0.021021142601966858
-0.023721987381577492
-0.45243337750434875
0.2782869040966034
0.3656446635723114
-0.6034454107284546
0.19384263455867767
0.3681130111217499
-0.6341853141784668
0.11151476204395294
0.32733994722366333
-0.01243140734732151
-0.07863259315490723
0.037082917988300323
-0.07244770228862762
-0.10683136433362961
0.011352675035595894
-0.01779172569513321
-0.058237552642822266
0.051864203065633774
0.02744464948773384
-0.02563253417611122
-0.024214213714003563
0.01512084063142538
-0.020228100940585136
-0.02318338118493557
0.019484585151076317
-0.006557634100317955
-0.0193568654358387
-0.0386006236076355
-0.027500083670020103
-0.02352566085755825
-0.03618717938661575
-0.022227024659514427
-0.015273558907210827
-0.04311992973089218
-0.023364689201116562
-0.02237755060195923
0.01724887080490589
0.02197611704468727
-0.03698505461215973
0.030277902260422707
0.026161694899201393
-0.039304979145526886
0.020425764843821526
0.005496865138411522
-0.055727481842041016
-0.006172714289277792
-0.002675126539543271
0.01714302785694599
-0.008771028369665146
-0.0018700060900300741
0.015512607991695404
-0.0011394668836146593
0.003506304929032922
0.011694380082190037
0.01728309877216816
0.035275205969810486
0.024471016600728035
0.00527176633477211
0.009969912469387054
0.028551548719406128
0.0021060132421553135
0.0038537008222192526
-0.007598747964948416
-0.05027135834097862
-0.0548250749707222
0.046094682067632675
-0.07184337079524994
-0.044466663151979446
0.06217988207936287
-0.018577465787529945
0.01610930636525154
0.07375491410493851
-0.03052327036857605
0.006395012605935335
-0.024702252820134163
-0.027622632682323456
0.00042753477464430034
-0.02377232350409031
-0.015043484978377819
0.026067493483424187
-0.01336243562400341
0.006294607184827328
0.0024903554003685713
0.00010779211879707873
0.013096397742629051
0.007587986998260021
0.0028675226494669914
0.013522534631192684
0.005775278899818659
0.0041709840297698975
-0.05099666863679886
-0.04531388729810715
-0.035897430032491684
-0.026960523799061775
-0.010549734346568584
-0.0054670339450240135
-0.050373565405607224
-0.033845361322164536
-0.03413144126534462
0.010655987076461315
0.02306884527206421
0.033534783869981766
0.013261561281979084
0.03176020458340645
0.03235100209712982
0.012839946895837784
0.022086797282099724
0.035985447466373444
0.0135072972625494
0.020436247810721397
0.028648527339100838
0.008200488984584808
0.008027267642319202
0.03144831955432892
0.011401024647057056
0.01743387058377266
0.026013098657131195
-0.024486007168889046
-0.012194287031888962
0.002627273788675666
-0.047615230083465576
-0.021908067166805267
0.006446672137826681
-0.028634395450353622
0.005659753456711769
0.022794527933001518
-0.0045963977463543415
-0.032321833074092865
-0.0459374375641346
0.01990664377808571
-0.0019561636727303267
-0.06303456425666809
-0.01541371364146471
-0.06465087085962296
-0.0798347145318985
-0.006145030725747347
-0.024228213354945183
0.03934971243143082
-0.012895481660962105
-0.03538414090871811
0.04400106519460678
0.015240796841681004
-0.021273665130138397
0.03348000720143318
-0.014161774888634682
0.009514044038951397
0.000336374097969383
0.02330123446881771
0.024781201034784317
0.043654926121234894
0.02486485429108143
0.01663554646074772
0.006034952588379383
0.008021164685487747
-0.01322496123611927
-0.020014021545648575
0.026526018977165222
0.008213730528950691
-0.006161640863865614
0.02616134099662304
-0.01307225227355957
-0.027425028383731842
-0.004019100684672594
0.006100032012909651
-0.015775343403220177
-0.0027336664497852325
-0.005694141145795584
-0.02158394828438759
-0.013559932820498943
0.0038729498628526926
-0.010281768627464771
0.028346728533506393
-0.002590886317193508
0.01144769974052906
0.017991527915000916
0.0009660472278483212
0.011020231060683727
0.017026452347636223
0.003205293556675315
0.0044804043136537075
0.00961130578070879
-0.02721746452152729
-0.009934740141034126
0.01568576693534851
-0.03400353342294693
0.03831800818443298
0.013754389248788357
-0.029957830905914307
-0.019965114071965218
-0.01466588769108057
-0.01460522972047329
0.0042365239933133125
-0.028191810473799706
-0.033766210079193115
0.016055192798376083
-0.01783190853893757
-0.024416817352175713
0.014615730382502079
-0.017121758311986923
-0.0175947193056345
-0.0012436803663149476
-0.03659428656101227
-0.038746029138565063
0.010958060622215271
-0.029841633513569832
-0.023321492597460747
0.02265387773513794
0.006063464563339949
0.0034219862427562475
-0.01700853928923607
-0.01694297604262829
-0.011204180307686329
0.020143933594226837
0.003959986846894026
0.02221812680363655
0.01320734340697527
0.01650167442858219
0.005653024185448885
-0.004832853097468615
0.006281325127929449
-0.012941081076860428
-0.017686808481812477
0.00738695589825511
-0.01513450127094984
-0.0248244758695364
0.018715932965278625
0.03826034441590309
0.012945333495736122
0.04545588046312332
-0.010665904730558395
0.004340956918895245
-0.004064824897795916
0.01660226471722126
-0.017086811363697052
-0.013508973643183708
-0.029901163652539253
-0.005818047560751438
-0.032563596963882446
-0.058351971209049225
-0.026224737986922264
-0.029369287192821503
-0.04476156458258629
-0.01625286042690277
-0.04323380067944527
-0.04746617004275322
-0.02729150466620922
-0.027758700773119926
-0.03264131769537926
-0.007465758826583624
-0.025697099044919014
-0.009945083409547806
0.010536198504269123
0.0065125878900289536
0.014968224801123142
-0.022367538884282112
0.0035287044011056423
0.0024423503782600164
-0.01657184772193432
0.0014376321341842413
0.010434138588607311
-0.01870320551097393
-0.044233888387680054
-0.03791271522641182
0.0413421168923378
-0.03476882725954056
0.0038186656311154366
0.01697121374309063
-0.014606298878788948
0.005497214384377003
0.010557064786553383
-0.020795270800590515
-0.038186173886060715
-0.026394959539175034
-0.01679042913019657
-0.03296498954296112
-0.02318529784679413
-0.03568644821643829
-0.05017966777086258
-0.05639343708753586
-0.038037147372961044
0.00497818598523736
-0.005957948509603739
0.005118857137858868
-0.023609759286046028
-0.008238949812948704
-0.013157147914171219
0.003744859481230378
-0.0051606884226202965
0.02770068496465683
0.009812704287469387
-0.027380110695958138
0.037042342126369476
0.03253850340843201
-0.012631436809897423
-0.0009571482660248876
-0.005393926985561848
-0.05577128753066063
0.007308904081583023
-0.019164755940437317
-0.032413143664598465
0.03868629410862923
0.016097094863653183
-0.015415700152516365
0.04865244776010513
0.01276602502912283
-0.009862867183983326
0.028825921937823296
0.008365968242287636
-0.001377522712573409
0.007100482936948538
-0.008372503332793713
-0.003896135836839676
0.0072344099171459675
0.009833545424044132
0.020481998100876808
0.016144651919603348
0.025638118386268616
0.05905766785144806
0.011431769467890263
0.01181336771696806
0.0455402210354805
0.025692978873848915
0.014025603421032429
0.04852403327822685
-0.000747907382901758
-0.011411747895181179
0.007352127693593502
-0.02322779782116413
-0.014560999348759651
0.0090515511110425
-0.033465851098299026
-0.014968323521316051
-0.006426709704101086
-0.009763800539076328
-0.00540815107524395
-0.008093095384538174
-0.003865690901875496
-0.0008718344033695757
-0.0065955184400081635
-0.0019403320038691163
0.0034758253023028374
-0.0067000435665249825
0.046355798840522766
0.008038648404181004
-6.350876356009394e-05
0.054342079907655716
-0.03936995565891266
-0.01864713989198208
0.026447497308254242
-0.03179721534252167
-0.007772434502840042
-0.004059781786054373
-0.002911261050030589
-0.03660869225859642
0.046789977699518204
0.04235352575778961
-0.0076352315954864025
0.03549499064683914
0.06279344856739044
0.025078782811760902
0.023287653923034668
0.018828991800546646
0.02924349531531334
0.02031422220170498
0.026280580088496208
0.04670359939336777
0.040691401809453964
0.028157899156212807
0.04466116800904274
0.003237153170630336
-0.024623563513159752
-0.01642775908112526
-0.05760350078344345
-0.07022770494222641
-0.03781149908900261
-0.07012464106082916
-0.045252833515405655
-0.028488241136074066
0.007339545991271734
0.02300296537578106
0.025573721155524254
0.005113562103360891
0.03946384787559509
0.017596380785107613
0.01412082277238369
0.030233733355998993
0.01697414554655552
0.02552003785967827
-0.028244728222489357
-0.01324948389083147
0.024286653846502304
-0.008737758733332157
-0.014327612705528736
0.01563967391848564
-0.01115516945719719
-0.004552539903670549
0.0490887276828289
0.039416760206222534
0.01824743114411831
0.045262411236763
0.016637539491057396
0.013424510136246681
0.03949829190969467
-0.020533153787255287
0.00410531647503376
0.016417324542999268
-0.013965108431875706
-0.010273397900164127
0.05271385610103607
0.015267406590282917
-0.007359485607594252
0.06207721307873726
0.013005917891860008
-0.010499896481633186
-0.016947390511631966
0.02108800783753395
0.02051514945924282
-0.01900256983935833
0.029384998604655266
0.029053350910544395
-0.03782433271408081
0.014495832845568657
0.029226114973425865
0.01655857264995575
-0.009812237694859505
0.010926377028226852
0.04449200630187988
0.026710934937000275
0.005758705548942089
0.02502654492855072
-0.020190158858895302
-0.02832917682826519
-0.013359138742089272
-0.0313885435461998
-0.04909401014447212
0.008444304578006268
-0.008745812810957432
-0.008703680709004402
0.015448388643562794
-0.0032261793967336416
0.0067888000048696995
0.008675530552864075
-0.012460011057555676
-0.024467088282108307
-0.00797302182763815
-0.010074775665998459
0.00976226944476366
-0.027165783569216728
-0.004987351596355438
0.018955621868371964
-0.02066032402217388
0.0340893380343914
0.01064386311918497
-0.059584375470876694
-0.01792186312377453
-0.015833334997296333
0.05064720660448074
-0.005574529524892569
-0.06797393411397934
0.019490035250782967
0.01493457704782486
-0.004986960906535387
0.005604275036603212
0.004867290146648884
0.004248871933668852
0.009218844585120678
0.00368844298645854
0.005703029688447714
0.021444126963615417
-0.01055055484175682
0.012632242403924465
0.01193874143064022
0.02492317371070385
-0.0008620128501206636
-0.03493880853056908
-0.029672512784600258
-0.03986664488911629
-0.0013403272023424506
0.0025209554005414248
-0.011864668689668179
0.0258431788533926
0.01839928887784481
-0.01531947124749422
0.07070435583591461
0.02717275172472
-0.013316742144525051
-0.026464955881237984
-0.006940637249499559
-0.030467914417386055
-0.020399125292897224
0.00722289364784956
-0.0233930554240942
-0.02560204640030861
-0.01863342896103859
-0.006075362209230661
-0.019799262285232544
-0.003943087067455053
-0.032481901347637177
-0.014720160514116287
-0.024486491456627846
-0.052926041185855865
0.05428282916545868
0.021113982424139977
-0.034684889018535614
-0.0379657968878746
-0.015031913295388222
0.020521264523267746
-0.07809290289878845
-0.023269351571798325
-0.01671217568218708
-0.04892854765057564
0.0008673627744428813
-0.019321927800774574
-0.00854126550257206
0.02041524276137352
-0.011269829235970974
-0.015177058055996895
0.0038622613064944744
-0.0016767033375799656
0.025590261444449425
0.019388822838664055
0.019505547359585762
-0.005058987531810999
-0.03727775067090988
-0.020814400166273117
0.001887064310722053
-0.018249358981847763
-0.022105222567915916
0.011624502018094063
-0.011216898448765278
-0.012071152217686176
0.026226427406072617
-0.020053202286362648
-0.010452959686517715
0.03160158917307854
0.00982762686908245
0.016903268173336983
0.02468971163034439
0.005286682862788439
-0.010060223750770092
0.06897883862257004
-0.0052988226525485516
0.0076107424683868885
0.062065489590168
-0.008209011517465115
-0.002624178770929575
0.06846331059932709
-0.021178895607590675
-0.0017285067588090897
-0.04242522642016411
-0.013146941550076008
0.039986636489629745
-0.07127603888511658
0.015789372846484184
0.028703756630420685
-0.10745261609554291
0.060247551649808884
0.0672076940536499
-0.0056663076393306255
0.04327887296676636
0.007517642341554165
-0.033508576452732086
0.03819752484560013
0.0013641540426760912
-0.032093316316604614
0.04169183224439621
-0.02470523491501808
-0.046726152300834656
-0.030652984976768494
-0.0076295905746519566
-0.04132925719022751
-0.04552778601646423
-0.00662528770044446
0.016566846519708633
-0.015486974269151688
-0.0014565259916707873
0.026533041149377823
0.014143078587949276
0.014701580628752708
0.011973622255027294
-0.011122813448309898
0.011272087693214417
-0.03157903999090195
-0.02918681874871254
-0.002441375982016325
-0.02563423290848732
-0.10455135256052017
0.011280985549092293
-0.188436821103096
0.05174284428358078
0.11085456609725952
-0.021896569058299065
0.0821574479341507
-0.010126054286956787
0.028330819681286812
0.037057287991046906
0.027123603969812393
0.01714840531349182
0.023855414241552353
-0.012851201929152012
-0.021287105977535248
-0.05051731690764427
-0.012269637547433376
-0.07941706478595734
-0.059655364602804184
-0.05093710869550705
-0.06780161708593369
-0.03006657026708126
-0.01846209168434143
-0.05550454929471016
-0.020913047716021538
-0.03709570690989494
0.1064075157046318
0.028035467490553856
-0.041736822575330734
0.061698608100414276
-0.14595577120780945
-0.1512269824743271
-0.0024271865841001272
-0.106636181473732
0.010422255843877792
-0.0012379304971545935
0.010725229047238827
0.019929884001612663
0.012337345629930496
0.03969205170869827
0.042313843965530396
0.018908856436610222
0.0293715987354517
0.024080032482743263
-0.03455786406993866
0.11054015159606934
0.0737854614853859
0.1766871064901352
0.11660590767860413
-0.04819658771157265
0.04501952603459358
-0.1018235981464386
-0.113014355301857
-0.16583698987960815
-0.12433585524559021
0.09965772181749344
-0.15422563254833221
0.1791638284921646
0.2657805383205414
0.04593856260180473
0.21141071617603302
0.05382707342505455
-0.020141273736953735
-0.0017266151262447238
0.01270979456603527
-0.022366106510162354
-0.02263479307293892
0.013448513112962246
0.01326768472790718
-0.02313951589167118
0.014790650457143784
-0.02029936946928501
-0.006117502227425575
-0.09842291474342346
0.008125877007842064
-0.05690896883606911
-0.14122621715068817
0.014890762977302074
-0.050542302429676056
-0.08345106989145279
-0.031289566308259964
0.0087273633107543
0.026315685361623764
0.06504571437835693
-0.02958943508565426
-0.08048136532306671
-0.018166137859225273
-0.08380191028118134
-0.07501576840877533
0.005760847590863705
0.04885729029774666
0.055844929069280624
0.021762557327747345
0.03127530217170715
0.0435500331223011
0.00786577444523573
0.03185508772730827
0.028069937601685524
0.05464795231819153
0.07828636467456818
0.011608067899942398
-0.0037842802703380585
0.03709292411804199
-0.0006930516101419926
-0.006065458059310913
0.022270092740654945
0.03470393270254135
-0.003794256830587983
-0.052066415548324585
-0.021316327154636383
0.04241394251585007
0.056687887758016586
0.014148138463497162
0.055605992674827576
0.024329708889126778
-0.029392074793577194
0.12542882561683655
0.026927996426820755
-0.019915584474802017
0.09778029471635818
-0.0862419381737709
-0.028411448001861572
-0.03810986503958702
-0.0869954451918602
0.03310592100024223
-0.08064130693674088
-0.055064428597688675
-0.010433264076709747
-0.0033054067753255367
0.1115308403968811
0.07590647786855698
0.06806442886590958
0.05161266028881073
0.036739520728588104
0.13338492810726166
0.10165189206600189
-0.026102988049387932
0.07441630214452744
-0.05250702053308487
-0.10572156310081482
-0.00218252488411963
-0.01856842450797558
-0.045023299753665924
-0.02533227577805519
-0.053518690168857574
-0.09799961000680923
0.06060771644115448
-0.012429828755557537
-0.010230857878923416
0.003989068325608969
0.010968882590532303
0.04859998822212219
-0.02548280544579029
-0.1528739482164383
-0.0774582028388977
0.03664282336831093
-0.07467562705278397
0.020312722772359848
-0.03950698673725128
-0.06919362396001816
-0.042493175715208054
-0.006635065656155348
-0.011536029167473316
0.019709913060069084
-0.024524345993995667
-0.003908112179487944
0.03784596547484398
0.018125124275684357
0.0015120308380573988
0.06909158080816269
-0.05083722621202469
-0.02705194428563118
-0.06449146568775177
0.018635880202054977
-0.009824111126363277
-0.04269728064537048
-0.030320605263113976
-0.015084893442690372
-0.046956486999988556
-0.10554637014865875
-0.01084041129797697
0.02255723625421524
-0.0660860538482666
0.017074571922421455
0.01570798084139824
0.04234189912676811
0.061430659145116806
0.053136613219976425
-0.07291527092456818
-0.00043451343663036823
0.01790684461593628
0.06481743603944778
0.006591144483536482
-0.049734778702259064
-0.04500299692153931
-0.07749184966087341
-0.05892910063266754
-0.007921017706394196
0.111995629966259
0.0639858990907669
0.07362215220928192
0.04062593728303909
-0.08220668882131577
-0.023661797866225243
-0.06808024644851685
-0.0909077599644661
-0.02444186620414257
-0.034543897956609726
-0.01968209631741047
-0.0024894136004149914
0.06635940074920654
-0.010823918506503105
0.02460656687617302
0.02902018465101719
-0.06426187604665756
0.02513492852449417
0.02675701305270195
-0.0031025491189211607
0.03758695721626282
-0.020371312275528908
0.008870379067957401
0.005198401864618063
-0.018180904909968376
-0.00868179090321064
-0.09960025548934937
0.011198597960174084
0.10598201304674149
0.057060983031988144
0.08667652308940887
-0.003620654111728072
0.06216008588671684
-0.04535488411784172
-0.10783881694078445
-0.004947893787175417
-0.012601619586348534
-0.016560746356844902
-0.05013403668999672
-0.08109652996063232
-0.019474739208817482
-0.058654189109802246
-0.02161262184381485
0.005933435168117285
-0.016035430133342743
-0.019234657287597656
-0.0538179874420166
0.039313677698373795
-0.0012637929758056998
-0.022439399734139442
-0.03186223655939102
-0.08293712139129639
-0.04046408459544182
0.029030069708824158
-0.08071061968803406
0.0003691461170092225
-0.05327101796865463
0.010712407529354095
0.04177578166127205
0.03227413073182106
0.026412304490804672
-0.003975151106715202
-0.11222783476114273
-0.04728110879659653
-0.1063869521021843
-0.0926738902926445
-0.00010888058750424534
0.008164097554981709
-0.06804857403039932
0.08563743531703949
0.08436334133148193
-0.030543597415089607
-0.006265406496822834
0.007033613510429859
0.029958754777908325
-0.033064939081668854
0.03777537867426872
-0.01449568010866642
-0.04093274474143982
-0.012576090171933174
0.07352721691131592
0.030188359320163727
-0.012178601697087288
0.06552178412675858
-0.06302504986524582
-0.058644331991672516
-0.038967665284872055
-0.08367979526519775
-0.03902614861726761
0.06506793200969696
0.08197708427906036
-0.054664429277181625
0.028103619813919067
0.047877237200737
-0.0021062414161860943
-0.06103639677166939
0.026288991793990135
-0.060045767575502396
-0.039802420884370804
-0.042944759130477905
-0.08610936254262924
-0.011285723187029362
0.01944790408015251
0.0018854254158213735
0.014061733148992062
0.04656277596950531
0.011796573176980019
0.024331506341695786
0.03812100738286972
0.023066380992531776
0.022676674649119377
0.030565762892365456
0.0016593781765550375
-0.003180732950568199
-0.00823991559445858
-0.018560072407126427
-0.11820430308580399
-0.08799951523542404
-0.034763436764478683
-0.07244574278593063
-0.0461077056825161
-0.03752651810646057
-0.04424156993627548
-0.04456579312682152
0.006633277516812086
-0.01141755934804678
-0.008092668838799
-0.0022298437543213367
-0.014680307358503342
-0.01009958516806364
-0.004894324578344822
-0.022731157019734383
-0.022270964458584785
-0.01137543749064207
-0.04452161490917206
0.04212218523025513
0.028005512431263924
-0.03022090718150139
0.049130432307720184
0.03842291980981827
-0.0010964312823489308
0.06446313858032227
-0.06782551109790802
0.14751549065113068
0.10202565044164658
-0.03971527889370918
0.09668835997581482
0.053818847984075546
-0.03481993079185486
0.026558740064501762
-0.010700458660721779
-0.020125737413764
0.06870545446872711
0.10890929400920868
0.024957718327641487
0.07666755467653275
0.09448495507240295
0.01005932129919529
0.02828502655029297
0.05586201325058937
-0.012810678221285343
0.011159541085362434
0.08304591476917267
-0.016698328778147697
-0.006630949210375547
0.08412398397922516
0.05730350688099861
-0.0668402835726738
0.06936229020357132
0.06615667045116425
0.03464889153838158
0.011688881553709507
0.008769717067480087
0.09719473123550415
0.09880425781011581
0.12476252764463425
-0.002030258532613516
-0.006902244407683611
0.017170799896121025
-0.003218247788026929
-0.026358913630247116
-0.06853912770748138
-0.012553989887237549
-0.017842426896095276
-0.06705565005540848
-0.0209227055311203
-0.011115042492747307
-0.07009407877922058
0.02655002474784851
-0.022844264283776283
0.007197427097707987
0.03688359633088112
-0.0021842930000275373
0.013174761086702347
-0.006312456913292408
0.006299384403973818
0.009281326085329056
-0.016810202971100807
0.016349446028470993
0.055596139281988144
0.026871457695961
0.0034964377991855145
0.061726126819849014
0.004436624702066183
-0.00586048373952508
-0.02558870054781437
-0.09354516863822937
-0.047017160803079605
-0.0003925691416952759
-0.06634631007909775
-0.07169878482818604
0.00844856072217226
-0.04894902557134628
-0.04657549783587456
0.007978159002959728
-0.01101076789200306
0.014648905955255032
0.050619617104530334
-0.0053253467194736
-0.0010782459285110235
0.01583181694149971
-0.05715588480234146
0.019629331305623055
-0.02190045453608036
-0.0001824168866733089
-0.010640655644237995
0.002602014224976301
-0.031192639842629433
-0.04744826257228851
0.028539346531033516
-0.040403060615062714
-0.0809120312333107
-0.020767617970705032
0.0038698753342032433
0.047530971467494965
0.08351089060306549
0.043870896100997925
0.09376758337020874
0.06515385210514069
0.0630747377872467
0.08840980380773544
0.04974884167313576
-0.0368262343108654
0.006604187190532684
0.025326302275061607
0.05478150025010109
0.0385427288711071
-0.019144762307405472
0.006479631643742323
0.07799044251441956
0.06609120965003967
-0.046803344041109085
0.006702563725411892
-0.023022331297397614
-0.023340974003076553
0.038910768926143646
-0.02232566475868225
-0.004319982137531042
0.06465589255094528
0.0022169542498886585
-0.03026752918958664
0.027255574241280556
0.013989483937621117
-0.00366864912211895
0.005628501996397972
0.0018162272172048688
0.0007399333408102393
0.020107228308916092
0.03302743658423424
0.00210177106782794
0.0671357735991478
0.021099330857396126
0.0938248559832573
0.08517079055309296
-0.06927326321601868
0.01113883312791586
0.04343600571155548
-0.06112082302570343
0.01646510511636734
0.04855292662978172
-0.035032790154218674
0.04908343404531479
0.08984993398189545
-0.031182754784822464
0.004536882974207401
0.06962880492210388
-0.06652689725160599
0.04011813923716545
-0.0003028197679668665
-0.07928470522165298
0.05151887983083725
-0.013900157995522022
-0.07465390115976334
0.01943119801580906
0.0014451047172769904
-0.016285758465528488
-0.0464295819401741
-0.07689795643091202
0.044677380472421646
-0.07478906959295273
-0.1127161756157875
0.00013433885760605335
-0.17558524012565613
-0.1774832159280777
-0.08164305239915848
-0.024962712079286575
-0.010315516032278538
-0.01585211046040058
-0.02013765089213848
0.007008442189544439
-0.06498517841100693
-0.01299283280968666
0.01328626461327076
-0.052962131798267365
0.0003016955452039838
-0.03557378426194191
-0.031079519540071487
0.010867474600672722
-0.004575206898152828
-0.043209731578826904
-0.014584563672542572
-0.016699396073818207
-0.03498513251543045
0.03778865188360214
0.05034780129790306
-0.0011310025583952665
0.025979191064834595
0.029381202533841133
-0.01511386502534151
0.05485285446047783
0.04956955835223198
0.014461439102888107
-0.011925934813916683
0.016101615503430367
0.09192383289337158
0.028521057218313217
0.03762474283576012
0.09554032236337662
0.07704957574605942
0.11310926824808121
0.13439436256885529
0.03821743652224541
-0.07246668636798859
-0.07767108827829361
-0.029254594817757607
-0.041963908821344376
-0.009854388423264027
0.013977501541376114
-0.04293544590473175
-0.07254104316234589
-0.06420733034610748
-0.12697388231754303
-0.1772211790084839
0.028925927355885506
-0.012419043108820915
-0.0759531557559967
0.04255715757608414
0.006929485127329826
0.02309475839138031
0.022595113143324852
0.06925477087497711
0.1767883151769638
0.041421253234148026
0.06482109427452087
0.10426989942789078
0.013752773404121399
0.058245111256837845
0.08818306028842926
-0.08499126881361008
-0.0902717337012291
-0.1398351490497589
-0.020439911633729935
-0.03584766760468483
-0.04294802248477936
0.09092368930578232
0.056571703404188156
0.043578848242759705
-0.035092543810606
0.01077237818390131
0.05416316166520119
-0.06086428463459015
0.0051142023876309395
0.04744767025113106
-0.060776133090257645
-0.012821763753890991
0.04380563274025917
-0.013937869109213352
-0.008814276196062565
-0.012969321571290493
-0.014719994738698006
-0.01096270326524973
-0.006696352269500494
-0.012963103130459785
-0.02836534194648266
-0.009804134257137775
0.013682029210031033
0.005995795596390963
0.03052857704460621
0.010144143365323544
-0.0019237074302509427
0.02649107575416565
0.016250940039753914
-0.01443540956825018
0.024085931479930878
0.017846375703811646
-0.007637845817953348
-0.00846072006970644
0.0305990781635046
0.003352523548528552
-0.0021421366836875677
0.01971367560327053
0.012241830118000507
-0.009841373190283775
-0.008069109171628952
-0.0009244558750651777
-0.0019190473249182105
-0.009874754585325718
-0.001470714807510376
-0.0023659905418753624
-0.009876598604023457
0.0002977439435198903
-0.0005623116157948971
-0.023815350607037544
-0.007727191783487797
-0.01659315824508667
-0.020059173926711082
-0.031723715364933014
-0.022693617269396782
0.004988048225641251
-0.02970574051141739
-0.03960803151130676
-0.06597334891557693
0.0672086551785469
0.026752695441246033
-0.0894927904009819
0.08464302867650986
0.03473196178674698
-0.088813416659832
0.06369709968566895
0.0410662516951561
-0.03845488280057907
-0.009780759923160076
0.024100154638290405
-0.03957925736904144
-0.010361156426370144
0.02368525229394436
-0.028270423412322998
-0.008193549700081348
0.025995565578341484
-0.023505371063947678
-0.0394473597407341
-0.01753218285739422
-0.025634128600358963
-0.03436775878071785
-0.0033279515337198973
-0.04086943715810776
-0.050577908754348755
-0.008044051006436348
-0.009246595203876495
-0.0021752899046987295
-0.01091395877301693
0.005774780176579952
0.016332227736711502
-0.007264967542141676
-0.02333798073232174
-0.01485415454953909
-0.023532772436738014
-0.005607600789517164
-0.013088483363389969
-0.01754678413271904
0.0025235943030565977
-0.013180272653698921
-0.015451573766767979
0.004234230611473322
-0.01845434308052063
-0.013011295348405838
0.08688921481370926
-0.05885766074061394
-0.09592378884553909
0.12026776373386383
-0.06097664684057236
-0.07365307211875916
0.10698302090167999
-0.06419102102518082
-0.061968062072992325
-0.03903377801179886
-0.03687034547328949
0.01482547726482153
-0.02104424312710762
-0.03321840241551399
-0.00045464400318451226
-0.0021651650313287973
-0.01379778515547514
0.00491339573636651
0.00250338320620358
-0.010477347299456596
-0.00759702455252409
0.01858038641512394
-0.017608312889933586
0.002570137847214937
-0.0004523361276369542
-0.017593538388609886
-0.003415426006540656
0.01911992020905018
-0.006990285124629736
0.006053881719708443
0.04773401841521263
-0.02630685269832611
-0.014057335443794727
0.049620937556028366
0.004231345374137163
-0.028346199542284012
-0.003105781739577651
-0.006019897758960724
0.015235325321555138
-0.00029972349875606596
-0.013046428561210632
0.006009072996675968
0.01291687786579132
-0.010978401638567448
0.012930960394442081
-0.04807060584425926
-0.017077084630727768
0.010028189048171043
-0.04889066517353058
-0.024976007640361786
0.02048887126147747
-0.03921922668814659
-0.029563529416918755
0.01723845861852169
-0.01168434415012598
0.003400535322725773
-0.030147815123200417
-0.010939894244074821
0.0037991481367498636
-0.021084221079945564
-0.02409891039133072
-0.007980454713106155
-0.024357633665204048
-0.029791472479701042
-0.021433908492326736
-0.014092229306697845
-0.02730032056570053
-0.020241403952240944
-0.011712352745234966
-0.02706589549779892
-0.020812220871448517
-0.019326653331518173
0.053333498537540436
0.002614816417917609
-0.016783179715275764
0.08785048127174377
-0.010328291915357113
0.002922268118709326
0.08076368272304535
-0.00983550027012825
-0.011290527880191803
0.000360332487616688
-0.01856999658048153
-0.005392448045313358
0.006295632105320692
-0.015318689867854118
0.01142948865890503
0.017682822421193123
-0.010589058510959148
0.024274282157421112
0.03293070197105408
-0.04492776095867157
0.0034245119895786047
0.039143044501543045
-0.04607057571411133
-0.006371140480041504
0.07043017446994781
-0.04143953695893288
-0.0042062001302838326
0.0023647823836654425
-0.007356429938226938
-0.018597174435853958
-0.012704206630587578
0.003408298594877124
-0.014425043016672134
-0.016355713829398155
0.004565706942230463
-0.02479388378560543
-8.821280061965808e-05
-0.020887572318315506
-0.011559850536286831
0.006402804050594568
0.0019504859810695052
0.001449192757718265
-0.003807672066614032
0.023695223033428192
0.01914900541305542
-0.011962713673710823
0.028510332107543945
-0.030393028631806374
-0.038463808596134186
0.056364756077528
-0.03274010121822357
-0.049405474215745926
0.03448980674147606
0.0012733328621834517
-0.009112171828746796
0.00447535514831543
-0.032152626663446426
-0.024282600730657578
-0.009743859991431236
-0.037743087857961655
-0.027876857668161392
0.019688816741108894
-0.037941981106996536
0.004776887129992247
-0.000825005816295743
0.01126970537006855
0.0049596382305026054
-0.0017301561310887337
0.007520003709942102
0.010491070337593555
0.0025711972266435623
0.0028450184036046267
-0.001235739211551845
-0.018437238410115242
-0.015348045155405998
-0.0014316198648884892
-0.008885667659342289
-0.012540712021291256
-0.001055857283063233
-0.015435603447258472
-0.021639665588736534
0.016419343650341034
0.05871700868010521
-0.017871618270874023
0.016550429165363312
0.058938395231962204
-0.006938127800822258
-0.029197921976447105
0.03500442951917648
-0.0030706205870956182
0.023800885304808617
-0.01945546828210354
-0.046005118638277054
0.017495129257440567
-0.01879676803946495
-0.03979673609137535
-0.031205421313643456
-0.03597703576087952
-0.05718494579195976
0.011833497323095798
0.018594909459352493
-0.000890419352799654
0.010099615901708603
0.02287174016237259
-0.021036697551608086
-0.01858241856098175
0.036821577697992325
-0.015632083639502525
0.038961976766586304
0.011909657157957554
-0.0008383364183828235
0.036859169602394104
0.009476522915065289
-0.0021576290018856525
0.014776724390685558
-0.018956195563077927
-0.02685783989727497
0.055204927921295166
-0.002482315292581916
-0.05479467287659645
-0.021728329360485077
0.06024475768208504
0.03587519749999046
-0.08773019164800644
0.03773537278175354
0.06384970247745514
0.011558227241039276
-0.012204902246594429
-0.006941346451640129
0.023765454068779945
0.062049511820077896
0.03351142629981041
-0.027543416246771812
-0.060818880796432495
-0.02415280230343342
-0.04945870861411095
-0.04433432221412659
-0.06271523237228394
0.07668951898813248
0.12740343809127808
0.0811111107468605
0.03125293552875519
0.05236412212252617
0.008532590232789516
-0.1319749355316162
-0.12852522730827332
-0.10526224225759506
0.03097943589091301
0.015341833233833313
0.09251830726861954
0.052155766636133194
0.0601901113986969
0.09844529628753662
0.006384682841598988
0.013805718161165714
0.0024325933773070574
0.013876015320420265
0.02537708356976509
0.008967379108071327
0.008639924228191376
0.02752361260354519
0.013875422067940235
0.010591402649879456
0.005878155119717121
-0.012014312669634819
0.051135722547769547
0.07230422645807266
0.01315535232424736
0.042500078678131104
0.16532963514328003
0.06454871594905853
0.0323684997856617
0.052307046949863434
0.04608694091439247
0.05202798545360565
0.04951995611190796
0.03234408050775528
0.05058654025197029
-0.0872708410024643
-0.027056453749537468
-0.009401553310453892
-0.04039381071925163
-0.03435821086168289
-0.028079450130462646
0.02014647051692009
0.03302161768078804
-0.004733181558549404
0.017307167872786522
0.03704589605331421
-0.0013896019663661718
0.0030550239607691765
-0.007461962290108204
0.07182466983795166
0.04126310721039772
-0.023039381951093674
0.06818590313196182
0.03164483979344368
-0.048052381724119186
0.01898016408085823
0.02536116912961006
0.08458402752876282
0.19889557361602783
0.17601801455020905
0.12969259917736053
-0.008963480591773987
0.01025282870978117
-0.0784868374466896
0.008852890692651272
0.03787621855735779
0.00948006846010685
0.012795397080481052
0.005771329626441002
0.010594110004603863
-0.0044863661751151085
-0.013586092740297318
0.0013888408429920673
-0.0020466563291847706
-0.009334097616374493
0.06312282383441925
-0.03195330128073692
0.01390799693763256
-0.022548239678144455
-0.05012233182787895
-0.009503467008471489
-0.002259742235764861
-0.054286178201436996
-0.07599294185638428
-0.11301655322313309
0.04580387845635414
0.010475154034793377
-0.028199199587106705
0.08447419106960297
0.17418313026428223
0.002991426968947053
0.02433771640062332
0.029448073357343674
0.05688896402716637
0.05626576393842697
0.022716965526342392
0.044592685997486115
-0.009277178905904293
0.003468411974608898
-0.00608016736805439
-0.08369367569684982
-0.1033051460981369
-0.07905897498130798
0.0890706330537796
0.025918638333678246
0.009040294215083122
0.10639625787734985
0.07715359330177307
-0.049480874091386795
-0.010914137586951256
0.006642450112849474
-0.0041017900221049786
0.06161358207464218
0.0167175754904747
0.03146163374185562
0.0008328732801601291
-0.0038994650822132826
0.014309946447610855
-0.11118290573358536
-0.026137329638004303
-0.06920197606086731
0.04395414888858795
-0.020933113992214203
0.08715176582336426
-0.04008571058511734
-0.07627221196889877
-0.03219568729400635
0.007975446991622448
0.03225428983569145
0.05739806219935417
0.0038784598000347614
-0.03946971520781517
0.02028370089828968
0.005078483838587999
0.003526474582031369
0.04607508331537247
0.009960880503058434
0.04497026652097702
0.01989489421248436
-0.00991072691977024
0.002721203025430441
-0.006756700575351715
-0.02066299505531788
-0.014052394777536392
-0.005644753575325012
0.06378525495529175
-0.03955153375864029
0.02800280973315239
0.040501318871974945
0.0049126725643873215
-0.030770210549235344
-0.04158920794725418
-0.06888306885957718
-0.09415165334939957
-0.19310440123081207
-0.0784740224480629
-0.106610506772995
-0.0005775927565991879
0.09496606141328812
0.042996324598789215
0.033628616482019424
0.08603743463754654
0.06933818757534027
-0.08841228485107422
0.01804438978433609
0.04571248218417168
-0.04081987962126732
0.006250214762985706
0.013817290775477886
0.028759537264704704
-0.052982062101364136
-0.1137789785861969
-0.0014453582698479295
0.022344324737787247
0.07887845486402512
0.004679605830460787
-0.002885822905227542
0.016762519255280495
-0.009967118501663208
-0.07005508989095688
0.007923915982246399
-0.3396623730659485
-0.34518951177597046
-0.31774574518203735
-0.053292106837034225
0.056252267211675644
0.04407787695527077
0.018093647435307503
0.24926412105560303
0.31364697217941284
0.03773137554526329
0.01414615660905838
0.013361232355237007
0.001959221437573433
-0.01528511755168438
-0.06083725020289421
-0.04398150369524956
-0.04654102772474289
0.029806077480316162
0.04798225313425064
0.034739915281534195
0.07433634251356125
0.025394663214683533
0.03746327757835388
-0.006435632240027189
0.012832297012209892
0.04540475457906723
0.04026547819375992
0.07885138690471649
0.019068755209445953
0.015543164685368538
0.054862163960933685
0.023151500150561333
0.03379428759217262
0.07981526106595993
0.005763441789895296
-0.0013774631079286337
0.019259775057435036
0.015061339363455772
0.07507592439651489
-0.04165412858128548
-0.05296877771615982
0.007299105636775494
-0.0036434573121368885
-0.018569298088550568
-0.1155909076333046
0.010452577844262123
-0.007805252447724342
-0.038465406745672226
-0.03596329316496849
-0.054083459079265594
0.05816785991191864
-0.1127217635512352
-0.08600953221321106
0.0832594484090805
0.1324559897184372
0.0971125140786171
0.13547858595848083
0.026776697486639023
-0.0038244901224970818
0.05172905698418617
-0.18378940224647522
-0.11638346314430237
-0.12239062041044235
-0.004107027780264616
0.0048447949811816216
-0.0007545746630057693
-0.03134116157889366
0.011970686726272106
0.033300112932920456
0.0350152924656868
0.023311637341976166
-0.04142347723245621
0.20379401743412018
0.07486871629953384
0.08710534125566483
0.07548414170742035
-0.07672397047281265
-0.03903014957904816
-0.16886590421199799
-0.2633374035358429
-0.22753436863422394
0.0920712873339653
0.07194974273443222
-0.0017743832431733608
0.018870627507567406
0.018538469448685646
-0.02754339575767517
-0.10909278690814972
-0.10278543084859848
-0.16999158263206482
-0.00990644283592701
0.007420696318149567
0.0005729570402763784
-0.00041250724461860955
0.017375392839312553
0.012397217564284801
0.010928532108664513
-0.008473020046949387
-0.0036999329458922148
0.018819227814674377
0.015394440852105618
0.008960848674178123
0.0034130497369915247
0.0034989495761692524
-0.01822267845273018
-0.03391873091459274
-0.02952527068555355
-0.04967227578163147
-0.021157560870051384
-0.012829490937292576
0.008326215669512749
-0.016141915693879128
-0.017380284145474434
0.010504378005862236
0.013112660497426987
0.013181008398532867
0.032603319734334946
0.007783527486026287
0.01198597252368927
0.01292331051081419
0.013362156227231026
0.01821635104715824
0.015852324664592743
0.013966681435704231
0.014865728095173836
0.013998742215335369
-0.023200295865535736
-0.025465533137321472
0.05984243378043175
-0.0537119135260582
0.015077224001288414
0.0472431518137455
-0.019197655841708183
0.060868050903081894
0.06768614798784256
0.07018540799617767
0.01616092398762703
0.011583056300878525
0.05092117562890053
-0.040040913969278336
-0.04216768592596054
-0.02541685290634632
-0.14171993732452393
-0.13381949067115784
-0.018987372517585754
-0.013794360682368279
0.017622869461774826
0.0034641630481928587
0.010411832481622696
-0.010087233036756516
-0.019682105630636215
-0.022713540121912956
-0.031101614236831665
0.0031650953460484743
-0.044836968183517456
-0.051154136657714844
0.009429637342691422
-0.005497305653989315
-0.010599284432828426
0.002261690329760313
-0.04741448909044266
-0.008181336335837841
0.018869465216994286
-0.026786131784319878
-0.0925048366189003
-0.036732327193021774
-0.0006653875461779535
-0.01929590106010437
-0.019955763593316078
-0.029726194217801094
-0.042402610182762146
-0.009359310381114483
0.01566939800977707
0.03214958682656288
0.007802814710885286
0.03226831927895546
0.0420210100710392
-0.013826231472194195
0.003715942148119211
0.021129608154296875
-0.009555090218782425
0.08702604472637177
0.035912130028009415
-0.004528871737420559
0.08443374931812286
0.03784351795911789
0.00019071252609137446
0.1098674088716507
0.048729799687862396
-0.02235194481909275
-0.042055465281009674
-0.06450428813695908
-0.023539232090115547
-0.03302236273884773
-0.015968019142746925
0.02904464490711689
0.03229481354355812
0.054579176008701324
-0.008913388475775719
-0.007143140770494938
-0.037368226796388626
0.025231488049030304
0.02633233368396759
0.02234579250216484
0.07224671542644501
0.06767614185810089
0.0982416570186615
0.07571586966514587
0.02566387504339218
0.021466882899403572
0.016746725887060165
-0.002975849900394678
-0.02697863057255745
0.002504729200154543
-0.008331665769219398
0.022647108882665634
-0.021279282867908478
-0.022373372688889503
-0.028004247695207596
0.004639164544641972
0.0055567193776369095
-0.013424516655504704
0.05475204810500145
0.04201681166887283
0.05464744567871094
0.0033350177109241486
-0.0113503597676754
-0.01815412938594818
-0.04202256351709366
-0.059720784425735474
-0.0527757853269577
-0.006065800786018372
-0.020603369921445847
0.014845664612948895
-0.10976912081241608
-0.10937872529029846
-0.10750889778137207
-0.05220261961221695
-0.08451051265001297
-0.03833511099219322
-0.03627878800034523
-0.0072632902301847935
-0.03636275976896286
-0.016469821333885193
-0.013857876881957054
-0.00824752263724804
-0.008494827896356583
0.002891118172556162
-0.01398736983537674
0.015467535704374313
0.014730830676853657
-0.0022100715432316065
-0.012755237519741058
-0.018155595287680626
-0.024607190862298012
-0.04023731127381325
-0.02461870387196541
-0.02876938134431839
-0.03221655637025833
-0.024475084617733955
0.018949678167700768
-0.026246123015880585
-0.009317352436482906
0.0074302637949585915
-0.02591242454946041
-0.03457247093319893
0.005430553574115038
-0.07202272862195969
-0.06031697615981102
-0.05236711725592613
-0.039448332041502
-0.012321952730417252
0.048387978225946426
-0.02185172215104103
-0.00470211636275053
-0.005938002374023199
-0.005113047081977129
-0.026704635471105576
-0.03847783803939819
-0.091730497777462
-0.0681527629494667
-0.07597184181213379
-0.031162751838564873
0.001565223908983171
0.043611813336610794
0.04919693246483803
0.04237039387226105
0.0776962861418724
0.022861085832118988
0.005096783395856619
-0.007451474200934172
0.0040540676563978195
0.010805207304656506
0.024979932233691216
-0.06336073577404022
-0.04539741203188896
-0.02583627961575985
0.00010337440471630543
0.04452833533287048
0.04335329309105873
0.05738004297018051
0.07476890087127686
0.03363487124443054
0.08244067430496216
0.05676634609699249
0.052866388112306595
-0.014067139476537704
-0.03078102134168148
-0.05114132538437843
-0.015392860397696495
-0.014269211329519749
-0.0062317741103470325
0.0024495425168424845
-0.021444661542773247
0.03522271662950516
-0.017239229753613472
-0.01947861909866333
-0.01565839722752571
-0.02343016117811203
-0.006078581791371107
0.006443777587264776
-0.0038067151326686144
0.012367069721221924
0.031731367111206055
-0.020084353163838387
-0.0019256334053352475
0.043911851942539215
-0.01718207076191902
0.009347768500447273
0.025963015854358673
-0.01392944436520338
0.02491135708987713
0.03463337570428848
0.032840825617313385
0.008856379427015781
0.020818013697862625
-0.07235971838235855
-0.059383928775787354
-0.03540639206767082
-0.004746501334011555
0.0012785590952262282
0.06486528366804123
-0.01434225682169199
0.03098570741713047
0.007207299116998911
0.01850622333586216
0.045563094317913055
0.05704490467905998
-0.0030781994573771954
0.05010451376438141
0.023924531415104866
0.02835952490568161
-0.0008563696756027639
-0.0006247180863283575
0.018272986635565758
-0.0011296299053356051
1.5956044080667198e-05
0.03817460685968399
0.041333768516778946
-0.0006905632908456028
-0.0948917418718338
-0.08521044254302979
-0.0853201374411583
-0.028253478929400444
-0.02340506948530674
-0.02588750049471855
-0.002031648298725486
0.009752524085342884
0.002056462923064828
0.01724259741604328
-0.03648604825139046
-0.04467923194169998
0.026688307523727417
-0.005792960990220308
-0.029545344412326813
0.047098759561777115
-0.006352810654789209
-0.024692652747035027
-0.031700875610113144
0.033648889511823654
0.03730510547757149
-0.02935485728085041
0.015033630654215813
-0.013933227397501469
-0.03126385062932968
0.005441952962428331
-0.0035108739975839853
0.03376765176653862
-0.020674964413046837
-0.01913422718644142
-0.03408380597829819
-0.06361351162195206
-0.06969346106052399
-0.013297829777002335
-0.03738256171345711
-0.04240763187408447
-0.060847390443086624
0.024199608713388443
0.09249629080295563
-0.09496982395648956
-0.018877333030104637
0.05147046223282814
-0.09399563819169998
-0.03942488878965378
0.049096543341875076
0.005081835202872753
0.0056840721517801285
0.0007385887438431382
0.004166788421571255
0.003688867436721921
0.0014301477931439877
0.005350095685571432
0.0037051308900117874
0.0014482461847364902
-0.03564073517918587
-0.027819516137242317
-0.03529513254761696
-0.03559721261262894
0.010228889994323254
-0.01895013451576233
0.05466688424348831
0.011175847612321377
0.0019306890899315476
-0.026882894337177277
-0.03393833711743355
-0.035567305982112885
-0.00591858197003603
0.0029186103492975235
-0.012473436072468758
-0.0243820883333683
-0.03859233483672142
-0.04432762414216995
-0.019501058384776115
0.010401013307273388
0.03344980999827385
-0.007996137253940105
-0.0015624617226421833
0.011949297040700912
-0.016338935121893883
0.003509099828079343
0.0071723004803061485
-0.06161633878946304
-0.010703432373702526
0.002863913308829069
-0.0349557064473629
-0.014350773766636848
-0.03665218874812126
-0.07450655102729797
-0.005857170559465885
-0.03227033093571663
-0.04677419364452362
-0.052641455084085464
0.05985672026872635
-0.054535236209630966
-0.06609725952148438
-0.02202288620173931
-0.026209063827991486
-0.001800248515792191
0.03240272402763367
0.01909460872411728
0.03448198363184929
0.018924636766314507
0.010286843404173851
0.030335184186697006
0.017076576128602028
0.022203728556632996
0.03358009085059166
0.015911919996142387
-0.012791980989277363
-0.044073592871427536
0.020128348842263222
-0.06019022688269615
0.0019440427422523499
0.04419144615530968
0.014482676051557064
0.034923285245895386
0.05327974632382393
-0.017062155529856682
-0.01827247068285942
0.0299127995967865
-0.0003501910250633955
0.020375624299049377
0.046689871698617935
0.007934389635920525
0.0001270485809072852
0.036622270941734314
0.002877497347071767
0.02241026982665062
0.006831380072981119
-0.03593705967068672
-0.023208972066640854
-0.026716558262705803
-0.01608041301369667
0.009585821069777012
0.011250242590904236
0.004716940224170685
0.015274710953235626
0.027639979496598244
-0.011819933541119099
0.03519909828901291
0.02329357899725437
-0.013666062615811825
0.04357273876667023
0.04636562615633011
0.0036314562894403934
0.02825811691582203
-0.010968898423016071
0.003327302634716034
-0.009940188378095627
-0.047531820833683014
0.030147036537528038
-0.0002832999743986875
-0.015008356422185898
-0.002522026654332876
-0.014101455919444561
-0.03563275933265686
-0.066180519759655
-0.05893141031265259
-0.08066403120756149
-0.02069479040801525
-0.04508790373802185
-0.013070899061858654
0.005218680948019028
0.014990103431046009
0.060742489993572235
-0.03601622208952904
-0.029447615146636963
-0.020586492493748665
0.005536412354558706
0.011003621853888035
-0.008814952336251736
-0.025430480018258095
0.009983192197978497
-0.010262561962008476
-0.020063042640686035
0.016304902732372284
-0.011575091630220413
-0.015110461972653866
0.008010544814169407
-0.017972588539123535
-0.008985543623566628
-0.02660492993891239
-0.01604161038994789
-0.057694148272275925
0.003481439780443907
-0.00965132936835289
-0.04143292456865311
-0.029393311589956284
0.01139121688902378
0.025821281597018242
0.0058469753712415695
0.07405173778533936
-0.0040474263951182365
-0.010513999499380589
0.04605277627706528
-0.031704358756542206
-0.03301528841257095
0.024142032489180565
0.030313316732645035
-0.05444788560271263
-0.043778423219919205
-0.001096812542527914
-0.06983219087123871
-0.0795440822839737
-0.006522200535982847
-0.004898801911622286
-0.04669342562556267
-0.04211391881108284
-0.013225816190242767
0.027672866359353065
-0.027467338368296623
0.004837899003177881
0.021140145137906075
0.007544687483459711
0.03330636024475098
0.032426852732896805
-0.03111240640282631
-0.014893562532961369
0.04435908421874046
-0.05977456271648407
-0.06677588820457458
0.037688881158828735
-0.0346345528960228
-0.02095784805715084
0.059169694781303406
-0.05800161138176918
-0.06341306865215302
-0.0062562646344304085
-0.09483303129673004
-0.09390544891357422
-0.029623854905366898
-0.08947263658046722
-0.03539058938622475
-0.006625776179134846
0.01769150421023369
0.020259182900190353
-0.026683492586016655
-0.003675511572510004
-0.021540086716413498
-0.014105969108641148
0.01675727590918541
0.030748704448342323
-0.00970674678683281
0.024599755182862282
0.008743232116103172
0.005774212069809437
0.008855214342474937
0.01886053942143917
0.00992723647505045
0.02080477401614189
0.016354694962501526
-0.007226563524454832
0.10547521710395813
0.1711503118276596
0.2471664398908615
0.11352194100618362
0.24340717494487762
0.274413526058197
0.12238664925098419
0.2003365159034729
0.20566076040267944
-0.009770599193871021
0.003069165628403425
0.024659467861056328
0.010212917812168598
-0.002293478464707732
0.030157970264554024
0.029630444943904877
0.0023630729410797358
0.059281300753355026
-0.02372678369283676
0.04499833285808563
0.027873922139406204
-0.07460963726043701
-0.026341354474425316
-0.013624045066535473
-0.056572768837213516
-0.01966984197497368
-0.010144442319869995
0.08589682728052139
0.11651415377855301
0.07964818179607391
0.10064321011304855
0.186048224568367
0.1290036141872406
0.10265226662158966
0.15902958810329437
0.13900567591190338
-0.023742927238345146
0.03928075730800629
0.008413965813815594
-0.05490247905254364
0.01466313935816288
-0.02485814318060875
-0.07020261138677597
-0.021456193178892136
-0.059706732630729675
-0.003545008134096861
-0.0031618457287549973
0.0010070058051496744
-0.004747559782117605
-0.0029431378934532404
0.00013533420860767365
-0.0049346075393259525
-0.0027364359702914953
-0.002119066659361124
-0.0018780918326228857
-0.0020893390756100416
-0.004923062864691019
-0.0036794678308069706
-0.003903873497620225
-0.003755395533517003
-0.0029022949747741222
-0.0036073890514671803
0.00018387337331660092
-0.0018333890475332737
0.0002018488448811695
0.001453823409974575
-0.002438196213915944
0.0004918743507005274
0.0021424354054033756
-0.001883521443232894
0.0010676926467567682
0.0011799789499491453
-0.001953614642843604
0.0011773729929700494
-0.0017790896818041801
4.0181279473472387e-05
-0.0045445747673511505
-0.0032137958332896233
0.0002534764353185892
-0.0015454816166311502
-0.002487275982275605
-0.000621865619905293
-0.0006036299164406955
-0.00011265819921391085
-0.00043141949572600424
-0.00039343925891444087
0.0005330289714038372
0.0002500854025129229
0.00021697059855796397
-0.00023065810091793537
0.0018559539457783103
0.0014936657389625907
-0.002061454812064767
0.0011988786282017827
0.0011099507100880146
0.0008369089337065816
-0.0009513613767921925
-0.00026698349392972887
1.5138369235501159e-05
-0.0015894622774794698
0.00042409091838635504
-3.6275007005315274e-05
-0.0005122445872984827
0.001205773907713592
0.0005841293605044484
0.0009702758979983628
0.0016721489373594522
0.0020503380801528692
0.001738325459882617
0.0011350964196026325
0.0015270501608029008
0.0024282068479806185
0.002414449816569686
0.0010277574183419347
0.002198165515437722
0.001450731186196208
-2.6654592147679068e-05
0.0033976149279624224
0.003315357957035303
-0.0020496572833508253
0.0015411940403282642
0.002351348754018545
-0.002107747597619891
0.00028385501354932785
0.001950421486981213
-0.0001459986815461889
0.0035981214605271816
0.0018358740489929914
0.0016850220272317529
0.0020846896804869175
0.00197208602912724
0.002959242556244135
0.0009459811262786388
0.0014586353208869696
-0.0019205251010134816
-0.0007801001775078475
-0.001903775380924344
-0.002000280888751149
-0.001707427087239921
-0.0036625650245696306
-0.001181257888674736
-0.0021519882138818502
-0.003746265545487404
-0.001410445082001388
-0.002126224571838975
-0.001785928732715547
-0.0014916323125362396
-0.004628642927855253
-0.0035171140916645527
-0.0015226941322907805
-0.0048319511115550995
-0.00271228258498013
-0.0022354377433657646
0.0031031996477395296
0.002145446604117751
0.002194029511883855
0.007626733276993036
0.006732546258717775
0.0028730134945362806
0.005106640979647636
0.004925264976918697
0.0010849462123587728
-0.0019582794047892094
-0.0015874048694968224
-0.0006606822717003524
-0.0004044140223413706
0.0016094186576083302
0.002066616900265217
0.0006331835174933076
0.003187982365489006
-0.0007238437538035214
-0.002367546083405614
-0.0014752618735656142
-0.0010033224243670702
-0.00011873515177285299
0.0015588754322379827
-0.0013095906469970942
-0.005310971289873123
-0.0037067399825900793
-0.0016607287107035518
0.000626497610937804
-0.0010154187912121415
-0.0005907071754336357
0.0020580783020704985
0.0013863963540643454
0.0003096486034337431
0.0019585180561989546
0.0008435903582721949
0.0024860657285898924
0.0007785388734191656
0.0008094218792393804
-0.002693131333217025
0.0011490813922137022
0.0004048064583912492
-0.00029745392384938896
-0.0019981246441602707
0.00020585978927556425
0.00021822760754730552
0.0032543116249144077
0.003971390891820192
0.002176483627408743
0.0016512346919625998
0.003231758251786232
0.00012334479833953083
0.0003383888106327504
0.002153082750737667
-0.007675227243453264
-0.0067804837599396706
-0.005924786441028118
-0.007945001125335693
-0.008396330289542675
-0.007423177361488342
-0.005822740029543638
-0.007144577335566282
-0.006103125866502523
6.178728654049337e-05
0.0017220850568264723
0.0016834010602906346
0.0029058095533400774
0.0012155052972957492
0.000965022889431566
0.004153383430093527
-0.004582397174090147
-0.0037932447157800198
-0.003994331695139408
-0.0009881726000458002
0.0011243410408496857
-0.002028672955930233
-0.00034625543048605323
0.0006581456400454044
-5.292743298923597e-05
-0.0035169455222785473
-0.002987992251291871
-0.0034905581269413233
-0.0019001866457983851
0.002277516294270754
-0.003792720614001155
-0.0010472312569618225
0.0054264916107058525
-0.0012335095088928938
-0.00023023196263238788
0.003789290552958846
0.0019191647879779339
0.0001290967338718474
-0.0003221257939003408
-0.0011722373310476542
-0.0019888700917363167
-0.00034244300331920385
-0.0007848542300052941
-0.001777192228473723
-9.010639769257978e-05
0.0007260367856360972
0.0013407060177996755
0.002081313170492649
0.001776677556335926
-0.0009713880717754364
0.0006806316087022424
0.0001231499045388773
-0.0018074207473546267
7.028345862636343e-05
-0.0022428161464631557
0.002918977290391922
0.0007753359386697412
-0.0011325053637847304
0.0027981074526906013
0.00012075919948983938
-0.0019086372340098023
0.002791957464069128
-0.0007307580672204494
0.0003851583751384169
0.0007502039661630988
0.0009571714326739311
0.00292467069812119
0.0031608790159225464
0.0025826427154242992
0.0007434473955072463
0.0013136925408616662
-0.00034969940315932035
0.002129332395270467
0.0024105689954012632
0.00011662058386718854
0.002565128495916724
0.0028364851605147123
0.00023913178301882
0.0036731036379933357
0.00325790885835886
0.0015078183496370912
0.0006995063740760088
-0.0006279377266764641
-0.0017026042332872748
-0.0011641060700640082
0.00018519807781558484
-0.0014407262206077576
0.0001499741483712569
0.0007037602481432259
-0.0009633080335333943
0.0006855570827610791
-0.00022605180856771767
-0.00010111105075338855
-0.0009525911882519722
-0.0013254501391202211
-0.0010393596021458507
-0.000863238179590553
-0.0021266192197799683
-0.0020272766705602407
0.0018920570146292448
-0.0008116060635074973
0.00030949024949222803
0.00025939353508874774
-0.001704445923678577
0.0004514214815571904
-0.0011976724490523338
-0.0025234967470169067
-0.0006097182049416006
-0.002179264323785901
-0.002045609522610903
-0.001913135522045195
-0.004148631822317839
-0.0034124315716326237
-0.0032818897161632776
-0.0028280867263674736
-0.0026748182717710733
-0.0033487265463918447
-0.000443280820036307
0.0011614742688834667
0.0016500051133334637
0.0028731352649629116
0.00501280790194869
0.005412689875811338
0.0016813318943604827
0.0035802542697638273
0.004196756519377232
-0.0038260663859546185
-0.0016716268146410584
-0.014973903074860573
-0.01924058608710766
0.004760464187711477
-0.009947959333658218
0.004014628939330578
0.004676096606999636
-0.01151457242667675
0.006722430232912302
0.03990551829338074
0.01708918996155262
0.014009988866746426
0.024295996874570847
0.009992673061788082
0.011135805398225784
0.02991589531302452
0.01665336638689041
0.01282279472798109
-0.010843933559954166
-0.0066998605616390705
-0.008603940717875957
-0.01972930133342743
-0.011430257000029087
-0.015540555119514465
-0.024582382291555405
-0.02089504711329937
-0.025193670764565468
0.012860328890383244
0.012447663582861423
0.014918054454028606
0.009369608014822006
0.005217128898948431
0.008794847875833511
0.018407277762889862
0.02001260593533516
0.025157958269119263
0.0001425057416781783
0.001053114072419703
0.0017725540092214942
0.0014168893685564399
0.0011399687500670552
0.003447157796472311
0.0025462289340794086
0.0022964656818658113
0.004195607732981443
0.016944829374551773
0.0351715125143528
0.03540275990962982
0.017816800624132156
0.0580684058368206
0.024117950350046158
0.01300753839313984
0.03125672787427902
0.007460407447069883
-0.012356542982161045
-0.026691488921642303
-0.026405800133943558
-0.012358367443084717
-0.01784973405301571
-0.0241521205753088
-0.013806278817355633
-0.01509228628128767
-0.014868680387735367
-0.03493347764015198
-0.0289761945605278
-0.013949389569461346
-0.04214584082365036
-0.025023309513926506
-0.014053494669497013
-0.022689709439873695
-0.008995701558887959
0.004896705038845539
0.0018318294314667583
-0.010580547153949738
-0.0251522958278656
-0.011325308121740818
-0.011597888544201851
-0.022324087098240852
-0.007777106482535601
-0.008505994454026222
-0.013380903750658035
-0.010959599167108536
-0.005135294049978256
-0.012492148205637932
-0.015110807493329048
-0.010442557744681835
-0.0031831313390284777
0.00048087231698445976
-0.007065530400723219
0.01100921630859375
0.008822503499686718
0.01483631320297718
0.007491936441510916
0.013465756550431252
0.019909990951418877
0.004605462774634361
0.010266485624015331
0.005005432292819023
-0.002528711687773466
0.027845771983265877
0.025300923734903336
0.030760508030653
0.0038436097092926502
0.03052399680018425
0.011876421049237251
0.008406048640608788
0.019347038120031357
-0.0022003166377544403
-0.01539734099060297
-0.007554117124527693
-0.006147728301584721
-0.01364463847130537
-0.0038905986584722996
0.00014272224507294595
-0.0006362476851791143
0.006572627928107977
0.013340051285922527
0.0010643952991813421
0.026115920394659042
0.035772036761045456
0.008111583068966866
0.023456990718841553
0.03472452238202095
0.0011025510029867291
0.013828486204147339
0.01981748454272747
-0.0006740931421518326
0.0074403551407158375
0.0020467510912567377
-0.004662902560085058
0.016624560579657555
0.011175769381225109
0.00236858450807631
0.020219974219799042
0.002490656217560172
-0.010514452122151852
0.0040277414955198765
0.012438679113984108
-0.008956494741141796
0.006524502765387297
0.013510736636817455
-0.014611450023949146
-0.008256511762738228
0.007030987646430731
-0.0036515286192297935
-0.003756430931389332
0.007922090590000153
-0.012251246720552444
-0.0090050483122468
0.0006117138545960188
0.0010394896380603313
-0.007684585638344288
-0.008954103104770184
-0.0011921622790396214
-0.017243070527911186
-0.012322183698415756
-0.006889662705361843
-0.020620141178369522
-0.01570167951285839
-0.007481806445866823
-0.009023266844451427
-0.00898013636469841
0.012184688821434975
-0.011240188032388687
-0.020495353266596794
0.00986051931977272
-0.009920313023030758
-0.012906145304441452
0.012134246528148651
0.002992606721818447
-0.005635544192045927
0.01233197282999754
0.005171006079763174
0.006246103439480066
-0.0034735575318336487
0.0031199539080262184
0.015846654772758484
0.009211815893650055
0.005693601910024881
0.010281028226017952
-0.0003339748363941908
-0.0019339098362252116
0.0009021209552884102
-0.0007968544377945364
0.0018011289648711681
-0.005017452407628298
-0.0029628609772771597
0.0033369415905326605
-0.0013796096900478005
0.0033963925670832396
-0.005456952378153801
0.002758404705673456
-0.0032400989439338446
0.02502267435193062
0.008134888485074043
0.012398704886436462
0.013495068997144699
0.0048529719933867455
-0.02575439028441906
-0.012969180941581726
-0.009948262013494968
-0.03859511390328407
-0.020611587911844254
-0.026753706857562065
-0.029832853004336357
-0.018076078966259956
-0.014813550747931004
0.0034051979891955853
0.016816647723317146
0.022992147132754326
-0.008076970465481281
0.0011354933958500624
0.010461387224495411
-0.020831385627388954
-0.012228201143443584
-0.014690298587083817
-0.005325415171682835
-0.015231523662805557
-0.0048740822821855545
-0.011708851903676987
-0.02610965631902218
-0.02130730450153351
-0.01603984832763672
-0.017380354925990105
-0.007200506050139666
0.03146041929721832
-0.008136834017932415
0.003630958730354905
0.02652960829436779
-0.0056029013358056545
-0.012618016451597214
0.022077837958931923
-0.005230993498116732
-0.01346560288220644
-0.00881244894117117
-0.008225174620747566
0.0064725750125944614
-0.007759803906083107
-0.006169897969812155
0.0004951136070303619
-0.011470776051282883
-0.014546986669301987
0.003206529188901186
0.006254263687878847
0.021446814760565758
0.004977356642484665
-0.0007461935165338218
0.016622036695480347
-0.0026607865002006292
0.003737275954335928
0.015171613544225693
0.0005538963596336544
-0.01137528195977211
0.00873523112386465
0.021501392126083374
0.001173736178316176
0.011673163622617722
0.03664692863821983
0.0025243526324629784
0.022872425615787506
0.020695045590400696
0.0014225093182176352
-0.008682523854076862
0.0008496071677654982
-0.004156836308538914
-0.01584019884467125
-0.0007847219821996987
0.00013534596655517817
0.002372580813243985
-0.0021616388112306595
-0.016099456697702408
-0.026553934440016747
-0.02588457427918911
-0.014332064427435398
-0.023993855342268944
-0.022289931774139404
-0.007326998747885227
-0.00558549864217639
-0.014540908858180046
0.014736311510205269
0.01860964111983776
0.0029526709113270044
0.010284076444804668
0.012783539481461048
0.005846214946359396
0.008521054871380329
0.010187932290136814
0.0016832567052915692
-0.012019208632409573
0.012907497584819794
-0.0008867992437444627
-0.008107895962893963
0.010977271944284439
0.0005299488548189402
0.0035418819170445204
0.005503956228494644
0.00205480819568038
0.0053887320682406425
0.0065519800409674644
0.0029356118757277727
0.0035599013790488243
0.00046835371176712215
-0.0005132114747539163
0.0038407740648835897
-0.0016436747973784804
0.002440278884023428
-0.011080925352871418
-0.014558903872966766
-0.013740076683461666
-0.012234499678015709
-0.013937029987573624
-0.014804859645664692
-0.01942366175353527
-0.01578240841627121
-0.013763762079179287
-0.00713218143209815
0.005892552435398102
0.008731699548661709
-0.004586216993629932
-0.0015271530719473958
0.008394064381718636
-0.00814089272171259
0.0005414757179096341
0.007398475427180529
0.0016319302376359701
0.004802038427442312
-0.0021385697182267904
0.004820611793547869
0.005666883662343025
-0.002213794505223632
0.007260942831635475
0.0066432529129087925
0.0001297576236538589
0.02330847829580307
-0.007862239144742489
0.030592482537031174
0.035169437527656555
0.003208090551197529
0.03671364486217499
0.008667677640914917
-0.004277923610061407
0.021768052130937576
-0.005562125705182552
-0.0039026853628456593
-0.015827083960175514
0.004836722277104855
0.004887248855084181
-0.015870874747633934
0.004722265526652336
0.011339735239744186
-0.00524013489484787
-0.000309620110783726
0.014031554572284222
0.01843465492129326
0.001384264905937016
0.0025275307707488537
0.012352749705314636
0.0010807920480147004
-0.0022263990249484777
0.014013107866048813
-0.01207679696381092
-0.00975226890295744
0.0035655221436172724
-0.0052230460569262505
-0.004932580515742302
-0.003037363290786743
-0.004510049242526293
-0.0020006662234663963
-0.007550984155386686
0.01004245039075613
0.007643925491720438
0.012486882507801056
0.01129002496600151
0.01996706984937191
0.014742568135261536
0.01864769123494625
0.024712461978197098
0.020931050181388855
-0.011975767090916634
-0.014781332574784756
0.024653811007738113
-0.00794186070561409
0.006877896375954151
0.022708378732204437
-0.008977898396551609
0.013936829753220081
0.016846662387251854
-3.984680733992718e-05
0.01487778965383768
0.0008375680772587657
0.0032523381523787975
0.010221448726952076
0.012209023348987103
0.006857714615762234
0.0110741276293993
0.011320131830871105
0.00025320329586975276
-0.012266037054359913
0.002724113641306758
-0.009221835993230343
-0.01675170660018921
0.007115135435014963
-0.008298570290207863
-0.0025404011830687523
0.01517511811107397
0.009571296162903309
0.02080104686319828
0.00791007187217474
-0.003733584890142083
0.01568351686000824
0.005854389164596796
0.0033380696550011635
0.021783066913485527
0.006494640838354826
-0.004978710785508156
0.01865539886057377
-0.0411202609539032
-0.011635689064860344
-0.010334925726056099
-0.03791137412190437
-0.0030583003535866737
-0.005183815024793148
-0.021512456238269806
0.015045244246721268
0.018118243664503098
0.007987553253769875
-0.002900061197578907
-0.006245773285627365
0.003693836275488138
-0.003970657009631395
-0.01578964665532112
-0.008026355877518654
0.0022709050681442022
-0.0029874106403440237
-0.012476753443479538
0.0027069475036114454
-0.018379954621195793
-0.008213636465370655
4.0949147660285234e-05
-0.003670437727123499
-0.009371994063258171
-0.01415315829217434
0.0030982771422713995
0.0016485066153109074
-0.008237150497734547
-0.0065044523216784
-0.015094446949660778
0.004934947472065687
-0.009302296675741673
-0.007642547599971294
-0.0001477346959291026
0.005692980717867613
-0.00454507302492857
0.0058148992247879505
0.006479430478066206
-0.002540814457461238
0.008579193614423275
0.005435774102807045
-0.0005304024671204388
-0.014620374888181686
-0.0004311672237236053
-0.0043791355565190315
-0.018370144069194794
-0.01261263806372881
-0.0062812333926558495
-0.0016344654140993953
0.00708570284768939
-0.0013589332811534405
0.014680386520922184
-0.0075730374082922935
0.007920523174107075
0.031504955142736435
0.014275746420025826
0.027329158037900925
0.025964729487895966
0.012356058694422245
0.02402007207274437
0.032471124082803726
0.007076167967170477
0.03910142183303833
0.028979798778891563
0.011132871732115746
0.05676114931702614
0.014923718757927418
0.0041099535301327705
0.051474958658218384
-0.012055440805852413
-0.02355039119720459
0.0035217648837715387
0.004125475417822599
-0.0035254505928605795
0.021268555894494057
0.008116859011352062
-0.014411683194339275
0.0174251738935709
-0.006837209686636925
0.01392639521509409
-0.004669059533625841
0.014260801486670971
0.024866607040166855
0.006933204829692841
0.02712699957191944
0.025052618235349655
0.011718488298356533
-0.006550325080752373
-0.003565846709534526
0.0005221281899139285
-0.0025679070968180895
0.0027849003672599792
0.008368127979338169
0.0006359380204230547
0.008531583473086357
-0.005327235441654921
0.004556654021143913
0.0040407851338386536
-0.021019263193011284
0.017703987658023834
-0.0003703675465658307
-0.013925657607614994
0.017864488065242767
-0.019572457298636436
-0.001165542984381318
-0.0012561838375404477
0.0008795124595053494
0.0005642567411996424
0.0005240575992502272
0.0016414838610216975
-0.005355775821954012
0.0021096852142363787
0.01119684986770153
-0.0009336802759207785
-0.022288117557764053
-0.024908700957894325
0.012170247733592987
-0.02164972946047783
-0.016272250562906265
0.02058953419327736
-0.014055043458938599
-0.005666324868798256
0.028733890503644943
-0.01743372343480587
0.0318024642765522
0.027560757473111153
-0.014978757128119469
0.022817468270659447
0.0001669600314926356
-0.001659673172980547
0.033802468329668045
-0.0057719093747437
-0.0070900884456932545
0.019929252564907074
0.00531800277531147
0.0003734313359018415
0.017775574699044228
-0.007082820404320955
0.009574184194207191
0.01497228816151619
-0.014862118288874626
-0.009992714039981365
-0.011588512919843197
-0.015680136159062386
-0.008256767876446247
-0.002853864338248968
-0.010690887458622456
-0.0012279846705496311
0.00682345125824213
-0.0034111610148102045
-0.005583140067756176
-0.006596033461391926
0.007810365874320269
-0.015035998076200485
-0.010704663582146168
-0.0007600719691254199
-0.02256298065185547
-0.01302336435765028
-0.008977885358035564
0.07849758118391037
0.03041592799127102
0.04997272044420242
-0.017793171107769012
-0.009928775019943714
0.03048849105834961
-0.034028276801109314
-0.008967863395810127
0.023859286680817604
-0.030241893604397774
-0.012896990403532982
0.013668905943632126
0.03428071364760399
-0.00534875737503171
-0.030189039185643196
0.003355050692334771
-0.0032523476984351873
-0.013184189796447754
0.06149284541606903
0.021951479837298393
0.12315333634614944
0.03596274554729462
-0.03663158416748047
0.05390327051281929
0.022243769839406013
-0.03030526638031006
0.03685976192355156
0.080398790538311
0.028161002323031425
-0.0609680600464344
0.10683727264404297
0.06351588666439056
-0.04551497474312782
0.07991127669811249
0.03668365254998207
-0.058804865926504135
0.008197410963475704
-0.007590346969664097
-0.013995968736708164
0.010008755140006542
-0.005243391264230013
-0.016137415543198586
0.006550557445734739
-0.010826481506228447
-0.024962421506643295
-0.055589720606803894
-0.06836032122373581
-0.06490869075059891
-0.011478197760879993
-0.030869584530591965
-0.12291646003723145
-0.001894183806143701
-0.0543341338634491
-0.11965391039848328
0.024372873827815056
-0.01650402881205082
0.015838008373975754
-0.03835964947938919
-0.05368020758032799
0.030054127797484398
0.026973387226462364
-0.0014648425858467817
0.008013705722987652
-0.012315893545746803
0.04512978345155716
-0.09756609797477722
-0.009817138314247131
0.03354451060295105
-0.06539881974458694
-0.015722543001174927
0.03434470295906067
-0.07447982579469681
-0.042722854763269424
-0.12641377747058868
0.024981990456581116
-0.09389497339725494
-0.08421710878610611
0.011779779568314552
-0.013345086015760899
-0.10041698068380356
-0.017393535003066063
0.022380009293556213
0.03366994112730026
0.01389508880674839
0.03983163461089134
0.023434216156601906
-0.038709934800863266
-0.02595510706305504
-0.0431654118001461
-0.08142651617527008
-0.010128559544682503
0.005381986033171415
-0.036782484501600266
-0.028936512768268585
-0.01693475805222988
-0.07635887712240219
-0.020266994833946228
-0.02473902702331543
-0.060047999024391174
-0.013188464567065239
-0.03095855377614498
-0.026026703417301178
-0.013385090976953506
-0.019535012543201447
0.007439447101205587
-0.0361422635614872
-0.02199482172727585
-0.01331424806267023
0.05968224257230759
-0.0686059519648552
-0.06117073819041252
0.08543834090232849
-0.10476953536272049
-0.06374645978212357
0.04102791100740433
-0.03723165765404701
-0.019948702305555344
-0.005713021848350763
0.08802143484354019
0.04137670621275902
0.011650430038571358
0.12691864371299744
0.033876992762088776
-0.033778365701436996
0.0079604247584939
-0.022204305976629257
0.041661813855171204
-0.04598913714289665
-0.056293606758117676
0.051201917231082916
-0.026570908725261688
-0.0924510508775711
0.0034945893567055464
-0.015011085197329521
-0.01727401465177536
0.014351872727274895
0.00021643482614308596
0.020363371819257736
0.021373417228460312
0.0163480993360281
-0.016808131709694862
-0.0067239850759506226
-0.028928270563483238
-0.021685920655727386
0.08005381375551224
-0.0317065492272377
-0.0041687823832035065
0.026787661015987396
-0.025235818699002266
-0.00036519169225357473
0.006336063612252474
-0.004593513906002045
-0.00382701912894845
-0.020084185525774956
0.01032482460141182
-0.06372739374637604
0.01846856065094471
0.03969845920801163
-0.019909242168068886
-0.1357717663049698
-0.056876614689826965
-0.05072184279561043
-0.040195878595113754
0.014911750331521034
-0.019867276772856712
0.014509587548673153
0.023988867178559303
-0.02313656359910965
0.03662492707371712
0.010583728551864624
-0.027545150369405746
-0.046296000480651855
-0.03859669715166092
-0.07151304185390472
-0.010199051350355148
-0.04072180390357971
-0.07281938940286636
-0.05471309646964073
-0.04433319717645645
-0.028742050752043724
0.16739387810230255
-0.025907056406140327
-0.12965789437294006
0.13673827052116394
-0.1264011263847351
-0.16176261007785797
0.0313311368227005
-0.06387849897146225
-0.027799539268016815
-0.09666797518730164
-0.13882112503051758
0.011621717363595963
-0.030994562432169914
-0.14696520566940308
-0.02716551534831524
0.005558152217417955
-0.0673382580280304
-0.016835231333971024
-0.021725311875343323
0.046472322195768356
-0.03700253367424011
0.024519406259059906
0.010183939710259438
-0.09527131915092468
-0.028763702139258385
0.019252387806773186
-0.040817588567733765
0.4434511363506317
0.03691920265555382
-0.13997797667980194
0.34554004669189453
-0.006370149087160826
-0.17735329270362854
0.16008861362934113
-0.14175477623939514
-0.2309214174747467
0.07498080283403397
0.0378996841609478
-0.06350608915090561
0.02180260606110096
0.027759017422795296
-0.01344041433185339
0.02330589108169079
0.019155388697981834
0.003659167094156146
-0.014213735237717628
0.005808559712022543
0.017599355429410934
-0.017959048971533775
-0.031387798488140106
-0.02618834748864174
0.010181119665503502
-0.009536799974739552
-0.039514292031526566
-0.016128849238157272
0.03754666820168495
-0.06682729721069336
0.001197765814140439
0.02919449284672737
-0.07110356539487839
0.006334471050649881
0.06423863023519516
-0.05752543359994888
-0.07740473002195358
-0.06198817864060402
-0.08536404371261597
0.026097893714904785
0.01206116657704115
-0.07993662357330322
0.021589010953903198
0.01957014948129654
-0.05521426722407341
0.12416739016771317
0.020709943026304245
-6.299971573753282e-05
0.03821779787540436
0.0328107513487339
0.03951932117342949
0.04082898423075676
-0.03701368719339371
-0.04394490644335747
-0.02937314659357071
0.036024898290634155
0.025190621614456177
-0.002695987466722727
0.013547657057642937
0.026161614805459976
-0.03976438194513321
-0.022979646921157837
-0.03429315239191055
-0.0065786526538431644
-0.01641208864748478
0.0064489091746509075
0.10531198233366013
0.025735527276992798
0.003996900748461485
0.05884360894560814
0.05644542723894119
-0.0020272163674235344
-0.262159526348114
0.020403610542416573
0.09007251262664795
-0.2139168083667755
0.11957736313343048
0.17295275628566742
-0.1592298001050949
0.10791455954313278
0.14465367794036865
-0.010203075595200062
-0.11754321306943893
-0.1264319121837616
-0.01922811008989811
-0.06955055147409439
-0.10371534526348114
0.04155996814370155
-0.009259584359824657
0.00784248299896717
0.09999140352010727
0.14450186491012573
0.029013559222221375
0.017742319032549858
0.024625590071082115
0.03452908992767334
0.09330108761787415
0.09799134731292725
0.06436378508806229
0.026008641347289085
0.012012427672743797
-0.000737241527531296
-0.07681658118963242
-0.05960529297590256
-0.03416742384433746
0.0034165491815656424
-0.013846592977643013
-0.01581456884741783
0.058829668909311295
0.05095640942454338
0.03344397991895676
0.010979090817272663
-0.02850041724741459
-0.00590467406436801
0.0496889166533947
0.047164782881736755
0.04003041610121727
-0.02976854518055916
-0.03535345941781998
-0.022481074556708336
-0.03028229810297489
-0.03148447722196579
-0.023528682067990303
-0.026411693543195724
-0.02563277631998062
-0.0206937026232481
-0.038219060748815536
-0.026220940053462982
-0.00444053765386343
-0.03527744114398956
-0.10123362392187119
-0.020869461819529533
-0.04781882092356682
-0.03697335720062256
-0.027687247842550278
-0.026631435379385948
-0.015109836123883724
-0.002444703131914139
-0.0645914077758789
0.014377651736140251
-0.025685207918286324
-0.0055667501874268055
-0.07008400559425354
-0.018574552610516548
-0.07065130025148392
-0.09856002032756805
-0.018856106325984
-0.07621042430400848
-0.08912917971611023
-0.0029876832850277424
-0.08370159566402435
-0.07404295355081558
-0.0007816623547114432
-0.036714911460876465
-0.03189358115196228
-0.02207203581929207
-0.05414579063653946
-0.03584720566868782
-0.027180230244994164
-0.004193418193608522
-0.051005568355321884
-0.03983456641435623
-0.09093008190393448
-0.009136327542364597
0.04727892205119133
-0.21184581518173218
-0.20527207851409912
-0.08452427387237549
0.0007173893391154706
-0.01491333357989788
0.052168164402246475
