-0.027184337377548218
-0.024213623255491257
-0.001157337799668312
-0.01794992759823799
-0.023796454071998596
0.0010039530461654067
-0.025706227868795395
-0.024017037823796272
-0.019734935835003853
-0.0018806387670338154
-0.001329470076598227
-0.000800447363872081
-0.0007790563395246863
-0.00018418861145619303
0.0005159948486834764
-0.001272068009711802
-0.0006931702955625951
-0.00010665771696949378
-0.006612349767237902
0.02395947091281414
0.045304156839847565
-0.009002017788589
-0.01130853034555912
0.008065690286457539
0.03603167459368706
-0.03353693336248398
-0.034155357629060745
0.04896053299307823
0.007102778647094965
-0.049883585423231125
0.0783843845129013
0.009751222096383572
-0.05562698841094971
0.05898630991578102
0.004403365775942802
-0.04292074963450432
0.009786343201994896
0.016446182504296303
0.008396311663091183
0.011240042746067047
0.004595975857228041
-0.02398695982992649
0.010014502331614494
-0.024616315960884094
-0.011647246778011322
0.04844605550169945
0.049787815660238266
0.045235902070999146
0.013042397797107697
0.048711325973272324
0.02514391951262951
0.010434798896312714
0.008394075557589531
0.023483209311962128
-0.02596592716872692
-0.002052267314866185
0.0020711845718324184
-0.01562574878334999
-0.019319260492920876
-0.04773790016770363
0.04265522584319115
-0.011295192874968052
0.0054667070508003235
-0.03765137866139412
-0.020425280556082726
-0.003520043333992362
0.031487513333559036
0.0802050232887268
0.018569905310869217
0.046758171170949936
0.12447329610586166
0.07361733913421631
-0.01284112874418497
0.0115343127399683
0.027652328833937645
0.003577752271667123
0.010299643501639366
-0.029934849590063095
0.02429099753499031
0.015234820544719696
-0.029642758890986443
-0.014005488716065884
0.006415031384676695
0.02617812342941761
-0.07359519600868225
-0.08143085986375809
0.005593468435108662
-0.10770580917596817
-0.08282928913831711
-0.05471796914935112
-0.0030776194762438536
-0.02481144480407238
0.007671722210943699
-0.022240206599235535
-0.05968654155731201
-0.04310879856348038
-0.0308227576315403
-0.03478429093956947
0.01090822834521532
0.021233275532722473
0.043611664324998856
0.0007943613454699516
-0.030212434008717537
-0.031517595052719116
-0.05333682894706726
-0.06954500824213028
-0.0981927365064621
-0.09748732298612595
-0.0013963953824713826
-0.001804421073757112
-0.0011341689387336373
-0.0009400007547810674
-0.0018616365268826485
-0.0008233404369093478
-7.619311872986145e-06
-0.0006535089924000204
4.237484245095402e-05
0.0223038662225008
0.011454799212515354
-0.007890541106462479
0.0013267025351524353
-0.020461777225136757
-0.026224996894598007
-0.002687328029423952
-0.026527810841798782
-0.02802552655339241
0.004305937327444553
0.009048803709447384
0.004140476696193218
-0.0023960357066243887
0.010627344250679016
0.01558597106486559
0.011193622834980488
0.02127506583929062
0.022044938057661057
-0.05999329686164856
-0.016250792890787125
0.08499555289745331
-0.12836720049381256
-0.03530896082520485
-0.05626107379794121
-0.07885316014289856
0.018693674355745316
0.006955486256629229
-0.001187582383863628
-0.03902379050850868
0.00451556034386158
0.030483685433864594
-0.0324273556470871
-0.024488771334290504
0.005590552929788828
-0.05634525418281555
-0.049059003591537476
-0.0014085521688684821
0.020348383113741875
-0.0043020183220505714
0.005176676902920008
0.00295086158439517
-0.002447455422952771
0.032216232270002365
0.03135417401790619
0.011600330471992493
0.04328615218400955
0.02406957559287548
0.03393558785319328
0.023595457896590233
0.012919162400066853
0.014620182104408741
0.003916728310286999
-0.01617497019469738
-0.004027994349598885
-0.02759721875190735
-0.048418957740068436
-0.025202805176377296
-0.014352860860526562
-0.060507796704769135
-0.03755299001932144
-0.016467111185193062
-0.06764502078294754
-0.031041108071804047
0.045552995055913925
0.003844295395538211
0.05484515056014061
0.011374933645129204
0.0109730064868927
0.01777523383498192
-0.0082241864874959
-0.030581669881939888
0.03487858548760414
-0.01210443302989006
-0.03685879334807396
-0.02196345664560795
0.020568661391735077
0.004388340748846531
-0.017448335886001587
0.013871507719159126
0.05374950170516968
0.03978339955210686
-0.12592726945877075
-0.09401775151491165
-0.0819936990737915
-0.09771153330802917
-0.09105737507343292
-0.060964714735746384
-0.08103074878454208
-0.008499477989971638
-0.022311167791485786
-0.01445555966347456
-0.01215660572052002
-0.023397469893097878
-0.007599073462188244
-0.014508858323097229
-0.013514025136828423
-0.03378800302743912
-0.040504179894924164
-0.01660640351474285
-0.0002694502181839198
-0.00014995181118138134
-0.0002808225981425494
-0.0002465982979629189
0.0003431106742937118
0.0005875641363672912
-0.0008843884570524096
-6.067979120416567e-05
0.000327669782564044
-0.0148761086165905
0.013820669613778591
0.009395316243171692
0.007728565949946642
-0.002727047773078084
0.012925517745316029
0.05985177308320999
0.07596611976623535
0.016419582068920135
-0.08722001314163208
-0.07548259198665619
-0.004164190962910652
-0.08249488472938538
-0.1167837381362915
-0.08280616253614426
-0.00541011244058609
-0.019674027338624
-0.06710990518331528
-0.00016201734251808375
-0.0002601875748950988
-6.892131204949692e-05
3.282545367255807e-05
3.4619813959579915e-05
0.00014373564044944942
6.459554424509406e-05
0.00010480251512490213
0.00011230442760279402
0.018057577311992645
0.020348062738776207
0.013900457881391048
0.016858259215950966
0.0427139513194561
0.048747468739748
0.014273962005972862
0.0882657840847969
0.09931609034538269
0.01258885394781828
0.04366867616772652
0.01877574808895588
-0.030225643888115883
0.020953182131052017
0.027704479172825813
-0.01120938453823328
-0.01631545089185238
0.011330741457641125
-0.09818010032176971
-0.021457664668560028
0.07970989495515823
-0.0911225900053978
-0.037361159920692444
0.04970884323120117
-0.11236526817083359
-0.06790441274642944
0.029542597010731697
-0.007249056361615658
-0.0013305933680385351
0.009965188801288605
0.003269749926403165
0.003084100317209959
0.008812987245619297
0.0005285117076709867
0.0037741048727184534
0.008734620176255703
0.011279796250164509
-0.006573992315679789
-0.005212406627833843
-0.02549171634018421
-0.04898327589035034
-0.0608612485229969
-0.04647061601281166
-0.062146760523319244
-0.04472991079092026
-0.0009849966736510396
-0.000951244670432061
-0.0007220380939543247
-0.0001019416085910052
-0.0004477175243664533
-0.0002254282881040126
-0.0005900119431316853
-0.00024879182456061244
-0.0003026330377906561
-0.04997754842042923
0.0057707056403160095
-0.03540866822004318
-0.02784777246415615
0.009231255389750004
0.010735240764915943
-0.05586837977170944
0.006073926109820604
0.02457321807742119
0.020438242703676224
0.012204029597342014
-0.01171355601400137
0.001753695192746818
-0.03504503145813942
-0.010046144016087055
-0.009709407575428486
-0.039065923541784286
-0.06742187589406967
0.03866565600037575
0.0129727553576231
0.007908817380666733
0.05280013382434845
-0.022177578881382942
0.026794668287038803
-0.01631452888250351
-0.027922939509153366
-0.012348015792667866
0.0314997062087059
0.013357455842196941
0.025907602161169052
-0.021375009790062904
-0.049509141594171524
0.0398966483771801
0.03155599161982536
0.022311754524707794
-0.0019351659575477242
0.004763665143400431
0.004593159072101116
0.019178615882992744
0.03288434073328972
0.08588758856058121
-0.03021562285721302
-0.01863721013069153
0.03791093826293945
0.041128724813461304
0.010066677816212177
0.015428663231432438
-0.008162413723766804
0.005873625632375479
0.003976250998675823
0.01707814447581768
0.015296113677322865
-0.0033393832854926586
0.0002907716843765229
-0.028785772621631622
-0.006366299465298653
-0.024927396327257156
-0.017479998990893364
-0.02751212567090988
-0.07037517428398132
0.041651107370853424
0.04740037024021149
-0.020599305629730225
-0.017676236107945442
-0.006291949190199375
0.006238698959350586
-0.026287252083420753
0.029407283291220665
-0.01209205575287342
-0.029464634135365486
-0.0042665195651352406
0.006743282079696655
-0.04494538903236389
-0.022307956591248512
-0.042957860976457596
-0.0030211866833269596
-0.026586564257740974
-0.016707949340343475
-0.00029471697052940726
-0.04730508476495743
-0.019134385511279106
-0.00010535444016568363
-2.857691106328275e-05
-3.266342173446901e-05
2.561204382800497e-05
3.401777212275192e-05
9.25594795262441e-05
-0.0001509105641162023
-0.00015336718934122473
-5.4640106100123376e-05
-0.035197820514440536
-0.02916787378489971
-0.023323904722929
-0.014160550199449062
-0.02892831712961197
0.00039804354310035706
0.005675621330738068
0.018787844106554985
-0.008753002621233463
0.025456026196479797
0.02175644040107727
0.04370087385177612
-0.006664959713816643
-0.008021576330065727
0.009655600413680077
-0.002881335560232401
-0.015790358185768127
0.004575063474476337
-0.027844179421663284
-0.052650872617959976
-0.04930441081523895
-0.022202128544449806
0.003203887492418289
-0.029568174853920937
0.07142128795385361
0.056626446545124054
0.033817995339632034
-4.322323729866184e-05
-5.348114427761175e-06
0.0001307896600337699
-2.692031739570666e-05
9.724987467052415e-05
0.00019903267093468457
-0.0002056346129393205
-9.243938256986439e-05
2.082276296277996e-05
-0.0032739967573434114
0.07181726396083832
0.01928744465112686
0.0745689645409584
0.04799294099211693
-0.0032166901510208845
0.052792299538850784
-0.004493264015763998
0.020660778507590294
-0.05265393108129501
-0.05651416257023811
-0.033714260905981064
-0.046458713710308075
-0.030785448849201202
-0.030950477346777916
0.0064223213121294975
0.02422400750219822
0.016865074634552002
0.04559750109910965
0.05843270570039749
-0.008267589844763279
0.030614648014307022
0.005946251563727856
-0.009545614942908287
-0.04400944709777832
-0.01722252555191517
0.02434398978948593
-0.013980907388031483
0.008667921647429466
0.07942048460245132
-0.03074505925178528
-0.002925169887021184
-0.012245580554008484
-0.056334082037210464
-0.04729750007390976
-0.0486147403717041
-0.051452524960041046
0.0037099961191415787
-0.008915185928344727
-0.039583269506692886
-0.013390442356467247
-0.009907743893563747
0.0036158657167106867
-0.014192218892276287
-0.028630312532186508
0.033296942710876465
0.018833225592970848
0.01508759893476963
0.0010910849086940289
0.03151717036962509
0.04638589173555374
0.01667897403240204
-0.002113209804520011
-0.0033695658203214407
-0.026261819526553154
-0.06859074532985687
-0.032394975423812866
0.019567882642149925
0.02469216100871563
0.011451980099081993
0.025201108306646347
0.0033848106395453215
0.002854325110092759
-0.05969296395778656
-0.03595919534564018
0.018152618780732155
-0.02851206064224243
-0.04467063769698143
-0.009660879150032997
-0.022716626524925232
-0.003699922002851963
0.013827091082930565
-0.010998767800629139
-0.014230197295546532
-0.03705359250307083
0.016865259036421776
-2.09742684091907e-05
-0.024281151592731476
0.10842487961053848
0.12180871516466141
0.08888755738735199
0.013043085113167763
0.0137627013027668
0.011171146295964718
0.001591570908203721
-0.01598363369703293
-0.029076574370265007
-0.04638395085930824
-0.050433333963155746
-0.0769100934267044
-0.0885261669754982
-0.03915918618440628
-0.0068283299915492535
-0.09628136456012726
-0.023217691108584404
-0.031725138425827026
-0.07770807296037674
-0.020826924592256546
-0.0035512112081050873
0.0818365067243576
0.02099457010626793
0.05639925226569176
0.03030017577111721
-0.01990422047674656
0.01376674696803093
-0.00872967392206192
-0.03559616580605507
0.013473103754222393
0.03902962803840637
0.027202066034078598
0.045247387140989304
0.014080174267292023
0.01511162519454956
0.05278589949011803
-0.05740765854716301
0.012439797632396221
0.05992152541875839
-0.02607676014304161
0.008190611377358437
-0.0024472845252603292
-0.017685173079371452
0.0012893560342490673
-0.008722804486751556
0.0030591983813792467
0.038762301206588745
0.007142513059079647
0.007930883206427097
-0.011781295761466026
0.01640385016798973
-0.01934092864394188
-0.04271225258708
-0.021234186366200447
-0.0014772915747016668
0.0015091716777533293
-0.013664111495018005
-0.05496872216463089
-0.003139624372124672
-0.020263521000742912
-0.033024318516254425
-0.015723688527941704
-0.07531975954771042
-0.016325797885656357
-0.02908177860081196
-0.04114571213722229
0.00689977640286088
0.02019956335425377
0.03513510525226593
0.03950817883014679
0.04698780179023743
0.04870830103754997
0.015105052851140499
0.01648744009435177
0.025001531466841698
0.0007551375310868025
0.000342961197020486
-0.0004322887398302555
0.0006257058121263981
0.0004929495044052601
-0.00014382769586518407
0.001734172459691763
0.0013044546358287334
0.00048082959256134927
-0.03051111288368702
-0.05600542947649956
-0.04358949512243271
0.05858369544148445
0.003898874158039689
-0.014195623807609081
0.08548514544963837
0.0045327479019761086
-0.03574984893202782
0.036742400377988815
0.0032545998692512512
0.0189127866178751
0.04733670502901077
0.026641346514225006
0.07461988180875778
-0.004199901130050421
-0.024665474891662598
0.048405107110738754
0.01343231089413166
0.009634139016270638
-0.011762265115976334
0.0138167729601264
-0.0012748612789437175
-0.013665685430169106
0.003118465654551983
0.004071835894137621
-0.01563681662082672
-0.021825656294822693
-0.009337035939097404
-0.005779785569757223
-0.00208480516448617
-0.00869466457515955
-0.002219199202954769
-0.013860698789358139
-0.02366311103105545
-0.015237079933285713
0.011326473206281662
-0.007808158174157143
-0.032300978899002075
0.03160157799720764
-0.0038339884486049414
0.0023837995249778032
0.0059580691158771515
0.003898903029039502
-0.0007988479337655008
-0.040590424090623856
-0.07746908813714981
-0.05973391234874725
0.009923458099365234
-0.03942563384771347
-0.02001100778579712
-0.02733657695353031
-0.05745716392993927
-0.021720224991440773
0.004923244472593069
-0.011590108275413513
0.014138322323560715
0.010861416347324848
0.016574058681726456
0.03646543622016907
0.02276100590825081
0.03447117283940315
0.024991685524582863
0.021461736410856247
-0.0008138417033478618
-0.013201344758272171
0.05284155160188675
-0.013954965397715569
0.03694847598671913
0.06517070531845093
0.040465496480464935
0.007466362789273262
0.01852649636566639
0.02172507904469967
0.018092356622219086
0.05104949325323105
0.03580491244792938
0.02622871659696102
0.06734266877174377
0.027080422267317772
-0.0029139677062630653
0.024056077003479004
0.03470323607325554
0.020325910300016403
-0.004321007523685694
0.001388261909596622
-0.0037643795367330313
0.018521582707762718
0.02305353432893753
0.04536464065313339
9.005988977150992e-05
0.0008239731541834772
0.0010419447207823396
-0.000256940140388906
0.0011314136208966374
0.00032724058837629855
0.00047700494178570807
0.001831904985010624
0.0012212999863550067
-0.0002413388720015064
0.003022821620106697
0.008731708861887455
-0.0006485249032266438
0.004706546664237976
0.008670107461512089
0.0019726611208170652
0.012391561642289162
0.014883382245898247
-0.014990661293268204
-0.008557525463402271
-0.011819561943411827
-0.01474246010184288
-0.01104565430432558
-0.01213163137435913
-0.014569832012057304
-0.013606135733425617
-0.008093031123280525
-0.03165160119533539
-0.026699237525463104
-0.05968889221549034
-0.022386841475963593
-0.011199935339391232
-0.02391115389764309
-0.015665514394640923
0.06863637268543243
-0.0004785358323715627
0.005217660218477249
-0.006808269768953323
-0.04323321208357811
0.07507182657718658
0.056873589754104614
0.001285659964196384
0.032256804406642914
0.0008033888880163431
-0.021505052223801613
0.03958980739116669
0.01634129509329796
0.006202013697475195
0.026815805584192276
0.019909333437681198
0.01026404183357954
0.04582403600215912
0.017153795808553696
0.03106962889432907
-0.00032188158365897834
-0.004285440780222416
-0.03915545344352722
-0.01806696690618992
-0.006159916054457426
-0.06828391551971436
-0.034782491624355316
-0.014915240928530693
-0.04739118367433548
0.027608267962932587
0.06504946947097778
0.019672425463795662
-0.017652537673711777
0.04990052059292793
-0.02890874445438385
0.003807999659329653
0.031206203624606133
0.007824650965631008
-0.026533495634794235
-0.033272549510002136
-0.028798826038837433
-0.04093743860721588
-0.02591918222606182
-0.06251173466444016
-0.029560275375843048
-0.05656474083662033
-0.020299160853028297
-0.006938536651432514
0.06431647390127182
0.02044135332107544
0.006270968820899725
0.005957890301942825
-0.01660490781068802
0.0012655742466449738
0.017270846292376518
-0.024889683350920677
0.007853396236896515
0.054706472903490067
-0.006299307104200125
0.023732133209705353
0.0770174115896225
0.015402623452246189
6.624362868024036e-05
0.045054927468299866
0.0063045816496014595
-0.0297368336468935
-0.08482371270656586
-0.048823390156030655
-0.02568800002336502
-0.08577955514192581
0.022043665871024132
-0.02202417142689228
-0.059059321880340576
0.0047980924136936665
-0.0008521924610249698
-0.00018062729213852435
-3.16503101203125e-05
-0.0014358406187966466
-4.176547736278735e-05
-0.00046808470506221056
-0.0019302278524264693
0.00011092723434558138
-0.0002743897493928671
-0.07251939177513123
-0.02098623290657997
0.03907017037272453
0.021305156871676445
0.02464747615158558
0.05985594913363457
-0.018438544124364853
-0.029609037563204765
0.016457002609968185
-0.016183162108063698
0.02860347554087639
0.03651568293571472
2.5435936549911276e-05
-0.0018915848340839148
-0.0008252860861830413
0.018479911610484123
0.03182309865951538
-7.164963608374819e-05
-8.882638940121979e-05
-0.00030230748234316707
-0.00010569237201707438
0.00042125096661038697
0.0003484197077341378
-0.0001852599816629663
0.0006886972696520388
0.0008553309598937631
5.4171268857317045e-06
-0.02942582219839096
0.036545850336551666
0.036841847002506256
0.01574661396443844
0.017539070919156075
0.010651455260813236
-0.046303216367959976
-0.04139570891857147
-0.07165613025426865
-0.060050152242183685
-0.053132832050323486
-0.045618824660778046
0.0179752204567194
-0.017644625157117844
0.021033350378274918
-0.022476421669125557
-0.0699232742190361
-0.025514403358101845
0.018517015501856804
0.041264962404966354
-0.028648534789681435
-0.020005498081445694
-0.012834994122385979
-0.0732661634683609
-0.06967338919639587
-0.051345814019441605
-0.0377984493970871
0.022628480568528175
0.025926459580659866
0.025477901101112366
0.02860793098807335
0.032546449452638626
0.02498200535774231
0.03063550591468811
0.022396331652998924
0.02273462899029255
-0.01902632787823677
-0.02899160608649254
-0.004658041521906853
-0.004355652257800102
0.0018725526751950383
-0.03182980790734291
-0.02901238575577736
0.011605246923863888
-0.039037711918354034
0.00426753843203187
0.005335438996553421
-0.002480942290276289
-0.0005957361427135766
-0.0006494246190413833
-0.003277278272435069
-0.0037303927820175886
-0.002510353922843933
0.0011950975749641657
-0.002063627587631345
-0.013484214432537556
0.013935736380517483
0.022721583023667336
0.017727814614772797
0.021328937262296677
-0.018285203725099564
0.012299620546400547
-0.0029407746624201536
-0.048013877123594284
0.008565736934542656
0.004667526111006737
-0.012286851182579994
0.014192427508533001
0.010365511290729046
-0.007052551489323378
-0.03666980564594269
-0.017157290130853653
-0.030208127573132515
0.06293202936649323
-0.021446123719215393
0.008031007833778858
0.05616341531276703
-0.004789547994732857
0.001442145905457437
0.05034921318292618
-0.001609633443877101
-0.033732376992702484
-0.03280709311366081
0.05777003988623619
-0.02888582833111286
-0.008148612454533577
0.02059200406074524
-0.008955630473792553
-0.004989392124116421
-0.017173729836940765
-0.07514147460460663
-0.03101939894258976
-0.048580799251794815
-0.03646114468574524
-0.039748553186655045
-0.009048896841704845
-0.010420613922178745
-0.017851507291197777
-0.047777049243450165
-0.04252283275127411
-0.017575012519955635
0.003875672584399581
0.0016271148342639208
0.04419298842549324
0.010179467499256134
-0.015346091240644455
-0.012533847242593765
0.027582377195358276
-0.01732170395553112
-0.04992889240384102
-0.05226994305849075
-0.009543494321405888
0.031743839383125305
-0.022348452359437943
-0.026134096086025238
0.03906230255961418
-0.03818095475435257
0.00421240134164691
-0.03157161548733711
0.037661485373973846
-0.01900542713701725
-0.017443664371967316
0.008559740148484707
-0.040468212217092514
-0.01901916041970253
0.0030422022100538015
0.027724184095859528
0.03929273039102554
0.0006696146447211504
0.039710111916065216
0.076530821621418
0.021902337670326233
0.010623295791447163
0.03961638733744621
-0.0017961265984922647
-0.002504398813471198
0.0013482945505529642
-0.001559833763167262
-0.0008201068267226219
0.0022919930052012205
-0.00016686714661773294
0.002736798021942377
0.003307328326627612
-0.0003911222447641194
-0.006312981713563204
0.04662296175956726
-0.0406607985496521
0.009743619710206985
0.01398633886128664
-0.06971976161003113
0.03299245238304138
0.02587173879146576
0.01222753245383501
-0.01376323401927948
0.0027760863304138184
0.016783621162176132
0.046563200652599335
0.04095903038978577
0.050061874091625214
0.0027983153704553843
0.010147112421691418
0.03414052352309227
-0.039430826902389526
0.01841103471815586
-0.0010833201231434941
-0.06204859912395477
-0.038662247359752655
0.004769653547555208
-0.05638844147324562
-0.09714321792125702
-0.0605957917869091
-0.011617615818977356
-0.005539247766137123
-0.0013513839803636074
0.011417008936405182
0.003983909264206886
0.00019278486433904618
-0.001585683785378933
-0.0069825304672122
0.00017971765191759914
-0.04334856942296028
-0.043089501559734344
-0.04055703058838844
0.0026871918234974146
-0.027248675003647804
0.020479923114180565
0.02384297363460064
-0.03112441673874855
-0.021024836227297783
-0.02382781356573105
-0.009583799168467522
0.04957849532365799
0.01878986693918705
-0.018694043159484863
0.09164579212665558
0.010342290624976158
-0.041677314788103104
0.04133257269859314
-0.015650678426027298
-0.01629357412457466
-0.012363762594759464
-0.03434827923774719
0.01356422808021307
0.04648175090551376
-0.008583183400332928
-0.040607988834381104
0.003659655572846532
0.03261955454945564
0.0011871486203745008
-0.0002119241835316643
0.014147229492664337
-0.02897675149142742
-0.034847646951675415
-0.0464196652173996
-0.009715232066810131
-0.011405393481254578
-0.0381053127348423
-0.03167705982923508
0.005682745482772589
0.019845256581902504
-0.003419051179662347
0.09211068600416183
0.03251143917441368
-0.0517616905272007
0.04918341711163521
-0.04682594910264015
-0.034620486199855804
-0.018942469730973244
0.0386870875954628
0.021925639361143112
0.028346015140414238
0.0012732381001114845
0.011074108071625233
-0.012495795264840126
-0.0286105964332819
0.0166501235216856
-0.010685308836400509
0.012598954141139984
0.029259243980050087
0.02961268275976181
0.03959574177861214
0.013792608864605427
0.013580860570073128
-0.02579541876912117
-0.029220230877399445
0.013571562245488167
0.004891186486929655
-0.024934666231274605
0.08212856948375702
0.06213541328907013
-0.033291324973106384
0.023732462897896767
-0.07143065333366394
-0.06451956927776337
-0.014306268654763699
-0.031245077028870583
-0.04728098586201668
0.025151947513222694
-0.037677839398384094
-0.05747894570231438
0.004088146146386862
0.0008271811529994011
-0.015067243948578835
-0.006018347106873989
0.019390566274523735
0.018672818318009377
0.00417697336524725
-0.017818693071603775
0.02008107677102089
0.013835323043167591
-0.0004314187681302428
-0.010110435076057911
0.01909850537776947
0.019264940172433853
-0.0037734757643193007
0.01596147008240223
-0.04791798070073128
-0.07218171656131744
0.011915622279047966
0.052614256739616394
0.036990076303482056
0.03139307722449303
-0.006558509543538094
-0.07706042379140854
-0.05252879485487938
0.020481739193201065
-0.10347282886505127
-0.054845333099365234
0.06039625406265259
0.02355927787721157
0.10147222876548767
0.11473578214645386
0.05555182322859764
0.08207451552152634
0.03217433765530586
-0.001094840932637453
0.01334991306066513
-0.025488940998911858
0.012148534879088402
0.015864195302128792
0.05988490208983421
0.10309024155139923
0.05904814600944519
-0.02390936203300953
0.05394979193806648
0.02807825431227684
-0.014057205058634281
0.00486155366525054
-0.005773104261606932
-0.019299691542983055
0.012357640080153942
-0.035600695759058
-0.04398735612630844
0.01928042620420456
-0.020574361085891724
-0.019991299137473106
-0.0004997238866053522
0.03658495470881462
-0.04123259708285332
-0.034707147628068924
0.03874821215867996
0.04916011542081833
0.01385660469532013
0.06633901596069336
-0.006557246204465628
0.00033675937447696924
-0.0032200959976762533
-0.008649568073451519
-0.004372614435851574
-0.006364965811371803
-0.0037005520425736904
-0.0035627298057079315
-0.001713877310976386
6.557356391567737e-05
0.00010498190385987982
-0.0001304505130974576
6.52708113193512e-05
4.237451503286138e-05
-0.00014984719746280462
4.625600195140578e-05
3.9005510188871995e-05
-0.0001349161466350779
-0.011151681654155254
0.020706528797745705
0.00634800037369132
-0.01279258169233799
0.028853483498096466
0.0277426615357399
-0.011209342628717422
0.0230406541377306
0.03141406178474426
-0.016848983243107796
0.00815729983150959
-0.0069450330920517445
-0.021038025617599487
0.016549186781048775
-4.458538751350716e-05
-0.021876180544495583
0.020449688658118248
0.001977469539269805
-0.002148089464753866
0.00020077145018149167
-0.004578473977744579
-0.00643953587859869
0.006639729253947735
-0.006193938199430704
-0.004036292899399996
0.010053986683487892
-0.002940757665783167
-0.0035833274014294147
0.012071956880390644
0.004139306489378214
-0.002112738089635968
0.01849268190562725
0.00039018751704134047
-0.0008105008164420724
0.010695189237594604
0.0024369836319237947
-0.0020759289618581533
0.007989052683115005
-0.008759716525673866
-0.01105427835136652
-0.006185933016240597
0.004368953872472048
-0.004991008900105953
0.010601441375911236
0.0038248260971158743
-0.0007039193296805024
-0.004275331273674965
-0.0007017847383394837
0.0008175395778380334
-0.0030798192601650953
0.001030453946441412
0.005233669187873602
-0.00040931912371888757
0.004322717897593975
0.007078722584992647
0.013084053993225098
-0.002449518069624901
0.0006375242373906076
0.012448822148144245
-0.005673224106431007
-0.006077731028199196
0.009669897146522999
-0.00387610518373549
0.002722057281062007
0.002533034421503544
0.002942510647699237
-0.0012106195790693164
0.0008358874474652112
-0.002804332412779331
-0.0007324208272621036
-0.005560342688113451
0.0012457257835194468
0.016205649822950363
0.0013733573723584414
-0.00043036966235376894
0.0071764979511499405
-0.005001828074455261
-0.000318375532515347
0.0011667473008856177
-0.009430605918169022
-0.006780111230909824
0.0003366511664353311
0.0021429923363029957
0.015267998911440372
0.00573703134432435
0.007771635428071022
0.014235219918191433
0.010328448377549648
0.005192098207771778
0.011532293632626534
0.00014341759379021823
8.660122148285154e-06
-0.0002185127086704597
4.210884071653709e-05
-0.0002522784925531596
-0.0004651026101782918
0.00031035300344228745
0.00029666139744222164
5.1279799663461745e-05
-0.0018108637304976583
-0.00021820547408424318
-0.001380946021527052
-0.002378672594204545
0.00020617600239347667
8.314986189361662e-05
-0.0005923073622398078
0.001401405897922814
-0.0022140154615044594
0.003065536031499505
0.00650567514821887
0.004378463141620159
0.0010374787962064147
0.007188398391008377
0.003474453929811716
0.0005218368023633957
0.004973243921995163
0.00401998870074749
-0.004663059022277594
-0.01762181520462036
-0.0063642170280218124
0.0042280941270291805
-0.015555516816675663
-0.0039231376722455025
0.01573798432946205
-0.012365642003715038
-0.0010379431769251823
0.003954728599637747
0.013118766248226166
0.011796017177402973
0.0030734881293028593
0.011136000044643879
-0.0007830529357306659
-0.005279772449284792
0.012442207895219326
-0.0026741649489849806
-0.0005337076145224273
-0.0026750664692372084
-0.008377639576792717
0.0050800638273358345
0.0034773824736475945
-0.003759159008041024
0.0055754417553544044
0.007188715040683746
0.0006440845318138599
0.0009785539004951715
-0.005058029666543007
0.0013585311826318502
0.00047973496839404106
-0.005558266770094633
0.0011598955607041717
-0.0018001587595790625
-0.004254882223904133
0.0018403322901576757
0.002051228191703558
0.004321193788200617
0.014361836947500706
0.010466249659657478
-0.000197288827621378
0.011129344813525677
0.0037613529711961746
-0.0010481254430487752
0.017940912395715714
0.0006283734692260623
0.010738017037510872
-0.005617201328277588
-0.006470541935414076
-0.004933294374495745
-0.013186384923756123
-0.007480817846953869
-0.0032121187541633844
-0.007792731747031212
-0.015221327543258667
-0.003232964314520359
-0.0029134496580809355
-0.01830262504518032
0.005191723816096783
0.010582136921584606
-0.009107137098908424
0.003933838102966547
0.018678754568099976
0.0010961211519315839
0.01870628446340561
0.016178837046027184
-0.005459169391542673
0.009097316302359104
0.006877807900309563
-0.01173117384314537
0.006287114694714546
0.005165116861462593
-0.00476340064778924
0.019927727058529854
0.017156459391117096
-0.00417042151093483
0.0038595658261328936
0.0020542035344988108
-0.006278868764638901
0.0021816901862621307
0.008446382358670235
3.291432585683651e-05
6.545515498146415e-05
-3.8666526961605996e-05
-5.8298868680140004e-05
-0.00027847173623740673
-5.450197568279691e-05
-1.8607241145218723e-05
-0.0005261913756839931
-6.986389780649915e-05
0.007390244398266077
0.003958618268370628
0.00812856201082468
0.0013221984263509512
-0.01163443736732006
-0.016810692846775055
0.0029494462069123983
-0.011750775389373302
-0.011775344610214233
0.009797842241823673
0.003916161600500345
-0.0020221606828272343
0.00686183525249362
-0.010255611501634121
-0.009692772291600704
0.00948929414153099
-0.01101646013557911
0.004315114114433527
4.675321179092862e-05
4.088803689228371e-05
1.587183214724064e-05
3.987059972132556e-05
5.615857298835181e-05
1.25290662253974e-05
3.622743679443374e-05
6.003692396916449e-05
2.3009410142549314e-05
0.005808054469525814
0.013739909045398235
0.005100758280605078
0.006355626974254847
0.00791873224079609
0.012149687856435776
0.0028055310249328613
0.0013838254380971193
0.01754496805369854
-0.001998692052438855
-0.002483542775735259
-0.00016199564561247826
-0.0013455810258165002
-0.0022232376504689455
-0.0007180055836215615
0.002180140232667327
-0.004252245184034109
-0.011961294338107109
-0.0038798702880740166
-0.012059316039085388
-0.0010992323514074087
-0.0048031192272901535
-0.007981562055647373
-0.003641019808128476
-0.00963464193046093
-0.011359002441167831
-0.008584126830101013
-0.0030552640091627836
-0.0015201804926618934
-0.003928316757082939
-0.006386913359165192
-0.004801525268703699
-0.008059445768594742
-0.004255462903529406
-0.002371663460507989
-0.0062055569142103195
0.007014622446149588
0.0024165885988622904
0.01918066293001175
0.011904670856893063
-0.017396973446011543
0.022902172058820724
0.01023316290229559
-0.01630873791873455
0.021670712158083916
0.005346342455595732
-0.008161255158483982
0.001784941996447742
0.0060120876878499985
-0.0008815297042019665
0.0046083019115030766
0.00512678362429142
0.0014226249186322093
0.0028154714964330196
0.014169781468808651
0.0047453599981963634
-0.009050990454852581
0.006190700456500053
-0.0052716415375471115
-0.0031924673821777105
0.001633887062780559
-0.0013637590454891324
0.005834749899804592
-0.007976269349455833
0.011459777131676674
-0.0016557312337681651
-0.0021916634868830442
0.015256291255354881
-0.004018387757241726
-0.013275920413434505
0.013841425068676472
-0.003902046475559473
-0.012708461843430996
0.01857133023440838
0.0018058555433526635
-0.005426760762929916
0.016565052792429924
-0.003013119101524353
-0.01957690343260765
0.011994020082056522
-0.0021227539982646704
-0.0031623661052435637
-0.005325382109731436
-0.012907375581562519
-0.008000875823199749
-0.018878404051065445
-0.011107329279184341
-0.0018147502560168505
-0.00046833549276925623
-0.012583605945110321
-0.005122093949466944
-0.002764088334515691
-0.011995101347565651
-0.0005610202206298709
-0.00023045561101753265
-0.004298753570765257
-0.003097191685810685
-0.000715372443664819
0.009072194807231426
-0.005283875856548548
-0.0033411553595215082
-0.0019256871892139316
-0.013355099596083164
-0.009645783342421055
0.00446041626855731
0.0006197380134835839
0.01155878510326147
0.0098450081422925
-0.0050401524640619755
-0.007676962297409773
0.008807588368654251
-0.0012889290228486061
-0.006577967666089535
-0.0017233563121408224
0.006422093138098717
-0.0051573761738836765
0.0006563472561538219
-0.009587722830474377
0.009768209420144558
0.0017580586718395352
-0.007920071482658386
0.007678587455302477
-0.001175333745777607
-0.006856504827737808
0.00715278834104538
-0.004259142559021711
-0.007444088347256184
0.00554112670943141
-0.0004016730235889554
-0.018503114581108093
-0.0005888510495424271
-0.0019249437609687448
-0.009509360417723656
0.0039117648266255856
0.0006968526286073029
-0.002155248774215579
0.00023062439868226647
-0.0008259478490799665
8.326441457029432e-05
0.0011571845971047878
0.00013766545453108847
-0.000138239556690678
0.0006439541466534138
0.0004811818653251976
-0.003285071812570095
-0.0025965336244553328
-0.001961961854249239
-0.003409147961065173
-0.0012053530663251877
-0.014442801475524902
-0.004029157105833292
-0.007924451492726803
-0.010833648964762688
-0.0008680073660798371
-0.0027268838603049517
-0.005984862335026264
0.0021597128361463547
0.0033504969906061888
-0.004466820973902941
0.008306882344186306
0.0030296542681753635
0.0001170463947346434
0.0029256166890263557
-0.003926357254385948
-0.006638952996581793
-0.007527008652687073
-0.0036631468683481216
-0.014302234165370464
-0.011801338754594326
0.01493839081376791
-0.0018735722405835986
-0.00225370517000556
0.001795321935787797
-0.0013670873595401645
-0.0029479446820914745
-0.0028434654232114553
-0.002007835078984499
-0.004015706479549408
-0.0020031065214425325
0.000833382538985461
-0.008369608782231808
0.004549788776785135
-0.011328618042171001
0.004040094092488289
0.009166738018393517
-0.0026474734768271446
-0.00941607914865017
0.017719246447086334
0.0018267424311488867
-0.006766382604837418
0.0030094441026449203
-0.0035662916488945484
-0.008889235556125641
0.005141133908182383
0.003778512589633465
-0.0006199327763170004
0.008904275484383106
0.01646456867456436
0.0063986447639763355
0.010650422424077988
-0.013501683250069618
-0.009682358242571354
0.04028031602501869
-0.016918957233428955
-0.006506720557808876
0.045558150857686996
-0.00728173553943634
0.0029743441846221685
0.006052144803106785
0.001945345546118915
0.003656104439869523
-0.005076643079519272
-0.0005573960952460766
0.017154622822999954
0.00937784556299448
0.00467635365203023
-0.014654147438704967
0.008335866965353489
-0.007943461649119854
-0.012407105416059494
0.006267277989536524
-0.013982469215989113
-0.01902768202126026
0.0038614559452980757
-0.011194751597940922
-0.003107998054474592
0.01626664400100708
0.005816273856908083
-0.018908800557255745
0.0072801075875759125
0.0007012824062258005
-0.013042724691331387
0.00842519011348486
0.0004945744876749814
0.004265657626092434
0.007411185186356306
0.005078455898910761
-0.007129335775971413
-0.009859160520136356
0.005936348810791969
-0.008333755657076836
-0.01877516694366932
-0.0006562831695191562
-0.004804241470992565
0.0037715171929448843
-0.012027966789901257
-0.008302791975438595
0.0008397465571761131
-0.012727471068501472
-0.01451892964541912
-0.008790560998022556
-0.001326404744759202
-0.0010191032197326422
0.004298447165638208
0.00035833733272738755
0.006772214081138372
0.014103295281529427
0.009514376521110535
0.0015066192718222737
0.018633432686328888
0.01591823250055313
0.0011352766305208206
-0.003868556348606944
0.006284812930971384
0.0005146354669705033
-0.010048357769846916
-0.003048751736059785
0.0007670379127375782
-0.010564252734184265
-0.008113752119243145
0.0049950554966926575
-0.003167255548760295
-0.0168417077511549
0.015902657061815262
0.01684083789587021
-0.01751227304339409
0.006511555518954992
0.02305815927684307
-0.016804199665784836
-0.0015698142815381289
-0.0052589913830161095
-0.010659277439117432
0.005778099410235882
0.0007609411841258407
-0.004788524471223354
0.005036458373069763
0.002244550036266446
0.001482719206251204
-0.00040726724546402693
-0.00876915454864502
-0.005888178013265133
-0.009050659835338593
0.0015362424310296774
0.0027930361684411764
-0.011039878241717815
0.00758535647764802
-0.00039096749969758093
0.0031695121433585882
-0.004452296532690525
0.013919467106461525
0.00011849549628095701
-0.002368384972214699
0.0028190899174660444
-0.006467446684837341
-5.874520502402447e-05
-0.005448802839964628
0.006114460062235594
-0.006797037087380886
0.004551377147436142
0.009956485591828823
-0.009539101272821426
0.00458530243486166
0.004724335391074419
-0.001255094655789435
0.0019996510818600655
-0.003629490965977311
0.004109661094844341
0.005131520796567202
-0.002667281311005354
0.008016295731067657
-0.005255487281829119
0.0027828288730233908
-0.0022364025935530663
-0.0011041498510167003
-0.010313213802874088
-0.030328186228871346
-0.030703742057085037
-0.010649961419403553
-0.026071393862366676
-0.01409513596445322
-0.02522352896630764
-0.025583693757653236
-0.015626979991793633
0.00010053186997538432
0.0008294820436276495
0.0024257339537143707
-0.0009799679974094033
9.161392517853528e-05
0.0011242011096328497
-0.00023023765243124217
-0.00011715288565028459
0.0007621651166118681
-0.06424391269683838
-0.05621377378702164
0.046483200043439865
0.0023696529679000378
0.08122847229242325
-0.021985668689012527
0.010557908564805984
0.016028137877583504
-0.04925185441970825
-0.030176986008882523
0.07953717559576035
-0.04433821514248848
0.1450013667345047
0.035601817071437836
-0.05154241994023323
0.044798992574214935
-0.10337693244218826
0.012713806703686714
-0.02356259897351265
0.01948535442352295
-0.0425301119685173
0.01232000719755888
-0.019519591704010963
-0.016007566824555397
0.0015698469942435622
-0.014231018722057343
0.003012600354850292
-0.0007712922524660826
0.024859195575118065
0.015754353255033493
0.04235072061419487
0.017801053822040558
0.043146368116140366
0.026059620082378387
-0.0018030923092737794
-0.008032145909965038
-0.046594828367233276
0.052377983927726746
0.07844322174787521
-0.0226734708994627
0.14246757328510284
-0.06233629584312439
0.0038605681620538235
-0.049928776919841766
-0.057927049696445465
-0.03607568517327309
-0.02875239960849285
-0.007441547233611345
-0.025669600814580917
0.012864889577031136
0.03532185032963753
-0.01172719057649374
0.07887206971645355
-0.014193967916071415
-0.0024097368586808443
-0.01879790984094143
0.006418997887521982
-0.008389814756810665
0.01560562290251255
-0.009323816746473312
0.005188800394535065
-0.0011098042596131563
-0.0353693962097168
0.028573308140039444
-0.05931245908141136
-0.027954593300819397
0.04943166673183441
-0.029097743332386017
0.02313491515815258
0.01866525411605835
-0.016102584078907967
0.02440263144671917
0.0283157117664814
-0.03018321469426155
-0.04382769390940666
0.0025783164892345667
-0.0736839771270752
-0.027032099664211273
0.020170163363218307
-0.032887689769268036
0.02707456424832344
-0.028073914349079132
0.006093959789723158
0.02661684714257717
-0.020349957048892975
-0.057334333658218384
-0.020545432344079018
0.01880720630288124
-0.06470933556556702
-0.04096217080950737
-0.0007022452191449702
-0.0006965735810808837
-6.948726513655856e-05
0.00044918624917045236
-0.0005962346331216395
-0.0004403929051477462
0.0013394113630056381
-9.837033576332033e-05
0.0007350449450314045
-0.005292112939059734
0.005496618337929249
-0.0038181503769010305
0.016792057082057
0.03001197800040245
0.0010999571532011032
0.010536665096879005
0.013539601117372513
-0.012046183459460735
0.004367549903690815
0.0006734418566338718
0.004972327500581741
-0.0036622940097004175
-0.0010150419548153877
0.0034555806778371334
-0.007700128480792046
-0.004201800096780062
0.0018061104929074645
0.05998532474040985
-0.17191238701343536
0.04988653585314751
-0.058573510497808456
-0.014935118146240711
0.1048252210021019
-0.06820976734161377
0.12652091681957245
-0.10216764360666275
0.0009215957252308726
-0.06393442302942276
-0.03955904766917229
0.005262916907668114
-0.06844779849052429
0.01023063249886036
-0.012752312235534191
0.012222904711961746
0.056156788021326065
0.06218836084008217
-0.0033861971460282803
-0.06842412799596786
0.05752667784690857
-0.06722293049097061
-0.031431421637535095
0.03986566513776779
-0.06061024218797684
2.6032319510704838e-05
0.0032457741908729076
-0.0058791921474039555
-0.00018552957044448704
0.01194954477250576
-0.03358100354671478
0.04016823321580887
0.008804278448224068
0.020642947405576706
0.04643838480114937
0.002983059734106064
-0.05647377297282219
0.0010928463889285922
-0.025692449882626534
-0.026512272655963898
-0.04533514752984047
0.012924537062644958
0.007332645822316408
-0.06404206156730652
0.015427271835505962
0.009885488077998161
0.008937912993133068
-0.02123299241065979
-0.013493946753442287
0.00311649008654058
-0.025338031351566315
-0.010465097613632679
0.029299167916178703
-0.01238172221928835
0.016202546656131744
-0.006076584570109844
-0.0001753621327225119
-0.06227905675768852
-0.04747265949845314
-0.02602786011993885
0.001036398927681148
0.028687389567494392
0.010302766226232052
-0.019083216786384583
-0.0874120220541954
-0.020666886121034622
-0.07124608755111694
-0.052580516785383224
0.012890329584479332
-0.011277836747467518
0.02491678297519684
-0.007778098341077566
0.003991657868027687
-0.009002932347357273
-0.042841844260692596
0.010650835931301117
0.002490753773599863
-0.052839357405900955
0.02579057589173317
0.01971602253615856
6.435144314309582e-05
0.000486809469293803
0.00035686581395566463
-0.0006859392742626369
0.00037483940832316875
0.0001056527325999923
-0.0007234592922031879
6.460057920776308e-05
-2.1147758161532693e-05
-0.029978647828102112
-0.04605653136968613
-0.004764893092215061
0.007305712439119816
0.007161121815443039
0.004406613297760487
0.02223517745733261
-0.013994840905070305
-0.036588605493307114
-0.006434890907257795
-0.03477346524596214
-0.017565276473760605
-0.006238318979740143
0.1041368693113327
-0.046216633170843124
0.0070627001114189625
0.038072533905506134
-0.16544224321842194
0.0001996063656406477
0.0002836588828358799
0.000670009758323431
-7.30709289200604e-05
0.00023460776719730347
0.00043428418575786054
0.0002897674567066133
-0.00016480180784128606
0.00020703663176391274
-0.0026003762613981962
-0.013354976661503315
0.03270784765481949
-0.004841390531510115
0.0797804519534111
0.05255633965134621
-0.000675338669680059
-0.00912204384803772
-0.031302038580179214
0.002367725595831871
-0.01377441082149744
-0.10245916992425919
-0.06217489019036293
0.05771540105342865
-0.06802807748317719
-0.029851743951439857
0.06338182091712952
-0.025195162743330002
-0.012191645801067352
-0.021380692720413208
0.014510522596538067
-0.08729172497987747
-0.06853615492582321
0.0430847704410553
-0.048351746052503586
-0.0016372875543311238
0.03650421276688576
0.00011887723667314276
-0.018290670588612556
-0.0067864079028368
-0.004424212500452995
-0.015243484638631344
-0.006113196723163128
-0.005068608094006777
-0.00940337311476469
-0.007453209720551968
0.009260225109755993
-0.02839607745409012
-0.009706561453640461
-0.012179912067949772
-0.019807063043117523
-0.06309302896261215
0.0015387429157271981
0.018715163692831993
0.05263756960630417
0.0006366461748257279
0.0006835053791292012
0.0010516683105379343
-0.0002365540130995214
0.0008844315307214856
0.0005900543183088303
0.00012248427083250135
0.00029868545243516564
7.08237785147503e-05
-0.01661848835647106
-0.014737114310264587
0.014189272187650204
-0.05030636116862297
0.06343869864940643
-0.008548052050173283
-0.010640476830303669
0.048508528620004654
-0.023890653625130653
-0.016715798527002335
0.05775433033704758
-0.05745137855410576
0.047721948474645615
-0.02615872398018837
-0.05710289254784584
-0.012600084766745567
-0.06114399433135986
0.010861941613256931
0.013730592094361782
-0.06108975037932396
-0.022936247289180756
-0.0017631531227380037
-0.0457405261695385
-0.08196207135915756
-0.012601187452673912
-0.03190155327320099
-0.07371912151575089
-0.015278213657438755
0.01056036725640297
-0.03285105898976326
-0.013831598684191704
0.04076354205608368
-0.018892042338848114
0.014792161993682384
0.025486284866929054
-0.056113407015800476
0.042761027812957764
-0.010166485793888569
0.0498204343020916
0.02386351116001606
0.022613128647208214
-0.015657871961593628
0.06540225446224213
0.035744596272706985
-0.08124829828739166
0.03020859695971012
0.029029129073023796
-0.0311282966285944
0.01727175898849964
-0.0012935405829921365
0.05366544798016548
-0.003075324697420001
-0.013245142064988613
0.010123519226908684
0.0021248364355415106
0.0033521910663694143
0.019260980188846588
-0.02748383954167366
-0.0611681304872036
0.036959465593099594
-0.03908936679363251
0.06779047846794128
-0.020728157833218575
0.027215618640184402
-0.07580868899822235
-0.004992024973034859
-0.023883676156401634
-0.0015062186866998672
0.0010984411928802729
0.001993154175579548
0.015240637585520744
-0.01631530374288559
0.02571319416165352
-0.013356314040720463
-0.05598694831132889
0.0083944546058774
-0.10754090547561646
-0.022833237424492836
-0.07472256571054459
-0.10443863272666931
0.041164200752973557
-5.780637366115116e-06
0.00015796144725754857
0.000260207278188318
-6.462338933488354e-05
4.3595417082542554e-05
0.00013609773304779083
7.142820322769694e-06
2.2100724891060963e-05
0.0001548325235489756
-0.030378280207514763
-0.033304739743471146
0.014959319494664669
0.02345789596438408
-0.031841255724430084
0.009993455372750759
0.01394515298306942
0.05546174198389053
0.008730355650186539
0.014755260199308395
0.07019577920436859
0.0008591086370870471
0.01750454492866993
0.01819046586751938
-0.040768399834632874
-0.00893742311745882
-0.010663658380508423
-0.009742082096636295
-0.06262678653001785
0.00794332753866911
0.009234592318534851
-0.03532475233078003
0.02651854418218136
-0.010995984077453613
-0.0214687492698431
0.020859289914369583
-0.02727813832461834
0.00016227856394834816
0.0002129771455656737
0.00035806611413136125
1.838391472119838e-05
4.382534825708717e-05
0.00019068206893280149
9.090280218515545e-05
0.00010029385157395154
0.00011229477968299761
-0.052085477858781815
0.016689565032720566
0.03337446600198746
0.011142473667860031
0.16405318677425385
-0.08892862498760223
0.09488382935523987
-0.1041000485420227
0.006976524833589792
0.05820612981915474
0.04217604920268059
-0.01885978691279888
-0.008251253515481949
-0.017664622515439987
-0.04048934578895569
-0.05620909854769707
-0.06366899609565735
-0.04759855568408966
-0.01867840625345707
0.11843013018369675
0.010295942425727844
0.08719611167907715
0.010399812832474709
0.00025138334603980184
0.008629848249256611
-0.08302417397499084
0.012643854133784771
0.02467786706984043
-0.015663105994462967
0.009614547714591026
0.009030255489051342
-0.014644193463027477
0.004785845521837473
0.04343791306018829
-0.021562060341238976
-0.08040221035480499
-0.04595078527927399
0.04245448857545853
0.021155958995223045
-0.0209386944770813
0.11175254732370377
0.00564253143966198
0.0448128841817379
-0.008735941722989082
-0.02204156666994095
0.0011255416320636868
-0.07306824624538422
0.07331392168998718
-0.02391161397099495
0.03084237314760685
0.004329973831772804
-0.04994655027985573
0.10856351256370544
-0.07076384872198105
0.012231284752488136
-0.05644024908542633
0.010831245221197605
-0.03151699900627136
-0.05890714377164841
-0.04288729280233383
-0.007474493235349655
-0.029147062450647354
-0.04898614436388016
-0.06068577244877815
-0.06869776546955109
0.027190737426280975
-0.06177447736263275
0.06476520001888275
-0.07557729631662369
0.001207367517054081
-0.010588400065898895
-0.06412427872419357
0.02790648862719536
-0.012993836775422096
0.013771610334515572
0.030723027884960175
0.0015237927436828613
0.020154649391770363
-0.004078583791851997
-0.008309364318847656
0.059363823384046555
-0.057197388261556625
-0.027894750237464905
-0.023167870938777924
-0.039498910307884216
0.04790369048714638
0.005744721740484238
-0.0674157589673996
0.012863648124039173
-0.02294996567070484
-0.03368891030550003
0.09119235724210739
-0.07387933880090714
0.025651030242443085
-0.044294167309999466
0.026087090373039246
-0.0021475343964993954
-0.07037699222564697
0.08339367806911469
-0.0032135704532265663
0.020550619810819626
0.013999586924910545
0.06387871503829956
0.014567573554813862
-0.022502070292830467
0.04350586235523224
-0.07804547250270844
0.11739572137594223
-0.05533108487725258
0.1398880034685135
-0.11307451874017715
0.02507943846285343
-0.037058025598526
-0.04511813074350357
0.021382303908467293
-0.10112453997135162
0.03396143019199371
-0.01469341292977333
-0.03246580436825752
0.00790059007704258
0.01622113771736622
0.042456090450286865
0.11500021070241928
-0.013565034605562687
0.023142855614423752
-0.03242739289999008
0.05911370739340782
-0.030789198353886604
0.028335100039839745
0.006863260641694069
-0.039773765951395035
0.030274035409092903
0.03743811696767807
0.06432189047336578
0.0480419397354126
-0.020751874893903732
-0.10892152041196823
0.12128249555826187
-0.07656394690275192
0.03924550861120224
0.03513212502002716
-0.07780387997627258
0.14348433911800385
-0.07412269711494446
-0.0019382351310923696
0.007132506463676691
-0.0019898649770766497
0.00013656324881594628
-0.005508666858077049
0.0032616769894957542
-0.0022531168069690466
-0.007599824573844671
0.004010272212326527
0.0030298614874482155
0.002332827774807811
-0.002128082327544689
0.0014183770399540663
0.0014372153673321009
0.0010990084847435355
0.004926469177007675
0.004371070768684149
-0.0016121306689456105
0.000675917137414217
0.0004411265254020691
0.00040246747084893286
-0.0008266227669082582
-0.003834538394585252
-0.004502474796026945
-0.00518546300008893
-0.000786901218816638
-0.0038173848297446966
-0.00406544329598546
-0.0015894233947619796
-0.002159474417567253
-0.00024766731075942516
0.0007287070620805025
-0.0008970920462161303
-0.001970144920051098
0.0020051668398082256
0.0001636864326428622
0.004584172740578651
-0.004108864348381758
-8.609583892393857e-05
-3.362107963766903e-05
-0.0013162946561351418
0.0009091097163036466
0.0023274444974958897
0.001256538787856698
-0.00011679501767503098
0.00033546696067787707
-0.0011473782360553741
-0.0010332169476896524
-0.00019508405239321291
0.0016739430138841271
0.0010219443356618285
-0.00296751968562603
0.004741037264466286
0.0034139424096792936
-0.0026813491713255644
0.0013436812441796064
0.0011567058973014355
0.0004644402943085879
0.0006447397172451019
0.0007091443985700607
0.0004973929608240724
0.0003664716787170619
0.001470266724936664
0.0021866806782782078
0.0024542624596506357
-0.006114802323281765
-0.0025800014846026897
0.001214913441799581
-0.007799301762133837
-0.0032852881122380495
0.003353375941514969
-0.0036585479974746704
-0.004875154700130224
0.0020404511597007513
-0.0015306296991184354
0.0009211978758685291
0.0025294222868978977
-0.0012898807181045413
9.670393410488032e-06
0.0012830207124352455
-0.002130226930603385
-0.0013332583475857973
0.0014606713084504008
0.0006043959874659777
0.000320753752021119
0.00036114297108724713
0.0005081124836578965
0.0006568097742274404
0.0004225003649480641
0.0006249244324862957
0.0011244307970628142
0.001394835184328258
-9.882269660010934e-05
0.00044408507528714836
0.000640197133179754
0.0007093051099218428
-0.003533488605171442
-0.001932170707732439
0.0008482391713187099
-0.001492852345108986
-0.0009710671729408205
-0.00025037984596565366
-0.0017830986762419343
-0.0018017877591773868
0.0015072607202455401
0.0011426529381424189
-0.00014550976629834622
-0.0002033958153333515
-5.106564458401408e-06
0.0016838471638038754
-0.0030724587850272655
0.0002241844340460375
0.005208260845392942
-0.0052122194319963455
-0.008068766444921494
-0.0005693245911970735
-0.0016935670282691717
-0.0007806534413248301
-0.00048722897190600634
0.0001373363920720294
-0.0010407420340925455
0.002112546470016241
-0.0012945394264534116
-0.005114903207868338
0.0023912619799375534
0.0006900198059156537
0.002213949104771018
0.003462835680693388
0.0018258353229612112
0.001949637895449996
-0.0001378505548927933
-0.0013325614854693413
-0.002957466524094343
0.005713289603590965
0.0024633982684463263
-0.002693322254344821
0.004269876051694155
0.004611703101545572
0.0008725585648790002
0.006627288646996021
0.00029662399902008474
-0.006094965618103743
0.0021828508470207453
0.00023617249098606408
-0.004328293260186911
0.0017275537829846144
-0.0034324894659221172
-0.0035081664100289345
-0.0046368069015443325
0.0008196265553124249
0.0020750530529767275
0.002408852567896247
-0.0017579799750819802
0.007665522862225771
0.004829344805330038
0.010219504125416279
0.009407343342900276
0.005792162846773863
0.006172181107103825
0.0010673102224245667
-0.0004985439009033144
-0.0032497835345566273
-0.015272197313606739
-0.017730293795466423
-0.00013834211858920753
0.0005979835987091064
0.0007718094275332987
0.0003823914739768952
0.0006629894487559795
0.0007549399160780013
7.276512042153627e-05
-2.118019801855553e-05
0.0007270195055752993
-0.002613537944853306
-0.0030408522579818964
-0.0028027105145156384
0.0021534229163080454
-0.00032135238870978355
-0.007542312610894442
0.0010131531162187457
0.001443569897674024
0.00638597784563899
-0.0016079765046015382
-0.004705068189650774
-0.002011032309383154
-0.00330850831232965
0.00047969765728339553
0.0017359217163175344
-0.0014577396214008331
-0.004603924695402384
0.0018468585330992937
-0.0008478520903736353
0.0005048734601587057
0.0025991450529545546
-0.001597907510586083
-0.00022915896261110902
0.002737394068390131
-0.002719961805269122
-0.002150604734197259
0.0002169684594264254
-0.00018710496078711003
-0.00020997326646465808
0.000560190761461854
0.00025197688955813646
-0.004665468819439411
-0.00015666955732740462
-7.552941679023206e-05
-0.003163250396028161
0.0010052431607618928
-0.0006505761994048953
0.003214852185919881
0.004760835785418749
-0.005063644144684076
-0.009503808803856373
0.004528783727437258
-0.0026357369497418404
-0.0058236620388925076
0.0021806738805025816
-0.003994430415332317
0.0026780401822179556
-0.0026406419929116964
0.0009092747932299972
0.001846935716457665
-0.0002646182256285101
0.0009787604212760925
0.002513099228963256
-0.002149132313206792
-0.0010210586478933692
0.0007647299789823592
0.00013674980436917394
-0.0005133134545758367
0.0006995887961238623
0.0016253922367468476
-0.0008050375618040562
-0.0025582790840417147
0.0013699057744815946
-0.0013117925263941288
-0.0012288553407415748
0.0033326975535601377
-0.013181481510400772
-0.009656070731580257
0.004699889104813337
-0.008476575836539268
-0.005556273739784956
0.007227896712720394
0.0011253878474235535
0.001059607369825244
0.002868847455829382
0.0018157121958211064
-0.007355762645602226
0.003438967512920499
0.0015623457729816437
-0.0022453065030276775
-0.0006287670694291592
-0.00026852049631997943
-0.0013186787255108356
0.0030947276391088963
-0.0010426355293020606
-0.0022941718343645334
0.001818524906411767
0.0016887652454897761
0.0004124259576201439
0.0022965252865105867
-0.003918359521776438
-0.0031374830286949873
-0.0018465921748429537
-0.0022035676520317793
0.00020111688354518265
0.0030848339665681124
-0.0009617042378522456
0.0029871738515794277
0.005270440597087145
-0.004162519704550505
1.3413846318144351e-05
0.0020225164480507374
-0.0024637854658067226
0.004641244187951088
-0.0005812449380755424
0.0011273440904915333
0.004210967570543289
0.006516436580568552
-0.0006363484426401556
-0.0030216965824365616
-0.0008636786369606853
-0.005125746130943298
-0.007657582871615887
-0.0007577633368782699
-3.860305696434807e-06
-0.0015835176454856992
-0.0023147917818278074
-0.004722323268651962
-0.0055594127625226974
-0.0032152344938367605
-9.732426406117156e-05
0.01116318441927433
-0.00042188717634417117
-0.004678470082581043
0.014265513978898525
0.002308204071596265
-0.0026142685674130917
0.0044699776917696
-0.0011761912610381842
0.00017946989100892097
0.007183339912444353
-0.0008015251951292157
-0.0006814514053985476
0.00901478435844183
0.0016377207357436419
-0.0008199193398468196
0.00023036754282657057
0.0018176629673689604
0.001739413128234446
-0.0028014625422656536
0.002933970419690013
-0.0006702549871988595
-0.001691264915280044
0.002884543500840664
-0.002110244007781148
0.0027390331961214542
0.00018747533613350242
0.006691409274935722
0.0032245919574052095
-0.009042621590197086
0.0017303115455433726
0.0029834124725311995
-0.007112613879144192
0.0005781899089924991
-4.185749276075512e-05
0.0011977058602496982
0.0016394098056480289
-0.0008705863729119301
-0.0012113564880564809
0.00013184253475628793
-2.9447173801600002e-05
-0.001624501310288906
-0.007111142855137587
-0.0018045640317723155
-0.003960785921663046
-0.0032428083941340446
-0.0021447711624205112
-0.005996808409690857
-0.0012088220100849867
0.004563724156469107
0.0006079936283640563
-0.00020130423945374787
-0.0001550225424580276
0.00023728740052320063
-0.0013522086665034294
-0.00022884216741658747
0.00045203109038993716
9.84301877906546e-05
0.000634172756690532
0.0004586614959407598
0.0002881110121961683
-0.003497540019452572
0.003000925062224269
0.00011306043597869575
-0.0032968660816550255
-0.000698222138453275
-0.0005611767410300672
0.0004426408850122243
0.004247772973030806
-0.0009312172187492251
-9.836869867285714e-05
0.0006791468476876616
-0.0009985428769141436
0.0004748069623019546
0.0008687134250067174
-0.001173298922367394
-0.0002964609011542052
0.0009843164589256048
-0.0002378744975430891
0.00026368614635430276
0.0005658558220602572
-0.0010066883405670524
2.452092303428799e-05
0.0003426535695325583
0.00011564605665626004
0.0004240409762132913
0.00069428700953722
0.00021070717775728554
-0.00361766223795712
-0.0011264143977314234
-0.0009752719197422266
-0.004816895816475153
-0.001189078320749104
0.0014045612188056111
-0.0006519534508697689
-0.0022625690326094627
-3.273976835771464e-05
-0.0004719221033155918
0.0014504361897706985
-0.0011217889841645956
-0.0006171553977765143
-0.00030323403188958764
0.00016526268154848367
0.001434487639926374
-0.0015539620071649551
0.0009700246737338603
-0.00260370341129601
0.002391733229160309
-0.003240040037781
-0.006165612954646349
0.0021368595771491528
0.0025784256868064404
-0.0016855512512847781
0.003609259380027652
-6.089254020480439e-05
-8.621373126516119e-05
-0.002018135506659746
-0.00023684999905526638
0.00515405461192131
-0.0012923273025080562
-0.000493324943818152
0.0030230563133955
5.381238224799745e-05
-0.00025961786741390824
-0.004697791300714016
-0.005211361683905125
-0.007584964390844107
0.001227605971507728
0.009042427875101566
-0.0013927973341196775
0.004760303068906069
0.003128500422462821
-0.004873489961028099
-0.0061300755478441715
-0.002899237908422947
-0.004863081034272909
-0.0037244774866849184
-0.0005578632117249072
-0.0006619079504162073
-0.003085856791585684
-2.5295730665675364e-05
-0.00021002889843657613
2.6306761355954222e-05
-0.0004349246446508914
0.0012733044568449259
-0.0017187828198075294
0.002137933624908328
-0.0003009214415214956
0.0006152360583655536
-0.0032897843047976494
-0.0022863170597702265
-0.0015718628419563174
0.0003378816181793809
0.003874759189784527
-0.0011672070249915123
-0.003808908397331834
0.000623346830252558
0.006214848253875971
-0.003553895279765129
0.00016736358520574868
-0.0006203780067153275
1.4538406503561419e-05
0.0006094007403589785
0.00024413624487351626
-0.0005775413010269403
-0.00028159056091681123
-0.00048816364142112434
3.194558303221129e-05
-0.0004787741636391729
-0.0008839381625875831
-0.0020053957123309374
0.00046948817907832563
-0.003503932384774089
0.00816043745726347
0.0017047307919710875
-0.004585547372698784
0.0017270089592784643
0.00188319047447294
-0.0005568562191911042
0.0020898133516311646
8.891376637620851e-05
-0.002735594054684043
-0.0001856886374298483
0.0005733611760661006
-0.005595153663307428
0.003772277384996414
-1.829262328101322e-05
0.0008038184023462236
0.0012024396564811468
-0.0007807991351000965
-0.0003884491743519902
0.0004225106386002153
-0.0024316355120390654
0.0023187308106571436
0.0022365932818502188
-0.0016777905402705073
-0.003171283518895507
-0.002480301773175597
-0.0017945881700143218
-0.007707647047936916
-0.002573674311861396
-0.001459436840377748
-0.003210995113477111
0.0002502203278709203
0.0006878753774799407
-0.0018065649783238769
0.00035295175621286035
0.0011838811915367842
-0.006999213248491287
-0.0018723481334745884
-0.0022407544311136007
-0.005249455105513334
0.0025801784358918667
-0.0021253034938126802
0.004285536706447601
-0.002015424659475684
0.007142726797610521
-0.012324385344982147
0.0063256314024329185
0.0009170385310426354
0.004737769719213247
-0.004989915527403355
0.003143158508464694
0.0013851742260158062
0.0007943432428874075
6.303060217760503e-05
0.002073487965390086
0.0003424725728109479
-0.0001496282930020243
0.0007773312972858548
0.0008530492777936161
-0.0006120052421465516
-0.002600281033664942
0.0007796318386681378
-0.00011527798778843135
-0.0037637047935277224
0.005395560059696436
0.0021666253451257944
-0.002586762420833111
0.0011613982496783137
-0.002717203926295042
-0.0037206693086773157
-0.004738830961287022
-0.0015887527260929346
0.005278707481920719
-0.008204370737075806
0.0016633394407108426
0.0033806979190558195
0.002384134801104665
0.0005281008780002594
-0.005229700822383165
-0.0035957416985183954
-0.0009786890586838126
-0.00402520876377821
-0.0022946831304579973
-0.001976680476218462
-9.612035501049832e-05
0.005787817295640707
-0.002353210933506489
0.001035159919410944
0.0024475385434925556
-0.0010669584153220057
0.0024235036689788103
0.000896442448720336
0.0004354783450253308
-0.003973519429564476
0.0034081873018294573
-0.00038575741928070784
-0.0003342988493386656
-0.0002526788739487529
-0.00030897153192199767
-0.0003510748501867056
-0.00043769643525592983
-0.0004993993788957596
-0.00026559914113022387
-0.00015825385344214737
-0.0002937705721706152
0.0007868513930588961
0.00012589174730237573
-0.00043729128083214164
0.0005252076662145555
-8.917814557207748e-05
-0.0006134540890343487
0.012217513285577297
0.004663781262934208
0.00575399911031127
-0.01545199565589428
-0.026519838720560074
-0.0008919721003621817
0.002276571001857519
-0.024796977639198303
-0.016430741176009178
-0.001187370391562581
0.000692768779117614
0.0010975003242492676
-0.0020246596541255713
-0.00016554046305827796
0.00034744219738058746
-0.0018959060544148088
-0.0004201518895570189
-0.00013512684381566942
-0.013872125186026096
-0.028376149013638496
0.014638236723840237
-0.007144150789827108
-0.04286619648337364
-0.009722652845084667
0.0066363089717924595
-0.01909092254936695
-0.019140420481562614
0.06715552508831024
0.10399866104125977
-0.026525510475039482
0.03689642995595932
0.06489335000514984
0.1116812601685524
-0.04735729470849037
-0.02231440134346485
0.048168547451496124
0.017686691135168076
0.01598358154296875
-0.019039176404476166
0.019266406074166298
0.02728111669421196
0.0086745610460639
0.0008968150359578431
-0.004615951795130968
0.04161134362220764
-0.008994058705866337
0.003492826595902443
-0.04626312479376793
0.023094158619642258
0.020581800490617752
-0.023796429857611656
0.006308123003691435
0.020591435953974724
0.02752741053700447
-0.03457029163837433
0.024139774963259697
0.07614917308092117
0.005542398896068335
-0.028084468096494675
0.08185878396034241
0.005621013697236776
-0.03528813272714615
0.020485498011112213
0.029607649892568588
0.017878059297800064
-0.041969045996665955
0.04923676699399948
0.044790174812078476
-0.017860936000943184
0.0198644008487463
0.01582464389503002
-0.0328202061355114
-0.009335217997431755
0.0003894818655680865
0.019113855436444283
0.0027657640166580677
-0.008148295804858208
0.004465742502361536
-0.014077216386795044
0.0010084300301969051
-0.008369584567844868
-0.02818155847489834
0.02273317612707615
-0.08885333687067032
0.014537850394845009
0.005907701328396797
-0.016301419585943222
0.06942065060138702
0.0110230203717947
0.011576466262340546
-0.06830716133117676
-0.02210838533937931
-0.0032772941049188375
-0.039950210601091385
-0.005032554734498262
-0.00176263100001961
-0.011163373477756977
0.005755233112722635
0.03098071925342083
-0.07263711839914322
-0.058726053684949875
-0.0030854197684675455
-0.06306317448616028
-0.065679170191288
-0.04482067748904228
0.03423534706234932
0.00885202456265688
0.01748206838965416
-0.0006771000917069614
-1.7619517166167498e-05
0.0008608648204244673
-0.0006470850203186274
-0.0001372371771140024
0.0012408056063577533
0.0007584367413073778
0.00038849865086376667
0.0009390588966198266
0.017077689990401268
0.014892318286001682
0.0014396063052117825
0.029538288712501526
0.02344975434243679
-0.00239762500859797
0.015737399458885193
0.011503205634653568
-0.0071173133328557014
0.008507998660206795
-0.0026145519223064184
0.016855213791131973
0.007799872662872076
0.005680729169398546
0.016315417364239693
0.004899995867162943
0.008164750412106514
0.013568496331572533
0.003021867945790291
-0.07205309718847275
-0.06370680779218674
0.03269338607788086
0.0004308768839109689
-0.09188994020223618
-0.0006689029978588223
-0.008074154146015644
-0.05786309018731117
0.027348266914486885
-0.012116018682718277
-0.08406732231378555
0.06799060106277466
0.02094530314207077
-0.07059556990861893
0.07221808284521103
0.04166669771075249
-0.0640982836484909
0.03328379988670349
0.013615530915558338
-0.08278919756412506
0.014638172462582588
0.04457033425569534
-0.05436202138662338
-0.006213115993887186
0.04352806136012077
-0.021792249754071236
0.018590744584798813
0.019014764577150345
0.013971037231385708
0.0014284527860581875
-0.003321930766105652
-0.00210834969766438
-0.0007613897905685008
-0.0127369724214077
-0.0020557220559567213
-0.057077810168266296
-0.12097631394863129
0.016546407714486122
-0.01152019016444683
-0.08168474584817886
0.005616148002445698
0.033908624202013016
-0.026128916069865227
-0.014792060479521751
0.014617483131587505
-0.007359720300883055
0.012750373221933842
-0.006457862444221973
0.014524940401315689
0.04582276567816734
0.024512790143489838
-0.0044465260580182076
0.023306217044591904
-0.02074437588453293
0.03568080812692642
-0.025088613852858543
-0.1250452697277069
-0.008774622343480587
0.1022811010479927
-0.06523051857948303
-0.017483290284872055
0.08210378140211105
-0.0023304219357669353
-0.009671086445450783
0.04267305135726929
-0.067924365401268
-0.04204537346959114
0.0474950410425663
-0.03893144801259041
-0.004870773293077946
-0.0010825676145032048
0.07561337947845459
0.058942534029483795
-0.0029147618915885687
0.02141799032688141
-0.00969642773270607
-0.02123383618891239
-0.019298432394862175
-0.0021715927869081497
-0.00633133202791214
9.496769052930176e-06
0.0007172181503847241
7.340667798416689e-05
-9.135856089415029e-05
0.0006767366430722177
0.0004608057497534901
-0.00030565084307454526
-0.00021043707965873182
0.0006404630257748067
-0.008049851283431053
-0.021858572959899902
-0.011409210041165352
0.04172288253903389
-0.014981625601649284
-0.03605091571807861
0.025626100599765778
0.024919496849179268
-0.0356910265982151
0.022396670654416084
0.015706107020378113
-0.039139702916145325
0.01701628416776657
0.002829622710123658
-0.003395793028175831
0.03030654974281788
0.0035751149989664555
-0.04198954999446869
-0.00018250630819238722
0.00013117218622937799
0.0002116728574037552
-0.0002679147000890225
-1.703708039713092e-05
5.118472836329602e-05
-0.00020866919658146799
-2.7189371394342743e-05
0.00011438026558607817
-0.006422723643481731
-0.016752323135733604
-0.05760125815868378
-0.005117810331285
-0.018976695835590363
-0.073409803211689
-0.026985423639416695
-0.036366548389196396
-0.03272194042801857
0.03215425834059715
0.018498463556170464
0.038352616131305695
0.0501600056886673
0.007123117800801992
-0.03658517077565193
0.028303777799010277
0.02303490974009037
0.025951294228434563
-0.06462109833955765
-0.04822278395295143
-0.05893263220787048
-0.05237956717610359
-0.03591214865446091
-0.06046038866043091
-0.0073400153778493404
-0.0374140627682209
-0.020823543891310692
-0.014073383994400501
-0.005737434606999159
-0.007838666439056396
-0.022212475538253784
-0.017664488404989243
-0.014721574261784554
0.008346973918378353
-0.018918387591838837
-0.010920134373009205
-0.033297061920166016
0.008583465591073036
0.0438605472445488
-0.07014689594507217
-0.06802352517843246
0.07986689358949661
-0.02483578957617283
-0.04528217390179634
0.04481002315878868
-0.007524479646235704
0.003976059146225452
0.002771978732198477
0.0007650217739865184
-0.00036600310704670846
-0.0017912730108946562
-0.0010565342381596565
-0.00015299866208806634
0.0002718976465985179
0.02384292520582676
0.008488203398883343
-0.0739564523100853
0.04710828512907028
-0.005523281171917915
-0.03670120611786842
0.056316375732421875
0.03030828945338726
-0.008389531634747982
0.04421436786651611
-0.029962852597236633
-0.0361744686961174
0.02177118882536888
-0.044188667088747025
-0.037222132086753845
-0.021733777597546577
-0.017419012263417244
-0.033532723784446716
0.026054220274090767
-0.007379493676126003
0.010574059560894966
0.011575387790799141
0.013674902729690075
-0.011932816356420517
0.01209639199078083
-0.03980640694499016
-0.014794942922890186
-0.0029224292375147343
-0.05439280346035957
0.06914039701223373
-0.05443815514445305
-0.094337098300457
-0.027708066627383232
-0.07076288759708405
-0.07346352934837341
-0.026162579655647278
-0.03762742131948471
-0.010561398230493069
0.020651066675782204
-0.014278937131166458
-0.010768922045826912
-0.0009231302537955344
-0.02852988988161087
0.006502795033156872
-0.007115435786545277
0.04607456177473068
-0.049743957817554474
-0.0984099805355072
0.03941679373383522
-0.017560765147209167
-0.09336595982313156
0.007126626092940569
-0.029301723465323448
-0.057312577962875366
0.00885047111660242
0.04561331495642662
0.029047789052128792
-0.04119762405753136
-0.008869151584804058
0.06158893182873726
-0.08572984486818314
-0.015558429062366486
0.024191100150346756
0.009839450940489769
0.1205080971121788
0.11332617700099945
-0.062005605548620224
0.09815624356269836
0.1739954948425293
-0.07137875258922577
0.0198555588722229
0.09802263975143433
-0.06599747389554977
-0.05679484084248543
-0.01414919551461935
-0.07837655395269394
-0.061438266187906265
0.011299666948616505
-0.03283505514264107
-0.0022217154037207365
0.039108339697122574
0.00031134524033404887
0.0030396291986107826
-0.003108580131083727
-0.00029226907645352185
-0.0016260013217106462
0.0003453387471381575
-0.0006495731067843735
0.002095696283504367
0.0013865259243175387
-0.04969242960214615
-0.05645691975951195
-0.048974163830280304
-0.035955507308244705
-0.03034227155148983
-0.0017112179193645716
0.043238963931798935
-0.0024807739537209272
-0.024432731792330742
-0.018762361258268356
-0.02642984874546528
-0.025829503312706947
-0.015873637050390244
-0.0270954892039299
-0.014187869615852833
0.018363764509558678
-0.014572735875844955
-0.007185735274106264
0.04911211505532265
0.047587934881448746
-0.020252514630556107
0.05748691409826279
0.005122638773173094
0.01043467316776514
-0.012294984422624111
0.003884261939674616
-0.031198233366012573
0.0014245887286961079
-0.000906623259652406
-0.0012354109203442931
-0.0005795562756247818
-0.0007640027324669063
-6.787139136577025e-05
-0.0020348839461803436
-0.003987804986536503
-0.0003115167492069304
0.0018617336172610521
-0.014682688750326633
-0.030689669772982597
-0.02471538446843624
-0.04483208432793617
-0.05115770548582077
-0.0031448211520910263
-0.05635605752468109
-0.05167926102876663
0.10726894438266754
0.003145297523587942
-0.0981888547539711
0.03976231813430786
0.0028606904670596123
-0.0037074366118758917
0.024909421801567078
-0.013943606056272984
0.025000549852848053
-0.00635131448507309
0.02452886663377285
0.007524811662733555
-0.014946379698812962
0.01334428507834673
0.03772781789302826
-0.005636807531118393
-0.029548387974500656
0.0032572969794273376
-0.04532574489712715
-0.0025328919291496277
0.008064554072916508
0.007108761928975582
-0.0028665701393038034
-0.026805568486452103
0.0824597105383873
0.035415805876255035
-0.0014507656451314688
-0.017724810168147087
0.020408496260643005
0.0647166445851326
-0.031041676178574562
-0.025785116478800774
0.04291600361466408
0.003883027471601963
-0.03942765295505524
-0.012617993168532848
0.040099795907735825
-0.004320749081671238
0.03581983968615532
0.016488859429955482
0.01464010402560234
-0.013315829448401928
0.001139034633524716
0.0034370755311101675
-0.04239046573638916
-0.038684289902448654
0.0009553341078571975
0.012193766422569752
-0.025493290275335312
-0.036058831959962845
-0.017627066001296043
-0.005746984854340553
-0.025205330923199654
-0.014740881510078907
0.0059877196326851845
-0.04551402106881142
-0.08125956356525421
-0.029202768579125404
-0.04652458801865578
-0.07505391538143158
-0.037966109812259674
-0.024031035602092743
-0.04485563561320305
0.03335202857851982
0.03141429275274277
0.007855336181819439
0.06402311474084854
0.044366639107465744
0.015137794427573681
0.0019284577574580908
0.011514820158481598
0.005318027455359697
-0.09477842599153519
-0.07139822095632553
-0.033050742000341415
-0.06156035140156746
-0.08671702444553375
-0.017786681652069092
-0.09186062961816788
-0.1176832988858223
-0.047300685197114944
0.025186453014612198
0.02719525620341301
0.05619421228766441
-0.04933004453778267
-0.023146744817495346
0.01401409413665533
0.016113214194774628
-0.04662259295582771
-0.016445491462945938
-0.10457266122102737
0.03300010785460472
0.03970647230744362
-0.08499816060066223
0.015841949731111526
0.10912877321243286
-0.02039833553135395
-0.003143705427646637
0.08833599090576172
0.001699073938652873
-0.08428307622671127
-0.010783644393086433
0.010358435101807117
-0.052408963441848755
0.006005409173667431
0.03157718852162361
-0.017548007890582085
0.0047994875349104404
0.02765335701406002
-0.02264365926384926
-0.05917598307132721
0.06202913448214531
0.026771822944283485
-0.04276328161358833
0.024776065722107887
-0.0007866969681344926
-0.0488748662173748
-0.049474071711301804
-0.0010742434533312917
0.12780185043811798
-0.06343325227499008
-0.06973234564065933
0.07565455138683319
0.007858087308704853
-0.025546317920088768
0.0911940261721611
-0.04295601323246956
0.019711963832378387
0.09096017479896545
-0.07993438839912415
-0.039038728922605515
0.013286925852298737
-0.023143194615840912
0.01652597077190876
-0.011743152514100075
0.0024346853606402874
0.006330863106995821
0.007988641038537025
0.021149365231394768
0.01741023361682892
0.018351444974541664
0.008023685775697231
0.012500548735260963
0.0031789769418537617
-0.0001691081270109862
-0.005237379111349583
0.001869401428848505
-0.00033787006395868957
-0.0012782593257725239
0.0023429293651133776
-0.00043603533413261175
-0.00025773164816200733
0.0021824329160153866
0.03989984467625618
-0.04751595854759216
-0.007932323031127453
-0.01653575710952282
-0.10269332677125931
-0.07973694801330566
0.0389910489320755
-0.014206923544406891
0.06007258594036102
-0.013445074670016766
-0.036785244941711426
-0.018853502348065376
-0.0021455115638673306
0.028417212888598442
0.02611853927373886
0.04126184433698654
0.07646281272172928
0.03454990312457085
0.023268774151802063
0.043194808065891266
0.020100921392440796
0.02224564552307129
0.03487035259604454
0.01899898611009121
0.018853023648262024
0.028734395280480385
0.011734298430383205
0.025156525894999504
0.02431754767894745
0.004558495245873928
0.011821076273918152
0.023926010355353355
0.0141461081802845
0.019793624058365822
0.04094990715384483
3.553979331627488e-05
-0.028229042887687683
0.0031632231548428535
0.0004919564235024154
0.0025422621984034777
-0.04699704423546791
-0.05521011725068092
-0.06379897147417068
-0.04676194116473198
0.05601747706532478
-0.01798338256776333
-0.03561295196413994
-0.018642639741301537
-0.07155004143714905
-0.039634380489587784
0.03807300329208374
0.05523902550339699
0.0773518905043602
0.09598422050476074
-0.018262777477502823
-0.022091927006840706
-0.008221049793064594
-0.016204560175538063
-0.011654614470899105
-0.002279608976095915
0.016408303752541542
-0.00352057465352118
-0.005638767033815384
0.028735212981700897
-0.021512368693947792
-0.0053384993225336075
-0.025691663846373558
0.0007690166239626706
0.013422216288745403
0.00019210251048207283
-0.014826275408267975
-0.006892178673297167
-0.007612354587763548
0.007103900425136089
0.03385390713810921
-0.017006251960992813
-0.013891087844967842
-0.00497843325138092
-0.008299455046653748
-0.004093630239367485
0.031011007726192474
0.024564238265156746
0.027394067496061325
-0.05288436636328697
0.04985423758625984
0.023901043459773064
-0.00450257770717144
0.011943381279706955
-0.017687620595097542
0.0108371926471591
-0.0008537712856195867
-0.0007807543152011931
0.00037273491034284234
0.0015070015797391534
0.00031866258359514177
0.002682493533939123
0.004657050594687462
0.00014981874846853316
-0.00036275965976528823
0.002358353929594159
0.003651194041594863
0.00510135805234313
0.007975760847330093
0.005468212999403477
0.009332816116511822
0.01289824116975069
0.005721169989556074
0.0020258049480617046
-0.018520288169384003
-0.021929817274212837
-0.007262249011546373
-0.015805024653673172
-0.0233268104493618
-0.009027713909745216
-0.0068611931055784225
-0.010239233262836933
0.0006221442599780858
0.012833411805331707
0.040648143738508224
0.003532515140250325
-0.010699756443500519
-0.005709689576178789
-0.010051566176116467
-0.03990071266889572
-0.03708411380648613
-0.03973330184817314
-0.023774314671754837
-0.018320035189390182
-0.009799852967262268
-0.09440271556377411
-0.02657092921435833
0.03914526477456093
0.007120613940060139
0.04221232607960701
0.06615198403596878
0.028961393982172012
0.04272669553756714
0.03533224016427994
0.03869803622364998
0.03132091835141182
-0.0027517066337168217
0.017014293000102043
0.009779000654816628
0.00732556963339448
-0.05483945831656456
-0.05411095172166824
0.0055556707084178925
-0.047946713864803314
-0.03719697147607803
0.021235203370451927
-0.016311397776007652
-0.007979342713952065
0.017361478880047798
0.010812285356223583
-0.03117687813937664
-0.0509377047419548
0.05083007365465164
0.017722144722938538
-0.02568245865404606
0.008278600871562958
-0.06345726549625397
-0.030837049707770348
-0.04086499288678169
0.01805109716951847
0.0403728224337101
0.010956521145999432
-0.007062056101858616
0.036173079162836075
-0.004810779821127653
-0.004544008988887072
0.050073202699422836
0.039044514298439026
-0.05818530544638634
-0.0789799690246582
0.04024593532085419
-0.0039304583333432674
-0.06522095948457718
0.020593972876667976
0.005438400898128748
-0.027118047699332237
0.04415185749530792
-0.046849530190229416
-0.03702733293175697
-0.023110657930374146
-0.06998129189014435
0.062230970710515976
0.008034641854465008
0.07327163219451904
0.10021810233592987
-0.011598469689488411
-0.030256379395723343
0.018118849024176598
-0.0814722403883934
-0.10593131184577942
0.03420617803931236
-0.07450927048921585
-0.025638828054070473
0.10059215873479843
-0.0011556986719369888
-0.001728641800582409
0.0011082944693043828
0.0006226113764569163
-0.00010065296373795718
0.002646550303325057
0.0022112312726676464
-0.0008309884578920901
-0.002054966287687421
0.00708468584343791
0.0018121660687029362
0.017257023602724075
0.013519012369215488
0.028378890827298164
0.046158842742443085
0.05582287162542343
0.07676717638969421
0.047987259924411774
-0.056522537022829056
0.007504135370254517
0.009832940064370632
0.00908551923930645
0.04555170610547066
0.010708878748118877
-0.0056817540898919106
-0.06151172146201134
-0.01931663602590561
-0.0005972368526272476
0.0012742266990244389
0.0013287850888445973
3.315190406283364e-05
-0.0005123551236465573
0.002931952942162752
0.002164432778954506
-0.000843031273689121
0.00016351629165001214
0.020571965724229813
0.04610973969101906
0.03819746524095535
0.03069373406469822
0.024116355925798416
0.005995269399136305
-0.052510298788547516
-0.016605865210294724
0.004111533053219318
-0.02829577587544918
-0.005585421808063984
0.008618268184363842
-0.05659099668264389
-0.00949976034462452
-0.006547768600285053
-0.06737403571605682
-0.04439811408519745
0.026980126276612282
0.011408532038331032
0.0029623580630868673
-0.057024843990802765
0.048758216202259064
0.011203673668205738
-0.048087917268276215
0.0488581582903862
0.04138263314962387
-0.028959183022379875
-0.0034940331242978573
0.003271035384386778
0.006099857855588198
0.004313791170716286
0.011818591505289078
0.011238127015531063
-0.0006270817248150706
0.009548109956085682
0.0064529855735599995
0.013858613558113575
-0.022392163053154945
-0.01584205962717533
-0.015705149620771408
-0.05133042111992836
-0.01581261120736599
-0.07360078394412994
-0.1014854684472084
-0.03042805753648281
5.0712358643068e-05
0.00010308081255061552
0.0005780570209026337
0.0003426412004046142
0.00019281326967757195
0.0008239274611696601
0.00021749873121734709
-1.0415817087050527e-05
0.001133461482822895
-0.03842835873365402
-0.006685303989797831
0.03906793147325516
-0.02848764695227146
-0.008468227460980415
0.035749226808547974
-0.01715186797082424
-0.012774014845490456
0.020500412210822105
0.04301191121339798
-0.037566617131233215
-0.011704192496836185
-0.03285586088895798
-0.0617348812520504
-0.015880947932600975
0.045542918145656586
0.03399224206805229
-0.012821139767765999
0.004123028367757797
-0.03802558407187462
-0.07374116778373718
-0.028188280761241913
-0.06172243133187294
-0.015094622038304806
0.0165678933262825
0.03083358146250248
0.04071914404630661
-0.03371256962418556
-0.05902071297168732
-0.01869918778538704
-0.062208980321884155
-0.009972063824534416
0.03190826624631882
0.03354673087596893
0.019404824823141098
0.038563795387744904
0.05430204048752785
0.007503280881792307
-0.0074395607225596905
0.0006134333671070635
0.05194058641791344
0.03141973167657852
0.030160844326019287
0.02326897345483303
0.03164532780647278
0.05595192313194275
0.07323701679706573
0.03822030872106552
0.05172017961740494
0.02040099911391735
-0.019941845908761024
-0.0821806937456131
-0.05946113169193268
0.046653952449560165
-0.049622587859630585
-0.011266146786510944
-0.022983625531196594
-0.05351049825549126
-0.013144253753125668
-0.04142013192176819
-0.010527953505516052
-0.011750503443181515
-0.05680249258875847
0.08256165683269501
0.07315347343683243
-0.0027007311582565308
0.08564018458127975
0.03972076624631882
-0.05505194514989853
-0.04496607929468155
-0.049718163907527924
-0.012675384059548378
0.027066919952630997
0.018194077536463737
9.339070675196126e-05
0.0035705002956092358
0.006665979512035847
0.022766556590795517
0.029598457738757133
0.03286305442452431
0.005621886812150478
-9.96588496491313e-05
-1.5299256119760685e-05
0.00029808797989971936
-4.712140071205795e-05
2.939126170531381e-05
0.0003163002256769687
6.271438905969262e-05
0.00014150016068015248
0.00041770059033297
-0.016342688351869583
-0.015388770028948784
-0.016244661062955856
0.0009099708404392004
-0.012358796782791615
0.0074738082475960255
0.020166127011179924
-0.004826365504413843
-0.01161172054708004
0.049804408103227615
0.04432988911867142
0.01145846489816904
0.01923823542892933
0.012286774814128876
-0.008665813133120537
0.03572089970111847
0.03436329960823059
-0.0016279728151857853
0.002230553887784481
-0.030730081722140312
-0.019738508388400078
-0.03348122537136078
-0.00787558313459158
0.024266451597213745
0.021418599411845207
0.03225122392177582
0.0729716569185257
-0.00012623406655620784
-0.00011984062439296395
0.00018792990886140615
-7.275689131347463e-05
-7.766611088300124e-05
0.00024097134883049875
6.873808888485655e-05
7.812953845132142e-05
0.00034670482273213565
-0.00770091125741601
-0.0010978785576298833
-0.003429621458053589
-0.013992960564792156
0.001124051632359624
0.01785912923514843
0.009266058914363384
0.0014826450496912003
0.004941240418702364
0.02962566167116165
0.024542054161429405
0.0381777361035347
-0.05714941769838333
0.018192104995250702
0.059092216193675995
-0.07842519879341125
0.04041782766580582
0.06309735774993896
-0.007461266126483679
-0.022705329582095146
0.05697270482778549
0.010960712097585201
0.007414862979203463
-0.0008025401621125638
0.013178677298128605
0.06851381808519363
0.003380514681339264
0.040321603417396545
-0.013268527574837208
-0.04317210242152214
0.04778581112623215
-0.003804367734119296
-0.013220642693340778
0.006131607107818127
0.00128566927742213
0.006656236480921507
-0.0027894070371985435
-0.061496853828430176
-0.007194047793745995
-0.017373070120811462
-0.09094494581222534
0.020012887194752693
0.014772960916161537
0.06612483412027359
0.03321174904704094
-0.02075914479792118
-0.014388760551810265
-0.006910059135407209
-0.035143185406923294
-0.02936808206140995
0.006056247279047966
-0.0204184390604496
0.012988255359232426
0.016480667516589165
0.0817241370677948
0.08012314885854721
-0.02882285788655281
0.022356517612934113
-0.025294186547398567
-0.03774331137537956
-0.003921909257769585
-0.022294681519269943
-0.009464209899306297
0.012737293727695942
0.02008666843175888
0.009150051511824131
-0.047567859292030334
0.040865276008844376
0.01160716637969017
0.0159401036798954
0.05905495211482048
-0.0024402132257819176
0.010795783251523972
0.036006197333335876
-0.0045067984610795975
-0.00977402925491333
0.030546678230166435
-0.010202321223914623
-0.06167325749993324
-0.004907166585326195
-0.03310822322964668
-0.023666737601161003
0.027962133288383484
0.018051916733384132
-0.06794855743646622
-0.0064561269246041775
0.00027827543090097606
-0.07440370321273804
-0.03230574354529381
0.005102131981402636
-0.029197996482253075
-0.07685057818889618
-0.03305424749851227
-0.13054360449314117
-0.14009393751621246
0.041184861212968826
0.06474391371011734
0.08405410498380661
0.11591082066297531
-0.02699640765786171
0.031720854341983795
-0.019286859780550003
0.04262043163180351
0.11607062816619873
-0.016512643545866013
0.03362252563238144
-0.005808965303003788
-0.10607053339481354
0.021409839391708374
0.0010456820018589497
0.036944035440683365
-0.11276568472385406
-0.05356064438819885
0.077387735247612
-0.1292552351951599
0.0020657917484641075
0.1396644562482834
-0.01424982026219368
-0.05763396993279457
0.007679827511310577
-0.08684556931257248
-0.08278951048851013
0.036416687071323395
0.01810345984995365
0.06459087878465652
0.057103127241134644
-0.01518182922154665
-0.05507209524512291
-0.02862858772277832
0.011976748704910278
-0.015545281581580639
-0.068649522960186
-0.018644485622644424
-0.05561687424778938
-0.05720256641507149
-0.07635408639907837
-0.004292833153158426
0.04989525303244591
0.03483123332262039
0.025322293862700462
0.02010774426162243
0.020434563979506493
-0.0007685255841352046
0.018513375893235207
0.014086971059441566
0.03322815150022507
0.033006612211465836
0.02102844789624214
0.029808353632688522
0.020238885655999184
0.019629010930657387
0.026132389903068542
0.01522168330848217
7.871686830185354e-05
-0.007075091358274221
-0.0005941439303569496
0.0014724991051480174
0.0011302781058475375
0.0011882164981216192
0.00217322981916368
0.0027868282049894333
0.0007008707616478205
0.025019388645887375
0.023915234953165054
0.005848402623087168
-0.030946185812354088
-0.026499774307012558
0.013050996698439121
-0.09171499311923981
-0.029385166242718697
0.025407366454601288
0.00813137087970972
0.022672943770885468
0.10453552007675171
-0.11356142163276672
-0.06610765308141708
0.09385901689529419
-0.2211420089006424
-0.04652700945734978
0.07900507748126984
-0.008463543839752674
-0.010137660428881645
0.004927031695842743
-0.01933809369802475
-0.019937491044402122
0.0042983051389455795
-0.04840829595923424
0.004088239744305611
0.0022951841820031404
0.00954395905137062
-0.03414180502295494
-0.012693274766206741
-0.02616187557578087
-0.010258588939905167
0.0072501958347857
-0.0144262183457613
0.005874685011804104
0.006044923793524504
0.051745783537626266
0.036548689007759094
0.06669890880584717
0.00036963107413612306
-0.0912148654460907
0.0058344099670648575
-0.09210456907749176
-0.07783457636833191
0.026674266904592514
-0.0171644389629364
0.01736026257276535
-0.01746218651533127
-0.00833114143460989
0.0013766685733571649
0.027948809787631035
-0.0049163890071213245
0.03847692161798477
0.0194911677390337
0.05660223960876465
0.01695038564503193
-0.009903275407850742
0.041917312890291214
0.03292414918541908
0.01720171980559826
0.00010956229380099103
0.08292099833488464
0.023324083536863327
0.012766768224537373
0.06609294563531876
0.05270816385746002
-0.03362300619482994
0.052193958312273026
0.014010497368872166
-0.04087310656905174
0.02403932437300682
0.06027105450630188
0.010782876051962376
0.03498018532991409
0.007997673004865646
0.02059963531792164
0.031162599101662636
-0.016228744760155678
0.0668637678027153
0.07800121605396271
0.012746717780828476
-0.03209887817502022
-0.06935715675354004
0.018760528415441513
-0.01169942319393158
-0.057208556681871414
0.038225311785936356
-0.002476330380886793
-0.007623529061675072
0.06013850122690201
0.0004142629913985729
-0.0008876586798578501
0.00015489401994273067
0.0008291865233331919
-0.00045721264905296266
-1.0951659533020575e-05
0.006038506980985403
-0.0035824484657496214
-0.0007297723786905408
0.009817439131438732
-0.0026554905343800783
0.015047132968902588
-0.006941426545381546
-0.007590604014694691
0.008800296112895012
-0.012595759704709053
-0.01045344490557909
0.00047347633517347276
-0.012253840453922749
-0.0038666788022965193
-0.012342792004346848
0.0005279374890960753
-0.009630336426198483
-0.020328063517808914
-0.015886571258306503
-0.027191519737243652
-0.02017052285373211
0.15144094824790955
0.09829524904489517
-0.011623390950262547
0.1645394265651703
0.03585147112607956
-0.05367762967944145
0.1374058723449707
-0.08013910055160522
-0.1319883167743683
-0.09817646443843842
-0.03192075714468956
0.0016236198134720325
-0.039629530161619186
0.05602353811264038
-0.008010935969650745
0.0012757317163050175
0.1039837971329689
0.006109638139605522
-0.010130091570317745
0.05733488127589226
0.024881338700652122
-0.013470751233398914
0.05062281712889671
0.002220375696197152
-0.005854068323969841
0.02764616161584854
-0.010688516311347485
-0.05047443136572838
0.03206775337457657
0.024929849430918694
-0.04026462137699127
0.06286653131246567
0.04443803057074547
-0.02836531400680542
0.07218179106712341
0.030034756287932396
0.10268966108560562
-0.023917103186249733
0.0382983535528183
0.14403946697711945
-0.012525511905550957
0.04936600849032402
0.07995368540287018
-0.0671987533569336
-0.0034551694989204407
-0.015903927385807037
0.029592221602797508
0.04769260063767433
-0.012359406799077988
-0.0007855816511437297
0.04327388107776642
-0.05949429050087929
0.02801303192973137
0.04672306776046753
-0.0141298808157444
-0.016979938372969627
0.008478643372654915
-0.04284169152379036
-0.03934888541698456
-0.0020288056693971157
-0.03852040320634842
0.01489124447107315
0.05570005998015404
0.004004416521638632
-0.04375962167978287
0.057445935904979706
0.03141774609684944
0.006087315268814564
-0.023143978789448738
0.017815083265304565
0.009718223474919796
-0.02900306135416031
-0.05255647748708725
-0.04183688014745712
-0.022461649030447006
-0.04825738072395325
0.0034697919618338346
-0.020461346954107285
-0.028849508613348007
0.030478371307253838
-0.015809601172804832
-0.000547931413166225
-0.0028775816317647696
0.005748715251684189
0.011700296774506569
-0.0013281692517921329
0.009185425005853176
-0.01792973093688488
-0.01952044665813446
0.0014157355763018131
0.022557038813829422
-0.04076424986124039
-0.043378062546253204
0.07702261954545975
0.005697955843061209
-0.04035190865397453
0.09917952120304108
0.033757273107767105
-0.046130482107400894
0.03527023643255234
0.02124880626797676
-0.007386350072920322
0.04629097506403923
0.024249842390418053
-0.056784819811582565
0.03818856179714203
-0.0017902475083246827
-0.11507821083068848
-0.006278835702687502
0.0010701825376600027
-0.0046187457628548145
-0.0031082157511264086
-0.006331699434667826
-0.003385889111086726
0.007537197787314653
0.006216929294168949
-0.001420086482539773
0.032151997089385986
0.003828301327303052
-0.009872094728052616
0.07887165248394012
0.01366613619029522
0.0012640925124287605
0.04563487693667412
-0.06497211754322052
-0.01068892516195774
-0.022777991369366646
-0.028690606355667114
-0.013995964080095291
0.05805037543177605
0.030370404943823814
-0.07554158568382263
-0.01309916190803051
0.010688632726669312
-0.010018561966717243
0.0733487457036972
0.08259376883506775
-0.011040739715099335
0.04827110841870308
0.03549276664853096
-0.010888490825891495
0.05642326548695564
0.0568101741373539
-0.0050428882241249084
-0.008738286793231964
0.0013539233477786183
0.002067022491246462
-0.006929315160959959
-0.005022679455578327
-0.007283033337444067
-0.0028990355785936117
-0.006628093775361776
-0.011491622775793076
-0.03583503141999245
-0.01774061843752861
-0.03194383159279823
0.025323962792754173
-0.042158499360084534
-0.021316295489668846
0.08496397733688354
-0.0450749397277832
-0.023852797225117683
0.0010122897801920772
-0.0007186511065810919
0.0006345522706396878
0.0014303922653198242
-0.00013137992937117815
0.0008824296528473496
0.001863922574557364
0.0002808935532812029
0.0007935543544590473
-0.007385230157524347
0.014807694591581821
0.027081279084086418
-0.017466431483626366
0.00419282540678978
0.01685132086277008
0.017769362777471542
0.0033820909447968006
0.0025396011769771576
-0.036073215305805206
-0.006254233885556459
0.0012264548568055034
-0.06761535257101059
0.017481165006756783
0.03421419858932495
-0.0432305745780468
0.025987865403294563
0.06795170158147812
-0.01699047163128853
-0.04810279980301857
0.018469776958227158
0.0349019318819046
0.0010256099049001932
0.06117847561836243
0.03115391731262207
0.058092158287763596
0.11419959366321564
-0.0010386467911303043
-0.07463716715574265
-0.011907471343874931
0.03617171570658684
-0.022881390526890755
-0.003455456579104066
0.06517885625362396
-0.01563585177063942
-0.0018025196623057127
0.042654525488615036
0.02977154776453972
0.08853163570165634
0.03830322250723839
-0.0019803601317107677
0.05824998393654823
0.046035684645175934
-0.012414845637977123
0.015425964258611202
-0.05667222663760185
-0.003004174679517746
0.019195599481463432
-0.05861315131187439
0.0006855547544546425
0.010083322413265705
-0.020531537011265755
-0.010150362737476826
-0.023504268378019333
0.001867880579084158
0.009578300639986992
0.03817388042807579
0.02174733765423298
0.03628860041499138
0.03827213868498802
0.03968071565032005
0.01921132393181324
0.0061080497689545155
-0.0320880152285099
-0.04238345846533775
0.028271978721022606
0.028414485976099968
-0.02594771422445774
0.04478321224451065
-0.014079492539167404
0.021138155832886696
0.0005344915552996099
0.01270632166415453
0.011620903387665749
-0.0019372120732441545
-0.004124188795685768
0.019111527130007744
0.017932303249835968
0.020134499296545982
0.026920080184936523
0.05777653306722641
-0.0010545359691604972
-0.0003862725861836225
0.0020727289374917746
-0.0002684934588614851
-0.0007291233050636947
0.0021082244347780943
-0.0005663791089318693
0.0009889594512060285
0.00015835993690416217
-0.02396841160953045
0.028843406587839127
0.010357181541621685
-0.032049525529146194
0.030200522392988205
0.06123464182019234
-0.10481175035238266
0.030791988596320152
0.04581119492650032
0.0164506733417511
0.014873641543090343
0.011529073119163513
-0.04472829028964043
0.005446548108011484
0.04983898624777794
0.015103907324373722
0.022604744881391525
0.017597774043679237
-0.023460717871785164
0.0231447983533144
0.005613775923848152
0.005594389978796244
0.06681445240974426
0.005057628266513348
0.02345103584229946
0.06393645703792572
0.0032318085432052612
-0.001368691329844296
-0.0035617933608591557
0.0014759536134079099
-0.0010280482238158584
-0.0021714360918849707
0.0013752973172813654
0.0010815653949975967
0.0004942714585922658
0.0005755105521529913
0.06766327470541
0.03439096733927727
0.06353794038295746
0.026771336793899536
0.01430407352745533
0.019685549661517143
-0.022388355806469917
0.0020107266027480364
0.04123806580901146
-0.0631655752658844
0.019905997440218925
0.04521247372031212
-0.08760635554790497
0.0462271012365818
0.05905897170305252
-0.07005483657121658
0.04821915924549103
0.05489260330796242
0.012799572199583054
0.02330850437283516
0.053293801844120026
-0.02433437667787075
0.028368718922138214
0.04943304508924484
0.01039312407374382
0.07071690261363983
0.03523419424891472
0.036915771663188934
0.009563140571117401
-0.07962606847286224
0.0449080653488636
0.00027021256391890347
-0.00820574164390564
0.0010323208989575505
0.01081678457558155
0.00560728320851922
-0.037412919104099274
-0.04521934688091278
0.011015953496098518
-0.04730653390288353
-0.02450944297015667
-0.0014167842455208302
-0.04092487692832947
-0.01797572150826454
0.016165005043148994
0.0077858841978013515
-0.00862872414290905
-0.007150733843445778
-0.022118043154478073
-0.03356733173131943
0.027521207928657532
-0.05770197510719299
0.020013006404042244
0.023766925558447838
0.006039788946509361
-0.004061675630509853
0.004690524656325579
0.000938142416998744
-0.026043711230158806
-0.0025029657408595085
0.08281320333480835
0.012427275069057941
0.014526779763400555
0.03632207214832306
0.056139495223760605
0.04411466419696808
0.036026254296302795
0.006938031408935785
0.014092570170760155
0.020056627690792084
-0.009019424207508564
0.04138587415218353
0.03764333575963974
0.022868508473038673
-0.010315191000699997
0.002896985737606883
-0.02433350868523121
-0.04367711395025253
-0.023252364248037338
-0.028923112899065018
-0.04232095927000046
0.0245710127055645
0.02950313128530979
0.06904531270265579
-0.004672215320169926
0.006420433055609465
0.06629291921854019
-0.02473742514848709
-0.02148907259106636
0.029522813856601715
0.03082778863608837
0.059652138501405716
-0.02344040386378765
-0.02681625261902809
0.05328156426548958
-0.0008647522772662342
-0.018249623477458954
0.08303001523017883
0.017376191914081573
-0.02584582008421421
-0.00826969463378191
-0.03060752898454666
-0.016012709587812424
-0.03176479786634445
-0.002900254912674427
-0.03096453659236431
-0.0058937049470841885
0.07443968206644058
0.019451992586255074
0.03613767400383949
0.07977737486362457
-0.008734675124287605
0.031796034425497055
0.007587567903101444
-0.033561691641807556
-0.004493679851293564
0.0013638283126056194
-0.018149543553590775
0.033485330641269684
0.014725840650498867
0.037107545882463455
0.04488660767674446
0.01828775368630886
0.01610810123383999
0.022161545231938362
0.0029135998338460922
-0.010115209966897964
-0.0003995253937318921
0.010344506241381168
0.014370120130479336
0.004155477974563837
-0.015746233984827995
0.018933841958642006
-0.03013484552502632
-0.032668910920619965
0.04317840561270714
0.006677894853055477
-0.01637604832649231
0.0629543662071228
0.01799033209681511
-0.08413277566432953
0.07388810068368912
-0.023334745317697525
-0.05864511802792549
0.009867243468761444
-0.009618580341339111
-0.021783145144581795
0.003204155247658491
-0.0015623635845258832
-0.01557806134223938
0.004556690808385611
0.009260904975235462
-0.013124332763254642
0.0006539966561831534
0.000570245087146759
0.0008182448800653219
1.8269955035066232e-05
-0.0001054387612384744
6.883398600621149e-05
0.0006823887233622372
0.00028782463050447404
0.0006551939295604825
0.07328540086746216
0.05140810087323189
0.04212500527501106
0.0819210559129715
-0.012217219918966293
-0.01553291454911232
0.038176871836185455
-0.004245216958224773
-0.028657395392656326
0.09142719209194183
0.08987956494092941
0.061044689267873764
0.08390102535486221
0.03448835015296936
0.024699587374925613
0.010402648709714413
0.013350987806916237
-0.03902480751276016
0.0234376173466444
0.03136688098311424
-0.00609856890514493
0.03135951980948448
0.028463684022426605
-0.002987046493217349
-0.003176548285409808
0.006704146042466164
-0.01612878032028675
0.009945806115865707
-0.004777748137712479
0.012559783644974232
0.01295363251119852
-0.0005493119242601097
-0.020561784505844116
0.00798795185983181
0.011572564020752907
-0.015697453171014786
0.009515355341136456
