0.0009993917774409056
-0.00108509068377316
-0.045847728848457336
0.0011359306517988443
0.004813244566321373
-0.02800283394753933
-0.03719018027186394
-0.012771992944180965
-0.08051935583353043
-8.030558819882572e-05
0.020471882075071335
0.05386951565742493
-0.006378113757818937
0.073969267308712
0.009005100466310978
0.03324214741587639
0.011770831421017647
-0.0007111948216333985
-0.0789492204785347
-0.0824415534734726
-0.058664917945861816
0.024078773334622383
-0.02949492260813713
0.04706626757979393
-0.08805704861879349
0.03394820913672447
0.02696325071156025
0.01962466351687908
-0.08574777841567993
0.04610214754939079
-0.0010785545455291867
-0.08489172160625458
0.065154068171978
0.03583964705467224
0.04071011766791344
-0.03423205018043518
0.08901652693748474
0.0006804484291933477
-0.010005729272961617
0.01369789894670248
0.00150996760930866
0.010528133250772953
0.0213016290217638
8.972576324595138e-05
0.09052230417728424
0.001118034590035677
0.005868641659617424
0.010498099029064178
0.0004878173931501806
0.017882108688354492
0.058139294385910034
0.03598007932305336
-0.013611238449811935
-0.03812636062502861
-0.05555681139230728
-0.04373529553413391
0.03764728084206581
-0.0216372013092041
0.03177453204989433
0.09315034002065659
-0.04287900775671005
-0.04064330831170082
-0.0002844584232661873
0.022176144644618034
-0.0251338928937912
0.019340047612786293
-0.01962016522884369
-0.04386479780077934
-0.054066967219114304
0.08558710664510727
-0.06162850558757782
-0.10270729660987854
0.04883365333080292
0.024718908593058586
-0.06272047758102417
0.05909940227866173
0.05940420180559158
-0.047059137374162674
0.0010260475100949407
0.059964992105960846
0.04244734346866608
0.012223492376506329
0.0008813460590317845
0.05263892561197281
-0.11758416146039963
0.006383826956152916
-0.01360495574772358
-0.005038804840296507
0.06515158712863922
-0.021965600550174713
0.0009866385953500867
-0.03942687064409256
-0.04087383672595024
-0.0006795494700782001
-0.048102546483278275
-0.0014885657001286745
0.004940043669193983
-0.000409286527428776
-0.05712074041366577
-0.020225992426276207
0.06122652068734169
0.03866247832775116
-0.023241346701979637
0.017745837569236755
0.011455445550382137
-0.11319893598556519
0.005175404716283083
0.010115117765963078
-0.001470386516302824
-0.0009273941395804286
0.042590443044900894
-0.05231171101331711
0.003638853318989277
0.025784609839320183
-0.07212235778570175
-0.03402094542980194
0.0643322542309761
-0.02827204018831253
0.030648451298475266
-0.008824680931866169
-0.09981546550989151
0.03436487913131714
0.001431055716238916
-0.02114672027528286
-0.01699775457382202
0.05414362624287605
-0.056575749069452286
-0.05914685130119324
0.01260453276336193
-0.016545740887522697
-0.005901448428630829
-0.031311217695474625
-0.0025334456004202366
-0.04717632755637169
-0.00019469625840429217
-0.0005739471525885165
0.03912385553121567
0.02966775745153427
-0.001148864976130426
0.033302489668130875
0.009181294590234756
0.07863711565732956
-0.047632284462451935
-9.211550059262663e-05
0.0010467288084328175
-0.011473647318780422
-0.01721695065498352
0.00096558453515172
-0.04799002408981323
0.0533747635781765
-0.04158821329474449
0.008152486756443977
-0.06960135698318481
-0.029274016618728638
-0.07278262078762054
-0.07138561457395554
0.10737594962120056
0.015771707519888878
-0.0690152496099472
-0.04735159873962402
0.0002686592342797667
-0.09954027086496353
-0.05884292721748352
-0.013484621420502663
0.04800833761692047
0.018209926784038544
0.0006802939460612833
-0.10654979199171066
0.0006458515417762101
0.004207715392112732
-0.01692558452486992
-0.06593459099531174
-0.05900973081588745
0.031164657324552536
-0.010295833460986614
-0.042656321078538895
0.00499845901504159
-0.029207371175289154
-0.10048623383045197
-0.04718337208032608
0.02866421826183796
0.015398602932691574
0.10620824992656708
0.0005427842261269689
-0.009405908174812794
-0.031468115746974945
0.014965306036174297
-0.04552508890628815
-0.1126285269856453
0.0008800487848930061
-0.04578608274459839
-0.011755434796214104
-0.026894360780715942
-0.06676659733057022
0.00019998924108222127
0.042104147374629974
0.020113173872232437
0.0019849941600114107
-0.0030527443159371614
-0.031115908175706863
-5.4310545237967744e-05
-0.09849046915769577
0.014175484888255596
-0.06176024675369263
-0.00015442766016349196
-0.04436248168349266
-0.00022019539028406143
-0.01432298868894577
0.0005239120800979435
0.02157624065876007
0.0022485186345875263
0.06955431401729584
0.000649557332508266
0.0468706339597702
0.03698960319161415
0.051712896674871445
0.05860273167490959
0.04832233116030693
-0.03539256751537323
-0.037358976900577545
-0.02029556781053543
0.04080270230770111
0.010191601701080799
0.07234271615743637
-0.021553168073296547
-0.07533411681652069
-0.0005632079555653036
-0.00026603342848829925
-0.018420478329062462
0.038285959511995316
0.009626723825931549
-0.09395240992307663
0.0697358176112175
0.016891466453671455
0.035077985376119614
0.003188041504472494
0.028026890009641647
0.07085611671209335
-0.008747759275138378
0.02447248250246048
0.025865692645311356
-0.05877962335944176
0.010696165263652802
-0.00022011497640050948
-0.06425786763429642
-0.024563824757933617
0.02736649289727211
0.055911287665367126
-0.024932432919740677
0.0026901126839220524
0.004153658170253038
0.033398743718862534
-0.012337869964540005
-0.06669408828020096
-0.03271022066473961
0.02982647344470024
0.001241731340996921
0.0008888564771041274
0.04272870346903801
0.029151471331715584
0.01803375780582428
0.0444476380944252
0.005278451833873987
0.04290510341525078
0.021135197952389717
0.0006635849131271243
-0.09386797249317169
0.03551774471998215
0.04388662055134773
-0.05608099326491356
0.07167934626340866
-0.10187902301549911
0.19186356663703918
-0.030383754521608353
0.06255786120891571
0.06344166398048401
0.009230394847691059
-0.0218211580067873
0.07953137904405594
-0.001519939862191677
0.1120576485991478
-0.20114363729953766
0.09001883864402771
-0.057093728333711624
0.05772493779659271
-0.0038784898351877928
-0.0032235351391136646
-0.005670742131769657
0.05547959357500076
-0.11926871538162231
-0.035586267709732056
0.02202696166932583
-0.18251390755176544
0.00011977644317084923
0.04788130894303322
0.024508856236934662
-0.004306692164391279
0.0096328379586339
0.004916653037071228
8.663646440254524e-05
-0.0021079841535538435
5.685230644303374e-05
-0.08341444283723831
0.043404772877693176
-0.0012047841446474195
0.03647127002477646
-0.09337207674980164
-0.10624686628580093
0.09332195669412613
-0.07081778347492218
0.06351286172866821
-0.050751298666000366
0.06270088255405426
0.04321083799004555
-0.051130764186382294
-0.05604410171508789
-0.02712320163846016
-0.051195889711380005
-0.03634725883603096
0.020809439942240715
0.038633693009614944
0.0342586450278759
0.02525077387690544
0.03984105959534645
-0.03403889387845993
-0.11616683751344681
0.07190015912055969
0.02743571251630783
0.028639573603868484
-0.09573424607515335
0.01363571360707283
0.08938655257225037
-0.03541594371199608
0.0032524398993700743
-4.629414252121933e-05
-0.004468503408133984
-0.11879733949899673
0.11676719039678574
-0.003191245486959815
-0.07988373935222626
0.07498917728662491
-0.0065605416893959045
0.017778635025024414
-0.06377051770687103
-0.04578203707933426
-0.049827851355075836
-0.08861690014600754
0.03778102993965149
0.04242461547255516
-0.0016927134711295366
0.024851221591234207
-0.0011840061051771045
0.08493901044130325
-0.0004887465620413423
0.020886488258838654
-0.07438652962446213
0.07949477434158325
-0.07453528791666031
0.028344454243779182
0.027368349954485893
0.0763370543718338
0.03269349783658981
0.02031201496720314
0.040206000208854675
-0.0014307057717815042
-0.00065063894726336
0.07331179827451706
-0.001116075785830617
0.03356250002980232
0.0008776035974733531
0.036497943103313446
0.08697512000799179
0.021789908409118652
-0.10121855139732361
-0.02572743222117424
0.024720389395952225
0.031569704413414
-0.029421744868159294
0.010398253798484802
0.005941553041338921
-0.04147087410092354
0.06544838100671768
0.10021091997623444
0.01400075200945139
0.01658201776444912
0.06311263144016266
-0.004474310204386711
0.007786779198795557
-0.07889601588249207
0.021630985662341118
-0.0014079081593081355
0.00018016733520198613
0.045509349554777145
-0.045319925993680954
0.04535134509205818
-0.048727065324783325
0.10580204427242279
-0.15570513904094696
0.054564494639635086
0.0002844750415533781
-0.00032112360349856317
0.09248805791139603
-0.04148482158780098
-0.0005822289967909455
0.045834172517061234
-0.0170650202780962
0.05053570494055748
-0.07647518068552017
0.06547559797763824
0.1436244398355484
0.08786571770906448
0.043436527252197266
0.039357494562864304
0.013376051560044289
0.009071707725524902
0.15100911259651184
-0.0005963047151453793
-0.047278422862291336
0.14060507714748383
-0.03876405209302902
-0.06089960038661957
0.020443100482225418
0.0003009620413649827
0.1256193071603775
-0.00023742513440083712
-0.003970555029809475
0.0035643852315843105
0.0191961657255888
0.027860088273882866
-0.015357685275375843
0.07351554930210114
-0.07579861581325531
-0.07911532372236252
0.0023994753137230873
0.021514007821679115
0.020662710070610046
-0.030363572761416435
0.026859108358621597
-0.04374445602297783
0.0004492183797992766
-0.11587626487016678
-0.012590150348842144
-0.11534383147954941
0.01455144863575697
-0.00334804505109787
-9.359310752188321e-06
-0.0008812854066491127
-0.029888808727264404
0.046977076679468155
0.06863821297883987
0.00010890922567341477
0.006882295478135347
-0.009082691743969917
-0.0014160431455820799
-0.03092060051858425
0.04862898588180542
0.00033219761098735034
3.066472345381044e-05
0.07502411305904388
0.03956569731235504
-0.000465419318061322
-0.002875411417335272
0.0014566106256097555
0.11225710064172745
0.00042597524588927627
-0.0718308687210083
0.06050873547792435
0.013978657312691212
-0.003168828319758177
0.013043845072388649
-0.09071630239486694
-0.06075868755578995
0.016986779868602753
-0.07939348369836807
0.07495950907468796
0.022264059633016586
-0.000642268976662308
-0.013687154278159142
0.03871991112828255
-0.06405320763587952
0.05782325193285942
0.09898656606674194
-0.0030128713697195053
9.304202831117436e-05
0.08756943047046661
0.05906861275434494
0.09112953394651413
0.08518200367689133
0.06055150181055069
-0.06719984114170074
-0.0268689151853323
-0.00047549259033985436
-0.03865409269928932
-0.07768725603818893
-0.024151325225830078
0.044748056679964066
-0.0014919504756107926
0.030790427699685097
-0.02228868380188942
0.10420053452253342
0.06269405037164688
0.03452807292342186
-0.05938170105218887
-0.03186998516321182
-0.058249861001968384
-0.0004054660093970597
0.010179588571190834
0.0970865786075592
0.014066708274185658
0.04422956332564354
-0.03576650843024254
-0.07187693566083908
-0.0026364033110439777
0.0009311596513725817
-0.09414804726839066
-0.017695516347885132
-0.014573968015611172
0.056917253881692886
0.07335005700588226
0.16751514375209808
-0.012733273208141327
0.0011230066884309053
0.08109962940216064
0.03537023440003395
-0.0023020270746201277
0.06448759883642197
-0.010966137982904911
0.08813508599996567
-0.036343853920698166
-0.025456270202994347
-0.047785330563783646
0.027061838656663895
-0.003585909027606249
0.06750117987394333
-0.024973908439278603
0.0644756481051445
-0.07544554024934769
-0.039430875331163406
-0.10368891805410385
-0.00254068779759109
-0.03756492957472801
0.04843224585056305
-0.0012936432613059878
-0.05175032466650009
-0.09761327505111694
0.13502855598926544
0.011557071469724178
0.0831710547208786
-0.028391027823090553
-0.0007829858222976327
-0.1465144008398056
0.026185130700469017
0.00023033762408886105
-0.023093633353710175
0.0017440080409869552
-5.02269140270073e-05
-0.08149795234203339
-0.0029267938807606697
0.001887262100353837
-0.024577587842941284
-0.002234590705484152
-0.06442368775606155
0.08681877702474594
0.003526850137859583
-0.08018295466899872
0.055856890976428986
0.05957265570759773
-0.0017357590841129422
-0.06823250651359558
-0.03643398731946945
-0.10656009614467621
0.07580592483282089
-0.10833033174276352
0.029646333307027817
0.09560853987932205
-0.03583947569131851
-0.03133711218833923
-0.05155840888619423
0.03910765051841736
-0.040821027010679245
-0.1258302628993988
0.08123239874839783
0.004972515162080526
0.004424565006047487
-0.0019341788720339537
0.06110620126128197
-0.04125702381134033
-0.030657583847641945
0.03056880459189415
-0.07427709549665451
0.0018646775279194117
-0.03740629553794861
0.056459691375494
-0.06105397269129753
0.0008478101226501167
0.014875119552016258
-0.0391026996076107
-0.06949666142463684
0.01671907864511013
-0.009218473918735981
-0.01626492105424404
0.10680047422647476
-0.0195352490991354
-0.008446888066828251
-0.026737257838249207
0.000502782582771033
0.04339327663183212
-0.0014649537624791265
-0.032583218067884445
4.258601620676927e-05
-0.17886997759342194
-0.016938405111432076
0.07967380434274673
-0.034453824162483215
-0.021232809871435165
0.046737659722566605
-0.05851481109857559
0.02806519716978073
0.06885100901126862
0.012938852421939373
0.00013596765347756445
0.0007705129683017731
-0.020321032032370567
0.07217340171337128
-0.025898633524775505
-0.03456796333193779
0.025791993364691734
-0.021403731778264046
-0.07636012881994247
0.026238074526190758
0.035435158759355545
0.11896805465221405
-0.027570221573114395
0.09447064995765686
0.04042304307222366
-0.09655234962701797
0.15477658808231354
0.02840069867670536
-0.04399405047297478
-0.11591122299432755
-0.024671226739883423
-0.03755649924278259
0.12974199652671814
-0.04536806792020798
-0.0023859497159719467
-0.10810773074626923
-0.0003860964498016983
0.0006979070021770895
0.09569624811410904
-0.019817287102341652
-0.17514635622501373
-0.0031116569880396128
-0.03540448099374771
0.015604441985487938
-0.1386410892009735
-0.0027023188304156065
-0.0010613583726808429
0.0009224917157553136
-0.06072891131043434
0.0002957308606710285
-0.016909092664718628
0.03205619752407074
0.019115587696433067
0.0349990651011467
-0.046473179012537
0.008713874965906143
-0.09070243686437607
-0.06038167327642441
0.012986883521080017
0.04068148508667946
-0.005474017933011055
-0.010070345364511013
0.0016900101909413934
-0.10127300024032593
-0.07027199119329453
0.05818727985024452
0.008287607692182064
-0.034861836582422256
-0.001989908516407013
-0.010520406067371368
0.0018195671727880836
-0.0006863644812256098
-0.010265570133924484
-0.017353901639580727
-0.09434479475021362
0.00773644121363759
0.023507537320256233
-0.030853811651468277
-0.04542502760887146
0.048423416912555695
0.05505160242319107
-0.024636495858430862
0.04189879819750786
-0.03924659639596939
-0.03422054275870323
-1.0736884178186301e-05
0.04821750894188881
0.0861329510807991
0.014553625136613846
-0.01695321872830391
-0.0369318462908268
-0.0012713194591924548
-0.020225167274475098
0.010525910183787346
0.0004602476255968213
-0.07479690760374069
2.5187042410834692e-05
-0.05675048381090164
0.01045895367860794
0.0007810354582034051
0.13426639139652252
-0.017235301434993744
0.00042837305227294564
0.020291903987526894
-0.051344890147447586
0.008456438779830933
-0.00034034467535093427
0.0017488709418103099
-0.00033809326123446226
-0.03661619871854782
-5.503018473973498e-05
0.04221126809716225
-0.042127110064029694
-0.08849453926086426
-0.0008899068343453109
0.00023085123393684626
0.08325131237506866
-0.028664132580161095
-0.007672436069697142
0.05551986023783684
-0.028114615008234978
-0.07523511350154877
-0.04647219181060791
0.10226450860500336
-0.013232476077973843
-0.1127815917134285
-0.008848156780004501
-0.035145070403814316
0.0016788137145340443
0.00018110015662387013
-0.08251649141311646
-0.043099794536828995
-0.03869989141821861
-0.0814528539776802
0.010512523353099823
-0.08354812860488892
0.11141954362392426
-0.0001243580918526277
-0.011549289338290691
-0.014843279495835304
-0.009025810286402702
0.06045626476407051
-0.03903207182884216
-0.12139083445072174
0.006799004971981049
0.0432877391576767
-0.0448148287832737
-0.0858527421951294
-0.06107537820935249
0.11859799921512604
-0.025888359174132347
-0.002021695952862501
-0.01813630387187004
0.020782174542546272
0.04560820758342743
-0.08526065200567245
0.06903638690710068
0.034011196345090866
-0.0003189239650964737
-0.0024803278502076864
-0.048318248242139816
0.013550016097724438
0.0724487230181694
-0.0947556123137474
0.05394856631755829
-0.041759245097637177
-0.06369549036026001
0.0003954931744374335
0.018800092861056328
0.08685190230607986
-0.056135356426239014
0.11240382492542267
-0.03254161775112152
0.08989569544792175
0.05564585700631142
-0.012495545670390129
-0.033180929720401764
-0.0951886996626854
-0.03730066120624542
0.009483794681727886
-0.015338330529630184
0.039792053401470184
-0.020497256889939308
0.008682223036885262
0.08959946781396866
-0.07649245113134384
-0.04978891834616661
0.013746574521064758
-0.0024334394838660955
-0.045310866087675095
0.09598437696695328
-0.010889556258916855
0.04742228239774704
-0.05445586144924164
-0.079921655356884
-0.001280785072594881
-0.0077042472548782825
0.005243693478405476
-0.0037434969563037157
-0.018702812492847443
0.004539051093161106
-0.0002864513371605426
-0.01388942264020443
0.0007583704427815974
-0.055504027754068375
0.19537542760372162
-0.004223051480948925
-0.05193594470620155
-0.024967152625322342
0.05740925669670105
0.01531381905078888
-0.055175211280584335
-0.07817784696817398
-0.08002582937479019
-0.0038197149988263845
0.025063740089535713
-0.0997721403837204
0.043888069689273834
0.007167717907577753
-0.00855211541056633
-0.06645577400922775
0.023307958617806435
0.021588534116744995
0.06674832850694656
-0.05382524058222771
-0.06757552921772003
-0.010876310989260674
-0.09155164659023285
0.011669647879898548
0.01484367623925209
0.11830347776412964
-0.014307722449302673
-0.004385064821690321
-0.03821885585784912
0.002007114700973034
0.041504986584186554
0.00016383799083996564
0.014635689556598663
0.042125385254621506
-0.019533885642886162
0.0016053711296990514
0.004754680208861828
-0.0847884863615036
0.05086997523903847
0.00625243503600359
-0.10611579567193985
0.030575810000300407
0.004789161495864391
-0.02461305633187294
0.02084687352180481
0.0018796318909153342
-0.004641628824174404
-0.10923963040113449
-2.860134009097237e-05
0.05386125296354294
-0.00018998311134055257
-0.03014357201755047
-0.030974941328167915
0.044311266392469406
0.03700882941484451
0.025553980842232704
0.006327757611870766
-0.018347755074501038
-0.08567119389772415
0.034868158400058746
0.019133100286126137
0.0007105492986738682
0.0015974059933796525
-0.04560534656047821
-0.15350547432899475
-0.0246791522949934
0.047035373747348785
0.022096319124102592
0.0035635631065815687
-0.11811292916536331
-0.056802742183208466
-0.018182696774601936
-0.024761507287621498
-0.09491012245416641
-0.015740662813186646
-0.012907412834465504
0.04859163612127304
-0.06890688091516495
0.031406600028276443
-0.02343100681900978
-0.04110698401927948
0.05354418605566025
-0.053046852350234985
-0.1541222333908081
-0.03927784785628319
0.005030966363847256
-0.05693364143371582
0.0022743770387023687
-0.000656488467939198
0.017906611785292625
0.03329658880829811
-0.05156435817480087
0.03735245764255524
-0.07393765449523926
-0.061523426324129105
0.006532796658575535
-0.001998722553253174
0.0014266526559367776
-0.09307842701673508
-0.009391013532876968
-0.0002048790775006637
-0.10614175349473953
0.010131163522601128
0.029585523530840874
0.025600792840123177
-0.03420040011405945
-0.01648637279868126
-0.0009034145623445511
-0.02523452788591385
0.13467758893966675
-0.0016468082321807742
-0.033907122910022736
-0.03731820359826088
0.0007649427861906588
-0.06682547181844711
-0.048982635140419006
-0.03401584178209305
0.046854011714458466
0.05222216621041298
0.0016738559352234006
-0.030205244198441505
0.0005594512331299484
-0.0004491199506446719
0.036698099225759506
-0.06950049102306366
-0.06640003621578217
-0.04186601564288139
-0.04636678472161293
-0.053248610347509384
0.0955582782626152
-0.09241392463445663
-0.05708441138267517
-0.027732906863093376
0.09713325649499893
0.002015936654061079
0.09788653999567032
0.0008122571161948144
-0.05422394350171089
-0.032925400882959366
-0.07997088879346848
-0.05147737264633179
-0.04889832064509392
-0.0022779933642596006
0.028031669557094574
-0.10113309323787689
-0.06350042670965195
-0.020621687173843384
-0.00017553434008732438
0.0729396715760231
0.020591281354427338
-0.0018328819423913956
-0.06099315732717514
-0.019160814583301544
-0.00023786818201187998
-0.06736145168542862
0.014737187884747982
-0.0774800255894661
-0.0017488269368186593
0.01102425530552864
-0.002244248054921627
-0.00579492375254631
0.002136231865733862
-0.0055137937888503075
-0.09636718779802322
-0.013476181775331497
0.0002895966172218323
0.022760843858122826
-0.005562834441661835
0.044534482061862946
0.10042649507522583
-0.0235801562666893
-0.019450772553682327
0.052504073828458786
-0.00014964787987992167
0.08786890655755997
-0.0700831338763237
-0.10974299162626266
-0.03323308378458023
0.05451444908976555
0.004643851891160011
0.0030914826784282923
-0.03205176442861557
0.08057090640068054
-0.03252473101019859
-0.07175413519144058
0.05193858593702316
-0.02107096277177334
-0.013242767192423344
0.0014003929682075977
0.02276138961315155
0.06985694915056229
-0.08777954429388046
0.04567535221576691
0.04587532579898834
-0.06301548331975937
0.018175248056650162
-0.02096797339618206
-0.046179886907339096
0.02174876071512699
0.06355656683444977
-0.005729455500841141
-0.026095909997820854
-0.0003676608903333545
0.020767757669091225
0.09429166465997696
-0.11859097331762314
0.0055900937877595425
-0.037460580468177795
-0.045286279171705246
0.0005492640775628388
-0.0009804286528378725
-0.016683004796504974
-0.02409527637064457
-0.020297707989811897
-0.011750757694244385
-0.01213686354458332
-0.029316091910004616
-0.08037585765123367
0.0005901053082197905
-0.03533506765961647
0.012570932507514954
0.04950214549899101
-0.013396446593105793
-0.0424170084297657
-0.03178801015019417
0.04033290967345238
-0.0634148046374321
-0.004900768399238586
-0.05513784661889076
-0.029063446447253227
-0.04607448726892471
-0.12134194374084473
-0.008762013167142868
0.08086446672677994
-0.0010705016320571303
0.017491262406110764
-0.015298795886337757
-0.04273371398448944
-0.09772287309169769
3.0353387046488933e-05
0.02419203519821167
-0.010479501448571682
-0.010706162080168724
-0.034620098769664764
0.008987478911876678
0.052618127316236496
-0.0013130562147125602
-0.02872101403772831
-0.039645109325647354
-0.0010154418414458632
-0.021429920569062233
-0.0538579523563385
0.00010487682448001578
0.02348330244421959
0.0006106155924499035
-0.011800214648246765
0.025347024202346802
-0.0016755260294303298
0.02735079824924469
-0.015927499160170555
-0.0387750007212162
0.04032282531261444
-0.042130712419748306
-0.056162603199481964
-0.018884578719735146
-0.015620138496160507
-0.048497941344976425
-0.027842627838253975
-0.0030382140539586544
-0.03395990654826164
-0.025813637301325798
0.031109772622585297
-0.047276221215724945
-0.06165102869272232
0.023773198947310448
-0.03596831485629082
0.011982228606939316
-0.033827655017375946
-0.038185302168130875
-0.0010293711675330997
0.01613246463239193
-0.009401312097907066
0.019615119323134422
-0.06925643235445023
0.11827722936868668
0.012517805211246014
-0.06818367540836334
-8.291501580970362e-05
0.1039196103811264
-0.04284786060452461
-0.014962166547775269
0.0001648080797167495
0.025076771154999733
0.033433448523283005
-0.07344605773687363
-0.014757517725229263
-0.015055798925459385
-0.11534372717142105
-0.07231772691011429
0.000906027271412313
0.0316116102039814
0.034331925213336945
-0.002692312700673938
-0.02714526280760765
-0.004957131110131741
0.07902320474386215
-0.00014447270950768143
-0.04872508719563484
0.06035774201154709
0.016916651278734207
-0.013357085175812244
-0.025400469079613686
-0.03794796019792557
-0.025975840166211128
0.02838500775396824
0.03904461860656738
0.004571486264467239
0.0033648768439888954
-0.0010797621216624975
0.010632185265421867
0.013309026136994362
0.010630416683852673
0.01713010109961033
0.02631748467683792
0.006533897016197443
-0.00757393566891551
0.054682180285453796
0.050473399460315704
-0.0729806125164032
0.01047928724437952
-0.04268217831850052
-0.010497651994228363
-0.02462632767856121
0.04317515715956688
-0.08114977180957794
0.007937125861644745
-0.030838211998343468
0.01967799849808216
-0.04447479546070099
-0.05870387703180313
-0.020847221836447716
0.01008758693933487
0.02200217917561531
0.0003217248886357993
-0.0008588511846028268
-0.0922141969203949
0.011418750509619713
0.02891692705452442
-0.01339492853730917
-0.10937204957008362
0.03140832483768463
-0.024643361568450928
-0.00033407777664251626
3.3324467949569225e-05
-0.12969383597373962
0.022567464038729668
-0.0002625590132083744
-0.027743786573410034
-0.0035706795752048492
-0.013526387512683868
-0.008591864258050919
-0.050406333059072495
0.03448748588562012
0.004908094648271799
-0.018534310162067413
-0.00013466012023855
0.16885370016098022
-0.0016834648558869958
-0.037364210933446884
0.0019117341144010425
-0.005002001766115427
-0.020841611549258232
-0.01661587692797184
-0.023205703124403954
-0.057260263711214066
-0.0012324777198955417
-0.03698224201798439
-0.001560658565722406
-0.001084230374544859
-0.01661912351846695
-0.004456824157387018
0.05708032846450806
0.018819130957126617
0.0028418628498911858
-0.0007387340301647782
-0.00010447272507008165
0.07429313659667969
0.01473462488502264
-0.026922086253762245
-0.0008770179119892418
-0.05768616124987602
0.08417534083127975
-0.001752797863446176
0.029657812789082527
0.0003868931671604514
-0.004448737949132919
-0.013090993277728558
-0.008453885093331337
-0.0016841278411448002
0.044700752943754196
0.025704147294163704
0.009612788446247578
0.029851790517568588
0.00010558605572441593
-0.029470643028616905
0.04513669013977051
-0.0008424679399468005
0.05491109564900398
0.07152649760246277
-0.00016888587560970336
-0.04249922186136246
0.04292117431759834
0.03645550087094307
-3.193258817191236e-05
-0.03718292713165283
9.79539763648063e-05
0.00673110643401742
-0.0033856467343866825
0.021245168522000313
0.029013389721512794
-0.059435274451971054
-0.0008241094765253365
0.07544613629579544
0.030262449756264687
0.04912431910634041
0.10841874778270721
-0.01995161548256874
-0.08169381320476532
-0.06279914081096649
0.03700217232108116
0.02698889560997486
0.07527033984661102
-0.022270353510975838
-0.027163075283169746
-0.020040035247802734
-0.0010674480581656098
0.00022749108029529452
0.01430810522288084
0.0048153637908399105
0.08335735648870468
-0.021268317475914955
0.06850427389144897
0.011879154480993748
0.023574739694595337
-0.0011421629460528493
0.11610749363899231
-0.029054541140794754
-0.04116867855191231
0.05471593141555786
0.050134435296058655
0.04645364359021187
-0.007668964099138975
0.011502868495881557
0.012488773092627525
0.024581678211688995
-0.028851475566625595
-0.028900133445858955
0.03886963799595833
-6.389880581991747e-05
0.005274696741253138
-0.03159355744719505
0.05645492672920227
0.031426314264535904
-0.012314600870013237
0.028008731082081795
-0.0015304345870390534
0.00031787529587745667
-0.05899897962808609
0.006091941613703966
0.037948910146951675
0.008300536312162876
0.02165825106203556
0.14832766354084015
0.02184603363275528
-0.0012925659539178014
0.11280083656311035
0.14348824322223663
-0.05363898724317551
0.12624816596508026
-0.03288251906633377
-0.06926628202199936
-0.024630578234791756
0.04104297608137131
-0.05510701984167099
-0.03708163648843765
0.034458283334970474
0.0743904784321785
0.09154365211725235
-0.10994575917720795
-0.021198362112045288
-0.05063452571630478
0.07216653972864151
-0.0572139210999012
-0.020625295117497444
0.036944616585969925
-0.00020861126540694386
-0.061617039144039154
-0.009230772033333778
0.06850383430719376
0.130956768989563
0.02124345488846302
0.049563564360141754
0.0006283348193392158
-0.11956031620502472
0.04547487944364548
-0.006522780284285545
0.008599018678069115
-0.16795456409454346
-2.396258059889078e-05
0.031070444732904434
0.003159241285175085
-0.007477120961993933
0.0035758991725742817
-0.0023176255635917187
0.0025299862027168274
0.10336965322494507
0.06318700313568115
-0.061054326593875885
-0.00282271602191031
-0.030532505363225937
-0.10889700800180435
5.62500372325303e-06
-0.07238630205392838
-0.1015348955988884
0.08662109076976776
-0.013451083563268185
-0.02585761807858944
0.08737995475530624
-0.022109033539891243
0.14035387337207794
-0.012237852439284325
0.12495920062065125
-0.04434590041637421
-0.011605608277022839
0.08369570970535278
-0.03134026378393173
-0.04071468859910965
0.02753068320453167
-0.06905921548604965
0.027262916788458824
-0.09052617847919464
0.01217176578938961
-0.04128190129995346
0.0017763079376891255
-0.027070462703704834
0.07299764454364777
-0.02469726651906967
0.0013717449037358165
0.0582561269402504
-0.03092305362224579
0.04266127198934555
0.0086154630407691
0.010464547201991081
0.059717144817113876
-0.012596018612384796
-0.10914584994316101
-0.0873354896903038
-0.09692389518022537
-0.0009312161710113287
0.11842907965183258
-0.0059535447508096695
-0.051994845271110535
-0.0008078230312094092
-0.02562616392970085
-0.07104266434907913
0.16751278936862946
-0.005955939646810293
-0.039769649505615234
0.025366485118865967
-0.07701698690652847
-0.01634187251329422
-0.017611263319849968
0.006153488531708717
0.00224223081022501
-0.0017353208968415856
-0.01806008070707321
0.0683794915676117
-0.022355079650878906
0.004435122013092041
0.07158751040697098
-0.1124422699213028
-0.006375026423484087
0.03797699511051178
0.037804991006851196
0.14274060726165771
-0.08871397376060486
0.11611370742321014
-0.0018803481943905354
-0.027912216261029243
-0.0020241185557097197
-0.0648951455950737
-0.009782128967344761
-0.0027016422245651484
0.006836474873125553
-0.09115581959486008
0.004471763968467712
-0.0985475480556488
-0.08691409975290298
-0.006083786021918058
-0.00020955807121936232
0.0005451547331176698
0.16482175886631012
-0.02968013659119606
-0.16345147788524628
-0.08271908760070801
-0.010812525637447834
-0.030429566279053688
-0.020076312124729156
-0.000676370516885072
-9.318013098891242e-07
0.09392295032739639
-0.022488320246338844
0.0004669864138122648
-0.0477706715464592
-0.02100875973701477
0.01005085650831461
-0.03701666370034218
0.0019732662476599216
-0.021822597831487656
-0.017830796539783478
-0.0582481287419796
0.07469534873962402
-0.10147324204444885
-0.019310271367430687
-0.054520606994628906
6.222171577974223e-07
-0.0637458860874176
-0.05434346944093704
-0.021170075982809067
0.05690087750554085
0.14709225296974182
-0.002058027544990182
0.0039549171924591064
9.289467561757192e-05
-0.0017700877506285906
0.019423415884375572
-0.055371951311826706
-0.12444037199020386
-0.0010004923678934574
-0.03021135926246643
-0.1170242428779602
-0.023651298135519028
-0.07776644080877304
-0.04818032309412956
0.07452321797609329
0.08291959762573242
0.06219620630145073
-0.03539977967739105
-0.00021236865723039955
-0.09260627627372742
-0.06607925146818161
0.02981366589665413
-0.0011947405291721225
0.011787252500653267
0.0006173243746161461
0.11989115923643112
-0.03176324814558029
-0.023563286289572716
-0.03413695469498634
9.564324864186347e-05
-0.07934457063674927
-0.025082819163799286
2.32656930165831e-05
0.06280484050512314
-0.07243143767118454
0.0008573278901167214
-0.0849054679274559
-0.07464022934436798
-0.03990897536277771
-0.001654585124924779
-0.04842671379446983
0.0020380334462970495
-0.0949953943490982
-0.001519407844170928
-0.03322923183441162
-0.044932883232831955
0.010666878893971443
0.0006228762213140726
-0.020187148824334145
-0.08343084156513214
-0.03962279111146927
-0.03333977609872818
0.038066815584897995
0.08244362473487854
-0.009250037372112274
0.05048174038529396
-0.0612029992043972
-0.0861138254404068
-0.008069376461207867
0.12689770758152008
-0.014341036789119244
0.0025500773917883635
-0.0012685966212302446
-0.0003983265778515488
-0.01554401870816946
-0.10753437876701355
-0.05181214585900307
0.03889588639140129
-0.06582614034414291
0.022539274767041206
-0.0021609945688396692
-0.05398247763514519
0.0852966159582138
0.08080058544874191
0.1311907172203064
-0.053259920328855515
-0.13886019587516785
-0.0316242091357708
0.016140107065439224
-0.05467703565955162
-0.052393265068531036
0.012862080708146095
0.11125773936510086
-0.09186923503875732
0.0016621943796053529
-0.003221014281734824
-0.012230717577040195
-0.08574794232845306
-0.06885174661874771
0.006752353627234697
-0.07590782642364502
-0.0019444248173385859
-0.0007283008890226483
-0.06784868985414505
-0.004473385866731405
-0.04360288009047508
-0.04250887781381607
0.033596985042095184
0.09797409176826477
-0.015496193431317806
-0.00038560968823730946
0.010228628292679787
0.12335231155157089
0.039236538112163544
-0.0010687382891774178
0.06623374670743942
0.05821472406387329
0.07538165152072906
-0.03691158443689346
-0.035522326827049255
-0.0010015105362981558
-0.04342128336429596
0.08401815593242645
-0.00747495424002409
0.034403443336486816
-0.044002726674079895
-0.06295169144868851
0.04914219304919243
-0.041341766715049744
-0.05197810381650925
0.12480198591947556
-0.0007616441580466926
-0.07691486179828644
-0.01984342187643051
0.010535018518567085
0.009273790754377842
0.043798599392175674
-0.10669362545013428
-0.00016605365090072155
-0.046962521970272064
0.05377667397260666
-0.018480423837900162
-0.0064095682464540005
-0.03710726276040077
-5.2389023039722815e-05
-0.012010693550109863
-0.002801892114803195
0.013243081048130989
0.032718561589717865
-0.0020877651404589415
-0.04131466522812843
-0.04575292393565178
0.019286438822746277
0.11654066294431686
0.1111065149307251
0.030867578461766243
-0.10293349623680115
-0.08587097376585007
-0.07674415409564972
-0.04371989145874977
0.06889133900403976
-0.02058861404657364
-0.054145485162734985
0.08284307271242142
0.016079680994153023
-0.009269408881664276
-0.06209080293774605
-0.0018456339603289962
-0.003944946452975273
-0.0959017276763916
-0.04188769683241844
-0.055640798062086105
-0.045773427933454514
0.12119581550359726
-0.06599868834018707
-0.052940528839826584
-0.023791180923581123
-0.08612803369760513
0.06676775962114334
-0.00028015163843519986
-0.03677133098244667
-0.05179315432906151
-0.07550747692584991
-0.0007871007546782494
0.013816582970321178
-0.015012488700449467
-0.050060294568538666
-0.011234227567911148
-0.03515231981873512
0.0017710593529045582
0.060254134237766266
-0.06225898861885071
-0.1217111125588417
-0.06336914002895355
0.003249771660193801
0.023986980319023132
-0.0039659179747104645
0.05070682615041733
0.0001953815808519721
-0.055351149290800095
-0.10557270050048828
0.08396729826927185
-0.0955718457698822
-0.02828945778310299
-0.0013388041406869888
-0.01953824982047081
-0.018015187233686447
-0.05471627041697502
0.03788648918271065
0.0002763249503914267
0.0021403345745056868
-0.013253781013190746
-0.012068153358995914
-0.05060999095439911
0.014720890671014786
-0.028199894353747368
0.17876771092414856
0.009376652538776398
-0.10645787417888641
-0.017552785575389862
0.1455133706331253
-0.07449524104595184
0.05317481607198715
-0.03687550872564316
0.03971941024065018
0.023291584104299545
0.1189001128077507
0.043772753328084946
0.004479292780160904
-0.015968123450875282
0.038393713533878326
0.06340156495571136
-0.08052214235067368
-0.06001925468444824
-0.10405592620372772
0.0011784732341766357
-0.001560300006531179
0.12715768814086914
-0.016039960086345673
-0.0669039785861969
-0.08971460908651352
-0.0382511131465435
-0.16089271008968353
0.0012647982221096754
0.0003498905280139297
0.000742248201277107
0.0052030570805072784
-0.020954487845301628
0.0008239052840508521
0.009192212484776974
-0.026106873527169228
0.11836487799882889
-0.04831783100962639
-0.029256116598844528
0.14067251980304718
-0.007441973313689232
-0.04367101937532425
0.14830541610717773
-0.024252349510788918
-0.0661887526512146
-0.016122842207551003
-0.0009378337417729199
-0.0146185252815485
-0.014808375388383865
0.04255065321922302
0.0289140772074461
0.060971274971961975
-0.0008029561140574515
-0.0011331243440508842
-0.0008183675236068666
-0.0010293549858033657
0.031245246529579163
-0.0311734676361084
-0.07715123891830444
-0.05942567065358162
-0.024837302044034004
-0.040683068335056305
0.014990197494626045
-0.06171492114663124
0.06417910009622574
-0.06492383033037186
-0.03724941983819008
0.07092374563217163
-0.2033279836177826
-7.035400631139055e-05
-0.052654094994068146
0.057682111859321594
-0.053975705057382584
-0.03227847069501877
0.04149434715509415
-0.0006633310113102198
0.005457513500005007
-0.05919428542256355
-0.07010337710380554
0.05507338419556618
0.0005857078940607607
-0.07640540599822998
-0.03586322069168091
0.00020883687830064446
0.004085524473339319
0.173728808760643
-0.0004199687100481242
-0.047192949801683426
0.11235138028860092
-0.026005012914538383
-0.0007809937233105302
-0.020229792222380638
-0.0003081451868638396
-0.055877719074487686
-0.0006089398520998657
-0.031769365072250366
0.03457234054803848
0.05583757907152176
0.0010423484491184354
0.06157825142145157
-0.04150516539812088
0.017307238653302193
0.03662315756082535
0.0406755693256855
-0.0586606003344059
0.06229447200894356
-0.05843030661344528
-0.02663053199648857
0.013696253299713135
-0.030110133811831474
0.05540581792593002
-0.07788347452878952
-0.000904132321011275
-0.0006153276190161705
-0.07734537869691849
-0.028109418228268623
0.15259839594364166
-0.039080891758203506
0.14245106279850006
0.04294973611831665
0.06372085958719254
0.0010837806621566415
-0.04455958306789398
-0.015868300572037697
-0.03221640735864639
0.024627692997455597
-0.043254461139440536
-0.05394098162651062
-0.016917554661631584
0.1267547607421875
-0.02684706635773182
0.03694140166044235
-0.04263037443161011
0.054571833461523056
-0.0622933954000473
0.0033192839473485947
0.007887466810643673
0.03958398103713989
-0.05036184564232826
-0.05099983140826225
-0.01474015787243843
-0.03972916677594185
-0.0007969102589413524
-0.00016994487668853253
0.11034651100635529
-0.0037014747504144907
-0.06073752045631409
0.08614537119865417
0.022089406847953796
0.003440449247136712
0.040121257305145264
0.0005051054176874459
-0.03213011100888252
0.0025763502344489098
-0.05108562111854553
-0.007376579567790031
-0.06389307975769043
-0.031614430248737335
-0.06734729558229446
-0.006238419096916914
-0.052937500178813934
-0.041829198598861694
-0.028066884726285934
0.003198473248630762
-0.03261920437216759
0.02760503441095352
-0.04697059839963913
-0.03377063199877739
0.023798270151019096
0.013188195414841175
-0.01899069920182228
-0.05919898301362991
-0.0066038030199706554
-0.022975854575634003
-0.06333322823047638
0.032070618122816086
-0.054043691605329514
-0.00198197178542614
0.006096917670220137
-0.0013183514820411801
-0.07970816642045975
-0.05826839059591293
-0.0023046464193612337
-0.019140200689435005
0.022541742771863937
0.0003511999675538391
-0.024291306734085083
-0.0022322451695799828
-0.01637236215174198
-0.02110094204545021
-0.0009873089147731662
-0.002194795059040189
0.0004468827974051237
-0.0706307515501976
-0.03532298281788826
-0.03349822014570236
-0.11425895988941193
0.016158897429704666
-0.04852364584803581
0.05535982921719551
0.0611836239695549
0.029600240290164948
-0.01942194625735283
0.013320078141987324
0.02450438216328621
-0.0635453537106514
-0.051150090992450714
-0.12279712408781052
0.031494613736867905
0.018194347620010376
-0.09949941188097
-0.03315379470586777
-0.010221059434115887
-0.0571441650390625
-0.01928240992128849
-0.013567516580224037
-0.014168337918817997
-0.03077944926917553
0.03221885859966278
-0.0817096158862114
0.00036888636532239616
0.02345402166247368
0.011436338536441326
0.02618086338043213
-0.0020774875301867723
-0.028319967910647392
0.024776529520750046
-0.04071783274412155
0.005592542700469494
0.08954980224370956
0.0179680734872818
0.06303947418928146
0.05740523710846901
-0.10456686466932297
0.03663404658436775
0.00048043043352663517
0.015814313665032387
-0.0010970705188810825
-0.056131478399038315
0.0003115551662631333
-0.038379497826099396
0.042912669479846954
0.10332869738340378
-0.024578215554356575
-0.05097285285592079
-0.03141775727272034
0.006874288432300091
0.06863366067409515
0.029419897124171257
0.12063442915678024
0.001134399208240211
-0.0013243522262200713
-0.04534738138318062
0.05768869072198868
-0.05066143348813057
-0.08738265186548233
0.013842654414474964
-0.07579630613327026
-0.05311546102166176
-0.058134716004133224
0.03331274539232254
-0.007927550002932549
-0.02690376527607441
-4.8674221034161747e-05
0.10173192620277405
0.025384148582816124
0.011322137899696827
-0.01420421153306961
-0.04110430181026459
-0.020991183817386627
-0.01651635579764843
-0.0809360221028328
-0.025173470377922058
0.012553541921079159
0.015591712668538094
-0.061877697706222534
-0.00028137568733654916
-0.0007318187854252756
-0.07080281525850296
-0.00925708282738924
-0.014786693267524242
-0.0024969240184873343
-0.007346163969486952
0.016895463690161705
-0.0426386259496212
-0.001462149783037603
-0.0008807741105556488
-0.058720387518405914
-0.00996022392064333
-2.905174551415257e-05
-0.09342584013938904
-0.058936286717653275
-0.07101330906152725
-0.01820226013660431
-0.02524307370185852
-0.07723883539438248
0.12206507474184036
-0.11546116322278976
-0.060185398906469345
-0.004004467744380236
-0.041845329105854034
-0.04437817260622978
0.0006535082939080894
-0.06412510573863983
-0.018597790971398354
0.05382312089204788
-0.05781370773911476
-0.04791627824306488
-0.0009537958540022373
-0.034295130521059036
0.0012134365970268846
-0.005514128133654594
0.04499862343072891
-0.021537840366363525
0.08624633401632309
0.041909728199243546
0.07995524257421494
0.10376852750778198
-0.0042333281598985195
0.05081264302134514
0.038675300776958466
-0.047076720744371414
-0.001159878447651863
-0.03156782314181328
0.02627246081829071
0.0005053992499597371
0.11648094654083252
0.011752932332456112
-0.0016389398369938135
-0.09471515566110611
-0.15966153144836426
0.0011057080700993538
-0.04486258327960968
-0.024627691134810448
0.12779831886291504
0.007757675834000111
0.0005512949428521097
-0.052907973527908325
0.023693988099694252
-0.0014704373897984624
0.006541716866195202
0.021273599937558174
0.0006304684793576598
-0.008019753731787205
-0.0815625786781311
-0.02506267838180065
-0.0010308821219950914
0.10832822322845459
-0.0007331545348279178
-0.07207375019788742
-0.00180249591358006
0.11339480429887772
-0.048909641802310944
-0.023281972855329514
-0.0002921683480963111
-0.0422690212726593
0.012189592234790325
-0.047401703894138336
-0.007044671103358269
-0.02361535094678402
-0.10372155904769897
-0.07514433562755585
0.011329088360071182
-0.032617948949337006
0.02045530267059803
-0.017494695261120796
-0.031244928017258644
-0.019538510590791702
0.0005587016930803657
-0.0011322071077302098
-0.02412128634750843
-0.025793978944420815
-0.0513857901096344
-0.12415507435798645
0.01869334653019905
0.04098759591579437
-0.05459607020020485
-0.0031288163736462593
0.022094445303082466
-0.038996823132038116
0.015838298946619034
0.027173373848199844
-0.06324197351932526
-0.07895861566066742
-0.016658883541822433
0.06548837572336197
0.14100056886672974
0.11785977333784103
0.005458790808916092
0.01374873984605074
0.058239903301000595
-0.0005515217198990285
-0.012172229588031769
0.012308857403695583
0.04005279392004013
-0.05375444516539574
0.03160914033651352
-0.02650986798107624
0.0011734969448298216
0.0004641315317712724
-0.021314626559615135
0.0064767589792609215
-0.0020597116090357304
-0.03899388015270233
-0.014791972935199738
0.05913923308253288
-0.012963694520294666
-7.353731780312955e-05
-0.01831441931426525
0.04794687032699585
-0.05786491930484772
0.06428848206996918
-0.016663217917084694
-0.035128213465213776
0.1118912547826767
-0.026843447238206863
-0.01780313067138195
-0.034341588616371155
-0.02967039868235588
0.09173991531133652
-0.040714818984270096
0.007432515732944012
0.0924665704369545
-0.037639450281858444
-0.09324026852846146
-0.15709932148456573
-0.11276426911354065
0.03475483879446983
0.0013437323505058885
-0.02980446070432663
0.040271397680044174
0.028751498088240623
0.04531238600611687
0.10317007452249527
0.1110379546880722
-0.0012529889354482293
0.007923801429569721
-0.023394417017698288
-0.002165550831705332
0.004314605612307787
0.02289998158812523
0.00047154794447124004
-0.03896092623472214
0.0016196699580177665
0.00809786282479763
-0.016469934955239296
0.0020763808861374855
0.04207523539662361
0.015353802591562271
0.050043847411870956
0.0779666155576706
0.04471789672970772
-0.03003271296620369
-0.13251489400863647
-0.11353247612714767
-0.12450031191110611
-0.1368843913078308
0.023116925731301308
-0.01746021956205368
-0.016714587807655334
0.0003156565362587571
0.05508013069629669
0.06352546066045761
-0.0389278307557106
0.07451225817203522
0.027501428499817848
0.027941228821873665
0.12461837381124496
0.022427735850214958
0.10712647438049316
0.035204675048589706
-0.017765581607818604
-0.06690269708633423
0.10923196375370026
-0.06199411675333977
0.0825825035572052
-0.0020147289615124464
-0.18173398077487946
-0.02954578958451748
-0.033796150237321854
0.0016177307115867734
0.004397985991090536
-0.1432059407234192
0.08321405947208405
-0.014219962060451508
0.02579033561050892
-0.29843705892562866
0.09377548098564148
-0.15333567559719086
0.1180381178855896
-0.10417921096086502
0.0021295470651239157
0.01154085248708725
0.004375862888991833
-0.0217036921530962
-0.0010096161859109998
-0.007456437684595585
0.07246606051921844
0.1391749382019043
0.08337809145450592
0.05305655673146248
0.0037922142073512077
-0.057406093925237656
0.06248512119054794
0.12215008586645126
-0.027606159448623657
-0.004330632276833057
0.0015392785426229239
-0.13322393596172333
0.05741412565112114
0.06880569458007812
0.008036932907998562
-0.02458196133375168
0.06536028534173965
0.019222784787416458
-0.008073902688920498
0.07857054471969604
0.05615616589784622
0.03163667395710945
-0.02382615953683853
0.0315135233104229
0.004590554162859917
0.0779477134346962
0.009869176894426346
-0.07702796161174774
-0.0019711414352059364
-0.07330653816461563
0.033299751579761505
0.060900427401065826
-0.029775049537420273
0.023031577467918396
0.040862295776605606
-0.0012642458314076066
0.0018205096712335944
0.166228249669075
-0.030806737020611763
-0.06626527011394501
0.006022019777446985
-0.06449060887098312
0.05833195894956589
0.020177925005555153
-0.00019472640997264534
0.0010034084552899003
0.12078184634447098
-0.033252883702516556
-0.00010783103061839938
-0.004128944594413042
0.11167708039283752
0.1697722226381302
-0.0785856768488884
0.07013051211833954
0.07785245031118393
0.07735345512628555
0.08323030918836594
0.03036043606698513
-0.008984997868537903
-0.0708613395690918
-0.09278129786252975
0.00045525614405050874
0.04548386484384537
-0.009247379377484322
-0.0383109487593174
0.0025566341355443
-0.00835434626787901
-0.0006815808592364192
0.11977503448724747
-0.00022398353030439466
0.0005546087049879134
0.011792079545557499
0.06117323040962219
-0.006528021302074194
0.06050108000636101
0.021773625165224075
-0.09766709059476852
-0.04120798036456108
0.034681692719459534
0.13464263081550598
0.02610120177268982
-0.06362652778625488
-0.008132204413414001
0.1170988529920578
0.00025323961745016277
0.02338375151157379
0.09406575560569763
-0.0016228033928200603
0.06304453313350677
0.05931678041815758
-0.0013047850225120783
0.039944566786289215
0.007479983381927013
0.05144965276122093
0.06404697895050049
0.00017953739734366536
-0.024626830592751503
-0.1221332848072052
0.00024294511240441352
0.15332049131393433
0.011023333296179771
0.00022691080812364817
0.09061465412378311
0.1331099569797516
0.052455395460128784
0.00041533925104886293
0.052629996091127396
-0.0006026442861184478
-0.02124064415693283
-0.0001360798632958904
-0.09047488868236542
-0.058120790868997574
-0.03501986339688301
-0.002437383169308305
-0.009891362860798836
-0.03879617899656296
0.043425701558589935
0.0865185484290123
0.05961645022034645
0.10639873892068863
-0.006859275046736002
-0.004705206956714392
0.054228298366069794
-0.06618448346853256
0.1382637619972229
0.06902264058589935
0.0884130671620369
-0.004679464269429445
-0.00040563708171248436
0.035043150186538696
0.05144842341542244
0.05072465538978577
-0.04796978086233139
0.07061818242073059
-0.1645132303237915
0.07353489845991135
0.0018541235476732254
-0.0007912350702099502
0.011593067087233067
-0.0008011610480025411
0.08540177345275879
0.018780343234539032
0.0008949171169660985
-0.0003628698759712279
0.09989628195762634
0.05383535474538803
-0.10923146456480026
0.045178890228271484
0.10331665724515915
-0.011422326788306236
0.00011442903632996604
0.014492668211460114
0.061843935400247574
0.0035184365697205067
-0.05283059924840927
0.09220831841230392
0.14996078610420227
-0.0018276521004736423
0.0013737613335251808
-0.009869030676782131
0.017260780557990074
0.04519059509038925
0.03480565920472145
0.015700334683060646
-0.05728856101632118
-0.010914863087236881
-0.000849213742185384
0.028421029448509216
0.04562610015273094
0.012444711290299892
0.06317267566919327
-0.01647927239537239
-0.003369096666574478
-0.04531655088067055
-0.027254829183220863
-0.016630791127681732
-0.046745263040065765
-0.08064904063940048
0.03502241522073746
-0.04986004903912544
-0.0091560622677207
-0.04387965053319931
0.014899661764502525
-0.035210512578487396
-0.08711866289377213
-0.008348099887371063
-0.05100128799676895
0.0003638498019427061
-0.06728339940309525
0.02324177697300911
0.11238092184066772
-0.05618735030293465
-0.05038266256451607
0.0745120719075203
0.0017319094622507691
0.0082792267203331
0.026773585006594658
0.0036280513741075993
-0.0035859383642673492
-0.005071415565907955
0.00029423506930470467
0.018627766519784927
0.0013142108218744397
-0.007896478287875652
-0.049703143537044525
0.0013504400849342346
-0.08800840377807617
0.06359977275133133
0.009233923628926277
0.01605634018778801
0.0062113599851727486
0.01585741527378559
-0.014592086896300316
-0.0032393974252045155
0.018933314830064774
0.034512512385845184
0.0716334655880928
-0.07349804043769836
-0.004029002506285906
0.006976985838264227
0.01361064799129963
-0.051029324531555176
-0.039311353117227554
-0.052049167454242706
-0.007998556829988956
-0.0630088672041893
0.12486417591571808
-0.032987575978040695
-0.007326560560613871
0.03636336326599121
0.06435148417949677
-0.034566715359687805
0.07654514163732529
0.019136695191264153
-0.10726116597652435
-0.0010281517170369625
-0.024217000231146812
0.028360318392515182
-0.11666479706764221
-0.00037676311330869794
0.01767391711473465
-0.1433974951505661
0.0642993226647377
-0.03705871105194092
0.050300490111112595
0.03612501546740532
0.028391854837536812
-0.010860111564397812
-0.06057053059339523
0.00396944023668766
-0.002322654938325286
0.007268630433827639
-0.0024605453945696354
0.0027162712067365646
-0.00039050279883667827
-0.01929488778114319
-0.015411343425512314
0.11919577419757843
0.019708523526787758
-0.0015937314601615071
-0.0067514595575630665
-0.03473072499036789
-0.07247510552406311
-0.013336640782654285
0.07304799556732178
-0.011990122497081757
0.0011624003527686
-0.10557536780834198
0.04141451045870781
-0.053947314620018005
0.01049052830785513
-0.005287636071443558
-0.09256286174058914
0.0104617178440094
-0.04761946201324463
0.01934858225286007
-0.027829451486468315
-0.04265066981315613
-0.09926147013902664
0.02803291194140911
-0.02764750085771084
-0.11121083050966263
0.03271748870611191
-0.05872625485062599
-0.07673263549804688
0.04442800581455231
-0.08311042189598083
0.061515599489212036
-0.0173405222594738
0.06809127330780029
-0.10365939140319824
-0.00011432989413151518
0.000453756598290056
0.11643686890602112
0.07879113405942917
-0.010317260399460793
-0.011953734792768955
-0.05534905567765236
0.09549348056316376
-0.09587230533361435
-0.0012490252265706658
-0.0016777714481577277
-0.012367399409413338
-0.008967103436589241
0.0005963183357380331
-0.08820255100727081
0.08720646053552628
-0.10597977787256241
0.09033384919166565
-0.044614966958761215
0.03484266996383667
-0.07803985476493835
0.0002462069969624281
0.04712125286459923
0.019149400293827057
-0.0398339182138443
-0.11399068683385849
-0.0011960376286879182
-0.0024513627868145704
0.03578836843371391
0.03061874397099018
0.0637788474559784
-0.06009785458445549
-0.0014898459194228053
-0.021711377426981926
-0.001052234903909266
-0.0005644827615469694
-0.042721349745988846
-0.06650422513484955
-0.05284641310572624
0.040938589721918106
0.07751253992319107
-0.06360484659671783
-0.011481075547635555
-0.07934921234846115
0.0114798154681921
-0.053241219371557236
0.0599747858941555
-0.05385538563132286
0.07837945222854614
0.0018188435351476073
0.013967755250632763
0.03625458851456642
0.055581606924533844
-0.045041631907224655
0.03422264754772186
-0.0014215208357200027
-0.06369233131408691
-0.05585291236639023
-0.0219911877065897
-0.03181229531764984
0.0005921533447690308
0.06982764601707458
0.005961309652775526
0.0005093289655633271
-0.026362832635641098
-0.025887640193104744
0.0002826365234795958
-0.04745721071958542
0.023646749556064606
-0.03337709978222847
0.00019798841094598174
-0.042979370802640915
0.00032858620397746563
-0.01939140073955059
-0.0007732890662737191
0.05855214223265648
-0.02971823699772358
0.0027316489722579718
-0.0003740919637493789
-0.018563635647296906
0.0633380115032196
-0.025902843102812767
0.05403517931699753
0.007463013753294945
-0.06743158400058746
-0.03623387590050697
-0.006799584720283747
0.02100491151213646
0.011119037866592407
0.06961581856012344
-0.005849248729646206
-0.04894804581999779
-0.004370000679045916
-0.00046148194815032184
-0.04091213643550873
0.04315391182899475
-0.0351635180413723
-0.014710069634020329
0.11855509132146835
-0.12861889600753784
0.04239350184798241
0.0005534953088499606
-0.025460252538323402
0.05014530196785927
0.04293601214885712
0.050594449043273926
-0.12294510006904602
0.025964556261897087
-0.026147760450839996
-0.009699594229459763
0.05601874366402626
0.04690403491258621
-0.01820329576730728
0.053824614733457565
-0.02010047435760498
-0.0015063716564327478
0.01057298481464386
0.07807214558124542
-0.026426415890455246
-0.09275400638580322
-0.06658287346363068
0.04907345026731491
-0.0011790714925155044
-0.000735388312023133
-0.018779220059514046
0.008546991273760796
-0.01865077018737793
-0.007002611178904772
-0.046415913850069046
-0.013722829520702362
-0.026080403476953506
-0.00042019246029667556
0.015387268736958504
0.051783036440610886
-0.08149338513612747
0.05490046367049217
0.028729993849992752
-0.015881599858403206
-0.07901059836149216
-0.04975927248597145
-0.09023106098175049
-0.043819669634103775
-0.09174187481403351
0.016922151669859886
-0.032901864498853683
0.03413698822259903
-0.07611746340990067
0.0037234195042401552
0.024545973166823387
-0.054878201335668564
-0.08208692073822021
-0.05342181771993637
-0.001374514657072723
-0.020654676482081413
0.035939112305641174
0.021602237597107887
0.028315724804997444
-0.020992115139961243
0.10145219415426254
0.0003347937890794128
0.053029052913188934
0.01879805512726307
-0.007648306433111429
0.03256223723292351
0.02487771213054657
0.0002546848845668137
-0.04994582757353783
-0.004755145404487848
-0.011609446257352829
-0.03583017364144325
-0.0009543378255330026
0.047157853841781616
0.08857055008411407
0.12580473721027374
0.03765281289815903
0.06019210070371628
-0.04290672019124031
-0.010413818061351776
0.06337475031614304
0.04853912442922592
0.040299609303474426
0.07444225251674652
-0.050687991082668304
-0.044505536556243896
-0.04225359857082367
0.020771224051713943
-0.018381888046860695
0.01015527080744505
-0.040217507630586624
-0.024760691449046135
0.09274570643901825
0.06826808303594589
-0.019830141216516495
0.017155498266220093
0.0403989814221859
0.05123302713036537
-0.058544281870126724
-0.0037030575331300497
0.050229694694280624
-0.0016493592411279678
0.000662940728943795
0.022075723856687546
0.10738830268383026
-0.005757323931902647
0.0003576281014829874
0.08477538824081421
-0.043856266885995865
0.09050347656011581
-0.004664344247430563
-0.018150554969906807
0.09328991174697876
-0.0033375900238752365
0.02738630399107933
-0.04333334043622017
-0.0029104857239872217
-0.0003963631752412766
0.027952905744314194
0.0021791839972138405
-0.027823379263281822
-0.0015415000962093472
-0.027334503829479218
0.05245068296790123
0.10808451473712921
0.03636971488595009
-0.021186325699090958
0.009146293625235558
-0.011428412050008774
-0.04385866969823837
0.0061947996728122234
0.04793914780020714
-0.0019075610907748342
8.578303823014721e-05
-0.04069909453392029
0.02163192257285118
-0.01800748147070408
0.06736760586500168
-0.00106491066981107
-0.026539888232946396
-0.01516801118850708
-0.06376193463802338
-0.013325386680662632
0.06148688122630119
-0.03348506987094879
-0.030148493126034737
0.029274914413690567
-0.03150724247097969
-0.01090015098452568
-0.0029659613501280546
-0.08926066011190414
-0.05006401240825653
0.07819905132055283
-0.002477554604411125
-0.031530871987342834
-0.08172647655010223
0.03489056974649429
-0.0008164378232322633
-0.0006777300150133669
-0.0008801540825515985
0.009393732063472271
0.04740596190094948
0.024519065394997597
0.07258018851280212
-0.0866437628865242
-0.03036605380475521
-0.047303345054388046
-0.00013405850040726364
-0.0005478287348523736
-0.0918399915099144
0.022088123485445976
5.116520696901716e-05
-0.041438668966293335
0.05569327622652054
-0.09058748930692673
0.07485030591487885
-0.002543180249631405
-0.030947109684348106
-0.028456930071115494
0.005802730098366737
0.02738855965435505
0.03976742923259735
-0.1176065132021904
-0.12904754281044006
-0.002132002729922533
0.021000748500227928
-0.03607327491044998
0.0484057292342186
0.07069142162799835
-0.035674385726451874
-0.0008376231417059898
-0.05935518816113472
-0.0009740789537318051
0.004148157313466072
-0.02352651208639145
0.009770648553967476
-0.005119394510984421
0.0027226335369050503
0.009920763783156872
-0.06543081253767014
0.034786198288202286
0.020080743357539177
-0.01841741055250168
-0.050208669155836105
0.03977420926094055
0.03227494657039642
0.12177865207195282
-0.0017626085318624973
-0.03239903226494789
0.010603717528283596
0.043339625000953674
0.005989755503833294
-0.011689440347254276
8.544742740923539e-05
-0.04181811213493347
0.05743652582168579
-0.030354075133800507
0.003856471972540021
-0.00019955098105128855
0.09371200203895569
0.03629295155405998
5.147978299646638e-06
0.014094511978328228
-0.035859834402799606
-0.0006766897859051824
-0.010955161415040493
0.0340687520802021
-0.06655781716108322
-0.00014880119124427438
-0.04256084933876991
-0.0032085170969367027
-0.021080952137708664
0.0022496129386126995
-0.029043683782219887
-0.013571827672421932
0.03853262588381767
-0.002214064123108983
0.012120152823626995
0.05457628518342972
0.02880139648914337
0.06431546807289124
0.02410697564482689
-0.028700081631541252
-0.00039175813435576856
0.1155000850558281
0.051425740122795105
-0.028407081961631775
0.07247531414031982
-0.0255233533680439
-0.05146773159503937
-0.0049743386916816235
-0.0006558268214575946
0.0025034896098077297
0.051590923219919205
-0.06529466807842255
-0.042296554893255234
0.030425522476434708
-0.13817237317562103
0.08963336795568466
-0.00044178328244015574
-0.0022985427640378475
0.0871877670288086
0.022630881518125534
0.08891039341688156
0.02896696887910366
-0.011008205823600292
0.014681197702884674
-0.015500728972256184
0.022865770384669304
-0.042036645114421844
0.016532421112060547
0.02268150821328163
0.09511213004589081
0.0016326713375747204
-0.009449188597500324
0.023472078144550323
0.05643851310014725
-0.06391291320323944
-0.0019283752189949155
0.08810319006443024
0.0004798449226655066
-0.0016572880558669567
-0.026846962049603462
0.005890374071896076
0.02502387948334217
0.0034485491923987865
-0.06079895794391632
0.004601797088980675
0.042689766734838486
0.0019422740442678332
-0.018750661984086037
0.015975091606378555
0.005982991307973862
0.0967053771018982
0.08965406566858292
0.057109590619802475
-0.0071361069567501545
-0.022457880899310112
-0.0791282206773758
-0.08852934837341309
-0.025133097544312477
0.06687527149915695
-0.039122793823480606
0.04745832458138466
-0.014857694506645203
0.053115591406822205
-0.05073093995451927
0.04444640874862671
0.0026608402840793133
0.0035888240672647953
0.001507261535152793
-0.014914839528501034
0.037594664841890335
0.0783258005976677
-0.014423936605453491
-0.04012914001941681
-0.0358867421746254
-0.0012307462748140097
0.0024996791034936905
-0.02301490679383278
-0.005411594174802303
-0.009900828823447227
0.011118833906948566
-0.00021481493604369462
0.022979583591222763
0.0015482052695006132
0.039857976138591766
-0.011814708821475506
0.0006563502829521894
-0.04486658424139023
0.05377544090151787
-0.04467840492725372
0.017095692455768585
0.015968916937708855
-0.026506023481488228
0.003855957882478833
0.01034186128526926
0.03779935464262962
0.005015912931412458
0.03407915309071541
-0.031930796802043915
0.01166673842817545
0.015354347415268421
-0.044354502111673355
-0.0003258200304117054
-0.009707733057439327
0.010012253187596798
0.03591018542647362
0.05015304312109947
0.030720651149749756
-0.024196334183216095
-0.047431085258722305
0.045821141451597214
-0.002107878215610981
-0.015243789181113243
0.023000601679086685
0.01897967793047428
0.03658799082040787
0.002234591403976083
-0.010498168878257275
0.01055732648819685
-0.0189043041318655
0.0017163380980491638
0.028454041108489037
-0.030922839418053627
-0.024762490764260292
0.005492106545716524
-4.682832150137983e-05
0.09543915838003159
-0.06780732423067093
-0.00571466563269496
-0.020962685346603394
-0.018522286787629128
-0.0003818316326942295
-0.015051803551614285
-0.0025154566392302513
-0.020542534068226814
0.00012353557394817472
-0.055737659335136414
-0.02408873289823532
0.04144794121384621
0.00011088505561929196
-0.028241796419024467
0.03495262935757637
0.0121152950450778
-0.07592254877090454
0.03269825503230095
0.01690709963440895
0.0030839417595416307
-0.00040912203257903457
0.005916859023272991
-0.01369144394993782
-0.06616690754890442
0.0013732712250202894
-0.040401261299848557
0.007483052555471659
-0.02588156796991825
0.012525512836873531
-0.04187926650047302
-0.03872473165392876
-0.0409727618098259
0.014995547011494637
0.020673472434282303
0.04639076814055443
0.036463771015405655
0.03579023852944374
-0.03264208137989044
-0.06634654849767685
0.032093312591314316
-0.039155151695013046
-0.025654876604676247
-0.012063100002706051
0.13833406567573547
-0.057363301515579224
0.0001876238384284079
0.0016022073104977608
0.013610917143523693
0.06141640245914459
-0.018629565834999084
0.03290699049830437
-0.14157582819461823
0.012610049918293953
-0.030181672424077988
-0.00044772462570108473
-0.0003117106680292636
-0.12619632482528687
-0.06571915000677109
-0.0005657095462083817
-0.07352235168218613
0.0785004049539566
0.004986217245459557
0.023421622812747955
-0.07247294485569
0.10508153587579727
-0.02397526614367962
-0.06482972204685211
0.03846010938286781
-0.048699427396059036
-0.004728985019028187
-0.025037690997123718
0.0010611414909362793
-0.02878766879439354
-0.04002160578966141
-0.01753309555351734
0.034238457679748535
-0.04817694425582886
0.0005481719272211194
-0.16655708849430084
0.002390677109360695
0.001003882265649736
0.004014122299849987
-0.02017659693956375
0.0010036502499133348
0.04090528562664986
0.059072524309158325
0.0030151833780109882
-0.02548683062195778
-0.026088088750839233
0.004216169472783804
0.021466566249728203
-0.03981972858309746
-0.05612604320049286
-0.027839714661240578
0.0034618298523128033
-0.023920513689517975
0.029141880571842194
-0.02395625226199627
-0.049022551625967026
-0.048145927488803864
0.0002449885942041874
-0.0224003829061985
-0.03287298604846001
-0.026349825784564018
-0.06183366850018501
0.0001905668032122776
-0.0725676566362381
0.005304473452270031
0.00043896533316001296
0.011955652385950089
0.0027773098554462194
0.0015321342507377267
-0.04635775089263916
0.03350933641195297
-0.0860792025923729
-0.0006957696750760078
0.02023422159254551
-0.0008726740488782525
-0.00538795068860054
0.003566174767911434
0.04159361496567726
-0.032672084867954254
0.01391131803393364
-0.0004347819776739925
-0.05269920080900192
0.08545917272567749
0.027870936319231987
-0.033724211156368256
0.0734061747789383
-0.027655139565467834
-0.03169943764805794
0.023700488731265068
0.021848898380994797
0.005818728357553482
-0.011423214338719845
-0.06417472660541534
-0.06612464040517807
0.0008765729726292193
0.0007762287859804928
0.028361110016703606
0.09691976010799408
0.001351064071059227
-0.05703987181186676
-0.029216192662715912
-0.03752529248595238
-0.005091623403131962
0.0014966287417337298
0.0025385611224919558
0.06827256828546524
-0.02128106728196144
0.10741209983825684
0.06345187872648239
-0.011413434520363808
-0.04055122286081314
0.0007531798910349607
-0.04089769721031189
0.02690066583454609
0.02619452215731144
0.13791322708129883
-0.060624320060014725
0.0010774934198707342
-0.0080904271453619
0.046585261821746826
0.003306125057861209
-0.04510054737329483
-0.021043336018919945
-0.09528857469558716
0.0014064187416806817
-0.0011646448401734233
0.0592089407145977
0.010008741170167923
-0.027496200054883957
-0.02937554381787777
-0.0029801048804074526
0.053741704672575
0.07874839752912521
0.000577456783503294
-0.006024089641869068
-0.007761872839182615
-0.031069505959749222
-0.012302368879318237
0.0007577709038741887
-0.04687162861227989
-0.004035402555018663
0.033417634665966034
0.005842088256031275
-0.035863641649484634
0.11645527184009552
0.020414700731635094
-0.029563887044787407
-0.07155292481184006
-0.013245523907244205
0.027935517951846123
0.07148013263940811
0.049714941531419754
-0.05223888158798218
-0.022360220551490784
-0.002341635525226593
-0.004196374677121639
-0.12416919320821762
0.05976982042193413
-0.003029872663319111
-0.014898490160703659
0.02627723664045334
-0.00027516952832229435
-0.10747969895601273
-0.03701358661055565
0.005583548452705145
0.014288620091974735
-0.09483751654624939
-0.00012218023766763508
-0.0060845836997032166
-0.0022090019192546606
-0.012247431091964245
-0.03406330943107605
0.00012988163507543504
0.04603855684399605
0.015610472299158573
0.01595272123813629
-0.051918115466833115
-0.02362089417874813
-0.032455407083034515
0.02487071044743061
-0.05209709703922272
0.026561766862869263
-0.05429048463702202
-0.06664402782917023
0.06391461938619614
0.06806817650794983
0.003771350020542741
-0.0029072044417262077
0.005618995055556297
-0.03168768063187599
0.06875361502170563
-0.012418584898114204
0.016595682129263878
-0.00684440927579999
0.010906138457357883
-0.03261308744549751
-0.047291889786720276
-0.03896350413560867
-0.031319525092840195
-0.08112437278032303
-0.035261429846286774
0.0165101271122694
0.00046732081682421267
-0.013463853858411312
-0.011910700239241123
-0.10982532799243927
1.225616506417282e-05
0.00816899724304676
0.05636737868189812
0.050530847162008286
-0.015953626483678818
-0.00989050604403019
0.0797654315829277
0.026996321976184845
0.03448415920138359
-0.059608858078718185
0.028965488076210022
-0.000500317313708365
-0.0379243828356266
0.002009703777730465
-0.055745646357536316
0.00023212132509797812
-0.026471270248293877
0.10869260877370834
0.07843014597892761
0.030243435874581337
-0.032377924770116806
0.01615625061094761
-0.040550243109464645
-0.061804041266441345
0.015154028311371803
0.01616385579109192
-0.0016662452835589647
-0.00039435646613128483
0.04160512238740921
0.07475883513689041
0.017006278038024902
-0.01378430612385273
-0.016666898503899574
-0.0004932925221510231
0.05985754728317261
-0.016653146594762802
0.009527322836220264
0.004717488307505846
-0.058934286236763
0.017042268067598343
0.003564270446076989
-0.022693006321787834
-0.01342997420579195
-0.026045113801956177
-0.062472257763147354
0.08217393606901169
-0.007172705605626106
-0.013999676331877708
-4.9266636779066175e-06
0.01526169665157795
-0.05204717442393303
-0.039570488035678864
0.00028663428383879364
0.002649028552696109
0.13297294080257416
-0.019738858565688133
-0.11230142414569855
0.013662084005773067
-0.053894925862550735
-0.02413397841155529
-0.0321061871945858
0.0023376706521958113
0.0005558212287724018
0.03085389733314514
-0.007815712131559849
0.00014587954501621425
-0.0764194205403328
-0.009043209254741669
0.15518872439861298
-0.020782316103577614
-0.06402157992124557
-0.017054611817002296
-0.0876544639468193
-0.06307519972324371
0.010404056869447231
-0.026236500591039658
0.02412652038037777
0.005449086427688599
0.0014247932704165578
-0.03881790488958359
-0.07946252077817917
-0.006637834943830967
-0.012349093332886696
0.0007003457867540419
-0.00018281220400240272
-0.06845780462026596
0.0004992744070477784
0.002196566667407751
0.007273072376847267
-0.04404088854789734
0.10757362842559814
-0.06413229554891586
0.02624303475022316
0.010901915840804577
0.08874592185020447
0.006389673333615065
-0.016439266502857208
0.14764609932899475
-0.02103736810386181
-0.0707702562212944
-0.05396241322159767
-8.371869171241997e-07
0.0031062194611877203
-0.04126462712883949
-0.018655790016055107
0.014867810532450676
0.04390747845172882
-0.00019527132099028677
-0.02982284314930439
-0.00933985598385334
-0.020007161423563957
0.09140317142009735
0.0002064315922325477
-0.06924188137054443
0.0437958650290966
0.00039040957926772535
-0.0059475377202034
0.06266029179096222
4.35104375355877e-05
-0.009746952913701534
-0.09283488243818283
-0.05346044525504112
0.000480287941172719
0.11143538355827332
-0.0020019204821437597
-0.0685071274638176
0.0012029057834297419
0.046783752739429474
-0.058541297912597656
-0.029595686122775078
-0.0010278326226398349
-0.07734718173742294
-0.05818020552396774
-0.005472343415021896
-0.07330386340618134
0.026372555643320084
-0.025455309078097343
-0.026798076927661896
0.09685710817575455
-0.013110088184475899
-0.06998828053474426
0.03911101445555687
-0.061031218618154526
-0.04591384902596474
-0.0022616793867200613
0.0006438727723434567
0.03205929696559906
-0.0020382062066346407
-0.03355962038040161
-0.0031339875422418118
-0.05816637724637985
-0.06309480220079422
-0.04901667684316635
-0.0006209751009009778
-6.27177141723223e-05
0.005247499328106642
-0.036957237869501114
0.08315678685903549
-0.0365111418068409
-0.0935494601726532
-0.02217944897711277
0.010301805101335049
0.032085735350847244
0.02444031648337841
0.0357525534927845
0.00131093745585531
-0.05038653314113617
0.000990392523817718
-0.021518457680940628
-0.04439388960599899
0.055802423506975174
-0.06637410074472427
0.010053676553070545
-0.055983658879995346
0.00083450524834916
-0.0005111753125675023
0.008552821353077888
-0.008532187901437283
0.19965998828411102
0.08692483603954315
0.03251306712627411
-0.04098006710410118
0.014544862322509289
0.0012152896961197257
-0.01483734231442213
-0.014538250863552094
0.13377271592617035
-0.02576822228729725
-0.0436287596821785
-0.04412422329187393
-0.004735581111162901
-0.01894906722009182
0.0534970797598362
0.032567836344242096
-0.027532637119293213
-0.025566522032022476
0.023332171142101288
-0.00395674305036664
-0.0012697833590209484
-0.03199029341340065
-0.007952739484608173
0.06469462066888809
0.05531633645296097
0.0012351317564025521
0.0003771177725866437
0.025113597512245178
0.02332502417266369
-0.015070230700075626
-0.011757940985262394
-0.04883967712521553
-0.10478904098272324
0.0005155663238838315
0.00027110931114293635
-0.04507134109735489
-0.00641842745244503
0.0189812071621418
-0.03990001231431961
0.0002725692465901375
0.022872280329465866
0.001627254532650113
-0.08022123575210571
-0.04510907083749771
0.00021878071129322052
-0.0028605936095118523
-0.032603345811367035
-0.05965564027428627
-0.011846024543046951
-0.005284341983497143
0.0337192639708519
0.010904121212661266
0.029939033091068268
-0.015974635258316994
0.016098661348223686
-0.012608741410076618
0.018722308799624443
-0.020779943093657494
-0.013434849679470062
0.023376589640975
0.008441770449280739
0.06339602917432785
0.032647158950567245
-0.014119521714746952
-0.10642069578170776
-0.07768909633159637
0.053712159395217896
0.010656517930328846
-0.03200569376349449
-0.03312445059418678
0.014683057554066181
-0.03932282328605652
0.036067839711904526
-0.06321699172258377
-0.0010970367584377527
0.07449956238269806
-0.03130635619163513
0.012151539325714111
0.002656957833096385
-0.050152894109487534
0.04006679728627205
-0.0433773472905159
0.006297759246081114
-0.0010891123674809933
-0.12523256242275238
-0.20931357145309448
-0.04433664679527283
0.030384982004761696
0.07149296253919601
-0.002334567019715905
0.01889117993414402
0.0040373061783611774
-0.005191132891923189
0.00048003459232859313
0.0032701098825782537
-0.04370512440800667
0.028398945927619934
0.013486995361745358
-0.007748949807137251
0.0004002358764410019
0.011728364042937756
-0.03099907748401165
-0.009552243165671825
0.04157622903585434
0.0038770304527133703
0.0008409537258557975
0.059620365500450134
-0.04280933365225792
-0.05958007648587227
0.019822627305984497
0.09292688220739365
-0.024776024743914604
0.20064936578273773
0.027574393898248672
-0.007579821161925793
-0.08340740948915482
-0.061515308916568756
-0.01676403544843197
-0.015425608493387699
-0.02344561740756035
-0.013601848855614662
0.050870053470134735
0.05971473827958107
-0.04595575109124184
-0.00895365048199892
0.004496125504374504
-0.06750868260860443
0.0128205306828022
-0.08979582786560059
-0.005490891635417938
-0.0011652068933472037
-0.001366644399240613
-0.046209950000047684
-0.026768000796437263
-0.06070287153124809
0.04878349229693413
0.0569799579679966
-0.037424150854349136
-0.03421032801270485
0.0003595411835703999
0.001498715253546834
0.07052750885486603
-0.01781667396426201
-0.0005063113057985902
0.018917584791779518
-0.13687001168727875
-0.03939387574791908
0.004775911569595337
-0.14306581020355225
-0.04678136855363846
-0.04962577670812607
-0.06191795691847801
-0.04623269662261009
-0.007191770244389772
-0.021864205598831177
0.08782748132944107
-0.0009253874886780977
-0.05837838351726532
0.04807499423623085
0.12119989842176437
-0.007059182971715927
0.042646441608667374
0.0014937001978978515
-0.04115850850939751
0.0008622829336673021
0.0014418119098991156
-0.041139669716358185
-0.049236271530389786
-0.036518823355436325
-0.046586956828832626
0.10692524164915085
0.0019971663132309914
-0.009502752684056759
-0.03004712238907814
-0.09718423336744308
-0.0005166060291230679
0.037985414266586304
-0.029146544635295868
-0.08419834822416306
0.0015349844470620155
-0.024686112999916077
-0.06813186407089233
-0.04633614048361778
-0.04199272021651268
-0.17077389359474182
-0.0018794769421219826
-0.04312100261449814
-0.09640379995107651
-0.01061441469937563
-0.05018644779920578
0.0003439293650444597
0.05964193120598793
0.10955220460891724
-0.0025697911623865366
-0.06560392677783966
0.009998382069170475
0.00040952450945042074
-0.010326297953724861
-0.07620435953140259
-0.013839369639754295
0.0001165532594313845
-0.023331040516495705
0.0013081530341878533
-0.010255631990730762
0.0015719992807134986
0.015194794163107872
0.07708637416362762
-0.051021117717027664
-0.0007269296911545098
-0.03908490762114525
0.019966106861829758
-0.003742366563528776
-0.020643413066864014
-0.1867171823978424
-0.01699373871088028
-0.061893705278635025
0.01916908472776413
-0.016085907816886902
0.029894448816776276
-0.08907578140497208
-0.032848913222551346
-0.0006297004874795675
-0.0001819362078094855
-0.0004559502413030714
0.05021711066365242
-0.03218887001276016
-0.046691279858350754
0.02767867222428322
0.10749886184930801
0.0007386156939901412
-0.07257778942584991
-0.00038511233287863433
-0.0033993979450315237
-0.030277833342552185
0.013869792222976685
0.030199486762285233
-0.03851579502224922
-0.02557552047073841
-0.03756566345691681
-0.05142857879400253
-0.03765951469540596
0.04063108563423157
-0.027987197041511536
-0.15883032977581024
0.0030916985124349594
-0.0009411012288182974
-0.008925837464630604
-0.09045347571372986
-0.06717661768198013
0.026268325746059418
-0.0005190644296817482
-0.06500570476055145
-0.0007018402684479952
0.0002359207283006981
0.04492780193686485
0.007301164325326681
0.0035688611678779125
-0.04410863667726517
-0.008892655372619629
0.00211351434700191
0.0709548145532608
-0.0010921158827841282
0.024015607312321663
-0.09029331803321838
0.016874702647328377
-0.08374577015638351
0.021031443029642105
-0.06586573272943497
-0.04441235959529877
-0.030186787247657776
0.06673972308635712
0.06795760989189148
0.024341076612472534
-0.015105906873941422
0.01962529681622982
-0.1529565155506134
-0.010643699206411839
0.036542654037475586
-0.042928241193294525
0.0410577729344368
0.05795103684067726
0.02770276553928852
0.00020484895503614098
0.132864311337471
-0.07508496940135956
-0.03410787880420685
-0.041114479303359985
0.08777991682291031
0.03237219154834747
0.003247127402573824
0.06999935209751129
-0.016361353918910027
-0.0021652167197316885
0.014349871315062046
-0.15047337114810944
-1.676438478170894e-05
-0.011677206493914127
-0.001177344936877489
0.04156946390867233
-0.12267915159463882
-0.0021726172417402267
0.11642318218946457
-0.07432317733764648
0.027212051674723625
0.001985179027542472
0.012111436575651169
-0.058630187064409256
-0.011989315040409565
-0.0423901230096817
0.05342212691903114
0.0011554891243577003
-0.1488131284713745
0.08399518579244614
0.008313399739563465
-0.007445533759891987
-0.11390666663646698
0.03895042464137077
-0.06937301903963089
0.056525781750679016
0.07256615161895752
0.006614302285015583
-0.08192319422960281
0.025857778266072273
-0.0026850353460758924
-0.0886785238981247
-0.13442233204841614
0.07945725321769714
-0.16030341386795044
0.033039458096027374
0.041367124766111374
-0.0011869536247104406
-0.03760441020131111
-0.10494306683540344
0.09891024976968765
0.0021644632797688246
-0.10088454931974411
0.11563878506422043
0.10784414410591125
-0.00268152984790504
-0.06943242251873016
-0.179579958319664
0.14439810812473297
-0.030085289850831032
-0.009351623244583607
0.029552266001701355
-0.00013029552064836025
0.06913366168737411
0.0015746548306196928
-0.03689507767558098
0.000216102329432033
-0.016733579337596893
0.08191625028848648
0.006958561018109322
-0.011817618273198605
-0.03339115530252457
-0.021807966753840446
0.02299436740577221
0.09407157450914383
0.058109357953071594
-0.045697640627622604
0.002891162410378456
-0.0002625368069857359
0.05744744464755058
0.014580244198441505
0.07513906061649323
-0.11083725839853287
0.01554357074201107
-0.04227333143353462
-0.0727667585015297
0.050324149429798126
0.013737324625253677
-0.03639823943376541
0.07596952468156815
0.013387106359004974
0.04204602167010307
0.10656601190567017
0.08626288175582886
-0.03693500533699989
-0.027850456535816193
0.08095894753932953
0.01209175493568182
-0.05781642347574234
-0.015528100542724133
0.07389484345912933
-0.014660540968179703
0.05403769388794899
-0.00038558096275664866
0.00010467732499819249
-0.04097217693924904
-0.061399273574352264
0.010069598443806171
-0.036807093769311905
0.09035565704107285
0.06107529625296593
0.07429420948028564
0.0013847273075953126
-0.001298645162023604
-0.027441373094916344
-0.007443787530064583
0.0005841645761393011
0.08403414487838745
0.0390976145863533
-0.00566116813570261
0.018492480739951134
0.10615770518779755
-0.047398876398801804
0.07663553953170776
0.04004834219813347
-0.03232910484075546
-0.044213779270648956
0.09172312170267105
0.18860608339309692
0.0014023617841303349
0.1327333152294159
0.0033907878678292036
0.02549828588962555
0.02790539711713791
-0.0071152145974338055
-0.0008782982476986945
0.11256998777389526
0.000312593299895525
0.00023170682834461331
-0.01698656938970089
0.07518547028303146
0.04488550126552582
0.01649792678654194
-0.09342117607593536
0.0995711013674736
-0.06631623208522797
0.0348859503865242
0.015307631343603134
0.03576766699552536
-0.07593771815299988
0.05304880067706108
0.011396120302379131
-7.076171459630132e-05
0.04017509147524834
-0.07138994336128235
0.06345561891794205
0.08386766165494919
0.10722601413726807
-0.0011455152416601777
0.012499207630753517
0.10645941644906998
0.08796975761651993
0.07135744392871857
-0.0001666999887675047
-0.1351250410079956
0.04359700530767441
-0.0006199817871674895
0.04399178922176361
0.003668351797387004
-0.0003542712365742773
0.052001021802425385
-0.06075548753142357
0.02052399143576622
-0.00019556273764465004
0.0370999276638031
-0.00017714065324980766
0.008242268115282059
-0.0026136827655136585
-0.002406746381893754
-0.07018323242664337
-0.005115297622978687
0.0002798154018819332
-0.01822037436068058
-0.0960037112236023
-0.0034705689176917076
-0.16618502140045166
0.016938690096139908
0.07249335944652557
0.05582954362034798
0.06583436578512192
0.06492764502763748
0.08591565489768982
0.031575389206409454
0.07450167089700699
0.03793817013502121
-0.0019866391085088253
-0.0009565736399963498
0.05897527560591698
-0.0708264485001564
0.010160849429666996
0.07528166472911835
-0.16419589519500732
0.06669851392507553
0.050795700401067734
-0.0003470068913884461
0.011121340095996857
-0.026931002736091614
0.04877162352204323
0.014592859894037247
0.05205383151769638
0.024551212787628174
-0.033954959362745285
-0.07731565088033676
0.038175925612449646
0.07859824597835541
-0.034720271825790405
0.03274301812052727
0.017050495371222496
-0.0003779190010391176
-0.016472328454256058
-0.08922550082206726
-0.06271504610776901
0.09996682405471802
0.11051412671804428
0.00404031528159976
3.869748252327554e-05
-0.002015030710026622
-0.009649914689362049
-0.0013329338980838656
-0.1602090299129486
0.11211337894201279
0.00637450534850359
0.011337627656757832
-0.050980344414711
-0.00088558963034302
0.009144380688667297
-0.02288646064698696
-0.044739335775375366
-0.0630159080028534
-0.025182103738188744
-0.054200150072574615
-0.01293957233428955
0.014806383289396763
0.03063618205487728
-0.02202385663986206
0.03947960212826729
0.020100759342312813
0.06083254516124725
-0.04217708110809326
-0.007525989785790443
0.01446953509002924
-0.00928266067057848
0.10150313377380371
0.03555713966488838
-0.021779796108603477
-0.0015119852032512426
0.04596564173698425
-0.017121464014053345
0.0663910061120987
-0.0483509823679924
-0.03068969026207924
-0.04703915864229202
0.003069796599447727
-0.03523830324411392
-0.0430607832968235
-0.0028831916861236095
0.02011396922171116
0.07936673611402512
-0.00010162755643250421
-0.1188717931509018
-5.97562211623881e-05
-0.06279511004686356
-0.03026576153934002
0.0012362234992906451
-0.04807567968964577
-0.04738253727555275
-0.054930076003074646
-0.0029898383654654026
0.009325418621301651
-0.012917358428239822
0.028392793610692024
0.03846811130642891
0.061575572937726974
-0.0491994172334671
0.015553350560367107
-0.09603530913591385
0.0725352019071579
-0.017724115401506424
0.0955461710691452
-0.008316988125443459
-0.013060318306088448
-0.022204184904694557
0.06650791317224503
-0.04433533921837807
-0.004059110302478075
0.016184695065021515
0.00021601597836706787
0.015427098609507084
0.007024882826954126
-0.01147924829274416
0.04995959624648094
0.019725246354937553
-0.08810779452323914
-0.0012060781009495258
0.025922659784555435
-0.03892083838582039
-0.029158366844058037
-0.0009668622515164316
-0.022580012679100037
0.02558799274265766
-0.006704058963805437
0.013955172151327133
0.07130680233240128
0.044809237122535706
0.09480535984039307
-0.009122133255004883
0.0002821900707203895
0.06865635514259338
0.0011031108442693949
-0.009342750534415245
-0.005323645193129778
-0.044840168207883835
0.001113483915105462
0.022118886932730675
-0.00101441890001297
0.049795061349868774
-0.006771879270672798
0.014601055532693863
-0.017894746735692024
-0.08308374136686325
0.00467558903619647
0.014582067728042603
0.027216048911213875
-0.0019018392777070403
0.0024305246770381927
0.04487137123942375
0.018271101638674736
-0.07103796303272247
-0.0339156910777092
-0.029563825577497482
0.021384965628385544
-0.09091483056545258
-0.09161069989204407
0.008858009241521358
-0.03449208289384842
0.055821288377046585
0.037864457815885544
0.03319504112005234
-0.03289856016635895
-0.03206585720181465
0.04863972216844559
-0.041021645069122314
-0.08993995934724808
0.0037162587977945805
-0.025815419852733612
0.00018523841572459787
-0.00887454953044653
-0.004079663194715977
-0.014844261109828949
0.0012776529183611274
-0.0008207730716094375
-0.01799096167087555
0.027038969099521637
0.01598784513771534
-0.057937875390052795
-0.023086033761501312
-0.04076375067234039
-0.05909682810306549
-0.0017100489931181073
-0.0003849153872579336
0.036767181009054184
-0.05461021512746811
-0.001095889718271792
-0.09077037125825882
-0.06304270029067993
-0.005134133622050285
0.02719007432460785
0.0871160626411438
0.013561304658651352
-0.030701255425810814
-0.08200868219137192
-0.059683892875909805
-0.016937272623181343
-0.05072718486189842
0.0005346768302842975
-6.311041943263263e-05
-0.07980139553546906
0.03130368888378143
-0.04704534634947777
-0.0408407486975193
0.015163637697696686
-8.785419777268544e-05
-0.09478556364774704
0.00048455558135174215
-0.0015727186109870672
0.0032625726889818907
-0.018621768802404404
0.017432300373911858
-0.0056355195119977
0.020613152533769608
-0.022671986371278763
-0.009073305875062943
-0.0781397745013237
-0.011460304260253906
0.04588666930794716
-0.006488698534667492
-0.01665937341749668
-0.014022387564182281
-0.0019609536975622177
-0.01687781885266304
-0.009248804301023483
-0.01076520886272192
-0.08567286282777786
-0.03578890115022659
-7.270293281180784e-05
-0.009164365939795971
-0.030905235558748245
0.015749463811516762
-0.056845951825380325
0.00026694993721321225
0.024833420291543007
0.10050860792398453
-0.002302409615367651
0.05134224891662598
0.037169791758060455
-0.0003934210690204054
-0.08733884245157242
-0.005847707856446505
0.049434419721364975
0.000387681822758168
0.04882354289293289
-0.0006892262026667595
0.004456791561096907
0.0013238186948001385
0.0005902847042307258
0.026447221636772156
-0.022536151111125946
0.00038370818947441876
0.0013437957968562841
-0.006505849305540323
-0.0418563038110733
-0.03446169197559357
0.027893150225281715
-0.06181768700480461
-0.050602540373802185
-0.0191396102309227
0.004185982048511505
-0.024892838671803474
-0.0044607315212488174
-0.045744605362415314
-0.057407401502132416
-0.00286438618786633
0.0006976071745157242
0.014743887819349766
-0.039499297738075256
-0.045144084841012955
0.005928604397922754
0.0374198816716671
0.005675084423273802
-0.0320313386619091
0.000266435177763924
-0.02704988233745098
-0.02785918489098549
0.011822376400232315
0.053532492369413376
0.028110088780522346
-0.0051311613060534
-0.010903812944889069
-0.066775381565094
0.024233564734458923
-0.014238380827009678
-0.004485041368752718
-0.10252167284488678
-0.015251200646162033
-0.0006860606372356415
-0.05334974825382233
0.08478910475969315
0.07351571321487427
-0.0768798217177391
-0.07618159800767899
-0.06741126626729965
0.0005663830088451505
0.0007205709698610008
-0.10051211714744568
0.004573460202664137
-0.0005642698961310089
-0.03917374089360237
-0.06382426619529724
-0.0012474148534238338
-0.103850819170475
0.000772646046243608
0.024186355993151665
0.015603355132043362
0.01077378261834383
0.03281955420970917
0.011058282107114792
-0.01953374780714512
-0.044211190193891525
0.0015977320726960897
0.01759227365255356
-0.07678967714309692
-0.014737656340003014
-0.05393572151660919
-0.023793920874595642
0.022890601307153702
-0.058142729103565216
-0.016806069761514664
0.010879339650273323
-0.03320387378334999
-0.11781124025583267
-0.009752960875630379
0.0001590996835147962
-0.06420466303825378
-0.12522254884243011
0.09301994740962982
-0.04279989376664162
0.15610434114933014
0.0798332542181015
0.0006922724423930049
-0.030475113540887833
0.12025398761034012
0.0029481579549610615
-0.011251733638346195
0.054380301386117935
-0.00015546676877420396
-0.06080123037099838
-0.0033447735477238894
0.03164630010724068
-0.03562258929014206
-0.002296822378411889
0.09663066267967224
0.018313318490982056
-0.05351010337471962
0.017470572143793106
0.0004831831611227244
-0.03673073649406433
-0.03477936238050461
-0.08646757900714874
-0.06243954971432686
0.023541472852230072
-0.021580977365374565
-0.09466627985239029
-0.0676342323422432
0.07191023975610733
0.03433891385793686
-0.11155454069375992
-0.11292348802089691
-0.08636622130870819
-0.08903941512107849
-0.04260122403502464
-0.016515597701072693
-0.0648389607667923
0.010738186538219452
0.0024989277590066195
0.0036088114138692617
-0.1237291693687439
-0.08551628142595291
-0.026487132534384727
-0.002531257690861821
-0.00010170154564548284
-0.05035974457859993
0.01659022644162178
-0.11878480762243271
-0.0004156492359470576
0.1313745081424713
0.016312124207615852
-0.1180010735988617
0.006847692653536797
0.026981113478541374
0.055410921573638916
-0.1497734934091568
0.02637881226837635
-0.05236157774925232
-0.11509066820144653
-0.0007089272839948535
-0.04053262993693352
0.0034741326235234737
-0.00030179257737472653
-0.0004973848117515445
-0.1286352127790451
-0.006280042696744204
-0.03566073626279831
-0.026383066549897194
-0.023744074627757072
-0.021873239427804947
-0.12145301699638367
-0.05274759232997894
0.1386650651693344
0.004040133208036423
-0.00045531787327490747
-1.1400752555346116e-05
0.007361790630966425
0.2071218490600586
-0.01655431091785431
0.00012359267566353083
-0.02652062475681305
-0.058559589087963104
-0.03371453285217285
0.011069921776652336
0.06590933352708817
-0.04522997513413429
-0.06838516145944595
0.09004946053028107
-0.016587579622864723
-0.011335485614836216
0.2256896197795868
0.02749485895037651
-0.07021897286176682
0.022732224315404892
0.060548119246959686
-0.02156894840300083
0.05310969054698944
-0.12333018332719803
0.023061340674757957
0.06427030265331268
7.034759619273245e-05
0.00030974982655607164
0.003376577515155077
0.013715637847781181
-0.06892354041337967
-0.05219221115112305
-0.10552814602851868
0.17917712032794952
-0.047409720718860626
-0.00015573494601994753
-0.00011307017848594114
-0.06037026643753052
0.08310281485319138
0.002076677279546857
0.062329210340976715
0.10258243978023529
-0.05502539873123169
-0.03582371771335602
-0.048736728727817535
0.06495202332735062
0.04296622797846794
-0.05464866757392883
0.014960899949073792
0.038481514900922775
-0.10188888758420944
-0.05234074592590332
-2.4446027964586392e-05
0.08781840652227402
-0.07477860897779465
-0.04845859110355377
0.04591673985123634
-0.01881798543035984
-0.0008505097939632833
-0.03603183478116989
0.00014502937847282737
-0.00047983156400732696
-0.02563709206879139
-0.04847072437405586
-0.04426366835832596
0.09811998158693314
-0.05962982773780823
-0.051677390933036804
0.043181732296943665
0.2412300705909729
0.021312985569238663
-0.06923624873161316
0.03620712086558342
-0.014309853315353394
-0.03828863799571991
-0.00024211029813159257
-0.021100187674164772
0.06639569997787476
0.011837179772555828
-0.06420262902975082
-0.05661272630095482
0.0005923155113123357
0.04164786636829376
0.009469643235206604
0.07774516195058823
0.06505870819091797
-8.019414963200688e-05
-0.07655774801969528
-0.10364528000354767
0.0007216462399810553
0.10312989354133606
-0.07273951917886734
0.0002122449950547889
-0.1365470439195633
-0.09636906534433365
-0.0008040768443606794
-0.0005650508101098239
-0.06474050879478455
0.0006749611347913742
0.03480227664113045
-0.001284921308979392
-0.10040546953678131
0.06567870825529099
0.0059255072847008705
0.0013670518528670073
0.030094420537352562
0.021814897656440735
0.032718926668167114
0.037453070282936096
0.08940114825963974
-0.07389070838689804
-0.08239737898111343
-0.12969161570072174
0.05021099001169205
0.14356288313865662
0.016099214553833008
-0.043255314230918884
-0.09738770872354507
-0.004244307521730661
-0.0006930576055310667
-0.015513105317950249
-0.04922334477305412
0.08890458196401596
-0.0686662346124649
-0.06313638389110565
-0.013547694310545921
0.15094627439975739
-0.0004245419695507735
-0.0024813315831124783
-0.03163441643118858
-0.06534513086080551
-0.008602246642112732
-0.06856052577495575
-0.04914103075861931
0.03189552202820778
0.1279188096523285
-0.05119818076491356
-0.13532483577728271
-0.042556434869766235
-0.03090635873377323
0.21625351905822754
0.0019092896254733205
-0.030150584876537323
-0.09587428718805313
0.07219064980745316
-0.06925341486930847
0.20032091438770294
-0.11254864931106567
-9.268969006370753e-05
-0.0012110264506191015
-4.6919671149225906e-05
-0.004119792953133583
7.756214472465217e-05
-0.0007208636961877346
0.00022837508004158735
-4.803478441317566e-05
-0.0016884178621694446
0.001651233877055347
-0.001963438233360648
-0.0007192460470832884
-0.0011333675356581807
-0.0021219542250037193
-0.0037021974567323923
0.0012933408142998815
0.001962409121915698
9.197139297612011e-05
0.00021070432558190078
0.0005275207222439349
0.000742773525416851
0.00047203878057189286
-0.0010386711219325662
-0.0005424528499133885
-0.0017489350866526365
-0.003458993975073099
0.0003579584590625018
-0.004736673086881638
0.0003612134314607829
-0.0030439908150583506
0.002012466313317418
0.002590059069916606
0.0021804135758429766
-0.0005890846950933337
0.0007341451710090041
-0.0031096935272216797
-0.0019243324641138315
-0.00021646324603352696
-0.0027776879724115133
-0.002186822472140193
0.0022771854419261217
-0.00028907813248224556
0.0022384594194591045
-7.928469858597964e-05
0.0024535448756068945
-0.00046592429862357676
0.001512641552835703
-0.00039642894989810884
-0.0024805746506899595
0.0005551461363211274
0.0014529733452945948
-0.0008994559175334871
0.0003725846472661942
-0.0019384254701435566
0.0029430577997118235
-0.00027979546575807035
0.0014285857323557138
-0.003918866626918316
-0.00026434098253957927
-0.001149867894127965
-0.0017189821228384972
-0.0008572642109356821
-5.048085768066812e-06
-0.00240747956559062
0.0028135189786553383
0.000813507882412523
0.00032622599974274635
-0.0011843760730698705
-0.0016887009842321277
0.001701301196590066
0.00025323929730802774
-0.0003462771128397435
0.00030710265855304897
-0.0009631604771129787
-0.00027635740116238594
0.0007105701370164752
-0.0022729539778083563
-0.0005192409735172987
8.753567817620933e-05
0.001285429229028523
0.0010862847557291389
0.001202349434606731
0.0009012990049086511
0.0015795273939147592
0.0016880000475794077
0.0029361241031438112
-0.00029627978801727295
0.0010348489740863442
-0.00023396985488943756
-0.00189649173989892
-0.0009531816467642784
0.0010133013129234314
-0.0002533479710109532
-0.00022369850194081664
-0.0005481135449372232
0.002135864458978176
0.0022367911878973246
0.00011166515469085425
0.00011165603064000607
0.0010412461124360561
-0.003016132628545165
0.0003583669604267925
-0.0002709880063775927
0.0019832290709018707
0.0008218568982556462
-0.0010761878220364451
-0.00015556796279270202
-0.006402300205081701
-0.0007404238567687571
0.0019120981451123953
0.0016469460679218173
0.0057488116435706615
-0.0013368382351472974
0.0009334906353615224
0.0033871245104819536
-0.00010959566134260967
-3.5304717016515497e-07
0.001550039742141962
-2.8856973585789092e-05
0.00032328625093214214
-0.0017681230092421174
-2.6982643248629756e-05
0.001743067055940628
-0.00313137867487967
-0.001742268679663539
-0.0010529396822676063
0.0022276435047388077
-0.0006220999639481306
-0.0013338231947273016
-0.0009651450673118234
0.0009218170307576656
-0.00022765783069189638
0.003576827235519886
-0.0009469522628933191
0.0008657879079692066
-0.0002413272304693237
-0.0005162518937140703
-0.0004508343117777258
-0.00010024804214481264
0.0016486207023262978
0.0032955072820186615
-0.001633757958188653
-0.0015202452195808291
0.0005351913860067725
-0.0006257119821384549
-0.006022040266543627
0.0020103957504034042
-0.0005919960094615817
-0.000548376701772213
-0.0002057020756183192
0.0017286702059209347
-0.0011782352812588215
-0.0004268969059921801
0.0036590679083019495
0.003371807048097253
-0.00031628168653696775
-0.00043701817048713565
0.0017195766558870673
-0.0003313666384201497
-0.00027153315022587776
0.0012914013350382447
0.0015843217261135578
0.0004769182705786079
-0.001943281851708889
0.0005416834028437734
-0.0006167368264868855
-0.00011805566464317963
0.0016162358224391937
0.0010127335553988814
0.0011290418915450573
-0.0008951103664003313
-0.0007243938161991537
0.0008159080753102899
1.3500773548003053e-06
-0.0010099862702190876
0.0018847719766199589
0.0031428695656359196
3.601326454827358e-07
0.003841129597276449
-0.00327695207670331
-0.0014413102762773633
-0.0025657289661467075
-0.00013247737661004066
0.0008178870775736868
-0.00015779436216689646
0.0028643771074712276
-0.0004603973648045212
-0.001033514621667564
-0.001192810945212841
0.00030301432707346976
0.0017730395775288343
0.00013327518536243588
0.0006267970893532038
0.0011712348787114024
0.0001803187042241916
0.0004121310485061258
-0.002025436144322157
0.003289944725111127
0.0018693557940423489
0.00029900079243816435
0.00013164838310331106
0.0005457247025333345
0.0008414596086367965
0.0014692040858790278
0.0008975225500762463
-0.0017210192745551467
-0.001512953545898199
0.002001018263399601
-0.0032414677552878857
-7.419880421366543e-05
-0.0015824604779481888
0.0015416373498737812
0.0020944552961736917
0.00029726128559559584
-0.0013882986968383193
-0.000126427345094271
-0.0004517354827839881
0.0005266775260679424
-0.003763595363125205
-0.0006007779738865793
0.0011510371696203947
0.0012058935826644301
0.0025619748048484325
0.0014808997511863708
-0.001783390180207789
0.0009350673644803464
0.0008265674114227295
0.0008214422850869596
0.0005189996445551515
0.0026195833925157785
0.0011715077562257648
-0.0008421248057857156
-0.0014278581365942955
-0.0013588585425168276
-0.0016392392572015524
0.002344937063753605
0.0007040571072138846
0.001252221642062068
0.0036494210362434387
0.0007605016580782831
0.0005695523577742279
0.0002826247946359217
0.00034212780883535743
0.0011494169011712074
0.002012699143961072
0.0018498044228181243
0.002167911035940051
0.000457138754427433
-0.0004235518572386354
0.0017334907315671444
-6.208990816958249e-05
0.0013344126055017114
0.0003238398057874292
-0.002576857805252075
-0.0011004300322383642
-0.00266912579536438
-0.0004922733060084283
-0.0015082936733961105
0.053456664085388184
0.015689335763454437
-0.024060774594545364
-0.028831321746110916
-0.016861453652381897
-0.060529597103595734
-0.026574552059173584
-0.001256382092833519
-0.02820679172873497
0.019040770828723907
-0.051957760006189346
0.04103972762823105
-0.07221882045269012
-0.002241347683593631
0.03696154057979584
-0.05656145140528679
-0.03516606241464615
-0.041064996272325516
-0.027460595592856407
-0.014210713095963001
-0.08268671482801437
0.0017455518245697021
-0.03988342732191086
-0.050293125212192535
-0.007015627343207598
-0.07319735735654831
-0.0314251184463501
0.010472264140844345
1.7799933630158193e-05
-0.013542951084673405
0.0059280917048454285
-0.057646431028842926
0.004384354688227177
0.027896493673324585
-0.006556322332471609
0.0010573059553280473
0.0668276771903038
-0.02456587739288807
-0.002230228390544653
-0.014177635312080383
0.02504054829478264
6.211439904291183e-05
0.04484383761882782
-0.0006744560087099671
0.04540213197469711
0.01336583774536848
0.0014266076032072306
-0.049998268485069275
0.00690769637003541
0.02922711707651615
0.057055406272411346
0.04497367516160011
-0.09058669209480286
-0.031531188637018204
-0.056919123977422714
0.04599585011601448
-0.030729837715625763
0.04801705852150917
0.05033155903220177
-0.004364888649433851
-0.035677000880241394
0.00125351850874722
0.009320232085883617
0.015454567968845367
-0.002606353024020791
0.025417601689696312
-0.00758435670286417
0.0795154944062233
0.028861423954367638
0.03389768674969673
-0.005743833724409342
0.02099778689444065
0.0022423735354095697
0.07595501095056534
-0.01808210276067257
0.04275082051753998
-0.000703035038895905
-0.048320744186639786
-0.015901867300271988
0.01399174239486456
0.0010916293831542134
0.007049990817904472
-0.12856610119342804
-0.02124485932290554
-0.0010103842942044139
0.018197905272245407
0.011341444216668606
0.0318451002240181
-6.61616722936742e-05
0.028821049258112907
-0.052415717393159866
-9.79442847892642e-06
-0.06537098437547684
0.005113603547215462
