-0.029517188668251038
0.0006194361485540867
-0.013600487262010574
-0.02438104897737503
0.00010714757081586868
-0.0009241466759704053
0.09808267652988434
0.00015015553799457848
-0.00792753417044878
-0.01713738776743412
-0.020468417555093765
-0.0124431187286973
0.02579612098634243
-0.019836537539958954
-0.013646489940583706
-0.020236706361174583
-0.1710117757320404
6.84996775817126e-05
0.03297405689954758
0.00019376650743652135
0.014812275767326355
-0.0014421625528484583
0.019798627123236656
0.024723872542381287
-0.000557638646569103
0.012419505976140499
0.013558906503021717
-0.022342611104249954
0.014272505417466164
-0.007217173930257559
-0.01259826123714447
0.07472777366638184
0.022622136399149895
-0.0012795851798728108
-0.0018789132591336966
0.037195634096860886
-0.008193342946469784
-0.000478326779557392
-0.024410929530858994
-0.021335626021027565
0.005822128616273403
0.10125058889389038
-0.003619469003751874
-0.0002826114068739116
-0.012095985002815723
0.01929553411900997
-0.001420964254066348
-0.16253480315208435
-0.010256949812173843
-0.0011614314280450344
0.007754862308502197
-0.007368030026555061
0.2922610342502594
-0.00375829148106277
-0.0006405136082321405
-0.0013679144904017448
-0.07575094699859619
-0.00034592210431583226
-0.06251503527164459
0.046494461596012115
0.02664833515882492
-0.0008213031105697155
-0.007796839810907841
0.02350388839840889
0.0019130671862512827
0.0005584922037087381
-9.94284127955325e-05
-0.0020138390827924013
-0.002380539197474718
0.0039773122407495975
-0.001319702947512269
-0.0014814365422353148
0.010379360057413578
0.0003708050644490868
-0.128888800740242
-0.0054162717424333096
0.0010059220949187875
0.007917342707514763
-0.00037056702421978116
-0.001449256669729948
-0.011131634004414082
0.001084340619854629
0.07016406953334808
0.0452120415866375
0.03837476670742035
0.005307117011398077
0.0005237445002421737
0.05192118510603905
0.02264258824288845
0.02216375805437565
0.004851030185818672
0.06969226151704788
-0.0010075141908600926
3.990671393694356e-05
0.005133003927767277
-0.0010196224320679903
-0.0011915016220882535
1.3503510672308039e-05
-0.0004428630054462701
-0.0010036093881353736
-0.00042671753908507526
-0.0006606298265978694
-0.0016155790071934462
-0.002762563992291689
0.001057995017617941
-0.0009435310494154692
-0.0003026375197805464
0.00018204489606432617
0.010870126076042652
-0.0012011929647997022
0.003197622485458851
-0.4005014896392822
-0.002088234294205904
0.050597794353961945
0.06309312582015991
-0.0007124044932425022
-0.010435051284730434
-0.0002650310634635389
-0.0005227456567808986
-0.03450176492333412
0.0009758821106515825
0.00041793318814598024
0.0004968452267348766
0.0033034400548785925
-0.00018927162454929203
0.19092383980751038
6.661265797447413e-05
-2.2802507373853587e-05
-0.018661297857761383
-0.0009982527699321508
0.0355135053396225
0.0004006005183327943
-0.00034335750387981534
0.0006793832872062922
0.14927998185157776
-0.00013806518109049648
0.012104537338018417
-0.015073454938828945
-0.16774313151836395
-0.00950013566762209
-0.026551194489002228
0.007511833216995001
-0.07366246730089188
0.004316704347729683
0.08380032330751419
-0.0008077282691374421
0.012463771738111973
0.00016672685160301626
0.0014832292217761278
-0.00030480531859211624
-0.014372427016496658
-0.10940895974636078
0.00044440143392421305
-0.027662526816129684
0.019691884517669678
-0.011697975918650627
0.05411413684487343
0.014276105910539627
0.03588327392935753
-0.04621056094765663
0.022735780104994774
0.09368669241666794
-0.0008276930311694741
-0.023239949718117714
-0.012568610720336437
-0.0016291907522827387
-0.008709103800356388
0.006483697332441807
-0.01805715076625347
0.0813601091504097
0.019443873316049576
0.0002818087814375758
0.003731625387445092
-0.003008002182468772
0.0002225869393441826
0.03830568492412567
-0.002702734898775816
3.387214019312523e-05
0.028288276866078377
0.04428684338927269
0.17776183784008026
0.10262513160705566
-0.0009130419930443168
3.9899790863273665e-05
-0.09148663282394409
-0.0012152799172326922
-0.12398845702409744
0.21557308733463287
0.034442197531461716
0.00020713190315291286
0.005065441597253084
0.012619178742170334
0.010028109885752201
0.006473645567893982
-0.0002789105346892029
0.0010875319130718708
0.0008437081123702228
0.025457322597503662
0.0002012201293837279
5.815907206851989e-05
-0.007639959454536438
0.0005898161907680333
-0.09245054423809052
0.02994465082883835
-0.0008534920052625239
0.016914984211325645
0.001911207102239132
-0.00034690159372985363
0.03444109857082367
0.003896031528711319
0.015169338323175907
0.013003057800233364
0.0932665690779686
0.010378184728324413
-0.0009321406250819564
0.011507943272590637
0.010980646125972271
0.008985196240246296
0.016204150393605232
0.0031436821445822716
-0.00027245437377132475
0.0010286838514730334
0.014789258129894733
0.0010933139128610492
0.0001990047312574461
-0.00047036094474606216
-0.0001972411118913442
-0.0006048223585821688
-0.000479093607282266
0.000413044064771384
0.0004183629644103348
0.0012363033602014184
0.0007177162333391607
-0.0001168488452094607
0.00040647602872923017
-0.0019059140468016267
-0.0022449884563684464
0.0002972987131215632
0.002012374810874462
-0.042510587722063065
-0.009623388759791851
0.1750233769416809
0.019874291494488716
0.0006810605991631746
0.015287302434444427
0.0013917714823037386
0.0017470911843702197
-0.042479559779167175
-0.0008163336897268891
0.0011090977350249887
0.0016567758284509182
0.007864629849791527
0.0004914864548482001
-0.36366575956344604
0.001706210896372795
0.0014077594969421625
0.011434746906161308
0.0002220218302682042
-0.07262437790632248
0.011304459534585476
0.0007874112925492227
-0.0006721052341163158
0.17984536290168762
-0.0004139247757848352
0.09055860340595245
-0.011669610626995564
0.08451518416404724
-0.009579832665622234
-0.03445684164762497
0.04384014010429382
-0.006809717509895563
-0.03185397759079933
0.05501626431941986
6.251065497053787e-05
0.005950556136667728
-0.0009525105124339461
0.003176620462909341
0.0009739816887304187
-0.010684499517083168
-0.07985029369592667
0.0002680147881619632
0.002945998217910528
-0.03265935555100441
-0.026361219584941864
-0.015233608894050121
-0.019044721499085426
-0.0031991400755941868
-0.049761828035116196
-0.03571953997015953
-0.0038142374251037836
0.00032062039826996624
-0.019346458837389946
-0.05934128537774086
-0.0009193941368721426
0.10514602810144424
-0.06360284239053726
-0.038743697106838226
0.05146743729710579
0.009940517134964466
-0.0006850437493994832
0.012873746454715729
0.0004121256060898304
0.00016920367488637567
-0.006289031356573105
0.012465909123420715
-4.012700810562819e-05
0.014648986048996449
-0.01954907365143299
0.011976832523941994
0.09743744879961014
-0.00021144597849342972
-0.002045030938461423
0.20593464374542236
-9.950143430614844e-05
-0.076445072889328
0.04459945857524872
-0.06787528842687607
0.0014370247954502702
-0.003644075710326433
-0.013025104068219662
-0.00768250972032547
-0.00611786637455225
-0.00046675221528857946
-0.0007435267907567322
0.0009396715322509408
-0.03842981159687042
-0.0015675605973228812
0.002488749334588647
-0.013780929148197174
-0.0011841385858133435
0.02272985503077507
0.006704698782414198
-0.0005257348529994488
-0.015081174671649933
0.0005370159051381052
-0.0015971797984093428
-0.00813358649611473
-0.005035905167460442
-0.10988911241292953
-0.027728093788027763
-0.019773362204432487
-0.010533103719353676
-0.004292929545044899
-0.042424969375133514
-0.02952572889626026
-0.027006005868315697
-0.023108365014195442
-0.07788003981113434
-0.0023767573293298483
-0.0005862289690412581
-0.03828738257288933
-0.0020018385257571936
-0.000981582677923143
0.0019013043493032455
-0.0001525308471173048
-8.944211003836244e-05
0.002595190890133381
-0.0017558614490553737
-0.00020701828179880977
0.0010261398274451494
-0.0009845055174082518
-0.0005549567868001759
-0.00047894773888401687
-0.0009954982670024037
-0.014675205573439598
0.0001431526179658249
-0.003992013167589903
-0.047599706798791885
-0.001045224373228848
-0.03154842182993889
-0.014946816489100456
0.0017301589250564575
-0.03903627023100853
0.0011030456516891718
-0.0009702856768853962
-0.005835382267832756
-0.0004382924234960228
-0.00020910028251819313
-0.000567524810321629
-0.010446907952427864
0.00024136558931786567
0.046412788331508636
0.0013848417438566685
0.0016524418024346232
-0.020407645031809807
-0.0006685174303129315
0.07692887634038925
0.019351914525032043
0.0005375096807256341
-0.0009080705931410193
-0.11641496419906616
-7.933086453704163e-05
-0.08256370574235916
0.008965312503278255
-0.010610491037368774
-0.02533053606748581
-0.01779746264219284
-0.004323991946876049
-0.010228436440229416
-0.030822111293673515
-0.051259078085422516
0.0013749264180660248
0.019916221499443054
0.0009588411194272339
-0.009450298734009266
0.0006434355163946748
0.007369597442448139
0.10739609599113464
-0.0005569484201259911
0.008257783949375153
0.0331428125500679
0.06080273166298866
-0.04297279566526413
0.04678955301642418
-0.0319194495677948
0.05555051565170288
-0.03317832574248314
0.016394779086112976
-0.0011821750085800886
-0.002148216590285301
0.03778696805238724
-0.00025830056983977556
-0.045894745737314224
0.11909224838018417
0.0031890366226434708
-0.010615183040499687
-0.02153421938419342
-0.0007528115529567003
-0.0031183736864477396
-0.017623718827962875
-0.0014731734991073608
0.00018130612443201244
-0.005635963752865791
-0.0013116109184920788
-0.019611835479736328
-0.06011822819709778
0.0378415621817112
-0.07395812124013901
-0.000338591227773577
-0.002114607021212578
-0.17081612348556519
4.9057649448513985e-05
0.13603012263774872
-0.04362889379262924
0.09333226829767227
0.0001590794272487983
-0.07147244364023209
0.04244624450802803
0.0040173581801354885
0.00468094740062952
-0.0004268914053682238
0.00033608381636440754
-0.00047231666394509375
0.06621002405881882
-0.00032942864345386624
0.0001592596818227321
0.007340087555348873
-0.0011341542704030871
0.0121870506554842
-0.010715755634009838
0.000794597901403904
0.005783600267022848
0.0013247831957414746
-0.000157478018081747
-0.14142921566963196
0.0013254097430035472
0.18038339912891388
0.03290221467614174
0.0027945744805037975
0.0005609842482954264
0.00019309547496959567
0.11376558989286423
0.06409362703561783
0.040805622935295105
-0.003044570330530405
0.1480974555015564
0.0009503824403509498
-0.0006290117162279785
-0.003977717831730843
-0.002700873650610447
-0.0017937807133421302
-0.003884068690240383
-0.0017234249971807003
-0.0012076745042577386
-0.0012429679045453668
-0.0015354468487203121
-0.0011370866559445858
0.0006003011367283762
-0.00015010725473985076
-0.00047867867397144437
0.0012637756299227476
-3.4703662095125765e-05
-0.012686851434409618
0.00017732495325617492
0.0028069138061255217
0.07212206721305847
0.00856202095746994
0.03246939927339554
0.013395027257502079
0.0025885559152811766
0.0376855842769146
0.002889432944357395
0.0003138153697364032
-0.04250192642211914
-0.00030085904290899634
4.552158134174533e-05
0.0003923997574020177
0.0019327246118336916
0.001007227343507111
-0.07435150444507599
2.076562486763578e-05
-0.0011510299518704414
-0.3921874761581421
0.0009502586908638477
-0.2896239459514618
-0.5070284008979797
0.002443128265440464
0.002309066243469715
-0.2969456613063812
0.002145664067938924
-0.43501195311546326
-0.18050529062747955
-0.39889106154441833
-0.5663332939147949
-0.28424742817878723
-0.18322928249835968
-0.21654954552650452
-0.24385559558868408
0.28817787766456604
-0.000955511350184679
-0.061437658965587616
0.0013999923830851912
-0.06181956082582474
0.0019021526677533984
-0.2620333731174469
-0.23533187806606293
0.0005066041485406458
-0.1135149672627449
-0.12170660495758057
-0.18885909020900726
-0.11382175236940384
-0.3959459662437439
-0.3490905165672302
0.43343743681907654
-0.28043392300605774
-0.28068068623542786
-0.000584050954785198
-0.2486938238143921
-0.17015810310840607
0.00010530966392252594
-0.5223173499107361
0.12747561931610107
-0.06920652091503143
-0.23462875187397003
-0.30314522981643677
-0.0005902853445149958
-0.28633323311805725
-0.28444039821624756
0.0005651329411193728
-0.0964372456073761
-0.309067964553833
-0.00043349649058654904
-0.04632960632443428
-0.33575618267059326
0.1410580575466156
-0.0499449223279953
-0.001164254266768694
-0.0002949342306237668
-0.15001742541790009
-0.0013092998415231705
-0.3282473385334015
-0.00768845621496439
-0.004446287173777819
0.0011401644442230463
-0.14804863929748535
-0.17422416806221008
-0.04246757552027702
-0.023963533341884613
-0.0007746070041321218
-0.0026217487175017595
-0.0003202429215889424
-0.021876176819205284
0.0008741979254409671
0.0007304548053070903
0.006458846852183342
0.0008694584248587489
-0.21304848790168762
-0.2489553987979889
0.0010274384403601289
-0.025851605460047722
0.00037181071820668876
0.0008360425708815455
-0.29529839754104614
-0.018905287608504295
-0.4281400144100189
-0.15266349911689758
0.0913267582654953
-0.05424339324235916
-0.002976112300530076
-0.19800367951393127
-0.10283219069242477
-0.10509194433689117
-0.0390130840241909
-0.249115452170372
-0.010302235372364521
0.0017547725001350045
-0.06706393510103226
-0.00703599164262414
0.00010973697499139234
-0.0009631608263589442
-0.0003610547282733023
0.0012756760697811842
0.0007002430502325296
0.0003661379450932145
-0.00017020733503159136
-0.004480049479752779
0.0007420809124596417
0.0008121338905766606
0.0002788274141494185
-2.9078826628392562e-05
0.023398039862513542
0.00034554238663986325
-0.013768368400633335
0.09483872354030609
-0.02932829037308693
-0.1629720777273178
-0.006420619320124388
-0.0009059393778443336
-0.4275387227535248
0.0008895490900613368
-6.665910041192546e-05
-0.10990526527166367
0.0015383062418550253
-0.001641935552470386
7.699940033489838e-05
-0.018154574558138847
0.000243861461058259
0.19018802046775818
0.0012325363932177424
-0.006616773083806038
0.03808030113577843
-0.0004179704701527953
0.06859699636697769
0.04513563960790634
-0.00013023175415582955
-0.0011452484177425504
0.056589193642139435
-0.0009409039048478007
0.03813755884766579
0.037727098912000656
0.04800482839345932
0.04910292476415634
0.028443634510040283
0.02581821382045746
0.041161343455314636
0.032218970358371735
0.2915734648704529
0.0012128284433856606
0.02854546345770359
0.0012915265979245305
0.029413927346467972
0.0007723383023403585
0.027362678200006485
0.047807492315769196
0.00039375596679747105
0.004668593406677246
0.014528390020132065
0.03795992210507393
0.04507851228117943
0.038094088435173035
0.004473743960261345
0.19901813566684723
0.03875979781150818
0.058440059423446655
0.0006507634534500539
0.04362442344427109
0.044809699058532715
-4.9449517973698676e-05
0.015822242945432663
0.05627799406647682
0.017461007460951805
0.05875207483768463
0.02080591395497322
-0.001375656109303236
0.04107645899057388
0.02476070076227188
0.0017762985080480576
0.06814355403184891
0.06489697843790054
0.0009738720837049186
0.014752022922039032
0.03177870810031891
0.12105165421962738
0.035083282738924026
0.0009706710116006434
0.001605072757229209
0.12952183187007904
-0.00038342989864759147
0.10320311039686203
0.13873234391212463
0.06254348903894424
-0.0007325257174670696
0.02994718961417675
0.07143626362085342
0.04371874779462814
0.02348472736775875
8.492499182466418e-05
0.002070574788376689
-0.0014212500536814332
0.048520706593990326
0.0006434611277654767
-0.0008644092013128102
0.021834073588252068
-3.0304843676276505e-05
0.06955070793628693
0.038124121725559235
0.00016281647549476475
0.03580733388662338
0.003005470847710967
-0.0010546615812927485
0.007548818364739418
0.01615344174206257
0.07482024282217026
0.07206431031227112
0.15453895926475525
0.039934199303388596
0.005029014777392149
0.0960535854101181
0.056964416056871414
0.046784430742263794
0.04823483154177666
0.06455210596323013
0.009766248054802418
0.00017383141675963998
0.08242837339639664
0.0036454431246966124
-0.0004860759945586324
-0.00041965264244936407
-0.0016163678374141455
0.0001554266200400889
0.0007583923870697618
-0.0010640850523486733
0.001541736419312656
0.004777854308485985
-0.00023969958419911563
0.0002265442453790456
-0.00037713191704824567
0.0015557181322947145
0.00787300243973732
0.0005786667461507022
0.01398796122521162
0.14026984572410583
0.021964307874441147
0.1028064638376236
0.03715059533715248
0.0008028459269553423
0.049093097448349
-0.0008648387738503516
-0.0014195727417245507
0.0384739451110363
-4.021502172690816e-05
0.0020229951478540897
-0.0012248567072674632
0.019519707188010216
0.0014759388286620378
0.2169523388147354
-0.0013903528451919556
0.005750773474574089
-0.02278008684515953
0.0004419807519298047
0.0031146651599556208
0.031505927443504333
2.486764242348727e-05
0.0002707817475311458
0.17280344665050507
-0.0003963346825912595
0.04988238587975502
0.026077086105942726
0.09200241416692734
0.005891639739274979
-0.00914671365171671
0.031294602900743484
0.0073200915940105915
0.004019093234091997
-0.03699597716331482
-0.0006476545822806656
0.06654699891805649
-0.002171289874240756
0.029266996309161186
-0.0008675723220221698
0.021453948691487312
0.0324113704264164
-0.0013005820801481605
-0.07787083834409714
0.061773743480443954
-0.014661396853625774
-0.007806812878698111
-0.008536909706890583
-0.06920768320560455
-0.005339254625141621
-0.003078120993450284
-0.0627732127904892
0.000515874708071351
0.0011628533247858286
-0.017313862219452858
-0.0009389954502694309
-0.015164045616984367
-0.017622414976358414
-0.01941942237317562
0.1551295816898346
-0.007387350779026747
6.588018732145429e-05
-0.050613243132829666
-0.011427239514887333
0.0008482856792397797
0.11372624337673187
-0.013734846375882626
3.840147837763652e-05
-0.007840289734303951
-0.00022706987510900944
0.20239153504371643
0.0019696687813848257
0.002200756687670946
0.0009492459357716143
-0.30756568908691406
0.0003761909028980881
-0.10297392308712006
-0.0322047621011734
-0.029865561053156853
-0.00035734285484068096
0.009149579331278801
0.020799212157726288
-0.007863415405154228
-0.00011812938464572653
-0.00042675904114730656
0.00014523611753247678
0.0006566410302184522
0.020761894062161446
0.0005948033649474382
5.880819298909046e-05
-0.00414153840392828
0.0005567985936067998
-0.18420147895812988
0.015251330099999905
-0.0004473965964280069
-0.002029713010415435
0.00370780099183321
-0.0005692518316209316
-0.012534900568425655
0.0011686885263770819
0.03271343931555748
-0.010030311532318592
0.00969835463911295
-0.0005403453251346946
-0.0031455527059733868
0.07854091376066208
-0.02059268206357956
0.018964888527989388
-0.006121985614299774
0.05246672406792641
-0.0010995460906997323
-0.0005336831090971828
-0.01442102063447237
-0.0009754737839102745
-0.00025392332463525236
0.0004029537958558649
0.0008813400054350495
-0.00044611134217120707
0.0007201592088676989
0.0007634582580067217
-0.0020572557114064693
0.0015703169628977776
0.0006620092899538577
-0.0001427343231625855
0.0005891816108487546
0.0012550274841487408
-0.012297556735575199
-0.00016042271454352885
0.0002665536885615438
-0.27653858065605164
-0.00021572690457105637
-0.019644347950816154
0.017041033133864403
0.00042984081665053964
0.03425772115588188
0.0027318112552165985
0.0013312636874616146
-0.012306364253163338
0.0005488466704264283
-5.752414290327579e-05
0.00023175346723292023
0.0005057919188402593
0.000950588146224618
0.21701760590076447
-1.008091840049019e-05
-0.0011376660550013185
-0.02995801344513893
0.00019585735572036356
0.03060462325811386
-0.01778332144021988
-0.000714571331627667
-0.001200529164634645
0.0835486575961113
-0.0008966951281763613
0.020907631143927574
-0.026054024696350098
-0.17305105924606323
-0.01377940271049738
-0.019394123926758766
-0.055048082023859024
-0.04839252308011055
-0.033687569200992584
0.0391593873500824
0.0012583766365423799
0.03768766671419144
0.0005388733115978539
-0.0025414209812879562
0.0014621438458561897
-0.054854102432727814
-0.18241164088249207
-0.001503874664194882
-0.005528081674128771
0.003847926389425993
-0.05272059142589569
-0.09101440012454987
-0.007314222399145365
0.016525540500879288
-0.04003717377781868
-0.00969693623483181
0.12282796204090118
0.0005449082236737013
-0.03063269890844822
0.0026965481229126453
-5.234052878222428e-06
-0.011363798752427101
-0.0021967189386487007
-0.08125785738229752
0.12752266228199005
0.03699347749352455
0.0007966718985699117
0.0039220754988491535
-0.0035004557576030493
0.0016359592555090785
0.06493516266345978
-0.023446906358003616
0.0012396705569699407
0.054056741297245026
0.03408996760845184
0.1001926064491272
0.16198694705963135
0.001842549885623157
0.0017167057376354933
-0.019855471327900887
0.00031007282086648047
-0.1487455815076828
0.019520128145813942
0.03297039866447449
0.0003572522837202996
0.03140518441796303
0.07156165689229965
0.005655663087964058
0.006198975723236799
0.0015938614960759878
0.0004316822160035372
-0.00020987635070923716
0.056117162108421326
-0.0010060545755550265
-0.0010742063168436289
-0.013265609741210938
6.600411870749667e-05
-0.05244296416640282
0.031822171062231064
-0.0019036235753446817
0.016357896849513054
0.00047176654334180057
-0.003711416618898511
-0.008776859380304813
0.010030844248831272
0.024388255551457405
-0.03717711195349693
0.027411000803112984
0.0011736979940906167
-0.0015204197261482477
-0.05457640439271927
-0.0681682899594307
0.12186435610055923
0.015592312440276146
-0.007347082253545523
0.004005511291325092
0.0003230250731576234
0.006602730136364698
0.00023218506248667836
0.0011909875320270658
-0.0001253414520760998
0.0015380315016955137
0.000821650552097708
0.000309299910441041
-0.0014781960053369403
-0.0005665348726324737
-0.0005476587102748454
-0.0003313534252811223
0.00044125650310888886
-8.957236423157156e-05
-0.0020511404145509005
0.007521784398704767
-0.0012138021411374211
0.005415530409663916
0.010331499390304089
0.0009049615473486483
0.3304618299007416
0.005116339307278395
0.0005604857578873634
0.02540399134159088
-0.001559556694701314
-0.00038373342249542475
0.014183428138494492
0.0005220422171987593
-5.653082189382985e-05
-0.0006419472629204392
0.0028230531606823206
-0.0027199320029467344
-0.1899944543838501
0.0010346985654905438
-0.0017770398408174515
0.015480002388358116
-0.00015555796562694013
-0.02778041362762451
-0.006081831641495228
-0.00010832922998815775
-6.349434261210263e-05
0.05076079070568085
-0.0020102637354284525
-0.0322086364030838
-0.022405868396162987
0.04367845878005028
0.022656451910734177
-0.013434295542538166
0.03811707720160484
0.04683800786733627
0.014377059414982796
-0.010127388872206211
0.00018289194849785417
-0.02752872183918953
0.0006780926487408578
0.09839434921741486
-0.0002704224025364965
0.013447525911033154
-0.02192069962620735
0.00037429798976518214
-0.12388242781162262
-0.05651911720633507
-0.007117450702935457
0.056477803736925125
0.003043541219085455
0.022555487230420113
-0.016912192106246948
0.005639809183776379
0.014880760572850704
-0.0010707044275477529
-0.016056666150689125
-0.047419190406799316
-0.001549393287859857
0.06308384984731674
-0.1469818651676178
-0.0689513087272644
0.05832107737660408
0.01484169065952301
-0.0009300619713030756
0.020043304190039635
-0.0011961838463321328
0.001174567616544664
0.008155794814229012
0.011082331649959087
-0.00034042150946334004
0.0070253112353384495
0.025399943813681602
-0.020575813949108124
0.0988919585943222
0.0041815307922661304
0.000637166784144938
0.09071192890405655
-0.00034233753103762865
-0.02231466956436634
0.01537046954035759
-0.19375872611999512
-0.0018557999283075333
0.04925690218806267
0.0020716493017971516
0.011485802941024303
0.010605164803564548
0.0005033499328419566
-0.000257622916251421
-0.002428454114124179
-0.10630428045988083
0.0006490490632131696
-0.0016090977005660534
0.018541492521762848
-0.0014586668694391847
-0.007791969925165176
0.004611058626323938
0.0007352586835622787
-0.0143119590356946
0.007036599330604076
0.003277718788012862
0.13312353193759918
0.00821563322097063
-0.2752876579761505
0.1135571077466011
-0.016406353563070297
0.006734276656061411
-0.001636687433347106
-0.047196123749017715
0.026217184960842133
-0.1116032674908638
0.0052340044640004635
-0.08350171148777008
0.0020524177234619856
-0.0016511251451447606
0.013336051255464554
0.0010210617911070585
-0.00030465266900137067
-0.00025659266975708306
-0.0001869211409939453
0.0010582595132291317
0.0007035016897134483
-0.0012944166082888842
-0.0031114965677261353
-0.002003486966714263
-8.59101510286564e-06
-0.000975569651927799
-0.0017441909294575453
-0.0022465509828180075
-0.02226194739341736
-0.0002203171607106924
0.0051162769086658955
-0.05444999784231186
0.016891729086637497
0.03147629275918007
-0.016640333458781242
-0.0010272706858813763
-0.04479303956031799
-0.00022083555813878775
-0.0015182780334725976
0.02961430326104164
-0.00039839796954765916
0.0008585142786614597
0.0009115913999266922
-0.0008184024482034147
-0.0005203380715101957
0.02686379663646221
-0.000565389113035053
0.00015288150461856276
-0.015970630571246147
-0.0011060895631089807
0.022055454552173615
0.007445166353136301
-0.0010864525102078915
-7.731024379609153e-05
-0.027672424912452698
-0.0007759847212582827
0.05300094559788704
-0.004701592493802309
0.0007566777640022337
-0.010632523335516453
-0.0006182065699249506
-0.03708092123270035
-0.05147390067577362
-0.00034373035305179656
-0.021257231011986732
-0.0004793062689714134
0.046110257506370544
-0.0015457002446055412
-0.04218022897839546
0.001585483900271356
-0.009618822485208511
0.04683906212449074
0.0001691781508270651
0.06570781022310257
0.06158025562763214
0.02108261175453663
-0.0089228181168437
0.0025536776520311832
0.015531354583799839
0.008579133078455925
-0.023531010374426842
-0.03089301660656929
-0.00010159758676309139
0.009959526360034943
0.03935902565717697
5.011047687730752e-05
-0.06412597745656967
0.10450932383537292
0.08067291229963303
-0.07627948373556137
-0.01977933757007122
-0.0006958413287065923
-0.02660309709608555
0.007382705342024565
0.0013535222969949245
0.02807805873453617
-0.03521330654621124
-8.579588029533625e-05
0.0004113285103812814
-0.040335483849048615
0.014521537348628044
-0.07305710762739182
-0.00028257787926122546
-0.00344062433578074
-0.06205623224377632
0.0005173451500013471
0.03178834542632103
-0.00790730956941843
0.12468566000461578
0.0009289293666370213
-0.0784076675772667
0.08962785452604294
-0.008440055884420872
-0.00895463302731514
0.0008117984980344772
0.0057554664090275764
0.002448050072416663
0.07463297992944717
0.0018688052659854293
0.0028314695227891207
-0.02119169384241104
2.3657354176975787e-05
-0.024554647505283356
-0.01657555252313614
-0.0004230437334626913
-0.028194673359394073
-0.00777350552380085
9.036111441673711e-05
-0.13299882411956787
0.00041534577030688524
0.24542029201984406
0.04142767935991287
-0.030561985448002815
0.004472082015126944
-0.001084430143237114
0.011516354978084564
-0.02946188859641552
0.11688484996557236
-0.0236879363656044
0.07270890474319458
-0.0005296958261169493
-0.0006500693853013217
0.003793636802583933
-0.001736370613798499
0.00044801077456213534
0.000424446101533249
0.0009400605340488255
-0.0005007428699173033
-0.0004244290175847709
0.00018430271302349865
0.002243484603241086
-0.007040547672659159
-0.0004838942550122738
0.0004851832054555416
-0.0012658004416152835
-0.001948910765349865
0.02691531367599964
9.892463822325226e-06
-0.00361241539940238
0.052304886281490326
0.031105294823646545
0.003567044623196125
0.00592713663354516
-0.0013104522367939353
0.05919336900115013
-0.0011009445879608393
-0.0006265366682782769
-0.005790335591882467
-0.0003004552854690701
0.0004559626104310155
-0.0007538727950304747
-0.007897992618381977
-0.0009587609092704952
-0.0379251092672348
-0.00284837675280869
-0.003135297680273652
-0.40754857659339905
0.00012723845429718494
-0.5674622058868408
-0.5416538715362549
0.00010150799789698794
-0.00021507982455659658
-0.09879705309867859
-9.218036575475708e-05
-0.2802058160305023
-0.3396461606025696
0.23647302389144897
-0.6052149534225464
-0.47987493872642517
-0.07245264947414398
-0.36745724081993103
-0.367511510848999
0.26544225215911865
0.0004902707296423614
0.04240977019071579
-0.0009795784717425704
0.058417730033397675
0.0003275138733442873
-0.34135913848876953
-0.2837370038032532
-0.00021444358571898192
0.36239778995513916
-0.08153702318668365
-0.07523639500141144
0.06724471598863602
-0.5313523411750793
-0.5401476621627808
0.4236429035663605
-0.342597097158432
-0.3263472318649292
0.0009660125942900777
-0.3727671205997467
-0.27457869052886963
0.0032408959232270718
-0.5310417413711548
0.11072032153606415
-0.03900604322552681
0.06135270372033119
-0.3622422516345978
7.895305316196755e-05
-0.35859808325767517
-0.41129130125045776
9.05217748368159e-05
-0.04623604193329811
-0.39395207166671753
0.0010426552034914494
-0.1415632665157318
-0.4693997800350189
0.20436882972717285
0.034441277384757996
0.0047081224620342255
-0.0005985210882499814
0.10868798196315765
0.001529707689769566
-0.2870194911956787
-0.015268229879438877
-0.11567269265651703
-0.00033357396023347974
-0.2668960988521576
0.004721540492027998
-0.003429892472922802
-0.0033987234346568584
0.002480678725987673
0.0007761931046843529
0.0001688758347881958
-0.059590812772512436
-0.0006154688308015466
-0.0009673655731603503
0.034385982900857925
0.00132989592384547
-0.0038935875054448843
-0.35264554619789124
0.0003015110269188881
-0.004457610659301281
0.01949870027601719
0.00015923120372463018
-0.34972846508026123
-0.0031534514855593443
-0.2423352152109146
0.025115126743912697
-0.2245490998029709
0.006813345476984978
-0.000966974999755621
0.023193510249257088
-0.027330007404088974
-0.017124926671385765
-0.013538770377635956
-0.1827755570411682
-0.0013668877072632313
-0.00029469552100636065
-0.020623186603188515
-7.495905447285622e-05
-0.0008767744875513017
-0.001084146206267178
-0.00011980454291915521
0.0005049329483881593
0.0010712171206250787
-0.0008011055761016905
0.0016924897208809853
-0.0029779491014778614
-0.00039898944669403136
0.0005118356202729046
-0.0005538941477425396
6.928164657438174e-05
0.028764301910996437
0.001387398922815919
-0.0035004608798772097
0.06832154840230942
0.012255013920366764
0.005072291474789381
-0.03578914701938629
0.001679367502219975
-0.5774391293525696
-0.0010005664080381393
0.0018433945951983333
-0.3616052567958832
-0.0007454805891029537
0.000983283855021
0.0006597296451218426
-0.001245377236045897
0.0008215155103243887
0.051712699234485626
-0.00016022186900954694
-0.0002749031991697848
0.040653787553310394
0.0008334374870173633
0.08704421669244766
0.049560438841581345
-0.00023165684251580387
-0.0014642799505963922
0.1513395458459854
-8.543433068552986e-05
0.13000166416168213
0.035049401223659515
0.18073293566703796
0.04584761708974838
0.016219612210989
0.04988979920744896
0.057984910905361176
0.03629814088344574
0.3740253746509552
0.0010614298516884446
0.04497896507382393
0.000701131415553391
0.040800776332616806
0.0007823032210581005
0.023769520223140717
0.05903369188308716
-0.0012990826508030295
0.04044066742062569
0.021788042038679123
0.05733261629939079
0.07974685728549957
0.0340559296309948
0.030070386826992035
0.17331695556640625
0.0305998083204031
0.07065533101558685
-0.0008711176924407482
0.04662749916315079
0.04141271114349365
-0.0034491673577576876
0.03623088821768761
0.039402615278959274
0.01902027241885662
0.11611968278884888
0.021779505535960197
0.00026328774401918054
0.04062113165855408
0.028379477560520172
0.0013954081805422902
0.09305601567029953
0.05895424261689186
0.001598968985490501
0.020460307598114014
0.03727787360548973
0.1291455179452896
0.05949621647596359
0.0027897136751562357
0.0023734804708510637
0.2574947476387024
-0.0003472362004686147
0.17357870936393738
0.20417284965515137
0.056400127708911896
0.0004500553186517209
0.033410247415304184
0.11918129026889801
0.06147639825940132
0.034669436514377594
-0.00012076002167304978
0.0022245654836297035
2.234817475255113e-05
0.046378243714571
0.0011007711291313171
-0.002594846999272704
0.027731584385037422
0.0011292494600638747
0.13092319667339325
0.0474872961640358
0.0007734301034361124
0.047965385019779205
0.005141163244843483
-0.0006292148027569056
0.02780935913324356
0.02321699820458889
0.058276012539863586
0.11389037221670151
0.13985347747802734
0.05974992364645004
0.005708897020667791
0.15473462641239166
0.0777709037065506
0.058190636336803436
0.06829757988452911
0.06710301339626312
0.014569876715540886
-0.0016397017752751708
0.11440374702215195
0.007536948658525944
-0.0009297994547523558
-0.0003187708789482713
0.0019325542962178588
-0.0019211950711905956
-0.0010202649282291532
0.00037177893682383
-0.0010966456029564142
0.0053781247697770596
0.00037165978574194014
0.0007308983476832509
-0.00017672829562798142
0.0002083358558593318
0.004975103307515383
-0.0005979071720503271
0.02007262408733368
0.12142574787139893
0.036721304059028625
0.1822311133146286
0.0453193262219429
-0.001318422262556851
0.047357991337776184
0.0004468514525797218
0.0001526569394627586
0.05596774071455002
0.0011452272301539779
7.588168955408037e-05
1.4223544894775841e-05
0.02778906747698784
0.0023077551741153
0.2569456696510315
-0.0012075643753632903
0.008619444444775581
-0.016211852431297302
0.00026783859357237816
0.017504634335637093
0.018561212345957756
0.00069815554888919
-0.00082651327829808
0.23142141103744507
0.0018953111721202731
-0.02439059503376484
0.007238209247589111
0.06573531776666641
0.020367734134197235
-0.010264337062835693
0.019471019506454468
0.010318337008357048
-0.014083572663366795
-0.008264286443591118
0.0012114661512896419
-0.018025295808911324
0.00020218976715113968
-0.05587723106145859
-0.0007563912076875567
0.025746595114469528
0.021149007603526115
-0.0014180386206135154
-0.0800541341304779
0.07204190641641617
0.06318118423223495
-0.0640268549323082
-0.03356359899044037
-0.07545997202396393
0.007785214576870203
0.004252703860402107
-0.03980842977762222
0.0008419494261033833
-0.012748012319207191
0.012633880600333214
-0.000512960075866431
0.0058782072737813
-0.07124071568250656
0.007402717601507902
-0.031030049547553062
0.009756127372384071
-0.0013082170626148582
-0.01995963230729103
0.008978421799838543
-0.00036701583303511143
0.30308830738067627
0.00351930083706975
0.0005040396936237812
0.012791224755346775
0.008316162042319775
0.20686832070350647
-0.04077722504734993
-0.0012191140558570623
-0.001858312520198524
-0.32886508107185364
0.00024821399711072445
-0.09407192468643188
-0.028967177495360374
-0.19821564853191376
-0.0015462981536984444
-0.0038399016484618187
0.022879505529999733
-0.001779899699613452
-0.0009485417976975441
-0.0011563166044652462
-0.00028223133995197713
0.00016511425201315433
0.03947269171476364
-0.0005491426563821733
3.3287142287008464e-05
-0.034346941858530045
0.0009009830537252128
0.1561741977930069
0.02505633607506752
-0.00045490270713344216
-0.0019077357137575746
-0.0008727313252165914
5.1726645324379206e-05
-0.030464673414826393
-0.0008305025985464454
0.026521826162934303
-0.004570657853037119
0.003978056833148003
-0.0015178278554230928
0.00037080858601257205
-0.006815878674387932
0.021522779017686844
-0.010467632673680782
-0.003442207118496299
0.0073516336269676685
-0.0008504500146955252
-0.00012161662016296759
0.007876716554164886
0.0005047039012424648
-0.0022614020854234695
-0.0010340871522203088
-0.0002608608338050544
-0.00028384142206050456
0.0011846742127090693
0.0004373815609142184
0.002076477278023958
0.0015697889029979706
0.00014123410801403224
0.0015592911513522267
-0.0006042611785233021
0.004420087672770023
-0.037834957242012024
0.00032203103182837367
-0.0006726786377839744
-0.1628350019454956
-0.006993203889578581
-0.02909735031425953
-0.2528313994407654
-0.0013338795397430658
0.0462743304669857
0.0028543551452457905
0.0026471761520951986
0.03213692083954811
-0.001227248110808432
0.0010592559119686484
-0.0007871852722018957
-0.0012311020400375128
0.0019932666327804327
0.14979258179664612
0.0007926751277409494
0.0007501518703065813
0.004811672028154135
-0.00015185042866505682
0.06846380233764648
0.005351504310965538
-0.0015524117043241858
-0.0018264601239934564
0.01389208436012268
0.00012693692406173795
0.004082011058926582
0.0042112418450415134
-0.07829045504331589
-0.018312161788344383
0.0053840815089643
0.060034316033124924
0.011033182963728905
0.06109020113945007
0.019953932613134384
-0.0016230189939960837
-0.023142285645008087
-0.00028056310839019716
-0.0175951961427927
0.00015695698675699532
-0.08058205246925354
-0.2555948495864868
0.0001464112283429131
0.008265252225100994
-0.04460056126117706
-0.1026175394654274
-0.30987295508384705
-0.008790205232799053
-0.03301285207271576
-0.02820655331015587
0.09741990268230438
0.025634249672293663
0.0013527977280318737
-0.04886013641953468
-0.061074305325746536
0.0002141157165169716
0.00954422540962696
-0.022164201363921165
-0.2709469199180603
-0.09414906054735184
-0.06561429798603058
-0.0010671599302440882
-0.010732081718742847
-0.0480361133813858
0.0006988415843807161
0.028233308345079422
0.013178501278162003
-0.00011111520871054381
0.07763826847076416
0.021257473155856133
0.047510746866464615
-0.038859885185956955
0.000610704009886831
-0.003935083746910095
0.044160135090351105
0.00027234075241722167
-0.11522073298692703
-0.08154144883155823
-0.031947918236255646
0.0002246101212222129
-0.04241177812218666
0.0024234249722212553
0.0004905359819531441
-0.003919555805623531
-0.0006886711344122887
-0.00018383086717221886
0.0012788233580067754
0.06452751159667969
0.000137221984914504
0.0008814195170998573
-0.011312471702694893
-0.0008527037571184337
-0.01502999011427164
-0.040878474712371826
-0.0005773362354375422
-0.020373884588479996
0.004571541678160429
-0.00012457369302865118
0.028480838984251022
-0.002214760985225439
0.002949816407635808
0.020840724930167198
0.03219858929514885
0.00803294125944376
-0.003381533781066537
0.09398183971643448
0.10496115684509277
0.16547809541225433
0.0079362653195858
0.03638629987835884
0.00022783127496950328
0.0006600185879506171
-0.0025020947214215994
-0.00027499382849782705
0.0015654601156711578
0.0007693861261941493
-0.00031145973480306566
9.96221206150949e-05
-0.0003046057536266744
-0.0005289015825837851
-0.000274034304311499
0.0003177692706231028
-2.212185790995136e-05
-0.0008523439755663276
0.0005880148964934051
0.0037097486201673746
-0.017069028690457344
-0.0011199816362932324
0.000745522731449455
0.025016559287905693
-0.0020930368918925524
0.2807113826274872
0.0921512171626091
-0.001405067159794271
0.031734101474285126
0.001165370224043727
0.00045155471889302135
0.15563638508319855
-5.048466846346855e-05
9.18152290978469e-05
0.0010420690523460507
-0.006076086778193712
0.0012843339936807752
-0.01539677008986473
-0.001436920021660626
-0.0017141344724223018
0.003483455628156662
0.00030098375282250345
0.005575882736593485
-0.010332620702683926
0.0005632319371215999
-0.001658605644479394
0.025217674672603607
-0.000980081153102219
-0.036407724022865295
-0.001226490712724626
0.02621646225452423
-0.0097366226837039
-0.0071783363819122314
0.00608785729855299
0.0202480535954237
0.00624381098896265
0.001628596568480134
-0.0006426340551115572
0.006737357005476952
-0.0011953189969062805
0.08368434756994247
-0.00012427481124177575
0.0017407682025805116
0.0012143005151301622
0.0008533632499165833
-0.06343032419681549
-0.030568335205316544
-0.018297312781214714
0.06377062946557999
-0.017546895891427994
0.010832193307578564
-0.019999155774712563
-0.0027133554685860872
0.0031173834577202797
-0.0010676139499992132
0.0027192181441932917
0.0077008092775940895
0.00015696561604272574
0.026019463315606117
-0.29437199234962463
-0.03791128844022751
-0.020959362387657166
-0.006514428649097681
0.0004896817845292389
-0.01121603511273861
-0.0033151786774396896
0.0004188284801784903
0.004359465092420578
0.006376594305038452
0.0010648330207914114
0.012426073662936687
0.021444501355290413
-0.02119782194495201
0.09968110918998718
0.006341476924717426
0.000771684164647013
0.03256142884492874
-0.0024057996924966574
0.019164126366376877
0.003191731171682477
0.003436484606936574
0.0011405657278373837
0.00427679717540741
0.03696031868457794
-0.0022757078986614943
0.005276231095194817
-0.00018896590336225927
0.000382367055863142
0.00025953672593459487
-0.007094713393598795
0.00037937628803774714
-0.0010259535629302263
-0.06563621759414673
-0.00041348571539856493
-0.02159595489501953
0.0035604112781584263
-0.0015588629757985473
-0.021629154682159424
-0.04545864835381508
-0.0006558510358445346
0.03148321434855461
-0.005576637107878923
-0.06736012548208237
-0.02878415584564209
-0.02624218910932541
0.0029353369027376175
-0.0094115836545825
0.007185932714492083
0.008013973943889141
-0.061781276017427444
0.0005408622673712671
-0.0031889318488538265
-0.001064642216078937
0.004493693821132183
0.0030555168632417917
-0.004202523734420538
-0.0008760286145843565
-0.002002002904191613
0.001047290163114667
0.0020400595385581255
0.0009044805774465203
0.0027784197591245174
0.006844822783023119
0.0026125735603272915
0.0007405917858704925
-0.00022310015629045665
-0.0009947612415999174
-0.009615341201424599
-0.06057918816804886
-0.0008688717498444021
0.005479620769619942
-0.02508256770670414
0.08853723108768463
0.0294620543718338
-0.029211821034550667
-0.000996796996332705
0.0005725829978473485
0.002911981660872698
0.0006080002058297396
0.013326832093298435
0.0006690665613859892
0.0008738797623664141
-0.0006026317132636905
-0.012127378024160862
0.00040855028782971203
0.007367730140686035
-6.018715794198215e-05
0.0005417483625933528
0.02095312811434269
0.0012845713645219803
0.00615387037396431
-0.004632304888218641
0.001015453482978046
0.0002450535539537668
-0.016356294974684715
-1.7789165212889202e-05
0.04327913373708725
0.0015921259764581919
-0.028295882046222687
0.008886422961950302
0.00911850668489933
-0.005541435908526182
-0.01646929793059826
0.0055526429787278175
-0.009678422473371029
9.270550071960315e-05
-0.09602198004722595
0.0005007566651329398
-0.1668332815170288
0.0008826363482512534
0.0024825173895806074
0.0004555783234536648
0.0014277996961027384
0.007192567922174931
0.04163103550672531
0.021447014063596725
-0.08129069209098816
0.03355387970805168
0.007276288233697414
-0.011426606215536594
0.007881582714617252
-0.009251526556909084
-0.00022805969638284296
0.0020387505646795034
0.013791610486805439
0.002354042837396264
-0.000441473355749622
0.07790648192167282
0.0877009928226471
0.027931667864322662
0.0011452693725004792
0.0003891620726790279
-0.011950497515499592
0.017080599442124367
0.0009679924114607275
0.006274040788412094
-0.0034494667779654264
0.0009985779179260135
-0.004625544883310795
-0.013795020058751106
-0.00027059565763920546
-0.058123353868722916
-0.014173594303429127
-8.497977250954136e-05
-0.02759123221039772
-0.00015205393719952554
0.00757081713527441
6.907421266078018e-07
0.07149501889944077
0.0004980027442798018
-0.008955941535532475
0.03445426747202873
0.009940068237483501
0.011212030425667763
0.0007700418354943395
0.0008124326705001295
0.0012688090791925788
-0.07450944185256958
-0.0008836659253574908
-0.0013196971267461777
-0.11038300395011902
-0.0004245519812684506
-0.012735666707158089
0.0003156896564178169
-0.0012766713043674827
-0.008733045309782028
-0.005162132438272238
0.0013214850332587957
-0.0046772039495408535
0.00596070708706975
0.1816052794456482
-0.01865055039525032
-0.0015737919602543116
0.02335272915661335
0.0035256666596978903
-0.014594253152608871
0.12483075261116028
0.024878762662410736
0.011050458066165447
0.010224750265479088
0.004773594439029694
0.0005704415962100029
0.026234610006213188
0.0011371347354725003
-0.0001449810661142692
-0.000507196644321084
-0.0011099885450676084
-0.0021712344605475664
-0.003964063245803118
-0.0017739313188940287
0.0043501947075128555
0.002001256449148059
-0.00044574119965545833
0.0006804203148931265
-0.00017220793233718723
0.002001421060413122
0.04858752712607384
-0.0014835118781775236
0.0002920868864748627
0.010612829588353634
-0.025278275832533836
-0.039649710059165955
-0.006111308466643095
-0.0012755594216287136
0.043061744421720505
-0.0026932803448289633
0.002457604743540287
0.010742650367319584
-0.0013387469807639718
-0.00012053515092702582
0.0003307563893031329
0.003189300186932087
-0.004001646302640438
-0.012571294791996479
0.0008687573135830462
-0.0013229165924713016
-0.4276176691055298
0.0012123597552999854
-0.08369698375463486
-0.537297248840332
-0.00014041204121895134
-0.00119629199616611
-0.244637593626976
0.0002249693643534556
0.07760009169578552
-0.4541289508342743
0.28093311190605164
-0.6972969174385071
-0.41249990463256836
-0.5117479562759399
-0.6545023322105408
-0.4185003638267517
-0.20436732470989227
-0.0003004855534527451
-0.022503573447465897
-0.00022187923605088145
0.0927223339676857
0.0002312543074367568
-0.48608240485191345
0.06631558388471603
9.417169349035248e-05
-0.0091251190751791
0.36603567004203796
0.2694632112979889
-0.019392456859350204
-0.4576520323753357
-0.22365204989910126
0.15955552458763123
-0.6112304329872131
-0.4635646343231201
0.0036164619959890842
-0.4529910087585449
-0.344970703125
0.002758074551820755
-0.6610773205757141
-0.033392533659935
0.01930614374577999
-0.02680627629160881
-0.5125449895858765
0.0034349148627370596
-0.4752410650253296
-0.32199087738990784
0.0029176778625696898
0.1734730750322342
-0.46776214241981506
0.0003458715509623289
-0.4177490472793579
-0.5535284876823425
0.17555783689022064
0.0686497762799263
0.0009971620747819543
-0.003517275908961892
-0.022865846753120422
0.0003445141774136573
-0.07147681713104248
0.34658098220825195
0.08862867951393127
-7.399257447104901e-05
-0.4930594563484192
-0.0010329711949452758
0.0023222207091748714
-0.0017699511954560876
-0.0007613023044541478
0.002472842577844858
-3.1638890504837036e-05
-0.18196026980876923
0.002786806784570217
0.0004460904165171087
-0.09340700507164001
0.0007425922667607665
-0.014423615299165249
-0.43253952264785767
8.198501745937392e-05
-0.0036315612960606813
0.014804909937083721
-0.0007079991628415883
-0.6665302515029907
-0.0035718472208827734
-0.1332392394542694
-0.0017386855324730277
-0.5248548984527588
0.00046281443792395294
0.0031349926721304655
-0.012761815451085567
0.015559433959424496
0.08814094960689545
-0.004975901450961828
0.37201908230781555
0.0012541341129690409
0.0015056667616590858
-0.006650680676102638
0.0008817669004201889
0.0013044069055467844
0.0026648277416825294
0.0016407087678089738
0.0011147800832986832
0.003497689962387085
0.0031340853311121464
0.011716273613274097
-0.0016769543290138245
0.0009757819352671504
0.0008076325175352395
0.0008871193276718259
0.00835074856877327
0.34360235929489136
0.0007150172023102641
-0.001378720044158399
0.237710639834404
0.0002498679968994111
0.10995734483003616
0.006764366757124662
-4.1881841752910987e-05
-0.06266244500875473
-2.9489128792192787e-05
0.0004602570552378893
0.17454510927200317
-2.066316665150225e-05
0.0012711001327261329
0.00018390611512586474
-6.050288448022911e-06
-0.0006094821728765965
0.015510475262999535
0.0014024951960891485
-0.0006903379107825458
0.048447005450725555
0.0008575134561397135
0.282855749130249
0.047102633863687515
-0.0002617950376588851
0.0017692478140816092
0.13563497364521027
5.943215364823118e-05
0.21628230810165405
0.027895068749785423
0.1611262559890747
0.04793797433376312
0.01725962571799755
0.02872910536825657
0.0076568215154111385
0.04185915365815163
0.2072877436876297
0.00016059668269008398
0.0532313771545887
-0.0006646370165981352
0.050837382674217224
-0.0012428483460098505
0.03641561418771744
0.14041443169116974
-0.0006435800460167229
0.02275726944208145
0.04210548847913742
0.09571939706802368
0.06699065864086151
0.053990889340639114
0.10165941715240479
0.14525018632411957
0.04157254844903946
0.06578458100557327
0.0005540016572922468
0.04974997416138649
0.08763427287340164
4.395439646032173e-06
0.01335679180920124
0.045268088579177856
0.04662248492240906
0.16087564826011658
0.019024210050702095
-0.0014605262549594045
0.02197347581386566
0.035921599715948105
-0.0007553178584203124
0.1443658173084259
0.052245207130908966
-0.0008341490756720304
0.012695206329226494
0.02657851204276085
0.12477879226207733
0.05840329825878143
0.00023601125576533377
0.0008826510747894645
0.17021507024765015
-0.0019616978242993355
0.3278268873691559
0.23740583658218384
0.1111527681350708
-0.0012380824191495776
0.022842910140752792
0.16832557320594788
0.0749979019165039
0.04562445357441902
0.0005582774174399674
0.0021236222237348557
2.103792030538898e-05
0.051689911633729935
-0.0009305758285336196
0.0003662123635876924
0.020763205364346504
-0.0002513861400075257
0.19092336297035217
0.03378133475780487
-0.0004141950630582869
0.06409037858247757
0.004182405304163694
-0.00025336124235764146
0.01224960945546627
0.031206971034407616
0.14235098659992218
0.14873658120632172
0.0813082680106163
0.07213449478149414
0.005529781803488731
0.22009658813476562
0.13708408176898956
0.09714432805776596
0.08993946760892868
0.21949449181556702
0.017635921016335487
0.0005095879314467311
0.14557842910289764
0.0071139526553452015
0.0006523554329760373
0.0005888798623345792
-0.0020372113212943077
-0.001865364029072225
-0.0008005514973774552
-0.0006851984653621912
-0.00015683218953199685
0.006272146012634039
-0.0007748452480882406
0.00043515334255062044
-0.0005830124719068408
0.0002729822008404881
0.008937506005167961
-0.0004976342315785587
0.02488853596150875
0.19577839970588684
0.041526418179273605
0.21423950791358948
0.07597935199737549
0.0006636854377575219
0.1649034172296524
-0.0011692102998495102
-4.201043793727877e-06
0.09833171963691711
2.0060231690877117e-05
-0.00015268009155988693
-0.0007551440503448248
0.033142171800136566
0.0009828547481447458
0.2391277700662613
-0.0006947926594875753
0.01060508843511343
