-0.09771909564733505
-0.12730561196804047
-0.07868396490812302
-0.027308180928230286
-0.11083699762821198
-0.0809042677283287
0.04658161848783493
-0.020309284329414368
8.557317778468132e-05
-0.08484791964292526
-0.10418187826871872
-0.09579648822546005
-0.025191394612193108
-0.0699084997177124
-0.04798513278365135
0.049074165523052216
-0.0621044784784317
-0.041996657848358154
-0.05449342727661133
0.006663378793746233
-0.11405383795499802
-0.005974665749818087
0.000772850529756397
-0.08253022283315659
0.03768474981188774
0.03940139338374138
-0.08910466730594635
0.10195142775774002
0.026798229664564133
0.017304997891187668
0.08015437424182892
0.07757514715194702
0.004635320510715246
0.08237329870462418
0.05719055235385895
-0.02139132469892502
-0.12122782319784164
-0.13743235170841217
-0.0995846763253212
-0.08980177342891693
-0.11029808968305588
-0.11682025343179703
-0.10457821190357208
-0.10391771793365479
-0.13276442885398865
0.014039536938071251
-0.022437969222664833
0.002404164057224989
0.04749337211251259
0.012685764580965042
-0.01348956860601902
0.0430617593228817
0.022794928401708603
-0.03195696324110031
0.5366986989974976
-0.018389154225587845
-0.4609633684158325
0.44185391068458557
0.12029891461133957
-0.3497679829597473
0.12179949134588242
-0.06053784117102623
-0.3186510503292084
0.48551735281944275
-0.10279582440853119
-0.6499894261360168
0.5264703631401062
0.14190524816513062
-0.4201448857784271
0.3163022994995117
0.05974847450852394
-0.29464566707611084
0.022746818140149117
-0.04231344535946846
-0.30637601017951965
0.08022098243236542
0.21739518642425537
-0.12539111077785492
-0.09591266512870789
0.16484186053276062
0.05322449281811714
0.1296270787715912
0.021628422662615776
-0.4582201838493347
0.05706356465816498
-0.32769718766212463
0.38018062710762024
0.01802166737616062
-0.004982262384146452
-0.06558064371347427
-0.0030162567272782326
-0.1335124373435974
-0.7937492728233337
0.06352654099464417
-0.4596078097820282
0.582675576210022
0.05924636498093605
-0.026112167164683342
0.1745724231004715
-0.1494879424571991
-0.08323922008275986
-0.3459881544113159
-0.007567457854747772
-0.16920697689056396
0.5864022374153137
-0.013176996260881424
0.06158985197544098
-0.008423392660915852
0.024765122681856155
-0.01812322624027729
-0.025537094101309776
-0.04900399222970009
-0.04660092666745186
-0.06207885593175888
-0.01716664433479309
0.0034442520700395107
-0.013165951706469059
-0.028945159167051315
-0.11747246235609055
-0.0845128670334816
-0.08847858011722565
-0.17005078494548798
-0.1596277505159378
-0.05051402002573013
-0.08834243565797806
-0.07569108158349991
0.09489411860704422
0.12313902378082275
0.14353030920028687
0.07290315628051758
0.10476046055555344
0.1182876005768776
0.10947276651859283
0.11966396123170853
0.12521232664585114
-0.08171077817678452
-0.033889614045619965
0.19663456082344055
0.12079276144504547
0.15074694156646729
0.415525883436203
-0.28775715827941895
-0.24640057981014252
-0.19082337617874146
-0.12607890367507935
-0.06590306758880615
0.19521081447601318
0.11390228569507599
0.15887893736362457
0.455985963344574
-0.28125473856925964
-0.2437710165977478
-0.15443135797977448
-0.05521155148744583
0.0032929962035268545
0.11031712591648102
0.08125899732112885
0.1333378404378891
0.2872135043144226
-0.16669230163097382
-0.11573950201272964
-0.14981944859027863
-0.08517277240753174
-0.3936942517757416
-0.663983166217804
-0.1680229902267456
-0.19077153503894806
-0.5331190228462219
0.38063517212867737
0.5223811268806458
1.1578551530838013
-0.20505115389823914
-0.5375961065292358
-0.8231634497642517
-0.15999069809913635
-0.13917221128940582
-0.467144250869751
0.3279748558998108
0.6535305380821228
1.394728660583496
0.03996540978550911
-0.047079529613256454
-0.26815202832221985
-0.0772806853055954
0.04846075922250748
-0.27580031752586365
-0.08085183799266815
0.05454006791114807
0.548907995223999
0.026318363845348358
0.133483424782753
0.09025870263576508
-0.058577824383974075
0.06303668767213821
0.26239901781082153
0.26140403747558594
0.16676115989685059
0.1331835687160492
-0.01593063957989216
-0.03878992050886154
-0.15771359205245972
-0.22936752438545227
-0.2553159296512604
-0.07013588398694992
0.08298683911561966
-0.1805707812309265
-0.26789361238479614
0.12460754811763763
0.08547544479370117
0.13693515956401825
-0.1393221616744995
-0.14144930243492126
0.1741502285003662
0.10357733070850372
-0.09943833947181702
-0.010885100811719894
0.2119150310754776
0.3847202658653259
0.0811653658747673
-0.10412656515836716
-0.5697377324104309
-0.07066228985786438
0.022021377459168434
-0.07327049225568771
0.021737029775977135
0.14799538254737854
0.2943090498447418
0.0025027866940945387
-0.12183673679828644
-0.7740963697433472
-0.06557212769985199
0.10547034442424774
-0.1526460200548172
0.05629585683345795
-0.19324956834316254
0.13459110260009766
-0.12436109781265259
-0.04414978250861168
-0.10544060170650482
0.10303272306919098
-0.06823509186506271
0.08607795834541321
-0.0015638512559235096
-0.06259932368993759
-0.045584890991449356
-0.04660876467823982
-0.10139263421297073
-0.10967108607292175
-0.11813756823539734
-0.15257392823696136
-0.16735543310642242
-0.15943871438503265
-0.08439916372299194
-0.08861133456230164
-0.08783586323261261
-0.06524378061294556
-0.10256673395633698
-0.12561722099781036
-0.07292404025793076
-0.11520951241254807
-0.175944522023201
-0.054979756474494934
-0.02359134331345558
0.01308213546872139
0.0686892420053482
0.015212575905025005
0.04486159607768059
0.05106327310204506
-0.049172740429639816
-0.02951260842382908
0.08961290866136551
-0.0033905282616615295
0.006658799480646849
0.14825765788555145
0.02027885802090168
0.010881777852773666
0.17205940186977386
0.025208042934536934
0.0177006758749485
0.032823242247104645
-0.04572147876024246
-0.05027320981025696
0.05977768078446388
-0.030205339193344116
-0.05546710267663002
0.08203347772359848
-0.009959052316844463
-0.03580633923411369
-0.12612763047218323
-0.1130668893456459
-0.08853127062320709
-0.07656403630971909
-0.09692820906639099
-0.07787826657295227
-0.10692348331212997
-0.11563603579998016
-0.09064037352800369
-0.051287807524204254
0.23535658419132233
0.22249501943588257
0.09873110055923462
0.18699491024017334
0.2537647783756256
0.17918644845485687
0.1078142300248146
0.1695519983768463
-0.11203542351722717
0.19085627794265747
0.23111267387866974
-0.01716279610991478
0.11497195065021515
0.23576603829860687
0.07479694485664368
0.047108035534620285
0.16804642975330353
-0.4597267210483551
-0.21051427721977234
-0.12238427251577377
-0.4101617932319641
-0.29986658692359924
-0.1434108465909958
-0.30826336145401
-0.31994444131851196
-0.16733013093471527
0.7041265368461609
-0.07333079725503922
-1.088183879852295
0.748944103717804
0.2666861414909363
-0.7578617930412292
0.40675458312034607
0.27499133348464966
-0.4709477722644806
0.9104882478713989
-0.12533770501613617
-1.1199226379394531
0.8576404452323914
0.1830834448337555
-0.8850644826889038
0.5379270315170288
0.19183099269866943
-0.5669259428977966
0.11444475501775742
-0.06339408457279205
-0.12328983843326569
0.03716548532247543
-0.009314335882663727
0.03723471611738205
-0.05303990840911865
-0.004388965666294098
0.08998361229896545
-0.8420554995536804
0.34598612785339355
-0.01840836927294731
-0.3081830143928528
0.5573413372039795
0.22304755449295044
-0.29621583223342896
0.31009411811828613
0.05084498971700668
-0.8144413828849792
0.29562821984291077
-0.04868466034531593
-0.2449205368757248
0.5317525863647461
0.23816518485546112
-0.24135391414165497
0.28076717257499695
0.04836087301373482
-0.3936149775981903
0.18125499784946442
0.006356699857860804
0.019644008949398994
0.20342214405536652
0.06538649648427963
0.025108452886343002
-0.044345296919345856
-0.021991483867168427
0.03865933418273926
-0.03621440753340721
-0.02074599638581276
0.013079607859253883
-0.019518133252859116
0.021055683493614197
0.00034878382575698197
0.007733466569334269
-0.006360288243740797
-0.007667986210435629
-0.0016946541145443916
0.007622719742357731
0.0010167584987357259
-0.024005252867937088
0.02135709673166275
0.020394671708345413
0.013696914538741112
0.011919123120605946
-0.024149838835000992
0.01323727611452341
0.01091084536164999
-0.017200466245412827
-0.042571406811475754
0.003339825663715601
0.022912899032235146
-0.014500703662633896
0.0014066165313124657
0.048448868095874786
0.11743835359811783
-0.11169575154781342
0.28005144000053406
0.192820206284523
0.1255960613489151
0.16112327575683594
0.12797467410564423
-0.02032443694770336
-0.014920983463525772
0.13918806612491608
-0.09631533920764923
0.21933382749557495
0.19644853472709656
0.10743921995162964
0.1414056420326233
0.15255415439605713
0.03267066553235054
-0.020901447162032127
0.07286276668310165
-0.02887512743473053
0.03533186763525009
-0.02888045832514763
0.05053652450442314
-0.022160660475492477
-0.05905119329690933
-0.00022743250883650035
