-0.024177156388759613
-0.022013239562511444
-0.04220614954829216
0.004294185433536768
-0.00574531452730298
0.012454249896109104
-0.023855311796069145
-0.024902720004320145
-0.0034517457243055105
-0.0010527969570830464
0.06286599487066269
0.11514238268136978
-0.014818689785897732
0.047017525881528854
0.10510788857936859
-0.03287535533308983
0.01585974730551243
0.08257128298282623
0.04688480868935585
0.10918592661619186
-0.15800979733467102
-0.045439064502716064
0.0325540155172348
-0.15611492097377777
0.01666819117963314
0.16952601075172424
-0.08736991137266159
-0.3473382890224457
-0.1908867061138153
0.11028696596622467
-0.20709459483623505
-0.11382938176393509
0.15772974491119385
-0.3292895555496216
-0.2586444020271301
0.046436991542577744
-0.08017811179161072
0.007211902178823948
0.07973577827215195
-0.07949415594339371
0.023756809532642365
0.09848347306251526
-0.12478788197040558
-0.03213077411055565
0.04257309436798096
-0.10120953619480133
-0.20264063775539398
0.025725064799189568
-0.16238294541835785
-0.2926754653453827
-0.013867913745343685
0.03896702826023102
-0.09247848391532898
0.1068582758307457
-0.20072489976882935
-0.19738347828388214
-0.026905955746769905
-0.06401047110557556
-0.11571328341960907
0.118564173579216
-0.09631966054439545
-0.13627220690250397
0.032610658556222916
-0.07394283264875412
-0.07074149698019028
0.11476051807403564
-0.060799188911914825
-0.08945556730031967
0.09315527230501175
-0.03200576826930046
-0.05089651048183441
0.11941613256931305
-0.07177896797657013
-0.15064844489097595
-0.06880893558263779
-0.05361358821392059
-0.18452367186546326
-0.05870892107486725
-0.01237509585916996
-0.10599739849567413
0.010285121388733387
-0.2110161930322647
0.012178413569927216
0.10455411672592163
-0.1075238436460495
0.10715382546186447
0.18283744156360626
-0.11115077883005142
0.05355243757367134
0.11768704652786255
-0.05280555412173271
-0.0414779856801033
0.01016004104167223
-0.057763442397117615
-0.0384712852537632
0.01718774251639843
-0.04577641561627388
-0.03498678654432297
0.014975118450820446
-0.1107993796467781
-0.15262138843536377
-0.08098000288009644
-0.02681691013276577
-0.07160227745771408
0.05013563483953476
-0.016856573522090912
-0.05740924924612045
0.07711077481508255
-0.10501265525817871
-0.02125951088964939
0.23266996443271637
-0.06695035845041275
-0.1427980363368988
0.1756807565689087
-0.18212801218032837
-0.22866283357143402
0.03421321138739586
-0.19233562052249908
-0.17873449623584747
0.0413215272128582
-0.26232093572616577
-0.26616567373275757
-0.11676495522260666
-0.16383974254131317
-0.19686636328697205
-0.03654039651155472
0.03477194532752037
0.024610720574855804
0.025700177997350693
0.021774133667349815
0.011398671194911003
0.00014290085528045893
0.008627957664430141
-0.0026487098075449467
-0.01630963198840618
0.02974550798535347
0.029160484671592712
-0.09340439736843109
0.056554291397333145
0.03240951895713806
-0.024991357699036598
0.010650577954947948
-0.011469525285065174
-0.04667172580957413
-0.049530550837516785
-0.04289175942540169
-0.035966578871011734
-0.03485069051384926
-0.017969446256756783
-0.0006474334513768554
-0.011400926858186722
0.010028100572526455
0.008428740315139294
-0.048869840800762177
-0.05609092116355896
-0.04826953634619713
-0.05377071723341942
-0.06310320645570755
-0.05412526801228523
-0.05706293508410454
-0.06019702926278114
-0.050113994628190994
0.006572949234396219
-0.014173956587910652
-0.019368378445506096
0.016741784289479256
-0.037429988384246826
-0.013819823041558266
-0.00930309109389782
-0.042692191898822784
-0.009849146008491516
0.08852717280387878
0.06085233762860298
0.04587461054325104
-0.0450144000351429
-0.0719844177365303
0.004132961388677359
-0.0033741716761142015
0.0018195725278928876
-0.0033594442065805197
-0.005032351240515709
-0.003375769592821598
0.010892157442867756
-0.0025341303553432226
-0.004555125720798969
0.009794502519071102
-0.0010081151267513633
0.00030883122235536575
0.007146259304136038
0.011441148817539215
-0.025325391441583633
-0.022502362728118896
0.020236149430274963
-0.056252386420965195
-0.03200998529791832
0.05067480728030205
0.020151661708950996
0.004822500515729189
0.10930227488279343
0.05429760739207268
0.058890167623758316
-0.07295217365026474
-0.12886783480644226
-0.026326151564717293
-0.07927452027797699
-0.07441718131303787
0.0044379993341863155
0.0596458800137043
0.013090476393699646
0.04109678417444229
-0.0038242065347731113
-0.027398405596613884
0.017023038119077682
0.007320483215153217
0.020680684596300125
0.01199259515851736
0.12061135470867157
-0.0302614513784647
0.03324628248810768
-0.10337185859680176
-0.2089533507823944
0.005454970523715019
0.04100091755390167
0.12297047674655914
0.11025156080722809
-0.0060555278323590755
0.011467528529465199
-0.0031381123699247837
-0.004657775163650513
0.02249935269355774
-9.998867608373985e-05
-0.06552445143461227
-0.04568137228488922
-0.06343161314725876
-0.005627131555229425
-0.0005795941106043756
-0.00610453262925148
-0.006752847693860531
-0.0017595613608136773
-0.006213739048689604
-0.010364402085542679
-0.004758007358759642
-0.007223477587103844
0.02777652069926262
0.031798429787158966
0.039155155420303345
0.029761679470539093
0.027280855923891068
0.040217939764261246
0.0027271860744804144
-0.003495944896712899
-0.009804165922105312
0.04845264181494713
0.034562770277261734
0.0613715685904026
0.09242135286331177
-0.05276968702673912
-0.0068054539151489735
0.04712013527750969
-0.01609734818339348
0.03105258196592331
0.020327076315879822
-0.07123934477567673
0.0751713290810585
-0.023448878899216652
-0.22289566695690155
0.03342815116047859
0.05031107738614082
0.030091119930148125
0.10880149155855179
-0.009007426910102367
-0.009490334428846836
0.0025920174084603786
-0.006538155488669872
-0.00473006023094058
-0.003450138494372368
0.0029383297078311443
-2.972119182231836e-05
0.013077016919851303
-0.046929359436035156
-0.011882179416716099
0.01026828121393919
-0.07586626708507538
-0.02265089377760887
0.007733089383691549
-0.018154894933104515
0.04415016993880272
0.05061570182442665
0.018848441541194916
0.020498963072896004
0.013539831154048443
0.046251583844423294
0.04128076508641243
0.03609752282500267
0.02276618964970112
0.008448383770883083
-0.003779960097745061
0.009166539646685123
0.016078609973192215
-0.0007354546105489135
0.012048149481415749
0.011687352322041988
0.007735287304967642
0.017134258523583412
0.0081096850335598
-0.005729724187403917
-0.04018930718302727
-0.003765804460272193
-0.033950552344322205
-0.01376938633620739
0.0012343511916697025
-0.014060510322451591
0.04919853433966637
0.0013383931946009398
0.020373253151774406
-0.033278804272413254
-0.04517865553498268
-0.054156821221113205
-0.02760465070605278
-0.02992023341357708
-0.03303440287709236
-0.0317266508936882
-0.04694144427776337
-0.032220955938100815
-0.015559354797005653
-0.013037626631557941
-0.02764606475830078
-0.012348135001957417
-0.0072903987020254135
-0.020366128534078598
-0.03613097593188286
-0.028877465054392815
-0.04180635139346123
-0.0017813022714108229
-0.01762210577726364
-0.029036810621619225
-0.015065288171172142
-0.040583107620477676
-0.03284789249300957
0.009223557077348232
-0.009533447213470936
-0.025661645457148552
-0.0742153748869896
-0.05228200554847717
-0.01853211410343647
0.050126977264881134
0.006539496593177319
0.06352029740810394
-0.002478453330695629
-0.07274758070707321
-0.0004286231123842299
-0.01275824848562479
-0.015855135396122932
-0.014395098201930523
-0.012448013760149479
-0.012538358569145203
-0.005103341769427061
-0.007949589751660824
-0.017764616757631302
0.0021943259052932262
-0.014178687706589699
-0.018485603854060173
-0.01664477027952671
-0.015648651868104935
-0.021547503769397736
0.0015213690930977464
-0.04025042802095413
-0.04379288852214813
-0.089270681142807
0.13914065062999725
-0.08034132421016693
-0.04437216371297836
-0.1032983586192131
0.015008020214736462
-0.17704381048679352
-0.1085788831114769
0.25690940022468567
-0.14198389649391174
-0.1991245597600937
-0.12173210084438324
-0.06915658712387085
0.1318272352218628
0.08042272180318832
0.11737693101167679
-0.18395809829235077
0.09039973467588425
0.09325318038463593
-0.14856523275375366
-0.2713489532470703
-0.22652961313724518
-0.14554430544376373
-0.26321351528167725
-0.09075967222452164
-0.13369473814964294
-0.19572225213050842
-0.008020251989364624
-0.253212571144104
-0.19480445981025696
-0.15008686482906342
0.10009278357028961
-0.09098099172115326
-0.0868184044957161
-0.08500231057405472
-0.224404975771904
0.18177804350852966
-0.39401164650917053
-0.0777120590209961
0.1012372225522995
-0.05306600034236908
0.08054444938898087
-0.09815677255392075
-0.06604793667793274
0.11393798142671585
-0.1622312217950821
-0.11543623358011246
-0.16018512845039368
0.18090710043907166
-0.08985554426908493
-0.058036234229803085
-0.21320746839046478
-0.08756512403488159
-0.03692445904016495
-0.027054766193032265
-0.17119796574115753
-0.008625058457255363
0.028848562389612198
0.14382706582546234
-0.1164289191365242
-0.08637791126966476
0.05192370340228081
0.21902261674404144
-0.05246344581246376
0.16698306798934937
0.06318740546703339
0.07358338683843613
0.05485264211893082
0.08833695203065872
0.04890415444970131
0.014806522987782955
0.07009968161582947
0.11278940737247467
0.1987999826669693
0.12308838963508606
0.1056721955537796
0.0799194946885109
0.2249588966369629
0.09564901888370514
0.09732618927955627
0.06658200174570084
0.20659366250038147
0.05575878545641899
0.0508500300347805
0.1059841737151146
0.1024707779288292
0.05297011882066727
0.15586991608142853
0.09090534597635269
0.08065341413021088
0.2053266167640686
0.04508837312459946
0.17261245846748352
0.07397591322660446
0.05021043121814728
0.1504606157541275
0.027477208524942398
0.14058755338191986
0.1015709787607193
0.15025769174098969
-0.016925906762480736
0.10094568878412247
0.094353586435318
0.10073403269052505
0.05575113371014595
0.12459185719490051
-0.0566982701420784
0.08483739197254181
0.11425328254699707
0.18162792921066284
0.08086981624364853
0.03792627155780792
0.20263776183128357
0.04601002112030983
0.11087547987699509
0.15284599363803864
0.1306544989347458
0.1283874362707138
0.1290263533592224
0.07487637549638748
0.036844782531261444
0.07021110504865646
0.1571749895811081
0.10136794298887253
0.16662603616714478
0.1893550008535385
0.1625315546989441
0.03367823734879494
-0.005187320057302713
-0.2274625450372696
-0.11183909326791763
0.09520013630390167
-0.027070360258221626
-0.07785621285438538
-0.04026845470070839
-0.002289355965331197
0.44013428688049316
0.006430224049836397
0.07115849107503891
0.10102570801973343
0.15917637944221497
0.0492960587143898
0.5308881998062134
-0.19669459760189056
0.08140924572944641
-0.009860942140221596
-0.017571575939655304
-0.02042091079056263
-0.12953393161296844
-0.26095354557037354
0.021655583754181862
-0.01945463940501213
0.0640343651175499
0.020903723314404488
-0.127535879611969
0.09612499177455902
-0.12665079534053802
-0.0282268226146698
0.060271695256233215
-0.10505664348602295
-0.0032130915205925703
-0.01699412427842617
0.025908419862389565
-0.07663659751415253
0.0867738276720047
-0.05523871257901192
-0.01179736852645874
0.043828461319208145
-0.049294475466012955
-0.07566985487937927
-0.036711420863866806
-0.05220341309905052
-0.11432210355997086
-0.032033175230026245
-0.007259232457727194
-0.13745374977588654
0.11040380597114563
-0.015343030914664268
0.058638300746679306
0.043449416756629944
0.11763369292020798
0.10724709928035736
-0.02345993183553219
-0.043681323528289795
0.06752932816743851
0.3276248276233673
0.09878301620483398
-0.09895443171262741
0.013794857077300549
0.25547438859939575
0.03529425710439682
-0.11326263099908829
0.014122220687568188
0.02762688137590885
0.008445065468549728
0.007724019233137369
0.0020113883074373007
0.0035571111366152763
0.004537135362625122
-0.0009854239178821445
0.19725000858306885
0.017298385500907898
-0.02392038144171238
-0.0028924187645316124
-0.0011207079514861107
0.046802978962659836
-0.0024541139136999846
0.02896549180150032
0.02208305336534977
0.07830199599266052
0.06802798062562943
0.014813294634222984
0.023701081052422523
0.028247840702533722
0.027412710711359978
0.03648005798459053
0.03686673566699028
0.009516817517578602
0.0462319441139698
0.03117559477686882
0.014235497452318668
0.005536145064979792
0.004671031609177589
0.044563278555870056
0.004501893185079098
0.01310239639133215
0.005599652882665396
0.009240519255399704
0.022323809564113617
0.015850456431508064
0.04269397258758545
0.026498666033148766
0.017713751643896103
0.06959713250398636
-0.03649592027068138
0.070221446454525
0.057810377329587936
0.05932248383760452
0.048576828092336655
0.048252616077661514
0.08113625645637512
0.019118575379252434
0.03959039971232414
0.010777034796774387
0.006562963128089905
0.0029392701108008623
0.023251181468367577
0.003977218177169561
0.027751069515943527
0.0344243124127388
0.04238424822688103
0.028814755380153656
0.019964929670095444
0.03336241468787193
0.13252997398376465
0.010364368557929993
0.019723590463399887
0.01807948760688305
0.020320262759923935
-0.018058843910694122
0.002537620486691594
-0.00124137953389436
-0.03116021305322647
-0.017615610733628273
-0.027899058535695076
0.0001524082472315058
0.005962654948234558
-0.018887097015976906
-0.0014419498620554805
0.027170967310667038
-0.018825404345989227
0.0031068299431353807
0.015039009042084217
0.014903360046446323
0.015804670751094818
0.03102356195449829
0.026175932958722115
0.010778762400150299
0.023825155571103096
0.018847398459911346
0.009218730032444
0.013074563816189766
0.027383586391806602
0.018128128722310066
0.033231377601623535
0.039585620164871216
0.007805720902979374
0.027297185733914375
0.033107269555330276
0.0008098337566480041
0.002261422574520111
-0.005601334385573864
-0.004036541562527418
0.0011869869194924831
-0.005712771788239479
-0.007817156612873077
-0.004890501033514738
-0.011770143173635006
0.0017091759946197271
-0.0006541040493175387
-0.0038590007461607456
0.003648014971986413
0.0009366946178488433
0.0020669270306825638
0.003088800236582756
0.0004270134086254984
0.00090389623073861
-0.0005832685856148601
-0.003497815690934658
0.004738754127174616
-0.016359539702534676
-0.015865644440054893
-0.007253235671669245
-0.020563630387187004
-0.0172151830047369
-0.00958260428160429
-0.0017198079731315374
-0.013403013348579407
-0.0031608978752046824
0.008264084346592426
-0.0003596727328840643
0.0025370093062520027
-0.01934198848903179
-0.04073892533779144
-0.018395613878965378
-0.015221739187836647
-0.003155524842441082
0.028286335989832878
-0.019472861662507057
0.028116954490542412
0.04633071646094322
-0.04412597790360451
0.022938476875424385
0.030517801642417908
-0.00010506205580895767
0.0016873389249667525
0.00024647850659675896
-0.001361612230539322
-0.0003639360365923494
0.0008246247307397425
-0.00047173089114949107
0.0002788460988085717
0.0012831330532208085
-0.010539102368056774
-0.003382552182301879
0.0016337321139872074
-0.016521573066711426
-0.009239495731890202
-0.0015895332908257842
-0.016294321045279503
-0.008625457063317299
0.0052221487276256084
-0.028359053656458855
-0.02122029848396778
0.09244074672460556
-0.10924572497606277
0.0004205886216368526
0.09358185529708862
-0.0917530208826065
-0.022595830261707306
0.050567008554935455
0.11050741374492645
0.05415336787700653
-0.06470850855112076
0.12261870503425598
0.036652401089668274
-0.12211226671934128
0.10051940381526947
-0.0033132368698716164
-0.12512782216072083
-0.19253291189670563
-0.1692383885383606
0.00832539051771164
-0.21237555146217346
0.050677843391895294
-0.11312087625265121
0.03929481282830238
-0.01978972554206848
-0.20332905650138855
0.19942329823970795
0.10208967328071594
-0.25749659538269043
0.39514675736427307
-0.044179175049066544
-0.3689548671245575
0.2629087269306183
-0.1254054307937622
-0.290086954832077
0.08343193680047989
0.009193792939186096
-0.11409827321767807
0.17137418687343597
0.015041091479361057
-0.13877888023853302
0.13346928358078003
-0.03754033148288727
-0.13043543696403503
-0.09209009259939194
-0.10643164813518524
0.0028225742280483246
0.03227464109659195
-0.21863225102424622
-0.017842041328549385
-0.010903491638600826
-0.18140456080436707
0.027228008955717087
0.3822774291038513
-0.052054326981306076
-0.2464493215084076
0.12193194031715393
-0.15545451641082764
-0.1881517916917801
0.04487263038754463
0.08003583550453186
-0.09559904038906097
0.15131692588329315
0.008143728598952293
-0.1862170696258545
0.13594478368759155
-0.03779712691903114
-0.18145474791526794
0.13710960745811462
0.0344967395067215
-0.10938747227191925
-0.07204540073871613
-0.014810904860496521
0.11630667746067047
-0.07753634452819824
0.0952368900179863
0.1325039565563202
-0.08136281371116638
-0.06387926638126373
0.06479445099830627
0.22836875915527344
-0.015801453962922096
-0.24862489104270935
0.25601527094841003
-0.007008079439401627
-0.2822626233100891
0.2701389789581299
0.005766062531620264
-0.20853669941425323
0.012173430062830448
-0.005028783343732357
-0.02863653562963009
0.044212691485881805
0.016198227182030678
-0.03359903767704964
0.03943019360303879
-0.008081559091806412
-0.03535565733909607
-0.07022164016962051
-0.04877639561891556
0.09406691044569016
-0.06524864584207535
-0.005632833112031221
0.09080148488283157
-0.04987553507089615
-0.03234468773007393
0.07335400581359863
0.2057458609342575
0.13497880101203918
-0.12824207544326782
0.23410668969154358
-0.2562916576862335
-0.12143909186124802
-0.046311505138874054
-0.0328349843621254
0.08904536068439484
0.04584837332367897
-0.010203278623521328
0.009811734780669212
0.02048865146934986
0.012542969547212124
-0.11376871913671494
0.05896693840622902
-0.014138397760689259
0.023378971964120865
-0.0065711066126823425
0.00016416887228842825
-0.007236751727759838
-0.005381247028708458
-0.0020668297074735165
-0.006924908142536879
-0.0028802528977394104
0.0021981368772685528
-0.0024332250468432903
-0.12327562272548676
-0.0725984126329422
0.17729443311691284
-0.20412461459636688
0.018801052123308182
0.2114560306072235
-0.15586544573307037
0.02775133028626442
0.18353906273841858
0.002893692348152399
0.007822107523679733
0.06648240983486176
-0.0065301284193992615
-0.01956142671406269
0.010586926713585854
0.047414541244506836
0.0060354601591825485
0.036664076149463654
0.0038486963603645563
0.01108240894973278
0.03302333876490593
0.002181329997256398
0.004534565377980471
0.030528599396348
0.003961924929171801
0.01558145135641098
0.048294588923454285
-0.13672198355197906
-0.19990231096744537
-0.1004536896944046
-0.14544172585010529
-0.13895367085933685
-0.1118307113647461
-0.13559840619564056
-0.10953567922115326
-0.06646060198545456
-0.12196546792984009
-0.17061357200145721
-0.1197347491979599
-0.24775734543800354
-0.2729690670967102
-0.2297464907169342
-0.12466323375701904
-0.18892940878868103
-0.06323669105768204
-0.03724850341677666
-0.04657245799899101
0.008605456911027431
-0.04076709225773811
-0.060831218957901
-0.0028908108361065388
-0.0003175728488713503
-0.009911209344863892
0.022566817700862885
-0.14084182679653168
-0.035344142466783524
-0.1781887412071228
-0.061402346938848495
0.05042567104101181
-0.09852437674999237
-0.04045090451836586
0.08834043890237808
-0.008710038848221302
-0.05992506816983223
-0.07973568886518478
0.1034296303987503
-0.261595755815506
-0.2274695485830307
-0.0912058874964714
-0.1738368570804596
-0.1576879769563675
-3.517012009979226e-05
0.07809482514858246
0.0030632587149739265
0.005999236833304167
-0.016385164111852646
-0.07045283168554306
-0.06292637437582016
-0.003993261605501175
-0.05309445038437843
-0.01509020570665598
-0.1240566223859787
-0.17069914937019348
-0.04299478605389595
-0.1798660159111023
-0.24093851447105408
-0.17547573149204254
-0.06675369292497635
-0.1579374223947525
-0.054077062755823135
-0.04356563836336136
0.0074259634129703045
0.011442373506724834
0.006487520411610603
0.0468306727707386
0.06368938088417053
0.01792905107140541
0.11205964535474777
0.11182193458080292
0.032630015164613724
0.016870450228452682
-0.004810496233403683
0.020485399290919304
0.015538763254880905
-0.013518315739929676
0.014028300531208515
0.015356875956058502
-0.00813686940819025
0.10051950067281723
0.02166290394961834
0.03042280487716198
0.06349407136440277
-0.03945453464984894
-0.041186559945344925
0.049569446593523026
-0.06375783681869507
-0.04149769991636276
0.11442681401968002
-0.11574026942253113
-0.06324955821037292
0.09567232429981232
-0.08300700038671494
-0.0761653482913971
0.26377376914024353
0.06475122272968292
0.029886871576309204
0.08176375180482864
-0.24996235966682434
-0.07252601534128189
-0.0791449174284935
-0.27627626061439514
-0.12744592130184174
-0.010586163029074669
-0.20721910893917084
-0.08202831447124481
-0.006572322454303503
-0.003502506762742996
-0.00706692598760128
-0.007779942825436592
-0.00948922149837017
-0.008356047794222832
-0.016026578843593597
-0.018379731103777885
-0.017327629029750824
-0.03438851609826088
-0.01614334248006344
0.021256430074572563
-0.030654175207018852
-0.010773065499961376
-0.03935505077242851
-0.036422062665224075
-0.05881116911768913
-0.05939631909132004
-0.015525841154158115
0.01129316445440054
-0.015380906872451305
-0.009853450581431389
0.018961120396852493
-0.009278248064219952
0.013040664605796337
0.02162754535675049
0.006305340211838484
-0.03180139884352684
-0.025879977270960808
-0.011109131388366222
-0.03182656317949295
-0.022725911810994148
-0.0033063762821257114
-0.038750942796468735
-0.02280680276453495
-0.003461663145571947
-0.004747424740344286
-0.03958416357636452
0.05510912090539932
-0.017847929149866104
0.0071364208124578
0.05518285557627678
-0.028950469568371773
0.014813165180385113
0.031989745795726776
0.02345569245517254
-0.016731539741158485
0.013331471011042595
-0.047320932149887085
-0.14115796983242035
0.015359781682491302
-0.09258933365345001
-0.007980279624462128
0.006213766522705555
-0.048965197056531906
-0.04897741973400116
-0.03630073741078377
-0.04936142638325691
-0.0493171252310276
-0.03829589858651161
-0.053195979446172714
-0.05694565922021866
-0.04488082230091095
0.011563806794583797
-0.09164318442344666
-0.09002111852169037
-0.0019312042277306318
-0.14343926310539246
-0.06833852827548981
-0.004456106573343277
-0.08686179667711258
-0.022953132167458534
0.03213029354810715
-0.08245472609996796
0.05815138667821884
-0.08225004374980927
0.007238354068249464
0.032445378601551056
0.015447537414729595
0.05467231571674347
0.06684981286525726
0.051633551716804504
0.02384689636528492
0.03847111761569977
0.0037557147443294525
0.00010114304313901812
0.04437255859375
-0.0003761238185688853
0.057759132236242294
0.020300298929214478
0.025306127965450287
0.025603411719202995
0.032859496772289276
0.028387822210788727
-0.026692843064665794
-0.02514427900314331
-0.030024107545614243
0.02714827097952366
-0.043306343257427216
0.027709808200597763
0.0485692135989666
0.08974087238311768
0.021983543410897255
0.06781963258981705
0.11465839296579361
0.02851255051791668
0.06211099028587341
0.1160120740532875
-0.04193369299173355
-0.03787146881222725
-0.032712358981370926
-0.04668641835451126
-0.04379530996084213
-0.038515761494636536
-0.05205957964062691
-0.051431912928819656
-0.044623419642448425
-0.050769928842782974
-0.05123079940676689
-0.09667325019836426
-0.07523111253976822
-0.05584973096847534
-0.11204757541418076
-0.06685137748718262
-0.058582015335559845
-0.0770740658044815
0.059361860156059265
-0.046797413378953934
0.011393885128200054
0.007483293768018484
-0.029566308483481407
0.009474742226302624
0.028398994356393814
0.05173562467098236
0.007159481290727854
0.0166519433259964
-0.01676717959344387
-0.0454113744199276
-0.05438026785850525
-0.04385068640112877
-0.0834987610578537
-0.08750692754983902
-0.11392375826835632
-0.027501042932271957
0.0022300612181425095
-0.0003010664659086615
0.0028070141561329365
0.0009846885222941637
-0.00015006860485300422
0.002343397354707122
0.0017320581246167421
0.000946609943639487
0.003032200038433075
-0.04910481721162796
-0.0065616401843726635
-0.003343203105032444
-0.03232055902481079
0.0028184298425912857
-0.017834698781371117
-0.0036378714721649885
-0.012909578159451485
-0.04954812303185463
0.09080849587917328
-0.05915576592087746
-0.08591111749410629
0.0994933545589447
-0.06738565117120743
-0.10934906452894211
0.08796378970146179
-0.09334483742713928
-0.14390072226524353
-0.005041060969233513
-0.0034767482429742813
0.003550641005858779
-0.01508530043065548
-0.009132926352322102
0.006686600390821695
-0.00706672016531229
-0.006829772610217333
0.0023890964221209288
0.06847583502531052
0.0523877814412117
0.08481661975383759
0.03533317893743515
0.09048829972743988
0.0997699722647667
0.003046291181817651
0.08812831342220306
0.10565030574798584
-0.09849376976490021
-0.06739254295825958
-0.15642410516738892
-0.09354040026664734
-0.07518389075994492
-0.12851464748382568
-0.08461106568574905
-0.0139785660430789
-0.09549883753061295
-0.024604884907603264
-0.0017534374492242932
-0.019855037331581116
-0.023467576131224632
-4.526523480308242e-05
-0.010831565596163273
-0.016581591218709946
0.005072761792689562
-0.0039428835734725
-0.039331234991550446
-0.05817590653896332
0.02675129845738411
0.0017383075319230556
-0.0993451476097107
0.033844318240880966
-0.03540851175785065
-0.10966705530881882
0.03292889520525932
0.0019518935587257147
0.006828607991337776
0.020821640267968178
-0.020482681691646576
-0.018696175888180733
-0.034008339047431946
0.019327297806739807
-0.05888426676392555
-0.11142830550670624
-0.021936174482107162
7.378862210316584e-05
0.002692387206479907
-0.03345860168337822
0.00937521830201149
0.023569639772176743
-0.036996886134147644
-0.04190598800778389
0.007985156029462814
0.11799833923578262
0.04621431976556778
-0.039970383048057556
0.10241495072841644
0.006845275871455669
-0.09283386170864105
0.0991724282503128
-0.027392713353037834
-0.08427722007036209
-0.04291372746229172
-0.009483209811151028
0.03417078033089638
-0.04707098752260208
-0.008850913494825363
0.04515764117240906
0.0074174245819449425
0.011154494248330593
0.04633216932415962
-0.022959910333156586
-0.02765926718711853
-0.02032461389899254
-0.022343363612890244
-0.02814297191798687
-0.017608441412448883
-0.021658847108483315
-0.03046771138906479
-0.00954311154782772
-0.05050869658589363
-0.07777920365333557
-0.04487910866737366
-0.06672991067171097
-0.08236950635910034
-0.040851060301065445
-0.004100965801626444
-0.0017774966545403004
0.006985221989452839
0.024951428174972534
0.11147879809141159
-0.03544144704937935
0.033131033182144165
0.004767054691910744
-0.010010802187025547
0.13068822026252747
0.008070395328104496
-0.05547814071178436
0.08603840321302414
0.11657758802175522
0.004343715030699968
-0.05012238770723343
0.03788188472390175
-0.04403219744563103
-0.13592836260795593
-0.03114418312907219
-0.054920610040426254
-0.0025014542043209076
0.0013438272289931774
0.0004999377415515482
0.0001869978877948597
-0.00028837024001404643
-0.0016509300330653787
-0.004815299063920975
-0.005213630851358175
-0.007457440253347158
0.16427503526210785
0.07196423411369324
-0.09004206955432892
0.12577654421329498
0.031196143478155136
-0.1404450684785843
0.09938191622495651
0.02914869599044323
-0.14816997945308685
-0.10914754867553711
-0.11052975058555603
-0.09662536531686783
-0.01684695854783058
-0.03204299509525299
-0.03433876112103462
0.014130808413028717
-0.0035703484900295734
-0.006551120430231094
-0.004193431232124567
-0.02356700599193573
-0.041066501289606094
0.011006300337612629
0.001673992956057191
-0.026878323405981064
0.02292906679213047
0.02690282091498375
0.01298375055193901
0.0711469054222107
0.047818295657634735
0.0008108261972665787
0.004626462236046791
0.054742127656936646
-0.004499255679547787
-0.017801854759454727
0.03413286805152893
0.027655383571982384
-0.10336777567863464
-0.18916571140289307
-0.3370043635368347
0.002796778455376625
-0.06364822387695312
-0.211624413728714
0.08043176680803299
0.09943851083517075
0.0532095842063427
0.015516320243477821
0.003210386959835887
-0.004654129035770893
0.015583392232656479
0.007859691977500916
-0.005965635646134615
0.029212934896349907
0.02421828918159008
0.013427658006548882
0.021674467250704765
0.11238075792789459
-0.000571389333344996
-0.00829614233225584
-0.013556169345974922
-0.016330914571881294
0.012004774063825607
0.03926389291882515
0.008749543689191341
-0.009180792607367039
-0.06763587146997452
-0.2594848573207855
0.16893720626831055
0.20485557615756989
0.03197326138615608
0.07076656818389893
0.15503288805484772
0.11039091646671295
-0.018786510452628136
-0.0927400216460228
-0.10606131702661514
0.057437773793935776
0.05417558550834656
-0.006471170112490654
0.03599703684449196
0.04288822039961815
0.016852598637342453
-0.024918323382735252
-0.08049044758081436
-0.07339109480381012
-0.03785276040434837
-0.052787646651268005
-0.13683441281318665
-0.0005076442612335086
0.008402420207858086
-0.015939785167574883
0.0023843180388212204
-0.029495006427168846
-0.0944269523024559
0.03753245249390602
0.02375541441142559
-0.0053083221428096294
0.07286878675222397
0.06778156757354736
0.05715138092637062
0.025446485728025436
0.03458130732178688
0.04372582584619522
0.007109447848051786
0.012100502848625183
0.02275272272527218
-0.0014133022632449865
0.0022362659219652414
0.009127412922680378
0.035598643124103546
0.057934459298849106
0.039736755192279816
0.03562575951218605
0.03900378569960594
0.057708658277988434
0.04125858098268509
0.03509388118982315
0.06800777465105057
-0.10233333706855774
-0.1744973212480545
-0.11551730334758759
0.006381371058523655
-0.02306525781750679
-0.08256453275680542
0.05668633058667183
0.16307681798934937
0.12401263415813446
-0.003917229827493429
-0.04117698594927788
-0.11391254514455795
0.02260110341012478
0.019244017079472542
-0.042906083166599274
0.058841075748205185
0.1389089971780777
0.1381995975971222
-0.0004145187558606267
0.0006887202034704387
-0.001245245337486267
-0.002377206925302744
0.001011401996947825
-3.4489970857976004e-05
-0.0019310901407152414
0.0007439821492880583
0.0014784621307626367
-0.044296957552433014
-0.019087187945842743
0.09989393502473831
-0.0860774889588356
-0.08057080954313278
-0.053385280072689056
-0.012127871625125408
0.006226921454071999
-0.019268201664090157
-0.0039742449298501015
0.02055005170404911
-0.012780265882611275
0.01639610342681408
0.03789149969816208
-0.005129452794790268
0.026206066831946373
0.04066229611635208
0.002457528142258525
0.028654450550675392
0.02075915038585663
0.02335408143699169
0.026783151552081108
0.021693555638194084
0.024771012365818024
0.02633521892130375
0.02250269241631031
0.02737894281744957
0.11018601059913635
0.0411832369863987
-0.04504155367612839
0.09341368824243546
0.058693986386060715
-0.04463423043489456
0.06774165481328964
0.046238016337156296
-0.023435484617948532
0.09277661889791489
-0.017101014032959938
0.057284336537122726
0.0523076206445694
-0.013874759897589684
0.057575568556785583
0.05438971891999245
0.0026752206031233072
0.06296031177043915
-0.009161021560430527
-0.015901625156402588
-0.012533443048596382
-0.018774893134832382
-0.022843629121780396
-0.015412780456244946
-0.043375931680202484
-0.0448678657412529
-0.037747573107481
0.04835451766848564
-0.0009138574823737144
0.08119992166757584
0.020116154104471207
-0.013010745868086815
0.08927414566278458
0.025760140269994736
-0.0012578782625496387
0.0727093368768692
-0.002893401775509119
0.012400212697684765
0.0722632184624672
0.05883678048849106
0.08805972337722778
0.09180845320224762
0.03804686665534973
0.09102317690849304
0.07783424854278564
0.005304022692143917
0.007248513866215944
0.010308339260518551
-0.002492491854354739
0.013861926272511482
0.021103505045175552
-0.034828897565603256
-0.015869902446866035
-0.015037554316222668
-0.013304821215569973
0.045280590653419495
0.01315626222640276
0.0029553186614066362
0.0643719807267189
0.03476838394999504
0.006003194954246283
0.07283662259578705
0.040004655718803406
0.055646948516368866
0.05243301764130592
0.03293618559837341
0.03303150460124016
0.033159367740154266
0.020018741488456726
0.012919759377837181
0.00940820761024952
0.006264004856348038
0.001910264021717012
0.013162469491362572
0.003344783326610923
-0.0007078274502418935
0.0065535251051187515
6.829768972238526e-05
-0.027315009385347366
-0.022465506568551064
-0.02538248524069786
-0.019956307485699654
-0.03668234497308731
-0.04771365970373154
-0.008840249851346016
-0.033192228525877
-0.03607308492064476
0.014818711206316948
-0.008208928629755974
-0.01218916941434145
-0.08654353022575378
-0.1962652951478958
0.13300898671150208
-0.09282384067773819
-0.05882899835705757
0.16966687142848969
-0.05632263422012329
0.0731838271021843
0.199243426322937
0.01050085760653019
-0.008770431391894817
-0.1008574441075325
-0.04512794315814972
-0.027703633531928062
-0.045581791549921036
-0.005866394843906164
0.01746245287358761
0.016797689720988274
0.0011009654263034463
0.0010984680848196149
0.0023261443711817265
-0.00042198869050480425
-0.0007498901104554534
-0.0009348527528345585
0.0009358543902635574
0.0005990585195831954
0.0005317031173035502
-0.0533541776239872
-0.006627684459090233
-0.03133485093712807
-0.017287690192461014
0.02010939083993435
-0.02637256681919098
0.021739965304732323
0.046739231795072556
0.01003935281187296
-0.020904693752527237
0.04348725080490112
0.020510733127593994
-0.0699198842048645
0.04148116335272789
0.00034807101474143565
-0.03153235465288162
0.02688632719218731
-0.018061397597193718
0.01594872586429119
-0.0038737028371542692
-0.028198938816785812
0.019501134753227234
0.006152259651571512
-0.019297154620289803
0.016833892092108727
0.0020119708497077227
-0.007011339068412781
-0.07640904188156128
0.16264085471630096
-0.32029250264167786
-0.12810608744621277
0.24043069779872894
-0.5543457269668579
-0.06276510655879974
0.21275559067726135
-0.3886159062385559
0.09534275531768799
-0.03810853883624077
-0.012834728695452213
0.0793299600481987
0.02608548104763031
0.00951767060905695
0.08235211670398712
-0.09843355417251587
-0.0733460783958435
0.07259534299373627
-0.019045842811465263
-0.07654107362031937
0.09640874713659286
-0.02384698949754238
-0.09012775123119354
0.08784771710634232
-0.022523075342178345
-0.05249505490064621
-0.008687784895300865
-0.009281201288104057
-0.021170614287257195
0.006140489596873522
-0.05201239138841629
-0.0024397720117121935
0.0447382889688015
-0.053084321320056915
-0.01110389269888401
-0.044035524129867554
0.04936867579817772
-0.010761842131614685
-0.05814533308148384
0.08362234383821487
-0.024105828255414963
-0.06699901819229126
0.028371229767799377
-0.012642818503081799
0.020527085289359093
0.05640542134642601
-0.044096119701862335
0.004501224961131811
0.06083144247531891
-0.04173458367586136
0.017564835026860237
0.03530142456293106
-0.07163836807012558
-0.12721216678619385
0.02290242910385132
0.09516066312789917
-0.14929912984371185
0.09391377121210098
0.13108430802822113
-0.07717404514551163
0.0461847260594368
0.009032460860908031
0.09179622679948807
-0.005167905706912279
-0.11862337589263916
0.1150316447019577
0.0098589351400733
-0.11935629695653915
0.08520679920911789
-0.029411345720291138
-0.09108007699251175
0.013518396764993668
0.019388221204280853
-0.06572467088699341
0.004448797088116407
0.01661081612110138
-0.08605600893497467
0.01908435858786106
0.005613988731056452
-0.07545368373394012
-0.0854928269982338
0.01806236431002617
-0.012787397019565105
-0.07649987936019897
0.048315152525901794
0.02752269245684147
-0.10508517175912857
0.011316932737827301
-0.021704252809286118
0.15746262669563293
-0.4677876830101013
0.28386610746383667
0.09371332824230194
-0.8672710061073303
0.5953450798988342
-0.01576904207468033
-0.3991726040840149
0.5326659083366394
-0.01447385549545288
-0.10672320425510406
0.04125746712088585
0.02520178072154522
-0.14776760339736938
0.04464662820100784
-0.1379917562007904
0.04365487024188042
0.019600676372647285
0.003114705439656973
0.006661728024482727
0.007186285685747862
-0.0006455585244111717
0.0010292065562680364
0.0019043819047510624
0.0008614908438175917
0.002010742435231805
0.003239600919187069
-0.07148562371730804
-0.0228177048265934
0.0872240960597992
-0.13131576776504517
0.008455345407128334
0.13522426784038544
-0.04689253121614456
0.00815530400723219
0.06648387014865875
-0.0283646360039711
-0.01839512214064598
-0.024799905717372894
4.0512146370019764e-05
-0.030149368569254875
-0.059264250099658966
0.07096612453460693
0.03241056948900223
-0.017339129000902176
-0.03859531134366989
-0.027436167001724243
-0.009778262116014957
-0.010500614531338215
-0.0012548823142424226
0.020769627764821053
0.0005028551677241921
-0.0041436138562858105
0.006682266481220722
-0.07162617892026901
0.057426709681749344
0.03744024038314819
-0.07400138676166534
0.010237912647426128
0.030176784843206406
-0.014782285317778587
-0.05770019441843033
-0.03257308527827263
-0.06867501884698868
0.002392359310761094
0.014633403159677982
0.05867307260632515
0.11117295920848846
0.16448289155960083
-0.013859533704817295
0.023399028927087784
0.07733763009309769
-0.03690827637910843
-0.0037498001474887133
-0.0038248077034950256
-0.02369683049619198
0.01931176707148552
0.03774578869342804
-0.029870370402932167
-0.007967263460159302
0.013888996094465256
0.006236756220459938
0.019671373069286346
-0.152104914188385
0.015564270317554474
0.08394212275743484
-0.010984240099787712
0.07503276318311691
0.11026668548583984
0.03452225774526596
0.03818054497241974
0.048310503363609314
0.09135611355304718
-0.13658204674720764
-0.0338260754942894
0.038884252309799194
-0.07763009518384933
-0.17868612706661224
-0.09994518756866455
-0.01996806263923645
0.06119215860962868
0.11505676060914993
-0.029615892097353935
0.068046435713768
0.12743689119815826
-0.11682415753602982
-0.03830651193857193
-0.001645112643018365
-0.06803374737501144
-0.07418453693389893
-0.06420745700597763
0.022969475015997887
-0.04198687523603439
-0.07365388423204422
0.08935798704624176
0.056964874267578125
0.003310093656182289
-0.011051683686673641
0.03016582317650318
0.06254709511995316
-0.023149531334638596
0.03251904621720314
0.09068559110164642
-0.061010729521512985
-0.044322673231363297
-0.023765189573168755
-0.0027845369186252356
0.018521461635828018
0.027515748515725136
-0.03522214666008949
-0.01851131208240986
-0.003410917706787586
-0.052817147225141525
-0.046287428587675095
-0.03734976053237915
-0.047885507345199585
-0.06453388929367065
-0.05548030510544777
-0.0008619377622380853
-0.03177335113286972
-0.032319940626621246
0.05391921103000641
0.022981921210885048
0.016559019684791565
-0.01990913413465023
0.07214862108230591
0.043348278850317
0.19011372327804565
0.2591448426246643
0.16330339014530182
-0.037830010056495667
0.0312768891453743
0.1649276614189148
-0.016618473455309868
0.08021853864192963
0.045630812644958496
0.03243262693285942
0.13043488562107086
0.11749625951051712
0.045977238565683365
0.0031672941986471415
0.034929364919662476
0.003807459259405732
0.0023974976502358913
0.0032708949875086546
0.001855255919508636
0.0001472009316785261
0.00015826594608370215
-0.0013933568261563778
-0.0022013888228684664
-0.0025498077739030123
0.017466168850660324
-0.017586128786206245
-0.01822003349661827
0.05294133350253105
-0.067930668592453
-0.10560671985149384
0.18089087307453156
0.0747886374592781
-0.03847954049706459
0.014756209217011929
0.01208407524973154
0.024210894480347633
-0.004827326163649559
0.00260992837138474
0.05692401900887489
-0.004186965525150299
0.06616390496492386
-0.07095135003328323
0.015328826382756233
-0.05291824787855148
-0.05956462025642395
0.009990816935896873
-0.06391185522079468
-0.05367908626794815
0.0473819300532341
0.005448509007692337
-0.0036208853125572205
0.03487730771303177
0.03336147591471672
0.17148853838443756
0.03375949710607529
0.07506546378135681
0.5451353192329407
0.07988575845956802
0.09355762600898743
-0.20276695489883423
-0.08971454203128815
-0.17290373146533966
-0.11326278001070023
0.03981660678982735
-0.048721879720687866
-0.11539912968873978
0.10623691231012344
-0.008785311132669449
0.0005861592944711447
0.050858158618211746
0.025861654430627823
-0.04415100812911987
0.06433641165494919
0.0038238391280174255
-0.08152879774570465
0.07586278766393661
0.017652468755841255
0.05218452960252762
0.08360274136066437
0.049884356558322906
0.05497521907091141
0.13610555231571198
0.16195376217365265
-0.07763965427875519
0.03552180528640747
-0.025959840044379234
-0.010614903643727303
0.01647297851741314
-0.020056935027241707
-0.31615060567855835
-0.16265146434307098
-0.35261327028274536
0.04185354337096214
-0.07977353781461716
-0.15507513284683228
-0.059181682765483856
-0.007970120757818222
0.016881851479411125
0.00010312756057828665
-0.029949292540550232
-0.018854988738894463
-0.03907671943306923
0.020264001563191414
0.09517370164394379
0.017201345413923264
-0.001960736233741045
0.008914590813219547
-0.08131454139947891
-0.021817956119775772
0.0018001697026193142
0.005368152167648077
0.058891527354717255
0.059056635946035385
-0.008831352926790714
-0.02420404739677906
-0.10350967943668365
-0.07813669741153717
0.008484401740133762
-0.06256461143493652
-0.06475675851106644
0.12340113520622253
0.06598801165819168
0.08698832243680954
-0.001123308320529759
0.03479379415512085
0.02429778315126896
0.005054683890193701
0.035164639353752136
0.009481138549745083
0.007469900418072939
0.039284467697143555
0.012018946930766106
0.06291516125202179
-0.07373400777578354
-0.10065291076898575
0.1020238995552063
-0.0285502877086401
-0.046829357743263245
0.22054874897003174
0.07993105053901672
-0.006160685792565346
-0.023174181580543518
0.07204653322696686
-0.17395749688148499
0.007495344616472721
-0.015587997622787952
-0.5780249834060669
0.040364354848861694
-0.08656810969114304
0.4470295310020447
0.024426380172371864
0.026954587548971176
0.034758832305669785
0.0620746910572052
0.039760857820510864
0.10226589441299438
0.05911511927843094
0.04730798676609993
0.13130229711532593
-0.00423024408519268
0.003267155960202217
0.00421740859746933
-0.009226119145751
-0.002293477999046445
-0.0016844853525981307
-0.018093688413500786
-0.011299892328679562
-0.009636327624320984
0.010182368569076061
-0.03876318410038948
0.002672425704076886
-0.05897121503949165
-0.05042973533272743
0.036252859979867935
-0.002251107944175601
0.117149718105793
0.07046983391046524
0.08682365715503693
0.1299072653055191
0.035607244819402695
-0.00653072027489543
0.10708380490541458
0.03588363155722618
-0.2072363942861557
-0.08273914456367493
-0.08361708372831345
0.07754608243703842
-0.11543703079223633
-0.07405754923820496
0.08286693692207336
-0.07804518193006516
-0.0805109515786171
0.10097444802522659
0.00503401318565011
-0.01038938295096159
0.10967550426721573
-0.08140508085489273
-0.11393027007579803
0.10944284498691559
0.1097845807671547
-0.06446998566389084
-0.06615518778562546
0.25761041045188904
0.03374120965600014
-0.12773041427135468
-0.42294561862945557
-0.1506088376045227
-0.038703106343746185
-0.37003883719444275
-0.13858309388160706
0.09224337339401245
-0.13364148139953613
-0.06068997085094452
0.015711551532149315
-0.1650141179561615
-0.01301559992134571
0.10552070289850235
-0.10318409651517868
-0.004950615111738443
0.1117401123046875
-0.030244920402765274
0.02295299805700779
-0.18701207637786865
-0.10977501422166824
-0.017124097794294357
-0.12597456574440002
-0.04683273285627365
0.01342623308300972
-0.015598233789205551
0.0657767653465271
-0.05295485258102417
0.22666248679161072
0.12418393790721893
-0.025512393563985825
0.03065739944577217
0.10556434094905853
-0.0291475560516119
0.01079472154378891
0.02391422539949417
0.05393020808696747
0.07167575508356094
-0.19419875741004944
-0.10200924426317215
0.06579732894897461
-0.16450364887714386
-0.10782214999198914
0.18354195356369019
0.015661397948861122
0.05761033669114113
0.04071981832385063
0.21050520241260529
0.1377737820148468
-0.22982686758041382
0.04373791813850403
0.037714146077632904
-0.39779388904571533
-0.26726388931274414
-0.12326040118932724
0.18680228292942047
-0.3088255822658539
-0.12361858785152435
0.2804639935493469
-0.12078329175710678
-0.1116165816783905
0.3456970453262329
0.12032957375049591
0.04613468796014786
0.08890941739082336
0.019358256831765175
0.02347027137875557
0.08872804790735245
0.03368092328310013
0.02539491280913353
0.06168387085199356
0.036342695355415344
0.03402051329612732
0.09622868150472641
0.1642676591873169
-0.019487375393509865
0.06032261997461319
0.17412124574184418
0.03095921501517296
-0.1455070972442627
0.007701257709413767
-0.09934531152248383
-0.26671504974365234
0.07924015820026398
0.08785157650709152
-0.17806249856948853
-0.08348679542541504
0.06685188412666321
-0.05231108516454697
-0.1554850935935974
-0.001861026743426919
-0.06449016183614731
0.059928104281425476
-0.06971540302038193
-0.015765724703669548
0.03279000148177147
0.0218356940895319
-0.011393532156944275
0.009472205303609371
-0.005268154665827751
0.00010517358896322548
-0.008162271231412888
-0.0014755314914509654
0.008857245557010174
0.0023273092228919268
0.0076716127805411816
0.020061062648892403
0.013212163932621479
0.018273459747433662
0.0628165453672409
0.20299582183361053
0.09133120626211166
-0.1627701371908188
0.12555693089962006
0.06456783413887024
-0.3610190749168396
-0.14132077991962433
-0.061295364052057266
-0.03659579157829285
-0.05755963549017906
0.005030240397900343
0.030914543196558952
0.008584883064031601
-0.0017730406252667308
0.029102088883519173
0.06153297796845436
0.027764178812503815
-0.015448368154466152
-0.014767489396035671
-0.011797360144555569
-0.007371727377176285
-0.01959175243973732
-0.019447727128863335
0.00932080764323473
-0.002156168920919299
-0.002180760959163308
-0.034132737666368484
0.17767050862312317
0.19116786122322083
0.24571630358695984
0.018761422485113144
0.07761133462190628
0.26479941606521606
0.30850985646247864
0.12199977785348892
-0.04309198260307312
0.01743215322494507
-0.05285710468888283
-0.03659655526280403
0.0002924557775259018
0.028819629922509193
-0.06021075323224068
-0.14431053400039673
-0.049801114946603775
-0.0024454102385789156
0.012842897325754166
0.017839951440691948
-0.009526093490421772
-0.013778746128082275
0.017958033829927444
-0.0032969177700579166
-0.0254784245043993
0.0015274109318852425
0.06972309947013855
0.09897129982709885
0.013244017958641052
-0.14547178149223328
-0.02011949010193348
-0.08316828310489655
0.055410441011190414
0.03416876494884491
0.024416634812951088
-0.18843363225460052
-0.13734790682792664
-0.10635622590780258
-0.15672427415847778
-0.34252017736434937
-0.10957450419664383
0.31883344054222107
0.5688271522521973
0.26868656277656555
-0.017666835337877274
-0.016046125441789627
-0.009899196214973927
0.003121780464425683
-0.006455059163272381
-0.013569063507020473
-0.013482931070029736
0.017699846997857094
0.019338300451636314
-0.04728731885552406
-0.10871420055627823
-0.0863974392414093
-0.0008867644355632365
-0.014260021038353443
-0.013195564039051533
0.04480977728962898
-0.04561330005526543
-0.04955337941646576
-0.10880859941244125
-0.062480729073286057
-0.044816046953201294
0.021580342203378677
0.042794618755578995
0.04182913899421692
0.04366610571742058
0.06649217009544373
0.07338178157806396
-0.011700195260345936
-0.0047943019308149815
0.006385930348187685
0.04074941575527191
0.03971836343407631
0.04038571938872337
0.0188757237046957
0.029749130830168724
0.028341125696897507
-0.08163744956254959
-0.09916918724775314
-0.10872215777635574
0.08885359764099121
0.0417790561914444
0.01779959909617901
0.09664391726255417
0.044051866978406906
0.011368117295205593
0.07399211823940277
-0.088418148458004
-0.03307146579027176
-0.14702151715755463
0.14182314276695251
0.0290851853787899
0.04756547138094902
-0.08863991498947144
-0.010991035029292107
-0.01309261005371809
0.024623742327094078
0.06656375527381897
0.017826631665229797
0.015884071588516235
-0.015797939151525497
0.08212579041719437
0.08466991782188416
0.046663787215948105
0.014056721702218056
0.015424707904458046
0.01491538155823946
-0.0007516517653129995
-0.00103175628464669
-0.0016164275584742427
-0.0026438438799232244
-0.0028058583848178387
-0.0034324966836720705
-0.020818334072828293
-0.10988779366016388
-0.06670625507831573
0.04481786862015724
0.10198233276605606
0.017404574900865555
0.02398429997265339
0.0015519073931500316
-0.03011925145983696
0.05616646632552147
0.029357222840189934
0.006275826599448919
0.05615028366446495
0.01595987007021904
0.004786502104252577
-0.058358334004879
-0.12196505814790726
-0.1349039077758789
-0.011999680660665035
-0.0045501915737986565
0.014700856059789658
0.014502503909170628
0.023849310353398323
0.03985032066702843
0.052816059440374374
0.07154092937707901
0.06593882292509079
0.025510435923933983
-0.0479392483830452
0.05627574771642685
0.05445370078086853
0.031771399080753326
0.02036920189857483
0.09940801560878754
-0.15648289024829865
-0.013390528969466686
-0.08151782304048538
-0.13513310253620148
-0.0670204758644104
-0.11884454637765884
-0.1152452677488327
0.0009527693036943674
0.03130169212818146
0.037623330950737
0.07758606970310211
-0.013063869439065456
-0.009036826901137829
-0.012818524613976479
-0.023963764309883118
-0.02031458541750908
-0.02310343272984028
-0.002177943242713809
-0.0007839614409022033
0.002378608100116253
0.05370726063847542
-0.10871294885873795
-0.09005219489336014
0.1184135377407074
-0.009272257797420025
0.0848969891667366
0.10936985909938812
-0.047064825892448425
-0.045247774571180344
0.09761791676282883
0.14310334622859955
0.050896428525447845
0.10463036596775055
0.1121051013469696
0.020937616005539894
0.22259210050106049
0.17581242322921753
0.09670364856719971
-0.07159329205751419
-0.06514471024274826
-0.0786471739411354
-0.0541655495762825
-0.010182264260947704
-0.040211502462625504
0.06323832273483276
0.06332455575466156
0.01212340034544468
0.13063853979110718
0.0902567058801651
0.04090428352355957
0.11965852230787277
0.04771551117300987
-0.006065900903195143
0.0031516016460955143
-0.11470039188861847
-0.10483689606189728
-0.1405150294303894
-0.09220325946807861
-0.026637883856892586
-0.04766237363219261
0.006059388630092144
0.05017882585525513
0.0688050389289856
0.14123225212097168
0.1548212766647339
-0.0136304572224617
-0.011035225354135036
-0.017388828098773956
-0.003311427077278495
-0.006876982282847166
-0.009711693041026592
0.0018544542836025357
-0.009585989639163017
-0.0067872535437345505
0.028352849185466766
-0.029406419023871422
0.012849693186581135
-0.05318392068147659
-0.10885114967823029
-0.0454954169690609
-0.019506700336933136
-0.03422300145030022
0.033710163086652756
-0.01796364225447178
-0.09311489760875702
0.02914605475962162
0.020620904862880707
-0.015858294442296028
-0.04917416349053383
0.07419704645872116
-0.07302737236022949
-0.0748722031712532
0.03089461289346218
-0.05436696857213974
0.015128864906728268
-0.04094008728861809
-0.0018061589216813445
0.028085144236683846
-0.025085803121328354
-0.26009970903396606
0.07887326925992966
-0.00862511433660984
-0.006961415056139231
-0.010614857077598572
-0.0020302594639360905
-0.0009224587120115757
-0.0036158787552267313
-0.008555756881833076
-0.006891201250255108
-0.009693736210465431
0.12657098472118378
0.10711617767810822
0.11941934376955032
0.1212230995297432
0.02893027663230896
0.012678902596235275
-0.03657444566488266
-0.21824733912944794
-0.15531882643699646
-0.07597330957651138
-0.05646975710988045
-0.17607611417770386
-0.018581988289952278
-0.01704980432987213
-0.12149298191070557
0.11796905100345612
0.12520736455917358
0.06959594041109085
0.02458972856402397
0.044057007879018784
0.03071153350174427
0.0052965423092246056
0.01954837329685688
0.011967094615101814
-0.04333766922354698
-0.03177369013428688
-0.034918248653411865
0.08267728239297867
0.06122526153922081
-0.06624393165111542
0.05709892883896828
-0.06493283063173294
-0.1744372844696045
-0.011344276368618011
-0.004379919730126858
-0.18282967805862427
-0.03327014297246933
0.02456020750105381
0.037864942103624344
0.012129675596952438
0.06905140727758408
0.2261197566986084
-0.11547167599201202
-0.0323677584528923
0.04410526156425476
0.07689414173364639
0.08117769658565521
0.11798608303070068
0.016081826761364937
0.00994887389242649
0.05380816012620926
-0.14660505950450897
-0.17316323518753052
-0.11624300479888916
-0.0014401489170268178
0.009858377277851105
-0.0022189365699887276
0.04132296144962311
0.015822965651750565
0.006695874035358429
-0.12776267528533936
-0.13031817972660065
0.021710647270083427
-0.25512412190437317
-0.15630945563316345
-0.3208450376987457
0.031031515449285507
0.004776447080075741
-0.11148141324520111
0.125335231423378
-0.11170803755521774
0.011272399686276913
0.005337277892976999
0.07741785794496536
0.22456981241703033
-0.07918944209814072
-0.030155224725604057
0.12111957371234894
-0.21291802823543549
-0.13095147907733917
-0.02341620996594429
-0.17647568881511688
-0.17023305594921112
-0.22881969809532166
0.14085978269577026
0.05793597176671028
0.03466681391000748
0.22992971539497375
0.23945297300815582
0.1726771891117096
0.14275527000427246
0.17976677417755127
0.12217065691947937
0.00448781019076705
0.06354235857725143
0.04612743481993675
-0.25164684653282166
-0.2298395335674286
-0.17255905270576477
0.02213350497186184
0.01328272931277752
0.03814053162932396
0.010218159295618534
-0.0028819541912525892
0.01525659766048193
-0.034728601574897766
-0.05266442522406578
-0.04631229117512703
-0.06734712421894073
-0.019315913319587708
-0.03117927350103855
-0.05898943915963173
-0.005936821456998587
-0.011235253885388374
-0.012426606379449368
0.029237177222967148
0.031297918409109116
-0.21721452474594116
-0.11024738848209381
0.11850008368492126
0.023126132786273956
0.025679370388388634
0.19438447058200836
-0.04118899628520012
0.01680971123278141
0.2557810842990875
-0.18984343111515045
-0.0849616676568985
-0.028287142515182495
-0.019552890211343765
0.0829082801938057
0.052997153252363205
-0.06746979802846909
0.05518103390932083
0.03317379206418991
-0.011953003704547882
-0.01055816374719143
-0.014321355149149895
0.000585529487580061
0.0020073363557457924
-0.0020590138155966997
0.007984482683241367
0.00926666148006916
0.005328720901161432
-0.14646007120609283
-0.16704003512859344
-0.21916741132736206
0.1014452651143074
0.034590184688568115
-0.003676162799820304
0.21304936707019806
0.18446588516235352
0.11645253002643585
0.02394844777882099
0.011658945120871067
0.006367858964949846
0.04388236999511719
0.02653905190527439
0.011928609572350979
0.03738463297486305
0.019276518374681473
0.003403332084417343
-0.02396533079445362
-0.028583571314811707
-0.03136153146624565
-0.029820844531059265
-0.033095430582761765
-0.033671990036964417
-0.02952440455555916
-0.036259062588214874
-0.037008900195360184
-0.05598941817879677
-0.011555866338312626
0.014404945075511932
-0.07683980464935303
-0.014137457124888897
0.014237034134566784
-0.08074816316366196
-0.020477760583162308
0.0003700049710460007
-0.01768041029572487
-0.05335713550448418
-0.005985798314213753
-0.05377409979701042
-0.0572429858148098
-0.006653961259871721
-0.061334192752838135
-0.045036137104034424
-0.021510878577828407
0.00963414553552866
0.0074780890718102455
0.003659389214590192
0.004552727099508047
0.0032680078875273466
-0.0003961136972066015
-0.0006622095825150609
-0.0010103159584105015
-0.005422960035502911
-0.015857702121138573
0.005241792649030685
0.05403461679816246
-0.025962330400943756
-0.037873342633247375
0.0193355530500412
0.006572847254574299
-0.02704261988401413
-0.003938088659197092
-0.012256767600774765
0.00902772881090641
0.04714067280292511
0.019870832562446594
0.01918863318860531
0.06692926585674286
0.020839327946305275
0.01284005492925644
0.04003642871975899
-0.016435645520687103
-0.02194821648299694
-0.018701940774917603
-0.02599974535405636
-0.025480668991804123
-0.03721554949879646
-0.030745234340429306
-0.04319470375776291
-0.050815384835004807
-0.023947034031152725
-0.04708131402730942
-0.06832627207040787
-0.020765071734786034
-0.06640107929706573
-0.07078342139720917
-0.03176014870405197
-0.05615348368883133
-0.06491683423519135
-0.04294866696000099
-0.054377347230911255
-0.04669271036982536
-0.06180061399936676
-0.07071777433156967
-0.06422019749879837
-0.07452449202537537
-0.08390365540981293
-0.08557822555303574
0.04072549566626549
0.04165579006075859
0.034828830510377884
0.036813393235206604
0.03874785080552101
0.03160496801137924
0.03410869836807251
0.036589596420526505
0.02879958786070347
-0.05173693597316742
-0.04531458392739296
-0.046284183859825134
-0.03607705608010292
-0.032207466661930084
-0.0271900687366724
-0.024968761950731277
-0.023104717954993248
-0.019043605774641037
0.010184704326093197
0.04615923389792442
0.07525618374347687
0.010365545749664307
0.05633724480867386
0.07547447830438614
-0.01778308115899563
0.043243199586868286
0.0547664649784565
0.0369495265185833
0.008742062374949455
-0.014198391698300838
0.004340281710028648
-0.03749028965830803
-0.006957184989005327
0.0026177288964390755
-0.023564239963889122
0.007278318051248789
0.0007661324343644083
0.00015786926087457687
0.00045248775859363377
0.0006522017065435648
-0.00019396918651182204
0.0004434040456544608
0.0004705370229203254
0.00023279519518837333
0.0006976971053518355
-0.006220366805791855
-0.0073715317994356155
-0.02811329998075962
0.010463817045092583
0.00308444956317544
-0.039319708943367004
-0.001286567421630025
-0.008975069038569927
-0.04046731814742088
0.09765544533729553
-0.11111900210380554
-0.02398284524679184
0.0679721087217331
-0.17590121924877167
-0.13377700746059418
0.23026831448078156
5.323516234057024e-05
-0.028392964974045753
-0.003915257751941681
0.0004292497760616243
0.039937201887369156
-0.037797749042510986
-0.03232796862721443
0.012307637371122837
-0.03553444892168045
-0.027778346091508865
0.009419937618076801
0.10550185292959213
0.07790136337280273
0.10795082151889801
0.22865648567676544
0.008265874348580837
0.0358814112842083
0.2746817171573639
0.018491636961698532
0.050336193293333054
0.08637697249650955
0.10170067846775055
0.050347428768873215
-0.029834188520908356
0.0046529448591172695
0.008484715595841408
0.055724263191223145
0.011839792132377625
0.07648409157991409
0.004224070347845554
0.06845130026340485
0.06941178441047668
-0.07790865004062653
0.0039004473946988583
0.020879000425338745
-0.09977307170629501
-0.013831043615937233
0.015989528968930244
0.008275880478322506
0.04352860897779465
0.031927671283483505
-0.07832064479589462
0.03280320763587952
0.013217342086136341
0.015262704342603683
0.03886613994836807
-0.0030021832790225744
-0.12379996478557587
-0.07528870552778244
-0.003381698625162244
0.0007556126220151782
-0.052159443497657776
-0.10295406728982925
0.16431309282779694
-0.04794738069176674
-0.005518652033060789
-0.10747809708118439
0.011095513589680195
0.1665625274181366
-0.12780547142028809
-0.02187328413128853
0.1394728422164917
-0.13331018388271332
-0.0291269663721323
0.13089822232723236
-0.018881987780332565
-0.18639470636844635
-0.2702224552631378
0.27161046862602234
-0.13369852304458618
-0.22909383475780487
0.4780234694480896
0.12702645361423492
-0.0714501440525055
-0.012003418989479542
0.07194885611534119
0.16370190680027008
-0.19892412424087524
-0.05929118022322655
0.08672671765089035
-0.19542460143566132
-0.08561442047357559
0.09381823241710663
0.03695446252822876
0.005531675182282925
0.01727164350450039
0.04091653227806091
-0.004181458614766598
0.014536132104694843
0.0020551641937345266
-0.033039599657058716
-0.024490172043442726
-0.021006954833865166
0.004285892937332392
-0.06009460613131523
0.016465457156300545
0.03194926679134369
-0.032303810119628906
0.04141951724886894
0.0452001616358757
-0.02781049907207489
-0.062214624136686325
-0.1147894561290741
-0.08417537808418274
0.15243937075138092
-0.01758652552962303
-0.06300912797451019
0.1653083711862564
0.04184523597359657
0.03717188537120819
0.05322926118969917
-0.014440254308283329
0.010986323468387127
0.018971575424075127
-0.09107403457164764
0.005027928855270147
0.1791791170835495
-0.13155220448970795
-0.08925315737724304
0.006856158841401339
0.001140713575296104
0.013276280835270882
0.007258547469973564
0.000965677376370877
0.012133647687733173
0.005328868981450796
-0.0011029596207663417
0.011047862470149994
-0.009344222024083138
-0.17894503474235535
-0.2802203297615051
0.27757060527801514
0.030891161412000656
-0.17757339775562286
0.37156563997268677
0.20988012850284576
-0.0737113505601883
-0.11427228152751923
-0.004598961211740971
-0.07724446058273315
-0.013313605450093746
0.10208454728126526
0.02628336474299431
0.029026402160525322
0.10705326497554779
0.06190219521522522
0.021908435970544815
0.008687335066497326
0.005968301557004452
0.00868268497288227
-0.008981705643236637
-0.017660977318882942
0.004843742586672306
-0.02559657208621502
-0.03375259414315224
-0.08521772921085358
0.05345458909869194
0.0322701670229435
-0.07096308469772339
0.010968634858727455
0.046453893184661865
-0.032439280301332474
-0.035105571150779724
-0.039914920926094055
-0.04420794919133186
-0.13578112423419952
-0.10290253162384033
-0.061142195016145706
-0.18899142742156982
-0.1366252452135086
0.006276209373027086
-0.0887458398938179
-0.05830581486225128
-0.00545631255954504
0.0018460776191204786
0.009433738887310028
-0.05261578410863876
-0.05088511481881142
-0.043750811368227005
-0.01564568653702736
-0.03338373079895973
-0.010759550146758556
-0.0012347059091553092
-0.07840370386838913
-0.014748101122677326
0.01987498439848423
-0.013295905664563179
0.031629111617803574
0.024999363347887993
0.023840758949518204
-0.0386236310005188
-0.10397442430257797
-0.24435622990131378
-0.17779526114463806
-0.1227293312549591
-0.21590901911258698
-0.17981474101543427
-0.024609049782156944
-0.07257170975208282
-0.09962160140275955
0.1976161152124405
0.047583337873220444
0.08059228211641312
0.0290872473269701
-0.16641852259635925
-0.1475197821855545
-0.0313989594578743
-0.2270374298095703
-0.24443037807941437
-0.1892477124929428
-0.07062696665525436
-0.04444265738129616
-0.09137653559446335
0.052406925708055496
0.06117291748523712
-0.010723914951086044
0.2084003984928131
0.2374163717031479
0.09123111516237259
0.11213212460279465
0.14212006330490112
0.026590730994939804
-0.013649153523147106
-0.005448975134640932
0.05178213492035866
-0.05498718470335007
-0.0675402283668518
-0.014555348083376884
-0.010737194679677486
0.011616737581789494
-0.015911558642983437
-0.02789345383644104
-0.005128233227878809
0.006736406125128269
-0.012110033072531223
0.010055557824671268
-0.1209147498011589
-0.1150030642747879
-0.12364820390939713
-0.030217433348298073
0.0070764306001365185
-0.020977705717086792
0.07542784512042999
0.1286548376083374
0.08552427589893341
-0.018186304718255997
-0.06818169355392456
0.009254229255020618
0.05904870107769966
-0.020941130816936493
-0.033188097178936005
0.09074406325817108
0.06290936470031738
0.06417349725961685
0.003956771455705166
-0.03743218258023262
0.020919067785143852
-0.012257417663931847
-0.03637786954641342
0.0123642822727561
-0.06250695139169693
0.013825800269842148
0.09467558562755585
0.00775112584233284
0.004212367348372936
0.004339618142694235
0.0035668518394231796
-0.0017144447192549706
-0.0013024774380028248
-0.0016489016124978662
-0.007170272525399923
-0.006203092634677887
-0.2032853662967682
-0.041147902607917786
-0.01763719506561756
-0.04743058234453201
0.09253023564815521
0.004273613449186087
-0.04348856955766678
0.040054019540548325
-0.013678491115570068
0.08541148155927658
0.005510757677257061
-0.08989867568016052
0.06164705380797386
0.006185360252857208
-0.0044026183895766735
-0.10530257225036621
-0.037325579673051834
0.012603475712239742
-0.06013602390885353
-0.12557226419448853
-0.049259427934885025
-0.0439956858754158
-0.08386723697185516
0.030238699167966843
-0.05063260719180107
-0.01598520763218403
0.07266311347484589
0.053850844502449036
-0.06789936870336533
-0.23407264053821564
-0.04653916507959366
-0.08708050101995468
-0.10079841315746307
-0.11145084351301193
-0.04209943488240242
0.03359808400273323
-0.20504137873649597
-0.15722432732582092
0.11062229424715042
-0.03322254493832588
0.043685078620910645
0.27172431349754333
-0.04616696015000343
0.15106196701526642
0.33112967014312744
-0.20269615948200226
-0.09226370602846146
0.1147901862859726
-0.11299590021371841
0.051755230873823166
0.2360970377922058
-0.11764766275882721
0.10242964327335358
0.18253950774669647
0.014394763857126236
0.15495705604553223
0.04068347439169884
-0.10942347347736359
0.11110661923885345
0.00488912733271718
-0.02078482322394848
0.15172028541564941
-0.00913645513355732
0.04523620754480362
0.006429049652069807
-0.09538932144641876
0.18748439848423004
0.15457099676132202
0.07966087013483047
0.22904957830905914
0.12335807085037231
0.05438311770558357
-0.14441734552383423
-0.08310527354478836
0.07361765205860138
-0.1340390294790268
-0.04420340061187744
0.21127627789974213
-0.12372314184904099
0.044983722269535065
0.26170212030410767
0.21954388916492462
0.0541149377822876
-0.07450244575738907
0.1838385909795761
-0.007599071133881807
-0.07529149949550629
-0.040412019938230515
-0.05322245508432388
-0.038393039256334305
-0.24650774896144867
-0.2515220642089844
0.009950796142220497
-0.15998761355876923
-0.08773545175790787
0.205322727560997
-0.022947223857045174
0.12184307724237442
0.254721999168396
-0.014197309501469135
-0.045772623270750046
-0.05230942368507385
0.017795611172914505
0.0056931073777377605
0.018139710649847984
-0.0009144942741841078
0.013960571959614754
0.03895046189427376
0.10436975210905075
0.05674649775028229
-0.1347637176513672
0.0871540829539299
0.06835899502038956
-0.0798429399728775
0.05582314357161522
0.10308389365673065
0.007766164839267731
0.026810210198163986
0.1777910739183426
0.15655171871185303
0.24726992845535278
0.25941258668899536
0.07489108294248581
0.17745479941368103
0.03037567250430584
-0.06776319444179535
0.10964538902044296
0.08946125209331512
-0.03132655844092369
0.12000089138746262
-0.0005380575894378126
-0.08697941154241562
0.08859840035438538
-0.045179080218076706
0.07253748178482056
0.02171536162495613
0.007811484858393669
0.00796479918062687
0.012488056905567646
0.0010349241783842444
0.0028721641283482313
0.010927115567028522
0.00013737869448959827
0.0024554049596190453
0.2958754897117615
0.10096079856157303
-0.108971007168293
0.1492665410041809
-0.09192967414855957
-0.14689601957798004
-0.034573908895254135
-0.043825455009937286
-0.025107335299253464
-0.03664171323180199
0.06122726574540138
0.01608150824904442
0.09414172172546387
0.09913995862007141
0.10538637638092041
-0.07182420790195465
-0.13911794126033783
-0.15887248516082764
0.0004651292401831597
0.0011487933807075024
-0.006421192083507776
0.011533289216458797
-0.017918283119797707
-0.011503196321427822
0.045769333839416504
0.01865832693874836
0.024695569649338722
0.1538873165845871
0.11090761423110962
0.006302553229033947
-0.0002766011457424611
0.09191280603408813
0.07915981113910675
-0.11806108802556992
-0.03514346107840538
0.09367036074399948
-0.17382025718688965
-0.20643088221549988
-0.14534910023212433
-0.0019314192468300462
-0.01100714411586523
0.004841407295316458
0.056258246302604675
0.07229882478713989
0.1025925874710083
-0.15532982349395752
-0.22041375935077667
-0.15472690761089325
0.01014519389718771
-0.04191013425588608
0.006089339964091778
0.10643285512924194
0.125480055809021
0.11746647953987122
0.12405769526958466
0.13444006443023682
0.01657406985759735
-0.09692883491516113
-0.04725298658013344
-0.16069670021533966
0.06085732951760292
-0.0037337925750762224
-0.026192300021648407
-0.02262568473815918
0.004220379050821066
-0.01871771365404129
0.2472473531961441
0.42271000146865845
0.19189952313899994
-0.016219694167375565
0.048654161393642426
0.02201974205672741
-0.04068290442228317
-0.08974560350179672
-0.17907090485095978
0.023405788466334343
-0.0561375729739666
-0.0753759816288948
0.15623414516448975
0.12024915218353271
0.1031159833073616
0.16284866631031036
0.22451737523078918
0.19230124354362488
0.030368248000741005
-0.051453642547130585
-0.0422026626765728
-0.13005661964416504
-0.26129642128944397
-0.259159654378891
-0.23108671605587006
-0.2261982411146164
-0.21662726998329163
0.04228886589407921
-0.027185965329408646
-0.01544274389743805
0.2511634826660156
0.2507557272911072
0.21646805107593536
-0.031149866059422493
-0.045725077390670776
-0.07639019936323166
0.031643979251384735
0.033010683953762054
0.02061651274561882
0.009436596184968948
0.02185933291912079
0.027849121019244194
0.04133960232138634
0.09380341321229935
0.04508514702320099
0.03115025907754898
0.05734993517398834
0.051353901624679565
-0.14655077457427979
-0.14192384481430054
-0.11960015445947647
-0.11071985214948654
-0.09539703279733658
-0.03940284997224808
-0.046203576028347015
0.011694339103996754
-0.02241053618490696
0.11772013455629349
-0.07381846010684967
-0.06485433876514435
-0.017634237185120583
0.008292495273053646
0.0029042898677289486
0.026521602645516396
0.0739128366112709
0.06164301186800003
-0.00022099699708633125
-0.07459510862827301
0.012503658421337605
0.01091284304857254
0.01001540943980217
0.007771250791847706
0.003378052730113268
-0.0008643802138976753
-0.0009693253086879849
0.012234361842274666
0.008318196050822735
0.008094873279333115
0.14307445287704468
0.2734822630882263
0.2296828329563141
0.0521114319562912
-0.01764094829559326
-0.0745236873626709
-0.14378736913204193
-0.2138337790966034
-0.26493579149246216
-0.027753345668315887
-0.003437222447246313
0.03809221461415291
-0.06376323848962784
-0.07187232375144958
0.0019523230148479342
-0.02391086146235466
-0.04669778794050217
-0.00857757031917572
0.05934656411409378
0.04907148331403732
-0.05831553041934967
0.15894335508346558
0.15988002717494965
0.01345087680965662
0.09274345636367798
0.11108499020338058
-0.0037480120081454515
0.05710246041417122
0.14369553327560425
0.1454150676727295
0.059910960495471954
0.1535043865442276
0.19169066846370697
-0.015933487564325333
0.11809932440519333
0.1042756736278534
0.12285351753234863
0.13080529868602753
-0.0790008082985878
0.27153080701828003
0.24429455399513245
-0.02768242359161377
0.19005922973155975
0.15530137717723846
-0.07035213708877563
0.1354147046804428
0.13649031519889832
0.036547865718603134
0.21347519755363464
0.2359144240617752
0.08423149585723877
0.08864983171224594
0.12210206687450409
0.0028881870675832033
0.04400632530450821
-0.0317109115421772
0.043408673256635666
0.12749865651130676
0.03092707321047783
0.0483756959438324
0.09080155193805695
0.014307246543467045
0.03537983074784279
-0.04961789399385452
0.011698324233293533
-0.007038576062768698
0.03974738344550133
-0.02639651671051979
0.017486566677689552
0.10424750298261642
-0.011089341714978218
-0.04498649388551712
0.07943563163280487
0.025687018409371376
-0.10295064002275467
0.24706169962882996
0.18374493718147278
0.002989747328683734
0.15295062959194183
0.11401522904634476
-0.02918337844312191
-0.058227989822626114
-0.06172039359807968
0.12401016801595688
-0.2106780856847763
-0.17265461385250092
-0.019505878910422325
-0.1320510059595108
-0.14858628809452057
0.029221143573522568
0.08774345368146896
0.1047118753194809
-0.14544999599456787
0.3289508819580078
0.39314043521881104
0.023603394627571106
0.09630323946475983
0.1886221468448639
-0.07132603228092194
-0.03171331807971001
0.007814222946763039
0.07018452137708664
-0.09083116054534912
-0.029919283464550972
0.019865673035383224
-0.1066441610455513
-0.04559153690934181
0.008519410155713558
0.039565134793519974
0.17515330016613007
0.23181262612342834
-0.10094153881072998
0.034397613257169724
0.14936690032482147
-0.13400177657604218
-0.008674858137965202
0.1236199289560318
-0.05695772171020508
-0.09283309429883957
-0.10500895977020264
-0.03664921596646309
-0.14378513395786285
-0.18821997940540314
0.023464204743504524
-0.09048973768949509
-0.16203045845031738
0.051505617797374725
0.04370800405740738
-0.01838979870080948
0.0031008918303996325
0.05779314413666725
-0.01855863630771637
0.008292163722217083
-0.0018084247130900621
-0.04417336359620094
-0.004258020780980587
-0.010452832095324993
-0.017889652401208878
0.006370824296027422
-0.00019624071137513965
-0.007104035932570696
0.0069646271876990795
0.0001881835050880909
-0.007205039728432894
-0.14303208887577057
-0.10469827800989151
0.05631584674119949
-0.2436448186635971
-0.19663755595684052
-0.03464324399828911
-0.11817238479852676
-0.09689095616340637
0.05873092636466026
0.0994049608707428
-0.025520024821162224
-0.11231590807437897
0.013742264360189438
0.11564671993255615
-0.005874920636415482
-0.1190159022808075
0.0245177261531353
0.08837898075580597
-0.0060015772469341755
0.0044239298440515995
-0.012525936588644981
-0.033237311989068985
-0.006465928163379431
-0.02545972354710102
-0.03602816164493561
-0.02781613916158676
-0.025971023365855217
0.053846996277570724
-0.20396259427070618
-0.17109476029872894
0.36649206280708313
0.07208946347236633
-0.2559298872947693
0.2581713795661926
0.4101051390171051
-0.010815935209393501
-0.00911396648734808
-0.021600503474473953
0.14156359434127808
-0.03012138605117798
-0.10703608393669128
0.07323263585567474
-0.07548341155052185
-0.11308691650629044
0.07664408534765244
-0.028157424181699753
-0.001016440219245851
0.09997011721134186
-0.034560833126306534
-0.07090014964342117
0.024601303040981293
0.08213876187801361
-0.013629628345370293
0.004775949288159609
-0.018452448770403862
0.02601083181798458
0.08040168881416321
-0.02669188566505909
0.006262045353651047
0.1319286972284317
-0.12706656754016876
-0.02727665938436985
0.008822064846754074
0.15213705599308014
-0.12200339138507843
-0.029730116948485374
0.25789570808410645
0.05706600472331047
-0.23008479177951813
0.20911194384098053
0.1317240595817566
0.01398013811558485
-0.028303705155849457
-0.09388749301433563
0.009462079033255577
-0.06563436985015869
-0.024747148156166077
0.07401614636182785
-0.010547146201133728
-0.01969168893992901
0.09515029937028885
0.023680035024881363
0.15450634062290192
-0.10199442505836487
-0.21024014055728912
0.19093546271324158
0.05022621154785156
-0.2256959080696106
-0.12333786487579346
0.10508669912815094
-0.0449785515666008
-0.008318516425788403
0.0794367864727974
-0.07526182383298874
-0.07187475264072418
0.03141725808382034
0.07914147526025772
0.010576855391263962
0.0585811473429203
0.0468222051858902
-0.01197299174964428
-0.01789059303700924
0.06639958173036575
0.022315844893455505
-0.021741067990660667
0.08046621829271317
0.0814647376537323
0.025711026042699814
0.13867123425006866
0.06323879957199097
0.03520173579454422
0.07491986453533173
0.03175727650523186
-0.01439750101417303
0.02775334194302559
0.023101719096302986
0.025504767894744873
-0.0031407566275447607
0.5313339233398438
0.21593604981899261
-0.4994302988052368
-0.009129979647696018
0.26858922839164734
-0.2596900165081024
-0.48423513770103455
0.09030882269144058
-0.03573963791131973
0.005196485668420792
-0.10029854625463486
0.020451178774237633
0.10246029496192932
-0.061860114336013794
0.0337727852165699
0.14429664611816406
0.11247652024030685
-0.0027852249331772327
-0.006167147774249315
-0.005522347986698151
-0.0006815964006818831
-0.0007887755054980516
-0.0035960194654762745
-0.0029610751662403345
-0.0043289572931826115
-0.0069318730384111404
0.07771462202072144
0.14665251970291138
-0.221948504447937
-0.12287107110023499
0.15861918032169342
0.017986318096518517
-0.16098280251026154
-0.08759579062461853
0.1048620417714119
0.05253053456544876
-0.0010633515194058418
-0.012160035781562328
0.04593702033162117
-0.002991823013871908
-0.01318357139825821
0.04750886932015419
0.004167785868048668
-0.006899475120007992
0.008078380487859249
0.01110345683991909
0.0007101003429852426
0.007355072535574436
0.018819833174347878
-0.009822390973567963
0.006291405763477087
0.007101709023118019
-0.017107468098402023
0.0670977309346199
0.13792037963867188
0.04046594724059105
0.03233715891838074
0.10999206453561783
0.049796171486377716
0.043954670429229736
0.1244359016418457
0.039412032812833786
-0.08505850285291672
-0.0217569749802351
-0.03863180801272392
-0.039577968418598175
0.04970688000321388
0.004256546031683683
-0.018194347620010376
0.0451539121568203
0.00430695153772831
-0.033908672630786896
0.007532557938247919
0.0011906229192391038
-0.021864620968699455
0.0161469504237175
0.00965655967593193
-0.020855581387877464
0.009920485317707062
0.0028862133622169495
-0.02557525597512722
0.032915979623794556
-0.0027374536730349064
-0.01605582796037197
0.040234774351119995
0.005842516198754311
0.01597318798303604
0.0614950992166996
-0.0029648831114172935
0.017514605075120926
0.0006950366660021245
-0.016150258481502533
0.053672339767217636
0.05726271867752075
0.04164731875061989
0.13330915570259094
0.10081404447555542
0.030536599457263947
-0.11499191075563431
-0.019303906708955765
0.011202911846339703
-0.05221346393227577
0.029964741319417953
0.0478280670940876
-0.016949007287621498
0.06402149796485901
0.07835423946380615
-0.03481292352080345
-0.023920223116874695
-0.022213684394955635
-0.05186771601438522
0.004121746867895126
-0.004852547775954008
-0.0629129558801651
-0.025679942220449448
-0.01246864628046751
-0.025102339684963226
-0.013403424061834812
-0.033383458852767944
0.016112251207232475
0.019852392375469208
-0.004363238345831633
0.022084446623921394
0.020107196643948555
-0.00958773773163557
-0.03533152863383293
0.014584757387638092
0.022041678428649902
-0.03066742606461048
0.021271372213959694
0.0254387017339468
-0.030411886051297188
0.019376125186681747
0.021680807694792747
-0.015420597977936268
0.01047747116535902
0.017357461154460907
-0.01152215339243412
0.00960230827331543
0.020026521757245064
-0.04115636274218559
-0.019059093669056892
-0.013151816092431545
0.06694173067808151
0.041192926466464996
0.04500370845198631
0.033549703657627106
0.07009294629096985
0.07505247741937637
0.015077776275575161
0.0918549969792366
0.05230759084224701
-0.2976655960083008
-0.015325261279940605
0.05350663512945175
-0.243277445435524
0.032811179757118225
0.11307425796985626
-0.2354276031255722
0.08087380230426788
0.15983490645885468
-0.001591081847436726
0.0006142729544080794
0.0008396790362894535
0.0007119062938727438
0.0003004750469699502
0.0007253708317875862
0.0032173816580325365
0.0031764660961925983
0.003610386047512293
0.08802767097949982
-0.058266427367925644
-0.041104793548583984
0.07931554317474365
-0.041953474283218384
-0.03485488146543503
0.07001388072967529
-0.05555298924446106
-0.028918055817484856
-0.009776763617992401
0.0035835502203553915
-0.006159737706184387
0.012172709219157696
0.035032276064157486
0.020826878026127815
0.013689769431948662
0.04437998682260513
0.0317155085504055
0.018173258751630783
0.02420022338628769
0.030276887118816376
0.013245414942502975
0.019635599106550217
0.027043165639042854
0.0035912569146603346
0.010591629892587662
0.018086766824126244
0.04050387442111969
0.0806085541844368
0.07859865576028824
0.047942452132701874
0.062162432819604874
0.033210933208465576
-0.011548195965588093
0.03151267021894455
-0.035301655530929565
0.05653548985719681
0.07919503003358841
0.07113531976938248
0.04531646519899368
0.0836767852306366
0.04251569136977196
-0.05331415683031082
-0.015780672430992126
-0.04479927197098732
-0.03305254131555557
-0.030286693945527077
-0.004963131621479988
-0.01836666464805603
-0.016833871603012085
0.0048520686104893684
-0.0068646203726530075
-0.0057506258599460125
0.014473199844360352
-0.07359988242387772
-0.05271582677960396
0.007462325040251017
-0.16585178673267365
-0.13215410709381104
-0.08613315969705582
-0.08221016824245453
-0.039404090493917465
-0.018212225288152695
0.0034953870344907045
0.02796296961605549
0.013914024457335472
-0.005216618534177542
0.033030956983566284
0.00039355814806185663
-0.04962815344333649
-0.0157519169151783
-0.04401978850364685
-0.05542660504579544
-0.022187797352671623
-0.008139523677527905
-0.05606776475906372
-0.023766255006194115
-0.004277725238353014
-0.07945790886878967
-0.03818917274475098
-0.018384652212262154
-0.04074687138199806
0.00499005476012826
-0.024330493062734604
-0.035758085548877716
0.03643416613340378
0.008083079010248184
-0.058690816164016724
0.004275093786418438
-0.017876870930194855
-0.024988971650600433
-0.026249190792441368
-0.000954747898504138
-0.021022535860538483
-0.023644907400012016
0.0016032848507165909
-0.024329135194420815
-0.024425454437732697
0.0030961809679865837
-0.05215772986412048
-0.04064654931426048
-0.00723447697237134
-0.03841925784945488
-0.021895235404372215
0.010076133534312248
-0.02610686421394348
-0.006835693959146738
0.02323228493332863
-0.030225500464439392
-0.03315303474664688
-0.10793302208185196
-0.013061918318271637
-0.01340543944388628
-0.08782803267240524
-0.03800496831536293
-0.04008166491985321
-0.11404138058423996
-0.0005480937543325126
0.04057843238115311
0.07444709539413452
-0.0003308150917291641
0.015766926109790802
0.02724568173289299
-0.05949769914150238
-0.018248097971081734
-0.01686110533773899
0.042916737496852875
0.10138755291700363
0.15002988278865814
0.013696171343326569
0.07465625554323196
0.11496336758136749
-0.05888717621564865
-0.029211414977908134
0.024180332198739052
0.004455439280718565
0.004871475975960493
0.00892745703458786
0.0022590511944144964
0.001547748688608408
0.003953955601900816
-0.00028348268824629486
-0.0004439148469828069
0.002576244529336691
-0.01671631447970867
-0.018749190494418144
-0.027283623814582825
-0.003919580020010471
0.0034619662910699844
-0.008924244903028011
0.04019318148493767
0.04128408804535866
0.03815023973584175
0.1258574277162552
0.023276129737496376
-0.05770359933376312
0.07072373479604721
-0.02229137159883976
-0.11351778358221054
0.07153180241584778
-0.006427011452615261
-0.10750196129083633
-0.014751706272363663
-0.019063450396060944
0.008332124911248684
-0.02573886327445507
-0.027406373992562294
0.004908606875687838
-0.027601370587944984
-0.02379157394170761
-0.002887273905798793
0.03898834064602852
0.02464355155825615
-0.03346801921725273
0.07633771747350693
0.050263769924640656
-0.0395192988216877
0.06174403801560402
0.13161823153495789
-0.038711436092853546
-0.10542909055948257
-0.056913822889328
-0.11147914081811905
-0.11614035069942474
-0.11730478703975677
-0.018054788932204247
-0.14299257099628448
-0.103660948574543
-0.018605168908834457
-0.07795986533164978
-0.09198169410228729
-0.11220258474349976
-0.06795146316289902
-0.08366777747869492
-0.10437947511672974
-0.07888394594192505
-0.08833513408899307
-0.10261719673871994
0.06858302652835846
0.05965953692793846
0.059037256985902786
-0.07001249492168427
0.07154823839664459
0.039350420236587524
-0.052792392671108246
0.03011181764304638
-0.009988521225750446
-0.0404602587223053
0.01097913645207882
-0.07844828069210052
0.0686267614364624
0.005269743036478758
-0.0846511572599411
0.01448652520775795
0.05009135231375694
-0.06227414309978485
-0.025621918961405754
-0.06084108725190163
-0.056538648903369904
-0.012386231683194637
0.011577273719012737
0.005529680289328098
0.03191595524549484
0.0706554725766182
0.0473589263856411
0.10399910807609558
-0.0043675899505615234
-0.1353549063205719
0.11950825899839401
0.07364948838949203
-0.16663894057273865
0.09342986345291138
0.03537244349718094
-0.12992779910564423
-0.055647339671850204
0.015699096024036407
0.17715685069561005
-0.04606464505195618
0.019409457221627235
0.1999647170305252
-0.033305224031209946
0.06075528264045715
0.19544091820716858
-0.11661360412836075
-0.12287075817584991
-0.1351182609796524
-0.10188600420951843
-0.10830254852771759
-0.1251327395439148
-0.1014600396156311
-0.107588991522789
-0.12110023945569992
-0.2923457622528076
-0.3479496240615845
-0.28681525588035583
-0.3431295156478882
-0.4006480872631073
-0.34025803208351135
-0.3413466811180115
-0.39193519949913025
-0.33648809790611267
-0.030117347836494446
0.0015045241452753544
0.14271464943885803
-0.07629064470529556
0.09666087478399277
0.08673291653394699
-0.02752513997256756
-0.02044484205543995
0.0781504288315773
-0.038985587656497955
-0.02772669866681099
-0.0003149682597722858
0.008974525146186352
0.06024761497974396
-0.03558134660124779
-0.01175601128488779
0.04077426716685295
-0.04768705368041992
-0.004874084610491991
-0.0040894788689911366
-0.005509143229573965
-0.002286221832036972
-0.0032378945033997297
-0.004542054608464241
-0.004737021401524544
-0.004071600269526243
-0.004241408314555883
0.10851036012172699
-0.021188199520111084
-0.12078513950109482
0.06882583349943161
-0.07615035772323608
-0.14806139469146729
0.060807883739471436
-0.015392551198601723
-0.16084608435630798
-0.24850037693977356
-0.032282065600156784
0.09769152104854584
-0.16135931015014648
0.09844464063644409
0.1576993465423584
-0.09491201490163803
0.13325850665569305
0.07709826529026031
0.13367216289043427
-0.03206995874643326
-0.05475113168358803
0.06687896698713303
-0.040498919785022736
-0.03988641873002052
0.05730297788977623
-0.025241659954190254
-0.06358136236667633
0.06377504765987396
0.19259479641914368
0.11044888198375702
0.14911432564258575
0.21035081148147583
0.024983983486890793
0.14982402324676514
0.13462869822978973
-0.09833258390426636
0.36026740074157715
0.09599210321903229
-0.0793096274137497
0.169865220785141
0.005756604950875044
-0.1556115299463272
0.0923289880156517
-0.08981459587812424
-0.2721414566040039
0.29248881340026855
0.05628473311662674
-0.16249823570251465
0.190619096159935
-0.03003656677901745
-0.1784978061914444
0.07896045595407486
-0.074150949716568
-0.22573643922805786
0.10989602655172348
0.19717703759670258
0.039478108286857605
0.09822087734937668
0.24818821251392365
-0.01670047827064991
0.07392784208059311
0.10958638042211533
-0.10381575673818588
-0.1466529220342636
-0.08164141327142715
0.02158307656645775
-0.21742309629917145
0.028217745944857597
0.16958679258823395
-0.05084604397416115
-0.0273753572255373
0.09460849314928055
0.23303359746932983
-0.03567833825945854
-0.1992647349834442
0.2905223071575165
0.0259298924356699
-0.24786366522312164
0.2855636775493622
-0.044571392238140106
-0.2875135540962219
-0.49734586477279663
-0.16972151398658752
0.08832328021526337
-0.3971538543701172
0.17055994272232056
0.3635030686855316
-0.1575041115283966
0.16850616037845612
0.278399258852005
0.5682523846626282
0.030472172424197197
-0.2375306785106659
0.3595483601093292
-0.09977385401725769
-0.325783371925354
0.23826061189174652
-0.12471901625394821
-0.44096940755844116
-0.007613103836774826
0.047092195600271225
-0.051595691591501236
0.035654887557029724
0.04534417763352394
-0.055633023381233215
-0.01496544573456049
-0.045381221920251846
-0.1284533143043518
-0.13751834630966187
0.08581192791461945
0.031003180891275406
-0.14771302044391632
0.12187174707651138
0.06932273507118225
-0.19437068700790405
0.06956666707992554
-0.0226829145103693
0.026985937729477882
-0.1757451891899109
-0.011184489354491234
-0.19650276005268097
-0.1259198635816574
0.10413827747106552
-0.15514494478702545
0.08318360894918442
0.0690760537981987
-0.040167421102523804
-0.023954303935170174
0.05098726227879524
0.009564855135977268
0.14603322744369507
0.1433853656053543
0.020370883867144585
0.15296897292137146
0.06494969874620438
0.005754200275987387
0.002747615333646536
0.02721446380019188
0.004476386122405529
0.0015057593118399382
0.025389239192008972
0.01073053851723671
0.007418306544423103
0.030231887474656105
-0.3014304041862488
-0.20559166371822357
0.14964509010314941
-0.2193380743265152
-0.01377030462026596
0.3773060441017151
-0.17667029798030853
0.10960425436496735
0.24479880928993225
-0.0330791138112545
0.0561724491417408
-0.10200940817594528
-0.11374286562204361
0.05666885897517204
0.0023404236417263746
-0.13604165613651276
0.02588343620300293
0.038511972874403
0.06151428446173668
0.008079812861979008
-0.010436645708978176
-0.018270280212163925
-0.06858599185943604
-0.060438260436058044
-0.04230145364999771
-0.08610440045595169
-0.06396102160215378
-0.11090739816427231
0.013140792027115822
0.04644561931490898
0.013910727575421333
0.14793339371681213
0.10111650824546814
-0.05056501179933548
0.19886484742164612
0.186257004737854
0.19084730744361877
0.14680281281471252
0.0703698992729187
0.11779336631298065
0.03417116776108742
-0.15218304097652435
0.12150708585977554
0.0023477328941226006
-0.10441040247678757
0.14792069792747498
0.08922642469406128
0.059709582477808
0.04857522249221802
-0.0736517533659935
-0.13887320458889008
0.08514052629470825
-0.05281785875558853
-0.12984365224838257
-0.03701180964708328
0.058183420449495316
-0.01767057552933693
0.11930382251739502
0.13989892601966858
0.07999392598867416
0.08201977610588074
0.06217929720878601
-0.06388029456138611
0.08986981213092804
0.09719613194465637
0.11621462553739548
0.09608592838048935
-0.06337985396385193
-0.013530762866139412
0.020897647365927696
0.05971532315015793
-0.037204958498477936
0.18606363236904144
0.0596928671002388
-0.06963655352592468
0.10969515889883041
0.014555738307535648
-0.11706768721342087
0.0571768693625927
-0.08825666457414627
-0.2340707778930664
-0.009924200363457203
0.07584429532289505
0.04169144481420517
-0.006643545348197222
0.15292520821094513
0.09850076586008072
0.0073905750177800655
0.12129195034503937
0.06420096009969711
0.1845855563879013
0.05575842782855034
0.0001919862552313134
0.02913515828549862
-0.1485179215669632
-0.15699715912342072
-0.007834081538021564
-0.19299018383026123
-0.2290882021188736
-0.002673555165529251
-0.005078690592199564
-0.07809863239526749
0.03535273298621178
0.03207261115312576
-0.0488186776638031
0.04159633442759514
0.04137858748435974
-0.0311422199010849
-0.008129248395562172
0.07709522545337677
-0.009570484980940819
-0.021765440702438354
0.09760425239801407
0.005747704766690731
-0.05589849874377251
0.06426337361335754
-0.022116661071777344
0.07291322201490402
0.021261535584926605
-0.07171352952718735
-0.0007270181085914373
-0.2121051549911499
-0.1861797422170639
0.052656929939985275
-0.22513459622859955
-0.3048688471317291
-0.023447224870324135
-0.007250035181641579
-0.0007133028702810407
-0.016840791329741478
-0.02274356782436371
-0.05983957275748253
-0.01613754592835903
-0.020526258274912834
0.016513800248503685
-0.0010059491032734513
-0.0025508608669042587
0.005091387312859297
0.0017389648128300905
0.001808123430237174
0.010258397087454796
0.005976972170174122
0.005347622092813253
0.01279600802809
-0.08662733435630798
0.034325819462537766
0.023870468139648438
-0.04502088576555252
0.0989752858877182
0.30415669083595276
-0.1522090882062912
-0.02140188217163086
0.20273901522159576
0.052261751145124435
0.03515765815973282
0.08628573268651962
-0.01033839862793684
0.011865046806633472
0.03150118887424469
-0.06767643243074417
-0.05030118674039841
-0.015278507024049759
-0.012592034414410591
-0.020684968680143356
-0.0024953996762633324
-0.01353384181857109
-0.03616970032453537
-0.02022399567067623
0.012350657023489475
-0.026057781651616096
-0.0243197213858366
0.044141799211502075
-0.07261957973241806
-0.057501208037137985
0.13718992471694946
0.09337733685970306
-0.13945676386356354
0.055280692875385284
0.2998526692390442
-0.0415944941341877
-0.016311204060912132
0.04280374199151993
0.1381729245185852
0.013129252940416336
-0.06394200772047043
0.035126492381095886
0.05860835313796997
-0.12482809275388718
-0.04671652242541313
-0.08900145441293716
-0.0825372040271759
-0.0862899124622345
-0.08142320811748505
-0.07131167501211166
-0.0686597153544426
-0.08121254295110703
-0.07161832600831985
-0.07820941507816315
-0.01999766007065773
0.09540827572345734
0.07616192102432251
0.02922148071229458
0.029217097908258438
0.006335867568850517
0.13546599447727203
-0.05644787475466728
0.006953308824449778
-0.10377077758312225
0.03452235460281372
0.051086921244859695
0.14707832038402557
-0.18334715068340302
-0.009079680778086185
0.08487144857645035
0.11317653954029083
0.07992519438266754
-0.007625892758369446
0.057652246206998825
0.08712147176265717
-0.042836327105760574
0.001339683192782104
0.005250326357781887
-0.012161738239228725
-0.052577994763851166
0.011487353593111038
-0.018124913796782494
0.12739939987659454
0.10120479017496109
-0.07030359655618668
0.08412319421768188
0.12647739052772522
-0.069063201546669
-0.1634037047624588
0.049559950828552246
-0.024227183312177658
-0.062031589448451996
0.008534400723874569
0.05438212677836418
-0.049354828894138336
0.01897171325981617
0.15712492167949677
0.06526371091604233
0.051314763724803925
-0.12755513191223145
-0.11086385697126389
-0.10254884511232376
-0.12771981954574585
-0.10111673921346664
-0.0950695127248764
-0.13353115320205688
-0.10763601958751678
-0.09895782917737961
-0.18835943937301636
-0.2823432683944702
-0.2407834231853485
-0.21380995213985443
-0.31891465187072754
-0.30740129947662354
-0.21616753935813904
-0.28160494565963745
-0.3369857370853424
-0.03947340324521065
0.2613198459148407
0.12990222871303558
-0.18565919995307922
-0.1109575554728508
0.162136971950531
-0.0026537501253187656
-0.458217978477478
-0.009473703801631927
0.00016515252355020493
-0.05962463095784187
0.06450682878494263
-0.029271604493260384
0.016692595556378365
-0.016818689182400703
0.09059736877679825
0.020660437643527985
0.013887266628444195
-0.0006214808090589941
-0.0006582946516573429
-0.0020692236721515656
-0.0032393874134868383
-0.004060612991452217
0.0019218714442104101
-0.0061310091987252235
-0.00793124083429575
-0.0024374788627028465
0.06144149601459503
0.05336235463619232
0.044840458780527115
-0.050745848566293716
0.04744083806872368
0.007226753514260054
-0.1236826553940773
-0.10901395976543427
-0.024241488426923752
0.037019677460193634
0.0564289353787899
-0.08285492658615112
0.06950662285089493
0.15457582473754883
0.04387737438082695
-0.032195381820201874
0.07621892541646957
0.026085728779435158
-0.022473905235528946
-0.02343529835343361
-0.0518275648355484
-0.027863455936312675
-0.0030521631706506014
-0.024203699082136154
-0.04525799676775932
-0.025610841810703278
-0.024236097931861877
0.004548737779259682
0.020004091784358025
-0.05533674731850624
0.00015215504390653223
0.004411252215504646
-0.006566088180989027
0.0036882690619677305
0.09513597190380096
0.07576872408390045
-0.19285307824611664
-0.08439397066831589
-0.06650467962026596
-0.13266858458518982
-0.09311813116073608
-0.008445057086646557
-0.14031657576560974
-0.10853031277656555
-0.07446873188018799
-0.11234579235315323
-0.14880427718162537
-0.06787241250276566
-0.14934873580932617
-0.2100188285112381
-0.15763631463050842
-0.1393749862909317
-0.21372395753860474
-0.1789962351322174
0.017742255702614784
0.07491837441921234
-0.0678592324256897
-0.03472544997930527
0.05374325066804886
-0.08990974724292755
-0.04572707414627075
0.07945763319730759
-0.10051322728395462
-0.03996533155441284
-0.05940975248813629
0.016867659986019135
-0.0435720793902874
0.02731914073228836
0.035557378083467484
-0.05391594395041466
-0.03999597951769829
-0.04123819246888161
-0.05679391324520111
-0.06362948566675186
-0.11684390902519226
-0.07041914761066437
-0.07864809781312943
-0.17593996226787567
-0.08738093823194504
-0.053674548864364624
-0.1573108583688736
0.0016741781728342175
-0.013329033739864826
-0.06812640279531479
-0.034437429159879684
0.049857981503009796
0.0667085349559784
0.04763703793287277
0.07306839525699615
0.08811323344707489
-0.05582933500409126
-0.009794432669878006
-0.003269210923463106
-0.07225809246301651
-0.05606795474886894
-0.09331800788640976
-0.14134760200977325
-0.14842365682125092
-0.1736810803413391
0.14523880183696747
0.1260780394077301
0.06667161732912064
0.13465674221515656
0.12656982243061066
0.05570407956838608
0.13209666311740875
0.12608648836612701
0.06394815444946289
-0.12585844099521637
-0.0838330015540123
-0.14291226863861084
-0.018687300384044647
0.034642938524484634
-0.028874596580863
-0.08664941787719727
-0.03895518556237221
-0.09267821162939072
-0.009245175868272781
-0.018268384039402008
0.05801202356815338
0.004496150650084019
0.05812383070588112
0.08589286357164383
-0.05298751965165138
-0.0632355809211731
-0.042029619216918945
-0.0628921315073967
-0.004113515838980675
0.030319970101118088
-0.013458014465868473
0.028168542310595512
0.11291000247001648
-0.028102954849600792
0.051434535533189774
0.05092360079288483
-0.002000759355723858
-4.274152888683602e-05
0.002612167736515403
0.0020399861969053745
0.004344744607806206
0.0016961905639618635
0.009251398965716362
0.009975060820579529
0.0060064601711928844
0.0729101225733757
0.1138758510351181
0.02002207189798355
0.05216887220740318
0.17827178537845612
0.22727029025554657
-0.041729412972927094
0.06459444016218185
0.13393062353134155
