-0.009608090855181217
-0.010911955498158932
0.10291574895381927
-0.05075392127037048
-0.08258010447025299
-0.024187922477722168
0.009187296964228153
-0.0762980580329895
-0.024448690935969353
0.053960248827934265
-0.039487574249506
-0.003789945738390088
0.00850620586425066
-0.10044693201780319
-0.015522927977144718
-0.027622222900390625
0.0190683975815773
0.0020484745036810637
0.004669648595154285
0.007651647087186575
-0.021382836624979973
0.07093612849712372
-0.09947870671749115
-0.019833575934171677
0.02263561636209488
-0.06272698938846588
-0.038807354867458344
-0.010140911675989628
0.024459753185510635
0.059868499636650085
0.059358544647693634
-0.076624296605587
-0.008745959028601646
-0.0072172717191278934
-0.008509832434356213
0.007235173601657152
0.03502626717090607
0.08715785294771194
-0.005672023165971041
-0.008196179755032063
-0.03587481379508972
0.06906446814537048
0.07026020437479019
0.003809037385508418
0.006717159412801266
-0.0017160209827125072
-0.03296662122011185
-0.03382137417793274
-0.029399029910564423
-0.044621627777814865
-0.029577190056443214
-0.033954840153455734
0.05224713310599327
-0.0038273721002042294
-0.052260398864746094
0.04306451231241226
0.017155973240733147
0.017723893746733665
-0.042986538261175156
-0.005987292155623436
-0.0573769137263298
0.015783200040459633
-0.019292492419481277
0.05695371702313423
-0.012367567978799343
-0.009212398901581764
-0.002993270754814148
-0.0190479326993227
0.005116282496601343
0.04015658050775528
0.04810906946659088
-0.030482571572065353
-0.025240009650588036
0.022269604727625847
0.03881904482841492
0.07277689129114151
-0.003966440912336111
-0.04870456084609032
-0.015386202372610569
-0.020033273845911026
0.05037621036171913
-0.0010676424717530608
-0.01265829149633646
0.006861359812319279
-0.014618301764130592
-0.0542786568403244
0.03582832217216492
-0.014316407032310963
0.05215655267238617
0.07421529293060303
0.09698037803173065
0.007153347600251436
0.008004294708371162
-0.05917848274111748
-0.03691418468952179
-0.034732040017843246
0.013684297911822796
-0.09319024533033371
-0.028749870136380196
-0.03826991096138954
0.027347013354301453
0.14626836776733398
0.010371756739914417
0.030040191486477852
0.02895999699831009
0.03196629509329796
-0.0007104071555659175
-0.07241280376911163
-0.058489732444286346
-0.00031327808392234147
0.03506402298808098
-0.04364195093512535
0.021079080179333687
0.002142529934644699
0.0020824556704610586
-0.02641204185783863
0.06996182352304459
0.022608475759625435
0.02125266194343567
-0.026651332154870033
-0.008223575539886951
0.044930778443813324
0.0409243144094944
-0.03881536051630974
-0.011696153320372105
0.022537073120474815
-0.03928661718964577
-0.015562953427433968
-0.005079940427094698
0.02401995100080967
0.037567466497421265
0.036141715943813324
-0.04884924739599228
0.02229541726410389
-0.06488457322120667
0.0030489186756312847
-0.01672830432653427
0.05699712038040161
0.03488808125257492
-0.06911392509937286
0.0015085283666849136
0.08237233012914658
0.08992128074169159
0.08332223445177078
-0.028889089822769165
0.0009819044498726726
0.1244293749332428
-0.10552797466516495
0.02207154966890812
-0.04168971627950668
0.004049466922879219
0.0029137807432562113
0.04487834870815277
0.01931551843881607
0.029609451070427895
-0.02622806839644909
-0.04270097240805626
0.07583070546388626
0.0073851970955729485
-0.027856968343257904
-0.029754627496004105
-0.062401313334703445
0.008795049972832203
-0.006271821912378073
0.000683076330460608
-0.051087021827697754
0.019823065027594566
-0.007819249294698238
-0.10815572738647461
0.018698496744036674
-0.008947274647653103
0.019113097339868546
0.024587921798229218
0.0018848843174055219
0.021711086854338646
0.017101584002375603
0.02697194367647171
-0.01183025911450386
0.05569465458393097
0.07444717735052109
0.07428847253322601
0.0073827882297337055
0.0065283821895718575
0.053881000727415085
-0.024121148511767387
0.042011190205812454
0.0016285449964925647
-0.05286167189478874
-0.008073373697698116
0.02214672602713108
-0.052037522196769714
0.09393493086099625
0.09360064566135406
0.00805586762726307
0.03370945155620575
0.021480530500411987
0.0004796676221303642
0.014656061306595802
-0.006707817781716585
0.0374472476541996
-0.024292543530464172
0.01215593982487917
0.0423421673476696
0.01395996194332838
0.036918755620718
-0.028982970863580704
0.009971675463020802
0.02567126229405403
0.010556028224527836
-0.00014542098506353796
0.017653407528996468
-0.04799720272421837
0.01145416684448719
0.055982060730457306
-0.017712175846099854
0.00669532036408782
0.021107323467731476
-0.007874875329434872
0.03533700481057167
-0.030000224709510803
0.045971810817718506
0.00363361113704741
0.04754892736673355
0.005387357901781797
-0.006167178507894278
0.0033286619000136852
0.009455162100493908
0.025897469371557236
-0.0006474214605987072
-0.09146386384963989
0.002246012445539236
-0.012218333780765533
-0.04209841787815094
-0.05045749247074127
-0.013667227700352669
-0.025992173701524734
-0.018357716500759125
0.0005521971615962684
-0.02823655866086483
0.015495896339416504
0.022756097838282585
0.00983635988086462
0.0062684896402060986
0.006704561412334442
-0.001527011045254767
-0.04014377295970917
0.009137959219515324
-0.02340082637965679
-0.016014138236641884
0.019176537171006203
0.04010492563247681
0.03326456621289253
-0.01611490733921528
0.049056731164455414
0.023990657180547714
-0.012817956507205963
-0.06335023045539856
0.05931905657052994
-0.02006235532462597
-0.08512315899133682
0.03850255906581879
-0.06532637029886246
-0.03162693604826927
0.12461531162261963
-0.056417908519506454
0.02034096233546734
0.026815639808773994
0.00887515302747488
0.10331325978040695
-0.10469777882099152
-0.010513296350836754
0.07511218637228012
-0.03627711161971092
0.0005036283400841057
-0.042111001908779144
-0.007210731040686369
-0.031024152413010597
0.13910438120365143
-0.04756134748458862
-0.1032765656709671
0.0033677101600915194
0.037007760256528854
-0.024084871634840965
-0.06713239848613739
0.05033227428793907
-0.014837859198451042
-0.0072145308367908
0.02941206470131874
0.06115196272730827
0.0138931293040514
-0.029457079246640205
-0.023758037015795708
-0.07134592533111572
-0.04217525199055672
0.019256610423326492
0.09628888964653015
0.02363467589020729
-0.025684038177132607
0.020848378539085388
-0.042460162192583084
0.044265106320381165
-0.0006084712804295123
0.012671167030930519
-0.01656450144946575
0.0661785826086998
0.05074213445186615
-0.052170563489198685
-0.01631561852991581
0.07589901238679886
0.004841560497879982
0.06463440507650375
-0.01713075302541256
-0.036793071776628494
0.03787217661738396
-0.07044689357280731
0.11659454554319382
-0.008400265127420425
0.07503566890954971
-0.024383964017033577
0.022643277421593666
0.00540019990876317
-0.0017264268826693296
-0.036431241780519485
-0.06377377361059189
-0.013388756662607193
0.02199506387114525
0.04719338193535805
0.0978989452123642
-0.066551573574543
-0.023128313943743706
0.01862036995589733
-0.005245751701295376
0.024263735860586166
0.007750854827463627
0.0126706687733531
0.05976114049553871
-0.03658511862158775
-0.0002787897828966379
-0.001406812691129744
0.04628674313426018
0.026034153997898102
0.009533642791211605
0.008986566215753555
0.01743900030851364
-0.030533548444509506
0.009273364208638668
0.02305980585515499
0.04679877310991287
-0.0008811102015897632
-0.16631683707237244
0.045511629432439804
0.0306926928460598
0.027258452028036118
-0.02678365260362625
-0.030285175889730453
0.09513216465711594
-0.02717762254178524
-0.027918875217437744
-0.002731636166572571
-0.019468242302536964
0.05239724740386009
-0.0007131255115382373
-0.012226137332618237
-0.04847284406423569
-0.014546376653015614
-0.0011327762622386217
-0.03623596951365471
-0.02146574668586254
0.005295243114233017
-0.06438275426626205
-0.03310968726873398
-0.00825423002243042
0.013492572121322155
0.02839566022157669
-0.0009827290195971727
-0.0332239493727684
-0.005267955828458071
0.02724801003932953
0.07489489763975143
0.0132101159542799
0.009381690993905067
0.039034709334373474
0.0017000258667394519
0.010624689050018787
-0.04456205666065216
-0.07252182066440582
0.10746335983276367
-0.06826648116111755
0.01973753422498703
0.05379735678434372
0.02474893629550934
0.04024694114923477
0.019083920866250992
-0.020235689356923103
-0.02483752928674221
-0.03884785994887352
-0.08226868510246277
-0.07096334546804428
0.051956795156002045
0.07957740873098373
0.09921088814735413
-0.0003533687558956444
-0.049250271171331406
-0.08619412779808044
-0.09730447828769684
-0.013748666271567345
0.008774313144385815
0.026043450459837914
-0.14660023152828217
-0.0054135434329509735
-0.019205236807465553
0.016189103946089745
0.05903221666812897
-0.004021626431494951
-0.04540066048502922
-0.05120735242962837
0.018089983612298965
-0.05073864758014679
0.03789175674319267
-0.05385312810540199
0.08864720165729523
0.039895474910736084
0.010838385671377182
0.031926147639751434
0.03164192661643028
-0.016985494643449783
0.016345718875527382
0.017606504261493683
0.07319475710391998
-0.001169264898635447
0.06102887541055679
0.02391510084271431
-0.01554007176309824
-0.0561043880879879
-0.036172688007354736
-0.016390128061175346
-0.04736684262752533
-0.002721165306866169
-0.017193764448165894
-0.10563807189464569
-0.01449205819517374
-0.039817214012145996
0.023866800591349602
-0.021050740033388138
0.021327029913663864
-0.10095088928937912
-0.06647506356239319
-0.017593543976545334
-0.035505156964063644
-0.01740260422229767
-0.029486937448382378
-0.03710191324353218
0.023289384320378304
0.07591505348682404
-0.022822555154561996
0.0033142301253974438
-0.031620997935533524
0.0068513923324644566
0.0191509909927845
0.039327364414930344
0.047103151679039
0.03991885110735893
-0.01614808663725853
-0.0023256782442331314
0.0025166990235447884
-0.00030773974140174687
0.02305358275771141
-0.032173577696084976
0.05963066220283508
0.0027341442182660103
0.05092313885688782
0.034912921488285065
-0.04300380125641823
-0.016865942627191544
-0.028190037235617638
0.02446548081934452
-0.029647428542375565
0.02244570106267929
-0.012272937223315239
0.025576084852218628
-0.03479224443435669
-0.02326386794447899
-0.05232570692896843
0.002043528715148568
0.04361632838845253
-0.023762332275509834
0.007492909673601389
-0.007149875164031982
-0.004806789569556713
0.016937455162405968
-0.03276596963405609
0.03221588581800461
0.021491102874279022
-0.00099359848536551
0.0046001155860722065
-0.008893972262740135
-0.04914642125368118
-0.0433078370988369
-0.007401815615594387
-0.020342117175459862
-0.023013897240161896
0.002633133437484503
-0.01735786162316799
0.009373290464282036
0.002949851332232356
-0.041554808616638184
-0.03380916267633438
0.012226009741425514
-0.012510588392615318
0.02360275760293007
0.009913315065205097
-0.07024187594652176
-0.02012724243104458
0.09929440170526505
0.0390230193734169
0.017953913658857346
0.034813378006219864
0.09900557994842529
-0.11056213080883026
0.023150784894824028
-0.0782310962677002
0.0034622831735759974
0.008303298614919186
0.01565590314567089
-0.014351303689181805
0.08632449805736542
0.034050650894641876
-0.049071282148361206
0.0036544762551784515
-0.00010834144632099196
0.007464292924851179
0.08333761990070343
-0.003218540921807289
-0.05230199918150902
-0.04273122921586037
0.03047538362443447
0.03310280665755272
-0.007972551509737968
-0.08369839191436768
-0.04769790917634964
-0.02546270564198494
0.03570977598428726
0.07757479697465897
-0.07412716746330261
0.05858897790312767
0.08850232511758804
-0.05501227825880051
0.08130872249603271
0.017204435542225838
-0.009247156791388988
0.004120589233934879
0.04263431206345558
-0.12129783630371094
-0.0354655385017395
-0.008939484134316444
-0.013116857968270779
-0.035019081085920334
4.366571010905318e-05
0.01943659596145153
-0.005694993771612644
0.0020954536739736795
0.017690936103463173
-0.009206976741552353
0.011696593835949898
-0.05173094570636749
-0.007863650098443031
0.013998392038047314
-0.011283193714916706
-0.004944793879985809
-0.07443911582231522
0.0653846487402916
-0.025905804708600044
0.024342266842722893
-0.027027146890759468
0.005758228246122599
0.0008508373866789043
-0.006453712470829487
-0.026987915858626366
-0.02314838580787182
0.04219907522201538
-0.06599456071853638
0.10360623896121979
0.11114372313022614
0.006592572201043367
0.0035347668454051018
0.01830102689564228
0.0046503301709890366
-0.09880562126636505
0.05662878230214119
-0.0062861368060112
0.017571451142430305
-0.033127717673778534
-0.1111132949590683
0.00038270707591436803
0.0633368045091629
-0.0478353314101696
0.03670622035861015
-0.04637988284230232
-0.06971419602632523
0.02334580384194851
-0.012110654264688492
0.04100659489631653
-0.004780569113790989
0.04201269894838333
0.006015342194586992
-0.02258145436644554
-0.08909114450216293
0.05615857616066933
0.040370479226112366
-0.07630030065774918
-0.037007130682468414
0.019428569823503494
0.0024303088430315256
-0.013731771148741245
0.029424816370010376
-0.059613704681396484
0.09039880335330963
0.06648767739534378
0.000500742404256016
0.0260782428085804
-0.026410995051264763
-0.0004194392531644553
-0.024238189682364464
-0.035051487386226654
-0.009013433009386063
0.003520101075991988
-0.009402192197740078
-0.019760238006711006
0.05779708921909332
0.04071449115872383
0.031945984810590744
-0.029623303562402725
0.005235371645539999
0.0068863132037222385
0.010362081229686737
0.03151608258485794
0.013839260675013065
0.004153445363044739
0.00665695033967495
0.033492568880319595
0.08883008360862732
0.04852737486362457
-0.004231265280395746
-0.044161681085824966
0.025804830715060234
-0.05954701825976372
-0.10709495842456818
0.021254220977425575
0.0020289707463234663
0.03669550269842148
0.05242262780666351
-0.006770123261958361
0.026562150567770004
-0.08285189419984818
-0.0498354397714138
-0.07514646649360657
0.08335641026496887
0.00017477395886089653
-0.05404464155435562
0.021534204483032227
0.039914850145578384
0.01607845351099968
0.035872526466846466
-0.02886723354458809
0.008249236270785332
-0.020764796063303947
0.02894573099911213
-0.028682390227913857
-0.011465219780802727
0.026373306289315224
0.010525970719754696
0.09513188898563385
0.021577933803200722
0.053339727222919464
0.07281888276338577
-0.004354911390691996
-0.015507303178310394
-0.042613666504621506
-0.018996985629200935
-0.01739971525967121
0.06690504401922226
0.022482380270957947
0.007234699558466673
-0.13277412950992584
-0.0030395262874662876
0.0010404440108686686
-0.06521540880203247
0.002944904612377286
0.07324732840061188
-0.034448735415935516
0.019621314480900764
0.055903542786836624
0.06716848164796829
-0.004307455848902464
0.055247873067855835
0.07553834468126297
-0.02456558682024479
-0.04901134967803955
-0.08205915242433548
-0.03894704580307007
-0.030469421297311783
0.03647719323635101
0.006083137821406126
0.02223600260913372
0.047947417944669724
0.05040515586733818
-0.027444321662187576
0.011617339216172695
-0.05125121772289276
0.026836702600121498
-0.052993644028902054
-0.01162996981292963
-0.11384753882884979
0.07196734845638275
0.07938861846923828
0.005658446811139584
0.08092685788869858
0.013902154751121998
0.03400690481066704
-0.04167889058589935
-0.11248146742582321
0.0004035333404317498
0.0768347755074501
0.01612742617726326
0.1126839816570282
0.08966924250125885
-0.03701111674308777
-0.049458377063274384
0.06980537623167038
0.016734613105654716
0.01950765773653984
-0.012761164456605911
-0.024155037477612495
0.06610335409641266
-0.029435398057103157
-0.04344681650400162
0.06083642318844795
-0.046611856669187546
-0.06007322669029236
-0.06501618772745132
0.010591356083750725
-0.03460850566625595
0.024572065100073814
-0.026633447036147118
-0.03541271761059761
-0.06112786754965782
-0.005150713957846165
-0.09485886245965958
-0.08177144080400467
0.0028732267674058676
-0.09500352293252945
0.04356421157717705
0.00791387353092432
0.0037953867577016354
-0.005889385938644409
-0.006277915555983782
0.033174432814121246
-0.0013636163203045726
0.0068606166169047356
0.05361442267894745
-0.004826194606721401
0.012523856945335865
0.04837723821401596
0.10946119576692581
-0.04301483556628227
0.18149492144584656
0.03030053898692131
-0.0032886455301195383
-0.06084727123379707
-0.01099275704473257
-0.04752528667449951
-0.029115203768014908
-0.0039891405031085014
-0.019467774778604507
-0.018995065242052078
0.015302533283829689
-0.01759587600827217
-0.059199247509241104
-0.07042855769395828
0.001131536322645843
0.05921301618218422
-0.01272798515856266
-0.06349151581525803
0.00741919968277216
-0.006638419348746538
-2.4729799406486563e-05
-0.08527062088251114
0.021650897338986397
-0.05134467035531998
0.004812812898308039
-0.08347322046756744
-0.11639120429754257
0.01486982125788927
-0.11118797212839127
-0.08164256811141968
-0.02646818943321705
-0.01999160274863243
0.030526001006364822
-0.0784502699971199
-0.03877195715904236
0.03437269851565361
0.004280662164092064
0.026882775127887726
-0.04385664686560631
-0.08219042420387268
0.04153658449649811
-0.02124309539794922
-0.022275004535913467
-0.0019812078680843115
-0.030691584572196007
-0.04477672278881073
0.020837411284446716
0.058675650507211685
0.001154875149950385
-0.04766426235437393
-0.026153484359383583
-0.020520780235528946
-0.07191696017980576
0.02901371940970421
0.01928418129682541
0.004326051101088524
-0.010507378727197647
-0.03930589184165001
0.0023777801543474197
-0.02025008760392666
0.003539548721164465
-0.012195922434329987
0.1197456493973732
-0.023146281018853188
0.014911510050296783
-0.05126189813017845
-0.11040199548006058
0.027070974931120872
-0.013966331258416176
-0.0926913172006607
0.009871113114058971
0.010259884409606457
0.03673738241195679
0.015101233497262001
0.025145215913653374
-0.1014615073800087
-0.014977410435676575
0.0017688785446807742
-0.026072364300489426
-0.04529861360788345
0.134548157453537
0.09347692877054214
-0.06810604780912399
-0.051092393696308136
0.0007720611174590886
0.012751270085573196
0.004644027911126614
-0.031142089515924454
0.002457637572661042
0.03387736156582832
-0.026577699929475784
0.06080295145511627
-0.023878300562500954
-0.07374504953622818
-0.011386515572667122
-0.04090471938252449
-0.09558650106191635
0.033568110316991806
-0.0701880156993866
-0.02904072217643261
0.07345748692750931
-0.01274916436523199
-0.0495993010699749
0.014670425094664097
0.020522573962807655
-0.006596627179533243
0.004106889478862286
0.047384973615407944
-0.03929831460118294
-0.04189731925725937
-0.009600287303328514
0.020681817084550858
0.0008498200331814587
-0.015698185190558434
0.025409607216715813
-0.061842091381549835
0.026996498927474022
-0.04307730123400688
-0.012214881367981434
0.05020197480916977
0.005217250902205706
-0.00046796840615570545
0.04516250267624855
0.028185134753584862
-0.007307760883122683
0.027138443663716316
-0.020036080852150917
-0.04646751284599304
0.027751483023166656
-0.03834187239408493
-0.029612991958856583
0.027396295219659805
0.05297135189175606
0.06508562713861465
0.10277944803237915
-0.10830134898424149
0.06039692088961601
0.07690101861953735
-0.026378586888313293
-0.0014723562635481358
0.021478235721588135
-0.010616010054945946
0.03916359692811966
-0.008758533746004105
0.018600309267640114
0.020083827897906303
0.06612319499254227
-0.08359460532665253
0.00016434938879683614
0.1185934916138649
0.004753545857965946
-0.024205701425671577
0.02530662901699543
-0.007441669702529907
0.060974691063165665
0.03854045271873474
0.015337196178734303
-0.033967629075050354
0.008181359618902206
-0.0005315231392160058
-0.056176841259002686
0.04951353371143341
-0.06190257892012596
-0.035209428519010544
-0.07107008993625641
-0.031600221991539
0.025722619146108627
0.005554485134780407
0.02891019731760025
0.03651486337184906
-0.03820481896400452
0.02777780033648014
-0.029264269396662712
-0.00012906105257570744
-0.005361923947930336
0.011487121693789959
0.0008595019462518394
0.07672063261270523
-0.051949936896562576
-0.027440007776021957
0.007187679409980774
0.024180402979254723
0.011569112539291382
-0.048703670501708984
-0.008282067254185677
-0.02611830271780491
0.05449826642870903
0.02517235279083252
-0.013227174058556557
0.16353760659694672
0.028791286051273346
0.004338028375059366
-0.016737299039959908
-0.008800716139376163
0.00646622758358717
-0.036224428564310074
-0.048890259116888046
-0.004243858624249697
0.009450015611946583
-0.02323448471724987
-0.019101213663816452
-0.08164350688457489
0.07618668675422668
0.05441118776798248
-0.03504793345928192
-0.005822479259222746
-0.04273957014083862
0.007355967536568642
0.03063526563346386
-0.00270244968123734
0.055264491587877274
-0.0357123464345932
5.290853732731193e-05
0.04682958126068115
-0.05126335099339485
-0.07104092836380005
-0.007019721437245607
0.07948388159275055
0.015340869314968586
-0.028330553323030472
0.001707631628960371
-0.03612721711397171
-0.0031208947766572237
0.0018995105056092143
-0.026386376470327377
-0.007751540280878544
0.07838856428861618
0.0008005379932001233
-0.087236188352108
-0.03068433329463005
0.016493352130055428
-0.09561887383460999
-0.10834567248821259
-0.04741060733795166
-0.01944568194448948
0.051825035363435745
-0.011251825839281082
-0.0026253587566316128
0.0445106066763401
0.005642137490212917
0.0017710882239043713
-0.0015545501373708248
0.019167378544807434
0.016111338511109352
-0.05186949297785759
0.012286738492548466
-0.03844465687870979
0.07186122983694077
-0.00342946988530457
0.04107500985264778
0.009595191106200218
0.013233420439064503
0.03726319968700409
0.03144748881459236
0.022093413397669792
-0.010560429655015469
0.0165026243776083
0.0016497421311214566
0.11631757020950317
0.044054362922906876
0.02952624298632145
0.039762500673532486
-0.012910324148833752
-0.022396652027964592
0.006650959607213736
-0.0236207265406847
-0.05379307642579079
0.059893809258937836
-0.009582361206412315
0.03425051271915436
-0.04516832157969475
-0.04361393675208092
0.020355094224214554
0.05495445057749748
-0.04337720945477486
0.06735329329967499
-0.00022849923698231578
0.017476331442594528
0.04375240206718445
-0.012415647506713867
0.006707041524350643
0.08611462265253067
0.02190687321126461
-0.12777090072631836
0.012095186859369278
-0.059976305812597275
-0.0032829856500029564
0.02335607074201107
0.006812804378569126
-0.012138965539634228
-0.0042635658755898476
0.03619808331131935
0.08152210712432861
0.06768964231014252
-0.03420064598321915
0.044236086308956146
0.029037468135356903
0.00881141610443592
0.05768829211592674
-0.07351157069206238
-0.06520388275384903
0.021767958998680115
0.04574202373623848
-0.04290212690830231
-0.0010232068598270416
0.06717631965875626
-0.003953604958951473
-0.005461541004478931
0.017625607550144196
0.007183063309639692
-0.00531045813113451
-0.04403415322303772
-0.042674463242292404
0.019871661439538002
-0.06759092956781387
0.005558192729949951
-0.0015433926600962877
0.05528750270605087
-0.08235273510217667
0.018474826589226723
0.020536750555038452
0.012346127070486546
-0.06690981984138489
0.008303488604724407
-0.017292195931077003
0.028853531926870346
0.05611121654510498
0.08075862377882004
-0.02272968366742134
0.06426168978214264
-0.03214817866683006
-0.006633693818002939
0.03180753067135811
0.00850758608430624
-0.003765479661524296
-0.03493383899331093
0.028315886855125427
0.0202930960804224
-0.07106300443410873
-0.06002694368362427
-0.0004374071431811899
0.022444888949394226
-0.08604191988706589
-0.018965138122439384
0.06703655421733856
0.0824374109506607
0.04208642616868019
-0.011783952824771404
0.03664463758468628
0.026553599163889885
-0.0269145667552948
-0.034465424716472626
-0.09010401368141174
0.06275308132171631
0.08424661308526993
-0.17017142474651337
0.039467573165893555
0.02433634176850319
-0.061123326420784
0.08098041266202927
-0.04236681014299393
-0.021865911781787872
0.03483414277434349
0.019875681027770042
-0.026159072294831276
0.027138320729136467
-0.019643554463982582
-0.01875613071024418
-0.0010826215147972107
-0.025296447798609734
-0.0283596683293581
0.003316808259114623
-0.056389741599559784
-0.03589121252298355
0.008088220842182636
-0.012356080114841461
0.029423611238598824
0.04706081748008728
0.034702252596616745
0.0052000186406075954
0.0023270603269338608
-0.047774557024240494
0.020750664174556732
-0.016716159880161285
0.040063679218292236
0.03450208902359009
0.007250254973769188
0.09020575881004333
0.04247935116291046
0.08915562927722931
0.06620155274868011
-0.06138930842280388
0.0077960132621228695
-0.09635689854621887
-0.03224816173315048
0.019908279180526733
-0.03240145742893219
0.07295826077461243
-0.005658523179590702
-0.06840303540229797
0.052960965782403946
0.037340689450502396
0.08899341523647308
0.057005394250154495
-0.000288180512143299
-0.012596972286701202
-0.048794955015182495
0.009864931926131248
-0.04331958293914795
-0.020909111946821213
0.020577875897288322
-0.1337890625
0.030216794461011887
0.060974620282649994
0.07122627645730972
0.02006179839372635
-9.359144314657897e-05
0.0008755077142268419
0.03776269033551216
0.009719330817461014
-0.07655377686023712
0.05424410477280617
0.03745947405695915
0.037745147943496704
-0.016238147392868996
-0.038393355906009674
-0.06536076217889786
0.06166330352425575
-0.03543303906917572
-0.03298301622271538
0.026300692930817604
-0.042034588754177094
-0.0004468702245503664
0.011630444787442684
-0.047470781952142715
0.07936540246009827
0.040722936391830444
-0.015208990313112736
0.03353825584053993
-0.004290706478059292
-0.02584986947476864
-0.055161505937576294
0.041612859815359116
-0.003916375804692507
0.047450896352529526
-0.0483693927526474
0.013226427137851715
0.003401600057259202
-0.10292917490005493
-0.054702918976545334
-0.005838168319314718
0.10514242947101593
-0.07416775077581406
0.05281651020050049
0.0696469247341156
0.016780151054263115
0.014323346316814423
-0.055842217057943344
-0.031701769679784775
0.07403583079576492
-0.014421881176531315
0.02358226850628853
-0.011725923977792263
-0.1276802271604538
-0.014836994931101799
-0.020991969853639603
-0.04308455437421799
0.00020019261864945292
-0.0005965258460491896
0.04301897808909416
-0.05811949074268341
0.051603928208351135
-0.04530099406838417
0.035137027502059937
-0.018526677042245865
0.020147381350398064
0.011296533979475498
0.028014134615659714
-0.009533034637570381
-0.030967138707637787
-0.04698317497968674
0.05495376139879227
-0.00255328300409019
-0.020890463143587112
0.005256615113466978
0.07202418148517609
0.04285919666290283
0.04710895195603371
0.00891527533531189
-0.0019549839198589325
0.02908192202448845
0.0388382226228714
4.860266926698387e-05
0.006056648213416338
-0.03050476685166359
-0.053961895406246185
-0.00016987425624392927
0.05047835782170296
0.013109342195093632
0.05856591463088989
0.04139736294746399
0.0024761976674199104
-0.01993616670370102
-0.025149216875433922
-0.009173124097287655
0.03364178538322449
0.0007469734409824014
0.01595565304160118
0.02586952969431877
0.04829994589090347
-0.01832093857228756
-0.020863162353634834
0.034137554466724396
0.008127802982926369
-0.030465515330433846
-0.02391219511628151
-0.08494284003973007
-0.0767955556511879
-0.041227322071790695
-0.03964066505432129
0.05446188524365425
0.16059085726737976
-0.11792375892400742
-0.03477561101317406
-0.04864479601383209
0.01799055188894272
-0.08282972127199173
0.0015699774958193302
-0.03763538971543312
0.07018091529607773
-0.07930027693510056
0.02294076420366764
0.00023862719535827637
0.015190362930297852
-0.04855776205658913
0.05779699236154556
0.12453147768974304
-0.02115856111049652
-0.07083386927843094
0.0007493607699871063
-0.2047094702720642
0.04366905987262726
0.015050968155264854
-0.027111593633890152
0.09285510331392288
-0.17543599009513855
-0.014451873488724232
0.01554920244961977
-0.011587575078010559
0.036568719893693924
-0.2052319049835205
0.023887285962700844
0.10994113236665726
0.013711248524487019
-0.046756986528635025
-0.03615362197160721
-0.008221169002354145
-0.018896285444498062
-0.016612134873867035
-0.04400232806801796
-0.0010695577366277575
0.004711009096354246
-0.05578086897730827
-0.07782386988401413
-0.02030939795076847
0.013433472253382206
0.006967924069613218
-0.1053571030497551
-0.019432827830314636
-0.12099415808916092
-0.01552631426602602
-0.0070887962356209755
-0.0530620701611042
-0.019234802573919296
0.05159936100244522
-0.07597372680902481
0.05093727260828018
0.03341013193130493
-0.09416349977254868
-0.01731746830046177
-0.012942972593009472
0.01693492941558361
-0.049457624554634094
-0.032449182122945786
0.07984103262424469
-0.02913317084312439
0.0705466940999031
0.04889991506934166
-0.010180419310927391
-0.005029407795518637
-0.08863469213247299
0.03346122428774834
-0.023195873945951462
-0.02546563744544983
0.06509768217802048
-3.4172291634604335e-05
-0.0003787730529438704
-0.02150164172053337
0.07337313145399094
0.047353118658065796
-0.09493941068649292
-0.09173980355262756
-0.039852432906627655
-0.03707193210721016
0.01898193359375
-0.03440576791763306
-0.0012713340111076832
-0.035158056765794754
0.038336023688316345
-0.0425405316054821
0.0529363714158535
0.08539973199367523
-0.12363807111978531
-0.0025118018966168165
0.04244718328118324
-0.08009111136198044
0.02157915011048317
-0.0002467809827066958
-0.028315741568803787
0.04996858537197113
-0.03877558186650276
0.003170700976625085
-0.007068832870572805
0.0287660863250494
0.001792348106391728
-0.11444565653800964
0.009436318650841713
0.0524357445538044
-0.012135237455368042
-0.00017173710511997342
0.0007052560104057193
0.04784465953707695
-0.005745802074670792
0.035875413566827774
0.00656917504966259
-0.018649477511644363
-0.036718010902404785
0.0323847234249115
0.047958098351955414
0.051732808351516724
-0.024958325549960136
-0.024745363742113113
0.026785289868712425
0.0483432300388813
-0.006489574909210205
0.019704654812812805
0.052782103419303894
0.04695058614015579
0.043611377477645874
-0.04294370487332344
0.012061466462910175
0.03498745337128639
0.002769764978438616
0.02611571177840233
-0.013282106257975101
-0.0038606321904808283
-0.002850540215149522
0.06075209379196167
-0.0024500363506376743
-0.019124288111925125
0.00031738547841086984
0.0017217840068042278
0.08421429991722107
0.03418382629752159
-0.04530009254813194
-0.09332538396120071
0.07165943086147308
0.03998379781842232
0.010691225528717041
0.012488671578466892
0.005718643311411142
0.06767326593399048
0.006052637007087469
0.08958961069583893
0.006719132419675589
0.04260940104722977
0.0844167172908783
-0.09196734428405762
0.13096079230308533
0.05532684922218323
-0.06673796474933624
0.03411467373371124
-0.00448096077889204
-0.07735037803649902
-0.0015898005804046988
0.03020339459180832
-0.008720858953893185
0.001973558682948351
-0.00036851150798611343
-0.0010712670627981424
0.04621352255344391
0.042962320148944855
0.07691145688295364
0.0002483464777469635
0.025108754634857178
0.07031025737524033
0.012202315963804722
0.028285162523388863
0.01084856316447258
-0.024894453585147858
0.065590500831604
-0.008726526983082294
-0.00981700886040926
0.027914658188819885
-0.06629390269517899
0.016141673550009727
-0.04817721247673035
-0.031704895198345184
0.010953911580145359
-0.025364084169268608
0.01749771274626255
0.04643908143043518
0.028765790164470673
0.1338147670030594
0.01184938382357359
0.05395742505788803
0.021409237757325172
0.006846335716545582
0.009887032210826874
-0.06932911276817322
0.07807955145835876
0.11804831027984619
0.0059648556634783745
0.1461399495601654
0.00015869777416810393
-0.002584669040516019
0.0739363580942154
-0.017155468463897705
-0.056150879710912704
0.044831112027168274
-0.010224432684481144
-0.09448102116584778
-0.0441102534532547
-0.06192941963672638
0.028059514239430428
0.0021362865809351206
0.04294811189174652
-0.06157531589269638
-0.08536434918642044
0.07330179959535599
0.08091408014297485
-0.03689460828900337
-0.07365068048238754
0.028643595054745674
0.02244986593723297
0.005518151447176933
0.06716104596853256
-0.13750024139881134
0.03575017675757408
0.04115542024374008
0.09613459557294846
-0.028853561729192734
0.0010101074585691094
0.02257472276687622
0.06967097520828247
0.04465039074420929
0.06531528383493423
-0.03278259560465813
-0.03176147863268852
-0.029282348230481148
0.023162513971328735
0.0393383763730526
-0.022747665643692017
-0.0036957454867661
-0.0220878217369318
-0.03520864248275757
-0.04357251897454262
0.041740089654922485
-0.024817341938614845
-0.023193446919322014
-0.0584118515253067
-0.028543559834361076
-0.05796312540769577
-0.00813516415655613
-0.06828803569078445
0.06051104888319969
-0.045682381838560104
-0.015755439177155495
0.07123078405857086
-0.10812396556138992
0.07291486859321594
-0.03601347655057907
-0.06246916949748993
0.01283670961856842
-0.005381052847951651
-0.03232956677675247
0.020792173221707344
-0.05346984043717384
-0.00013418064918369055
-0.00809108279645443
-0.059058308601379395
-0.07216154038906097
0.18488702178001404
-0.03819214180111885
-0.03894736245274544
-0.013094475492835045
-0.003955000080168247
-0.014791825786232948
0.004308431874960661
0.010623504407703876
-0.010128358379006386
0.005697313696146011
-0.01098664477467537
-0.020874937996268272
0.045035555958747864
-0.04697220027446747
-0.11624283343553543
-0.0473056361079216
-0.036335740238428116
-0.08738060295581818
0.04032221436500549
-0.09158895164728165
-0.002811832120642066
0.009745623916387558
-0.011414830572903156
0.01924578845500946
0.0016598275396972895
-0.016548167914152145
-0.03863455727696419
0.029973216354846954
-0.011187104508280754
-0.03523614630103111
-0.026151711121201515
-0.030261144042015076
-0.0023573637008666992
-0.022182447835803032
0.0073466794565320015
0.00321767944842577
-0.006253020837903023
-0.06756480038166046
0.03282541409134865
-0.046630941331386566
0.024705611169338226
0.022845035418868065
0.0275281835347414
0.02914435788989067
-0.03949061781167984
0.06280574947595596
0.024594465270638466
0.05699142813682556
0.02763131819665432
-0.05135669186711311
-0.06702498346567154
0.18168435990810394
0.046912334859371185
0.07374534755945206
0.07789665460586548
-0.026116443797945976
0.05419115722179413
0.10285015404224396
-0.005007857456803322
0.06973180919885635
0.00016313217929564416
-0.031166400760412216
0.06993783265352249
0.006359747610986233
-0.07187066227197647
-0.012796524912118912
0.056815095245838165
-0.011377326212823391
0.06724318116903305
-0.016356252133846283
-0.050462182611227036
0.025352800264954567
-0.05934128910303116
0.1353556364774704
-0.006015736609697342
0.07246512174606323
0.05514129623770714
0.038846928626298904
0.06680277734994888
0.1334720253944397
-0.017099272459745407
0.09151022136211395
-0.047473274171352386
-0.05976569652557373
-0.01887175627052784
0.04083619639277458
0.03627261891961098
-0.05140357092022896
3.8163627323228866e-05
0.025955617427825928
-0.024914709851145744
-0.02083604410290718
0.025049393996596336
0.04915095120668411
0.021145077422261238
0.08286435157060623
-0.00693990895524621
-0.018249044194817543
0.03942318260669708
-0.029890794306993484
-0.020243793725967407
-0.012492110021412373
0.01821908913552761
0.0845310240983963
-0.02637844905257225
-0.008444349281489849
0.016968069598078728
-0.005796091165393591
-0.006602367386221886
0.03213115036487579
-0.020468471571803093
0.08273186534643173
-0.03568313643336296
-0.12210661172866821
0.07149099558591843
0.042357079684734344
0.012479633092880249
-0.028344864025712013
0.054534390568733215
0.0014610757352784276
0.037275176495313644
-0.060012251138687134
0.05795722454786301
-0.051409635692834854
0.00019477627938613296
-0.058040086179971695
0.0026572609785944223
-0.08654621988534927
-0.11936924606561661
-0.07228505611419678
0.01270331535488367
0.01989314705133438
0.15285220742225647
-0.11635424941778183
0.028567085042595863
0.02857811376452446
-0.07501858472824097
0.08925595879554749
-0.03840358927845955
0.04356560856103897
-0.010174368508160114
-0.04353230819106102
-0.014378434047102928
-0.02275392785668373
0.08446893841028214
-0.028043508529663086
0.025580158457159996
-0.08507464081048965
-0.0017458816291764379
0.05927889421582222
0.008806247264146805
0.017759593203663826
0.004582101944833994
-0.0012481786543503404
-0.0002613212272990495
0.04132604971528053
0.02652597986161709
-0.03941451758146286
0.005879961419850588
0.040881216526031494
0.010088282637298107
0.10585617274045944
0.03127817064523697
0.042410172522068024
0.05300414189696312
-0.002981842728331685
-0.04995134100317955
0.0661342591047287
-0.08136643469333649
-0.01829114370048046
-0.00690846610814333
0.0491897314786911
0.0484996996819973
-0.039609428495168686
-0.07965786755084991
-0.007216862868517637
-0.05425921827554703
-0.0217035673558712
0.010240301489830017
-0.01931643858551979
0.00066731235710904
0.03086414374411106
-0.018697207793593407
-0.09398382902145386
0.059747349470853806
-0.01784854754805565
0.04073600843548775
-0.014411100186407566
0.0003850722569040954
0.05907965824007988
-0.0092995073646307
0.09703715890645981
0.03361157327890396
0.034771114587783813
-0.047502174973487854
0.013897815719246864
0.0165261123329401
0.04991848021745682
0.0183377917855978
0.011950952932238579
0.010924382135272026
0.07905346900224686
0.01581461727619171
-0.07673639059066772
0.036834992468357086
0.027126627042889595
0.032766085118055344
-0.03692620247602463
0.05379144102334976
-0.029247837141156197
-0.015414643101394176
-0.05443600192666054
-0.01915399730205536
0.02229023166000843
0.004086009226739407
0.025769272819161415
0.00041851832065731287
0.0579771026968956
0.008380700834095478
-0.01150826271623373
-0.01717662811279297
-0.015967978164553642
0.04368423670530319
0.02048930525779724
0.02121364139020443
-0.010553807020187378
-0.0015691942535340786
-0.0015676995972171426
0.05943756550550461
0.040432874113321304
0.01608334667980671
-0.06627235561609268
0.03195212781429291
-0.053872644901275635
-0.04372148588299751
0.009565710090100765
-0.03953710198402405
0.019321277737617493
-0.039713647216558456
0.013819515705108643
-0.016490325331687927
0.020108092576265335
-0.027995582669973373
-0.056929510086774826
0.027103273198008537
0.0013847451191395521
0.015968188643455505
-0.014000381343066692
-0.08053406327962875
0.027400415390729904
-0.01635616645216942
0.10160171240568161
7.109971920726821e-05
-0.05053252726793289
-0.03411601111292839
-0.035898856818675995
0.049448106437921524
0.07076641917228699
0.09211142361164093
-0.012625250034034252
-0.005572098307311535
-0.14254054427146912
0.08700843900442123
-0.05144008994102478
-0.03161690756678581
-0.05444030091166496
0.032287564128637314
0.011638178490102291
-0.11542383581399918
-0.0015204021474346519
-0.06689238548278809
0.0033826010767370462
-0.06073543801903725
0.0097318384796381
0.030083389952778816
-0.03574921935796738
0.04512905329465866
0.03276431933045387
0.006169080268591642
0.016721468418836594
0.0003552207781467587
0.040689073503017426
0.017330575734376907
-0.049688342958688736
0.011743969283998013
0.0019508213736116886
-0.030704371631145477
-0.027149556204676628
-0.021795256063342094
-0.0020919442176818848
-0.05376205965876579
6.153355934657156e-05
0.08241553604602814
-0.01699768751859665
0.0057086036540567875
0.03309806436300278
0.005150786135345697
-0.0017946363659575582
0.03737880289554596
0.03585127741098404
-0.026255624368786812
0.09990907460451126
-0.08649206906557083
-0.03332734853029251
0.023714642971754074
-0.08784022927284241
0.05894946679472923
-0.05070541426539421
0.052474331110715866
-0.04024285078048706
0.03758251294493675
0.021830793470144272
0.0374465174973011
0.010931977070868015
0.056665271520614624
0.0795002207159996
-0.0002393726317677647
-0.10442163795232773
-0.054003793746232986
-0.11015143990516663
0.07637334614992142
0.012302578426897526
-0.01606421172618866
-0.03567288815975189
-0.05180414021015167
0.035156555473804474
0.005628011655062437
0.09548143297433853
-0.015309939160943031
0.004944887477904558
0.022383015602827072
0.007603854406625032
-0.03947339951992035
-0.01481399592012167
0.01672292686998844
-0.06492815166711807
-0.04356253147125244
-0.007822226732969284
0.04169396683573723
0.07575847953557968
-0.020010309293866158
-0.017542444169521332
0.04302503168582916
0.019058115780353546
0.00043641042429953814
0.02183840423822403
0.06685367971658707
0.01529800146818161
-0.11252355575561523
0.016353731974959373
-0.02147050015628338
0.01960226148366928
-0.038476429879665375
0.01477502379566431
-0.06975186616182327
0.02609926089644432
-0.056601766496896744
-0.014966742135584354
0.009562426246702671
-0.011447276920080185
0.05537562072277069
-0.01271137222647667
-0.09148961305618286
-0.05585739016532898
-0.03424978256225586
-0.07216690480709076
0.007236193865537643
0.02588442526757717
0.01689319871366024
0.06712813675403595
-0.003875295864418149
-0.015249492600560188
-0.02607465535402298
-0.0427582785487175
-0.014941663481295109
0.02036852389574051
0.010465845465660095
-0.004717719275504351
-0.07950835675001144
-0.09380065649747849
-0.00013544732064474374
-0.024171706289052963
-0.1294948160648346
0.006898964289575815
0.01666337065398693
-0.03543265908956528
-0.012687929905951023
0.024385521188378334
0.025830745697021484
-0.11073323339223862
0.05617184937000275
-0.02926543541252613
-0.02106544002890587
0.038436159491539
-0.0062012746930122375
0.021043937653303146
0.021923135966062546
0.04334237799048424
-0.042309150099754333
-0.015284731984138489
0.04755600914359093
0.021067453548312187
0.0565967857837677
0.06630906462669373
0.07062774896621704
-0.004467881750315428
0.09228205680847168
0.03212929144501686
-0.001166538568213582
-0.04773901402950287
-0.003423618618398905
-0.000698405725415796
0.012129649519920349
-0.020344523712992668
0.011615069583058357
0.018461957573890686
-0.032477423548698425
0.017811428755521774
0.02868806943297386
-0.025718510150909424
0.015516282990574837
-0.1251973807811737
-0.054087020456790924
0.08540257066488266
0.05789773166179657
-0.02800423465669155
0.09083371609449387
0.012786748819053173
-0.05522342398762703
0.10187927633523941
-0.010128486901521683
-0.002151795430108905
0.007338881026953459
-0.007612979505211115
0.05095599591732025
0.03168739378452301
0.010808775201439857
0.004132197238504887
0.0005600216682069004
0.09080608934164047
-0.035491589456796646
0.08743833750486374
0.07940400391817093
0.016876334324479103
0.0004127130378037691
-0.05483574420213699
-0.03756129741668701
-0.04014825448393822
0.12382776290178299
-0.02820255048573017
-0.041856180876493454
-0.08556313067674637
-0.03356916457414627
-0.03771418705582619
-0.053134772926568985
0.023994408547878265
0.022572172805666924
-0.04534127935767174
0.037322502583265305
0.0005893657798878849
0.004787902347743511
0.04994716867804527
-0.06861419230699539
-0.003193348878994584
-0.01627952791750431
0.052506934851408005
0.030790958553552628
-0.06919632852077484
0.002845106879249215
-0.03056066483259201
0.020848138257861137
0.012412022799253464
0.0011090826010331511
0.02048460952937603
0.02483881264925003
-0.003971186000853777
-0.005750744137912989
-0.012841880321502686
0.017415709793567657
-0.022092701867222786
-0.02952384576201439
-0.02068829908967018
0.02269003354012966
-0.044108204543590546
-0.0894818976521492
-0.0954221785068512
0.02706204541027546
0.049132395535707474
0.07311588525772095
0.034292567521333694
-0.11669778823852539
