0.13605279
0.07899749
0.11072650
-0.12150463
-0.13378559
-0.08515909
-0.09310386
-0.12482014
-0.15029489
0.02976288
-0.07139362
-0.11829234
0.06320754
-0.12416440
-0.10198396
-0.02536316
-0.08165549
0.03019154
0.09525124
-0.04244753
0.03158509
0.14660980
-0.11707544
0.02973338
-0.03274413
0.01281495
-0.13622786
-0.06186078
-0.01121353
0.04091585
0.12740625
-0.06901867
-0.09078979
0.09371807
0.00129635
0.11001882
-0.11101552
-0.11692218
-0.13821729
-0.05647807
-0.00710594
-0.01823575
0.00489276
0.06362460
-0.02467904
-0.13133465
0.06414712
0.05212849
0.02992677
0.03686314
0.12597610
-0.01943006
0.04879308
0.05793253
0.01206301
-0.09353868
-0.07129076
-0.05442959
0.04644899
-0.14630336
-0.10882750
0.10095288
-0.01255169
0.09920456
0.05467710
-0.14616784
-0.01705326
-0.09705096
0.01547903
0.09760129
0.08998691
-0.08256317
-0.09852753
-0.11761951
-0.03069037
0.06915996
-0.01281244
0.14284970
0.14038013
0.01919348
-0.10897308
0.06998681
-0.10261872
-0.08692960
-0.12511106
0.10402823
-0.00038160
-0.12483883
0.03344715
0.01119818
0.15495016
0.10071042
0.01407607
-0.14208612
-0.09345341
0.06756174
-0.04460604
-0.08915899
-0.11692927
0.13958448
0.16426827
-0.12859961
-0.01516281
-0.09889016
-0.08709181
-0.11179817
-0.10325053
0.04851607
0.09452512
0.08500543
-0.02342783
0.07297893
-0.08955155
-0.00461881
0.06854861
0.10416983
-0.09106658
0.03538642
0.03342617
-0.05473378
0.14535502
0.07465812
-0.01738787
-0.09312495
0.09695954
0.03998614
-0.07827406
0.12495475
0.10519645
-0.13541766
-0.07749217
-0.13445459
-0.10561624
-0.14217803
-0.06370756
-0.11039596
0.07243375
-0.02753181
0.05741346
-0.07256845
0.08084599
-0.11189405
-0.06773322
-0.13032885
0.14877264
-0.06931734
-0.02976430
-0.12832735
0.05409254
-0.08721505
-0.01707340
0.12275629
-0.15479784
0.12072745
-0.14509180
-0.12384860
0.02212283
-0.01903697
-0.01463066
-0.10459933
-0.03878275
0.08349600
-0.02749938
0.08325598
0.15167353
0.01327314
-0.09428278
-0.12168387
0.00791366
-0.14814773
-0.10740129
-0.11542211
0.09525512
0.09291496
0.03212406
0.09505422
0.10482893
0.03782658
0.10752127
-0.13388191
0.03681979
0.06321054
-0.10900904
0.09750155
0.11371391
-0.11135681
-0.11408391
0.11608821
0.03935400
0.13080965
0.14930850
0.05802262
-0.09384038
0.07006122
-0.14226888
-0.05485074
-0.03064559
0.10249029
0.17557766
-0.00810224
-0.00017261
0.03670414
-0.07304322
0.09076060
0.11927657
-0.06382994
0.05343317
0.12066451
-0.11693899
-0.05695190
-0.11629329
-0.06763268
0.07887813
-0.11886894
-0.00359599
0.09554154
-0.05065976
0.05790879
0.07965835
0.09425319
0.02292936
0.14886755
0.13657843
-0.12190032
0.14208789
0.11016320
-0.13664752
-0.02021825
-0.14228931
-0.04082721
0.06920461
-0.12440398
0.00810816
-0.10767495
0.07223509
0.16443203
-0.09414723
-0.03260947
0.11318497
0.08896986
0.00802673
0.10413822
-0.02290859
0.12687835
-0.11030340
-0.12358232
0.04715455
0.07602890
0.06012844
-0.06258424
-0.03801266
-0.02914752
0.02262344
0.13980992
-0.11625669
-0.11031856
0.00166775
-0.05091795
-0.02117389
0.02275416
-0.01187286
-0.05197648
-0.03679461
-0.02751555
-0.00375029
-0.12403268
0.03201476
-0.00522380
-0.11627909
-0.01635558
-0.11270022
0.08849920
-0.13008255
-0.01823603
-0.04643952
-0.03007620
-0.08588606
0.00749570
-0.03164565
0.04789864
-0.06881618
-0.13417719
0.07121734
0.10669986
0.12732284
-0.07230897
0.09755011
0.02718993
-0.11590205
-0.07425312
-0.12800944
0.11744649
-0.06939928
0.16176185
-0.02908695
-0.03957599
0.07669908
0.12112424
-0.05802226
0.00760695
0.07273361
0.07778454
0.13216379
-0.08202107
0.00296003
-0.09254090
-0.12667143
-0.11828762
0.04055855
0.13497710
-0.03484635
-0.09066092
-0.09759019
-0.12205879
-0.07216679
-0.13181028
-0.12551756
0.08487838
0.09834209
0.06177770
0.13831605
0.01422594
-0.08378021
0.06757368
0.07219692
-0.01026674
0.07268916
0.13995743
-0.01456965
0.10565162
0.10986874
-0.04719215
-0.05026429
0.00842170
0.02415832
-0.05376961
0.07627524
0.08096114
-0.00235363
-0.12170669
0.10284166
0.08765618
0.04438630
-0.06895828
-0.03501875
-0.00601077
0.04504611
0.08012321
0.04783842
-0.05936135
-0.01138845
0.00961695
-0.02499580
-0.03254985
-0.06922489
0.02256423
0.07496639
0.11880874
-0.08862943
0.05926324
0.03902434
0.01411544
0.04319297
-0.08779116
-0.01349986
0.00714538
0.09931575
-0.06089796
-0.10130973
0.04058316
0.00527261
-0.08799887
0.12601870
0.04252406
-0.00515091
-0.04818723
-0.06332820
0.00177517
-0.12879503
-0.03574332
0.10683501
-0.02408767
0.04011027
-0.09167553
-0.09200418
0.03387203
-0.09538187
-0.05825637
0.10585409
0.05000202
0.02469251
0.13071400
-0.07600867
-0.11804316
-0.07076722
-0.11326626
-0.10472569
0.11569049
0.05599070
0.01652574
0.07077175
0.00027399
0.03552152
-0.18237387
-0.03126261
-0.02019715
-0.07723751
-0.10063529
-0.02349513
-0.02821372
0.04736719
0.08849348
-0.05002760
-0.08068756
-0.03666491
-0.06081575
0.09139214
-0.02940587
0.04224795
-0.01045572
-0.09068336
0.08838105
0.02937421
0.08643100
-0.05609754
0.03286660
0.05435527
0.10374745
-0.02867252
-0.11362248
-0.07435644
-0.04107840
0.12596931
0.11454862
0.02301232
0.07236256
0.00979619
0.10324052
0.10216682
-0.10853017
-0.15988433
-0.01395886
-0.08386492
-0.00975302
-0.01940456
-0.01659180
0.07661265
0.02809577
0.06126797
-0.10921270
0.11923555
0.09354391
0.01989114
-0.00812676
0.11024666
-0.13007627
0.05547050
-0.10191797
-0.08625047
0.02579133
-0.01756909
-0.10836656
0.14091225
0.09746899
0.10171996
0.06466760
0.09090561
0.01782531
-0.08376453
-0.00097894
0.08354860
0.10667168
0.03401554
0.07869554
-0.07369070
-0.00050391
-0.02635029
-0.00715074
-0.02823196
0.09507898
0.15166289
-0.05798078
-0.06528060
-0.11838470
0.01774542
-0.09670596
0.12584049
0.07282761
0.09681489
0.00691838
0.05048668
0.10084270
0.00443509
0.09362705
-0.12379482
0.01156648
-0.09002353
0.03011167
0.07269853
0.13183434
-0.01236576
0.01131085
-0.04815887
-0.04579202
-0.04441269
0.11456019
0.10694724
-0.01129186
0.04092146
-0.13099745
0.07841340
-0.04963858
-0.03861642
-0.08116490
-0.01631762
-0.09621035
-0.13756438
-0.14361879
0.11605944
0.10289793
-0.05887534
-0.05851328
0.16486067
0.10695083
0.12924120
0.02241048
-0.15009162
0.09638382
-0.09757726
-0.15691496
0.03440891
0.09886234
0.09805744
-0.05442375
0.02665943
-0.02132037
0.09276656
0.11801446
0.10162684
0.10879673
0.18530361
0.15137245
0.01715284
0.03739739
-0.03894071
0.00513200
0.10084415
-0.06606052
-0.01978123
-0.07790889
0.06607245
0.08182863
-0.01000031
0.11965901
0.13112052
-0.04905751
-0.07957338
-0.01064417
-0.07651380
-0.01904317
-0.09436508
0.14167577
0.01394218
0.09927896
0.05460085
-0.08344154
-0.01813234
0.00444404
0.03892762
0.02409242
-0.13584147
-0.09010106
-0.13835898
-0.14688560
-0.02240011
0.06056786
0.10773228
-0.02744044
0.19549228
-0.03772398
0.05230354
-0.04916086
0.07156712
0.11517517
-0.01160621
0.15071432
0.11763117
0.08089621
0.05333436
0.13351803
0.01193004
0.00391553
0.00977577
0.11098528
-0.04533978
0.01779983
0.05373614
-0.07871456
0.07662878
0.05089514
0.00833159
0.09675526
0.00192239
-0.01631415
0.00479057
-0.07273383
0.05698534
-0.08930323
-0.07829846
0.04387851
-0.05330720
0.04666704
-0.00237384
0.07035338
0.11397227
0.03472230
0.01562029
0.12671256
-0.08948479
-0.07735530
-0.00210971
-0.10790510
0.06022913
0.04008723
0.01200075
0.06817305
0.10579572
0.00164609
0.12403001
-0.07478140
-0.08704734
0.03044461
-0.01359911
-0.11331031
0.00748543
0.08870358
-0.15118018
0.04032098
-0.00452359
0.01152672
0.02460475
0.09140552
0.05464697
0.13482828
0.04043963
0.05030908
0.00511918
-0.02807956
0.12679352
-0.01772536
0.04360210
0.07204697
0.08790200
-0.05468014
-0.14911383
-0.13966843
-0.15298960
-0.03633631
0.10128802
0.17195575
-0.14984448
-0.07722162
0.03447839
0.11761280
-0.05719469
0.05033937
0.04507887
0.05780925
0.09350943
0.00946902
-0.14247032
0.08315393
0.10557485
0.02997122
-0.03605971
-0.01556334
0.06263962
0.08422692
0.05663823
0.01484390
-0.13180588
-0.10642742
0.04385006
0.03512530
-0.01561983
-0.01124647
-0.08640701
-0.08228482
0.02673639
0.13754538
0.00511637
0.12205381
-0.08692773
-0.03289424
-0.04820200
-0.02294572
0.07342315
0.11205438
-0.06698731
0.07456407
-0.00928761
0.14165683
0.03608560
-0.00177190
-0.05676557
-0.15686436
-0.01244720
-0.07712068
-0.04272019
-0.00675329
-0.10890730
-0.00884895
-0.03594601
-0.03142522
-0.14839987
0.01976810
0.13258655
0.09003360
-0.15147904
-0.03792521
0.10082502
0.12677290
0.12485840
0.09787610
-0.08757920
0.09066345
0.13177915
-0.01544857
0.05633819
-0.12434065
-0.07527593
-0.06021910
0.08073895
-0.09187743
-0.08027156
0.03273097
-0.10396222
0.01172396
-0.02462483
-0.04391458
0.11538652
0.06070646
-0.08573450
-0.00694539
0.08049955
0.09986918
-0.01435374
0.08186258
-0.12490737
0.04904997
0.12933171
-0.09241344
0.01070945
0.08217061
0.01659190
0.01923963
0.12033400
0.04156856
-0.03276706
0.00412446
-0.14079723
-0.03704207
0.14518787
-0.05892970
-0.08000620
0.01451322
-0.14093561
-0.05906178
-0.07687397
0.06796557
-0.15229318
0.08645915
0.09729962
0.12998544
-0.08161770
-0.04802733
0.08935679
0.12092792
0.08701504
-0.13199919
-0.09772047
0.09244274
-0.13175371
-0.04839287
0.01666675
-0.03533072
-0.06561784
-0.11537570
-0.09642193
-0.05093075
0.14078358
0.07141877
-0.06579965
-0.09458768
-0.08656362
0.10763141
0.04168162
0.08197451
0.15601544
-0.07901086
-0.09987257
-0.15404035
0.15924433
-0.07772729
0.07921889
0.05749372
0.11185586
0.14635110
-0.11570226
-0.03541238
-0.10586794
-0.09146946
0.10947824
-0.01355329
0.13525884
-0.09809370
-0.09615134
-0.04331107
0.10015095
0.07955613
0.16605170
-0.13836259
0.04421019
-0.01736576
-0.08262303
0.11540779
0.11653722
0.07174156
0.03338385
-0.05266322
-0.07140519
-0.11572488
-0.06345381
-0.02477564
-0.11747649
0.09038677
0.14614315
-0.10683688
-0.04219837
0.06462988
-0.09431676
-0.11271520
0.09583542
-0.01936517
-0.00995630
0.09433913
-0.12825342
0.12464261
0.00764504
-0.04915290
-0.08435630
-0.08273887
0.09586643
-0.03133141
0.12557930
-0.15461020
-0.05383306
0.08198553
-0.01018880
0.11052644
-0.10012609
0.01003422
0.09331193
-0.01470207
0.12877634
-0.13207243
0.11188325
-0.00127361
-0.05630646
-0.08882596
0.08445927
-0.12087234
-0.12739503
0.13100734
0.13307288
0.01811998
-0.10879195
-0.06632587
0.09804419
0.07360250
-0.08948158
0.10704277
0.08146974
-0.03743567
0.01755180
0.13421197
-0.01580039
-0.05395684
0.13883488
0.04740869
-0.01546975
0.08311592
-0.12618335
-0.07219911
-0.03611163
-0.09975559
-0.03512470
0.07185686
-0.08121824
0.14596611
-0.03762375
-0.06820140
0.01719325
-0.06840028
0.04942469
-0.07482860
-0.13685836
-0.12507626
0.11593127
-0.03850340
0.01761290
0.04449991
0.06282201
0.09368041
0.08572379
-0.09824192
-0.12281961
-0.02834861
-0.00409476
0.14687489
-0.00025719
-0.06810396
-0.09928203
0.12049685
0.15129220
0.03537939
0.08033507
0.02898251
0.13158472
0.02052126
0.08203205
-0.11471152
-0.12948488
0.01527362
-0.04496738
-0.07076102
0.02821444
0.06366830
0.04643515
0.04168332
0.04360523
-0.12113357
-0.01762781
0.09597291
0.03302273
0.08787575
0.05846872
0.10516945
0.08283794
-0.01251756
0.08848277
-0.11090181
0.04004584
-0.03241947
0.12854727
-0.00052684
0.00954664
-0.12000118
0.02711246
0.09972429
0.02107692
-0.10323397
0.09056497
0.01522791
-0.11036380
-0.01534865
0.04295684
-0.01116969
0.06845791
-0.07551872
-0.06403140
0.02075117
-0.00479433
0.14585428
-0.03912734
0.02522063
-0.08785895
0.01057875
0.07622992
-0.10602662
0.06299595
-0.07757401
-0.01755090
0.06815638
0.06156449
0.08272634
-0.04056346
-0.05198148
-0.14112364
-0.08929433
-0.05698979
0.08742480
0.10708547
-0.07564198
-0.00189383
-0.07777674
-0.01782164
0.00008727
-0.01215366
0.10872129
-0.05606036
0.14542449
0.13105398
-0.06886749
-0.14147444
-0.01063626
-0.00296688
0.11044534
0.01196382
-0.02295158
-0.08417540
-0.11552113
0.01874815
0.05482587
-0.08011606
0.02094768
0.04701831
0.10969024
-0.10459076
0.05667781
-0.04408672
0.13152552
0.00876925
0.04193697
0.00076787
0.12089619
-0.02140920
-0.11319460
0.03143353
-0.09849931
0.00240413
-0.06047575
-0.07614109
-0.06617998
0.13689779
-0.09710678
0.07821130
-0.06285296
-0.02829785
0.04082136
-0.08812819
-0.11249056
0.04147641
0.04097797
0.08726460
-0.08848399
0.08956084
0.05494144
0.01317796
-0.14089133
-0.10953970
-0.03928614
-0.00117629
0.03118177
-0.05153704
-0.06341793
0.11660582
0.12439512
0.09546154
0.11752021
-0.13110052
0.11633470
-0.02335609
-0.06132109
0.04254314
-0.02014275
0.07108827
-0.14896351
-0.07641547
0.12072233
-0.12769051
0.03974344
-0.03957310
0.09334033
0.12685525
-0.06111114
-0.04843561
0.13583252
-0.02355952
-0.13042340
-0.11438905
-0.14258941
-0.08787499
0.01152962
-0.00236322
-0.00654941
-0.04374089
0.02450172
-0.00918756
-0.00300527
-0.08270610
-0.07400836
0.12863970
0.12326113
-0.04038901
-0.01418682
0.09858905
0.01747916
0.14792071
0.11782263
-0.01759028
-0.08027892
0.01126885
-0.04374997
0.00335420
-0.16206247
-0.04243843
0.09668828
0.08197478
-0.02646074
0.13048416
0.10388269
-0.06155837
-0.05974539
-0.11687516
0.02951448
-0.09048999
0.06915309
0.02093256
-0.00627925
-0.05014508
-0.06417811
-0.07187029
-0.01558668
-0.07546096
-0.10767505
-0.03347153
0.09506740
-0.03496685
-0.11897908
-0.01801792
0.09051797
0.03420318
-0.01858700
0.07700346
-0.13662049
-0.07328840
0.07731664
-0.10382281
0.13490187
0.08079790
0.14029329
0.03223303
-0.12963198
0.00563170
0.12764648
0.02498296
-0.01866339
-0.13205390
-0.05146808
0.14317977
0.09569325
-0.00240902
0.00040421
-0.09080789
0.10531707
-0.02060276
0.09432279
0.04673041
0.09146295
-0.09147032
0.01092029
0.08001927
0.11715965
-0.13795716
0.08149166
0.11046998
-0.06852112
-0.15721557
-0.06904221
0.12507191
-0.13606797
0.15694985
-0.09906253
0.04846527
0.05709591
0.08219233
-0.15052827
-0.08531279
-0.03229845
-0.07358231
-0.13687927
0.10993790
0.04817911
-0.03067714
-0.07748333
0.10211227
-0.09696784
0.16072391
-0.04692155
0.08478469
0.00822563
0.13184027
0.04426949
0.06029598
-0.11495579
0.06477296
0.00302384
-0.03284683
0.13967285
-0.11578072
0.06332115
-0.16434740
-0.13209397
-0.09000905
0.11941595
-0.02398624
0.06179313
0.15039447
0.11416750
0.12086865
-0.03979450
-0.09536550
0.13036135
-0.13198896
0.07797353
0.10414198
0.04941117
0.00190769
0.04541252
-0.05611761
-0.14140707
-0.12727860
0.13051464
-0.08732948
-0.07872119
0.11941289
-0.14400901
-0.04638442
0.10059420
-0.13657194
0.06939781
-0.13449898
0.09398811
-0.05900595
-0.01755508
0.11143960
-0.12993075
0.14244027
-0.05914941
-0.01799109
-0.11284479
0.15576994
0.07052815
-0.12223040
0.06146223
0.04774418
-0.04484807
-0.11554629
-0.16596721
0.08398339
0.01501997
0.13017942
-0.00457108
-0.03447960
0.09344652
-0.16564865
-0.07331464
-0.07386754
-0.11154781
-0.05530123
0.07469443
-0.05157732
-0.12435959
-0.10523818
-0.12039468
-0.03645253
0.00700797
-0.09776893
0.08241175
0.06165187
-0.10119825
0.01753701
-0.11140162
-0.01100600
0.11699010
0.06682196
-0.07579691
-0.11266598
-0.03651882
-0.06084722
0.02747467
0.07659649
-0.11067161
0.05709066
0.07764310
-0.05550872
-0.03148605
-0.00836670
-0.06066730
0.09867097
0.12094164
-0.06251200
0.04662411
0.05457738
0.14602059
0.02737290
-0.07398278
0.08332524
0.11107658
-0.06899590
-0.10506690
0.10531451
0.14827506
0.10825942
-0.05180465
0.04974342
-0.14068247
0.06958032
0.00509515
0.07815520
-0.00437868
0.11095372
-0.00522541
0.07654292
-0.06638134
0.11466202
0.09762198
-0.03183987
0.09038636
-0.15309015
-0.06166626
0.13088188
0.07034274
-0.10341564
0.05964445
0.00468903
-0.01786024
0.10734865
0.05276802
-0.13463739
-0.13094185
0.03750205
0.10264591
-0.11482394
0.02991380
-0.03161139
-0.15171564
0.07293209
0.12643418
-0.09234973
0.02047917
-0.06884104
-0.02084693
-0.09388606
-0.04792935
-0.09078549
-0.03753818
0.13605000
-0.00942522
-0.04637710
0.09555324
-0.12607361
-0.04594391
-0.07508025
-0.05137558
0.06324013
0.05459043
-0.09489299
0.12492074
-0.11864779
0.03447790
-0.04334496
0.01361683
-0.14348891
0.06397600
0.14619063
0.13230041
0.11283932
0.04558008
-0.01903663
-0.04426556
0.06681582
-0.09938657
0.00075972
0.06001208
0.07458907
-0.11078038
0.07580917
-0.00502595
-0.12764660
-0.00420225
0.05984056
-0.06659386
0.13857932
-0.04834527
-0.02019442
-0.06501441
-0.06604852
0.04587356
-0.10736326
-0.05434138
-0.10327801
0.00645847
0.09212819
-0.09547827
-0.03843496
-0.09524210
-0.09465191
0.06584197
0.11694746
0.03149478
-0.04941546
-0.09784287
-0.02329761
-0.12874191
-0.09128035
0.01451874
0.06148003
0.00856533
-0.13666438
-0.09471183
0.08909553
-0.09732201
-0.16322328
0.06968481
0.10116259
-0.10976830
0.06403339
0.03319927
0.04755775
-0.03500022
0.10026726
-0.05649679
0.07283481
0.01947642
0.13057923
-0.02914939
-0.11883109
0.10439859
0.08537048
0.07142357
0.08657652
-0.00641530
-0.02509153
0.09720759
-0.12691617
-0.05794681
-0.01264718
-0.04450498
0.07943236
0.08869547
0.12205337
-0.07865705
0.12796317
-0.04123876
0.07990199
0.10210667
-0.11030711
-0.02789574
-0.08531361
0.01351761
0.04843430
-0.00023275
0.02938578
0.14789049
-0.02128020
0.02043710
0.03625340
-0.07127196
0.03377099
0.06212477
0.13577978
-0.11554595
-0.10341517
-0.10514086
-0.02478275
0.11534459
0.04216737
-0.13623451
-0.06433372
0.04384108
0.04745573
-0.08102554
-0.13519534
-0.05378757
0.13104714
0.04983549
0.01506620
-0.04752726
0.10946927
0.01582131
0.04942927
-0.15362300
-0.12550963
0.11986907
-0.05779569
-0.08979852
-0.03100349
-0.05727225
0.03038844
0.01649399
-0.03394029
-0.11682127
0.02801135
-0.01476827
-0.09989241
0.04843040
0.10272402
0.09887103
0.11312700
0.07715175
0.03212783
-0.14871429
0.13819842
0.13470788
0.11315186
0.06535492
0.10260868
-0.03965457
0.03463797
0.01423357
-0.13009553
-0.03536748
0.01498278
-0.06182032
-0.07355646
-0.05396720
0.14958352
-0.14639266
0.06648836
0.08784838
0.10511504
0.06800081
0.11955260
0.16227610
0.12460442
-0.04050389
-0.09616006
-0.06113453
-0.13103482
-0.02616602
-0.13228709
-0.10591409
-0.08770705
0.06395052
-0.00828929
-0.03805362
-0.09761577
-0.09468762
0.09306279
0.01717851
-0.07552416
-0.02368569
0.03221447
0.15688078
0.02675489
-0.13948707
0.04930592
-0.08090436
0.08188809
0.06565206
-0.05711838
-0.06408245
0.11156608
-0.03454291
-0.10359853
0.01598241
-0.08021867
0.07138961
0.09944309
0.09679645
-0.08629094
-0.03421564
-0.03727010
-0.06164611
0.15267859
0.00933004
0.10209490
0.14580417
0.05492074
0.10200799
-0.12531872
-0.06269683
-0.07704745
0.10122805
0.08923135
0.00766734
-0.06481262
0.02639512
-0.04172827
0.06272949
0.09027304
-0.01173847
-0.06576158
-0.04145493
0.00992832
0.06625707
0.12727430
-0.10756598
0.12641591
0.07537070
-0.12230957
0.00646881
0.11605261
0.01773359
-0.11383862
-0.09886426
-0.06983493
-0.09871289
-0.01377973
-0.05204505
0.00745331
-0.01084812
0.03936698
0.07906099
-0.05763672
0.06806822
-0.10733527
0.04469408
-0.14481953
0.13736989
0.10530311
0.07184613
0.14564985
0.05142118
0.07362597
-0.09224007
0.00581599
-0.10851563
0.02112121
-0.07278627
-0.02888591
0.13040273
0.11908031
-0.01897204
-0.04775549
0.01172990
-0.05984347
-0.02201105
-0.01687682
-0.01485581
-0.13034508
-0.06681389
-0.05024370
0.10529490
-0.11512664
-0.06445048
-0.12034419
-0.13047500
-0.00687527
-0.01547680
0.11251205
-0.02551880
-0.03992094
-0.09915020
0.03082186
-0.03427951
-0.06368533
-0.01997599
-0.04234506
-0.00410923
-0.11093321
0.04032765
0.05772197
0.02024479
0.07612470
0.02707264
0.02924342
0.02672895
0.10641389
-0.03164647
0.14477654
0.08209635
-0.01109497
0.12903079
0.10278141
0.02132256
0.13531779
0.03254477
0.11409128
0.00054931
0.04980934
0.03957369
0.14662334
0.10542756
-0.12975933
-0.02893290
-0.12176485
-0.13368620
-0.12719262
-0.02781297
-0.03056110
0.13846771
0.06808824
-0.04830576
-0.09041807
0.09847189
0.06532930
0.05382625
0.07101998
-0.01419516
0.04428429
0.05453496
0.03228531
-0.04953129
0.15423024
0.10204483
0.11423575
-0.02553560
-0.04014376
-0.13674763
-0.05751724
0.13390718
-0.04911524
-0.03050213
-0.10373496
0.06109999
0.08855610
-0.12627636
-0.09838074
-0.01988986
0.12587582
-0.07970604
0.12366257
0.11858003
-0.02803828
0.04029658
0.08903264
0.08084936
0.08274788
0.07622749
0.11893490
0.11288798
0.12620553
0.07903204
-0.00913422
-0.06906383
0.11263219
0.12268851
-0.05708474
0.05163061
-0.02093983
0.11001093
-0.04126534
-0.14636940
-0.06078720
-0.05498903
-0.08718455
0.04769149
0.04770319
0.12797260
0.16887599
0.02984207
0.00931258
0.12385160
0.04163151
-0.15913802
0.10568940
0.10524934
-0.06954432
0.18353279
0.06570923
0.04969141
0.10301891
-0.10136855
-0.00512401
0.09323017
0.05754126
-0.00438212
-0.01102789
0.12449839
0.10824792
0.02963829
-0.03331356
-0.00194130
-0.02185089
-0.03905607
0.09924176
-0.01962306
0.04394329
-0.10900236
0.03962871
-0.09046282
-0.15807749
0.05842114
0.09549402
-0.00907318
-0.04171423
-0.14534232
-0.05658857
-0.12527741
-0.00020436
0.08519383
0.05621275
0.06880634
0.08953983
0.01252739
-0.00859355
-0.03297827
0.02064933
0.00891144
0.02361188
-0.09297869
-0.08238015
-0.13462846
-0.07000019
-0.04627331
0.07603983
0.01374828
0.04151895
-0.00947445
0.15104985
-0.12781255
0.08610287
-0.11229695
0.08119860
0.03258897
0.07625768
0.12152052
0.00495635
0.03863081
0.00806087
-0.14481501
0.13300221
-0.06895363
-0.01012147
-0.10093261
-0.03193892
0.12285782
0.04615638
0.11809345
0.13223867
-0.15062284
0.11527227
0.00966497
0.05779749
-0.04385967
0.12201415
0.09788936
0.04410889
0.02469136
0.05921033
-0.13919933
-0.14611900
0.03660906
-0.08511889
0.12697417
-0.06184227
0.06208679
-0.08671113
-0.08924083
0.06847870
-0.10766649
0.08464647
0.12193387
-0.02502754
0.09713213
-0.02128945
-0.07107441
0.09517532
0.01348710
-0.03294279
-0.05601526
-0.14553887
-0.12442724
0.01048007
-0.15128721
-0.00664555
0.06787825
0.00840174
-0.03606878
0.01749402
0.12267935
0.03259668
0.02914494
0.00430723
0.11632363
-0.02757747
-0.02518686
0.07467058
0.12983227
-0.10087493
-0.04487828
0.06794655
0.13984214
0.07955521
-0.17430371
0.09110583
0.00828531
-0.03190656
0.15500443
0.01820266
0.08896676
-0.04982080
0.10032997
0.02893099
-0.02369161
-0.06651594
0.01943383
-0.10673177
0.00966037
0.10470665
0.10577888
-0.12054434
-0.12414386
0.01522921
0.07054163
-0.02296708
-0.07053977
0.09092784
0.12419114
0.11886176
0.00376464
-0.05025776
-0.05687747
-0.09400877
-0.15291299
0.11396885
-0.02823381
-0.11108329
0.06093879
-0.12959595
0.08639784
0.10141402
0.00078709
0.00149488
-0.05530823
-0.02419014
0.10803738
0.08329345
0.05359315
-0.01476999
-0.11609242
0.01519690
0.05744984
0.08873877
-0.09619811
0.02801667
0.05940896
0.11303496
0.01979566
0.08183250
0.08301111
0.04994416
0.12394159
-0.11874890
0.02581839
-0.12734109
0.06858524
-0.05530014
-0.13444009
0.01300586
-0.00338583
0.05938603
-0.01284673
-0.09070764
-0.00423377
-0.01439357
-0.04156416
0.07466709
-0.06283529
0.04796930
0.07311651
-0.11351115
0.13232255
0.08573919
0.10790473
-0.08133265
0.09158050
0.06304606
0.12164010
0.15783781
0.01454660
-0.07157427
-0.01998249
-0.10230510
0.04468721
-0.09685326
-0.08350673
-0.12375351
0.12014712
-0.11603821
-0.11676526
0.14479539
-0.12511790
0.04879036
0.08783641
-0.12668025
-0.07767680
-0.10287330
-0.11163373
0.06973537
-0.07096796
-0.00842537
0.05474910
-0.11898564
-0.03389320
0.05426050
0.06383520
0.13770291
0.01703093
0.06583203
0.00604920
-0.07853936
0.13238196
0.00566386
-0.06524366
0.05010525
0.12561205
-0.02449144
-0.16986935
0.04387030
0.07281185
-0.08404373
0.00534969
-0.01150553
0.11648756
0.15023041
0.05582906
-0.10648365
-0.05224961
-0.06804179
-0.10190479
0.04941758
0.11594884
0.08178932
0.12083673
-0.06177126
0.06679554
-0.04791709
-0.11286771
0.09779818
-0.07998834
-0.06346766
0.08589828
-0.08915477
-0.05725747
-0.11712296
-0.04402271
0.01363729
-0.04992584
-0.03686862
-0.00790865
0.05145568
0.15507731
0.12840040
0.11524267
0.04577863
-0.07951385
0.01904028
-0.01419048
0.05079766
0.09224081
-0.00726594
0.09674612
-0.06999885
0.03729525
-0.05600070
0.05851612
-0.07547446
0.00437471
0.16592269
-0.06080654
0.02006538
-0.07266925
-0.05569176
0.04491116
0.07074203
-0.10680814
0.11880805
0.07343694
0.01110254
0.09852806
-0.07237974
0.08192566
-0.09904768
0.06852952
0.02189716
-0.09050532
-0.01088578
-0.06017730
-0.10230421
-0.01992182
0.08803079
-0.00684433
0.10661630
-0.08454166
-0.02280527
0.12916549
0.13741456
0.04659768
0.05623481
0.08713088
0.01634363
0.08817366
0.00955766
0.03268752
0.15029322
0.10359216
0.05516602
-0.10163307
0.01002925
0.09476239
0.03512212
0.07079312
-0.11472420
-0.11997459
0.04278573
0.05246953
-0.02274619
0.14729977
0.06588110
0.02269817
-0.01014269
-0.01770542
-0.03597435
0.09535279
-0.03946218
0.01047826
0.05955894
-0.01661840
0.09328713
-0.05555199
-0.01494744
0.02076751
0.12118411
0.12044434
0.11927155
-0.07011294
-0.07009486
-0.00218268
0.09848842
0.00056090
-0.09765432
0.00750742
-0.11773533
0.02183742
-0.13139555
-0.08941973
0.00177402
0.05489394
-0.11131349
0.10436973
-0.02108587
-0.11891902
-0.08163871
0.07070389
-0.05464327
-0.04387238
-0.09149068
-0.09478040
0.00776099
0.10832646
0.10385804
0.02631068
0.04946247
0.10138753
-0.08233514
-0.07387020
-0.02443279
-0.03676090
0.00590811
-0.02293453
0.07626326
-0.01356837
0.01506280
-0.12801203
0.00688824
0.11609901
0.10823522
0.14351338
0.07340267
-0.00427761
-0.10326859
0.05345561
-0.01873263
0.04343765
-0.00199191
-0.11013883
0.07431173
-0.01886861
-0.09757494
0.10491145
-0.09575935
0.06891412
-0.05149559
-0.15861881
-0.06071373
-0.03577062
0.07702469
0.12896706
-0.03165792
0.00918028
-0.10449305
0.12218514
-0.04090149
0.14750433
-0.10798703
-0.10946206
-0.05960972
0.06455180
0.03069810
-0.03017560
0.04009120
-0.04543628
0.11769715
0.12039095
-0.13232005
-0.08557209
0.12199458
0.10345289
-0.01607298
-0.00432485
0.02366480
-0.02850638
-0.09176511
-0.01871795
-0.08592751
-0.15028021
0.00974797
0.14316651
-0.01181394
-0.10638127
0.03143866
0.09433508
-0.07907934
0.07061742
0.04199582
-0.11218265
0.01508193
-0.09764820
-0.09703581
-0.09002242
-0.01614762
0.15528683
0.15883021
0.05593996
-0.00716913
0.01882110
-0.10139181
-0.04660262
0.02172412
-0.07129285
-0.08483365
-0.02970938
-0.00342271
-0.10155968
-0.03847758
-0.09412554
0.03410611
-0.10575695
0.06065232
0.13289206
-0.00241413
0.10172191
-0.13017645
-0.13724566
-0.08556841
-0.10341959
0.14712922
0.06665239
-0.11124130
0.00175719
-0.04029567
0.02031892
0.05516526
0.03765596
-0.11689505
-0.02146210
-0.07305707
0.07772515
-0.04759286
-0.09463798
-0.04702466
-0.06938668
0.10714415
0.00104901
0.11161643
-0.05069284
0.15024184
0.03503283
-0.00178598
-0.11854001
-0.01505274
-0.05543461
-0.16763437
-0.07880294
-0.07758006
-0.07230386
0.04342265
0.03721323
0.11313509
-0.08703186
-0.14608969
0.09348648
0.08059268
-0.06457081
0.16277629
-0.09408408
-0.05358781
-0.03130392
-0.06369644
-0.09276466
-0.13292314
0.03785792
-0.12782213
-0.03645539
0.00789588
0.10404115
0.04593498
0.06456558
-0.07362765
0.00713403
