-0.04821957
0.17545260
-0.09145314
-0.10737944
-0.10178263
0.04442907
0.17624484
0.12542047
-0.03587596
0.05351109
-0.11468139
-0.11452335
0.08787533
-0.02093416
0.03677038
-0.01815288
-0.15182935
-0.10520337
-0.03693016
0.03315820
-0.10074105
0.07247749
-0.12544675
0.11480736
-0.10639207
0.08758260
0.08220912
0.13809873
0.14092313
-0.02624801
0.09694429
0.14168154
0.13510674
-0.08763270
0.12560901
0.02965941
0.20102143
0.00417491
0.06577875
-0.03380474
-0.02369625
0.02182407
-0.02913206
0.18537062
0.14606184
0.13209164
0.00982431
0.20572494
0.07784160
-0.06498292
0.04427901
-0.03223655
0.16787554
0.14160581
0.12806898
0.09253199
0.03765678
0.00538832
0.15310322
-0.00218530
0.06576934
0.13992585
0.16400665
-0.11016297
-0.01910160
-0.14298955
0.07565066
0.14557815
-0.05532141
-0.02642458
-0.07716767
-0.05618275
0.02602618
-0.10998384
-0.02110758
0.00000536
-0.14240617
-0.01203878
-0.09519328
-0.17961204
-0.15274994
-0.02232302
0.06459919
0.02915166
-0.03455532
-0.18148662
0.13771664
-0.09050044
0.15119526
-0.10597165
0.03517665
-0.10476310
0.07752079
0.03457639
-0.00157501
-0.15994576
0.07322623
0.02397833
0.05267914
-0.13614504
-0.05159399
-0.04535390
0.09120716
-0.06140969
0.16597487
0.16391888
-0.01322921
-0.01836057
-0.17084728
0.07906847
0.02146968
-0.12826219
0.09066038
0.03123469
-0.03283904
0.01004073
0.01273867
-0.00111309
-0.16373180
-0.12371416
-0.15911490
-0.11699484
-0.08738361
0.17035402
-0.04948755
-0.09819797
0.03808606
0.16254142
0.12619042
0.09077062
0.05591685
-0.08842319
-0.01063046
-0.10818688
-0.02094745
-0.16994625
-0.16547729
-0.05793446
0.13972203
0.05072092
-0.00361481
0.06143193
-0.07439972
0.14185639
0.10778088
0.17015213
0.08060405
0.07648287
-0.16365120
0.10466973
0.09582718
-0.14567299
-0.00027519
-0.01833116
-0.03384383
-0.01308469
-0.07340106
0.07263304
-0.12575401
-0.12785938
0.07859530
-0.00525593
0.06173006
0.08321718
0.07941303
-0.05817800
-0.11383677
-0.09841782
-0.16336375
0.01329703
0.12383692
-0.13863124
0.11193611
0.07172280
0.00804194
0.19052796
0.00676003
0.20716311
-0.05860259
0.19411537
0.15177743
0.01674622
0.09450590
0.14428738
0.18777055
-0.01202322
-0.01305601
-0.02044640
0.12134155
0.13125432
0.04371277
-0.13694994
0.07059398
0.04441725
-0.10084937
0.00138723
0.00479925
-0.11428088
0.12445927
-0.13516523
-0.01941639
-0.07639390
-0.01561055
-0.03190719
-0.04063891
0.17262019
0.02724510
0.16162466
-0.12275932
0.19793592
0.20058280
0.15508029
0.18037871
0.10006238
-0.05054771
0.00424403
0.09082385
0.10497893
-0.05918272
-0.10882492
-0.02954224
-0.08877619
-0.13883746
0.20201191
0.16241227
-0.04610385
0.09790411
0.06731733
-0.02090902
-0.03495578
-0.03157766
0.02244873
-0.02715438
-0.00367711
0.11185778
0.04511071
0.10794561
0.16687071
0.08644986
0.11834219
0.02330002
-0.03259716
-0.14300521
0.06714904
0.20869890
0.13135731
0.13903995
-0.08579756
-0.05495236
0.06054728
-0.12826063
0.00071915
0.06996206
-0.07002942
-0.09668278
0.02881361
-0.03283692
-0.09367137
0.03464701
0.01316116
0.17682153
0.11352526
-0.11286120
-0.04248079
-0.14128599
0.13937056
-0.03711512
0.05344031
-0.13030276
-0.06595846
-0.06565286
0.09507026
-0.00708884
-0.05923254
0.17591734
-0.00857326
0.04306650
0.02324056
0.12079623
0.17032653
-0.17314509
-0.17016405
-0.11197800
-0.18141389
0.06248628
0.08165994
0.00936937
-0.13542534
0.01386622
-0.02739824
0.03257665
-0.05307894
0.12808502
0.03180610
-0.14794633
0.18500912
0.11938458
-0.10445375
-0.13869406
-0.02849405
0.06548209
-0.15095933
0.10417278
-0.16504414
0.10672887
-0.16857524
0.15558459
0.04151215
0.00708270
-0.02429523
0.08942737
-0.14512834
-0.01594497
0.21590826
0.07268425
-0.12709409
-0.09112217
0.05672766
-0.06279337
0.07544991
-0.05081851
0.14102997
0.03938436
0.05365254
0.14539568
-0.07187433
0.12434792
-0.12389548
-0.01897392
0.15314591
0.19665167
0.08569571
-0.07446119
-0.17002246
0.07918783
0.14553505
-0.12098321
0.00820509
0.12715718
-0.13321565
0.11881983
0.05315169
0.03069006
0.03827618
0.11147704
0.14459756
-0.04613573
0.08053468
-0.09967873
-0.08413441
-0.12957050
0.17776066
-0.12852088
-0.18181972
0.16825223
0.09938275
0.03089910
0.01547410
0.05296811
0.10747698
0.14910966
0.12741882
0.14586592
-0.15620719
-0.12127218
0.16113243
0.14202566
0.20803751
0.14472187
0.11043296
0.18518300
-0.15816125
0.14827788
0.17373101
0.03952295
0.13593040
-0.10836279
-0.14223562
-0.20128964
-0.10929842
0.03768621
0.00986187
0.05813405
0.03607094
-0.04082097
-0.15978700
0.09482855
-0.08813690
-0.11267297
0.01518819
-0.08807851
0.07763778
-0.01818637
0.00166202
-0.01352924
0.18702838
0.18312953
-0.04773173
-0.19859894
0.17534478
0.20704743
0.04173172
0.01284009
0.18150818
-0.00435886
0.00535610
0.05347622
-0.08711052
-0.13983698
-0.14056267
0.15034865
-0.01044276
-0.05550390
0.12875050
0.09473583
0.12063873
0.14081371
0.18177260
-0.15755846
-0.03439037
-0.09184003
-0.09197477
0.18055381
-0.10568993
-0.01010125
-0.07427117
0.02427560
0.14959069
0.03173811
-0.05787421
-0.00869159
-0.13736846
0.06282666
0.09867431
-0.13462676
0.13420959
-0.09536783
0.12796420
-0.08623697
0.10406552
-0.07805199
-0.00695789
0.04586195
-0.03695505
0.16377562
-0.15395997
0.08746526
0.05783933
-0.08830827
0.11101227
0.05922336
0.03261225
-0.03626681
0.13981919
-0.13902774
-0.04659161
-0.09437142
-0.10876766
0.05566445
0.15311766
-0.11973270
-0.14059879
-0.12902109
0.00443287
-0.15832290
0.02585404
-0.10049949
0.15975143
0.00390879
-0.03097999
-0.11172090
-0.12339645
0.06742019
-0.05606288
-0.03819431
0.07969404
0.09838428
0.14742316
0.08350520
-0.03764573
0.01584120
0.14047410
0.12833819
-0.18163286
0.05374799
-0.01810757
0.04768838
0.02051364
-0.12402982
-0.04479955
0.05877685
-0.11989246
0.09763029
-0.10806643
0.07407248
0.18898593
0.17176247
0.15670890
-0.13455550
0.19349252
-0.11792599
-0.08244345
0.10681207
-0.04405099
0.01998460
0.05363285
-0.15391381
0.07104581
-0.08753657
0.07358509
0.02923202
0.19747582
0.20716868
-0.03229482
-0.06578353
0.09839720
0.17130776
0.00275671
0.02674545
0.17720868
-0.04645209
-0.05297713
0.04196498
0.14342216
-0.09516144
0.00759668
-0.03303390
0.00674504
0.01725883
0.07468415
0.03422472
0.10787121
0.04744507
0.19356579
0.18270686
0.04490252
-0.07825390
-0.01989541
0.11407305
-0.09698315
0.02403413
0.21737437
-0.09500726
0.10088386
0.12148366
-0.03291177
-0.02816190
-0.07383474
0.01183313
0.12743866
-0.10928378
-0.11028124
-0.13528551
-0.06639723
0.19293658
0.00346075
-0.02901745
-0.12213262
-0.03810136
0.04921933
-0.03088838
-0.04990173
0.06043595
-0.03590871
0.06690074
-0.17151570
0.06603278
-0.16011240
0.11405332
0.16233575
-0.04738959
-0.11259855
0.16609640
-0.12474818
-0.01775455
0.08390677
-0.10470779
0.08386201
0.15621276
0.19605410
-0.13525306
0.05652013
-0.15347490
-0.10770192
-0.08963114
0.08435615
-0.01782545
0.02452439
-0.09735207
0.02555776
-0.09539533
0.16948628
0.03646160
0.01694240
0.19401036
0.05394382
0.20077415
0.12568715
-0.02192562
0.04418021
0.06588487
0.04868332
0.09404407
0.15861474
0.01500915
0.15576176
0.15560202
-0.04362054
0.04167448
0.05376602
-0.05457680
0.07236271
0.05913957
0.16327049
-0.13103774
0.01154034
0.08361746
-0.02902779
0.15552941
0.05838692
0.11766186
0.19740242
0.18157777
0.09157923
-0.14308506
0.12912701
0.14395605
0.05078436
0.09564968
-0.05113781
0.11030287
0.07912561
-0.08638021
-0.11724970
-0.05820938
-0.00172659
0.09149949
0.12981747
0.09762750
0.10046894
0.08323210
0.06779881
-0.10626081
-0.13786092
0.07860880
0.06581522
0.03693413
-0.12076844
-0.06563248
-0.08428966
0.06430539
0.22687687
-0.00813589
0.04054649
0.18239951
0.09906927
0.05011420
0.17493884
0.06063069
0.18589807
-0.13784577
-0.12957041
-0.00865556
0.16949067
0.13828854
0.02181006
0.13819695
0.04214804
-0.08260187
0.17443119
-0.14536901
-0.15954366
0.09027761
0.04705904
0.10753015
0.17697695
0.00916344
0.13589634
-0.15154938
0.18285778
0.13265228
0.05967457
-0.14440186
0.14345218
0.16704522
0.12179988
-0.01388509
0.09139407
-0.10670854
0.09862842
0.10191866
0.13887671
-0.12292584
0.03745690
0.21285877
0.09166813
0.12104401
0.10247207
0.11490630
0.17432000
-0.07276203
0.20495836
0.14467444
0.12681045
-0.09108600
0.10090727
-0.10839546
-0.06871916
0.07505640
0.04234949
-0.02033141
-0.10667227
0.19409347
-0.02971845
-0.05089218
0.15787910
-0.15828048
0.20630465
0.00355749
0.18572442
0.06596942
-0.01661479
-0.16581666
0.07883774
-0.00980531
0.15148899
-0.08316506
-0.09313890
0.02673466
-0.04864274
0.06849995
0.10793102
0.06854569
-0.07019685
-0.05978030
0.07108049
0.13621107
-0.06488014
-0.06286960
0.00892673
0.19431771
0.20074083
-0.15488183
-0.07911114
-0.02056119
0.20358831
-0.01512312
-0.07098973
-0.02266539
-0.04555929
-0.05334102
-0.07930498
0.13195816
0.00417042
-0.05588621
0.09266411
0.07553426
0.18844843
-0.12977269
-0.09138396
0.04486674
0.02230944
-0.01947320
-0.09512147
-0.13363421
0.05184833
-0.12584116
0.14486039
-0.17662248
-0.03640504
0.00617745
0.10283812
0.09993482
0.15418002
-0.11129679
0.18197531
-0.12952347
0.20117737
0.05459946
0.00872501
-0.15463421
0.05419556
0.01645089
-0.13265504
0.17624235
0.14612730
0.10110623
0.10950625
0.00073610
0.19619398
0.13202147
0.00765667
-0.13301939
-0.02397198
-0.09999851
0.04494606
-0.16123702
-0.07915891
0.10534985
-0.06272016
-0.11024125
0.16986135
0.13779525
-0.14526959
0.08294000
0.13083853
0.15984239
-0.06251207
-0.03096017
-0.03656020
0.18140511
0.00035336
0.10924775
-0.13995822
-0.01177860
0.02491244
0.18505108
0.18313213
0.06597053
0.07362815
-0.06039516
-0.08661502
0.01447051
-0.02227529
-0.14297922
-0.09228190
0.16962510
-0.15464029
-0.17969011
0.15705650
-0.07399676
0.01643124
-0.11289973
-0.13420838
0.07009710
0.06398370
-0.16699527
0.18376105
0.15288891
-0.13470632
0.07093801
0.00634811
-0.08570343
-0.01083213
0.10345204
-0.15024517
-0.13462895
-0.01037655
-0.01343295
0.12317529
0.00202227
0.09740871
0.10403268
0.01568527
-0.14396642
0.00684581
0.00447574
0.14459291
0.05081823
-0.13557437
-0.15699063
-0.13556588
0.06484264
-0.14065246
-0.04386761
0.06971975
-0.16181307
0.09891851
0.00717315
-0.01989000
-0.00534031
0.07636747
0.07984775
0.02211015
0.04338988
-0.09874927
0.00801167
-0.06867108
0.13002272
-0.00629444
0.11687512
0.16852772
0.16744795
0.11054036
0.16948760
0.18254198
0.08905719
0.02193341
-0.03503332
-0.01959042
0.19174142
0.17783214
-0.03836617
0.08923040
-0.10193710
0.19700548
-0.11061557
0.21879092
-0.00699059
0.16655843
-0.07970230
0.08174229
0.16116937
0.01425090
-0.15536064
0.09477040
-0.03486405
0.20105135
0.01500739
-0.04419860
-0.04270229
-0.03836601
0.08973965
0.10369764
0.13917938
0.09736727
-0.10250575
-0.12735745
-0.00297543
0.18541341
-0.11360380
0.12775616
-0.14287370
-0.06528866
0.17266065
-0.04726128
0.06128113
0.08630408
0.14610298
0.04161259
0.04246126
-0.07338846
0.17201668
-0.10669018
0.08269566
-0.08377086
-0.04436147
-0.07088538
-0.15340094
0.04446208
-0.11430770
-0.03852082
0.13873191
-0.14626168
0.17828234
0.13689213
0.10618384
0.02821955
-0.13123360
-0.04896268
0.10722830
-0.13048637
-0.09672480
0.16495772
0.06981200
0.00768622
-0.03624639
0.16615361
-0.10203676
0.05791089
0.07975345
-0.01679355
-0.10245474
0.03190043
0.03198803
0.08350566
0.03779564
0.05430282
-0.15604988
0.15845984
-0.15834543
-0.09517653
-0.12875369
0.02126285
0.19775622
0.07893224
-0.03999188
0.02747624
-0.07598209
0.12958394
0.20939066
0.05010216
0.13448614
-0.12033696
0.17047526
0.08320761
0.18639190
-0.04228610
-0.14869392
0.05351734
-0.01293603
0.05921960
0.18558857
0.18986078
0.18806897
0.15783313
0.16604985
-0.03401502
-0.18585061
-0.12216846
-0.00077775
0.00185551
0.14759082
0.00577174
0.18804517
0.09453402
-0.00868104
0.02120147
-0.05299889
-0.10610176
0.14365967
0.09613816
0.18260266
0.11416622
-0.04159799
-0.12980253
0.14622203
0.10970359
-0.14793779
-0.01383255
0.18674715
0.21020637
-0.17181474
-0.01231224
-0.14384721
0.00139189
-0.02640561
0.05914124
-0.12789324
0.11819152
0.13530368
0.08115628
0.16047065
0.12504552
0.05772146
-0.04206358
0.14665338
0.04388474
-0.18607494
0.16251665
0.19352162
0.11874022
-0.04077822
-0.01183112
0.09341209
-0.08558992
0.18846183
0.20110273
0.05824928
-0.13066018
0.11887291
0.12068298
0.04114956
-0.11936585
-0.02868865
-0.03569977
-0.04137672
0.10137790
0.11284226
-0.02556374
0.07291957
-0.08569197
0.18288530
0.08394810
0.19227368
0.13990575
0.18656735
-0.04645336
0.09990210
0.13358772
0.11885646
0.15672493
0.14061341
-0.09065732
-0.16842419
-0.03595287
0.06463907
0.13442425
0.13618445
0.14639363
0.05464907
-0.06705238
-0.05697908
-0.02983634
0.03439549
0.07875822
0.05442160
-0.07150567
0.06828044
-0.03925198
-0.01128251
0.09489368
0.14300860
0.07514310
0.04327833
0.12285256
0.10595449
0.10609015
0.00100539
0.06454095
0.16416673
0.12158767
0.16914220
0.13111198
0.07757371
-0.04342246
0.13313173
0.18867938
-0.15906389
0.13366535
-0.13610913
-0.03708179
0.14314261
-0.06497969
-0.14374714
-0.07249952
0.15998341
0.08926748
-0.16196851
-0.10682764
0.00554357
0.00324948
-0.16206495
-0.04343254
-0.06204998
0.08585060
0.16626124
-0.14925601
-0.11987706
0.07347009
0.08867826
-0.03963849
0.06048511
-0.04119981
0.16770139
-0.11518506
0.12947093
-0.13520826
-0.13706297
-0.14440413
0.12597011
0.11978819
-0.02236121
0.02140783
-0.03937797
-0.06068000
0.06895246
0.12274698
-0.19422172
-0.00258121
0.00421340
0.07774883
-0.15027885
0.03621611
-0.05614417
-0.09324476
0.10550465
0.04926779
0.02184204
0.10158946
0.07194208
0.17009422
0.00068404
-0.11774385
0.06818988
0.04156358
0.13423167
0.08314128
0.08708720
0.13266179
-0.02927492
0.19911042
-0.11285336
0.10749865
0.05959672
0.20200825
0.20523477
-0.02903898
-0.09927534
0.04024881
-0.13133276
-0.10785982
0.07382829
-0.07025483
0.12826598
-0.04488024
-0.09114837
-0.01763633
-0.13694282
0.16977505
0.02754533
-0.02737719
0.00681826
-0.06602254
-0.09337694
-0.10483764
0.06740177
0.13169597
0.03743931
0.00443885
0.12881942
0.11138873
0.03276871
-0.06305660
0.14454658
0.00816135
0.08472789
-0.05799679
-0.14965849
0.14843659
-0.09511823
0.05970817
0.10705301
0.08270057
0.00722773
-0.10823455
0.02492162
0.13772804
-0.10932107
0.05765431
-0.00579780
-0.05992210
0.02204848
0.06170438
0.12162105
-0.09360952
-0.07816250
-0.03908765
-0.13042191
-0.04060056
0.01105585
0.09437867
0.11420549
0.02641459
-0.00099724
-0.09519270
0.06745595
-0.10675105
-0.19301456
-0.02288316
0.15087116
-0.11822075
-0.03106306
0.13956311
0.02612386
0.01699403
-0.02656390
-0.09165061
0.11921511
0.15640600
-0.07659268
-0.11993010
-0.05016938
0.11333451
0.02180883
-0.07772049
-0.08661682
0.09918291
-0.16383679
0.04401435
-0.09501266
-0.04635009
0.17710589
-0.13580185
0.07048219
0.01915725
-0.10243835
0.17579357
0.03603899
0.18445893
0.19862807
-0.05582286
-0.12310183
0.18968984
-0.07184125
-0.00371829
-0.15454903
0.11429328
0.02394454
0.05658875
0.10475184
0.06852958
-0.10504153
-0.08473592
-0.05626194
0.19636571
-0.10423114
0.13948186
-0.14736453
0.05357062
0.17559233
0.02357915
0.21356565
0.20939645
0.12455835
-0.10818575
0.12074002
0.08588931
-0.12684624
0.02827035
-0.01365338
-0.05006261
-0.16012663
-0.00607758
0.13983060
0.02603043
0.10359243
0.02270063
-0.03102855
0.02627369
0.07890821
-0.00579411
0.03848858
0.05781486
0.08707061
-0.09850962
0.02356314
0.10546818
-0.06510571
0.06199355
0.05352103
-0.13226032
0.01535047
0.14902760
0.19651321
-0.02714923
0.00000609
0.08099355
-0.16733822
-0.13020504
-0.01112961
0.12772234
0.11591808
0.16260780
0.03804236
0.03947287
-0.07639092
-0.02807670
0.06076808
-0.07665620
-0.10988250
0.09113508
0.17906751
0.20025210
-0.07828105
0.11974648
0.03570660
-0.11370788
0.01839842
0.04049950
-0.01628054
0.19648665
0.15903012
-0.01729396
-0.05126632
0.07900177
0.05684252
0.07933472
-0.09731190
0.07225293
0.12214133
-0.09649348
0.00200159
0.03127890
0.16267137
0.06968810
0.19687057
0.06137089
-0.06123354
-0.08628780
0.02482191
0.01897006
0.15655562
-0.02684905
0.18522120
-0.15342368
0.08943983
-0.07926913
-0.09253024
-0.06416519
0.09545565
0.16093577
0.04213455
-0.03347857
-0.10241523
-0.07936594
0.01501787
-0.03782264
0.06123223
0.03377299
0.03414599
0.04095844
-0.08575977
0.13655482
-0.13758804
-0.14681135
0.05873701
0.09532577
-0.16890287
-0.03468982
-0.11203982
-0.14382754
0.20209369
-0.15157855
-0.03809609
0.00102548
0.11142501
0.17957765
0.13740905
0.08041108
-0.08596032
0.12134857
0.06579413
0.19267996
0.08312647
0.11628015
0.02002461
0.10109311
0.01452122
0.13744253
0.14852147
0.05231604
0.15535213
-0.06304172
0.08924842
-0.13313350
-0.15469371
0.03989220
-0.06098665
-0.03292888
0.05691458
0.07559929
-0.10505606
-0.09639339
-0.03995766
0.03186892
-0.07753076
0.05163746
0.13719775
-0.15555814
0.01244642
0.08364886
0.13724078
0.06022500
-0.04360496
-0.04545972
0.06572273
0.21744443
-0.15731467
0.17690147
0.16368614
0.15310703
-0.01846568
0.10788381
0.03446419
0.12106568
0.00311795
-0.00511722
-0.05994535
0.16099571
-0.11156069
0.17393307
-0.16820119
-0.06201272
0.11841232
-0.05899059
0.06261884
-0.10053519
0.17118423
-0.14044024
-0.08132959
-0.02727984
0.14236251
0.00227405
-0.15582766
0.14057568
-0.01337486
0.19579317
-0.09816242
-0.13348429
-0.13474496
-0.05350032
-0.08910009
0.18633710
0.02762994
-0.09966881
-0.06775431
0.12012247
-0.15740429
-0.15519416
-0.05430663
-0.12285203
-0.00859755
-0.00427704
0.00490219
0.09380607
0.18519934
-0.12700129
0.14229569
-0.00158425
0.16095036
0.10404693
-0.07982357
-0.00846511
0.17583321
-0.06804062
0.04444729
-0.02143585
-0.02236287
0.15804750
-0.02524851
-0.02806187
-0.14778934
-0.05837671
-0.15376204
0.11141279
-0.12718146
-0.00936265
-0.06150511
0.09393743
-0.10638478
-0.06039624
0.00328825
-0.09113544
-0.00532131
0.05671833
0.17914337
0.08463441
-0.13683106
0.10965341
0.00565569
-0.13876785
0.02863810
-0.04883856
-0.15424551
0.17017008
-0.05843011
-0.07108228
-0.11832188
-0.13811268
-0.09558712
0.02476427
0.07879789
-0.05863350
-0.12994327
-0.02495830
0.17164001
0.12681189
-0.00584540
0.12406623
0.18853238
0.01107202
0.18947348
0.17289269
-0.10527015
-0.09891491
-0.07710179
-0.00779057
-0.11176030
0.10638963
-0.07054822
0.03336618
-0.10525350
0.08635540
0.05203265
-0.10196420
0.07155573
0.16306540
-0.10844874
-0.06304062
0.11640444
0.12627994
0.07252651
0.09955480
-0.08739671
0.09222773
-0.09940985
-0.12802313
-0.14704525
0.02563142
-0.07226232
0.01426423
-0.10027432
0.18852009
-0.06874733
-0.18091367
-0.05095429
0.05659802
0.00499855
-0.18275653
-0.03922643
0.16232520
-0.10628600
0.14144358
0.21842158
-0.04454784
0.03413812
0.06810811
-0.14559859
-0.08441596
