0.00584921
-0.05892169
0.00260570
0.02082961
0.02757118
0.03774663
0.00646174
-0.04389580
-0.01531457
-0.02672657
0.00415988
-0.03548573
0.00247183
-0.03794881
0.04736443
-0.03503253
-0.02485372
0.03199485
0.01905873
-0.05234156
-0.00331656
0.04533382
0.01169498
0.02686045
-0.00827231
-0.04881785
0.00263136
0.01249467
-0.02687239
-0.02000201
-0.01043151
0.01038976
-0.00067061
-0.01705328
0.02503187
-0.01380803
0.02909593
-0.01787750
-0.04471587
0.00465934
0.00797556
0.02675587
-0.01598938
-0.01713773
-0.01059118
-0.02937458
-0.03267362
-0.02182199
-0.01472841
0.01394655
-0.03372956
0.02049793
-0.02201509
0.00894168
0.01919267
-0.04259132
-0.02219249
-0.01639383
-0.02615184
0.04486964
0.02439050
-0.00002788
0.04086604
0.01193867
-0.03227635
0.04765213
-0.01532861
0.02138891
0.04348828
0.06200214
0.01413794
-0.00891009
-0.01909156
0.00033650
0.01071279
0.00704128
-0.01243434
0.03988729
0.03487546
-0.05664263
-0.00945299
0.02263018
-0.03474128
-0.01375621
-0.00835093
-0.00410246
-0.02991156
-0.01037027
0.06558728
0.03631384
-0.00907923
-0.02076382
0.00403938
-0.03147753
-0.00096594
0.03835596
-0.00462631
-0.02490378
0.01809377
0.04146414
-0.00514139
0.06163556
0.00494215
0.05411300
0.03983488
-0.00132445
0.00761462
0.02282454
-0.03175410
0.07630063
0.07249507
-0.01369778
-0.02360780
-0.01731550
0.02050275
-0.00166677
0.03570490
0.03292397
-0.01797357
-0.02156403
0.02202895
0.03457750
-0.04952129
0.00058623
-0.01193238
-0.00974844
-0.00013807
0.01007739
0.00271906
0.07079022
-0.01174422
0.02451870
0.00511192
-0.00088751
-0.00395177
0.03925564
0.01089120
-0.02661092
-0.02065033
-0.00109900
-0.00267003
0.06532914
0.01653116
-0.02038392
0.05042252
0.03739258
-0.02433787
-0.01301855
-0.03015179
-0.02695907
0.00649141
-0.04608375
-0.00531940
-0.04594852
-0.00932534
-0.00245267
0.00230219
0.00397148
-0.00815170
0.01776621
